0
-0.10068783
-0.14092
-0.046148196
-0.08327225
-0.14778048
-0.01634415
0.092941195
0.007217571
-0.0355683
-0.049420264
-0.12124393
-0.11604769
-0.10675433
-0.075702675
0.03654409
0.008715776
-0.017785277
-0.17367192
0.24892813
-0.03712652
-0.08631606
-0.06299584
-0.05795699
0.07906163
0.014384217
-0.041933633
-0.07326612
-0.06545612
0.12171618
-0.011304815
-0.11074449
-0.094160534
0.0741433
0.057184193
-0.1962878
-0.08350737
-0.027856082
0.05574451
-0.054085184
0.027576959
-0.04963089
-0.05175161
-0.002955885
-0.018758588
0.13912527
-0.06679127
-0.07038035
-0.04550854
-0.0559298
-0.0880053
-0.16457283
0.06251546
-0.038779397
-0.03771641
0.015732385
0.04301769
0.06795544
-0.06658496
0.08413101
-0.106062725
0.026090054
-0.08569088
0.13866426
-0.12713541
-0.055067793
0.07659979
-0.09895342
-0.030635186
-0.04844991
-0.0039144726
0.014727465
0.038735654
0.022255162
0.057332017
0.023639549
-0.06667317
0.026618874
0.009096748
-0.15500253
-0.06756811
0.033943404
-0.083351776
-0.010157031
-0.013879976
0.0885756
-0.042051505
-0.016132122
-0.013910124
-0.036890548
-0.073232755
-0.03079411
0.029826239
0.109321676
0.009207936
0.01997665
-0.087412305
-0.026858145
0.12513518
0.026346706
0.09961926
0.022334142
-0.007382
-0.2669114
-0.02970768
0.089942954
-0.016020324
0.0010607564
-0.011839971
0.033699915
-0.033635613
-0.16492338
-0.0519287
-0.12949078
-0.103516564
-0.05077335
-0.1916715
0.12663823
0.082436234
0.07901161
0.060998835
-0.09028244
-0.09876171
0.012014882
-0.046888627
-0.03649685
-0.05530015
-0.027500968
0.07089108
-0.023934927
-0.13802357
0.08324701
0.08857835
-0.027232442
-0.18737352
-0.0392049
-0.23948777
0.032445464
0.008807532
0.1664835
-0.18948767
0.028349634
-0.111212835
0.06910822
0.015608979
-0.026579294
-0.06546038
-0.1790183
-0.02042067
-0.05431013
0.08367334
-0.038783707
-0.14282598
-0.042650018
0.04058903
-0.004318365
-0.015484614
0.07691936
0.032517914
-0.1758231
-0.05383905
-0.074164495
0.3139026
0.094092816
-0.009516417
0.07228001
0.1143115
0.07845607
0.028824693
-0.014038926
-0.10261454
0.1577404
0.009682818
-0.07148511
0.028096559
-0.0635399
-0.09327214
-0.10741222
-0.060211137
-0.070994295
0.013319778
-0.03807782
-0.15903816
0.08525887
0.06426672
-0.04915028
-0.32892257
0.13951623
-0.18025623
-0.241973
-0.060980406
0.07457302
0.015244326
-0.23564626
-0.19419414
-0.09769899
0.009881752
0.044218782
-0.03834995
-0.081720814
-0.14005472
0.14836285
0.1639658
-0.10560105
-0.011238772
-0.03927263
-0.0010330043
0.13483477
0.10328696
0.03780044
-0.04183561
-0.06487204
0.049439467
0.093937665
-0.01506599
0.12718447
-0.06039256
0.16290334
0.097392194
-0.021860566
0.01858174
0.115390025
-0.07413193
0.075069666
-0.018765824
-0.004359202
-0.08178221
-0.21006504
0.17285009
0.07487598
0.03326578
0.0550585
0.018384185
0.032794636
-0.020639982
-0.11334418
-0.1543514
-0.057796024
0.1283466
0.23652562
0.10126119
0.004457908
0.15511197
-0.018589221
-0.08974781
-0.035466146
0.14384633
-0.06554213
-0.2238102
0.23155579
-0.24005751
0.01731778
-0.1056379
0.009186197
0.04270354
-0.0007974263
0.06952384
-0.039932866
-0.15117648
-0.038229372
0.15874895
0.074805684
0.17433174
0.02826163
0.019086514
-0.04922502
-0.069167964
0.060905218
-0.16227993
0.04012102
0.0017061504
-0.046034772
-0.0037945095
-0.0051659527
-0.1192576
-0.04904865
0.15853772
0.16303614
0.015283141
0.004101263
-0.07001558
-0.10818085
0.0672134
0.055159062
0.021901788
0.06214447
-0.009207502
-0.052762214
0.10750191
0.15440972
0.109935686
-0.123674616
0.08426413
-0.03765609
-0.04543646
0.029057588
-0.113241404
-0.03906771
-0.08656785
-0.030242002
-0.010329137
0.08134759
0.090605795
-0.15436403
-0.16008131
-0.079106666
0.18848778
-0.1182264
0.09208596
0.061949693
0.040678155
0.008058626
-0.016048307
-0.030464374
0.025760274
0.05183799
0.05687669
-0.13347493
0.08976759
0.14027728
-0.054885946
-0.058065373
-0.20567001
-0.06961833
-0.056848824
0.15043655
0.025959909
0.09928744
0.034268674
0.0075030006
0.10836359
0.015487957
0.014241448
-0.067326136
-0.14233549
-0.04904937
-0.026247095
-0.034022797
-0.12303627
0.043470282
-0.08015442
0.04628273
-0.010037277
0.20371643
-0.011377457
-0.0629188
0.03915431
0.006205642
-0.1113733
0.062477417
0.042777877
0.053356525
0.027254827
-0.021887466
-0.07514771
-0.037904944
0.13115126
0.0071628
-0.037999626
-0.06848729
-0.03334305
0.08202855
0.026478283
-0.035035353
-0.013466716
0.012322766
0.020330675
-0.03684058
-0.1442064
-0.111094795
0.038435698
-0.011734107
-0.13527992
0.106824994
0.062878445
0.021519803
-0.08143603
-0.2621242
0.052820258
0.037076093
0.08400161
0.03228752
-0.08633247
-0.05098375
0.19197069
0.02195997
0.082337245
-0.0067963107
-0.08831019
0.12468248
-0.14736316
-0.21058159
0.023076251
-0.032002136
0.005745684
0.0046712672
-0.027505288
0.009847576
-0.03399417
-0.022686621
-0.028636409
-0.03002203
-0.07466284
-0.04834466
0.06145356
0.04306468
0.061271593
-0.09042305
-0.02501539
0.024489632
0.039734222
0.06837782
0.0035916716
-0.01784496
0.035869468
0.06485858
-0.14194642
-0.05834418
-0.0038687435
-0.05142228
-0.062253337
0.037159048
-0.09301228
-0.015809035
-0.023730844
-0.026062021
0.0041605374
-0.12690665
0.08771434
-0.039378557
-0.21723518
0.007955569
-0.08556507
-0.039415997
0.011372647
0.26398033
0.08678663
0.030633891
0.08236906
-0.09062918
0.033264834
-0.12815067
0.052211653
-0.056479674
0.038665075
-0.1344172
-0.14722916
0.08800432
-0.0785073
0.0007301221
-0.054977722
-0.090391815
-0.054188002
0.05020162
-0.052156806
0.0060541243
0.001738436
-0.028910834
0.08922794
-0.07040588
-0.086290866
-0.17947796
0.05992676
0.04515456
-0.16763611
-0.16305886
0.0022426744
-0.17411414
-0.15948422
-0.0752533
0.032835003
0.30453056
-0.022795253
-0.13700019
-0.21927202
0.034641236
-0.0067155394
0.21084605
0.0721097
-0.050320573
0.12942696
0.022066021
-0.15960336
0.04043535
-0.030930035
0.050867867
0.06402654
-0.04277485
0.008258737
0.04176566
-0.04472949
0.05999526
0.038025092
0.010852909
-0.010461747
0.073604904
-0.061373826
0.014943147
0.00030036055
0.042579833
-0.086700425
0.060093015
0.0030085288
0.089997634
-0.13411061
0.066879444
-0.0052194083
0.00854877
-0.048355404
-0.05171765
0.10630003
-0.029480653
-0.1596407
-0.21732992
-0.15352207
0.03991251
-0.20716248
-0.14749773
-0.09340866
0.12778293
-0.11365242
0.08103444
0.009434899
0.12732618
-0.27336627
-0.16528411
-0.062604986
-0.009736472
-0.056181304
0.0010164003
0.08925618
-0.10364661
-0.070394695
0.0972484
-0.060229145
-0.08908895
-0.15255725
-0.0016118253
-0.047265247
0.0830534
-0.008118818
-0.047851745
-0.08862642
-0.012141339
-0.19334587
-0.04971742
0.027818777
-0.17879593
-0.138208
0.08544342
0.0057671135
-0.025519066
-0.1187311
-0.037807602
0.110477835
0.15352525
-0.12941375
-0.02015804
-0.023537781
-0.13584347
0.083337046
-0.185173
-0.21290249
-0.15368928
0.11652688
-0.12766929
-0.105419636
0.027017098
0.026853822
-0.095763735
-0.059522495
-0.17751534
-0.19666743
-0.09692656
-0.124134585
-0.14277537
0.08092142
0.04415554
-0.24924348
-0.07124307
-0.046396974
-0.047500275
0.006541465
0.10894507
-0.031207629
0.08793072
0.15429796
-0.035088617
0.01566676
0.018384458
-0.05771595
-0.05955997
0.059361797
-0.016517852
-0.01459688
-0.050213255
-0.017701605
0.15632433
-0.028185155
0.032320935
-0.016758533
0.12898926
-0.071095444
-0.0023927228
0.0013412373
0.032708477
0.10365071
-0.06690007
-0.07883813
0.011118003
-0.05766394
0.005185267
0.0441133
0.08407511
-0.1083596
0.16787001
-0.08093031
-0.039339352
-0.052100018
-0.039586306
0.133817
0.021930305
-0.047583472
0.10387209
0.03646894
-0.035467666
-0.16184513
-0.019502474
-0.09450569
-0.007909124
0.07023443
0.0227864
-0.03629873
-0.17882721
-0.1298009
-0.051214725
0.042032436
0.010026472
-0.112451956
-0.024386274
-0.07194091
-0.1506607
-0.035441794
-0.000121711564
-0.12676205
-0.106604464
-0.11391256
-0.049229667
0.058726136
-0.071133055
-0.018434763
-0.08574195
0.024135528
-0.18117471
-0.10751203
-0.039551422
-0.1108953
0.011526975
0.073250026
-0.22803076
-0.09763516
-0.18060789
0.023533141
0.08715451
-0.13054447
-0.033251297
-0.07791851
0.094414815
0.044066742
-0.09213266
-0.19830921
0.006332108
-0.18145822
0.0063943155
-0.15673989
0.0032110265
0.0768018
0.035327014
-0.078637004
-0.035080817
0.100975096
0.013002744
-0.080073185
-0.09757121
-0.19467987
-0.05220048
-0.09756716
-0.045971446
0.024793502
0.2502008
0.08371808
-0.2839633
0.14880618
-0.051156662
-0.015507402
-0.13389786
-0.033451844
0.16547532
0.008853806
-0.0354672
-0.087092765
0.061564606
0.16129033
0.012034296
-0.27080613
-0.11631572
-0.079461455
-0.007817149
-0.037176628
0.07474329
-0.055105507
0.0058896677
-0.21165903
0.09314759
-0.041463573
0.06357971
0.063594095
0.024368174
-0.0905791
0.19056457
-0.10260892
-0.011545132
-0.16205436
-0.04938339
-0.033879336
-0.16640685
0.006914154
0.068285994
-0.0058458704
-0.1352365
0.18399195
-0.027711451
0.0635741
-0.10275233
-0.3123818
-0.026880616
-0.0888984
-0.010681473
-0.0027497837
0.10054862
0.041222315
-0.17497891
-0.16735703
-0.1785986
-0.006170233
-0.056404363
-0.056227785
0.10213243
-0.08505058
-0.053157955
-0.096147306
-0.020626154
0.025755506
-0.060363285
-0.023272118
-0.0020023875
-0.035814587
0.07978227
-0.13141465
-0.0570806
0.017497463
-0.309102
-0.020220093
-0.029410556
-0.2807057
-0.034858182
-0.04400496
-0.0049152933
-0.05803509
-0.021072865
0.16052575
-0.016475497
0.14555134
0.0038714902
-0.099636495
-0.31780723
-0.06699887
-0.026634699
0.011383426
-0.060273424
-0.090840794
-0.031983804
0.10209763
0.07037914
0.038057387
-0.02457667
0.11283125
-0.004731977
0.17746347
0.086212434
-0.157185
0.030209089
-0.09522731
-0.06904912
0.01394896
0.007847444
0.017253995
-0.20078996
0.06576872
-0.039776698
-0.0023408032
-0.11372635
0.07733227
0.024762345
0.029146552
-0.0529388
0.0076086987
0.020679094
-0.17358364
-0.005128326
-0.048328392
-0.11002971
-0.024355335
0.077994466
-0.15288366
-0.09143626
-0.15073986
0.10557649
-0.05937762
-0.11167558
-0.07744753
0.004183554
0.004565607
0.04535238
-0.24203041
-0.16919798
0.098056294
-0.18293568
0.11978594
0.12820084
0.045777783
0.14644563
0.3220771
-0.045311082
-0.11495766
-0.07749936
-0.008518178
-0.22622278
0.028958743
-0.075024106
0.13952072
0.043875173
-0.08693289
-0.009133394
0.019374013
-0.17219108
-0.19229683
-0.08453711
0.13732377
0.08799443
0.10679012
-0.057837434
0.094063744
-0.018971518
0.041893836
-0.0038576722
-0.00942029
0.2261872
-0.15252915
-0.022226257
-0.090507224
0.019465387
-0.13464652
0.09567523
-0.05535006
0.02091044
0.19433388
0.08168208
0.19302607
-0.3085794
-0.13245758
-0.108683124
0.051806968
0.09549801
-0.13762608
-0.14776586
0.04212343
0.017933827
0.03974624
-0.031120682
0.077092424
0.13990016
0.00035434816
0.034240045
0.28386277
-0.08188251
0.082122244
0.025660139
0.060073636
-0.044784542
-0.12214298
0.02575173
-0.3284776
0.023310833
-0.04547589
-0.030068329
-0.0054381466
0.023697635
0.019049535
-0.027954387
0.0067425966
-0.0012547404
0.0026061875
-0.01183836
0.068692826
-0.017549416
0.04107829
-0.019623475
0.015589504
0.062848926
0.04322683
-0.039334584
0.02740735
0.043618117
-0.041217685
0.05475051
-0.009966488
0.00061875634
-0.044294994
0.025658766
0.041707523
-0.0054473146
0.008341187
-0.0010963008
0.04806272
0.025333919
-0.031070037
-0.006678125
0.021577798
-0.063449435
-0.03585829
0.08190814
-0.008932309
0.016737975
-0.029467106
0.00637826
-0.020729879
-0.03994488
0.06677705
-0.049319815
0.031158898
0.012736846
0.0100214025
-0.053419825
-0.025983056
0.037594005
0.06884667
0.041104775
-0.018455317
-0.040057328
0.05338376
0.028737886
-0.07139674
0.06937305
-0.017282465
-0.042073864
-0.047990784
0.045911394
0.070779204
-0.00083728513
0.00023289162
0.057552736
0.036511682
0.021701084
0.0012369467
-0.03033535
-0.056929212
-0.037747614
-0.060598195
-0.013407771
-0.023564288
0.073240496
-0.048850913
-0.021349832
-0.0073606083
-0.00088896696
0.031422496
-0.0009244446
0.03924797
0.046218734
-0.0077376077
0.04079173
0.006795258
0.0025010442
0.043463074
-0.059044838
0.018072642
-0.035700172
-0.014095826
-0.04980871
-0.0006324349
0.019768901
0.017174458
0.052207872
-0.049508292
-0.03694158
0.012616763
0.006990841
0.018566623
-0.06345374
-0.0015680578
-0.024681797
-0.031578574
-5.6128123e-05
0.017016463
-0.00502954
0.018103834
0.019342996
-0.06753902
0.038792778
0.014434895
0.037680104
0.05738047
-0.0025209815
-0.016574385
0.029256456
-0.017876424
0.015712675
-0.008701076
-0.01749529
-0.041680604
0.0527427
0.04584237
-0.017966306
0.035029363
-0.016825482
-0.11242131
-0.03833908
0.007328764
-0.11307106
-0.03878814
0.0095762005
0.012341426
0.06276065
0.014792691
0.12667474
-0.13012886
-0.034530286
0.04362154
0.0067103757
-0.010703247
-0.028575711
-0.06057182
-0.15437931
0.02330685
0.00997081
-0.17515472
0.07380386
0.025902629
-0.033283614
0.012223396
-0.064771935
0.020987762
0.16629417
0.13735336
-0.16503344
-0.10430639
0.16855934
-0.098738216
-0.23166381
0.020902187
-0.015823374
-0.07971511
-0.11112377
0.019802308
0.019337144
-0.06922515
0.046462737
-0.0064158486
-0.07830018
-0.06406452
-0.01426537
0.09670976
0.04707119
-0.15148938
-0.035299864
-0.07275917
0.10165524
0.036565498
-0.116823174
0.07582275
0.0468239
0.022816652
0.039903842
-0.01842305
-0.13386776
-0.035778984
0.18344142
-0.14416635
-0.14004046
0.015258501
-0.089181766
-0.02640005
-0.06981339
0.013205566
0.03978355
0.08094692
0.08481636
0.04567542
0.02800396
0.14374283
0.04963596
-0.045031942
-0.050918527
-0.1923202
0.111643866
-0.08479631
-0.15529068
-0.06798931
0.10896111
-0.05977108
0.2535925
-0.0032693592
-0.06383131
0.15032578
-0.0987866
0.15376875
0.121375695
-0.004831115
-0.041039713
-0.017512292
0.012322776
0.1386007
-0.004895992
-0.1277359
-0.01550715
0.054088805
0.022135427
-0.026151313
-0.054517135
0.15163411
-0.020437973
-0.08177899
0.028670492
0.038567964
-0.07621617
-0.03818727
-0.07142492
-0.062280368
-0.029738992
-0.14597017
0.12701418
0.10571443
-0.054992426
0.074974164
-0.29544607
0.23722327
-0.027826382
-0.022748407
-0.04770297
-0.21996759
-0.008719859
-0.11269492
-0.17773525
0.06914131
0.047528572
-0.08696048
-0.039018773
-0.09886055
-0.0650185
-0.19845638
0.014015851
-0.033036206
0.16633925
0.13212694
-0.035088014
0.034515746
-0.18801758
0.009827493
-0.028922323
0.13546263
0.18170577
0.10922189
-0.046505786
0.10369775
0.11147868
-0.18163
-0.0027034797
-0.15458865
0.075042844
0.015397795
0.04247269
-0.010202954
-0.23253372
0.06742263
-0.16919485
0.041510392
0.27490526
-0.11927639
-0.067096874
0.20638843
-0.11116953
-0.026288254
-0.022431366
0.017731182
0.15099144
0.23513989
-0.07883944
-0.163583
0.26010895
0.06810545
0.108884424
-0.14385283
0.23746489
-0.11786411
0.057284057
0.35421783
-0.15281834
-0.22824407
-0.24682656
0.12422363
-0.03500426
-0.10363439
0.21418107
0.13316369
-0.15280734
-0.17472802
-0.07278548
0.007965979
0.043115903
0.032721557
0.098459825
0.024838762
-0.09387512
-0.07883961
-0.01372676
0.055241108
-0.09969398
-0.13755153
0.031060437
0.1774898
-0.06842149
-0.06448777
-0.14528345
-0.018083205
-0.17378977
-0.022916347
0.17964159
-0.016097117
-0.028439688
-0.013648976
-0.05469508
-0.021375252
0.04376622
0.0035095634
0.026065568
-0.05396252
-0.14528537
-0.21166779
-0.08429755
-0.19668624
0.040970013
0.022781163
-0.12964402
-0.17695706
-0.26666954
0.013196837
0.13173167
-0.24743807
0.044662118
0.1320828
0.013745143
0.065435275
-0.06069726
0.057835832
0.11894838
0.06516724
-0.039397597
-0.07339515
0.015045093
-0.3807703
-0.21406794
-0.027317537
0.08006602
0.07895483
0.048807554
-0.24819635
0.0038371347
0.02438762
0.007520426
-0.22210942
-0.10999602
-0.30664417
0.108127676
0.22583576
-0.3080687
-0.09246859
-0.042446107
-0.04196777
0.14536035
-0.007431241
0.043904983
-0.08568583
0.063056946
-0.17589006
0.051072877
-0.12747101
0.037868805
0.02995148
0.16076115
-0.1147969
0.19096154
0.019205103
-0.022567907
-0.2037455
-0.05221811
-0.44843015
0.016017158
0.036164515
0.006969919
0.13078015
-0.1915739
0.028339922
-0.056443293
0.03952429
-0.097053945
-0.08547045
-0.0013419254
0.049276043
0.04302614
0.046783876
-0.003936359
-0.1830698
-0.013786909
-0.010949278
-0.014649217
-0.14895096
-0.01889191
0.044128932
0.02377817
-0.21920533
-0.18299605
-0.05240339
-0.1392074
0.03772636
-0.060796976
-0.007765211
0.05285448
0.15332638
-0.027912479
-0.116027124
-0.07816943
0.013931353
-0.03512055
-0.115851164
-0.18719693
-0.15012126
0.36567932
0.001011925
0.096285366
-0.0007280915
-0.23422234
0.001965278
0.05656607
0.054826606
0.021068323
-0.057552323
0.09519032
-0.041747905
0.14039867
-0.24902982
0.069552645
-0.1437653
-0.09829942
-0.08118633
0.058928866
-0.0036828304
-0.02062307
-0.026042664
0.13704756
0.18510409
0.014752913
0.07007286
0.26307786
-0.21263005
0.0010414938
-0.11729698
0.028275812
0.11615776
0.05317393
-0.016077448
-0.07280447
-0.011283804
-0.11155729
-0.034059726
-0.11725978
-0.027790533
-0.09128891
-0.16252132
0.0052614924
-0.07062905
-0.1282119
0.17464012
-0.1813207
0.014165536
0.016636021
0.09892352
-0.33860844
-0.062015362
-0.058386162
0.030367589
-0.04860943
-0.0644641
-0.023809519
-0.040108047
0.0025128345
-0.19144659
-0.023555774
-0.05398457
0.034093667
-0.083685905
0.026992118
0.012641606
-0.045077737
0.00097090116
0.03382256
-0.080876075
-0.013203271
-0.0013549514
0.015083223
0.025964545
-0.08630363
0.053088132
0.08938737
-0.019655125
0.04246319
0.0706396
-0.0020587298
-0.031110615
0.012035157
0.019963406
-0.031430446
-0.017597295
0.04608342
0.04335257
-0.040010847
-0.03843535
-0.011265145
0.03836843
-0.031406105
0.049528606
-0.017893368
-0.076420315
-0.03392218
0.042177748
-0.040559325
-0.053587027
0.07868227
-0.04717267
-0.015867826
-0.058009367
-0.04285102
-0.030645078
-0.028956816
0.028753703
0.039065808
-0.0009486069
0.016088132
-0.015973197
-0.02512281
0.00955419
2.516561e-05
-0.009145362
0.0059387973
-0.024935132
0.026364354
0.0060172896
0.038752746
-0.087241404
0.01134918
0.028114092
-0.046371702
-0.031733155
0.014500512
-0.03556179
-0.037483633
-0.013611754
-0.009764356
-0.018495074
0.0525199
-0.043798935
0.00081562396
-0.023139492
-0.054835696
0.028472101
0.017874558
-0.08372022
0.038689904
-0.034937896
0.0014609873
-0.05445777
0.009491822
-0.080621384
-0.032281835
0.014652701
0.016234603
-0.047615737
0.005147878
0.013773908
0.00657946
0.055045266
-0.0010405479
0.03596124
-0.039901227
-0.027489003
-0.0073496494
-0.0333469
-0.02904745
0.031112865
0.016478388
-0.030823015
-0.051964577
-0.03228647
-0.054839514
0.014053332
-0.02463977
0.05213324
0.009685967
-0.039766718
-0.05553531
-0.03411361
-0.021347977
0.03268442
-0.032379348
-0.0116992295
0.013298642
-0.071935825
-0.03896899
-0.0009239629
0.03945661
-0.058801334
-0.010711787
0.018487304
-0.009055755
-0.046931833
0.020778239
-0.054178726
-0.0063018464
0.24027503
-0.047951665
0.040873107
0.0017492066
-0.0056643183
-0.09606331
0.096978836
0.08873925
0.031417206
0.2084297
-0.0331143
0.123919964
-0.302401
-0.40167853
0.07898716
-0.052097287
-0.0292079
0.15921119
0.30789024
-0.04476293
0.05456461
-0.09767047
0.12112162
-0.0584898
-0.08785838
0.19121055
-0.019044256
-0.00061595126
0.12894067
0.18962614
-0.0005007151
0.022061316
-0.044733286
0.10128547
-0.087530404
-0.025739107
-0.1405906
0.117212325
0.041622855
-0.05148451
0.05706349
0.09766642
0.06252976
-0.14411606
-0.09284617
-0.0066486862
-0.22159776
-0.17204234
-0.06627382
-0.03402185
-0.049150456
0.03040164
0.16642067
0.11458253
-0.2669341
0.18567443
0.043748103
-0.25502554
0.0043858658
0.28468826
0.06984334
-0.1074637
0.090564005
0.06081394
-0.11261114
0.030329475
-0.060097124
-0.06807679
-0.017962676
0.03197521
-0.171491
-0.01915603
-0.15440352
0.044340443
-0.04916661
-0.16820112
0.14073537
0.052769203
0.18100089
-0.23425834
0.25336877
-0.06395554
0.15584284
0.07780538
0.020858767
-0.122246146
-0.02125947
0.00322799
-0.08131315
0.033122238
-0.093043536
-0.19292393
0.086968295
0.09707675
-0.123245
-0.08272333
-0.03190344
-0.31152228
-0.1113202
-0.00329323
-0.053381197
-0.008826559
-0.07239266
0.07413521
-0.1954302
0.06408802
-0.0416676
-0.006567894
-0.1409478
0.14542021
-0.09664746
0.042235743
0.012793001
-0.009121122
0.114973634
-0.049031705
-0.11352017
0.10625553
-0.13983473
0.03865826
-0.021882942
-0.05020448
-0.2547145
0.008995795
0.13473311
-0.020397011
-0.028166218
-0.080111176
-0.10589231
-0.18347552
0.03796394
-0.115936294
0.101235576
-0.014330234
-0.060589094
-0.041938998
-0.02923684
0.081234515
-0.15671186
0.07718423
-0.044764914
-0.08087872
0.061492164
0.044846676
-0.1594364
-0.09576382
0.25730434
-0.008486095
-0.039772708
0.16400728
-0.08023666
-0.04802035
-0.086947635
0.040376216
0.039334252
0.07850422
-0.023874309
-0.10888064
0.04364096
0.11414348
-0.1667858
-0.23240365
0.013631911
-0.025223756
0.08224165
-0.028987156
-0.17753713
-0.048697524
0.037379175
0.10560746
-0.0835676
0.07079726
-0.05076682
0.018791229
0.0016028796
0.016958788
-0.05534147
-0.29840678
-0.09128022
0.22894366
-0.19923928
-0.07680037
0.004328742
-0.21362013
0.00785882
0.22312659
0.27881047
-0.15226267
-0.043312065
0.011923137
0.00342311
-0.028881337
0.08005538
-0.3708587
-0.019716261
0.050503585
-0.03898051
-0.025399748
0.013512991
-0.12942296
0.02870692
-0.03267009
-0.01297531
0.06378112
-0.21351735
-0.15146387
0.011866966
0.09215385
-0.0031556052
-0.051428225
0.12659618
0.12770128
0.007158871
0.3303159
-0.05238124
0.14813045
0.11235233
-0.07827914
0.1358939
0.090659015
0.12138361
0.05864494
0.015754515
0.032833975
0.1478302
0.003504584
0.056718808
-0.0278585
-0.014380579
0.13714802
-0.016026352
0.24263516
0.012241571
-0.119028375
-0.11632442
0.015160473
0.010737885
-0.1383094
0.28335986
-0.2627826
-0.026859442
0.0131167825
-0.11060484
0.1152671
-0.023950098
-0.08236402
0.13639548
-0.10182684
0.056598652
0.03676531
0.02634004
-0.00624776
-0.07859498
0.0038635244
0.31601793
-0.04865526
-0.094040625
0.04003451
0.042089242
-0.0203031
-0.034754638
0.04381004
-0.018055627
0.15184473
-0.053749524
-0.051140808
0.0487492
-0.020822078
-0.15744215
-0.12216972
-0.09116571
-0.0023052464
-0.027048627
-0.058861077
-0.14992538
-0.038233843
0.0032310449
0.025682624
-0.05065272
-0.0057365797
0.122811414
0.08859767
-0.007509742
-0.09648902
0.017887168
0.19953182
-0.04609811
0.05232471
-0.15635116
0.16316748
-0.081425115
-0.011492021
0.09289931
-0.047712132
0.009964554
-0.029472059
0.016538743
0.13815281
0.14196539
0.114376485
0.001882692
0.042696916
-0.1164366
0.011312135
0.023690563
-0.055140153
-0.025105786
-0.051703002
0.088330306
-0.07267368
-0.042072803
-0.045642298
-0.05282335
-0.12682846
0.13569023
0.08869012
-0.027765242
-0.07574626
0.056470856
-0.12417273
0.094692774
-0.005574015
-0.027095709
0.09865128
0.013167302
0.088876754
0.095414504
-0.1593628
0.008981714
0.0134519255
0.07045874
-0.15962423
-0.03523249
0.06749567
0.021066532
-0.014967854
0.020443983
0.21133229
-0.027877908
0.015663598
0.04644143
0.047747258
-0.036551118
0.15310512
0.04481382
-0.015481394
0.08712222
-0.08721647
0.04243137
0.13042954
-0.14328699
0.026618099
-0.05658469
-0.16610938
-0.00738796
-0.0033547108
0.12383963
0.038601175
-0.071573146
0.01727917
-0.35477108
0.08417736
0.005511972
-0.059651043
-0.024727235
-0.071608365
-0.049111508
-0.01075384
-0.06432692
0.0059686196
-0.07317379
0.11981788
0.10099038
-0.07637101
-0.03870766
0.080109194
0.06827703
0.0068142028
0.0572691
-0.013855579
0.18784927
0.014164403
-0.10687919
-0.056351665
-0.2629817
-0.23291953
-0.10406682
-0.1781231
-0.15096566
-0.06203658
0.10213263
-0.104782425
0.016116936
-0.028861262
-0.19476682
-0.1880756
0.030210653
0.038633555
-0.10995182
0.020895442
0.08862301
0.10200946
-0.15101267
-0.1786807
-0.011532217
0.08674984
-0.024567576
-0.06309768
-0.008753604
0.03802261
-0.06455349
-0.03686948
-0.0035897258
-0.15165617
-0.091359004
0.014414422
-0.10705082
-0.0037260274
0.063183144
0.014584271
-0.17715144
-0.0020301184
-0.09090963
-0.016647235
-0.12497584
-0.04503199
0.077154495
0.02377267
0.006769333
0.047992602
0.12502055
0.012329684
-0.00034280246
-0.2021391
-0.12520747
0.027285963
-0.044086304
-0.08252065
-0.04135211
0.012739915
0.007553026
-0.028522981
0.023638668
0.016208572
-0.071089014
0.009959377
-0.12999739
-0.1558273
-0.14294842
-0.20240578
0.0014654081
-0.052832246
-0.05038199
0.14840569
-0.0170075
0.029211616
0.0071945093
0.20672715
-0.005384388
0.27430058
0.063563734
-0.09390624
-0.05976278
0.10042153
-0.10317087
0.014410252
0.024088284
-0.09885273
-0.009037734
-0.061778907
-0.050708115
0.079011105
0.027134737
-0.075441554
0.0647355
0.20479979
-0.06501048
0.041291114
0.0062134448
0.07982266
0.07288162
0.02127126
0.0019389654
-0.056644447
-0.114477284
-0.04317405
0.010090508
-0.15887754
0.069348745
-0.13920036
0.028604047
-0.05531665
-0.07196904
0.010745059
0.03201326
-0.007459909
-0.010423431
0.026736142
0.030284822
0.10412655
-0.0044399453
-0.08592186
0.03814218
-0.15492857
-0.034154635
0.009017706
0.04003389
-0.030837337
-0.078077726
0.08552468
-0.0059003453
-0.1743949
-0.18722765
-0.0145653915
0.015065819
-0.16828063
0.032522243
0.08410753
0.013738067
0.12465344
-0.06901551
0.07197965
-0.13958508
-0.084644325
0.061359756
-0.04220303
0.053369384
-0.03425025
0.14155367
0.09855171
-0.051674012
0.155851
0.01907247
0.0010372499
0.016171338
0.033753406
0.08073801
-0.10592958
0.01742992
0.1722573
0.03172041
-0.00015745302
0.13639987
0.028218787
0.050056957
-0.29755458
-0.015850663
-0.045361504
-0.11810429
0.053003486
-0.28968734
-0.009401462
0.0024493122
0.038457163
-0.3615238
-0.018860634
-0.16082823
-0.059353184
0.06115346
0.08745243
-0.30364934
-0.080470175
-0.16647908
-0.15194228
-0.06634319
-0.0134228915
0.03704584
0.011913398
0.039335724
0.057833184
-0.12831911
-0.2104293
-0.04631838
-0.14929363
-0.07194787
-0.22359122
-0.079866245
0.053022712
-0.00081842014
0.04350301
-0.024784932
-0.048483443
-0.09469043
0.019091437
-0.09972902
-0.015179968
0.014072635
0.07783994
0.0018418198
-0.024797188
-0.22667718
0.0108382115
0.028102918
-0.16351175
-0.16571522
0.064136855
0.0019807452
0.07881588
-0.012719432
0.012436199
0.13925824
-0.032210037
0.0064756493
0.18316154
0.027457206
-0.007578472
-0.16060303
0.02026832
0.10827841
0.054987766
-0.16688952
0.10488341
-0.23181966
0.08516163
-0.005540075
-0.06462261
0.044388168
-0.010697968
0.100003734
0.0011373964
-0.20670892
-0.020518182
0.0136001585
-0.107452005
-0.17069483
-0.0043684524
-0.107061975
0.086888194
-0.12783977
-0.18320198
0.04704643
0.044066276
-0.024094217
-0.025274243
0.1122614
0.029759591
-0.12855214
0.03293206
-0.20699386
-0.1070647
-0.050017823
0.18597251
-0.098485254
-0.0090525625
0.059156932
-0.084460296
0.021435428
0.20128152
-0.057946693
-0.011972896
-0.033690702
0.12908863
-0.23613891
-0.054455638
-0.20058489
0.02224337
0.06693055
0.10899325
-0.1947819
0.1038972
0.01064469
-0.05686521
-0.06628493
-0.10653377
-0.05382253
0.19985595
-0.043344207
-0.18173376
-0.071751826
0.20075728
-0.01042125
0.03969688
0.13998947
0.09456327
-0.02790382
0.0043354123
0.14289436
-0.056310818
0.11474362
0.031503547
0.12532008
0.007993333
0.14870057
0.30019978
0.04526143
-0.050964013
-0.06670674
0.041209873
0.06648216
-0.10983779
0.11901326
-0.19710028
-0.019401541
0.14464416
0.053466704
-0.0671443
-0.0656351
-0.1906444
-0.03943529
0.18489163
0.04281952
-0.034378715
0.08198739
0.0079531325
0.054524522
0.09276512
-0.00070620445
0.07918313
0.028047228
-0.044076204
-0.051213674
-0.14088553
-0.004152563
0.05162663
-0.014930416
-0.07511727
-0.08894879
0.07242939
0.051462263
-0.041726697
-0.0012436913
0.21632004
0.07952467
-0.029177776
0.011304134
0.04921064
-0.00061055145
0.13955747
0.28628492
0.01413159
0.00694662
-0.010224613
0.086238205
0.047239084
0.089593545
-0.034273207
-0.11478602
-0.06868271
-0.06080339
-0.04422607
-0.0413502
-0.122330844
0.021774633
-0.0057909726
-0.4659615
0.050418157
-0.040310398
0.024961673
0.044624325
0.1955107
0.15218803
0.09284806
0.03632742
0.008332652
0.038205933
-0.09233245
-0.24277113
-0.05996583
-0.07728554
0.046226423
-0.0030990702
-0.059873387
-0.15596972
0.037406556
0.17299995
-0.04866977
-0.07238067
-0.004798047
-0.020508656
0.010660744
-0.011457883
0.013520685
0.035565034
-0.017520616
0.013342561
-0.032904573
0.011060092
0.03861378
-0.019468844
-0.017532118
-0.037178915
0.029331213
0.025369495
-0.026843255
-0.040063802
-0.018303031
-0.024724113
-0.043098107
0.00032011155
-0.024038393
-0.001032165
-0.0065030456
-0.04252204
-0.06057627
-0.022703784
0.005221493
-0.045889527
-0.034186073
0.005106043
0.07142875
-0.022974573
-0.019454937
-0.018071314
-0.037225194
0.0061953897
-0.0023833334
0.02282961
-0.02554996
-0.07258013
0.04005645
-0.008093503
-0.009555095
0.0026064178
0.036132745
0.008352197
-0.04021705
0.053478576
-0.0067909774
0.022465194
0.018603677
-0.034264967
-0.028644599
-0.004704547
0.04480236
-0.07728017
0.036640994
-0.0005329091
-0.069501996
-0.021250999
0.05136526
0.026757572
-0.043688122
-0.022600695
-0.010776501
-0.018978858
-0.05280963
0.0056580123
0.0009260262
0.029543603
0.0077444636
0.003848247
0.010778161
-0.035192747
0.035208404
0.066224396
-0.034328267
-0.01747598
0.025710018
-0.04992659
-0.012729496
-0.034583975
0.010148171
-0.04328271
-0.015317091
-0.030650053
-0.025236687
-0.043706335
0.025897373
0.010882776
0.03666342
-0.015545788
0.039264493
0.019182097
0.054210983
0.023661288
0.009458241
0.034170587
-0.0108724795
0.0056635975
-0.0754937
-0.012084357
0.0030333225
-0.022775339
0.009072342
0.00037615263
0.0044144616
-0.032174725
0.006904128
0.03311441
0.020278838
-0.00882588
0.042904593
-0.038656592
-0.0063568465
0.017743465
-0.0424991
-0.02248411
-0.0272451
-0.047177237
0.03648429
-0.00277439
0.030888608
0.047635328
0.00030163673
-0.013250682
-0.14788756
-0.23688471
0.08338011
-0.12121299
-0.10365564
-0.012646537
0.06469426
0.11466411
-0.024158197
-0.061071392
0.035554912
-0.16349794
0.24640246
-0.12077159
-0.07302547
-0.08781508
0.017358074
-0.12679256
0.0012679556
-0.030286852
0.048189722
0.14008789
0.078177266
0.000112799724
-0.0007676996
-0.10476634
-0.023620294
0.018520989
0.023514815
0.029769119
0.0022142418
-0.029769102
0.11826854
0.1398634
-0.06741285
0.01739051
-0.022702578
0.14670329
0.07618684
0.034812003
0.026272468
-0.11137904
0.064261414
-0.10935384
0.14147624
-0.054468025
0.17971998
-0.17204109
0.054291923
-0.06703283
-0.097590685
-0.006949743
0.13073327
-0.12842618
0.07045739
-0.12475455
0.03773098
0.19397137
0.0914653
0.09163027
-0.15749407
-0.03579348
0.12809981
0.031110002
0.051930826
0.06493989
0.00027708663
-0.012152402
0.23605952
-0.043141812
0.102759495
0.043870416
-0.036473624
-0.13555117
-0.13882296
-0.05487307
0.18271251
-0.1321409
0.07112341
-0.016637601
0.13909827
-0.11960388
-0.16598943
-0.08992192
0.058283683
0.018459503
-0.040421873
-0.0219718
0.11998979
0.13232975
0.0023263416
0.05867598
0.08897541
-0.2385763
-0.0031861546
0.07916127
-0.036969323
-0.036652744
-0.052674346
0.11134958
0.073455326
0.036603663
0.21414958
-0.014929289
0.123450704
0.13863993
0.015184332
-0.24683134
0.02701944
-0.018522868
-0.12159077
0.116636164
-0.22175236
-0.23667115
-0.018960258
-0.12824725
-0.008840353
0.18085824
0.10029377
0.025844911
-0.06917314
0.049339756
-0.0050622183
-0.04354717
0.048543975
-0.1771379
-0.0097137205
0.056160122
-0.06928008
0.11649508
0.119208455
0.107632846
0.017955251
0.03394249
-0.0842128
0.070694245
0.05543428
0.01814628
-0.07415799
0.02626493
-0.030866215
-0.18204868
-0.1395408
-0.0011182934
-0.022472238
-0.0017973364
0.08136358
-0.16957326
-0.019140152
0.051207375
0.058461826
0.010356155
-0.08707844
0.03895989
0.0031175753
-0.0015307756
0.011994674
0.0008488436
0.07456027
0.13014612
0.1282214
-0.12175076
0.14740603
-0.21545391
0.01512752
-0.08553523
-0.16608824
0.10306442
-0.045237254
-0.0020040218
0.074161835
0.12514824
0.05917716
-0.205218
0.08249552
-0.21818341
0.010026398
0.07513892
0.053141233
0.08473643
-0.059726883
0.062423337
0.009821727
-0.04132784
0.0068347068
0.019249067
0.048302893
0.124642655
0.13422535
-0.022668188
-0.038513284
0.010994833
0.062104236
0.09198257
0.11492514
-0.030971523
-0.046335857
-0.027739882
0.07999589
-0.07052832
0.0154426955
0.13905044
-0.0965908
0.10870439
0.11914802
0.1617286
0.045427762
0.09264553
-0.09528924
0.027426088
0.11518618
0.075252764
-0.0072517474
-0.017210975
0.0078263
-0.058460813
-0.0080964565
-0.099602126
0.008877655
0.013626887
-0.021887954
0.01855703
0.0663209
-0.08343492
-0.08176126
-0.038525302
-0.029317169
-0.015459251
0.08385574
0.17049612
-0.12946932
-0.061948624
0.004314992
-0.05316163
0.121379964
0.02707022
-0.06009156
0.103960596
0.00442674
-0.0003270577
0.13193679
0.02492093
-0.0454804
0.032139488
-0.15282361
-0.028683608
-0.040715024
0.06774909
-0.013863099
-0.014032502
-0.015959237
-0.08626313
0.017743424
0.07429336
-0.0033882444
0.0306344
-0.04003845
0.012092373
0.31675422
0.14940032
-0.23130612
-0.14177015
0.0287797
0.055211846
-0.11813682
0.017821722
-0.10486129
0.1277314
0.029999843
-0.031403642
0.07548602
-0.09731344
-0.044192597
-0.11746889
0.06733002
0.02645287
0.1139405
-0.066952676
0.12296887
0.15695387
-0.07352695
0.100831866
-0.11734746
-0.02752526
0.092954226
-0.10348802
-0.0011974646
-0.08876682
0.11260075
-0.06291367
0.13295355
-0.08215039
0.02831121
-0.11355155
-0.08778678
0.0038411992
-0.013185847
-0.044621326
0.14535102
0.09366801
-0.35795015
0.22099896
0.1490848
-0.17018782
0.01415237
-0.16313069
0.055558305
-0.06180186
-0.030802913
0.11589118
-0.0023693226
-0.22736081
-0.013197301
-0.06568451
-0.16823776
0.034343828
-0.0074414574
0.08595678
0.13342246
-0.14369498
-0.076490425
0.047910944
0.09262682
0.0030879925
-0.18561585
-0.019753063
0.045485258
-0.08156025
-0.0060098595
-0.05492208
-0.24548544
-0.018549168
0.06744298
0.12940796
0.22241765
0.10905186
0.07934652
-0.063995875
-0.023141434
-0.12442518
0.059973415
0.013850295
0.025626969
-0.062419917
0.12883227
0.022474445
0.031573024
-0.10336677
-0.12878288
0.056230158
-0.07363436
-0.13585238
-0.06880307
-0.05673564
-0.20950852
0.026263723
-0.056953505
0.08510803
-0.012171969
-0.044958353
-0.07060711
0.16421878
-0.14807121
0.06657966
-0.02294273
0.012804675
-0.013504457
-0.040803872
0.07206638
-0.05025568
-0.0104602445
-0.08923128
0.03901727
-0.2772665
-0.018482035
0.068043694
0.15849519
-0.005284849
0.026231928
-0.16830239
-0.023894237
0.14436643
0.060047425
-0.18076822
-0.24045745
0.032745667
-0.25388506
0.03127325
0.066952646
-0.07373013
0.025399696
-0.0020017345
0.11088558
0.0073784417
0.030688671
-0.068953246
0.023380816
-0.08355559
-0.059247304
-0.21194354
-0.066924766
-0.060055275
-0.032566987
0.18194145
-0.048739173
-0.072611384
0.15653406
-0.027915854
0.015523705
0.10521655
0.090566956
0.014349097
0.17802334
0.01968066
0.15961646
-0.26128635
-0.17161968
0.018046422
-0.20744836
0.28855485
-0.017638655
-0.06491233
0.24869356
0.00460694
0.0007759067
-0.16697598
0.013677902
-0.17385903
0.0024276744
-0.0011818265
-0.18660906
0.17013925
0.042333324
-0.10118504
0.05984728
0.0070377556
0.05917598
0.15500388
0.04707146
0.11198433
0.17436805
0.22419398
0.050360292
-0.10559198
0.043258823
-0.04172486
0.020662494
-0.142139
-0.09368055
-0.01788993
-0.1111511
-0.03609449
0.09198732
0.028149925
0.15463392
-0.13023257
-0.049453903
0.06978214
-0.07750798
-0.061370213
0.13464752
-0.08698406
0.094079256
-0.1284487
0.1810327
0.06178347
-0.17332174
-0.16273354
-0.17567386
0.0014820965
0.07393094
0.007233717
0.00019870978
0.05147087
0.035376847
-0.37705484
0.052638426
0.07376351
-0.13042703
-0.004203109
-0.07106183
0.10836092
0.1332479
-0.029933905
0.2121895
-0.030036446
-0.12292813
-0.07449688
0.1311499
0.215334
-0.16880563
0.1597786
0.041530825
-0.11894338
0.0735042
-0.069795355
-0.19548722
-0.14875744
0.04085228
-0.032257464
-0.0021644032
-0.03394801
-0.09578348
0.17256708
-0.07966141
-0.24142168
-0.01678587
0.11097746
-0.016202545
-0.09993597
0.077647515
0.03879114
-0.062019527
0.0658205
-0.1394405
-0.16365662
0.03559536
-0.06577704
-0.18486083
0.10831391
-0.19067906
-0.10258351
-0.054885793
-0.24489453
-0.117130585
-0.09240125
0.049456574
0.04866513
-0.050042935
-0.16624393
0.3226259
0.028988421
-0.046417736
-0.018905727
0.006976047
-0.10580292
-0.07890039
-0.09939411
-0.0062929634
0.04516933
0.122328915
-0.03823232
-0.09587899
-0.2508375
0.15813261
-0.13251661
-0.1303364
0.080134526
0.023930237
0.037822008
-0.0067351246
0.1370646
0.007417372
-0.21750022
0.07820254
-0.097981274
0.2876086
-0.25022092
-0.04422943
-0.13594705
-0.1076311
-0.037012074
-0.2549603
-0.1030496
0.21093988
0.12192659
0.09723301
0.10654599
-0.04469453
-0.27091792
0.15137133
0.051963367
-0.002330148
0.027812693
0.04392933
-0.10165092
-0.18750758
-0.4882153
-0.1579965
-0.008084852
-0.111676455
-0.001524959
-0.037322097
-0.048096746
0.17551404
0.19605766
-0.13870704
0.0028402735
0.028959045
-0.046334215
-0.09590025
-0.07485107
0.07043702
-0.18184139
-0.078209855
0.2540467
-0.03779158
-0.018268058
-0.037118163
0.03418135
-0.04878698
-0.04777743
0.011102952
0.008424745
0.05357097
-0.2533752
0.08480981
0.0814015
-0.026487099
0.1169318
-0.027748756
-0.034232702
-0.10232118
-0.06309078
-0.036832955
-0.04785852
-0.09450434
0.057294358
-0.07543727
-0.13933694
-0.005172417
0.19331318
0.14788187
0.11659104
-0.35421884
-0.18453929
0.02607475
0.06183225
0.038498588
0.11550488
-0.01002706
0.08969838
-0.29735073
-0.10051964
-0.07241151
-0.28357202
-0.04519178
0.048283856
0.011736085
-0.0020901551
-0.038756005
-0.07696235
0.07991168
0.023551473
-0.08008778
-0.071263164
-0.12856427
0.01488616
-0.18725048
-0.04975921
0.016242415
-0.18663262
0.059128664
-0.12831205
-0.010980334
-0.07428607
-0.02829721
-0.1035362
0.25112393
0.12166739
-0.27073365
0.026741434
0.14179718
-0.2082541
-0.10409066
0.053859975
0.041097246
-0.030358871
0.05698536
-0.11242912
-0.1425741
0.09587437
0.16440381
0.0046947654
-0.20038779
0.0408888
-0.018325066
-0.10487074
0.03679122
0.0032574264
0.03438634
-0.17056535
-0.10021066
-0.03413099
0.015406616
-0.22426327
0.047002513
0.14995839
0.085013874
-0.14963005
-0.101293206
-0.13254005
-0.31283233
0.034558
-0.078963034
-0.17448702
0.03875442
0.035703532
-0.047269344
-0.0030324757
-0.0094622
0.04710405
0.038221877
-0.23848699
0.20030546
-0.23905644
-0.050753858
-0.06151059
0.06938933
-0.019326719
-0.20776525
-0.043034736
-0.044335574
0.14280193
-0.03900674
-0.15564683
0.020631183
0.07298668
0.2751879
-0.19889556
-0.03810518
-0.17315523
-0.14229026
-0.10958699
0.07734247
0.007267664
-0.11212773
-0.056393787
-0.10409184
-0.0155190425
0.009188703
0.045232873
0.05773457
0.0021467838
-0.09728026
-0.101268254
0.016696502
-0.062299248
-0.10063954
-0.061934896
-0.037045408
-0.19712064
0.025051812
-0.006362361
-0.16196021
0.17398034
-0.0081281345
-0.05327183
0.024986701
0.03040769
-0.047941476
-0.043371323
0.11130248
0.047107458
0.01363393
-0.01561022
0.04255509
0.10027136
-0.016210232
0.090378955
-0.13418138
0.13697636
0.03621571
-0.1487242
-0.017073609
0.005317106
-0.046613682
0.024450926
0.025937133
0.069972105
-0.012380177
-0.07540408
0.008612266
-0.040169787
0.08510014
0.15639186
-0.16056238
-0.039641015
-0.012661068
-0.18522012
-0.046016924
-0.20845993
0.0018807936
-0.11556085
0.019485839
0.0029817687
0.11794011
0.0582647
-0.1718104
-0.13822187
0.07666046
-0.14806308
0.065027125
0.07490563
-0.08337594
-0.0063079973
0.21586218
0.03979572
-0.08144273
-0.21003449
-0.24829076
-0.15111792
0.08470737
0.098086126
-0.02865272
-0.2072088
0.1443208
-0.035310566
-0.018196335
0.10492375
0.096162215
-0.10513707
-0.077185094
-0.09668129
-0.057384804
0.050203733
-0.1634751
-0.099552795
-0.31072056
-0.0076560583
-0.078856535
0.04773471
-0.13078105
-0.03374256
-0.053598896
-0.08705802
0.038523037
-0.056549422
0.12804736
0.04242311
-0.060054526
-0.07022384
-0.0941276
-0.17634188
-0.09273494
0.010596732
-0.19904134
0.031938918
0.022809474
-0.01934854
0.026379824
0.03969136
-0.062153965
-0.06003649
0.022231245
-0.15607
0.07466391
-0.26528597
0.10186364
0.026852435
-0.04785817
0.1375323
0.08678142
0.022206286
0.09108858
-0.02732602
-0.028552229
-0.04994656
-0.0497056
-0.18435529
-0.038058907
0.04887838
0.026817808
-0.13665882
-0.017637916
0.07911316
-0.1035264
-0.029166218
0.08646482
-0.10810081
-0.18080346
-0.071688004
-0.16624606
0.11938697
-0.19601083
0.03194187
-0.010099064
-0.013329425
0.11974946
-0.06793403
-0.038345207
-0.11155072
0.024348192
-0.066288374
-0.028292546
0.0029110522
-0.059193842
-0.103782624
0.0040353443
-0.2665409
-0.038566377
-0.09967344
0.040460095
0.102391146
0.013773871
-0.08636454
-0.055341356
-0.0715771
0.0028229803
-0.06760246
0.009805671
-0.13731836
-0.23261674
-0.031773128
0.0053450414
0.034304976
0.053416803
0.09861688
-0.10933583
0.10595006
0.09140542
-0.13648425
0.020714277
0.05100962
0.045992307
0.15103997
0.15382926
0.05737555
-0.18727718
0.06732625
-0.045330483
0.02822771
-0.12802444
-0.009634919
0.021922601
-0.056535784
-0.040940303
-0.09512444
-0.006872131
-0.049094588
-0.06657048
-0.18478006
-0.008884001
-0.07811857
-0.0706873
-0.13591531
-0.014746774
-0.30664328
0.002795766
-0.2017796
-0.08185142
-0.04838514
-0.03839166
0.0725437
-0.101004764
0.042468566
-0.058162037
-0.022798352
-0.053828977
0.13316196
0.08728751
-0.16044094
0.103703246
0.11046747
-0.029800946
-0.22814165
-0.009948447
0.017443148
0.08283694
0.09749029
-0.03763098
-0.11489106
0.05046235
0.0033697793
-0.06667979
-0.026239784
0.02896438
0.073775895
-0.049859434
0.02326998
0.013027194
-0.25395286
-0.025710536
0.08922263
0.030658698
0.0071777273
0.042369984
-0.13339807
-0.1282651
-0.024576247
-0.09024531
-0.0024917538
-0.030111123
0.039029654
-0.00094630785
-0.23917845
0.048020232
-0.022290207
0.09526956
-0.10676482
0.2202081
-0.07716009
-0.028209005
-0.021137958
0.04832513
0.1293437
-0.15087356
-0.06391551
0.2262138
-0.027306352
0.19068882
0.020057047
-0.15427928
-0.15315972
0.012918548
0.014822306
-0.3114475
-0.0031372143
0.09610219
-0.15209538
-0.03651479
0.20056684
-0.09098159
0.030470949
0.10345274
-0.07456654
0.03623872
0.09218332
-0.023841502
-0.060628645
0.05023665
0.049808607
-0.0027806037
0.1843159
-0.034560926
-0.0041714422
-0.046044506
0.03987492
-0.011701732
-0.044380683
0.014352148
0.053462207
-0.03964679
-0.042943764
-0.031914797
-0.017745817
0.029431632
0.027082149
0.010711497
0.0025925874
-0.04332301
-0.054655407
-0.013838876
0.0050049783
-0.019555682
0.026991906
-0.03728212
-0.0032724922
0.034294114
0.064191125
0.059885822
0.016055122
0.05742275
0.03180693
0.03662318
0.012862031
-0.09033324
0.008281974
0.013430569
0.045976162
-0.00022117909
0.06571964
-0.010220929
-0.049551792
-0.05171244
0.013985924
0.013989952
-0.01682814
-0.049747333
-0.033631977
-0.07411761
-0.049515456
-0.036456224
-0.037517756
0.02777611
-0.015111204
0.00674271
0.06470325
0.008892351
0.031059701
0.000379703
0.0569497
0.051000416
-0.018089535
0.03937257
0.0237035
0.0002230481
9.1891714e-05
-0.022227872
-3.9824576e-05
0.015663205
-0.003796719
0.04475857
-0.02412591
-0.010621313
0.026694693
-0.005718971
-0.06641078
0.015679529
-0.04959757
-0.023992414
0.048046578
0.058152754
0.08183337
-0.07062519
0.013064813
-0.038896248
0.037876092
0.06225945
-0.04428941
0.044821713
-0.018960133
-0.036151703
0.011627862
0.018216822
0.03351205
-0.056657955
0.0021409357
0.010283483
-0.0061354614
0.048572965
0.05223586
-0.02067906
-0.04607299
0.06731002
-0.023378758
0.015405598
0.013550857
0.024872199
0.030379768
0.035701625
0.046209354
-0.019940121
0.035059944
-0.052290246
-0.02147928
0.029656578
-0.0068597356
-0.03534527
-0.015170281
0.036843035
0.040328927
0.038827464
-0.05898621
0.05538241
0.015255719
0.03359881
-0.019628469
-0.04473725
-0.083691776
0.02351587
0.035946123
0.05000174
-0.024508549
-0.16895264
-0.1303098
-0.25164068
-0.08289983
0.02378243
0.055199664
0.013731435
-0.008721212
-0.12307485
0.13794513
-0.040327653
-0.044993583
-0.27721837
0.016631583
-0.04885242
-0.021738037
-0.14136358
0.054460246
-0.02798172
-0.036125377
0.06834559
0.061645612
-0.021993963
0.20879279
-0.084020324
-0.045805093
-0.0043630186
-0.029931067
-0.10849734
-0.06415501
-0.05975531
-0.15488029
0.054989118
0.040726878
-0.016023248
-0.12451454
-0.1851365
-0.22867882
-0.032281138
-0.16364011
-0.043122277
0.019834299
0.18165281
-0.08867146
-0.05398492
-0.010907357
0.116657056
-0.082747445
0.03338126
-0.13818209
0.12897763
0.1856739
-0.10245979
0.20434977
0.044997707
0.06480697
0.14459004
0.0108585395
0.26421562
-0.075579725
0.08668808
0.06600222
0.01955276
0.11849076
-0.12634666
-0.02368528
0.069989055
-0.0067659905
0.13051637
-0.021990947
-0.23839042
0.08735174
-0.03178896
0.028647257
0.0016481744
-0.08573539
0.030773235
0.028725088
0.092202455
0.047382798
0.077809036
-0.012789011
0.105064675
-0.03679752
0.0037859813
-0.05225816
0.27057716
-0.06052892
-0.0534752
-0.10946462
-0.20530942
-0.15401727
0.01960946
-0.13334364
-0.030650206
0.13016072
0.18597303
-0.10758543
-0.09789671
-0.09208412
0.050243746
-0.007657542
-0.04235018
0.049254745
-0.105354264
0.15644069
-0.052540593
0.055242233
-0.10224273
-0.09236395
0.037823103
-0.19896139
0.008039206
0.058331437
0.22178945
0.052973967
-0.16114463
-0.025831833
-0.005403539
0.0758729
-0.057667196
0.04275139
0.0087990835
0.10299766
0.048279706
-0.12097824
-0.02155146
-0.010890312
-0.02028452
0.065422006
-0.036349382
-0.02197728
0.06556635
-0.006458156
0.012161889
0.002443646
0.012825368
-0.05374425
-0.041024737
0.023645254
-0.0910149
0.020834725
0.033009894
-0.02844857
0.0008783884
0.0049397503
-0.040631134
0.03325714
0.075673416
0.031806536
0.0057145366
0.021971898
-0.03452642
-0.010717373
0.0060793795
-0.052147128
-0.07960228
-0.0011164959
0.058122374
-0.026639272
-0.049557958
0.09993878
-0.012270806
0.09772949
0.052765355
-0.054830275
0.028901767
-0.08882906
-0.007377283
-0.010631982
-0.06650533
0.027417906
-0.0550356
-0.006024973
0.01588057
-0.0177016
-0.066826046
-0.05791351
0.0102731045
0.032411344
0.047602862
0.03884897
-0.021624576
0.067548856
-0.02874026
0.05159596
0.0038403247
-0.095019765
-0.0315862
0.018186746
-0.016637646
-0.06254652
-0.029620294
-0.032238644
-0.027931869
-0.026784513
0.042540506
-0.03922105
0.06745087
-0.0066871955
0.009177854
-0.0076842536
-0.07449866
-0.043759495
-0.05738464
0.08147182
-0.019130118
-0.0033504323
0.028861098
-0.0006827925
-0.024887355
-0.009532173
0.06296261
0.013904259
-0.036974512
-0.00030335362
0.009488291
0.015247513
0.00724414
-0.022112481
-0.008202736
-0.0012879595
0.024367863
0.072033025
0.029903205
-0.017294763
0.03141854
-0.0026239376
0.018584894
0.03729495
-0.018659934
0.07447157
-0.0026721293
-0.00041604028
-0.014658834
-0.018848952
0.01524241
-0.06594745
-0.011845693
-0.036778275
-0.049120814
0.010319224
-0.029889723
0.042544182
-0.051109128
0.06047832
-0.04021976
-0.08852128
0.01270805
-0.037136085
0.031207921
0.06475508
0.0359562
0.045892242
-0.12561692
0.0051730596
-0.24786651
0.02549017
-0.2064799
0.08408098
-0.15238582
-0.13336693
0.17204817
-0.060463265
0.08306488
-0.01524306
-0.15948251
0.08912451
0.14272597
0.27350906
-0.019821413
-0.08295431
0.094842754
0.06029266
-0.078304075
0.095256604
0.03951032
-0.04750622
-0.09312376
0.08426807
0.044187382
-0.020549357
-0.00050499616
0.13297428
-0.057513118
0.099712715
-0.13854207
-0.00882924
0.092226975
-0.04203939
0.005535207
0.12108847
0.015786447
0.012582914
-0.056438226
-0.09796523
-0.1787061
0.06557466
-0.0802279
-0.16657186
0.032600764
0.2674395
-0.03076921
0.0611062
-0.1569989
0.081944145
0.0077374177
0.012327728
-0.055655148
-0.033681307
0.054306578
0.20086998
-0.10281026
-0.040478654
0.034529943
0.068916395
-0.13010034
0.018561224
-0.15256661
-0.03860479
0.013802532
-0.0040965993
-0.003975007
-0.036250986
-0.11004376
-0.20491043
-0.14768624
0.116583765
0.095355995
-0.06239759
-0.03514571
0.04977294
0.04263268
0.26275343
0.13739036
0.07522461
0.05393493
0.09145937
0.0091553265
-0.008215788
-0.14085628
-0.01929782
-0.0146567775
-0.0564846
-0.01677533
-0.05628242
0.050859485
-0.045134187
0.06856376
0.022135932
0.019441841
0.16030966
-0.029336214
-0.5882684
0.06179119
0.063946836
-0.27931988
-0.033292927
-0.05935368
0.11969167
-0.033178777
-0.23280227
-0.033616032
0.011924733
0.087584786
0.022708368
0.023595922
0.08246547
0.017029028
0.07286223
-0.0880502
-0.044509828
-0.14469226
-0.087276034
0.18886448
-0.085909925
-0.04803316
0.0071954858
-0.02634257
0.21570997
-0.0152181005
0.06555151
-0.032330472
-0.08325371
-0.09919632
-0.14231443
-0.0052152937
0.06946246
-0.45505846
0.07876079
-0.12219861
-0.049235363
-0.1486565
0.08242731
-0.16056237
0.053393327
-0.05983635
-0.080421254
-0.019340053
-0.10142263
-0.10177848
0.011432813
0.06434845
-0.17440867
-0.024896095
-0.21889405
-0.05616813
-0.035620295
0.02037142
-0.042244446
-0.083831996
-0.087828435
0.06366537
-0.05747255
-0.09604928
0.007894869
0.15558143
-0.10239281
-0.05481133
0.05359362
-0.109662235
-0.08046286
-0.030415393
-0.15637146
0.07311472
-0.19177365
0.11256713
-0.14027297
-0.19675955
0.09096687
-0.02891602
-0.08424067
0.07189186
0.10999639
0.0004567912
-0.015624497
-0.03605702
-0.20609435
-0.21051085
0.06693429
0.1307365
-0.32814038
0.1209507
0.013999439
-0.10292529
0.126028
0.08185505
0.004845428
-0.07704596
-0.0022869015
-0.028392103
-0.02575697
-0.0987774
0.014551783
-0.18574028
0.016839236
0.28048244
-0.20279303
-0.021432271
0.027723813
-0.0019340612
0.042380027
-0.08214645
-0.034097034
0.025639262
0.04398036
0.11792038
-0.044337414
0.123988934
-0.016986435
0.24290656
-0.07389589
-0.0032001345
-0.16958515
-0.08530696
0.14326115
0.16210215
-0.093742006
-0.03305759
0.002342651
-0.035397485
0.11580763
-0.10381954
-0.033607654
0.21626784
0.0032740596
0.051402245
-0.10187996
-0.08579373
0.07738922
0.03611932
0.18292092
0.027782151
0.1162394
0.08356887
-0.1356639
-0.039312456
0.22752267
0.05372509
0.13070315
-0.00788843
-0.12469988
-0.027848916
0.017049985
-0.011931637
0.03685835
0.020333808
0.1188653
0.020095754
-0.032790318
-0.14842352
-0.10245752
0.017217962
0.16290006
-0.08788562
0.11648018
0.108251154
-0.086005636
-0.00085291016
-0.03839125
0.16758211
-0.117200896
0.063658886
0.026868412
-0.036312476
0.20371518
-0.043511797
-0.10728381
0.19301343
0.20071742
-0.13660063
0.003998363
0.053075723
-0.051343795
-0.035652783
0.06622951
-0.0007273887
-0.06612972
0.0027671028
0.109364316
-0.011577079
0.08468208
0.108010806
-0.03288573
-0.12313336
-0.10812709
-0.09005794
-0.0064480156
0.10025139
-0.0052243588
-0.015415206
0.17669822
-0.03261261
-0.40644595
-0.06050058
-0.13346747
-0.038238846
0.058494262
0.061317768
-0.02814013
0.019489111
-0.04112487
-0.04575494
0.0709991
0.1136797
0.06297416
-0.034814253
-0.06332898
-0.11792017
0.061788134
-0.07736641
0.009763691
-0.13974078
0.020519232
-0.0659236
-0.24910009
0.0015182842
-0.058060285
-0.09016134
0.01478797
0.07933379
0.0932332
0.015975637
-0.22349241
-0.035744388
0.075779855
0.09840509
-0.106618926
0.119373366
-0.2719793
-0.10353674
0.15656993
-0.013480807
0.01240773
0.0026647158
0.0022996147
0.17249726
-0.07042948
0.082768574
0.004961531
-0.06395046
0.08211154
-0.056524508
0.058348577
-0.1289624
-0.0306208
-0.12216538
0.026413623
-0.041530263
-0.06557003
0.0027550627
0.10001344
0.0011271087
-0.06382215
0.13463125
-0.017711816
0.036579058
-0.049777184
-0.042192616
-0.053858534
-0.03663878
-0.14566134
-0.10701121
0.07240498
-0.045785557
-0.14511125
0.14317293
-0.21990228
0.1301226
0.0136538
-0.13237752
0.07177145
0.039038364
0.16052373
-0.023036255
-0.14130546
-0.049601894
0.037426792
-0.12820934
0.0016316375
0.037563957
0.31626683
-0.3127519
0.17762785
-0.09921621
0.09743584
-0.04029148
-0.05406178
-0.05777458
-0.08498868
0.024268802
-0.049387023
0.05295033
-0.011301025
0.0023772498
-0.04042474
0.03395113
-0.07323179
-0.06449437
-0.104884915
0.07795961
-0.10676679
0.05238906
-0.0988933
-0.039725438
-0.042121522
0.19869809
0.102802165
-0.085008115
-0.0681029
0.12580794
0.022563228
-0.12612738
0.03800094
-0.004069738
-0.013763083
-0.085437514
0.018948594
-0.020785969
0.050135273
-0.007252825
-0.10306406
0.075976804
0.03218279
-0.13371372
-0.03476783
-0.07188978
-0.059590787
0.044073354
-0.002557361
-0.03359651
0.14050859
0.00069323694
-0.09567703
0.15167412
-0.05432946
-0.046612952
0.14766034
0.012936904
0.2208646
0.003490594
-0.16819018
0.048675083
-0.14490081
0.11496069
0.011558218
0.10530925
-0.045534424
-0.17809847
-0.06471065
0.113192245
0.06887491
0.05933982
-0.053109363
0.049199633
-0.250392
0.11841655
-0.30777195
0.053189255
-0.17016818
-0.16957243
0.12138186
0.06870635
-0.056088135
0.089533955
0.016833227
-0.00015375891
0.17527752
0.01624053
0.015696578
-0.018945958
-0.0062187174
0.110925145
-0.14479357
-0.06610602
0.15910728
0.0027992774
-0.16121005
-0.012390898
-0.15453367
-0.20438257
-0.06789499
-0.027054287
0.06687323
0.07794422
-0.29887882
0.004562819
-0.15651914
0.035743468
-0.03840749
-0.13989596
-0.03937913
-0.032297593
0.03725598
-0.020414604
-0.05296854
-0.058384318
0.10321667
-0.057855137
-0.04775232
0.01248353
0.03406036
0.016070092
0.026088528
-0.000256793
0.02001148
-0.16311832
-0.037581984
-0.0008308689
0.013996217
0.18895663
-0.076695584
-0.13341634
0.1339432
0.008425577
0.009930081
0.13738348
-0.07162376
-0.046205714
-0.13456538
-0.12341461
-0.036911912
-0.017286705
-0.19340335
-0.14649744
0.21700142
-0.13773963
-0.10683764
-0.10118111
-0.108388186
-0.056848284
-0.073833816
0.13797235
-0.03239411
-0.0036239815
0.2152158
0.09595645
-0.08650393
-0.19294742
0.09397848
0.111080766
-0.021243365
-0.018701073
-0.066513725
0.14243862
0.017102621
0.021573154
-0.12999511
-0.041747484
-0.103852265
-0.06927821
-0.049381677
-0.1343634
-0.10079698
-0.0498974
0.09684106
0.016398603
0.12364656
-0.1809105
0.15469533
0.07065857
-0.19553745
0.044474203
0.042412624
0.06695718
-0.106961064
0.07125955
0.13265115
0.04780063
0.10813978
-0.05328965
-0.18847369
0.12923658
-0.0514266
0.028384333
0.0058668787
0.058296546
0.03793283
-0.033174947
-0.053054295
-0.14010988
-0.19434668
-0.1786399
-0.074197724
-0.024151662
0.13392676
0.00045083108
0.04253328
-0.048954923
0.009400428
-0.04565115
0.0027243802
-0.07355281
-0.0046975375
0.0561046
0.015254639
0.014596756
-0.28412646
-0.03714012
-0.11325004
0.13135292
-0.017888533
-0.055425674
-0.19782645
0.01740874
0.062409792
-0.056716774
-0.03555321
0.14300083
-0.037096288
-0.06350754
0.075433105
0.023434805
-0.20865548
-0.010892523
0.03742119
0.13675776
0.044669136
0.032318376
0.06337566
0.023394875
0.17377265
-0.02686205
-0.025099447
0.014857154
-0.06957172
0.037955593
-0.20399873
-0.022761442
-0.14887805
-0.0012882329
0.030960513
-0.024079118
-0.048128437
-0.14850454
-0.00092430424
-0.045916125
0.014682355
-0.2510096
0.031101229
-0.052048873
-0.102390446
-0.026583405
0.043013252
-0.05204969
-0.30756724
0.3203339
-0.2790053
-0.09515399
-0.17669599
0.045813195
-0.055639938
-0.01608741
-0.07637362
0.02408401
0.07587743
0.09028593
-0.10028469
-0.038152765
-0.28483462
-0.045294564
-0.036265433
-0.043963622
-0.03530652
-0.17391005
-0.06315297
0.3057097
-0.0350754
-0.19817936
0.054187663
-0.0074440464
0.119004846
-0.032268826
0.09175621
-0.040072314
-0.19791818
-0.20093864
-0.07059904
0.09747761
-0.023588859
0.02234744
0.104282185
0.037447914
0.13195278
-0.22239256
-0.050965346
0.15843183
-0.12256438
-0.24644898
-0.12372374
-0.1473913
0.091877274
-0.003277576
0.013895667
-0.11792522
-0.035187308
0.14693606
-0.14383413
-0.12579773
-0.16159539
0.086032785
-0.10759142
0.2381815
0.01682198
-0.111564785
-0.1487013
0.14252226
-0.24753459
-0.079017825
0.034095302
0.11980852
0.05107719
0.02789392
-0.12990542
0.017717484
-0.19129676
-0.022439176
0.05881431
0.048488583
0.044397984
-0.029435912
-0.056583315
0.0072906343
0.13712053
-0.028901374
0.17555048
0.086477675
-0.13951984
0.07299585
0.0278703
0.0022100091
-0.1199152
0.076131605
0.11212825
-0.17137298
-0.22644113
0.060048
-0.067427315
-0.038612973
0.08314637
0.10863213
-0.11688751
0.022929534
-0.043893863
-0.23095533
-0.18309827
-0.24374925
-0.14691058
0.027000606
0.08143633
0.090578444
-0.086754896
0.080946356
0.10876192
-0.270048
-0.117969394
-0.04340273
-0.00027758555
-0.00999308
-0.23577292
-0.0054264497
-0.042267993
0.04868157
0.09343627
0.12446891
0.04733189
-0.04612308
-0.0663376
-0.009386839
-0.075579405
0.09639088
-0.010247913
-0.032096304
0.11143722
-0.033941
-0.03817785
-0.2213301
-0.1402528
0.016951393
0.16214415
0.25596735
-0.06682701
0.030306337
0.10800966
-0.02876842
-0.20417401
-0.10572627
0.044971824
-0.05643455
-0.022930613
-0.07066832
0.014906708
0.019888744
0.007342201
0.059040755
0.007913658
0.17050098
-0.3346244
0.039808925
-0.05524983
-0.00060679007
0.0673119
-0.019362498
0.011254261
0.13762788
0.11983956
-0.0929144
-0.26302582
0.178697
-0.04059116
-0.15287878
-0.048777875
-0.02357694
0.040609512
-0.045432854
0.07849342
-0.019906485
-0.052837256
0.0052833157
0.10652244
-0.021052629
-0.0031320243
0.16420017
0.08255491
-0.21165079
0.12436917
0.0017515165
0.100056656
0.047204476
0.038916312
-0.11104084
0.018789528
0.108271025
-0.044631448
-0.024342889
-0.057458222
0.044065442
-0.13021989
-0.047525592
0.16980994
0.12824133
0.09141068
-0.029043
0.11943281
-0.004133247
0.14277185
0.12610525
-0.015648816
0.0671217
0.001234243
0.11073184
0.11505733
0.008549082
-0.07971529
0.027942
0.061373416
0.0063083735
-0.13555318
-0.029355608
0.038969796
-0.36894852
-0.059587933
-0.1358808
0.071432665
-0.08921277
-0.08099799
0.10630689
-0.22379987
0.15596431
0.06049038
-0.0013412358
-0.055972736
0.0234882
-0.3803855
0.1830823
-0.0080426065
0.0037586964
0.104206555
-0.2920476
-0.027450187
5.4681346e-05
0.09310111
0.1430637
0.079700395
-0.052403178
0.009657126
-0.06574398
-0.0048276163
0.021853907
-0.12651426
-0.046210233
-0.06943735
0.037632298
0.07840014
0.12376508
0.046050575
0.10315839
0.066346385
-0.035816535
0.033161055
0.16089855
-0.12372986
0.03349692
-0.17362936
0.14735456
0.14626162
-0.044509135
-0.056972392
0.15449698
0.04034104
0.055026248
-0.03338443
-0.11447819
-0.05051347
-0.08291434
-0.025610205
0.04428201
0.027021712
0.034565985
0.033238202
-0.07866075
-0.08831588
-0.120591
0.022117544
-0.05615298
-0.12611534
0.056941226
-0.12538475
0.059793267
-0.09007872
-0.0016083245
-0.15596929
0.01548556
-0.20920593
0.03176984
0.02520562
-0.15058218
-0.092300765
-0.18043214
0.17190358
-0.059256505
0.06494313
-0.121148944
0.0005767782
0.11549858
-0.19360496
0.0023410537
-0.00984862
0.010841766
-0.050126832
-0.17317289
-0.024253398
-0.063924596
0.07409904
0.021561125
-0.033765636
0.15379043
-0.010935432
-0.02425763
0.0096588945
0.032933436
0.01821836
0.08454436
0.1663369
-0.032214824
-0.13773632
-0.110526614
-0.28198656
-0.12162565
0.0228491
-0.162044
-0.07444195
0.05043442
-0.036356855
0.081207186
-0.0055610524
0.18199755
0.029696513
0.16739792
-0.066792615
0.006979061
-0.11057238
0.07351256
-0.25936267
-0.007363947
-0.02020168
-0.058825288
0.066361256
-0.016795155
0.10486148
-0.10792313
0.15249169
0.024797777
-0.013018062
0.010756034
0.01603023
-0.0914479
-0.24140948
-0.019241033
0.13871497
0.06982503
0.09186058
0.09882632
0.16608298
-0.033789944
0.029315738
-0.088559195
0.09027451
0.08277136
-0.10817347
-0.056175612
-0.14112006
0.0071116257
-0.029405015
0.0076592383
-0.053763457
0.015652569
0.21530484
-0.1331836
-0.09774611
0.060000025
-0.11000048
-0.28353542
-0.15052195
-0.40846407
0.058836192
-0.090544246
-0.03383306
-0.052941214
-0.036422163
-0.058387484
0.067112714
0.08502703
-0.28184488
0.009460641
0.038280766
0.045901813
0.028245645
-0.077429146
-0.123730935
-0.021848498
0.063191
-0.01393196
-0.12623064
-0.10439654
0.02659478
-0.21611798
0.010615047
-0.19483736
-0.17671026
0.11201987
-0.20537043
-0.042341273
0.14345922
-0.055670545
0.11700694
-0.002087461
-0.010737606
-0.038073573
0.026249554
0.011025644
0.04111783
-0.13029066
-0.044643458
0.026915962
-0.1445789
0.041516338
0.043834865
-0.093774155
-0.13202845
0.00010224455
-0.18183964
-0.014379606
-0.20363057
-0.33411437
0.036987927
0.07186595
-0.2053269
0.109275445
-0.29694188
-0.033814475
0.202432
-0.22139035
0.028722448
-0.012614103
0.016299265
-0.011309314
-0.008457734
-0.27404693
-0.076153904
-0.19090007
-0.022534562
0.20288187
-0.14596266
-0.09632328
-0.07785009
-0.05543696
0.25803
0.28965348
-0.13253795
0.16386624
-0.024703871
0.054536145
0.0136507815
0.020255096
0.016965438
0.20067953
0.013423429
-0.05728561
-0.026420675
-0.23220316
-0.08342171
0.03140676
-0.12081111
0.021076836
0.06024617
0.11087448
0.30741397
-0.09738048
-0.071323305
0.2673198
0.041362733
0.049387746
0.19631381
-0.17106262
-0.047502708
-0.030251954
-0.12781069
-0.047922373
-0.091043755
-0.10383294
-0.032388285
0.03458501
0.2875052
-0.11844639
0.09153005
0.08329149
0.30465958
-0.071284786
-0.0363217
-0.0003913997
-0.30470377
0.009073556
-0.028941497
-0.02451925
-0.07405743
0.01263232
-0.031515073
0.048336037
-0.01724839
0.04348523
0.02068388
0.018449666
-0.017257491
-0.029945172
0.04685199
-0.021566002
-0.037994374
-0.024851797
-0.0037331658
0.0137681505
-0.03815709
-0.040762883
0.016215606
-0.02185195
0.04415735
0.002897787
-0.037979413
0.045407563
-0.007006028
-0.012403348
-0.03546493
-0.007986862
0.03662298
0.013253025
0.020902975
0.015556381
0.030598035
-0.050121013
-0.029390844
0.01602272
0.017810667
0.028651837
0.04586724
-0.044995412
0.04642707
0.039442427
-0.0195037
-0.03009327
-0.034968995
-0.015467826
-0.01860822
-0.030305613
0.0126336785
0.026983012
0.049519565
0.00813719
0.03284003
0.014819242
0.030169139
0.028239569
-0.038622975
0.033664104
0.015469872
0.0032846008
-0.0228091
-0.00018220197
0.070932634
0.04166669
0.030836
0.034511883
-0.019928373
0.04962358
0.027436003
0.03014969
0.033315144
0.02249245
0.02688163
-0.023737064
-0.0056275893
-0.028398108
-0.020812172
0.029550148
-0.03975966
-0.015321199
-0.048900913
0.006004596
0.0063055246
-0.008738627
0.03823244
0.0350482
0.0057591237
-0.03966961
0.016679572
-0.016100148
-0.01041013
0.018160563
-0.034578014
-0.0059852623
0.033848926
0.029762087
-0.032278385
-0.050848003
-0.006079834
-0.029407814
-0.042994116
-0.041117724
-0.041495033
-0.043066345
-0.04184777
-0.026545139
-0.035627857
-0.01245209
-0.023107214
0.02491058
0.0041676145
0.023249282
0.027173791
0.019919619
0.038215514
0.018763587
-0.046147626
0.026965436
-0.021094492
0.014737792
-0.007714922
0.017245775
0.044807315
-0.008460985
0.025056625
0.035152853
0.056723107
-0.034851596
-0.048022557
0.10155204
-0.12463042
0.084614255
-0.056564048
-0.13237543
0.018392136
-0.17625779
0.15503429
-0.09747439
-0.0025336326
0.22657809
0.036348086
0.027382022
-0.08078193
-0.1602886
0.18267298
-0.03957279
-0.08938807
-0.18527435
0.094678536
0.210109
0.20834105
0.09876716
0.11989646
-0.07195141
-0.043526724
0.14616413
-0.0013714097
-0.048771843
0.11587386
0.21012044
0.035955723
-0.07444994
0.13010186
-0.02450411
0.015264215
0.009782048
-0.04636331
-0.06346444
0.091243155
0.03208758
-0.25571918
0.1707386
0.13384813
0.23394015
-0.06389777
0.044433393
0.0732297
0.14738889
-0.046292257
0.15538734
-0.1350043
0.22903776
0.23050568
-0.28416923
0.26149407
-0.011984681
-0.10120011
0.063322626
0.028635068
-0.07783182
-0.2074924
-0.057021894
0.060423452
0.029791659
0.0195989
-0.03181736
-0.00862325
0.085771866
-0.033800747
0.08732287
0.071877785
-0.13657431
0.016621081
0.07646977
-0.13008758
-0.03854055
-0.0552634
0.022454137
-0.08757586
0.11551721
0.070858836
-0.01748159
0.068627864
0.054943144
0.005242031
-0.201063
0.042391002
0.11710597
-0.29396844
-0.010668243
0.013340693
-0.09993289
-0.13425946
0.03500592
-0.051239643
-0.02850546
-0.0633852
-0.1152118
-0.19302621
-0.1680374
-0.075047895
0.26287955
-0.004450831
0.024484374
0.024077559
0.12470079
0.09235389
-0.0068635005
-0.060944702
0.05171969
0.04187811
-0.044110525
0.16880296
0.00037794778
0.29982293
0.09538243
-0.12202212
0.07528523
0.00699763
0.18295439
0.12691694
-0.004701533
0.13861054
-0.019939499
0.035964366
-0.0348398
-0.1748996
0.069822714
-0.07939414
-0.03745141
-0.03965711
0.014710508
-0.106599204
-0.0020360514
-0.03745813
0.0734767
-0.03753427
-0.052377675
-0.072758496
0.038701598
0.121175006
-0.14001566
-0.004992242
-0.0018662876
-0.078393646
-0.025895318
0.10581064
0.09143316
0.0656127
0.24816076
-0.031398974
-0.08824784
-0.14277883
-0.17018607
-0.008982022
0.2832121
0.021586133
-0.07535386
0.03712817
0.22044848
0.11269205
-0.020148313
-0.016826153
-0.022842366
-0.09381789
-0.026761027
-0.19197431
-0.0014395372
0.09312809
0.156454
-0.06825439
-0.031793404
-0.04446971
0.1739958
-0.09882054
0.21993865
-0.095638715
-0.12958892
-0.088231355
0.1328145
0.053483866
-0.011970012
0.02876639
-0.12363452
0.11493473
-0.009226487
0.19340135
0.025342068
0.13761082
0.008243492
-0.098960005
-0.042467717
0.12033866
-0.23123533
0.0022113966
0.26368415
0.029222043
0.07512307
0.034706406
-0.044232868
-0.25154573
-0.10414096
-0.03774642
0.027448999
-0.09739758
-0.059633236
0.01120795
0.03663285
-0.04668565
-0.114883125
-0.0028233044
0.06779422
-0.030817192
-0.04232919
-0.056545086
0.12771153
0.21010731
-0.012727899
-0.11334484
-0.017406343
0.12869368
-0.037264824
0.2806044
-0.08867674
0.11934216
0.004854899
-0.22107086
-0.02611269
-0.21059325
-0.007268074
-0.0142151285
-0.10274081
0.094234824
-0.08400583
0.12796241
-0.05229799
-0.25967214
-0.07056403
0.13599935
0.015612594
-0.26333314
-0.0421975
-0.23337135
-0.15111554
0.100612566
-0.07588699
0.18729651
-0.03624491
0.17946371
-0.052709375
0.041995406
0.0037971993
0.054431327
0.045665335
0.07885678
-0.16667907
0.17815226
-0.020045083
0.13904794
-0.15673128
0.07534986
-0.21813586
-0.25107637
-0.064216144
0.025385909
-0.13360396
-0.1618893
0.19321057
-0.14555798
0.032024026
-0.04787494
0.00041373496
0.15138295
0.100088544
-0.04848882
-0.08599664
-0.055160075
0.21481173
0.14799541
-0.024164459
-0.2662067
-0.26146358
0.0033108778
0.10636417
-0.085301235
0.03478472
-0.105277024
0.24855386
0.063497014
-0.08891907
-0.08784858
-0.0014917286
-0.13611567
-0.004630801
-0.13622522
0.009854666
0.069409214
0.047238607
-0.12942028
-0.23600246
0.119277336
0.025934488
0.14024955
0.03381749
-0.13805604
-0.1490517
0.046649158
-0.103617534
0.102875076
0.22533688
0.053067986
0.011194724
-0.035756726
-0.17000549
0.0991739
-0.05865066
0.010136749
0.046994776
-0.13351956
-0.0613244
-0.2308726
-0.08502446
-0.09492005
0.15113685
-0.030245319
-0.40223143
-0.24149516
-0.018696504
-0.13089304
0.1704547
-0.019250276
0.023829535
-0.05411027
0.04998986
-0.2047286
-0.093921185
0.03314099
-0.31268328
-0.023249026
0.073887765
-0.031001143
-0.022601709
-0.062201373
-0.022442281
0.12185943
-0.048440065
0.07592611
-0.10903317
-0.04751563
0.107721865
0.068735786
-0.04214167
0.071854934
-0.08051942
0.14028582
0.14669411
-0.095063664
-0.056261245
-0.07586949
0.026470264
0.18862377
-0.14931142
-0.1689293
-0.016410215
0.08491384
-0.06606642
-0.102216154
-0.2914445
-0.04690824
-0.048700258
0.035880994
-0.19895571
-0.12706244
-0.072646566
0.08719004
-0.23118901
-0.18011214
0.037549865
-0.098214686
-0.010745814
-0.0005716835
-0.09053833
-0.008320991
0.16194975
-0.21694262
0.15005131
-0.1281602
-0.3232655
-0.021618713
-0.089180514
0.009672048
0.11276485
-0.038814917
0.17097408
0.048929483
0.030081196
-0.010499267
0.06764303
-0.057330433
0.008823785
0.1768239
0.035167348
0.08020304
-0.0049616117
0.07717473
0.021396352
-0.0493065
-0.05133103
-0.058290087
-0.0817089
-0.01460696
0.035893314
-0.115469605
0.08650316
-0.04730546
-0.00894006
0.06130442
0.07340842
-0.14327139
0.02765002
0.03270798
0.08962806
0.11553076
-0.01349905
0.08435668
0.12999147
-0.022714464
0.019849626
0.07250649
0.14798424
-0.14940539
-0.011270735
0.13096076
0.14814322
-0.15955132
-0.10073777
-0.09710344
0.09273574
-0.124835
-0.1504857
0.10169596
0.09398133
0.03440647
0.15609244
-0.04629593
-0.07903598
-0.11608366
0.014167637
-0.01703506
0.03950682
-0.05799252
-0.04924246
-0.04879446
-0.012284613
0.081071004
-0.07595956
0.020411743
0.05667374
-0.0002508492
-0.03031496
-0.22202432
-0.20608069
-0.061695956
-0.033763997
-0.03651853
0.0070322794
-0.031645857
0.07733526
-0.002230812
-0.17406805
0.025005434
0.24805951
0.07475736
-0.0067939847
0.040918987
-0.052755624
-0.066845745
-0.05572684
0.11046879
-0.043921992
-0.09573373
-0.25081283
-0.053457428
-0.13103509
-0.025601652
0.11678907
-0.03343596
0.16753146
-0.009916946
0.020433532
0.030203924
-0.009300647
-0.020138593
-0.06304182
-0.018515978
-0.050282933
-0.10513512
0.020770337
-0.023911003
-0.08717556
-0.03179223
0.08199718
-0.052196838
0.22500962
0.13929084
-0.029737528
-0.22038198
0.040544935
0.036015373
-0.036335386
-0.0024982516
0.04212735
-0.06367147
-0.1673515
-0.19386962
-0.13908657
-0.05098791
-0.1299432
0.0872292
0.13774021
-0.05409371
0.08518715
0.04116868
-0.11769461
-0.008985237
0.080302365
0.042528734
-0.040881075
-0.022106176
-0.023244211
0.026134446
0.17775097
-0.038085166
0.1699852
0.08252073
-0.029191485
0.15125611
0.032296825
0.044514433
-0.013260015
0.27077636
0.014415963
-0.027697952
-0.12869757
0.049009077
-0.2041057
0.0077722548
-0.02500378
-0.071847
0.021267075
-0.0034251353
-0.024172349
-0.16835621
0.09191406
0.088092126
0.15963617
0.03585811
-0.16542055
0.08865155
0.11704519
-0.1671501
0.037263293
-0.15549967
0.15791164
0.13742657
-0.1871252
0.110586114
-0.18033092
0.1131944
0.025149012
0.36321387
0.01579721
-0.013999803
-0.06399824
0.1641799
-0.23094682
-0.08582723
-0.28301418
0.022287494
0.05063012
0.011097624
0.15095927
0.058181033
-0.24545322
0.069619976
0.13526152
-0.04232399
-0.002266511
-0.1248793
-0.18069917
-0.13231331
0.14923082
-0.0014782061
0.030643381
0.19571935
0.071697295
0.045132164
0.07066236
0.019150114
0.070719644
-0.04671969
-0.0401769
-0.11809955
-0.06498284
-0.15354992
-0.0983086
-0.17796789
0.014461768
0.085027754
0.101090565
-0.21594554
-0.020205176
-0.015314302
0.13009812
0.0009440656
0.058418047
-0.08004244
-0.034896024
0.017110955
-0.021640738
0.038762417
0.07419943
-0.025714502
-0.015936302
0.11106655
0.010003531
0.1837012
0.016912322
-0.020492474
0.08831877
-0.056084394
0.14860874
0.07314345
0.018175915
0.15700948
0.049410347
-0.08358621
0.040490206
-0.055336226
-0.05308895
-0.38997823
0.028101059
-0.12536694
-0.07448517
-0.1520569
0.036146108
-0.005271214
0.20915638
-0.03648496
-0.012718358
0.20608874
-0.14455795
0.042266894
0.02971471
-0.08640632
-0.007070976
-0.00888921
0.004239987
-0.09527031
0.06500445
-0.0030780763
-0.14670253
-0.11469153
-0.025271341
-0.017742565
-0.24428985
-0.06459855
0.01936084
0.069423206
-0.0036431202
0.08918055
0.019420803
-0.031225977
-0.12310641
-0.062645264
-0.007669539
-0.04883047
-0.007470574
-0.17640439
0.03462896
-0.20925504
0.040856924
-0.009422555
0.0333145
0.009116879
0.06861238
-0.003395248
-0.121598035
0.12954266
-0.13136128
0.04613263
0.026337879
0.07062373
-0.115389235
0.06515637
0.054470714
0.22659193
0.13903059
-0.12222057
-0.16333859
0.013149552
-0.059339236
0.083028495
-0.18450129
0.05367068
0.12241203
-0.010337178
-0.038129836
0.023717424
0.11492609
0.014124038
0.0304608
-0.09762779
-0.027495317
-0.0072247414
0.011422501
-0.17624624
0.12048168
-0.040876154
0.064669244
-0.16631854
0.034229726
-0.14889532
0.032477885
-0.019148743
-0.027967708
-0.04956294
0.08488903
-0.078915775
-0.03393114
-0.17184822
-0.0384957
-0.055926733
0.09285842
0.04579946
-0.00070486794
-0.11293777
-0.12599598
-0.20724115
-0.16175263
0.10733827
0.08267628
-0.066766135
-0.13011241
0.006909636
-0.105183676
0.055387706
0.035255566
-0.016654922
-0.014380305
0.025193168
-0.012418599
0.049704436
0.009624873
-0.05509929
-0.122453414
0.028826024
-0.18058181
0.049958248
0.1362819
-0.039642196
0.026455842
-0.12609836
-0.018947853
-0.04506981
0.02391825
0.024315482
0.018100223
0.050973136
0.03266314
-0.032451138
0.006241932
0.015020508
-0.023157265
0.050994348
0.03374556
-0.00232514
0.009945993
-0.05162873
0.024128148
-0.019932233
-0.002254682
-0.005184147
0.048226777
0.03418848
-0.00980052
0.0580385
-0.008648499
0.014915888
0.005308113
-0.010455759
-0.011749074
0.04947157
0.06671802
0.012242205
0.022107625
0.01572321
0.015723633
-0.0041791745
-0.052109443
0.037969463
0.01909943
0.038677737
0.036599167
-0.018091813
0.035254933
0.0032073138
0.050890394
-0.008908594
-0.047599822
0.016045436
-0.024844483
-0.03515002
-0.031008562
0.015505728
-0.049810607
0.041719776
0.001494797
0.020862779
-0.0745033
-0.02302392
-0.024977997
0.031100933
0.010323894
0.04098671
0.0014824369
0.009588181
-0.022379901
-0.029595751
0.051499847
0.09896362
0.0099831205
0.008698171
0.026716612
-0.049923744
0.031646628
0.017948456
-0.017543113
0.04980281
0.03753468
-0.047675163
-0.00023355782
-0.055761684
-0.044026747
0.063249804
0.05640441
-0.025133124
0.0010633599
0.029713064
-0.025144026
-0.018633977
-0.031090869
-0.015069332
0.048322357
-0.038260248
-0.024120776
-0.0071100527
0.03288517
-0.038986992
0.018052714
0.009709501
-0.021141946
0.0361037
-0.016673662
0.023422675
-0.03262933
0.0052425223
0.01129987
0.012511266
0.003953672
0.015282363
-0.0026308536
0.051206592
0.0020882722
-0.030896368
0.0003497471
-0.007917811
-0.05509408
0.011529961
-0.025742136
0.04440859
-0.0048855417
0.009243342
-0.0058082626
0.013177646
-0.017528696
0.016333828
-0.011571201
-0.04392686
-0.034359045
-0.045466773
-0.0023753503
-0.028664118
0.011403199
0.033167847
-0.028500307
0.039135356
0.016820671
-0.021324001
0.021669375
0.026794013
-0.044411395
-0.03969612
-0.025301497
-0.020166337
0.011623948
-0.026089929
-0.047166858
-0.040315922
0.014616415
0.053623468
-0.031692747
-0.02088571
0.024959613
0.031149618
-0.0045327176
-0.011699295
0.025547408
-0.037948266
-0.0014346661
0.035431158
-0.0038122174
0.033856787
0.031272512
-0.031210762
0.024829628
-0.020014497
0.013048599
0.018684601
0.017102748
-0.026610559
-0.004357967
-0.048041113
0.017746499
0.023845708
-0.024147928
-0.003231677
0.003196112
-0.041784704
-0.01159574
-0.008448257
0.008365544
-0.014636242
-0.0013199288
0.017668065
-0.03357435
-0.038871136
0.0051487824
-0.007026309
-0.004170188
0.025149038
0.023181345
-0.046095766
0.0039225197
-0.03301356
-0.036576807
0.033529386
0.01494902
-0.004004475
-0.020090435
-0.020429613
0.016287351
0.004819351
0.030115979
-0.03616448
-0.04097611
-0.007491109
0.020947281
-0.004583449
-0.03332029
0.016460245
0.0022063402
-0.029298665
0.004045406
0.03362449
0.039219495
-0.04776296
0.011484509
-0.04516393
0.034572866
-0.0071382965
-0.032843456
0.037188794
-0.021367846
0.020158993
0.00024255972
-0.003372262
-0.03646607
-0.027526062
-0.03571817
0.039963428
-0.033338305
-0.044947967
-0.042032134
0.051467195
-0.019795705
0.034918405
0.030381206
-0.015983446
0.0358066
-0.027632894
-0.010905306
-0.0053270655
0.012161312
-0.00844051
-0.047268584
-0.04108346
0.033048484
0.0207563
-0.008142071
0.010859927
0.0061237696
0.045610394
0.02836354
-0.03516146
-0.036115292
0.021568136
-0.05069137
-0.01437742
-0.007145591
-0.038335238
-0.025996255
-0.024542589
-0.032492064
0.055578753
0.046308618
0.06768492
0.051077534
0.0027295281
-0.028476154
0.0029111966
-0.07622971
-0.014204762
-0.022349397
0.06291112
0.07281581
0.0121990815
0.033440795
0.08323814
-0.02558576
0.0052939346
0.019283822
0.011749209
0.0041299653
0.05462885
-0.0007779762
0.042944554
-0.041030966
-0.031865776
0.037961125
-0.011158247
0.08268413
-0.047910113
-0.02305779
-0.038807094
0.019620372
-0.01364115
0.0019952238
-0.052363522
0.00011629674
-0.013215131
-0.0010580238
0.014198265
-0.041423783
0.018063646
0.025774809
0.028944807
0.02209799
-0.084238775
-0.046118774
0.07380424
0.05204001
-0.0155526465
-0.08872692
-0.048659123
0.023409985
0.068336606
0.036709882
-0.012263416
0.06839901
-0.06648413
0.0020975803
0.046596233
0.0054579624
0.04211674
0.009328383
0.09175553
0.106110856
-0.022043897
0.049925726
0.0127905095
0.01025766
-0.054215156
-0.01170156
0.03353047
0.06537635
-0.038267992
0.062123787
-0.03652491
-0.054711096
0.018076781
-0.05398441
0.004881242
-0.0090260375
0.042894904
-0.007116486
0.055758093
-0.031143915
0.02727585
-0.016621033
-0.013489845
0.06480068
-0.05973238
-0.0413211
0.03976882
0.037497263
0.0065330574
0.012482567
0.08617794
-0.044229545
0.012182859
-0.017577235
0.04071834
-0.0023245895
0.020053236
-0.10192192
-0.017751193
-0.02916175
0.0023132898
0.07624889
0.043185618
0.041711506
0.01584623
0.0066166595
0.031353716
-0.009156927
-0.012705117
-0.015654316
-0.085400224
-0.0814124
0.011546657
0.02785281
0.06231372
0.018707203
0.020137137
0.0062517202
0.014078341
0.037163362
0.027632268
-0.03572289
0.019187508
-0.10618135
0.102875754
0.05712095
0.24003913
-0.17152146
0.12714414
-0.28918403
0.042553574
-0.0745029
-0.057852767
0.0060503837
-0.02133734
0.22683515
-0.12966347
0.011904868
0.3423808
-0.038455933
0.0046977466
0.07086603
-0.12743622
0.07616897
-0.04616179
0.12393294
-0.050675742
-0.014671928
-0.1658252
-0.14410925
0.045352437
-0.038598243
-0.02081385
-0.06004531
0.18276657
0.18188354
0.23306811
0.056466326
0.033114195
-0.024882102
0.13530312
0.13281155
0.016383301
-0.03166815
0.014760707
-0.05698036
-0.22643718
-0.010696643
-0.1564055
0.029209737
0.033231083
0.10757114
-0.16549604
-0.10868412
-0.13506015
0.03762821
0.17477088
-0.0076456927
-0.16830818
0.13390592
-0.016853133
-0.100703485
0.13163234
0.041550476
0.24624074
0.1279881
-0.07081168
0.1088691
-0.17414604
0.05665434
0.012783
0.20753908
0.007064997
-0.19469799
-0.33599797
0.0474201
0.058687937
-0.034979466
-0.13090517
-0.08185768
-0.08692627
0.028651489
-0.1652174
-0.018709298
-0.18764238
0.05418174
-0.11482678
0.1856866
-0.03713321
0.015028816
0.013231245
-0.057892866
-0.018183824
0.026343053
-0.17886208
0.10886892
0.012982691
0.17926347
0.082223415
0.026783882
-0.07969488
0.1283768
-0.18848173
-0.2072888
-0.0057067685
-0.25067788
0.010464914
-0.15139316
0.11386441
0.15553062
-0.2715927
-0.020930098
0.13994367
0.08817846
-0.22571702
0.00478374
-0.04899485
0.039268915
0.0038213038
-0.09513281
0.113231935
0.06622108
-0.10005732
0.031891
-0.029540531
-0.079647236
-0.11362648
0.02260147
0.002724385
-0.05189562
0.083434135
0.038375013
0.03111585
0.04189301
-0.010939174
-0.0290551
0.019761661
0.002305927
0.029185241
0.007082622
-0.009550883
-0.053418096
-0.042729057
-0.036142208
-0.01775142
-0.018249603
-0.019961549
0.001859987
0.042216767
0.02985579
0.05393273
-0.02378455
-0.018032601
0.009278268
-0.0039060693
-0.042988908
-0.016722828
-0.031873047
0.010685556
0.003991137
0.027104413
0.036430296
-0.0039644865
-0.011205644
-0.0473767
-0.019069592
0.03177823
-0.032690942
-0.009208435
0.02810118
0.025279377
0.03237675
-0.00047146215
-0.03827289
0.036179073
0.035437454
-0.005190689
-0.009800408
0.04113106
-0.009833371
0.0038513558
-0.038178716
-0.008616485
0.013353042
0.0015881846
-0.03903534
0.028144691
0.02732225
-0.010523759
0.021560922
0.00024382352
0.014427416
-0.012796607
-0.04302603
0.0030238286
0.04458127
-0.007945145
0.0050178766
-0.005509123
0.0074398373
-0.034203406
0.02342162
-0.011611459
-0.013017724
-0.043691617
-0.038584955
-0.054832652
0.015970295
-0.016375192
-0.02447715
0.00032949762
-0.04554724
0.0023479406
-0.048944157
0.055384617
0.043263312
0.032623198
0.0022353886
-0.0073548905
-0.047154352
0.020349922
0.047661744
-0.028908327
0.032573823
-0.016845617
0.006025848
-0.026018543
-0.0111907255
-0.040678624
0.029053677
0.040677212
0.004436156
-0.030895058
0.028009862
-0.0007434562
0.026410913
0.0322002
0.054831747
-0.05314734
-0.033964224
0.032071564
0.024150195
-0.02333865
0.0010241386
0.0032636295
0.014505569
0.0050812406
-0.009822965
-0.033948053
-0.049146175
-0.0012354671
0.009602851
-0.003639065
-0.011497503
0.019904356
0.0059721814
0.0051162927
-0.051249083
0.030934507
-0.007219644
0.1419593
-0.105620824
0.02067522
0.036183383
-0.0074270973
0.04340995
0.08916447
0.04819205
-0.012575915
-0.064085186
-0.052952934
-0.0006678761
-0.15080254
-0.005245824
-0.032656528
0.011806088
-0.059295047
-0.06876838
0.035993584
0.0022732525
0.032132547
0.013366693
-0.062480927
0.01988168
-0.08151458
-0.104687616
-0.017474249
0.0738605
-0.0061450824
0.03849347
0.01647843
-0.07369073
-0.013904916
0.03379773
-0.009276094
0.0023806042
-0.20206973
-0.096958175
0.09149449
0.013429042
-0.029738173
0.022740202
0.15472323
-0.0054644607
0.0038701596
0.024074141
0.06816538
-0.053226948
-0.0064499434
-0.013563226
-0.053564034
-0.021091277
0.016934695
-0.020787705
-0.04862296
-0.00226338
0.0105845155
0.018630713
0.03150839
-0.032419905
-0.011879402
-0.03952841
-0.048015773
-0.067078374
-0.055633437
0.090149805
0.012659725
-0.05161653
-0.03430253
0.02101448
0.121455945
-0.065704726
-0.03212946
0.026592072
0.0077847997
-0.05238598
0.01749184
-0.012732512
0.09888828
-0.0212881
-0.05028868
0.08379197
0.028559206
-0.046851095
0.035507847
-0.044025093
0.007901209
-0.032505475
0.0013913217
-0.047453307
-0.10191183
0.008395816
-0.026682263
0.09060125
-0.049725465
0.009065625
0.033221684
-0.0045308233
0.06803938
-0.055051886
0.074006066
0.102809645
-0.030184861
-0.009092679
0.0012213179
0.035053782
-0.11033747
0.037808914
0.0636344
-0.032687828
0.038061246
0.1499314
0.07731787
-0.010220365
0.029544765
0.029981889
-0.00014659275
-0.030041069
0.08495591
0.082186066
0.016385118
0.01829933
-0.114965245
0.039479658
0.07840529
-0.033480573
0.034954574
-0.12997645
-0.16632609
0.041018937
-0.21072999
0.10385313
-0.30304533
0.002959481
0.023095975
0.002666411
-0.09100029
0.11071803
-0.024826905
-0.06458572
-0.17808054
-0.040312864
-0.25922504
-0.0003520926
0.020293422
-0.17246391
0.10830863
0.06402868
0.28640082
0.051541213
-0.046249796
0.04564132
0.016484542
-0.07120121
-0.025230525
0.010116649
-0.12811695
-0.0055647963
-0.05666336
0.14785382
0.053312577
0.084010415
0.17128418
0.056171924
-0.057147592
0.05517189
-0.1659691
-0.027252935
0.07434979
-0.036132723
-0.043925
0.07167725
-0.09500189
0.09832465
-0.1744536
0.10830295
0.05212401
-0.13804868
-0.18087782
0.25345188
-0.020400606
-0.11644638
-0.11458355
0.03557354
0.112808965
0.27361408
0.11314403
-0.054903638
0.07333438
0.087080374
-0.110645056
-0.080022685
-0.054377556
-0.20921175
0.0028832613
0.17384599
0.0123789385
0.011047134
0.09331434
-0.05964856
-0.047338556
-0.15345898
-0.065318264
0.047755547
-0.04973417
0.016325423
-0.11185551
0.17711054
-0.11851188
0.003871404
-0.109762065
0.009127962
0.017492924
-0.014410556
0.0055260966
0.3177624
-0.06409511
-0.057797562
-0.16894734
-0.14721216
-0.14327201
-0.16214663
0.17644636
-0.0058740247
-0.01340574
-0.0070737773
0.23206441
0.024399905
0.08347297
0.16560835
-0.028367475
-0.027633157
-0.14025295
-0.08749157
0.1299353
0.014597697
0.027423624
-0.17670332
0.18570039
-0.14588296
-0.20826346
0.0054551577
-0.14789863
-0.0384802
0.034871817
-0.15336747
0.17839426
0.051340964
0.05483506
-0.012116356
-0.13597171
-0.029543148
-0.011946593
-0.01503049
0.1361698
0.053860653
-0.20864388
-0.028855126
0.048724707
-0.10965072
-0.017642783
0.009467719
-0.0732882
0.00014870048
0.019216029
0.0602981
-0.23060906
-0.10047759
0.02828082
0.012139819
-0.022109322
-0.056879625
0.032353137
-0.046747126
0.09757559
0.06958044
0.12470737
0.03360523
-0.0063567017
-0.05212335
-0.0038756824
-0.11955877
-0.051207643
-0.0051585543
0.16222227
-0.06550022
-0.006747197
-0.038655978
-0.075580455
-0.03585444
0.09058638
0.018680518
-0.1584657
0.09185329
0.053861074
-0.00945404
0.09881725
0.030701865
-0.13304965
-0.0039796685
-0.12541819
0.047153413
0.06736216
0.05884436
-0.09046435
-0.18387544
-0.011944023
-0.01507105
-0.0018036594
-0.054877132
0.011940037
-0.10145312
-0.038712412
0.065275826
-0.012806981
0.026015313
-0.068623155
-0.049983393
-0.0956223
-0.10945139
-0.32999003
0.06385603
-0.043070707
-0.1069701
-0.088680506
0.12669398
0.11387903
-0.011342687
-0.036790285
0.006802186
0.01939942
0.18144086
-0.0051699933
-0.041399468
-0.18645309
-0.13827567
0.0101466775
-0.10713528
-0.12169681
0.03769432
-0.065494955
0.03735544
0.020742925
-0.0030635614
0.018652996
0.013592001
0.07797165
0.15591988
0.04849158
-0.011709224
0.032334067
0.0777395
0.037706953
0.0521062
-0.022222994
0.11045676
-0.020384826
-0.12869368
-0.027998812
0.007975836
0.08290178
-0.070825286
0.14707394
-0.014416574
-0.050044645
-0.11662212
-0.057452455
-0.049770985
-0.08191407
-0.0048476257
-0.15741287
0.17678367
0.073436156
-0.08098353
0.052105773
-0.07550791
-0.12715541
-0.053532396
0.035982873
-0.0010355713
-0.10698219
0.031864863
-0.21686947
-0.05996382
-0.021960694
-0.16998954
-0.059466783
-0.11694171
0.12215905
-0.14791924
0.11031107
-0.027327735
-0.05338065
-0.14445218
-0.0018831802
-0.18457888
0.03519869
-0.058041707
-0.015138765
-0.041269753
-0.15529339
-0.15496448
-0.018160095
-0.08747325
-0.04711174
-0.013949413
-0.11382941
0.025689613
0.09849142
0.10400523
-0.010622326
0.115964405
0.070049435
-0.12891036
-0.022403684
-0.12415268
-0.08269606
-0.04519205
0.005624442
0.031214546
0.08518218
0.04280023
-0.123381205
0.022953112
-0.11602749
-0.077507585
-0.064511366
0.023931863
-0.29413024
0.022483042
0.10871558
-0.26950154
-0.14263915
0.04594698
-0.038115334
0.23681688
0.21359079
-0.038734663
-0.016706062
-0.13598172
0.13839124
-0.0365749
-0.06933396
0.16818318
-0.1108644
0.12256783
0.043116167
-0.00999774
-0.037692867
-0.02789026
-0.06281032
0.1306035
0.020656237
-0.0062043043
-0.09552106
-0.08405448
0.027295185
-0.122191824
-0.031708993
-0.276097
0.031818524
0.15029126
0.08844902
-0.10915958
-0.07028171
-0.07732336
0.15831313
0.04903922
-0.050822083
-0.1782464
0.038906176
0.22506383
-0.13088265
0.012114214
-0.096584275
-0.07732716
-0.1999242
0.018989522
0.10758782
0.035992526
-0.01356785
0.08731217
-0.12953314
0.039614823
-0.10910076
0.042647284
-0.020970725
-0.10341347
-0.040669814
-0.018206349
-0.014537874
0.018088026
0.17315309
0.022068094
0.07057154
0.021736372
-0.08699783
0.0072469544
0.09924914
-2.9797988e-05
0.11778252
-0.087594606
-0.03322703
-0.08694805
-0.01356405
-0.022423556
-0.21916337
-0.04124243
-0.031310655
-0.009869985
0.05645758
-0.11723156
-0.14733516
-0.034285236
-0.25532016
0.10037997
-0.11581454
0.078296475
-0.09657027
0.12419049
-0.048740897
0.012283773
0.06888566
-0.07137238
-0.101503335
0.2027979
-0.0031923188
-0.07056626
-0.17349175
-0.2751972
0.15205994
-0.08837396
-0.23087578
0.18988635
-0.064232536
-0.03949776
-0.15731137
-0.1000441
0.00080113113
-0.023861954
-0.059561245
-0.05712111
-0.11459924
0.021347132
-0.010457031
-0.07853349
0.12840086
0.013846663
0.050765313
0.14503212
0.06350074
0.009423728
-0.16522667
-0.12430241
-0.050685417
-0.054216813
-0.20467187
0.1485521
0.11899713
-0.018453646
0.12881926
-0.094877824
-0.05722651
-0.18602836
0.03961048
-0.18227619
-0.06405285
0.09301796
0.036821898
-0.17185894
-0.21680641
-0.02863737
-0.089568995
0.060513522
-0.037033208
-0.07273374
-0.074960046
-0.012250165
-0.014202822
0.047601853
-0.022594325
-0.064658225
0.05881003
0.055904508
0.049262393
0.08651364
0.028965408
-0.17008595
-0.08791376
-0.09596674
-0.07684522
-0.15746966
-0.38072845
-0.017220171
-0.10509134
-0.02697686
0.0064505716
-0.09152471
-0.033645123
0.007870361
0.031405937
0.052953985
0.16693586
0.078566946
0.17411064
-0.10586344
-0.08354951
-0.015838552
0.020118749
0.001497646
0.1131358
0.08266916
-0.20227419
-0.09363332
-0.070190944
-0.049384594
0.042937085
0.015838595
-0.006911199
-0.03985924
-0.14734612
-0.008545134
0.05622564
-0.07254872
-0.07947306
0.015429734
0.0856711
0.07491503
0.007319191
0.04630079
0.03735037
0.09917477
-0.18604545
-0.02275657
-0.14148603
0.011255011
0.106779076
0.053152133
0.09015758
-0.07343724
-0.02229301
0.03184136
0.10559792
-0.028710907
0.0016180328
-0.014107125
0.2316089
-0.21888855
-0.007364104
-0.052356206
-0.024889274
0.15617242
-0.044239126
0.0436353
0.12302893
-0.043158825
-0.17270672
0.0838751
0.012452004
-0.13872209
-0.0015670928
0.025226995
-0.095237166
-0.102566324
0.11706385
0.12304322
-0.072308905
0.15618393
0.032168433
0.0940799
-0.13880698
-0.04535889
0.039970934
0.041669555
-0.087723136
0.05095926
0.046522386
0.024182316
-0.016079208
0.03182196
-0.2640229
0.11007489
-0.15836075
-0.15558837
-0.14572567
-0.023869377
0.083839945
-0.14260764
0.071223654
0.0001608073
0.09904473
-0.146954
0.12096372
0.25308844
-0.31010595
0.1549604
0.08990644
-0.28569046
0.11664012
-0.025975272
0.12482763
0.08927992
0.059909783
0.058493774
-0.16946313
0.013094579
-0.009202658
0.0016535235
-0.053458426
-0.1122566
-0.050123297
0.11539248
-0.026554912
-0.024846999
-0.1726133
-0.18204835
-0.16710974
0.08009423
0.044159073
-0.16570058
-0.037775468
0.045289714
-0.0007400926
-0.084962346
-0.04649124
-0.065024994
-0.035053212
0.010035213
-0.18519302
-0.020540558
-0.25868267
-0.13879061
-0.2697307
0.043181635
0.06709077
-0.043870606
-0.05617295
-0.13925163
0.025534857
0.026231622
-0.023249194
0.023058057
-0.06012503
-0.043163687
0.055956688
-0.0038460477
-0.2051147
-0.02035021
0.06913051
0.12381146
-0.022911875
0.0417033
-0.046586916
0.03153527
0.178695
-0.048217542
0.10761771
0.1242126
-0.28565025
-0.031163694
-0.11629724
-0.054884445
-0.063630745
-0.041622035
-0.03924286
-0.000262669
0.14524847
-0.10421021
-0.08548811
-0.056149762
0.10491819
-0.2704095
0.07723892
0.08210555
-0.03206762
0.12921114
-0.030678246
0.16720258
-0.062439237
0.062102895
0.09936059
-0.027769366
0.008292484
0.006289817
0.10662843
-0.087062895
0.103741035
0.07517681
0.0005204902
0.1360604
-0.08078156
0.011698248
0.02155693
-0.011355573
-0.04166518
0.16299178
0.066704266
-0.09328041
-0.016611995
0.06438761
0.1131399
0.088114865
-0.053575523
-0.03248966
-0.033649772
0.10178887
-0.09519371
0.017657347
-0.03954696
0.14997219
-0.11057276
-0.1185766
0.12865366
0.009330409
0.013367644
0.013541698
0.109233916
-0.06644925
-0.14094186
0.027328257
-0.11252207
-0.07207772
0.057568517
0.008243355
0.13020884
-0.0006296824
0.07040887
0.15950558
0.0072542806
0.059915405
-0.1191211
-0.016179137
-0.17596492
-0.0129611045
-0.06920306
0.025260637
-0.02469738
0.016729005
-0.07981498
0.07061822
-0.11768279
-0.021981914
0.030371485
0.056601536
0.17269525
-0.075025275
-0.16396445
-0.011941938
0.056867212
-0.1018792
-0.14013812
0.031192485
-0.03252777
-0.11533005
-0.00048148024
0.045612067
0.048632115
-0.07170039
-0.03799091
0.08453915
0.0036750068
0.027392998
0.017554611
-0.05928422
0.09892431
0.041503463
-0.20690088
0.04398346
-0.21830332
-0.15594068
0.018617483
-0.017097048
0.12264496
-0.05971349
0.19381858
-0.03947146
-0.10962139
-0.22145334
0.0137201855
-0.15619484
-0.0532334
0.0077800085
-0.35082468
0.02587894
-0.1052517
-0.009925799
0.027187137
0.13577697
0.0028123872
0.023604745
0.08620992
-0.014851717
-0.17700468
-0.04021724
-0.012411521
-0.08349645
0.1566087
-0.1691346
0.083026126
-0.02287798
0.15509899
0.003184184
-0.0042179776
-0.06771952
-0.00030653915
-0.122510545
0.033545323
0.029935978
-0.03192254
-0.045299202
0.06797847
-0.023179613
0.078808926
-0.019115143
0.012207821
-0.06636416
0.00057039835
0.07197347
0.08336905
-0.0793666
0.03415196
-0.0013658649
-0.00048658624
0.009465788
-0.099619724
-0.0023970436
0.09609405
0.08065488
0.066379055
-0.02037868
-0.0074339425
-0.055110633
-0.011453954
0.022172308
0.051799808
-0.0100182565
0.084686935
0.09895261
-0.057179198
0.20719449
0.05223541
0.0037340894
0.020124933
0.06550643
0.03827254
0.08933434
0.10132573
0.078186594
0.026024532
-0.07923061
-0.1780589
0.17775466
0.10883834
-0.059845578
0.10357076
-0.045022804
0.11369944
0.02580334
-0.03378064
0.061477616
0.0029445558
-0.049846087
-0.034017965
0.055562064
-0.055697143
-0.013607534
-0.05945085
0.0028895652
-0.13679655
-0.17903554
0.13241075
0.11864117
0.1317618
-0.07196416
0.036266975
-0.10143915
0.06933983
-0.033718713
0.1890088
-0.04101806
-0.035915643
0.2404622
-0.0041659544
-0.10964774
-0.09562342
0.030091563
-0.10998054
0.034220733
0.09992274
0.04000269
-0.023459386
-0.0764296
0.012177411
0.003314725
-0.03766969
0.095892645
0.21200562
-0.13336062
0.031002551
0.12750633
0.046984807
0.10078077
0.04807772
0.020050015
-0.05187925
0.15804017
-0.06313776
0.057709962
0.018419774
-0.018407067
-0.007899026
0.13742599
-0.14629948
-0.1459634
0.18602382
-0.14468762
-0.0179401
-0.02180499
-0.028598677
-0.044875596
-0.050771713
-0.052558575
-0.16019447
0.044868164
-0.012625894
0.07682609
0.05338746
0.07269987
-0.033023182
-0.004991466
0.09252673
-0.09449483
-0.065785445
0.040289033
0.037266865
0.14306922
-0.01672661
0.09360591
0.04880447
-0.041862495
-0.045810793
-0.081983015
0.079691745
-0.08569561
-0.02561989
-0.0019338814
-0.060482837
-0.084368326
0.040326595
-0.112649634
-0.0010530949
-0.18200536
-0.062598504
-0.06978243
0.027469305
-0.10243438
0.0026153177
0.06085124
0.016098687
-0.01278681
-0.009609989
0.121206924
0.17290448
-0.025111917
-0.058073524
-0.11380434
-0.0881454
0.110364765
0.0032334796
0.009629686
-0.110113524
0.031646818
0.11381331
-0.22110379
0.031384025
-0.036122393
0.25638515
-0.16513242
-0.06897669
0.06569608
0.0053359694
0.02906915
-0.16933176
-0.12988885
-0.013355466
0.01606359
-0.013321801
-0.020852296
0.03515856
-0.2141159
-0.028778363
-0.12343665
-0.009959392
-0.015169138
0.004514114
0.035949565
0.0047257105
-0.14135449
-0.16480045
-0.19578566
0.034759425
-0.009697793
-2.6921472e-05
0.038145736
-0.17996693
-0.17832638
0.043243375
-0.114982344
0.005127333
-0.03710846
0.02452788
-0.029446593
-0.13408573
0.042183932
0.09371854
0.040701307
-0.118807524
0.04868535
0.09902286
0.041806106
-0.08848677
0.12068679
0.05274997
-0.013809527
0.024005007
-0.26344907
-0.012379305
-0.024524294
0.11365815
-0.18639694
0.0476422
-0.0017048735
0.009895005
-0.15425277
0.055198308
-0.13777243
-0.122131325
-0.010745381
-0.06519112
-0.068604
0.072691865
0.09239749
