0
-0.08249791
-0.05018708
-0.14867413
-0.06646284
-0.020139495
-0.11835057
-0.16981259
0.06732946
0.04882141
-0.047118653
0.027456332
-0.14383121
-0.18289034
0.015689567
-0.0375376
-0.0724092
-0.055825282
0.025389468
-0.008283793
-0.029422095
-0.16344623
-0.16797559
-0.0840918
-0.105039805
0.27918598
-0.013558922
0.008967231
-0.077783465
-0.12276304
-0.16055152
0.21485794
-0.2638547
0.10790183
0.09062433
-0.073936865
0.07615486
0.07833811
-0.042396612
0.056735065
0.11587799
-0.15329076
0.1539988
0.16973862
0.15181048
0.1498727
0.00745852
-0.13169447
0.06341454
-0.022248311
-0.016371025
-0.038950358
0.010804597
0.026607784
-0.22671431
-0.10172845
-0.09517382
0.0629653
-0.020957565
-0.1131633
-0.15398817
-0.010772393
0.07736414
-0.016686646
0.081997074
0.03479389
-0.090562135
0.036349602
0.011039008
0.03390389
0.0666997
0.065397516
0.1794713
0.04715485
-0.07541719
-0.015299966
-0.026478315
-0.021181468
-0.016979882
0.09834717
-0.08824501
0.06247266
-0.11039363
0.10491906
0.01842405
-0.04666105
0.08051691
-0.115123995
-0.16766076
0.09085552
-0.1373286
-0.007947476
-0.06869416
0.052257687
-0.10558565
-0.036259703
-0.01644883
0.10761435
-0.050496537
0.0024928893
0.06343618
-0.00524016
0.015943049
-0.043473605
0.0760472
-0.11294246
-0.0121740615
-0.018710183
-0.086799145
-0.013352558
-0.13043845
-0.05019157
-0.15374932
0.0116565
0.07932493
0.046682887
0.026081035
0.099132426
0.14125708
-0.039265357
-0.008948037
0.06957117
-0.04909437
0.14205593
-0.10036239
0.19290312
-0.08665544
-0.12637681
0.008234959
0.095149666
-0.21379142
-0.28525767
-0.29439786
-0.39881605
-0.035575114
0.085124135
0.072819225
-0.2786079
-0.060435794
0.02247422
-0.5391801
-0.05928123
0.18076883
-0.32591912
-0.06140893
-0.43051445
-0.0045452723
-0.3064744
-0.2341338
0.0940889
0.038020607
0.24013585
0.047810163
-0.026925815
-0.0802538
-0.10786582
0.05423806
-0.36688277
0.02939923
-0.023411097
-0.25751194
-0.13998277
-0.044346858
-0.03147865
-0.12945071
0.11233246
0.060438845
-0.0026532926
0.07453305
-0.4365365
-0.33734065
-0.03766671
0.31960762
0.097792566
-0.11404132
0.101126134
-0.14910208
0.08879805
0.11325258
0.0327732
-0.14042628
-0.07775468
0.0645018
0.1013727
-0.024986569
0.1647048
0.058139235
-0.030801104
-0.17475139
-0.107220635
-0.021304233
-0.13982946
0.06515604
-0.08099261
0.07008762
-0.17229798
0.011711148
0.077107444
-0.11544532
0.045968972
0.11116153
0.05107444
0.019050686
0.06083768
-0.0041637532
-0.3349214
0.0044524707
0.09673004
0.05643243
-0.050527416
-0.057522375
-0.06053012
0.109181814
-0.030221414
-0.14750598
0.044947956
0.1263105
-0.038702462
-0.044742975
0.10500704
0.0823872
-0.04326
-0.02454854
0.042067785
0.10764
0.06875895
0.06155203
0.07993831
-0.15997657
0.10273919
-0.052633185
0.09757386
0.14445287
0.015433346
-0.06758131
-0.039921552
0.14846659
0.09734376
0.009408775
-0.05493842
0.101458736
0.039142787
0.114373356
-0.008089416
0.16641013
0.08070092
-0.025297852
-0.044136267
0.12608846
0.002111979
0.08391913
0.10838216
-0.26716292
0.10947041
-0.02008497
-0.050010048
0.03415392
0.091507085
0.13990611
-0.059396848
0.15328173
-0.113651365
-0.30373895
-0.0222839
0.10303018
-0.20081116
-0.06051276
-0.0529826
-0.08299491
0.011078022
0.1079832
-0.13405047
0.074927025
0.17498969
-0.11801182
0.17054148
-0.17515098
0.09720641
-0.078888535
0.12929131
0.027296782
0.023208212
0.17439762
-0.082059674
0.005083353
0.00850531
-0.052435238
0.010974595
0.124733776
0.06277557
0.08261137
-0.08327057
0.06254679
-0.07002682
0.07180367
-0.012641219
0.32940298
0.0883492
0.10359832
0.11493093
-0.089067325
0.07059871
0.11734746
-0.013311837
-0.088885844
0.08874586
-0.02265841
0.16800603
-0.08547201
-0.29182938
-0.1974372
0.07053521
-0.10817639
0.30163363
-0.07969233
-0.14899912
0.28068444
0.0741702
-0.116900556
-0.043658484
-0.024724862
0.11512203
-0.0399599
-0.20854793
0.04405827
-0.10647812
-0.113851406
0.09332648
-0.06873926
-0.0676532
0.025249438
0.14572269
-0.1966352
0.059484623
0.061205827
-0.20143147
-0.1001481
-0.053488947
0.10468965
0.05056023
-0.12807678
0.012709686
0.11512599
-0.0724807
-0.016872771
-0.08694593
-0.26883963
-0.04017739
-0.01803801
-0.23469852
-0.040896934
-0.0017110108
-0.036216162
-0.0052205604
0.045406576
0.057891164
-0.00521191
0.12770265
0.06105726
-0.04690665
-0.06604658
-0.06603088
-0.025283104
-0.092915155
0.036757607
-0.06842972
-0.20340806
0.043426305
-0.093724914
0.12977631
-0.06579667
0.04366845
-0.0909873
-0.08422653
-0.024875188
0.12864374
0.01689979
0.003199567
0.016021416
-0.038811225
0.042569686
0.0076410943
-0.13756895
0.009783243
0.037475165
0.14208843
-0.17388973
0.014539194
0.04352309
-0.12598339
-0.055256505
-0.039016094
0.03768128
-0.09972846
-0.13536772
0.064357474
0.11421769
0.102750964
0.020848023
-0.0230259
0.07551342
0.038424656
-0.08048389
-0.19313179
-0.011903816
0.06485771
0.19069137
-0.040897623
0.12481833
0.05505042
0.061076853
-0.085226044
-0.09397073
0.19858588
-0.009846849
0.11457053
0.1662579
-0.13425066
0.12841105
0.02507422
0.12107521
-0.07586981
-0.10354111
-0.03426598
0.015998544
0.005195027
-0.016679173
-0.019191114
-0.00087175093
0.10590626
-0.08838677
0.007890626
0.028421229
0.09961416
-0.020097658
-0.024031557
0.13630596
-0.20343177
0.050171215
0.008547542
-0.040178705
0.0051229848
-0.017410478
-0.13870324
0.040277794
-0.048682876
0.0044974466
0.032491248
-0.25842896
0.24420206
-0.20254357
-0.043786332
-0.008717525
-0.071916655
-0.16555817
0.11122154
-0.025086792
-0.07564461
0.017250942
0.15169524
0.095747575
0.15769571
-0.032314252
0.1338843
0.017919436
0.049874198
-0.12183483
-0.30555514
0.10133432
-0.08608264
0.20889144
-0.05320769
-0.07370766
0.13845947
0.03635132
0.010060335
-0.038677096
0.0050912993
0.047521774
0.08827496
0.052700873
-0.086197704
-0.038232084
0.011739535
-0.068794064
-0.16433904
0.08018075
0.0024090973
0.06453803
0.054177083
-0.034654982
-0.011773895
-0.16839767
0.009778283
0.022571161
0.034250554
0.038563196
0.042735904
-0.097637214
0.04896157
-0.058499657
-0.18848285
0.17367935
0.05479719
-0.007964608
-0.008929481
0.031109752
-0.18984497
0.08724976
-0.08463969
0.09301418
0.018516442
0.07305198
0.22762582
-0.03349123
0.00201022
0.025692163
-0.08075087
0.13045445
-0.010021555
-0.017156526
0.01164604
0.0065629375
-0.1355174
-0.015172212
-0.06780596
0.14755179
0.07131844
-0.063238434
0.02785857
0.09056707
0.07542154
0.078045785
-0.0958913
-0.16358554
0.09830075
-0.16625744
-0.25601676
-0.19461441
0.074092135
0.050911404
-0.032557998
-0.08090827
0.26480538
-0.026676802
-0.053615153
-0.14484623
-0.031141344
0.0033614386
-0.047140155
-0.045671325
0.017129308
0.08788141
0.030621968
-0.22472733
-0.053421997
-0.0011255643
-0.10001059
0.06769777
0.021708354
0.0978624
-0.03889277
0.03830123
-0.097430244
0.0026810663
-0.19228658
-0.034280967
-0.00503926
0.06966053
-0.067998864
-0.079688296
-0.20789522
-0.1378434
-0.12855946
0.06362109
0.10638129
0.058966313
-0.3398016
0.017254172
-0.004340805
-0.06464955
0.08403532
0.026760723
0.03418334
0.2522237
0.25101265
0.049071085
-0.05397423
0.11279947
0.2139914
-0.102377616
0.16190551
-0.044303514
0.07908786
-0.026385162
0.12816961
-0.17128979
0.20108391
0.2596237
0.1481405
-0.0023899246
0.037060224
-0.01683203
-0.017846169
0.03239967
-0.2835435
0.08445492
0.14601128
0.10325097
0.04781569
0.1756752
-0.0861726
0.13499127
0.039034154
-0.081846245
0.06756747
0.37765327
0.22155942
0.15667604
0.24879207
-0.21421498
-0.17474878
0.098505355
-0.058947556
-0.10374019
-0.020406295
0.07509272
-0.0061766915
0.059019607
0.26003742
0.026221806
0.07887167
0.15932535
0.13317099
-0.0025512674
0.17664984
0.18349986
0.04705447
-0.29986483
0.17339286
-0.20134659
-0.064101145
0.10185211
0.0732243
0.13188723
0.057249203
-0.0024972549
0.07541923
0.034265496
0.11560305
-0.07492784
-0.035198096
-0.09197153
-0.29515705
-0.023350349
0.022461139
-0.002029436
-0.1460256
0.0211622
-0.08545797
0.071277335
-0.029578961
-0.22553757
-0.0011591654
0.021547552
0.011719979
0.014434757
-0.06864709
0.007087107
-0.034255467
-0.025559513
0.015625224
0.008204449
-0.033123013
-0.028864432
-0.019506354
-0.0493103
0.026363552
-0.055679724
0.014844719
0.02356518
-0.120867506
-0.009064765
0.064915866
0.17180343
-0.08588545
-2.6467664e-05
-0.11230951
0.0023855097
-0.15083751
0.10191961
-0.06385686
-0.023125328
0.07691015
-0.076272115
-0.14002354
0.057087373
0.034576073
0.037879698
0.032635894
-0.25135738
0.05169893
0.13045517
-0.21906352
-0.029453835
-0.028172167
0.05985467
-0.055370256
0.05717721
0.053796183
-0.09709278
0.04936691
-0.0546119
0.033535216
0.060857475
-0.006436201
-0.029236317
-0.25983226
-0.08231541
-0.020537032
-0.039878853
-0.13010402
-0.11976041
-0.14154609
-0.048595313
-0.00502571
-0.102218315
-0.04970029
-0.030532893
0.010467235
-0.005728395
0.037260182
-0.0972558
0.08290611
0.025980396
0.029112455
0.056765072
-0.03503906
0.047646817
-0.08433847
0.050105292
-0.08119439
-0.00770204
-0.060678918
-0.09551375
-0.12360944
0.038153514
-0.010944459
0.20006296
-0.09731111
-0.0049904324
-0.0039398484
-0.015116779
-0.07773692
0.08800537
-0.06295202
0.07650726
0.050254826
0.017156567
-0.20612955
-0.032450333
0.05912063
-0.033860385
-0.024639746
-0.06167398
-0.026979607
-0.12435869
-0.15933545
0.055729073
-0.077648364
-0.0626343
-0.055746872
0.0828188
0.06326335
-0.006968545
-0.053448945
0.038599856
0.008806532
0.052157857
-0.007877637
-0.006526129
0.045252763
-0.12841421
0.13150673
-0.10381272
-0.018825786
0.026684921
0.04043642
0.006602252
0.062946655
-0.10877553
-0.024085894
0.1308348
-0.03295195
0.011584059
0.0043923277
0.062629774
0.15370949
0.0024976907
0.13255028
0.060168747
-0.012281797
0.09158277
0.049333476
0.018180443
-0.048665676
-0.01893513
-0.032740306
0.10342232
-0.08984886
-0.019504745
-0.047590595
0.19684829
-0.072185494
-0.05913156
0.09980575
0.044568762
-0.029731918
0.07945509
-0.09541316
0.010483746
0.016124303
-0.097156554
-0.14270611
-0.011346065
0.115776174
-0.055376455
0.045389388
-0.095803924
-0.07840985
-0.18742691
-0.09347839
0.014237398
0.048000064
0.07323429
0.06698953
0.037210435
0.07419539
-0.08351089
0.009111556
-0.022451697
-0.063896626
-0.059835825
-0.010811204
0.022425862
0.028549835
-0.037606854
0.021534339
-0.05978216
0.065659374
0.022222206
0.090830706
-0.06542295
-0.01431871
-0.030942379
0.06398615
-0.030462444
0.033250786
-0.042568024
-0.015850639
-0.08546413
-0.032112584
0.024559202
-0.016902572
0.0031836235
0.06142636
0.029340992
-0.010349386
-0.05598743
0.022286855
-0.0563959
0.023264425
-0.041379113
-0.020137345
0.044374336
-0.010848477
-0.030927451
0.056393545
-0.039615013
0.056224898
0.0835039
0.044883285
0.020978142
0.0487766
-0.09560955
-0.034320783
-0.07737028
0.00027445305
0.08975822
0.027627956
0.04297163
0.050450686
0.026325867
-0.07562545
-0.06579857
0.028329931
-0.032637253
-0.01666196
0.2320976
-0.19783908
0.15806672
-0.17552842
0.02068352
0.065251105
0.14291742
-0.15479827
0.046734452
0.002748655
-0.3929429
0.027078677
-0.0029705942
-0.2168283
-0.00051122345
-0.011177273
0.18675311
0.121591344
-0.13398866
0.0036676687
0.17679274
-0.118898734
-0.14554779
-0.34103853
-0.15670018
-0.051588506
0.060058814
-0.17186663
0.019527374
-0.15357193
0.10589882
-0.10091915
0.006376524
-0.028442409
-0.20490499
0.018797878
-0.20739652
0.038334414
-0.179535
0.11175934
0.2417351
0.10420884
0.1376139
-0.07940384
-0.28738928
0.028984189
-0.078313015
0.061188553
-0.10012878
-0.047181744
-0.11243472
-0.12860891
-0.024172803
0.40036538
-0.017669339
0.24875633
0.027068885
-0.109576985
-0.035672456
-0.13311672
-0.1558444
0.2582251
0.17667422
0.06169208
0.043447305
-0.16342402
-0.031988487
0.070365824
0.022276156
0.026085187
0.08440582
-0.065769054
-0.11492318
0.052594192
-0.07293713
-0.13268419
-0.03854486
-0.07273466
-0.020144487
0.16811405
-0.092959166
-0.065803245
-0.09320098
0.05557405
0.20529374
-0.1120712
-0.127698
-0.05302823
0.0547441
-0.021581559
-0.027102526
0.16919094
-0.0305823
0.031614862
0.15121788
0.033407502
0.002110138
-0.07734565
-0.013683964
0.02230054
0.056208394
-0.053169824
-0.11034636
0.09539527
0.12403811
0.03448376
0.114882134
-0.06268758
-0.22611824
-0.04523631
0.14607508
0.04740148
0.05331091
-0.06958111
-0.05345929
0.01605386
0.14060111
0.18262288
0.024342379
0.0004992668
-0.027054291
-0.18673106
-0.17082033
-0.11991019
-0.09282842
-0.036810018
-0.040854655
-0.09553905
-0.11917716
-0.11515583
0.033272784
0.007343622
-0.043281317
0.22500512
-0.06264455
0.073385
-0.01857486
0.07082089
-0.056227285
-0.27848002
-0.057491414
-0.0021488077
-0.12139942
-0.022712765
0.058303244
0.11593845
0.03606366
-0.032985624
-0.22065106
0.071104564
-0.11769381
0.006697651
-0.03320479
-0.070712775
-0.06821166
-0.08476435
-0.01985633
0.012387779
-0.039422553
0.061401144
0.14514863
0.003319619
0.12171701
0.029836202
0.13144182
-0.09187226
0.01131454
-0.06603027
0.027251383
0.072775155
0.12836231
0.17869568
-0.023953056
0.042133003
0.07516098
-0.048065796
-0.103008695
-0.108401455
-0.10628102
-0.10804364
0.09764935
-0.1890953
0.03458488
0.084187694
-0.04994369
0.048172295
-0.27822316
-0.08857393
-0.10838434
-0.062331937
0.013854802
0.01403231
0.024327917
0.05678153
0.05015304
0.01759882
-0.08486279
-0.034627263
0.05690486
0.009215553
0.02732615
0.05799397
0.048859548
0.035155706
0.09434232
-0.07571157
-0.0597548
-0.037419252
0.06359638
0.03802409
-0.04361798
-0.04897933
0.03277618
-0.062152766
0.061385904
-0.021049364
-0.056652013
0.06031463
-0.027594153
0.0681837
0.0696274
0.015866583
-0.0025794618
-0.024358857
-0.018020015
-0.005099526
0.036314882
0.0028400056
0.033862002
0.07529779
-0.028584328
-0.059563432
0.08202459
-0.028255075
-0.04501857
0.017183267
0.047633715
0.07754806
0.059692293
-0.06268907
0.0407505
0.039516672
0.046825048
0.003959108
-0.064857416
-0.0053438866
-0.06769948
0.048575897
0.038887657
0.009952737
0.04016024
0.046589334
0.023308653
-0.053914335
-0.026546216
-0.046988815
0.15245533
-0.23110308
0.02017372
0.043966487
-0.1293995
0.029882522
0.09551791
0.05522082
0.0073811784
0.014774866
-0.024606144
-0.2938752
-0.06629906
0.03548569
-0.051714405
-0.13252686
-0.020624394
0.05758944
-0.058056533
0.036308743
-0.080851965
-0.09160298
-0.09799172
-0.18990143
-0.096069984
0.052370016
0.028742049
0.06280303
-0.13515964
-0.120465375
0.13774388
0.008574634
-0.060394198
0.025565077
-0.269552
-0.013192035
-0.12017892
-0.0009881932
0.055707846
-0.010933516
0.17644933
0.16342227
0.10664506
-0.1153644
-0.010156384
-0.030034428
0.08414575
0.08986045
0.1427859
-0.14089997
-0.03090297
-0.0069585796
-0.050353367
0.15570904
0.091198005
0.07779507
-0.07322977
0.046975374
-0.20810588
-0.050612222
-0.13266312
-0.009147995
0.11102911
0.07875408
-0.08970192
-0.19784476
-0.11687456
-0.0548205
0.03662253
-0.025615133
0.17664738
0.081690006
-0.060381144
-0.056561045
0.102719925
-0.108012214
-0.09020042
-0.117138915
0.059044868
0.1358987
-0.14407821
-0.22398026
-0.1423715
-0.19515711
-0.09514051
-0.008956838
-0.13822171
0.35134885
0.27772114
-0.043636147
-0.06964838
0.15470932
0.13175866
0.11568
0.17871532
-0.10535706
0.112255715
-0.008323893
0.06995731
0.0933186
0.028554508
0.029284185
-0.017337143
-0.12655059
-0.10335085
0.0918328
-0.07975758
0.10798456
-0.1789673
-0.018574337
-0.0025140904
-0.10687467
-0.014717851
-0.21080716
-0.022815494
-0.26393124
-0.009708424
0.049383566
0.021190662
0.1638978
0.066155806
-0.055960853
0.091348544
-0.2408627
-0.049245354
-0.032000776
-0.11746151
-0.035147246
-0.30587068
-0.20191723
0.04302548
-0.11643567
0.171519
0.10762032
0.015807912
-0.059639443
-0.064652346
-0.07010652
0.029342916
-0.21955737
0.027686011
-0.21137826
0.0326762
0.05337014
0.23589914
0.123124935
0.11092321
-0.106622115
-0.014594152
-0.12930949
-0.108082734
0.74565196
0.021401383
-0.11948236
0.033494182
-0.10390437
0.11017924
0.12066694
0.032271642
-0.04825041
0.07759824
-0.056526504
0.31975797
0.009929278
0.13195097
0.038779244
-0.05213388
-0.14128247
-0.2726937
0.05833466
-0.15051328
0.16675474
-0.028093161
-0.023644188
-0.09046496
-0.09322147
-0.010025132
-0.24417178
0.07284448
-0.28481877
-0.06782976
0.10167109
0.08132502
0.30271265
-0.06381936
0.0021173134
-0.031117335
0.016406959
0.008292861
0.03941375
-0.06429188
0.026560921
-0.16758206
-0.09721776
-0.03598034
0.037423663
0.093331
-0.09374013
0.026696114
-0.213821
0.009964051
0.0690047
-0.09827454
-0.016154658
0.02614923
-0.16061705
-0.09910234
-0.06852297
0.0073288213
0.06182609
-0.1072149
0.14380349
0.14924861
0.087494716
0.01217898
-0.0022390038
-0.13363379
-0.011693187
-0.052397158
-0.16313282
-0.02454803
0.27977514
-0.08693181
0.07496808
-0.04651161
0.009592326
0.06497991
0.030494899
-0.07826926
-0.05798616
-0.075312965
-0.06193822
0.051888257
-0.10235307
-0.06104854
0.09992012
-0.10438034
-0.023348276
-0.13899605
0.041009407
-0.0063823126
-0.010431777
0.03533475
-0.22619419
0.009906306
-0.011514867
0.07319251
-0.067468084
-0.027846629
-0.16533333
-0.014896412
-0.006703738
0.08255095
-0.09110868
-0.0066379793
0.27605778
0.06701623
-0.013130221
0.07145838
0.1377336
-0.25228837
-0.0986997
0.088734545
-0.047876142
-0.03954441
0.17184532
-0.16679978
-0.15819667
0.10582227
0.08747408
0.07835968
0.11524263
0.17594625
-0.0379298
0.00041536652
0.23271723
0.15108566
0.00255258
0.01923491
0.13897835
0.0349303
-0.08193419
0.014496752
0.08833123
-0.06004111
0.24323861
0.17617802
0.055241782
0.10905888
-0.037494797
0.018924437
-0.00024033732
0.036928132
0.08091821
0.082683966
0.13187113
0.22500679
0.03014372
-0.25678736
0.036516394
0.20729573
0.11500781
-0.17205742
0.07814557
0.0036934735
-0.13040309
0.022006059
-0.22064047
0.05341957
0.3142301
-0.078444645
0.18806309
-0.030742515
-0.17642793
0.2283205
0.17208245
-0.05038252
-0.061894428
0.039270844
-0.007970823
-0.13579217
0.055539828
0.18039984
-0.21753027
-0.29320997
-0.06250421
-0.116217956
-0.37777075
0.05664926
0.011175067
-0.16746408
-0.18652695
0.13067369
-0.22188018
-0.0353777
0.033636138
-0.0030710385
-0.22063014
0.034996793
0.11268258
-0.120229855
0.06673754
-0.0090247225
0.2051496
0.22901565
0.02440115
-0.059386093
-0.14862512
-0.361191
0.120021544
0.24519682
0.049236134
0.10397603
-0.070690185
0.16421796
-0.09471121
-0.043609273
-0.071668044
0.047834333
0.29476228
-0.01693384
0.04777547
-0.045441557
-0.0062935026
0.028992545
-0.16240059
-0.28309152
-0.08801757
-0.16973346
-0.013580444
-0.15528287
-0.097990975
-0.021012343
0.02456967
-0.05263943
0.026867114
0.013073526
-0.09827407
0.21429662
-0.08799455
0.029769782
0.04429497
-0.028621389
-0.011625526
0.050835427
-0.20998554
0.03787696
0.07411578
-0.016688507
0.12038069
0.03337188
-0.096947126
0.046826854
0.07243664
-0.011809974
0.0592697
0.10039576
-0.06059519
-0.093188785
0.017358685
0.0670428
0.04690712
0.019243684
0.015180892
0.1575035
-0.11355862
0.0901697
-0.09676782
-0.25123927
-0.089580566
0.030637102
-0.10664009
0.019860264
0.02797054
0.047320686
-0.052311543
0.035577364
0.026842672
-0.19880278
0.047901772
-0.04811373
0.03984922
0.052694045
0.010657655
-0.020748872
-0.11666601
0.096401334
-0.12034182
-0.24624301
-0.060095437
-0.06965262
0.09048301
0.1266705
-0.05729938
-0.024745628
0.038565308
-0.062093724
0.19916928
-0.004767021
0.019487018
0.045360472
-0.059332564
-0.14020409
-0.025519889
-0.025332121
0.024928987
0.06550445
0.050625514
-0.25501293
0.024396392
-0.044200756
-0.052785028
-0.3147126
0.03385934
-0.07305358
0.097262
0.037912723
0.055102628
0.0064464468
0.0038510333
-0.06443719
-0.07631507
0.03758348
-0.06955277
-0.089527376
0.03147194
-0.049543757
0.04969672
0.2036713
-0.02566102
0.0069651627
0.15083031
-0.0339773
-0.011832605
0.049325686
0.101098634
0.24046849
-0.08287104
0.12806767
0.050521746
0.24752335
-0.019740144
-0.013107436
-0.03235343
0.10552153
0.041423585
0.036176596
-0.063385315
0.04334631
0.059643667
0.003983043
0.08112106
0.018673575
-0.10541673
0.07272501
-0.08345645
-0.15080525
-0.072193265
0.08747595
0.015584729
0.19225392
-0.102289215
-0.10861118
-0.0048865667
0.016637221
-0.121563844
-0.059134338
0.0290532
-0.13343114
-0.01685604
-0.04849397
0.15299238
-0.17490911
-0.34633178
-0.30241382
-0.22043385
0.10125441
-0.0860811
-0.08234373
0.05984079
-0.0024129627
0.015109474
0.06825638
-0.06960583
0.003844618
-0.25010693
0.021668049
0.21238206
-0.16173066
-0.38823506
0.025209991
-0.31153288
-0.06131472
0.14147574
-0.30350363
0.1368523
0.2847335
-0.13721538
0.032665994
0.19226454
-0.14182073
-0.20930555
0.143283
-0.00025884242
0.09635765
-0.022164451
-0.11852101
0.13930923
0.10594752
-0.024476977
0.04640563
-0.2278161
-0.0014489407
0.16380915
-0.21539505
0.2153687
-0.17788881
-0.057607822
0.102649115
-0.101791866
0.029736383
-0.17730024
-0.07360578
-0.21435668
-0.037442762
0.034144003
-0.11052479
-0.02296144
0.009237997
-0.119084716
0.078687385
-0.29429132
-0.06992474
-0.14868073
-0.15521534
0.068831794
-0.035061423
0.059420303
0.03681564
-0.014046975
-0.057850827
-0.033118386
0.0018936524
-0.06686238
0.03597089
0.025304932
-0.071750686
-0.019915352
0.05819548
-0.020553382
-0.08243961
-0.013784632
-0.055942636
-0.061021566
0.013886313
0.070737295
-0.072972514
0.11613491
0.05724084
0.15203652
0.04464272
0.04697957
0.020138508
-0.06844815
0.0445587
0.11658515
-0.05231037
0.0934141
-0.018467672
0.051620964
0.057668462
0.049725782
0.04546036
-0.06147218
0.12045545
0.03174262
-0.02070662
-0.043574426
0.008400498
0.001450733
-0.022293346
-0.05825579
-0.14638753
-0.034280263
0.0815408
0.061276536
0.09293167
0.093551494
-0.023209948
-0.17808273
-0.08148539
0.042691126
-0.024349442
0.07955336
-0.1340186
0.066876106
-0.18932468
-0.13421941
0.026660256
-0.08338598
-0.016757641
-0.054301426
-0.09621054
0.06585332
-0.08099008
-0.1443496
-0.0019270792
0.00019375772
-0.002816408
-0.0137110185
0.049068265
-0.054358795
-0.058023967
-0.14938858
-0.080820784
-0.32109097
-0.06150196
0.20975879
0.022649053
0.07183122
-0.16133721
0.0016198239
0.04902704
0.11079903
0.01358755
-0.15511747
-0.009137657
-0.26655886
0.03903476
0.24453297
-0.11889831
-0.0035786426
0.17696199
-0.07825323
0.117902465
-0.4001255
-0.23571259
-0.09424153
0.091691196
-0.1995137
0.18805598
-0.03942615
0.008767195
-0.00154198
-0.06697359
-0.07130452
-0.15969066
-0.02068773
-0.06194721
-0.30726174
0.16609229
-0.05288222
-0.22881511
-0.015974257
-0.118827336
0.10516674
0.012624658
-0.016239751
0.025384609
-0.016959757
-0.16196401
-0.13528985
-0.07667224
-0.10916807
0.08027387
-0.016212039
0.029838366
-0.08561865
0.037964214
0.08394684
-0.20344605
0.33591625
0.06302101
0.04091728
-0.12385158
0.1492394
-0.047069382
-0.09504313
-0.0029127356
0.12598233
0.035920776
0.10053057
0.06682336
0.06280204
-0.008608251
-0.061331745
0.08312308
-0.081838176
0.031313363
-0.07380068
0.067962326
-0.2687789
0.028434454
-0.011928778
-0.009829755
0.0996887
-0.008833488
0.051956676
0.018092956
0.022740593
0.1464028
-0.013352243
0.124045216
0.03296355
0.021041036
-0.10587531
-0.216092
-0.10095764
0.032583736
0.052482132
-0.05784359
-0.13147065
-0.0024841873
0.13526158
-0.049645703
0.04054865
0.027392646
0.08352305
0.18389362
0.08543823
-0.061412707
-0.03681535
0.066955484
0.12928076
-0.20308144
0.015889868
0.061895132
-0.013157756
-0.23669963
-0.18746357
-0.2243389
-0.20605583
0.15842985
-0.00030386806
-0.022122022
-0.16137539
-0.026286663
0.090252
-0.25705853
0.05284216
0.11024369
-0.35772482
-0.12681334
-0.06662819
0.0015470836
-0.073114894
-0.11394797
0.11604047
0.046447944
0.06285541
0.1732666
-0.17188714
-0.03165692
-0.0098768305
-0.06990089
-0.13909528
0.10982231
0.09735423
-0.1393507
-0.11355945
0.0820648
-0.087553434
0.19584635
0.14703229
-0.015168735
0.025544506
-0.12801139
-0.08908521
-0.08210167
-0.026948035
0.115255706
0.17552789
-0.16654502
0.113961175
-0.09495253
0.06938687
0.016543483
0.09230234
0.04195721
-0.122838326
-0.003743798
0.040575933
0.016708324
0.0019505983
-0.07610736
-0.05236592
0.057988115
-0.15174171
-0.12362809
0.048791908
-0.02045271
0.053276476
-0.107720815
-0.08172839
-0.0016063857
0.010044118
-0.04666319
-0.012949863
0.03831491
-0.2574627
-0.086002305
0.037148338
0.07101192
-0.08411175
-0.013375408
-0.33911154
-0.02761527
-0.26103753
-0.016378334
-0.036586534
-0.15085222
0.020158341
-0.009263237
0.0355073
0.13483953
0.15780716
0.078228265
-0.054675654
0.0380957
-0.17371053
-0.0323411
0.25918657
-0.11337678
0.0154425
0.08897121
-0.08699508
0.07683079
-0.33929697
-0.105279975
0.047159888
-0.048218854
-0.2552466
0.016753357
-0.028007694
-0.07061088
0.01914069
-0.13838728
-0.09935389
-0.09444019
0.03317347
0.05196107
-0.2302928
0.090517305
-0.11281363
0.28441498
-0.08047472
-0.04212111
-0.03702621
0.028318744
-0.12000811
-0.064324275
0.063523315
0.09091859
-0.051476844
-0.15629642
-0.08070671
0.07404328
-0.13237283
0.038777437
-0.03331251
0.02043967
0.02772538
0.028220493
0.1125692
-0.03109502
-0.05747658
-0.18649606
-0.15103905
-0.14366592
0.0755789
0.062353026
-0.04229144
0.0571031
0.13245563
-0.012625854
-0.029077843
0.030324379
-0.019388681
-0.018227056
0.10789031
-0.18188863
0.008146139
0.06074991
-0.06758742
-0.0521555
0.046772905
-0.011773489
-0.006873411
-0.13001913
0.028929947
0.06122506
-0.04085128
0.035294876
0.07021247
0.15551756
0.036557008
0.008133466
0.09191857
0.14290433
0.058204334
0.023879146
-0.20417207
0.044813987
-0.093403086
-0.08058835
-0.19098479
-0.13577336
-0.10679538
-0.23939006
-0.11881135
0.062185574
0.13859475
0.04250891
0.015822604
0.070714526
-0.025514185
-0.12347934
-0.3044832
-0.031682726
0.10109993
0.09017368
-0.012075445
0.063376404
-0.0010351269
0.0943842
-0.016669678
0.0023826389
-0.099903494
-0.006161069
-0.05090503
0.046967726
-0.016560249
-0.12521419
0.0022218225
0.030927511
0.100490116
-0.021483952
0.08680516
0.045903593
0.046926104
-0.08023149
-0.27054843
0.044956338
0.13603865
-0.05345753
-0.0067593525
0.06750365
0.04091173
-0.02761433
0.061733566
-0.055782825
0.21341744
-0.023002677
-0.00089320156
0.1223027
0.04261429
-0.11674859
-0.07343181
9.670351e-05
0.093521826
0.057836905
0.06992507
-0.034514666
-0.03194781
0.008857081
-0.01723326
0.048212912
-0.077004045
-0.12458239
-0.070657775
-0.08491131
0.017282935
0.17528223
-0.090836555
0.010623246
0.13437308
-0.001706417
0.32243285
-0.017981146
0.15126987
0.054372273
-0.07921107
-0.0037800549
-0.14958265
-0.33833203
-0.07954433
-0.21711594
-0.5289754
-0.04006465
0.08730845
-0.07746037
-0.039995935
-0.05044781
-0.10072552
-0.21110556
-0.18408987
-0.05541341
-0.11341613
-0.019320609
-0.22675139
-0.14427054
-0.34223145
-0.16235194
-0.01623156
-0.09572491
0.13822597
-0.006257033
-0.1932102
0.12917826
0.06441015
0.028921865
0.077312574
-0.052655157
-0.07755193
-0.32108113
-0.19322468
-0.38055983
0.046592835
-0.06844001
-0.124688
-0.08505895
0.03376811
0.10462937
0.14203621
-0.58291066
-0.0041429256
0.15759061
0.02535408
0.11102827
0.045996018
-0.10621158
0.18850195
0.21981479
-0.15778807
-0.20115648
-0.011271555
-0.03449865
-0.1845994
-0.10386527
-0.011392526
-0.10150494
-0.15078133
-0.34681153
-0.28777984
-0.13449925
0.028888902
0.05191984
-0.003843368
0.061422177
-0.11481603
-0.0012472844
0.024536159
-0.23877084
-0.034544177
0.14232737
0.16659099
0.08613518
-0.014993525
0.09438707
-0.038231943
-0.020076517
0.057030816
0.03290846
-0.13597636
-0.040620063
-0.07116512
-0.006973293
0.0037288505
-0.0018640386
-0.10466377
0.09955579
-0.10425807
-0.0643136
0.09128986
0.019751845
0.015757587
-0.1478855
-0.004592398
0.041528836
0.034229312
0.11352163
-0.032296766
-0.13196264
0.114290185
-0.09972338
0.06255134
0.11184569
-0.11275476
0.009093136
-0.013623285
-0.014602734
0.11644298
0.052598294
-0.08493195
0.09774338
-0.2271117
0.14798559
0.04068531
0.052629348
0.16658609
-0.020110864
-0.03548364
-0.029079763
0.024189575
-0.034126252
0.091202594
0.041580714
0.15789421
0.01983261
0.06653394
-0.041901186
-0.20241748
0.14074774
-0.033545
-0.14273037
-0.019509822
-0.050454292
0.10409102
0.22667116
-0.16995151
-0.0118411295
-0.048336707
-0.08222937
0.05110852
-0.026057696
-0.062230688
0.026816677
-0.022010438
0.07991877
-0.059208184
-0.002558052
0.119166456
-0.1410361
0.063816324
-0.102688625
-0.396146
0.09864675
-0.070873186
-0.072221935
-0.200349
0.029777128
0.059256017
-0.3452443
0.0047706324
-0.07020147
-0.08529695
0.08694469
0.043758113
-0.10871712
-0.12419877
0.23628595
-0.099318124
-0.09217169
0.17342103
0.07987326
-0.042914014
0.056811105
0.099147715
-0.1198075
0.07813264
-0.04979739
0.116666295
-0.22262333
-0.25772163
-0.29331023
0.1914011
-0.21280381
0.24186169
-0.04507543
0.0036760077
0.16662678
-0.02553418
-0.12145892
-0.10136426
-0.17602748
-0.20979741
0.102955416
-0.13404061
0.04046965
-0.085807815
0.08957382
0.028541101
-0.21069627
0.013126882
-0.13951403
0.13665396
-0.078154236
-0.19064233
0.07220377
-0.11995394
-0.0156000005
-0.054170143
0.12403579
-0.017321004
-0.1972651
-0.12791358
0.1442824
0.030505398
-0.043454457
-0.2883962
0.0013413008
-0.10569948
-0.06819582
-0.08639495
0.012770052
0.049988907
-0.16911106
-0.050529417
0.018886648
-0.031381235
-0.12076747
0.028637521
0.19611879
0.03438298
-0.17703274
0.12662037
-0.026089583
-0.03379204
0.15165998
0.008734369
-0.1856444
0.007935012
-0.028343907
0.1396045
0.10079567
-0.02714165
-0.07493894
-0.0338275
0.021917703
0.06725751
0.045260325
-0.14715014
-0.08451958
0.020025795
-0.12140957
-0.08411378
-0.11214655
-0.031093342
0.0531033
0.07228718
-0.18715402
-0.05728025
0.11532247
-0.0051676296
-0.101484105
-0.053064484
0.008189011
-0.2504015
-0.061717696
-0.059403025
0.09813057
-0.041145764
0.057896268
-0.03930936
-0.053472385
0.05583203
-0.16866852
-0.04359792
-0.06336797
-0.028054873
0.309207
0.09992828
-0.02657568
-0.015933031
-0.060707144
-0.11480199
-0.10334443
0.08632466
-0.1502537
0.08540437
0.085959725
-0.010284681
0.06312933
0.04417268
0.074473366
-0.03490624
0.08060538
-0.12062068
-0.28279248
-0.019777948
-0.12633064
-0.090857655
0.012194382
0.031431165
-0.1916512
-0.013274139
0.21712436
0.010998263
-0.093487725
0.15618314
0.09956013
-0.116330236
0.09415349
0.13814366
0.04998771
0.097693644
-0.059342276
-0.23485358
-0.03972146
-0.0028120023
0.020305166
-0.065203585
0.0025295338
0.12599045
-0.16509852
0.046209764
0.02637312
-0.060935814
-0.008043557
-0.01669183
0.024691567
0.03293751
0.039793164
0.11941488
-0.11092814
0.08991482
-0.011520025
0.23395146
-0.023476657
0.08448367
-0.11038923
-0.35737446
0.035985596
-0.0547145
0.3176881
0.02339552
-0.09948194
0.089799985
-0.069180936
-0.10225251
-0.03995846
0.027598336
0.009947377
-0.0040244027
0.09080642
0.091338746
0.033916112
-0.06351715
-0.12344121
-0.20785227
0.15936182
-0.0072660972
-0.035693694
0.047384027
-0.13396141
-0.093316846
0.016307147
0.09943917
-0.022237925
-0.011969679
0.18217987
0.024816703
-0.08913718
-0.060851492
0.0019179091
-0.1009054
0.2657378
0.09253978
0.01673488
-0.048674416
-0.009413475
-0.5988622
0.0041881553
0.16083893
-0.051942118
0.1347987
0.1142521
-0.018010296
-0.043543186
-0.11043145
0.048896722
-0.105826035
-0.0010189498
-0.060079046
-0.06914926
0.118466936
-0.010917965
-0.06961976
-0.055329375
-0.1016137
0.052265354
0.089590706
0.012478508
-0.08103593
0.003729971
0.19032615
0.032215245
-0.05965013
-0.043736823
0.13693325
-0.09273192
-0.13793945
-0.11699959
-0.073933125
-0.013847727
0.1698886
0.02462033
0.09344974
0.0295618
0.0041090227
-0.026934737
0.06737966
0.12686975
0.08404864
-0.031314287
0.02898176
-0.048132244
0.12634866
-0.21406917
0.043730427
-0.0336261
0.092467204
-0.032723054
-0.16368955
0.08792293
-0.03283898
0.047506467
-0.08130513
-0.074870326
-0.17306826
0.01895036
0.051708307
0.1227369
-0.10804926
-0.025754241
-0.13183871
-0.03762342
-0.09741733
0.124522746
0.0866844
-0.18689336
-0.29349348
-0.056049656
-0.015673107
0.046005744
0.051001105
0.15786885
0.00010742909
0.0583634
0.2812985
-0.042156972
0.12769432
-0.09165758
0.20193928
-0.22186035
-0.056709547
0.046496905
0.11297559
0.17726967
0.11117866
0.0014148179
0.03933836
0.31730363
-0.043846305
-0.10388235
-0.25091442
-0.23535301
0.0062633036
0.03166268
-0.34324118
0.18403731
0.047307063
-0.019322082
0.04185239
0.25570035
0.07197133
0.06272295
0.02849214
0.11391625
-0.033674862
0.26642692
0.20756985
0.16375196
0.30061832
-0.03026002
-0.014651187
0.0039964356
0.060408615
0.077586815
-0.06545197
-0.052687816
0.06110736
0.06458375
0.21176425
-0.008612173
0.11458803
0.19640295
0.19025658
-0.033533316
0.07784794
0.16714598
0.025437191
-0.1992956
0.17284392
0.054428812
0.0053278767
0.09238564
0.07846143
0.038869184
0.06288847
-0.063714
-0.14101759
0.0751476
0.1294603
0.04485328
-0.031179916
0.07150165
-0.091081575
-0.23263796
0.07446104
-0.027003324
-0.17209673
-0.015435781
0.042594235
0.022590904
0.08550076
-0.22181202
-0.03918089
0.01093069
-0.047886834
0.03382952
0.06515881
-0.07648854
0.03135753
-0.01875921
0.075646184
0.012539317
-0.03407238
-0.026987262
0.032391407
0.043614067
0.037399277
0.04612349
-0.039083
0.17493203
-0.120056026
0.07032219
0.11636322
0.07625292
0.07432178
0.0839266
-0.19660707
0.09275816
-0.27904436
0.01846731
-0.07302684
-0.03907627
0.005140164
-0.022341048
-0.1706717
0.04018123
0.017696278
-0.067159116
0.07665453
-0.06074931
-0.00880018
-0.04960029
-0.112212114
-0.015065096
0.02187091
0.061260544
-0.0956538
-0.0027449036
-0.022053603
-0.037032075
0.04455369
-0.052555814
0.06841018
0.003293096
-0.044209618
0.0557402
-0.0119548505
-0.22384292
0.0040205726
0.04319496
-0.14051256
0.028460933
-0.011237926
-0.0852203
0.08483833
-0.11435632
-0.13713665
-0.025220081
0.08238199
0.005798434
-0.017270122
0.0042234827
0.0009941818
-0.023000462
-0.016753452
0.032808136
0.09408496
0.011259801
-0.04789452
-0.0022194334
0.029879183
-0.0063208085
0.053129468
-0.0075217434
-0.04371785
-0.053902697
0.058076337
-0.08224691
-0.15173277
-0.09432594
0.023836613
0.051920976
-0.1432885
0.037915915
0.106170155
0.048954807
0.027975457
0.0028387373
-0.021185333
0.072860666
0.043495648
-0.00024098302
-0.031836946
-0.031975362
-0.025701897
-0.086918145
0.055888455
0.121536516
0.0680924
-0.054436184
-0.019899921
0.025738044
0.03261684
-0.031680748
-0.015866451
-0.0039404584
0.08417875
-0.00663301
-0.05800512
0.07224863
-0.015970271
-0.16594633
0.07408846
-0.0048239175
-0.13700756
-0.04125349
0.09293031
0.00836607
0.074171476
-0.092954114
-0.09390605
0.10181694
-0.11343211
0.09220674
0.019852215
-0.08512978
0.048526056
-0.112801425
0.16226657
0.097054325
-0.0072941305
0.059487812
0.06027455
0.05084122
0.011323418
-0.01732707
0.07013335
-0.06556009
-0.08152768
0.092306435
-0.028443815
0.02666677
-0.08813471
0.026691979
-0.13847324
0.08962655
-0.10737237
-0.05279239
0.07309803
-0.028560294
-0.07508826
-0.1416084
0.043002795
0.10614029
0.07501351
-0.039686758
0.007979408
-0.114397965
0.04999468
-0.16929986
-0.15273024
0.061452407
0.017306235
-0.07301436
0.002738858
0.04542018
-0.010135908
-0.074024886
0.012767489
-0.03943244
-0.008237718
0.06355571
-0.023678903
-0.06293582
-0.092967816
-0.002190885
-0.030940903
-0.055092264
0.007197987
-0.041463744
0.04097268
-0.042455457
0.06190013
0.02988412
-0.00980067
0.065179855
0.029253347
0.057299346
0.028523643
0.009743037
0.00607303
0.037638158
-0.03837187
-0.06473394
-0.031361636
0.011499099
-0.012184905
0.007829619
-0.034383517
0.06551518
0.05918346
-0.03988981
-0.0256912
0.08233997
-0.045516707
0.0038894354
-0.07555258
0.07374979
0.014184836
0.08743191
-0.090690896
0.0018501445
0.037681706
0.007363668
-0.057113614
0.04475841
-0.1094336
0.039201915
-0.085895225
0.05325771
-0.0469159
0.04625666
-0.07500129
-0.034264423
0.08492957
0.027261786
-0.017867446
0.17369196
-0.20937298
0.0815447
-0.21168844
0.01911162
-0.061425667
0.1106924
-0.08056815
0.0544433
0.045193262
-0.07086941
-0.1331955
-0.08007077
-0.16802445
-0.044378098
-0.09367766
0.25129843
0.056585137
-0.19287501
-0.07223925
0.16922016
0.06925448
-0.041534197
-0.024574826
0.012200778
0.085082464
-0.07535851
-0.02834826
0.09381519
-0.0004959925
-0.33718625
-0.1352975
0.013732336
0.032506328
-0.13497385
-0.1291942
-0.18844451
-0.007695094
-0.014837483
0.18938708
0.169399
0.11987386
0.1042493
-0.27307707
0.0014268272
0.062592365
-0.24804857
0.09928882
-0.020370083
-0.122629546
-0.14170055
-0.07708023
-0.07761947
0.22112261
-0.02885827
0.17064531
-0.035563484
-0.13334832
-0.0029339136
-0.13080211
0.02150047
0.23759398
-0.016770883
0.039498925
0.01177672
-0.1659337
-0.039423607
0.018305747
-0.13771844
-0.06512333
0.0051701632
-0.18066908
-0.09755721
0.15226759
-0.016170146
-0.116639204
0.011694389
-0.0062013967
0.03625815
-0.03934388
0.08326561
-0.029958919
-0.0932021
-0.110869944
0.14628564
-0.13600017
-0.05897516
-0.24255577
0.015521504
-0.04316457
-0.019682273
0.06119961
-0.013338439
-0.116306335
0.1572594
0.079062544
-0.040612593
-0.02101045
-0.19858034
0.052615996
0.14606482
-0.042552236
-0.14250283
0.02624685
0.107661486
0.010931499
-0.11266635
-0.035920046
-0.17031842
0.10513707
0.014226915
0.029766291
-0.053428777
0.07942478
-0.08274969
-0.11606634
0.057052232
0.21895047
0.099030696
0.09042555
-0.0036964442
-0.15208954
-0.077632286
-0.042593658
-0.061517682
0.14067693
0.08664655
-0.074137956
0.019921795
0.010442196
0.11463027
0.05537331
0.15771708
0.074837424
-0.02788609
0.1337267
0.013392306
-0.12122822
-0.017053386
-0.1252876
-0.30844867
0.07392304
-0.12900878
-0.10934505
0.01155093
0.2458826
-0.022972634
-0.026961895
-0.3385976
0.01854459
-0.05326659
-0.070936896
0.06697391
-0.013719952
-0.07674882
0.09081442
0.014811365
0.034693476
-0.0013008863
0.052483868
0.005643511
0.0523444
0.11537816
-0.015521083
0.11402108
0.03006511
0.15249649
-0.063468896
0.05784517
-0.020866651
0.052329134
0.25282475
0.06880646
-0.082086794
-0.03748955
-0.12216736
-0.00078540825
0.051157128
-0.14150687
-0.08848363
0.028399393
-0.18894161
0.024953458
-0.043398518
-0.10487747
0.08527302
-0.17680801
-0.08851625
-0.04128579
-0.0998202
-0.061350554
-0.034252606
-0.06619262
-0.06785909
0.00076896464
-0.060311787
0.038429007
-0.035093304
-0.077885374
-0.051667828
0.02099123
0.009530088
0.036118127
-0.03252965
-0.013406566
-0.00763388
0.0021415523
0.061998256
-0.022658605
-0.0075758193
0.017159661
0.07465784
0.08237629
-0.06830195
0.07072849
0.079826355
0.010465615
-0.01738515
0.055543683
-0.009104198
0.007489338
0.05007983
-0.038840182
0.074592605
-0.05384029
-0.05438021
-0.014108199
-0.037101213
0.0761742
0.004696594
0.020685013
0.0598038
0.0005046308
0.042455595
0.026859766
0.0753243
-0.0735933
0.07034799
0.055740263
-0.05347107
0.029650556
0.037786346
0.0009566097
-0.07209114
-0.0023812838
0.015917711
0.09934366
0.029669994
0.07435189
-0.04543854
-0.059288524
-0.0013023429
-0.05528208
-0.067298986
0.077682085
-0.03801543
0.15276095
-0.23413406
0.055178143
0.009016481
-0.19098173
-0.1677222
0.12410068
0.019926924
0.029428758
0.07518613
-0.037651885
-0.0077427328
-0.1882373
-0.08972998
0.027709326
-0.15089159
0.101068646
0.01810702
-0.08382605
-0.051892035
-0.13306382
-0.18957016
0.0421798
-0.18362547
-0.07793507
-0.017367365
0.00975549
-0.0061120857
-0.16778554
-0.006151549
0.0072021848
0.061668247
-0.05590306
-0.092965394
-0.18975447
-0.026484966
-0.2500547
0.012760567
0.10150275
0.12648493
0.084388874
0.13082139
0.053000584
-0.1254548
0.04835681
-0.019688783
-0.14595369
-0.04487645
0.07523627
-0.2359121
0.07555666
0.0037263602
0.040198777
0.17913616
0.009401854
0.05185035
-0.06242063
0.02939973
0.032056402
-0.016520435
-0.07883686
0.07232281
-0.0019442799
0.1619223
-0.15209633
-0.27566388
-0.097795755
-0.1281704
-0.04842046
0.02031171
0.118727304
-0.21400733
-0.06318198
0.024873478
0.07325031
0.009140372
0.06251173
-0.2537645
0.021870108
-0.001947519
0.01036406
-0.13189214
-0.030086117
-0.17797704
0.022832956
0.08192161
-0.2085715
0.047959313
0.19636151
-0.04565685
-0.07730867
-0.118854456
0.20349686
-0.1397196
0.19907878
-0.08864966
-0.19543374
0.029235845
0.09674449
0.13612047
0.06532771
-0.022517357
0.064510226
-0.44960347
-0.10368557
0.027927479
-0.30527753
0.0022313176
-0.13394393
0.10903849
-0.1269958
0.09727549
-0.020906135
0.10862023
-0.074109465
-0.26958984
0.008887853
0.3013259
0.025975997
0.068266094
-0.0045081587
0.09427647
0.09850707
-0.19021912
-0.09274199
0.0054204697
0.10045024
-0.013146997
-0.08648613
-0.21083094
0.06917679
-0.15942852
0.089520425
0.25813633
-0.16582245
0.07390069
-0.017648898
-0.022325238
-0.11448314
-0.21617651
-0.026442757
-0.10430793
-0.0043739723
-0.00043220472
0.01012305
0.23446636
0.043413408
-0.08965317
0.07263907
0.14766192
-0.12751387
0.2974213
0.07704523
-0.081862226
-0.057367843
-0.39771825
0.082308725
0.077437714
-0.21347511
-0.0641066
-0.05521749
0.061708163
0.14161181
0.060341634
0.0026459624
-0.026419504
0.18390869
0.039467484
-0.20469649
0.13756517
0.1476477
0.02387403
0.13744879
0.100455076
-0.13231353
0.19810422
-0.120656654
-0.11579152
0.09874011
-0.21837845
-0.17787516
-0.07964737
0.12382164
0.1498229
0.06296516
0.14328448
0.05246075
0.005635939
-0.15783219
-0.108327314
0.023467768
-0.1470576
-0.08196382
0.01781451
0.008614614
-0.19285865
0.11458522
-0.16290808
0.027344577
-0.101303615
0.0025105586
0.11141594
0.0718119
-0.1643738
-0.10395232
-0.14081788
-0.009138357
-0.0042786906
0.035151523
0.004573163
-0.1363907
-0.019038858
-0.019842027
0.017458856
0.09781673
0.11699829
-0.0009781313
-0.02775993
-0.08355653
0.064249866
-0.012877178
0.23980846
-0.018630868
0.08286325
0.030155504
-0.05961532
0.14444514
-0.14436094
-0.012591718
-0.0164282
0.04901477
0.012785603
0.09313027
-0.05262836
0.045322865
0.14363742
0.0073999814
-0.11909976
0.10041946
-0.07997502
0.19321494
0.0029189046
0.05986593
-0.120209016
0.07216294
-0.17727362
-0.05177846
-0.03708022
0.061148956
-0.109369025
-0.130976
-3.15519e-06
0.036196347
0.04938624
0.069488876
0.15433827
-0.140118
0.02525555
0.0012733076
0.05065947
-0.2720079
0.1534078
0.17430755
-0.05389899
0.07843146
0.024633246
-0.0045078024
-0.18053094
0.1755415
0.14299417
-0.0063201822
-0.061311405
0.115390174
-0.21428089
-0.08723914
0.11782013
0.36241624
0.10806023
-0.16196756
0.0013218995
-0.2637789
-0.062105898
0.02583928
0.0851615
-0.026811821
0.16220254
-0.07658018
-0.02216714
0.03125414
-0.04068572
0.03478918
-0.114481695
0.1456924
-0.0075543677
0.1551471
-0.0022593993
0.2563523
-0.057401
0.17256886
0.05196469
0.19317727
0.05669222
-0.033449072
0.07205348
-0.03283532
0.017601432
-0.15580496
-0.046362612
0.08373501
0.12828168
0.045857284
-0.0019848356
-0.06861796
-0.106760204
0.15482222
0.13092044
-0.07333235
-0.0808708
-0.13359801
-0.35150975
-0.0222382
0.025323799
0.17931128
-0.22762188
-0.1729999
0.06965184
-0.100566
-0.24363479
-0.06117354
-0.138836
-0.008595658
-0.1707254
-0.14652209
0.0005691515
-0.03407139
-0.054829497
0.053223692
-0.09781139
-0.055666603
-0.07553445
-0.082820535
0.0018493282
0.049461003
-0.44391587
-0.058551542
-0.03531725
-0.039742462
-0.1487111
-0.23790297
0.1013422
-0.07874979
0.059251286
-0.0256414
-0.010622753
0.035994705
-0.31167462
-0.13123566
-0.037892133
0.030474836
0.338773
-0.070902236
0.024658004
0.15092455
0.08362401
0.074822806
-0.23407575
-0.10836883
-0.09076202
0.09760324
0.048403196
-0.19020824
-0.066025674
-0.069258906
0.1023211
-0.31288093
-0.07926511
0.020528838
0.064835325
0.09068506
-0.06915553
-0.10312531
0.042121213
0.0742133
-0.07018147
0.07284685
-0.1149308
0.072267264
0.04578563
0.06387417
-0.00023799388
-0.0934895
-0.08963243
-0.020308085
0.03781472
-0.056554332
-0.07115319
-0.120868444
-0.085339285
0.04531888
-0.034166325
-0.01148631
-0.03718489
-0.18120703
-0.06537726
0.103467956
-0.114002354
-0.014542391
0.0850777
-0.056310885
-0.07650051
0.004086953
0.09206392
-0.016637832
-0.014871595
-0.020387607
0.062270854
0.0056424644
-0.052757874
-0.05974154
0.0028005962
0.0009945232
-0.017428465
0.026150716
0.02818243
-0.13756211
0.060749408
0.1458551
-0.12530921
-0.111526564
0.07587142
-0.09185035
-0.037730426
0.08930243
-0.038704872
0.020041162
-0.035002332
-0.11642486
-0.053852547
-0.075269155
-0.069703616
0.0070629343
-0.042530227
-0.07743429
0.081440106
-0.10066964
0.00018708289
0.06495539
0.02144851
-0.24837375
0.15657532
0.13820957
-0.13229407
-0.1711734
-0.017707232
0.016227089
0.081388935
0.06885634
0.08020854
0.044520777
-0.04810235
-0.09729338
0.062485136
0.014719785
-0.018565003
-0.09156719
-0.06370462
0.108399846
-0.008515119
0.1977716
-0.12136832
-0.09362969
0.023640892
0.025538277
-0.012151986
0.010591637
-0.106608205
0.11910323
-0.18534258
0.058159843
0.15348317
0.17343073
-0.022606967
0.07147263
-0.20511791
0.18314138
0.047268797
-0.07810859
-0.08302998
-0.0037680895
0.0020282236
0.09256229
0.07185624
0.029030116
0.045446444
0.13433522
-0.18580474
-0.121515594
-0.08128512
-0.02048871
-0.020277526
0.17010383
-0.10134334
-0.116761096
-0.07699892
0.0049265902
-0.1306603
0.012410919
0.13011065
-0.15813157
0.13848242
0.017474743
0.10797913
-0.31153336
-0.29247764
-0.21116002
-0.2832399
-0.13240288
0.038183916
-0.2297706
-0.090689674
-0.029424371
-0.14985414
-0.07482427
-0.0013213428
0.1646014
-0.28209075
0.05968207
0.10280229
0.0812824
-0.19051176
-0.012691543
-0.28749073
-0.014561929
0.31268755
-0.4198576
0.0035612914
0.1417293
0.037462186
0.075951174
-0.23415022
0.3231097
-0.29413643
-0.054615807
0.08441537
-0.40707964
-0.07085365
0.074498
0.18823306
0.11604498
0.06913977
0.038900606
-0.5003428
-0.2322095
-0.0983715
-0.33590525
0.1405517
-0.05125624
0.25522423
-0.040830545
0.046536144
-0.19198717
0.12540893
-0.284705
-0.2817772
0.08938282
-0.012250062
-0.054735582
-0.20434594
0.036681715
0.034581657
0.07948874
-0.44064727
-0.102599315
0.04249192
-0.057527896
-0.119973704
-0.11522793
0.023856927
0.050619118
0.012498592
0.07949882
0.047147986
0.024428787
0.07777198
-0.036665738
-0.06483736
0.033549618
0.010380103
-0.15268618
0.033176754
-0.10408014
-0.065653786
-0.09699241
0.0018658999
0.022077208
0.05928321
-0.102461584
0.03110152
0.0012566743
-0.07867872
0.07513912
0.063917056
0.024110612
0.09038327
-0.020942923
0.097965874
-0.0058630635
0.048747532
0.009340552
-0.07402089
0.07128894
-0.08244259
0.01067325
-0.005711576
0.07421811
0.035705384
-0.0853836
-0.025065606
0.068451114
0.036487434
0.0117063075
-0.0037185198
0.13070904
-0.109300636
0.082151085
0.05083509
0.0084361825
-0.026143529
-0.028131587
-0.06359159
-0.06139911
-0.009964914
0.012663767
0.09767332
-0.086532965
-0.12709785
-0.17464861
-0.14804238
0.08149449
-0.23746613
-0.077522464
-0.07607837
0.051807053
-0.17788517
-0.10160082
0.026770411
0.13689671
-0.07426293
-0.041825987
-0.060771644
0.018402899
-0.1324786
-0.36407256
-0.17107089
0.013370551
-0.28735268
0.111918405
0.16695772
-0.05163289
0.044445574
-0.053482346
-0.04155396
0.19506471
0.007303063
-0.07433797
-0.09972651
-0.032249443
-0.17560491
-0.13718008
0.21860975
-0.2499921
0.024984268
0.103815615
-0.0893189
0.035551526
-0.25745475
-0.27315548
-0.102663055
0.03033902
-0.39113298
0.087848864
0.09702412
0.056336656
-0.039284624
0.042716246
-0.24487941
0.0345676
-0.0732737
-0.16254541
-0.23913114
0.10114296
-0.027785685
-0.2457514
0.15835449
-0.06008222
0.07595569
-0.0792979
0.09743328
0.06448736
0.084830634
-0.090243846
-0.07050149
0.14542535
-0.24565792
0.021846488
-0.087163486
0.15106231
-0.17373559
0.26783177
0.023668518
-0.24611388
0.27448723
0.030365914
0.003898976
-0.1579639
0.12818113
-0.25670874
-0.2104488
0.025471903
0.019494418
0.1339107
0.27165377
0.041804314
-0.09549198
-0.030376995
0.0062030656
-0.048149303
-0.043953113
-0.17635168
-0.027239852
-0.0633553
-0.26270348
0.17559725
-0.08639486
-0.36610687
0.016704068
0.046218593
0.051501792
-0.1633922
0.082642645
0.193902
-0.073355675
-0.020906242
0.12012111
-0.057993975
-0.08982072
-0.046817407
-0.099720985
-0.20772092
0.23591217
-0.105406664
-0.0011381318
0.035122164
0.061057843
-0.030908575
0.041824903
0.02857024
-0.19058982
0.10452428
-0.031352803
-0.09895147
-0.040058736
-0.013424251
-0.13054836
-0.16906497
-0.082199834
0.03956991
-0.116105184
-0.08627309
-0.012659653
-0.13145827
-0.3148564
0.14802535
-0.007439142
-0.1362621
-0.19415073
-0.15355995
0.10411859
-0.20260888
-0.07913444
0.04788267
-0.25693864
0.043676294
-0.029237313
0.057325225
-0.14593463
-0.042717416
0.010258986
0.115919955
-0.038753316
0.10567223
-0.26856583
-0.007380516
-0.05903972
-0.10355839
-8.217576e-05
-0.08349478
0.14822447
-0.032038897
-0.031189522
-0.108431935
-0.082501255
0.106046185
0.021770844
0.024765387
0.0041475934
0.025984714
0.038844638
-0.21660066
-0.049074803
0.038619988
0.02963515
0.06611345
-0.02461705
0.07621094
-0.015079896
0.14622682
-0.054159213
-0.048505235
-0.243084
0.06099323
0.047283273
0.043158628
-0.11430497
0.015255467
0.030101221
-0.1411613
-0.10210836
-0.10065214
0.027435523
0.06919871
-0.1791292
-0.2344751
-0.01912848
-0.03812016
-0.060182225
-0.1870688
-0.10438979
0.03898712
-0.037489526
-0.08461074
-0.06383263
0.09037593
-0.1295913
-0.13654494
-0.06746098
0.029181633
-0.10788477
-0.040116735
-0.10287882
0.0007510251
0.10049825
0.0006938467
0.10008301
0.09580036
0.19914204
-0.028687652
-0.10014259
-0.050688118
-0.20181264
-0.035716124
0.22942805
-0.18245785
0.052008443
-0.033540204
-0.015242794
0.14265367
-0.43439496
-0.21096224
-0.018940855
-0.109479375
-0.3136427
0.17306079
0.13077262
0.081939355
-0.085272305
-0.09321393
-0.035907965
-0.08059113
-0.05721136
0.056274667
-0.12957795
0.18166298
-0.00095973496
0.22527021
-0.11367331
-0.030011794
-0.171868
-0.057191636
-0.014399071
0.040160295
0.1341489
-0.02371323
0.035996422
0.062154192
0.010600589
-0.06324183
0.002023181
0.019346781
0.08139855
0.010427727
-0.0636038
0.050985876
-0.057311825
0.03424048
0.104249045
0.0044252337
-0.09606496
-0.27372587
0.039987825
0.06122189
-0.2117183
-0.034508906
0.14089534
0.031192461
0.06361325
0.029194644
-0.016262999
-0.03325623
-0.06039599
0.014173009
0.06679227
0.04794347
0.0120686395
-0.1308388
-0.05869414
0.03549454
-0.004455891
-0.08044332
-0.0034818195
-0.042636298
-0.0076333033
-0.17156978
0.07955105
-0.15353613
-0.01926553
-0.035745822
0.01786206
0.10861934
-0.014862038
-0.055676226
-0.09281021
0.021245344
-0.087064035
0.04761477
0.012694565
-0.007306658
-0.059149873
-0.057271678
-0.18785459
-0.06217211
-0.03387484
-0.017544292
-0.05353844
-0.036197316
-0.0138552
-0.056249563
-0.16262136
0.009925779
-0.033707514
-0.027933262
0.00022275261
-0.026885808
-0.0046833376
-0.061550252
-0.015675312
-0.05771249
-0.0025731593
0.04237384
-0.054899093
-0.027950658
-0.01188874
-0.043459937
-0.013016167
-0.025306014
0.01820021
0.070845485
0.0417958
0.010472062
-0.14296128
0.007475759
0.03280877
0.034045395
0.025131965
-0.12661415
-0.026913986
-0.039530337
0.09281579
-0.015372946
0.044049498
-0.042130236
0.030583262
-0.041736513
0.07358001
0.0013181714
-0.00052921416
0.083960816
-0.004529908
-0.02490665
-0.15266035
0.045224264
0.025028301
-0.06905246
-0.042727277
-0.021843975
-0.017731605
-0.10399066
0.024413468
-0.016348764
-0.1063335
-0.09429814
0.022852264
0.072575375
0.034737494
0.19323738
0.054897323
-0.075202584
0.29193175
-0.031464715
-0.00877404
-0.0974591
0.12681198
-0.10685898
0.12636663
0.07409751
-0.17924574
0.18234797
-0.26830354
0.07804164
0.098905295
-0.047342453
0.13676624
0.008442899
0.07629946
-0.0060072327
-0.10179244
0.10520272
0.110222675
-0.035763048
0.10373224
-0.2058823
0.12786251
0.058115266
-0.013549598
-0.14342244
0.0047863983
-0.26404092
0.046160955
0.08091699
-0.12500483
0.036375657
0.13354239
0.02355777
-0.1275682
0.011833884
0.072334945
-0.0048675146
0.022787863
0.13131285
0.0901212
0.0669578
-0.012601803
0.20001222
0.17172018
-0.04994874
-0.040731512
0.117072195
-0.06732593
-0.10335814
-0.04235844
0.07833246
-0.17816104
0.021298928
0.0031385922
0.056685455
-0.07228248
-0.051790215
0.026559193
0.08831332
0.20369661
0.017143281
-0.13511029
-0.056656823
-0.0034230268
0.10736455
-0.35595796
-0.055579837
0.022363292
0.047582667
-0.16209567
0.06451115
0.004279468
-0.21660146
0.08816421
0.03213175
0.04095994
-0.020644657
0.11451886
0.13117072
-0.14341572
-0.028028542
-0.005073394
0.021058539
-0.1908224
-0.04551236
-0.068134114
-0.08944074
0.056202903
-0.09646851
0.09029119
0.13894437
-0.0459933
-0.14392093
-0.018030155
-0.05737393
0.05748244
-0.09807081
-0.014668543
0.09188852
0.032702778
0.07249448
-0.072558165
-0.15140283
0.11915708
-0.10185011
0.060880486
0.13682725
-0.027132776
-0.045674674
0.07098075
-0.14809422
0.0058420827
-0.1384869
-0.074625745
-0.043069284
-0.048869815
0.0746745
-0.012034541
-0.0030345328
0.019905534
0.121194296
0.030969627
0.114904806
0.053181853
0.022956714
0.048435967
0.14127484
0.16407733
0.08865741
-0.02417222
-0.044379853
-0.16763039
-0.16118531
-0.158933
-0.045430474
-0.07972469
-0.027204234
0.110892415
-0.022763232
-0.104477376
-0.06497666
-0.33867985
-0.049569104
0.09655108
-0.08688689
-0.06763781
-0.045722246
-0.058566134
0.026654927
0.20917925
0.057677414
0.097364955
-0.21301113
-0.04826578
-0.091758505
-0.4434625
0.0036482103
-0.13173
-0.056378376
0.0058608414
0.20102803
0.16728422
-0.34228724
0.06622298
-0.020152682
0.005307308
-0.028476253
0.09621214
-0.35366926
-0.12897378
0.0974604
-0.020584382
-0.08112259
0.0063095274
0.13781148
-0.030975774
0.035820227
0.11760074
0.16100742
0.15828268
0.008139545
-0.19431962
-0.30686024
-0.47175494
-0.21426041
0.14535144
0.15095216
0.19213766
-0.024097543
-0.13694546
-0.07567541
-0.02890848
-0.27803388
0.17255652
-0.03182744
0.061167616
0.04266323
-0.21190536
0.07895763
-0.10538611
0.017271424
0.010587724
-0.09264043
0.15232837
-0.10010051
0.0289431
0.06492278
-0.011409881
-0.020383175
0.022500632
-0.024646029
-0.013073913
-0.072189726
0.02956245
0.011971422
-0.028683465
0.057373397
-0.0064544403
-0.099286
0.25656268
0.07445722
-0.111231886
-0.15326472
0.100670606
0.04858776
-0.13437045
-0.01342483
0.04621992
-0.09373247
0.001602129
0.03303937
0.10837773
0.02640903
-0.09448861
-0.023454277
0.15011433
-0.023961939
-0.06424073
0.10313093
-0.047116358
-0.30233932
0.06809771
-0.102533035
-0.06383088
-0.058097005
0.040973928
-0.109525725
-0.073481806
0.00050010317
-0.03576491
-0.057814706
-0.053468518
0.0066801105
-0.03737116
-0.25313032
-0.069147825
-0.079434894
-0.1499922
-0.17412342
0.0408451
-0.039162904
-0.07459951
0.0506191
0.0031777557
0.0558355
0.0771555
-0.03946661
-0.28143978
-0.073940076
0.16510758
0.0038149313
-0.094007164
0.06867654
0.015785875
0.00833193
0.13762161
-0.038760893
-0.07750331
-0.045158464
-0.20904939
0.18112536
-0.0285632
0.052800857
-0.06408659
-0.15461099
0.00049126137
-0.023630762
-0.12281205
-0.011580995
0.16294722
-0.019948326
0.09145537
-0.06011908
-0.060402203
-0.050087895
-0.015039675
0.11680845
-0.11976825
-0.015072954
-0.10061547
0.04370748
-0.20233892
-0.021315383
0.061032373
0.08848384
0.15213609
0.12460425
0.14655717
0.12066393
0.03347493
0.09523935
-0.13011198
0.12254633
0.10240651
0.04819733
-0.16705263
-0.0022829988
-0.078992285
0.04914762
-0.013992719
0.06555915
-0.031463813
0.075698785
-0.13195497
-0.040082898
0.0776196
0.037362237
0.068921395
-0.080510855
0.028093986
0.18362539
0.05797276
-0.016443588
0.14523806
-0.13721171
-0.12169457
0.09886433
0.14514314
-0.015311686
-0.017386876
-0.119084805
-0.41640365
0.03987937
-0.06713965
0.257068
-0.03544509
-0.0092742415
0.10224043
0.0568178
-0.08064049
-0.006494412
-0.036455058
-0.053002823
-0.026377335
0.0891816
0.19356687
-0.008097722
-0.082664624
-0.123108074
-0.17051893
0.088585764
-0.07662026
-0.07068284
0.04613613
-0.058185965
-0.18627402
0.1499475
0.13747294
0.19513527
-0.0721203
-0.019296294
0.0013444987
0.10806195
-0.010422284
0.027130608
-0.07702499
0.2135857
-0.078625254
-0.014381582
-0.046859454
-0.024784675
-0.22797018
-0.06741935
0.18055744
-0.030660892
0.1256881
0.17283043
-0.04994722
-0.0819735
-0.085989706
-0.0063410113
-0.12223397
-0.045662925
-0.09282911
-0.05400337
0.13500772
0.031733066
-0.070907585
-0.059363574
-0.16873088
0.08636116
0.033454325
-0.07707725
-0.07572279
0.007191212
0.2355456
-0.03290184
-0.21795903
-0.1137981
0.20028713
-0.1349537
0.0076217256
-0.06619147
-0.01353974
0.041817665
0.1765356
-0.082263276
0.074493475
-0.05780627
-0.086758785
-0.08347764
-0.057530064
0.03870752
0.06739215
-0.018730378
0.051667728
-0.020162072
0.13778712
-0.22191213
-0.042815153
0.0013666693
0.13311225
-0.024850897
-0.16260897
0.16239573
-0.06971836
0.21031457
-0.14282817
-0.13517796
-0.098478824
-0.14517236
-0.024291318
0.06038751
-0.08718985
0.028635418
-0.218862
-0.011292979
-0.16146916
-0.11231893
0.010050448
-0.1964643
-0.12115288
0.008337864
0.0042570718
0.05620655
-0.291913
0.08980187
0.08685864
0.014238809
0.121759154
0.028829329
0.15876853
0.004599597
-0.06046307
-0.26657134
-0.11332389
0.008600298
-0.02272156
0.07569226
0.11709541
0.0872665
0.09382247
0.071476124
-0.028063102
0.0031970015
0.034085862
-0.20574567
0.060588825
-0.018704344
-0.32763562
0.08498423
0.15163606
-0.2125033
-0.0050865384
0.2832014
0.03797262
-0.011505375
0.042313114
0.09024006
-0.08154206
0.059368555
0.067262575
0.21284454
0.44787416
-0.013949941
0.059178527
-0.2103813
0.07775848
0.14750016
-0.124107294
-0.22502284
0.09184857
0.22238491
0.20563243
0.055094685
0.04201092
0.13817865
0.047941074
0.0016178496
0.10709703
0.011625378
0.050690033
-0.17431274
0.13791238
0.0012547614
0.12990224
-0.0390424
-0.013058183
0.14005338
0.09094626
-0.0046079806
-0.08588496
0.1361032
0.014931633
-0.06813015
-0.015615909
0.027013127
-0.12999709
-0.3270578
-0.019731378
-0.070038386
-0.24970351
0.073466614
0.044207137
-0.023406034
0.046303596
-0.1462336
-0.038738985
0.02888571
0.040641557
-0.06794231
-0.025058154
0.008733099
0.07531821
-0.0032865847
-0.010753534
0.1446936
0.10123909
0.017756758
0.021325998
0.012331303
0.0017727175
-0.0035118363
0.072549246
0.0048334645
-0.063536376
0.07721675
0.020387644
-0.3754096
0.12062826
-0.050395988
-0.07981858
0.008036019
-0.21561618
-0.028011886
-0.19253175
-0.0746134
-0.050054826
0.056561366
-0.01844674
0.11270593
0.029928368
0.007210748
0.053081203
0.1037921
-0.028599344
-0.06750506
-0.14786683
-0.047653366
0.0010029882
-0.057777233
-0.024917219
0.15341291
0.03538668
0.017094223
-0.047884252
-0.02377441
-0.061052475
0.010416892
0.06587886
0.06863426
-0.02650163
-0.233857
0.07260347
-0.036820516
-0.00798112
-0.033109028
-0.043364473
-0.106067725
-0.013736605
-0.021842979
-0.008050636
0.082552165
-0.115496
-0.08660968
0.032538448
-0.029910835
0.011128059
0.018195426
0.11561115
0.027120657
0.012851208
-0.0949529
0.016485203
-0.0039291135
-0.06803513
0.054211814
-0.010207309
-0.029771645
-0.07520198
-0.02266913
-0.110889085
-0.2585572
-0.17431702
-0.038913302
0.043849397
-0.024522653
0.037913233
0.10209779
0.039613374
0.11198681
0.012897446
0.06818186
-0.019360857
0.0047171307
-0.033995423
-0.013134711
0.0041443496
0.026477402
-0.017116548
-0.015519941
-0.019970862
0.032386694
-0.01180944
0.07840622
-0.06806145
0.072231434
0.03457487
0.1655179
-0.0039977543
-0.023866063
-0.1616635
0.0059945714
0.073640585
0.05417375
-0.07952408
-0.15539148
-0.030455261
-0.10024615
-0.056573376
-0.0030638413
0.12129352
-0.045635384
0.076807775
-0.08422265
-0.0380365
0.05499723
-0.06775572
-0.030872509
-0.018657979
0.06510505
-0.081881136
0.09867479
0.09168629
0.14469124
0.07929634
-0.05803288
-0.056772172
-0.026362041
-0.05183971
-0.04427952
0.0140503505
-0.06404374
-0.01474368
0.073291495
-0.12889563
-0.3176614
-0.08052448
0.03204639
-0.011506804
0.16240124
0.0008071129
-0.10257172
-0.08126142
0.11251095
-0.06510247
0.15056255
-0.04157911
0.11178746
-0.095186226
0.027390825
0.008149315
0.10714099
0.022352675
-0.18321393
-0.034011867
0.049601186
-0.07518161
-0.058989752
0.023633631
-0.029165044
-0.050996
-0.0416072
0.002182635
-0.03239893
0.010571233
0.0067092376
0.06668321
-0.005908714
0.00029992632
0.033858217
0.039333474
0.055476163
-0.006866402
0.009006243
0.074775204
-0.041596167
0.07465125
-0.09621334
0.06614302
-0.023679348
-0.0004646757
-0.041369606
0.031760633
-0.05170232
0.021186866
0.0663146
-0.011010024
-0.018235248
0.0629554
0.07437304
-0.0019619872
0.05650404
0.06483977
-0.01288627
0.020952778
-0.040942784
-0.07771565
0.02697336
0.02129675
-0.1500399
-0.0017574176
-0.06354736
-0.04133767
0.0416481
0.01082673
-0.034378804
0.016964816
0.06662504
0.028683024
-0.0018101975
-0.044238124
-0.0065065506
-0.11249444
-0.07801034
-0.016280068
0.113874674
-0.0628894
0.018870119
-0.026733777
0.096831776
0.20232917
0.08258881
-0.16346592
0.31291473
-0.1443098
-0.067446746
-0.071053684
0.13397206
0.06283683
-0.06279771
0.121327884
0.22444429
-0.038230326
0.047792554
0.07057846
0.02527297
0.04889681
0.28259712
0.11862036
0.051620428
0.049215242
0.0055569876
0.032829527
-0.037529174
0.15593497
-0.14881888
-0.06519573
-0.03327508
0.21252948
-0.056203935
-0.043067995
-0.13183756
-0.10973545
-0.0024954497
-0.110747814
-0.077065565
-0.028416706
-0.15153193
-0.039379966
-0.10877771
0.29123795
0.16080433
0.048180986
-0.0021862364
-0.21499465
-0.27245855
0.000425878
-0.062483463
-0.22353718
-0.16423725
-0.033852153
-0.12445985
-0.01622424
-0.14803822
0.118302844
-0.11662538
0.17918421
0.028065551
0.07131794
0.05677503
-0.12801898
-0.20902042
0.15829676
0.044921122
-0.044651683
0.09071332
-0.10597504
0.060576282
0.026777148
-0.10056965
0.035562444
-0.014132259
-0.012808961
-0.06808
0.16424854
-0.044980798
0.02305118
-0.08022059
0.03867109
-0.042270236
0.06285918
0.120087415
-0.14194323
-0.044197876
-0.10349745
0.21865302
0.08454449
-0.086524
-0.10570326
-0.19096093
-0.0100191245
0.013630836
-0.07767035
-0.12597124
-0.023877079
-0.043856982
0.13647349
0.067982435
-0.024051163
-0.086448915
-0.15482198
-0.04175606
-0.05690395
-0.09482701
0.057607133
0.031916395
-0.011053865
-0.023744341
-0.022087557
0.03477504
0.04921002
-0.06801211
-0.033857882
0.17226043
-0.022670811
-0.037294354
0.012443423
-0.016249087
0.13843997
-0.043707557
0.025792962
-0.03798194
0.04296736
0.2304481
-0.022356264
0.016349778
0.08233783
-0.019467616
0.09608747
0.0091596795
-0.1294497
0.13966288
-0.062599175
-0.07501175
-0.000920844
0.01210965
-0.029059554
0.041262433
0.060098533
-0.0104987
-0.18100776
-0.16238111
0.070502184
-0.009654613
-0.07145272
-0.027763221
0.18883175
0.09437555
-0.00026528494
-0.21243456
0.08021319
-0.08292769
0.016017077
-0.051666673
-0.078988396
-0.03247011
-0.0674872
0.011064938
-0.07003177
0.04727438
-0.12957314
-0.024500797
0.04592063
0.1049818
0.07266746
0.13717705
-0.06076086
-0.13016064
-0.01796961
0.1407009
0.02307925
-0.24229975
0.17970356
0.009731557
-0.052908998
0.028953834
-0.16785744
-0.06420142
-0.13252464
-0.10301168
-0.023701517
0.112150885
-0.12638871
0.20607287
0.085903235
0.057232942
-0.0030680771
0.14029756
-0.0522878
-0.09915403
-0.07086024
0.017467173
-0.055728897
-0.02097096
-0.04961899
-0.04375009
0.07890049
0.08475253
-0.06181787
0.037663586
-0.024308885
0.06760856
-0.012845401
-0.07439728
0.08267249
0.074593045
-0.014908806
-0.026307583
-0.020063557
0.061867956
-0.021015875
0.061891746
-0.04851886
0.020367406
-0.0049514156
-0.021341333
0.061589975
-0.07722929
-0.049506776
-0.029190995
0.034134258
-0.056633964
-0.079967834
-0.05844902
-0.08211182
-0.014680293
0.059998937
-0.0045205383
0.07031392
-0.007900037
-0.0638225
0.07859565
-0.028645093
0.06613906
-0.07217753
-0.02420259
-0.043491516
0.062789194
-0.00456311
0.072944865
0.010213155
-0.050825074
0.01974909
0.066066585
-0.0072117858
-0.025749447
-0.07760157
-0.016417857
0.050051775
0.0062564835
0.017150618
-0.06596415
-0.07145272
-0.043207243
0.048774317
-0.002321032
0.2392678
0.20558211
-0.34075454
0.07059995
-0.001168489
-0.017881736
-0.021952085
0.10457849
-0.06961731
-0.050391763
0.014610204
0.059570156
0.046425957
-0.010492857
0.04269762
0.038311824
-0.1859148
0.15520383
0.08731608
-0.051979933
-0.04002744
-0.13719253
0.031075202
-0.08243835
0.12878698
-0.29245037
0.012359034
0.052403823
0.070146754
0.00082593516
-0.10902903
-0.12420053
-0.13750881
-0.0805609
0.02820683
-0.025202177
-0.0063201203
-0.21018295
-0.032763932
-0.0015522292
0.107327186
0.061118383
0.14045015
-0.2053847
-0.23789814
-0.17129214
0.014291986
-0.32025465
-0.17513402
-0.017327696
-0.11174446
-0.09225681
-0.05323332
0.00258752
0.017364696
-0.010187886
0.13426673
-0.029917615
0.021632947
0.11919985
0.05416479
-0.0626137
0.05266486
-0.034125745
0.04628905
-0.059368618
-0.20160395
-0.12068348
-0.06570828
0.1990742
0.11998997
-0.0046803458
-0.0019591525
0.005981505
0.12089324
-0.30806997
-0.07326009
-0.02923525
-0.32027394
-0.14818713
0.17941158
0.16010636
0.032793194
0.19565035
-0.29644933
0.17197339
0.22172341
-0.18276165
-0.11623599
0.0021522953
-0.036659677
-0.054489832
-0.4038897
0.021609735
-0.25565982
-0.12542763
-0.113345064
-0.033950552
-0.043419134
-0.08248405
-0.03912835
-0.012374101
-0.0070120483
-0.08057098
-0.2578377
-0.12552276
0.092355855
-0.09897196
-0.030138586
-0.0057956055
0.03193741
-0.006736279
0.08938407
0.19675824
-0.061686635
0.21925107
0.0103602195
0.07604365
0.19420102
0.051699724
-0.00022437514
0.073229656
0.059552036
0.15235363
-0.032931417
-0.03287617
-0.10908835
0.07566069
0.14839444
0.022996573
-0.05839242
0.0015212948
-0.13973947
-0.014445379
0.1513458
0.04314492
0.11097074
-0.003445612
0.02178094
-0.09021035
0.012449184
-0.045255587
0.04353852
-0.058495834
-0.08491056
-0.14410505
0.16254847
-0.0073353914
-0.15554652
0.027440809
0.10668097
-0.032780647
0.15094478
0.23752004
-0.120075785
0.058251046
0.04065454
0.082184315
-0.039829835
-0.07321655
-0.23788059
-0.03513689
-0.010407187
-0.010604355
0.18823896
-0.10528847
-0.05260943
0.29686162
0.14537606
-0.10057231
0.25955135
-0.090147555
-0.19203474
0.04913366
0.10736739
-0.04157726
0.24745348
0.043212105
-0.09969743
0.14623249
-0.022284763
-0.3462546
-0.0046925736
-0.037851017
0.12013805
-0.013145133
0.4311817
-0.005315669
0.061337475
-0.019222196
0.016479392
0.04174437
0.0120163
0.10349672
-0.09651118
-0.0020870697
0.012063713
-0.0017696331
0.05736567
0.0815671
0.053640362
-0.032443073
0.13818854
0.05058879
-0.07059884
-0.068259984
-0.058561232
-0.040009998
-0.0037929753
-0.08296555
-0.068948455
0.0062570493
0.10573828
0.17361824
-0.1269732
0.14369054
-0.014747738
0.054493576
-0.013079057
-0.07359405
0.079948515
-0.081779286
0.29554588
0.11335018
0.0710169
0.08779004
-0.101944864
0.09311083
-0.010798341
-0.107472934
-0.06329441
-0.038163967
0.058290496
0.061401136
-0.12652603
-0.061122634
0.035930566
-0.24306843
0.0045645465
0.009242409
0.0496436
0.006342848
0.059194718
0.15030812
-0.1607157
0.17904992
0.029414926
0.12553844
-0.017066242
-0.018836778
-0.1463395
-0.10262248
0.09362668
-0.03651961
-0.12732029
0.16690464
0.10448283
-0.26290005
-0.09152292
-0.017548276
0.007222538
-0.2461368
0.111779325
0.14963952
0.046308573
-0.07317036
-0.10901443
-0.0139690135
-0.14168255
0.11420719
0.025563875
-0.08031031
-0.09396892
-0.0529084
-0.06578287
-0.08420181
0.091452844
0.2016749
-0.004687412
-0.25748026
-0.17422716
0.111047424
0.021910883
-0.031053323
0.08929851
0.13400191
0.10654147
-0.12382577
0.061065424
-0.020367272
-0.018129377
-0.02483897
-0.050197225
0.172098
0.045797996
-0.046030097
0.10733455
0.18286598
-0.14884698
0.19494082
0.1579075
0.14932062
0.053085208
0.07615291
0.051522758
0.07900625
-0.10262267
-0.06780028
-0.046866965
0.029345788
-0.05318478
0.015548331
-0.056929242
-0.051962428
-0.340092
0.08364127
0.17557812
-0.06725238
0.07371634
-0.18943615
-0.06486677
-0.063511856
0.024132926
0.068430096
-0.1997671
-0.37486508
0.034502156
0.08023847
0.013158338
0.00057319185
-0.10384821
-0.06200251
-0.047456317
-0.13623191
0.098317534
0.019373238
-0.15390566
-0.04160601
0.105812706
-0.10600375
0.05726542
0.013085916
-0.05501897
-0.031261526
-0.26843897
0.13510104
-0.06095368
0.07784498
0.07399095
-0.08698012
0.054866433
-0.06856036
-0.009559519
-0.033399623
0.015677104
-0.022910774
-0.03563231
-0.25209627
-0.050437745
-0.059352715
0.31136447
0.07686136
-0.16487904
0.20363733
-0.03302368
-0.10000412
-0.15806732
0.050471358
-0.0020396225
-0.001466735
-0.1745067
-0.16629052
-0.21649772
-0.17704932
0.10059645
-0.07550557
-0.04622221
-0.06802676
0.061988153
-0.09017577
-0.041691523
-0.017865142
0.10092391
0.15067528
0.24396954
-0.034071077
-0.092970446
-0.013066193
0.033967007
0.0071665584
-0.16406319
-0.01148728
0.06402902
-0.09259826
0.063686304
0.21197759
0.034130942
-0.1236808
-0.00552738
-0.019205876
-0.03801085
-0.10279179
-0.05155076
0.11087303
0.03645697
-0.0087501025
-0.07172445
0.12928513
0.19558214
-0.061603386
0.045946497
-0.05536921
0.15068358
-0.088869914
0.009186014
-0.008520928
-0.035382375
0.086590484
-0.020912679
-0.03708823
0.0980933
0.03689591
-0.052645326
0.065819345
0.1424585
-0.07564066
-0.021337012
-0.104753
-0.047321428
-0.22207646
0.015400185
0.041206855
-0.1592163
-0.07616595
0.045484565
0.13313034
-0.013620032
-0.13551186
-0.031038173
-0.009505248
0.019010412
-0.0422247
0.080645435
-0.01790174
0.08198212
-0.12885313
0.017006129
-0.11393358
-0.195454
-0.18665096
0.03511986
-0.04025676
-0.058332566
-0.17640422
0.15241814
0.0779106
0.026618479
-0.012891827
0.062122818
0.050387163
-0.07912054
-0.06898145
0.05135436
0.059212707
0.050095476
-0.14945517
0.02452016
0.045366604
-0.051219743
0.07687873
0.06104436
0.004656024
0.09365094
0.23127557
0.0008637287
-0.009161092
-0.058873706
0.097451605
-0.1763684
0.03738125
0.1841168
0.15179119
-0.06347558
0.062144723
-0.17073411
0.06029604
-0.024819832
0.065952785
-0.03612034
0.033426493
-0.0037279096
0.0070945406
0.057611134
0.28994593
-0.09166121
-0.013539418
-0.14320129
-0.008085222
-0.0034955435
-0.0034700136
0.054128896
0.06120602
-0.15495211
0.021123854
0.034431636
0.05890663
0.098058596
0.02451369
0.16419995
-0.08868625
0.11480189
0.057406154
-0.16447574
-0.11093659
-0.13005382
-0.25198027
-0.21170218
0.18625407
0.1995441
-0.053881142
0.17457922
0.0022589683
0.11515218
-0.2089497
0.084999286
0.07420416
-0.23978639
-0.11529922
0.17297424
0.017134495
-0.004815963
0.22104311
-0.22867173
0.006717493
0.2529209
-0.40460184
-0.29001686
-0.018048411
-0.04125517
-0.012592231
-0.6309261
-0.035336874
-0.160827
-0.2160955
-0.024752501
-0.11350519
0.010068679
-0.098174006
0.035062667
0.076167494
-0.08586258
0.029779315
-0.18416668
-0.108095355
-0.075441204
-0.09319008
0.060111605
0.12190702
0.01802253
-0.053196512
0.18615927
0.36282572
-0.1827717
0.0064333924
-0.066659085
0.020482162
-0.03371782
-0.084160574
-0.12739715
0.025326962
0.11625155
0.1701331
-0.2854166
-0.023064852
-0.07728264
-0.14524843
0.06945582
-0.02040792
-0.07033981
0.053988393
-0.003231485
-0.01637487
-0.06966026
0.062571995
0.024929093
0.06096159
-0.03387
0.08024676
0.09432277
-0.16577776
0.083421856
-0.037818298
0.03612406
-0.044596612
0.024274236
-0.051901948
-0.004452236
-0.06838898
-0.074362315
0.042792175
-0.16685121
0.020701557
0.013420739
-0.0359234
0.07708016
0.09223906
0.04905161
0.099793315
0.070926785
0.032321524
-0.047398847
0.073530324
0.058025826
-0.0311873
-0.04724745
0.04366856
0.015615355
-0.027305888
-0.11485264
-0.20391461
-0.110082574
-0.08667664
-0.06983998
0.16075324
-0.04046121
-0.07368666
0.036079146
0.018263528
-0.09338483
-0.116014495
-0.09710009
-0.01730748
-0.14350767
-0.07036918
0.004241226
0.01721711
-0.14143291
-0.06887331
0.035704818
-0.0589871
-0.15480487
0.15309045
-0.16856773
-0.17328641
-0.011238265
-0.09040528
0.11179431
0.08241491
-0.14651735
0.009973801
-0.004485767
-0.11154831
-0.24223657
-0.20203783
-0.17068411
-0.10177335
-0.085064225
0.06602934
0.060030196
-0.16139929
0.072131254
0.043559257
-0.057778835
0.16015203
-0.22285679
0.060082007
-0.13995136
-0.034467325
-0.052956507
0.068808205
0.2805836
-0.05525518
0.11221318
0.0014365157
-0.03830855
-0.010789324
-0.21379085
-0.10552094
-0.05595911
-0.106098555
-0.12269802
0.038173437
0.1547125
-0.032897647
-0.066092044
-0.10165334
-0.00089022674
-0.017370347
0.09026887
-0.031198837
-0.27801847
0.12113736
-0.19601467
-0.2266046
0.14328977
0.092791
-0.09675141
-0.0074334745
0.044014078
-0.07142557
0.06106528
-0.17017452
0.11829081
0.0861003
-0.0433316
0.01769291
-0.06690798
0.07499186
-0.0595318
0.16466622
0.07623239
-0.19343397
0.20926364
0.036152653
0.009702244
-0.1477928
-0.053469643
-0.27298477
-0.20620567
-0.04983918
0.11500141
0.0031051873
0.22850128
0.22486678
-0.043057624
-0.011480422
-0.1269859
0.006414572
0.032535765
-0.059576895
-0.07853202
0.04273881
0.09848154
0.21409969
-0.03708995
-0.23481919
0.004439826
-0.01805915
0.0044985297
-0.106050596
0.087838195
0.066617504
-0.01012837
-0.122191764
0.09666463
0.017305624
-0.19769599
-0.0032742566
-0.09010823
-0.17289531
0.10494397
-0.0867057
-0.16889022
-0.10163181
0.11073085
-0.043107502
-0.0077414354
0.21029808
-0.1796721
0.2298485
-0.087693475
-0.0137958145
0.12265381
-0.24371554
-0.14642435
-0.2768679
-0.050818823
0.038744837
-0.05972247
0.08359782
-0.22533965
0.049507484
-0.15240452
0.20483306
0.07575524
-0.05280987
-0.049257554
0.0035482075
0.20342389
-0.09579066
-0.08347019
0.12254735
-0.0810029
-0.084742695
0.08412838
-0.041970134
0.14183748
0.055320043
-0.035103265
-0.004394552
-0.027408361
-0.08931731
-0.27033722
0.05267854
-0.033930246
-0.07784208
-0.022366224
0.025363842
0.06753634
0.09909849
0.06661769
-0.021224087
0.047491886
-0.003701083
-0.029521797
0.08408496
0.032916944
-0.23667103
-0.05434189
-0.05682476
-0.24636188
0.073371135
0.009049492
-0.22810264
0.026044307
0.08241801
0.098237276
-0.20240942
0.08835825
0.09648402
-0.19909072
0.19658367
0.079694994
0.049405407
0.02483533
0.0011547098
-0.10178512
-0.12642898
0.1009682
-0.12109622
-0.092595935
0.0625126
-0.14183268
-0.03848901
0.03252463
-0.21751507
-0.0550006
-0.20656222
0.07636981
0.17416196
-0.2653768
0.05470021
-0.04224753
-0.030069854
-0.12292474
-0.14423929
-0.23312525
-0.022111584
0.006686127
-0.016910367
-0.11757086
-0.054176014
0.11151501
0.13014731
0.0054016868
0.059720144
-0.19572866
0.13795015
-0.022391655
-0.03517224
-0.060177274
-0.043656584
0.25024414
-0.08042969
0.16435222
0.02986466
-0.06448758
-0.018014895
-0.2801334
-0.10937527
-0.057007708
-0.09490892
-0.027224422
0.06612311
0.105280586
-0.06582337
-0.022535458
-0.09885515
-0.14891918
0.15646228
0.11131332
0.08401168
-0.13492957
0.14107996
-0.03700345
0.24631515
-0.012816582
0.0559368
-0.055899218
-0.051704716
0.011480004
-0.19195923
0.12767486
0.06462779
0.02262347
0.0077062747
-0.060228582
-0.17669779
-0.19406642
0.046089247
0.006792063
0.14591992
0.06508554
0.04867267
0.027420243
0.046755027
-0.056100592
-0.07435947
-0.0069463425
-0.057297673
-0.07843114
-0.0347751
-0.056570895
0.03851917
0.23151895
-0.015450549
-0.05135586
0.08286969
-0.10997454
-0.17411743
0.13803534
0.26671356
-0.013863254
-0.026088336
-0.08631923
-0.27519754
-0.05864661
-0.23768191
-0.025410892
0.031723745
-0.05530448
-0.05173842
0.004028558
0.26344177
0.0761014
0.20703755
0.03419025
0.026730955
0.1818547
0.06685834
0.3127085
0.0683317
-0.22650571
0.15214226
0.06431838
0.15884085
0.0039317952
-0.17220028
-0.025715027
-0.07365652
0.035225477
-0.07217607
0.09995856
-0.0051497505
0.092436425
-0.12805514
-0.069789134
-0.23781292
0.0288577
-0.059161108
-0.2066308
0.0626276
0.0110199535
-0.093421035
0.03630138
-0.004816163
0.01080574
0.07223312
-0.13583584
-0.066436656
-0.053142693
-0.088714585
-0.0463927
-0.07497785
-0.06270116
0.03219675
-0.016734514
-0.08549398
0.054159205
-0.03285164
-0.11866677
0.08712872
0.17296135
-0.02498144
0.08070058
-0.08051093
-0.030328125
0.049621325
0.032697413
-0.12288865
0.07960431
-0.08137468
0.0706223
0.015742432
0.017947827
-0.17826909
0.08662334
-0.11656135
0.050418645
0.028803099
-0.0649485
-0.011091191
0.011981613
-0.13777758
0.030745115
-0.1096084
-0.1176882
-0.11361241
-0.0946934
0.012861008
-0.065225475
-0.059882633
-0.107659645
-0.12106259
0.09108187
0.15769726
-0.090870425
0.05460441
-0.048308287
0.016898144
0.042280782
-0.11849375
-0.11921378
-0.0978544
0.084639624
-0.15970367
-0.28526127
-0.2676361
-0.41186678
-0.08548215
0.08254148
-0.25909296
-0.16509566
0.0670232
0.052373067
-0.3849795
0.11377309
0.09579562
-0.32621744
0.0035113068
-0.331134
-0.044113006
-0.5703065
-0.04918377
0.09427699
0.016745016
0.26879293
0.12595809
0.28511682
-0.20516017
0.060625374
-0.06275806
-0.2905192
-0.06936487
-0.15898024
-0.39874116
0.09931433
-0.16987301
-0.01719291
-0.03898852
0.25062352
0.07990338
0.0017835975
-0.09949427
-0.46298704
-0.47747728
-0.1822904
0.13809304
0.23243536
-0.17262326
0.16834293
0.19155276
-0.033767696
-0.07331069
-0.000539176
-0.24827003
0.10459863
0.16820154
-0.1810685
0.07435979
-0.41728356
0.037322987
0.048085872
-0.30222118
-0.049696892
-0.00694306
-0.10538247
0.03239343
-0.14859225
0.024376271
0.015593716
-0.19230537
-0.017801097
0.08790954
0.04484276
0.17468715
0.1052864
-0.024025295
-0.24834122
0.02469422
0.0124079045
0.08483217
0.11359517
-0.088260874
-0.26368362
-0.15852767
-0.111537784
-0.013504842
0.08069867
0.1783926
0.020017125
-0.25990388
0.09388401
0.08949896
-0.06540201
0.004031375
-0.11177993
0.119231254
0.039093696
0.07212475
-0.09594246
0.06749716
0.079346165
0.056171916
-0.1462984
0.07431114
-0.0977958
0.042949747
-0.1591671
0.044862747
0.11012204
0.022820868
0.009509566
-0.018311638
-0.16780727
0.08916595
0.006130118
-0.053819206
-0.14131151
-0.0030129263
0.009314464
-0.0023994737
0.0036720096
0.0018627474
0.046905488
-0.009883173
0.098856635
-0.18389802
-0.030616842
-0.0017259313
0.12150588
-0.035044044
-0.06649702
0.08018102
-0.01049033
-0.2649709
-0.03684414
-0.11083251
-0.17507961
-0.21089867
-0.07217122
0.020209795
-0.001661188
0.10139648
0.10043029
0.078644775
-0.12719826
-0.06555556
-0.11274463
0.08947973
-0.049502917
0.010800162
0.062697455
-0.07343185
0.26793045
0.11392565
-0.07768227
0.081842944
0.034899313
-0.05206356
-0.20462744
-0.12428212
0.057685096
-0.08691197
-0.06402184
-0.02004439
0.025035666
-0.062814936
-0.16839567
0.19791275
-0.09446069
0.020825824
-0.17367345
-0.20059827
-0.050428145
0.08160534
-0.0019876177
0.14876421
-0.014518402
-0.16323799
-0.02933499
-0.20349064
0.21241744
-0.07006242
0.10954968
0.18443854
-0.16215578
-0.1261041
0.042386454
-0.08726562
-0.053922936
0.017952433
-0.2044498
0.029968895
-0.016780691
0.1280486
0.009687362
-0.2257645
-0.072296605
0.003971114
-0.07645982
-0.02735804
-0.05000461
-0.21926627
0.0010667718
-0.10815551
-0.13907523
-0.21191901
-0.0004622976
0.05761487
-0.031521484
-0.019060865
0.062785015
-0.0902113
0.111264445
-0.072011195
-0.021038301
-0.22574964
0.0023472924
0.13212807
0.2146806
-0.11520431
-0.005579723
-0.043526806
-0.2034553
0.074437484
0.054076303
-0.085356735
-0.02157724
-0.09374316
0.002984617
0.020728886
0.20024556
0.08824219
-0.047964323
-0.17785217
0.0032516592
-0.08084751
-0.07632013
-0.04507386
0.021513106
-0.11368733
-0.048764005
0.009891912
0.02772618
-0.079602554
0.058619928
-0.22916125
-0.02577574
0.14629285
-0.112812504
-0.115246
-0.14491865
-0.10430872
0.008069142
0.01283472
0.13600639
0.057871766
-0.050062567
-0.17680179
0.06254434
0.11705577
-0.098001145
0.019188426
-0.032358535
-0.14186813
-0.07278461
-0.1144789
-0.16424008
0.0010405229
0.120047726
0.041172612
-0.064819485
-0.05365085
-0.15966637
-0.006158157
0.060650956
-0.018771838
-0.07065319
-0.09940809
0.10820645
-0.06240351
0.08335935
-0.03951478
-0.008759617
-0.10846372
-0.0828692
0.033698794
0.1372916
0.005206029
-0.09210411
0.12175283
-0.045200113
0.026002612
-0.038696762
0.04877919
-0.14068335
0.101359606
-0.124706775
-0.30293852
0.023406895
0.06996126
0.007368775
-0.026800556
0.054650933
-0.1141124
0.015225377
0.09716229
-0.06350081
-0.08590784
-0.08550034
0.034023628
-0.04499764
0.08859622
0.09846301
0.06017462
0.14851168
0.06194981
-0.12171867
-0.0046877796
-0.09955309
-0.020940287
-0.0855413
-0.007144
0.19499744
0.027607076
-0.05408903
0.12601465
0.11462974
-0.10986299
0.053738408
0.0008582156
0.017951924
-0.056393236
0.10549014
0.08868286
0.038014814
0.046540186
0.032563053
-0.013486179
0.10181825
-0.023187567
-0.1027822
-0.031030696
0.037648235
-0.16775064
0.022954158
-0.08603588
-0.11101452
0.019164603
0.011107745
-0.039681826
-0.0061603594
0.0013615474
0.0754084
0.1382778
0.07373292
-0.33298925
0.00070437125
0.06976513
0.01322714
-0.013365952
0.015536835
0.003143381
0.032692723
-0.060491037
-0.061277885
-0.22345975
-0.045137927
-0.09972363
-0.094739735
0.080367304
-0.02659233
-0.024862073
0.07524384
0.028536744
-0.075726986
0.16387646
-0.12414418
0.093678534
0.04033875
-0.05085472
-0.18670063
-0.024642166
0.108667344
0.19569105
0.1731939
0.05609935
-0.13035032
0.043986496
0.11102301
-0.1463112
0.044663474
0.043300252
-0.12633681
0.0863168
-0.104277804
-0.022679131
-0.06265728
0.010764446
-0.095829114
0.064025804
0.036014866
-0.034900956
-0.027483674
-0.09696111
-0.0075592007
-0.003558957
0.12621745
-0.28339127
0.0777727
-0.12405063
-0.07660457
0.057804495
-0.03948977
-0.049133863
-0.009825067
0.01801711
0.10985176
0.0019888289
0.04820368
0.11960077
-0.08310919
-0.018750662
-0.19134703
0.106632
-0.0067287786
-0.1646769
0.04434142
-0.034068573
0.004958937
-0.04709389
0.04931747
0.06255167
-0.024008293
0.17053162
0.11933401
-0.05866765
-0.21433477
-0.13831484
-0.058357045
0.04404372
-0.1668036
0.1439675
0.19573498
-0.046340358
0.14333302
0.0065640537
-0.011841132
-0.034059614
-0.15137418
-0.0129897315
-0.3075768
0.09969004
0.25221792
-0.21141317
-0.367861
-0.042705532
-0.09360416
-0.21756452
0.13996601
-0.050143957
0.093064345
0.26065263
0.18835859
0.018054496
-0.20494705
0.0014760118
-0.12241982
0.064910136
-0.089844406
-0.00019544111
-0.005824244
0.044228446
0.0903433
-0.028380161
0.0146056125
-0.25160286
0.07220423
0.061293103
-0.23966102
-0.063538514
0.069981135
-0.16291705
0.07643257
0.0096379435
-0.03918613
0.08434457
-0.02237597
0.0028356574
-0.084341176
0.115027234
-0.20656241
-0.09249153
0.0989642
-0.18655384
0.0021330619
-0.019404666
-0.21510006
-0.11086718
-0.16386329
0.14653854
0.042919688
0.05862651
0.13143818
0.21606098
0.17299588
0.21855278
-0.11014934
-0.050441965
-0.2185301
0.48290554
0.0026733342
0.26150194
-0.06560509
0.0038778842
-0.07602282
-0.0169336
0.0449997
-0.0479235
0.06564445
-0.04133688
0.13600785
-0.048823025
0.15086415
-0.0673084
0.10263605
-0.017065851
-0.047203727
0.09423787
0.12610236
-0.04908404
-0.18200617
-0.07924938
-0.06714408
0.0027429478
-0.013623046
0.14353602
-0.030089848
0.08589822
-0.01558045
0.10503477
0.0034337041
-0.0664183
-0.008209032
-0.07738246
0.042931225
0.021002494
0.053438455
0.08064852
-0.037530024
-0.05372217
-0.09030204
-0.008741665
0.010265914
0.0056899753
-0.21266422
0.0047281105
0.07292274
0.30263126
-0.14789377
0.09915148
-0.035069656
-0.047542743
-0.08155197
0.04606094
-0.016254682
-0.037237335
0.09737801
-0.13224739
0.07327868
0.014119412
-0.018913953
0.054036602
0.022573853
-0.24461992
-0.016208407
-0.13727967
-0.060952272
-0.043898433
-0.08196366
0.04324858
-0.02612852
-0.08908982
0.01534015
0.035282165
0.0037327565
0.015502475
0.06549968
0.003784614
0.070663616
-0.11335149
-0.038276922
-0.10808717
0.03763748
0.023310408
-0.061726335
-0.036412798
-0.0061131474
-0.16435482
0.09737704
0.07304612
-0.030293386
0.028689481
-0.055622995
0.021967182
0.016845794
-0.09551096
0.019096036
0.024958132
0.05372319
0.06511586
0.023600232
-0.05724434
-0.07592377
-0.058447357
-0.09537763
0.05782323
-0.060437176
-0.100352824
0.003855936
-0.013948148
-0.03522197
0.06921522
-0.123501204
0.04040862
-0.054297164
0.14969707
0.03802026
0.11972551
0.008183459
-0.0010916657
-0.04428345
-0.18327382
-0.0646116
0.034217622
0.02933203
-0.035439234
-0.0134960115
-0.22336128
-0.05684663
-0.10477563
0.04888081
0.05727807
-0.14195327
0.123100616
-0.116017856
-0.1371838
0.019117422
0.030012446
0.020967916
-0.0011887751
0.11620373
0.0064288867
0.14281705
-0.117989704
-0.16368487
-0.12777507
0.04257109
-0.011681618
-0.027523
-0.06069127
-0.026006581
-0.034564942
-0.005955553
0.12249272
0.13068384
0.0756765
-0.15824212
0.10176716
-0.058314692
-0.044535313
0.0370344
-0.11031143
0.035474323
-0.0051789614
0.06861624
-0.053284056
-0.038549077
-0.08569795
-0.04470164
0.11138229
0.061940897
-0.036772136
-0.038963877
-0.019004667
0.055209722
0.19943324
-0.10251019
-0.044999335
-0.04233904
0.11570278
0.050087396
0.07858063
-0.13164458
0.060302056
-0.0040701595
-0.1849044
0.038454294
-0.024886059
0.13611957
-0.072678044
0.0113074705
-0.084529735
-0.017649537
-0.22788726
-0.026904447
0.014132873
0.06103169
0.05372327
0.027682511
-0.055910144
0.06833976
-0.015496469
-0.0023040362
-0.046286467
0.033055507
0.0048891753
0.0010930379
-8.3256964e-05
-0.00063435367
0.07332006
0.034649704
-0.01759205
0.06710922
0.08424668
-0.015388342
-0.005402985
-0.062378794
0.042435624
-0.0323595
0.04624943
-0.16225748
-0.07066058
-0.013971056
-0.06785332
-0.000615607
0.014144527
-0.08688258
-0.050888237
-0.04613477
0.041206818
0.05008489
-0.051863942
-0.056735963
0.00435933
-0.015887886
0.0029152776
0.0061647915
0.06471685
-0.045726802
0.00791222
0.0440039
0.034238722
0.059984524
0.014208341
-0.0028505065
0.05347826
0.0015656168
0.073989175
0.03063015
0.06851294
-0.032978114
0.037467342
0.06305641
-0.04397219
0.036683556
-0.046067145
0.06526087
0.047033086
0.02827194
0.038775403
-0.08086273
-0.1831224
0.15193434
-0.23137622
-0.060295835
-0.05005354
0.023837771
-0.23081732
-0.094641745
-0.068840675
-0.27530706
-0.15529163
-0.07094962
0.08545529
-0.16202763
-0.03512539
-0.0268299
0.24605623
0.014917308
-0.13872918
0.14571615
-0.047707472
0.051839057
-0.1426558
0.12540536
-0.14552088
0.09671934
-0.082010575
-0.37086245
0.063349925
0.034259424
-0.11230855
-0.045885753
0.07219481
-0.06288874
0.1892613
0.10214137
-0.08589463
0.0033076182
-0.32372314
-0.24142495
-0.016994387
-0.11581917
0.017559828
0.06292264
-0.418246
0.19103442
-0.055910278
0.10786598
-0.19335677
0.041274954
-0.15922506
-0.21360113
-0.2421057
-0.0010409013
-0.15497708
0.0018643106
0.061556775
0.096454434
0.012326463
0.08080303
0.083096
-0.20595072
-0.046598714
0.047409315
-0.17229551
-0.015934857
-0.057331644
-0.01745313
0.028756477
-0.058375742
-0.013557065
-0.040211245
-0.11563471
-0.06344593
0.097752504
-0.11060486
0.08924137
-0.079988524
-0.11604935
-0.017372793
0.16469458
-0.024347832
-0.19550516
-0.15056778
-0.121369906
-0.07515765
-0.08404175
-0.05303017
0.091731355
-0.093429424
-0.057548612
0.1527431
-0.044710368
0.024582708
0.1913749
-0.07143553
-0.1163839
-0.040204734
0.08738041
-0.023592705
-0.08594481
0.001656119
-0.31706786
0.09427223
0.098942004
-0.0613548
-0.21069972
-0.041388128
-0.21722516
-0.02474429
0.0826869
0.039793167
0.004794924
-0.1479414
-0.060129564
-0.2643197
0.17776094
-0.052739624
-0.016887825
0.17284298
0.073758215
-0.16232643
-0.06907825
-0.047397323
0.12369589
-0.058160707
-0.1124646
-0.01960585
-0.02639636
-0.16552822
0.061259262
0.16017215
0.11213497
0.12496416
-0.02198001
0.0965111
-0.055719405
0.005977494
-0.18410696
-0.057622027
0.11006016
0.021319332
0.008437751
0.007903711
-0.017338835
0.15364039
-0.024785098
0.08882179
0.08116099
-0.015716456
0.09847288
0.1100785
0.018304607
0.0002069343
-0.07437308
-0.064973
-0.10143437
-0.08940811
0.002522697
0.020868909
0.15454295
-0.05059213
0.08011805
0.064735584
0.027886327
-0.091825336
0.110676415
-0.06801452
0.008579538
0.050624777
0.1277598
0.012029541
-0.013521087
0.083205074
0.021615775
-0.015963163
-0.02551234
-0.06768218
0.014354495
-0.01779281
0.12088436
0.05411069
0.06918151
0.051931508
-0.07193564
0.0672393
-0.2751849
0.044674214
-0.11735213
-0.0013114096
0.03307544
-0.03853681
-0.016607955
-0.010947408
0.05682979
-0.021601178
0.067228615
-0.015674282
0.025811763
-0.050541647
-0.035150647
-0.036377613
-0.0013695759
-0.019417612
-0.07781485
0.056723833
-0.05581636
0.0549762
0.019821942
-0.041336816
0.036956724
-0.045709305
0.0069175707
-0.027635312
-0.07761576
0.05466679
-0.04169165
0.011208477
-0.051899243
-0.07463024
0.019058097
-0.07170745
0.05830544
0.008665579
0.068748154
0.020603728
0.031815626
-0.060233474
-0.03429954
0.06947265
0.075110294
0.046723958
-0.003531497
0.033186384
-0.029955495
0.07082031
-0.042221628
0.06821388
0.041533533
-0.029312111
0.08240013
0.044417713
-0.04804863
-0.048621163
0.029725345
0.032942653
0.07303025
-0.004357992
0.07319641
0.061448008
0.05966772
-0.03459064
-0.06671996
0.017838893
0.030873213
-0.2238427
-0.08769378
0.01339141
-0.39010817
0.04486938
-0.039712366
-0.05217739
0.07226587
-0.014701067
0.0060099345
-0.40444142
-0.04109392
-0.07481317
0.051607937
0.01768447
0.00043232582
-0.09416673
0.11656173
0.0288369
-0.16476116
0.043686666
0.0012899098
-0.10363751
-0.27158526
0.2083951
0.019060213
-0.124584585
-0.036972556
-0.030128721
-0.104591735
-0.08356906
0.101261936
-0.08949315
0.08445817
0.0038027535
0.2619663
-0.020775415
-0.104939476
-0.06921735
-0.022904247
-0.17354056
0.13577221
-0.05029371
-0.022105645
-0.07682548
0.055345282
-0.012028304
0.021879476
-0.118527316
-0.053543586
-0.44656098
-0.19415139
-0.05385775
-0.22596444
0.030654846
-0.082383625
0.22839147
-0.100014254
-0.040127795
-0.1397699
0.14132191
0.10509048
0.050945897
-0.24207088
0.17930156
-0.25714993
-0.1413203
-0.29673973
-0.02927447
-0.0028945282
-0.017510712
-0.2350938
0.13361262
0.03444368
0.07796983
0.09597604
-0.036438182
-0.14976113
-0.23223582
0.040719397
0.078691
0.10826195
-0.3950263
-0.055856142
-0.12189619
-0.0012045576
-0.055987045
-0.16705927
0.11593419
0.31051907
0.007051589
0.0099016
-0.007901383
-0.075945996
-0.00999932
0.037349984
0.010976784
0.009096681
-0.02503658
-0.0036353478
0.033681404
0.17681463
-0.03144508
-0.013685903
-0.26753938
-0.08928628
0.09825576
-0.03265884
0.18554126
-0.140956
-0.0034769678
-0.0076926327
0.11092469
0.022181116
-0.1028785
-0.16412157
-0.28082737
0.008850944
-0.17601117
0.021845859
0.018489972
-0.06211372
0.03476585
0.13481408
-0.21854086
-0.01618163
-0.209334
-0.038423926
-0.048297558
-0.29777825
-0.20442514
-0.04836809
0.1272155
0.15624368
0.17583807
-0.315865
-0.026457192
-0.09750774
0.05299232
-0.09829136
-0.08980552
-0.0050769867
-0.26571223
-0.026047323
-0.15429468
-0.06309012
0.0009293561
-0.03999429
-0.20352681
0.1545577
-0.031201169
-0.104973644
0.5046271
0.10936182
0.055579852
0.032504734
-0.26661858
-0.036206376
-0.16649403
-0.20110269
0.038831223
0.13222566
-0.0803026
-0.03807569
0.11408105
0.3603262
0.008370728
-0.18817474
-0.31545928
-0.4474212
0.04096673
-0.083371945
0.33165315
-0.026237043
0.018581674
0.036568854
-0.018371496
0.028289303
-0.18080142
-0.19022544
-0.081840225
0.32583186
-0.10166511
0.28658423
-0.17792158
-0.031677183
0.23933208
-0.23818585
0.07044605
-0.0796171
-0.2617626
0.13364524
-0.024739724
-0.05038489
-0.03353999
-0.15678114
0.15818885
-0.1329675
-0.124493256
0.017832413
-0.2807032
-0.10703269
0.054344054
-0.030248469
-0.036405284
-0.03388267
-0.3236994
-0.041428383
0.034331076
0.09351489
-0.14418589
-0.10048258
0.2553626
-0.060152143
0.106385455
0.016550539
-0.17431149
-0.21986061
-0.06272561
-0.036718566
-0.12639806
-0.067990504
-0.12263992
-0.1336855
0.020520922
0.032715745
-0.0745649
-0.01106239
0.042330716
0.01133801
-0.027267277
-0.2354179
-0.14549178
-0.001854219
0.053466037
0.19548942
0.049582366
-0.16462155
-0.01452585
0.059993748
0.116516784
-0.005926584
0.020168168
0.1691359
0.076571345
0.027768375
-0.00552246
0.19212475
-0.06803317
-0.010753754
0.008973674
-0.103688344
-0.24533398
0.103531584
0.016887449
0.13738964
0.24656622
-0.028225942
-0.058578577
0.017811375
-0.0060049766
-0.26947862
-0.050830435
0.06309594
0.17525142
0.07340475
0.11896341
0.028010918
0.058856662
-0.047027133
-0.36073482
0.018533463
-0.105526865
0.0022606147
-0.049395144
0.048074976
0.11517387
0.017597439
-0.00818315
-0.11687311
0.15857518
0.116490684
0.042474236
0.024231939
-0.14451978
0.0192317
0.16053566
0.040608004
-0.051626768
-0.102625884
0.0042098137
0.05425551
0.056990683
0.11722593
0.033848945
0.22952722
-0.08111743
0.09548212
-0.009778001
-0.23436505
0.03895641
0.02930344
0.13797042
-0.18856834
0.10613185
0.047573753
-0.057120677
0.014638756
-0.2707374
0.22884063
-0.019653086
-0.12494602
0.070338964
0.0391999
-0.19005932
0.1868553
0.21912302
0.11873435
-0.094939545
0.1942299
-0.007559132
0.039678223
0.017523453
-0.0009723434
-0.06052239
0.02776486
-0.111696355
0.038528096
-0.38795888
-0.0056080064
-0.1816701
-0.15853855
-0.017403487
0.006033661
-0.20893131
-0.078086875
-0.20854649
-0.07435388
-0.13754565
0.13974233
0.039339542
-0.25515592
0.09700147
-0.028129641
0.084045835
0.077494405
-0.04861927
-0.042265195
-0.08542515
-0.054831427
0.16092458
-0.14896974
-0.002277658
-0.012766308
0.073458664
-0.07940196
-0.21377423
-0.07621029
0.037583552
-0.07057834
-0.2445597
-0.20948128
0.045752414
0.056586318
0.004378055
-0.04987667
-0.049795017
-0.006098151
0.12750912
-0.066842854
0.11119302
-0.05938538
0.10466828
-0.005178193
-0.043473102
-0.008967256
-0.007105001
-0.019396868
0.1148216
0.014484211
-0.08707286
-0.07927983
-0.040074166
-0.20727366
0.049088795
-0.08998192
-0.118169665
-0.11965839
0.026027866
-0.0021855228
0.08710834
0.09665034
-0.03830282
-0.041727964
-0.03784717
-0.058947504
-0.09966907
0.063110076
0.057924513
-0.09480855
-0.10776655
0.009547358
0.019704707
-0.0897966
-0.002658405
-0.0018071383
-0.07652044
-0.0919341
0.09920854
-0.20555854
0.010342751
0.025210915
-0.08793259
0.06835682
0.062184066
-0.08544779
-0.078533195
-0.017308509
-0.06869118
0.12354739
0.17521638
0.02164029
-0.10300803
-0.2128011
-0.11591628
0.020114062
0.03994625
0.012936039
0.100378096
-0.1039853
0.023683287
0.04697166
-0.04293398
-0.049852878
0.0928573
