0
-0.04120411
0.03724104
-0.05428995
-0.0636227
0.19669794
0.04525841
0.17132975
-0.038945798
-0.058431797
-0.20235953
0.18376063
0.005296301
-0.11584662
-0.13233575
0.04819612
0.17615102
-0.0070025343
0.11068253
-0.07330103
-0.07031346
-0.055158705
-0.31841832
-0.017325118
0.031907905
-0.028370459
-0.14140983
0.15236573
-0.009541328
0.07964138
-0.016948547
0.1288798
0.13216843
0.060270485
0.21374059
0.040716175
0.13435349
-0.00036956192
0.22621585
-0.021194438
0.012498096
0.04683504
-0.1717638
0.0823176
-0.050131068
0.15270063
8.4149506e-05
-0.05958496
-0.061007634
-0.021161763
0.082902536
0.046195123
-0.021224406
0.0100285
0.15767439
0.10265514
0.08678505
0.12226376
-0.13875599
-0.19560929
0.09225119
0.08498571
0.12422799
0.2196148
0.03275803
-0.16138518
0.0046424544
0.09709592
0.16590132
0.10884218
0.0153544685
-0.002355866
-0.1302359
0.060918298
0.017887756
0.12069857
0.22769958
-0.030315714
0.0345926
0.23887816
0.04756835
-0.07023749
0.07993627
-0.035652082
-0.53713787
-0.08699322
0.004682327
0.01916504
0.0954631
-0.056381933
-0.003228263
-0.0330306
-0.03925373
-0.16866562
-0.0025790783
0.014246278
-0.022757228
0.021465713
-0.21927276
-0.08544355
0.017388308
-0.029363584
-0.13989778
-0.2576967
0.10426917
0.06412436
-0.0015998937
0.086681865
-0.033748753
-0.08048194
0.102680825
-0.10504099
0.16199209
-0.013362815
0.048498817
0.05335492
-0.113064125
-0.04843321
-0.15036543
0.031502113
0.040218223
0.039195172
-0.110322446
-0.11044051
0.082440816
-0.0026410662
-0.15698203
-0.053844407
-0.12274117
0.061197806
-0.08923015
-0.06724839
-0.037760176
-0.17022099
0.02081062
-0.09494322
0.055925228
-0.074025646
-0.0169249
0.11125611
0.032066196
0.039964773
-0.07547096
-0.04864307
0.0054293154
0.07704383
-0.1434391
-0.0481909
0.02724608
-0.15621553
0.1187292
0.049520116
-0.09689669
-0.065269955
-0.16859198
-0.0572371
-0.045644533
-0.10129634
-0.055642955
0.03250478
-0.03700466
0.054332756
-0.012596124
0.05320734
-0.05548248
-0.10454716
-0.07317651
0.0050795656
0.029303616
-0.002682291
-0.012549607
-0.27015713
-0.07292058
0.058721587
0.028602563
0.0008259912
-0.054920163
-0.06708486
-0.06420079
-0.05266401
-0.05626039
-0.167723
0.018556949
0.022379579
-0.13139555
0.10818271
0.0023137424
-0.044922926
0.06217222
0.05038682
-0.07716224
-0.19610986
0.12296504
0.15855391
0.2521397
-0.09918047
-0.04813908
-0.07457703
0.08071366
0.02427041
0.028275575
0.06808125
-0.0721995
-0.041532777
0.101975754
-0.08221433
0.067973085
0.07776093
-0.15322506
0.06917763
0.10893437
0.19821472
-0.04705431
0.19204643
0.015511052
-0.061219268
0.059347957
-0.08441296
0.056750983
0.016757103
-0.025436299
0.16793747
0.015530342
0.017637603
-0.12622364
-0.08323194
0.09045907
-0.030566752
-0.071588404
-0.0059341774
0.11516758
-0.11930642
-0.052011978
-0.016939213
-0.094909474
0.1025376
0.013459498
0.050512515
-0.01991417
-0.06773922
0.043814994
-0.03395502
-0.06071089
0.07627003
-0.08728843
-0.012713831
-0.07062248
-0.03315642
-0.056002162
-0.007541236
-0.07073655
0.07296724
-0.07917206
0.03001037
0.015408913
-0.02085973
0.035101656
-0.080368936
0.0012065987
-0.07813696
-0.151396
-0.2778012
-0.05568764
-0.22303842
0.006746576
-0.023855666
0.19509955
0.00689823
-0.037404098
0.15389718
0.22235893
-0.1538246
-0.19801438
-0.039736148
-0.059696533
0.021276072
0.0756968
-0.025495848
-0.16518548
-0.27551633
-0.08353317
-0.026579263
0.116798006
-0.06662281
-0.044684168
-0.07881179
0.03103936
-0.05460941
0.04328697
-0.054318946
-0.08322471
0.12162244
0.13618182
-0.010813643
-0.18507704
-0.0034030438
0.024244206
0.030497843
0.049472187
0.0932187
0.016672319
0.09334162
-0.108098224
0.026095428
-0.023646075
-0.038716797
0.0030875576
0.012752096
-0.0831988
0.04123863
-0.052479025
-0.09291956
-0.06802856
0.033317786
-0.049434174
0.10325773
0.041300092
-0.09725428
-0.24952948
-0.12505764
-0.09229935
-0.063444294
0.009806526
-0.11296521
-0.095812775
-0.11721609
0.026748022
0.045748647
-0.08692087
-0.16859151
-0.13889241
-0.017092578
-0.142717
-0.04908884
-0.029277207
0.01657328
-0.10680553
-0.003046573
0.011988472
-0.14923441
0.015624366
-0.1586485
0.06399769
0.0042415923
-0.054974306
-0.00078466674
-0.010570734
-0.0059726005
-0.06389726
0.015757272
-0.15544084
-0.023218697
-0.0085273
0.0022189145
0.049316425
-0.012703386
-0.05126935
-0.04046126
0.107651934
-0.04479184
-0.016679393
-0.09964909
-0.0956121
-0.12861985
0.0353788
0.11533333
-0.019970825
-0.22283734
0.08846598
-0.03175038
0.035483696
-0.1256919
-0.14001638
-0.20818779
0.025318816
-0.025099749
-0.19811079
0.008020887
-0.040840395
-0.0059506563
-0.12645233
0.080497585
-0.078632146
0.044599716
0.1244325
-0.0204333
-0.08874391
-0.147915
0.0066081355
0.02213805
0.11384647
-0.17045416
0.07172907
0.029398516
-0.018342871
0.049731933
-0.018331474
-0.027207403
0.08056418
0.12873593
-0.0056252303
-0.10064905
0.023357973
-0.007691443
0.048755586
0.017076556
0.044136822
-0.020400668
-0.0013776933
-0.040294293
-0.08024578
-0.09454306
-0.05307418
-0.03322138
0.020027403
0.018524738
-0.012854021
0.05978962
-0.017548064
-0.012287698
-0.06859115
0.18844308
-0.1039263
0.007829696
0.0062136604
-0.058338035
0.044896074
0.0522152
-0.049347535
-0.2632001
0.079665996
0.003380447
-0.03645488
-0.07500489
-0.09966072
0.028224014
-0.047341734
0.004460603
-0.058878984
0.03548361
-0.10307532
0.106342554
0.029648539
-0.16376036
-0.074166544
0.043270912
0.039765023
0.016318396
0.0053445115
-0.03457268
0.00054601225
0.07262524
0.10724436
-0.101681024
0.04528239
0.039128944
-0.07697007
-0.016649961
-0.11528726
-0.05620573
-0.11879138
-0.25199437
0.049068823
0.052133657
-0.06040238
-0.0010118681
0.027167793
-0.26750565
-0.39995003
0.01923479
-0.03132521
-0.056642525
0.09853149
-0.14370763
-0.004376266
-0.038828027
-0.04893686
-0.042254362
-0.24216887
0.035894923
0.011145257
0.019557225
0.16884358
-0.12822558
-0.09193613
0.08840968
-0.12897278
0.008855952
-0.05082889
0.037936755
-0.045038998
0.104810804
0.008304658
-0.035984963
0.17103171
-0.25361958
0.1229003
0.02608688
-0.30036786
0.06322893
-0.16974266
0.0147114275
-0.05934279
0.022933206
-0.07958857
0.025742784
-0.031902295
-0.0792864
0.008854288
0.4138479
-0.033984747
0.045244087
0.082533285
-0.016618589
0.05604144
0.11809872
0.0007574166
-0.00972006
0.02672094
0.073600255
0.013952797
0.052721743
0.15609065
-0.014983189
0.028975924
-0.0072062826
0.110777095
0.10637715
-0.12844695
0.013528407
-0.1052794
0.03663278
-0.04286171
-0.05523948
0.011362702
-0.019886352
-0.067699775
-0.078987874
-0.070697024
-0.06801315
-0.05377086
0.061326303
-0.048613932
-0.00039551704
-0.039072685
-0.0074548563
0.0404129
0.22777835
0.0798834
0.060540516
0.023682835
0.06699993
0.022550823
0.13472596
-0.003648243
0.04078406
-0.38612127
-0.17597769
-0.06897718
-0.06253888
0.003430457
-0.069560505
-0.058146693
-0.022221388
0.042853884
-0.11453668
0.07159874
0.10672474
-0.008741346
-0.029131118
0.023756908
0.057435643
-0.065395705
-0.09670809
-0.1233218
0.099467516
-0.057823285
-0.07605612
-0.082163274
-0.0059279935
0.0027813818
-0.14957397
-0.051193334
-0.0042061405
0.07217224
-0.032007124
0.04736283
0.1554272
-0.026536347
-0.028634027
0.09538551
0.18254456
0.014328557
-0.04760623
-0.07706957
-0.09657789
0.034422357
-0.09979458
-0.03432743
0.041653138
-0.071656115
-0.23157094
-0.045728803
-0.033243816
-0.0577469
0.0765886
-0.096365035
-0.0433328
0.035487857
0.076720536
0.11706484
-0.07417962
0.0013374937
-0.048391365
-0.041554213
-0.13071696
-0.018243158
-0.07784968
0.08835541
0.07556228
0.026264416
-0.18798777
-0.10246622
-0.23517185
0.08847827
0.0076989303
-0.19654864
-0.068427175
0.009982131
-0.09494777
-0.19508433
-0.02348483
-0.12309598
-0.38241896
0.0012898364
0.0710511
0.08338386
0.0029547096
0.064448684
-0.050643083
0.010503686
0.023936508
-0.012184712
-0.12094288
0.0409873
0.064279616
0.07098853
-0.036432907
0.044082787
0.03516174
-0.13272402
-0.28426623
-0.064379536
0.021991495
-0.12428998
0.02565382
-0.0370573
0.009752545
0.083874926
-0.040068254
-0.065127775
0.027483357
0.09947282
0.11882836
-0.047742903
-0.031251855
0.0066532097
-0.10831463
-0.032678325
-0.07234748
-0.002067163
0.09491749
-0.05702279
0.05522839
-0.21195044
0.09116648
-0.093684085
-0.007270232
-0.039765377
0.05361201
-0.071716316
0.077210315
0.044684883
-0.10214597
0.02983513
-0.09499497
0.04479329
-0.05925773
0.015117078
-0.066614054
-0.10315688
-0.05470585
-0.07684871
-0.056766253
0.044931516
0.10262156
0.031104123
0.003411087
-0.10243811
0.00044806697
-0.03585742
0.040646758
0.041149657
0.05601813
-0.23263928
0.08965487
-0.030684048
-0.009017916
0.009370787
0.0636617
-0.12867959
0.028295215
-0.00025103815
-0.111620754
0.12859903
-0.08584154
-0.08097762
0.036036626
-0.14771697
0.031631738
-0.056221507
0.13715127
0.032155618
-0.049503125
-0.063600436
0.027464347
0.010052564
-0.046368808
0.0021948668
-0.03265789
0.040227585
-0.032790437
0.029005421
-0.0147687495
0.152641
-0.07705565
0.021234766
0.050342
-0.10593364
0.0044239094
-0.049866382
0.099986434
0.08280321
0.21109438
-0.051438082
-0.120205596
0.19662449
-0.006748519
-0.02606834
0.08281202
0.075559765
-0.06265436
-0.12977812
-0.00735888
-0.13075815
0.025368312
0.06927739
-0.047384184
-0.019684464
-0.007479194
-0.15176283
0.087684736
0.036261044
-0.16287948
-0.12589549
-0.009181707
0.012272116
-0.025404189
0.0048370822
-0.15514316
0.14294732
-0.1124031
0.07551989
0.07584073
-0.2996071
0.10192525
-0.07740544
-0.099460766
-0.031700358
-0.13830443
-0.07916296
-0.042888183
-0.06663444
0.14309251
-0.01199802
-0.019295795
0.048259195
0.062232465
0.031274118
0.063580744
0.0820744
0.11683789
-0.19406699
-0.05354071
-0.13199914
0.11719536
-0.035384122
-0.050272547
0.011021664
0.08095897
-0.07907796
-0.055067632
-0.2629806
-0.20312417
-0.03317696
0.053264186
-0.20653717
0.06618114
-0.046092123
0.20861001
-0.0636012
0.23381795
0.18734063
0.07214784
-0.09863896
0.024849877
-0.04300549
-0.011394309
-0.057295866
0.009961286
-0.0947518
0.008978646
-0.0018342847
-0.18757121
0.070949145
-0.053612817
-0.16567221
0.050817035
-0.04259691
0.057083257
0.117604926
0.12893307
-0.15217757
-0.18501256
0.060263097
-0.17042215
-0.13562898
-0.00972684
-0.22039147
-0.052921996
-0.07525702
-0.14891446
-0.21351972
-0.03179703
-0.03566801
0.06681251
0.008593893
0.12576252
-0.31385174
0.022817178
-0.18980335
-0.12941892
-0.084682524
0.11805311
0.07889513
-0.001476469
-0.023648847
0.14801607
-0.14866698
-0.030461162
-0.03708528
-0.08448666
0.28965148
0.0054482264
-0.064366564
-0.014848788
0.07317296
0.002820122
-0.048402697
0.061694767
-0.008035692
0.20201078
-0.04068506
-0.18271078
0.23996852
-0.15500773
-0.059996128
-0.09055321
-0.08027003
-0.038235184
0.062118467
-0.061954405
0.1580655
-0.06200158
0.20007464
-0.13779716
0.024380643
-0.028395897
0.0055855857
0.1286918
0.019046888
-0.15076126
-0.34159255
-0.01954808
-0.20832373
-0.026865013
-0.09430899
0.0014507847
0.19690368
-0.043106053
0.09909427
-0.11558184
0.035929173
-0.010992799
-0.021315524
-0.079652585
0.016357131
0.028022496
-0.058754493
0.22243626
0.061111156
0.047277514
0.0195188
0.03212918
-0.1914376
-0.031501465
-0.010798506
-0.057073537
-0.0068133418
-0.17074043
0.04190285
-0.003102242
-0.07000968
-0.058048513
0.023056626
-0.069445714
0.027863339
-0.009728153
0.008890041
0.05408974
0.13149717
0.09705889
-0.032171816
0.16881868
0.0043087928
0.033032697
-0.007487315
-0.024009462
0.031901415
-0.08445165
-0.071646065
0.03317708
0.038972624
-0.05615535
-0.056638326
-0.08570951
-0.11685714
-0.034251466
-0.058822125
-0.103529856
-0.07755203
0.031525813
-0.17138316
0.12105372
-0.038109444
-0.066063136
0.072605506
-0.15752076
-0.025706623
-0.1357127
-0.03142231
0.27631488
0.08931232
0.061525613
-0.019153614
0.08031806
0.030506771
0.01600502
-0.0979458
-0.07866457
-0.018576382
-0.047165815
0.23395818
0.001714864
0.07979308
0.022078598
-0.055971052
0.040945176
0.17522965
0.035916656
0.15903573
-0.14456593
0.012651602
-0.048871025
-0.005516708
-0.19054647
0.029926572
0.012567028
0.05167364
0.2299297
-0.24126033
0.002668566
-0.06567323
0.10774571
-0.055944197
-0.08882331
-0.03022719
0.12973663
-0.06664994
-0.01866465
-0.05202624
-0.049175847
0.08952036
0.12574816
-0.053159323
0.11179242
-0.06718499
-0.08025147
-0.04877332
0.014506007
-0.051939916
0.054308034
-0.26143697
-0.009548393
-0.011132197
-0.020639839
-0.008085018
-0.05770668
-0.097041026
0.039103467
-0.05580054
-0.040112123
0.056377996
-0.053873025
0.009419789
-0.031199427
-0.16273686
-0.14679487
-0.008499965
0.012832242
-0.08402993
0.12529801
-0.070060335
0.02474524
0.1724233
0.10352889
-0.04064574
0.25273764
0.108315155
0.27428925
-0.08321023
0.043250088
0.051113594
-0.07130676
0.05747789
0.21650364
0.089316264
-0.03850747
0.04814503
0.036867812
-0.0349598
-0.11944846
-0.0049140705
-0.12255647
-0.010716409
-0.12187929
-0.13613673
-0.1401184
0.046248287
0.0041664587
0.12565488
0.26646265
-0.15617658
0.18749452
-0.005812897
0.28047156
0.22009206
-0.0038578615
0.11005055
-0.23909608
0.047732167
0.016629564
0.01443074
-0.010900722
0.040407628
0.015324337
-0.06128584
0.079278395
-0.1558689
-0.05940869
0.023667319
-0.1359973
-0.022343643
0.016772982
0.07544904
-0.022464024
-0.122666165
0.105165355
-0.13681899
-0.12721507
-0.014369544
0.0083326325
-0.041129444
0.04973378
-0.16611728
-0.020833854
-0.08197499
-0.07711756
0.0439732
0.082151905
-0.032145645
0.055331413
0.064337775
0.19013025
-0.07542157
-0.138506
0.09966187
-0.040000044
-0.0032182129
-0.016483042
0.15092097
0.015609709
-0.14296077
0.08888365
-0.08239515
-0.02976582
-0.055878684
0.11358747
-0.06292631
-0.021794932
-0.07610233
0.10145532
0.18821995
-0.048840158
0.02463259
0.13960735
0.021307578
0.0646413
-0.04774908
0.0064266543
0.13331786
-0.057638705
-0.03889994
-0.16906273
0.14196731
0.23085026
0.23205136
-0.09254036
0.15418127
0.05314064
0.087542474
-0.03520605
-0.020239584
-0.02939433
-0.04588948
-0.081182815
-0.10255319
-0.044075564
0.056483693
-0.07552796
0.005933183
-0.0049826945
0.07386729
0.035852924
0.024100266
-0.0431584
0.005022762
-0.044051077
-0.007845502
0.069206156
0.012985089
-0.012264506
-0.025677979
0.015512859
-0.040011343
-0.029948497
-0.011523322
-0.048131324
-0.0059727184
0.037315004
-0.069589384
-0.003483992
-0.0054703904
0.03871606
-0.0031326814
-0.0047806185
-0.042414293
0.041358333
-0.035782866
0.0063975756
0.04050506
-0.029011747
0.019300148
0.04328641
0.052199867
0.05594521
-0.042710636
-0.032927938
0.028085511
-0.054032397
-0.037914626
0.009868357
-0.049715873
-0.0045423037
0.024404207
-0.019651886
0.020410068
-0.049863517
-0.049104936
-0.008835562
0.024790723
-0.028316347
-0.04122364
-0.028652167
-0.06021194
-0.004355875
0.07164621
-0.010515643
0.022923838
0.055751644
-0.029936612
-0.013019736
0.069366
0.03836141
-0.0040895
0.057079613
0.030544141
0.020221641
-0.06528917
0.029481234
-0.012439585
0.017335298
0.008534358
-0.063448474
0.008265381
-0.014647865
-0.014148438
0.006245408
-0.020983405
0.05327375
-0.0034714853
0.06437787
0.015878092
0.0254843
0.0048299874
0.017562507
-0.043233838
0.010863862
-0.013881004
-0.02364861
0.041474868
-0.0029992834
0.014763607
-0.00068382674
0.03487699
0.025066664
-0.026464833
-0.009577203
0.008188775
0.0069570495
0.025298988
-0.048593227
-0.010458241
-0.032518
0.041773614
-0.062154755
-0.043329332
0.06694224
0.007980948
-0.002816642
0.020182783
0.014116592
-0.04637096
-0.06435296
-0.051112734
0.022835638
0.041373957
-0.028458314
-0.063446514
0.034223124
0.018591376
-0.007914173
-0.008582695
0.032768823
0.033850655
-0.04037763
-0.00094950234
-0.015492116
0.05742097
-0.026247645
0.046294868
0.06558048
-0.12702633
-0.04915158
-0.0075254543
-0.17537214
0.06091835
-0.27312487
-0.0070773573
0.05359239
0.13452388
-0.07334267
0.034436572
0.029274298
-0.085826084
-0.059720904
0.102989025
0.008804703
-0.14994901
0.019405726
-0.03704343
-0.15088965
-0.04770593
0.044710174
-0.079617545
0.010740666
-0.025625272
0.015515965
0.04263553
-0.19971812
-0.035915967
0.047324155
-0.1369559
0.17181586
-0.009045585
0.02450971
0.09183563
0.022647405
-0.14035629
-0.21126714
0.025726477
-0.06994365
-0.024881545
-0.15407722
0.0015613048
-0.10892614
-0.022672642
0.019501645
-0.00050759583
-0.052033108
-0.19040868
-0.030147284
-0.13440761
0.06691139
0.14337733
0.04330506
0.055325944
-0.0617908
0.13161848
0.14601734
0.10898776
-0.116160154
0.07328369
-0.12413074
0.08338438
0.0746255
0.06619318
-0.1540103
0.052186627
-0.031722162
0.03430963
-0.0014164317
0.0058517186
0.062548034
-0.13109054
-0.09369675
0.020466879
0.12962465
0.07158175
0.040599316
-0.01654228
0.058037248
-0.080723174
0.13040091
-0.016522095
0.13152108
0.082824975
-0.056273464
0.02670345
-0.016116345
0.014148036
-0.06315826
0.030434862
0.13467056
-0.2357272
0.02233359
-0.059680704
-0.12208627
0.07981587
-0.09869056
-0.066374965
0.055403013
0.0896093
0.0016895249
0.008393082
0.110703565
-0.07563841
0.046511833
-0.002626839
0.0006833346
0.1465604
-0.11487111
-0.10372794
-0.006577782
-0.16812128
-0.00041076637
0.035704926
0.01901195
-0.12365794
-0.031571824
-0.008501469
-0.12518503
-0.16584459
0.0035036274
0.027193332
0.07632175
0.061461147
-0.057008922
0.076539904
0.027065935
-0.028881185
-0.05846466
-0.061547033
0.11981784
0.0895711
0.113882534
-0.00095636357
0.031410906
-0.0935728
0.0029092827
0.003569863
0.011298
0.013027344
-0.083730176
0.07493928
0.0037536223
0.1274292
-0.06412599
-0.006115158
-0.14196135
-0.09863784
0.121772654
0.03295124
-0.028612358
-0.11757558
0.15446228
-0.022567192
0.004006763
0.075056255
0.06072627
-0.17765367
0.16211592
0.025374416
-0.046549447
0.052168287
0.0020406458
0.119401075
-0.11302158
-0.00575465
0.009858856
-0.0766415
-0.06840768
-0.047688853
0.0017692915
-0.03367115
0.008181423
-0.058456454
-0.0092573725
-0.039374284
-0.01244759
-0.048386354
0.040854797
-0.03952114
0.004222761
0.014746551
0.080058515
0.069279045
-0.10249991
0.108108334
-0.10161006
-0.0011929679
0.008494527
0.10555614
-0.12300904
-0.067457564
0.019923732
0.013448948
-0.14708683
0.0025619622
0.036978222
-0.005123761
0.0016584396
0.06537889
0.033046436
0.21130691
-0.04344963
0.17110021
0.056304008
0.08297447
-0.008322903
0.048690844
-0.031854134
-0.03971781
0.014922673
-0.06477956
-0.004355844
0.05784685
-0.14756986
0.09113265
-0.06907775
-0.043268222
0.21139301
-0.020974107
-0.046626534
0.056587722
0.13346025
-0.0010194201
-0.005198968
-0.07381775
-0.043935023
-0.107456945
-0.0075391084
0.011966831
0.04344257
0.088325374
0.007911817
0.04730962
-0.08026028
0.08019937
-0.21696627
0.015668517
-0.059416085
-0.22525671
0.033354133
0.050088886
0.027935125
-0.14946899
-0.008468543
-0.2062035
0.007567533
-0.07302508
0.04377984
0.14302166
-0.002085552
-0.10736795
0.026348691
0.12907124
-0.14117882
-0.063212454
0.15361154
0.022748018
-0.12833141
0.13281655
-0.01991332
0.023632294
0.1099383
-0.10362335
0.13085444
0.054914255
0.077024095
-0.10079561
-0.27641928
0.088434316
0.15445572
0.07478465
0.019700462
-0.021928811
-0.12123611
-0.2371382
-0.0283858
0.077908784
0.09560779
-0.049333457
0.16737576
-0.009581817
-0.30762497
0.026734132
0.15162922
-0.10286004
-0.019435761
-0.00059880037
0.03489024
-0.04006359
0.042964246
-0.0080717085
0.100559704
0.015222364
-0.13184899
0.0016232929
0.037065286
-0.3034111
0.2073293
0.036631692
0.0165705
0.026573326
0.008849419
0.042088166
-0.03447569
-0.0032700163
-0.012712133
0.018405128
0.042144444
0.09670523
0.14536785
-0.023339037
-0.18699111
-0.03720361
-0.047630385
-0.034553587
-0.013004649
0.021313839
-0.08321175
-0.14471611
0.14973676
0.0855059
-0.11802729
0.08626754
0.014528132
-0.07604956
-0.21083261
-0.032405663
0.03532287
0.13562825
-0.048808698
0.1730382
-0.066251904
0.027535737
-0.03766128
0.049504474
-9.239893e-05
-0.0556974
0.06287644
-0.083603345
-0.037205886
-0.038720444
0.2365097
-0.0009217205
-0.049423512
-0.01713844
-0.12819184
-0.12236124
0.0077860053
0.011632473
0.027310422
0.016617985
-0.03196505
-0.01385971
0.17896354
-0.1772671
-0.10596408
0.15317415
0.008107438
0.05961996
-0.06653933
0.03390853
0.019559277
0.026427586
-0.06757068
0.029213104
-0.00062973634
-0.15565838
0.05520465
0.03867328
0.056223493
-0.021859234
-0.022922983
0.011540457
-0.13242698
-0.177841
0.06268246
-0.12397391
0.173663
0.1265682
-0.051124204
-0.1243837
-0.028642906
-0.13099867
0.13774501
-0.12639531
-0.137005
0.07477944
-0.072516724
0.029201183
0.031977475
0.0663269
-0.20036277
0.03263259
-0.044934943
-0.025628904
0.15356229
0.050056163
0.0009980415
0.20331249
0.035263974
-0.027692981
0.100876965
-0.030746782
-0.043069378
0.05622612
0.061928693
-0.059373032
0.1195111
0.0018998435
0.022368189
-0.031868197
0.15308692
0.15290108
-0.056609362
-0.016202502
-0.10462735
0.02588292
0.1216869
-0.18427688
-0.0036899147
-0.062716104
-0.007789131
-0.25919035
-0.07506218
0.09711754
0.18100472
-0.1750948
-0.05346725
0.0070546838
-0.07519757
-0.024705831
-0.00906544
-0.047156163
-0.07345579
0.10198261
-0.042343203
0.03708263
-0.05535341
-0.099034645
0.11607376
-0.07700433
-0.022175333
0.15148547
0.02046921
0.050651085
-0.2078145
0.10563077
-0.038709864
0.052565925
0.058185644
-0.0399704
0.042648032
-0.00070099114
0.055213057
-0.07662917
0.19415961
0.042509876
-0.08462835
-0.0024863493
0.12149783
0.054424264
0.11713458
-0.048198707
-0.22755896
-0.123957805
0.19820508
0.063860655
-0.03215616
-0.06819123
0.09352757
0.06399189
-0.00012243842
-0.05134774
-0.07351311
-0.12033978
-0.07963009
-0.0034688802
-0.23361765
-0.06866782
-0.09964704
-0.0051084617
-0.13893403
0.0067144386
0.11684203
-0.20927791
0.0051856632
0.092345335
0.09280662
0.025822356
0.0497534
-0.016058631
0.007821282
-0.055671982
-0.029692898
0.27245882
0.017177625
0.01034478
0.09426974
0.0871279
-0.050419867
-0.09889235
0.18446527
-0.04509305
-0.016048728
-0.28989413
0.09091612
-0.021002902
0.04972211
-0.080249146
-0.057384428
-0.06008958
-0.00768984
3.6566806e-05
-0.091112405
-0.067368664
0.0106474
0.011355376
0.011609144
0.02021891
-0.019214619
0.032860737
0.028437166
0.053840555
0.14893652
-0.06589013
0.012099825
0.1753224
-0.02105244
-0.001405738
-0.0665151
0.04094506
-0.12388374
-0.04897417
0.009994473
-0.06729277
-0.13733104
-0.047250587
-0.10726557
-0.027967311
0.054541796
-0.058727175
-0.10614808
0.045602668
-0.06460552
0.095285855
0.11122014
-0.074958876
0.1262134
-0.011474678
0.21389419
0.0098
-0.03710334
-0.12812868
-0.17349611
0.052701868
0.014956585
-0.05266428
-0.03640253
0.04951396
0.03824257
0.023493802
-0.080849506
-0.14858861
0.01996982
0.0029316817
-0.010152631
-0.018869428
0.01174839
-0.024605699
-0.090515554
-0.19764638
-0.026990114
-0.039136738
-0.068849206
0.04114647
0.010013603
0.044105295
-0.091271736
-0.09096151
0.00072427833
-0.056177694
-0.083949685
0.013760585
0.059753522
-0.02410418
0.09257809
0.1211286
0.071586005
-0.10274875
-0.20299406
-0.044154394
-0.13821295
-0.08503855
-0.122849345
-0.04046632
-0.047549665
-0.022691052
-0.028370082
-0.02715683
-0.03443042
0.042383246
0.1505056
-0.11827306
-0.018853586
0.010099317
0.083634414
0.039669693
-0.06193034
0.013568588
-0.09740971
-0.07997775
-0.15822376
0.07917178
-0.002295053
0.11165263
0.042587016
-0.016633764
-0.0018198853
-0.014702548
-0.05308849
0.13864517
-0.028349062
0.075275116
-0.07753795
-0.011699753
-0.051188126
-0.08790339
0.0062057516
-0.11507728
-0.15384004
-0.1858928
-0.047326796
-0.012864284
-0.027635783
-0.027012246
0.013176358
0.099159844
0.037246414
-0.045927886
0.015183653
0.03354429
-0.022020346
0.0070465463
-0.04645517
-0.03559968
0.08349604
0.0048183417
0.010231952
-0.0080289915
-0.014717767
-0.044539955
0.07247714
0.0054568597
-0.028331427
-0.034490302
-0.060509082
0.03513085
-0.025531024
-0.0023201718
-0.014159407
0.020460345
-0.011275518
-0.028273027
-0.0040865093
-0.011282674
-0.035909243
0.034035772
0.020288749
-0.02104158
-0.003719476
0.04118424
-0.010358544
0.026400248
0.033155452
0.04929839
0.007429053
-0.046181377
-0.058728375
-0.023294883
0.029909223
-0.031488553
0.013392266
-0.023625774
0.013957698
-0.0022417703
-0.015187575
-0.022892214
0.042448133
0.05302453
-0.002768108
-0.055578057
0.010598541
-0.00047903892
-0.0066995537
-0.010244302
-0.0052709454
-0.037436314
-0.018974178
0.00069024676
-0.072416954
0.051812775
-0.026161464
-0.06263154
0.01766492
-0.05348411
-0.014047082
0.018135812
0.031310134
0.014166928
-0.049130518
0.0426699
-0.05411676
0.018883351
-0.019840673
-0.044511795
-0.030872814
0.02289307
-0.038297933
0.038529743
0.0012053102
-0.014499504
0.07673083
0.04467875
-0.043239333
0.058853783
-0.054607995
-0.028312016
0.050031457
-0.051846284
-0.10082326
-0.0018639
-0.034969527
-0.013035442
0.032104105
-0.018768994
0.027230615
0.034772348
0.024867373
-0.018251926
0.07408548
-0.011228743
-0.02992321
-0.05957496
-0.027080005
-0.010912907
0.05956428
-0.02483701
-0.031990927
0.04401294
0.03638317
0.03840736
0.0027041307
0.039391555
0.03898083
-0.01421019
0.039611615
-0.057696875
-0.0060416143
-0.019563366
0.048117843
0.05648122
0.0077784564
-0.045410924
0.029492302
-0.010262174
-0.062132724
-0.070881605
0.06099462
0.1392101
0.15649451
-0.07802938
0.12614185
-0.075445056
-0.08362463
-0.27201915
-0.20190679
-0.069248304
-8.954262e-05
0.107385814
0.045244098
0.12662469
0.077550575
-0.083373144
-0.082457155
0.08927078
0.052841254
0.08343233
0.072719336
0.0701229
-0.03904599
0.13429563
0.046114296
-0.023794945
0.2638637
0.005990363
0.0081894845
0.0712367
0.06752731
0.04967887
-0.15332521
0.16905111
-0.012185698
0.106569
0.048469976
-0.06256652
0.13613808
0.055248793
-0.027400594
-0.13305473
-0.092674956
-0.026019374
-0.03744369
-0.04947484
0.070092514
0.081418045
0.0285744
0.015242214
0.038368102
0.14964736
0.13655461
0.08724183
-0.029074024
0.13093047
-0.080002934
0.05299421
-0.014790088
0.047735885
0.083271526
0.0644996
-0.012692629
0.025904544
0.11475676
-0.07305674
0.05530147
-0.08258729
0.0013481376
0.10407583
-0.13167088
0.17830023
0.25752062
-0.020036254
0.06458636
0.103430584
0.13141431
0.121998146
0.06043091
0.14599097
0.10161117
-0.111719154
-0.017971823
-0.33584633
-0.022336379
0.10364231
-0.1404355
-0.038229164
-0.011995628
0.0141222095
-0.2571837
0.15531418
-0.06669186
0.10760307
0.1633769
-0.09471389
-0.027434902
0.023448644
-0.03628084
-0.009354146
0.054656167
0.10638478
0.15834582
-0.020395178
0.09878023
-0.060568392
0.2261387
0.21044667
0.15826169
-0.01977127
0.03238437
-0.23701431
0.041374296
-0.012178012
0.010030403
-0.13462083
-0.029001243
-0.045604326
-0.06433742
0.19564757
0.12277323
0.029204892
0.10123314
-0.06713813
0.021732552
-0.12523873
-0.028234439
0.08725206
0.02800239
-0.0878327
-0.15094614
0.031435773
-0.3271766
-0.07610718
0.003986769
-0.04158037
0.00077503023
-0.047753338
-0.08885698
-0.034285586
0.023893217
0.11878094
-0.0843447
0.04016048
-0.059031315
0.0328325
0.06257756
-0.07431226
-0.00212519
-0.063562915
-0.19326769
-0.008088282
-0.0030605246
-0.05399699
-0.11516663
0.0025487954
-0.11924984
-0.054948688
-0.021887599
-0.18716642
0.08349948
-0.2956605
0.019032264
0.10384134
-0.30554342
-0.035613146
-0.04373719
0.022262895
-0.2240727
-0.12147482
-0.055099472
0.14246246
-0.07983688
0.041180693
-0.041771322
-0.030835856
0.02637449
0.013495465
-0.08329406
0.08419639
-0.052445583
-0.19114271
0.17898832
-0.08915981
-0.1961329
-0.016710795
-0.022468721
-0.017963793
-0.15044624
0.031306103
0.07096836
-0.09786396
-0.059546787
0.021339415
0.019747045
0.044707406
-0.03097374
0.119997665
0.16220923
0.037570596
-0.11283127
0.028049711
-0.08641859
-0.06758147
-0.005782787
-0.120863646
-0.0622315
0.03930963
0.052620914
-0.07375285
-0.12846719
-0.013436278
-0.04274019
0.032836385
-0.19614983
0.10858848
-0.053698376
0.01495442
-0.21340242
-0.17705958
-0.025014345
-0.06290423
-0.16325776
-0.009319941
-0.010032427
-0.04160649
0.075979926
0.16752388
0.020683765
0.061894987
0.031943433
0.0882623
0.055757448
0.026394177
0.06764808
-0.010021156
0.064719334
0.10119964
-0.0044095307
-0.2578964
-0.05035115
0.06547061
-0.030378817
0.038420442
-0.063351795
-0.12871827
0.089967996
-0.08517968
-0.09837651
-0.21945818
-0.099796765
-0.05027944
-0.02691304
0.08772771
-0.03710292
-0.05223446
-0.08030769
0.05332743
0.02426008
0.042386763
-0.1408907
-0.008195596
-0.21996446
-0.069438785
-0.07163547
-0.10374688
0.056163687
-0.04998413
-0.030470874
-0.032609515
-0.103445314
0.16814305
-0.047866438
-0.085030824
0.18653959
0.061762664
0.036309164
-0.013970171
0.014667987
0.006047675
-0.2682457
-0.052550096
-0.2223447
0.0099043045
0.1589905
-0.07372586
0.12076015
-0.13630801
0.13421088
-0.26126453
0.21468876
-0.12395931
0.043701343
0.022503559
0.2032145
0.14286691
-0.05166604
-0.088899255
-0.21714571
0.23429228
0.0026147098
-0.06242326
0.008788527
-0.07281007
0.041452143
-0.054171257
-0.17351285
-0.18484563
-0.053944897
-0.09058208
0.05857011
0.04796362
0.10725147
-0.06481489
0.12162571
0.016442312
0.1466965
-0.066392824
-0.05176683
0.09130266
-0.0034980616
0.04757729
-0.10598276
-0.12593323
0.023094483
-0.14909717
-0.1329304
-0.041961733
0.05639837
-0.12660375
-0.0663863
-0.011211851
-0.05879239
-0.18655463
0.047764696
0.053977784
-0.039448023
-0.14091861
0.1450257
0.22321524
0.034385152
-0.09138371
0.08682038
-0.000175428
0.04886029
-0.021014832
-0.2805928
0.112268284
-0.020225376
-0.04319156
0.12903602
-0.11982334
-0.026784206
-0.036111962
0.24504985
-0.058614463
0.08848576
0.07444489
-0.20906192
-0.045995682
-0.13204266
0.018590357
-0.051487945
0.20619291
-0.10322388
-0.07265562
-0.05411502
-0.19612643
0.0588266
-0.175062
-0.14356129
0.058283962
-0.04933724
-0.17396984
0.034106214
0.20921898
-0.041475795
0.10717701
0.34437233
-0.10937903
-0.025539951
-0.024616014
0.039294135
-0.0035941289
-0.09082643
0.005125604
-0.08319656
0.017188642
0.15641297
-0.019388637
0.23652835
-0.022494731
0.05408951
-0.043133356
-0.08542071
-0.25236765
-0.034682535
0.08917874
0.072825044
-0.09246885
-0.051250376
0.08210651
-0.21765856
-0.07704178
0.061148737
-0.014579294
0.12468961
-0.12789075
0.107428096
-0.030709151
-0.1704248
0.037546005
-0.061881166
-0.030004667
0.16338919
0.17024161
-0.13354307
0.118274085
-0.30679104
-0.017814737
0.09974228
-0.06561875
-0.12245801
-0.12371891
0.015046571
-0.28493103
0.16519104
0.014460744
0.008045046
-0.05736506
-0.017011343
-0.09303984
0.028304866
-0.102033354
-0.10839049
0.048528716
0.074235976
-0.013695493
0.034453288
0.086902335
-0.06117134
-0.06902665
0.021180592
0.071791485
0.062946446
-0.12609151
0.06806199
0.041533776
0.1119075
0.18621741
-0.060436845
0.20702495
0.006211911
-0.23924185
-0.19269374
0.00723434
-0.08014543
-0.034932546
0.0468443
0.01698953
-0.27497134
0.030017266
0.2380704
0.0144265685
0.016049217
0.10884515
-0.21448979
0.09047837
0.014757535
-0.049074892
0.030227847
0.045916297
-0.038163666
-0.042812414
-0.15797523
0.20971698
-0.024323871
-0.015859636
0.07581013
0.05854128
0.04890571
-0.045382608
-0.02905332
-0.11930548
-0.103062935
0.12223831
0.14359558
0.17628783
0.039992835
0.0037426108
0.10296499
-0.07180192
-0.06220961
-0.16449586
0.007927959
0.12080348
0.21011324
0.27279967
0.10844581
0.13820505
-0.032940447
-0.024965107
0.02650235
-0.073393054
-0.0038761797
-0.1789598
-0.18748353
-0.01837203
-0.05194238
0.033848315
-0.04577988
0.10378713
0.17370954
0.019025804
-0.0156231215
0.02833069
-0.11166566
0.036000926
-0.03570898
0.008626234
-0.13147347
0.04420353
0.15829018
-0.048996344
0.0852976
0.03747395
-0.08763384
-0.038372546
-0.04590084
-0.009579503
-0.067008026
-0.12777804
-0.103794344
-0.002461429
0.12157871
-0.053503282
-0.054017793
0.0070362715
-0.097910576
0.018926626
0.060718216
0.017339256
0.11517513
-0.007025702
0.1742346
-0.027731886
-0.0704536
-0.034370605
0.08095516
0.0065055774
0.024258178
-0.08108191
-0.12437708
-0.18758716
-0.2905549
0.05978701
-0.029392004
-0.011853277
-0.02738935
-0.018803729
-0.029777786
-0.12325901
-0.06679048
0.053038526
0.027363444
0.0036786615
0.03146311
0.009550281
0.07894607
-0.016692916
-0.18626939
-0.06386537
-0.08393097
-0.047952466
0.011225884
0.02945991
-0.023151014
0.015689952
-0.21326236
-0.011321411
-0.04801348
0.08285146
-0.0911771
-0.06366673
0.061638664
0.028186664
0.10166463
0.06497434
-0.0018915541
-0.08105693
0.042100713
-0.039650936
-0.06719098
-0.064021885
-0.06835121
0.11977443
-0.06085668
-0.016273629
-0.07938204
0.026621757
0.03374033
-0.002797451
0.2148541
-0.23041636
0.018117432
0.0037815222
0.06385347
0.07284331
-0.074506775
-0.05779672
0.075532004
0.0528324
-0.22657567
-0.056350883
0.06157409
0.080373555
0.107905634
-0.039042298
-0.08211135
-0.015590561
-0.19643323
-0.046623457
-0.091058455
-0.027755681
0.036399096
0.16812113
-0.055894334
0.025039451
-0.018225046
0.048826635
-0.23875606
-0.115705304
0.039621275
-0.020645557
0.038698472
0.12031772
-0.009059123
0.089233555
0.055576306
0.04600142
0.053277668
-0.15591663
-0.03525095
-0.14120038
-0.06842249
-0.029318448
0.13671899
-0.10638834
-0.010834686
-0.05761573
-0.052391794
-0.019233719
-0.09664577
0.054185946
-0.0067610387
-0.15514638
-0.034109693
0.086204395
-0.06385303
-0.07499128
-0.09189421
-0.024463067
0.06585002
-0.10601969
-0.045464035
-0.01023679
0.03792679
0.012341252
0.001120429
-0.19184774
0.05975415
-0.16612871
-0.022135993
0.0021679318
0.072501965
0.063875735
-0.322296
0.008156959
0.08717182
-0.035347257
-0.022344042
-0.102276266
-0.18510213
-0.08451465
0.0030196556
-0.055995543
-0.025213804
-0.11265052
-0.049479492
0.029416677
0.14043285
0.12759931
0.1280095
-0.05421257
-0.063356236
-0.036842834
0.0073423786
0.18502975
-0.052035715
0.032404967
-0.033562254
0.025556529
-0.029804323
-0.014316177
-0.05509944
-0.06962031
0.0057585253
0.05315652
0.040888935
0.11257436
0.0011471154
-0.1366546
-0.11119646
0.23475777
0.04843766
0.0771986
0.10152169
0.05474314
0.045608837
-0.06395215
0.013298884
-0.12325341
-0.008465869
-0.05949748
-0.037398215
-0.091514975
-0.22957996
0.048622154
0.039550718
-0.044356387
0.19123717
-0.057477374
0.020207966
-0.1479692
-0.1534065
-0.03290039
-0.0456872
0.016607001
-0.07585622
-0.1704744
0.085519604
0.0774966
0.018361548
0.14796984
0.15521939
-0.026584135
-0.027154831
0.11907681
0.019142702
-0.0539035
0.016746625
-0.08230882
-0.1052053
0.06746172
-0.016086405
0.06424619
-0.050542932
-0.014506274
0.018765496
0.022453975
-0.07748674
0.03308086
-0.039015952
-0.013871245
0.03935849
0.113352396
-0.29791456
0.16544807
0.12185572
-0.11633781
-0.021527233
-0.08972465
0.11253616
-0.046896
-0.0764633
0.024361435
-0.08086532
-0.053765915
-0.10003535
-0.0058804587
-0.06756978
-0.020821476
0.1041516
0.02990937
0.046315257
0.051581357
0.046739228
-0.015728217
-0.23444213
-0.12710182
-0.2044383
-0.0020873356
0.006467075
-0.018535325
-0.08793139
-0.018478762
-0.13129207
-0.0088183135
-0.1978392
-0.098219946
-0.038871698
-0.18477657
-0.0029959162
0.12679285
0.015361748
-0.055594053
0.10138803
-0.05273247
0.11556853
0.09216673
0.21771996
-0.022311913
-0.038331445
-0.004427682
0.008068715
-0.09748565
-0.0018622746
-0.055016153
0.038256947
0.033157095
-0.03046274
0.08904824
0.15620819
-0.023512151
-0.025204066
-0.115927465
0.16693674
0.044841237
0.05541715
-0.06281206
-0.10319612
0.058150493
-0.12492776
-0.0008710801
0.15805998
0.14471747
0.01792896
0.057225093
-0.09484241
-0.01084807
0.017859535
0.021163834
-0.05905079
-0.08373458
-0.08069378
-0.20343193
0.10375267
0.0069357064
0.09187855
-0.14526232
0.16827199
-0.14210814
-0.049978428
0.16176268
0.15307651
-0.24557452
0.006683374
-0.039358508
0.0517679
0.2149968
-0.09448102
-0.24529706
0.012044238
0.031062223
-0.07493192
0.044275504
0.026220622
-0.06395
0.18038957
-0.055198714
-0.15419379
0.09615912
-0.34640813
0.0100445105
-0.063987486
-0.06478873
-0.019350762
-0.083977506
-0.059568726
0.15843423
0.022482418
-0.0002352554
-0.18765174
-0.20225075
0.012376017
-0.035123706
0.13824485
-0.11083108
-0.064938396
-0.14637905
-0.03160916
-0.27230564
-0.02976024
0.020311745
0.009359248
0.083518304
0.081811376
0.051994663
0.029796265
-0.009069037
-0.12936158
-0.06769638
-0.04086633
-0.05220818
-0.078012526
-0.032782745
0.20123905
0.0016563896
0.2059867
-0.062666796
0.020031894
-0.14572415
-0.092319295
0.033897128
0.042379025
-0.088440135
-0.0005045809
0.026973013
0.117124364
-0.050947938
-0.18132037
-0.014740454
-0.22370222
0.019643446
-0.08370248
-0.014508792
0.15866598
-0.098052055
0.2053878
0.06611175
0.02513753
-0.10125395
-0.008599206
-0.02323586
-0.060729224
0.071636915
-0.15588833
-0.14953317
-0.08444261
-0.07714605
-0.0210417
-0.008458672
-0.036441274
0.070338175
-0.043072987
-0.1273455
-0.1158673
-0.037300654
-0.03529809
0.08654281
0.11478246
0.1554968
-0.09814605
0.061939877
-0.20101267
0.08670791
0.10180291
-0.07935985
-0.12954691
0.20022337
-0.07876188
0.101755604
-0.08837763
0.08723159
-0.045599706
0.16864333
-0.09888019
-0.10859109
0.070855424
-0.011430636
0.15081735
0.07119552
-0.09985038
-0.017743787
-0.019088289
0.082355864
-0.106703945
-0.05859145
0.034790028
0.013636566
0.02510676
-0.1021756
0.027788982
0.050935075
-0.036743026
-0.0028369909
0.11681602
-0.06873745
-0.026216364
0.0641295
0.028456036
0.113771774
-0.085545525
-0.004363427
-0.07525696
-0.0039437213
0.0017991093
-0.12829855
0.06488821
-0.22729264
0.08795575
-0.040499195
-0.060861684
0.09620101
-0.17173943
0.0002637236
-0.0591223
0.06608755
0.065479785
0.22644103
0.01673799
-0.0041541196
0.05259775
-0.08945794
-0.21679
-0.2716784
0.065987594
0.06665332
0.011899991
0.027477391
-0.0068761385
0.056926273
-0.119037576
0.11332018
0.16661225
0.09705502
-0.12727484
0.024631198
0.22520767
-0.034082636
0.25929973
-0.20252517
-0.020950424
-0.048789628
0.012459239
-0.11688542
-0.029337725
-0.18899468
0.04408985
0.029111942
-0.04652475
-0.037221707
-0.16396165
-0.050595067
0.059215438
0.08268379
0.25388923
-0.16352417
-0.0067932745
-0.04185824
0.056693755
-0.055587757
0.26094866
0.23590538
-0.091445535
0.063813426
-0.15490308
0.10779795
-0.035721812
-0.15859121
0.0075723864
0.03710662
0.23157014
-0.15547433
0.27307743
-0.13079758
0.09598272
0.054408632
0.030132446
-0.04155034
-0.06950809
0.19927874
-0.0574523
-0.05178209
0.26038316
0.0113927545
-0.02192056
-0.21582101
0.03249144
0.015952073
6.052429e-05
0.025087148
-0.11590729
-0.11460309
0.30493224
0.10567198
-0.18750547
-0.20215845
0.046362314
-0.23018669
0.13009238
-0.32033914
0.032031707
0.12163185
-0.018789226
-0.10013359
-0.15947345
-0.061781507
0.19589187
-0.079212576
0.12437722
0.11816574
0.028274514
-0.18529737
-0.16788115
0.0634574
-0.25660875
0.06871975
0.048921917
-0.022355547
0.03446849
-0.1559134
0.017034013
-0.0017637908
0.035987183
0.04916657
-0.036634605
-0.19284913
-0.09723375
0.045570508
-0.040077105
-0.021278717
-0.02107306
-0.03256633
-0.30347964
-0.023152208
-0.03346527
0.02148689
-0.030179223
-0.04566154
-0.10934685
-0.2373421
-0.050352328
0.16049708
0.009238715
-0.07859052
-0.09171285
0.04307411
0.117991515
0.1172815
0.014819896
-0.20400332
-0.2885729
0.0067715724
-0.09069995
0.013462797
0.060211167
0.09152444
-0.0024388542
-0.17151907
-0.121741824
0.27463305
0.01958528
0.004262786
0.19741982
-0.0238297
0.16998258
-0.030837981
0.035868373
-0.05168871
0.25251493
0.036681276
-0.10565372
-0.2472679
-0.12625645
-0.01859782
-0.0013914129
-0.019412851
-0.015462757
0.0198254
-0.16302049
-0.27568936
0.012108302
0.016157972
-0.07390681
-0.033722214
0.121529795
-0.06754953
-0.28237307
-0.05965165
0.028184028
-0.01320739
0.0765783
0.15332893
-0.13870953
-0.011648143
-0.1207903
0.0970111
0.024351584
-0.024879413
-0.075471394
0.011774774
-0.15618126
0.047630694
0.11982194
-0.043251228
0.011409414
0.042123653
0.03252147
0.019548593
-0.039433774
-0.023436176
0.087609194
-0.012396602
-0.01117976
0.16784628
0.027829153
-0.07152872
-0.19323084
0.1193742
0.17336571
-0.0039025962
0.28100294
0.039242372
-0.21788898
0.0006099646
-0.0065264213
0.06807002
0.014416489
-0.13359211
-0.016834997
-0.04805835
-0.12727861
-0.10103288
0.02483478
-0.019163566
-0.091375075
0.17320156
0.11929717
0.23215005
-0.04946611
0.06766408
0.00498775
-0.13809983
0.096541174
0.09333831
0.04959421
0.21446021
0.004560669
-0.0064634243
0.024092844
-0.004136783
0.038416367
0.17736836
-0.0047912747
-0.04395922
0.11507138
0.13400425
-0.022995286
-0.034549117
-0.015106778
0.03549348
-0.0641847
0.04327402
0.073799536
-0.05645636
-0.013663874
0.037513506
-0.03707086
0.12787472
-0.28362978
0.093433805
0.0234357
0.031229606
0.025082901
-0.019122751
-0.023547782
0.041199066
-0.05305623
-0.041139066
0.10211806
-0.21192278
-0.028718287
0.05331383
-0.14037314
-0.37258178
0.025083443
-0.15451637
0.061174616
0.016671803
0.0476979
-0.02800321
-0.020892894
-0.03977618
0.02852865
-0.054407805
0.016477173
-0.030333295
-0.06577077
0.044483323
-0.061916284
-0.04848329
-0.026906403
-0.03995542
0.014958517
0.013106627
0.012569162
0.005889231
0.047631875
0.06572065
0.0006210846
-0.04801817
-0.03143264
-0.0089628585
-0.03521765
-0.0038873758
-0.0471382
-0.040235203
-0.051169902
0.013438444
-0.015345221
-0.002869238
-0.0043765604
0.009265613
-0.034918044
-0.019748988
0.04196622
-0.012485187
0.046231322
-0.059470404
-0.034000408
-0.0052799066
0.016718
0.018712152
-0.010960966
0.00061672775
-0.023327697
-0.006634965
-0.014984837
-0.060450852
0.031949397
-0.012844228
0.026951153
0.054662056
0.027718054
0.032206085
-0.106647484
0.0384911
-0.056757122
-0.05946969
-0.016608812
0.048091114
0.032071006
0.033103798
0.048196673
0.046530258
0.0016816066
-0.02835324
-0.03748349
0.03945041
0.032032322
-0.028979804
0.018644892
0.010053273
-0.013938268
-0.01672816
0.043708827
0.06084882
-0.010058239
-0.0064444975
0.054008015
0.041797172
0.00889594
0.08669538
-0.032929383
0.059951648
0.01719732
0.060340185
0.053559624
-0.041668788
-0.049095005
-0.02538881
0.011948535
-0.01774863
-0.020466488
-0.03725632
0.047258765
0.024784015
0.054518376
0.015186654
-0.026323782
0.0009884832
0.0022639919
0.035830006
0.017370364
-0.06355404
0.054767374
0.043750033
-0.054456647
0.028238349
0.032005206
-0.011684528
0.012931694
-0.012373829
0.008346083
-0.016700625
0.01798259
-0.036461387
0.0017278538
-0.07285822
-0.01017702
0.045487404
0.007370396
0.013826924
-0.04625846
0.046197016
0.0009654028
0.043901317
0.04388288
0.018521592
0.004034933
-0.03840605
0.06377722
0.043126497
-0.04290265
0.026876908
0.027568817
-0.062058177
0.019888707
0.06430688
0.022053229
-0.016239336
-0.046975218
0.009502874
-0.004769716
0.027518608
0.012470916
-0.019315481
-0.025310395
0.052035917
0.039636776
0.06597751
0.06944002
-0.043420583
-0.0535011
0.023087546
0.07318293
0.009585973
-0.034203526
-0.0013277683
0.047905583
-0.019576855
0.046774942
0.0109327175
0.054410104
0.053271994
0.039341327
-0.05805119
0.044714265
-0.04861982
0.041621942
0.005339674
0.024136595
0.033916242
0.04883097
-0.026264617
0.032655884
-0.030370262
-0.0427816
-0.012422826
0.004467543
-0.040145926
0.07257974
-0.011626892
0.013271348
0.00025514548
0.0055160862
0.026312578
0.038344562
0.0082544815
0.04509262
-0.017178316
-0.028507771
0.018315827
-0.044492945
0.057482623
0.028703216
0.024474148
0.018767403
0.006921945
-0.03267076
0.05787356
0.024587791
-0.022416614
0.014075511
-0.031843077
0.015948748
-0.011322653
0.033601712
0.043698076
0.031107415
0.039810583
0.036585815
0.057380613
0.01301844
-0.017223427
-0.04847911
0.051182542
0.0154948495
0.027604945
-0.022598421
-0.0430727
-0.013849287
6.2340725e-05
-0.026685823
-0.018233066
0.021584911
-0.05863567
0.011442681
0.031267606
-0.027244631
-0.033640288
-0.039057393
0.00068694947
-0.04714782
-0.011636185
-0.022957295
-0.023375005
-0.016690774
0.048606105
0.058316767
-0.025703266
-0.04449584
0.042377356
0.0020264713
-0.038461126
-0.04861929
0.013026384
0.07496327
0.0061464943
-0.029059172
-0.03336538
0.0021971215
0.030359512
-0.03667694
0.05331211
-0.19742988
0.0996189
0.11497848
0.058562607
-0.06167226
0.031688087
0.14225377
-0.2905963
0.07608128
-0.058786727
-0.0021731874
-0.12846608
0.10053764
-0.00048777804
-0.10199573
0.025543451
-0.023980293
-0.013502796
-0.06368847
0.012765429
0.047658548
0.007979511
0.05111274
-0.20741238
-0.08573058
-0.0500225
-0.052345335
0.0014928979
-0.009403222
-0.02817143
0.12651072
0.1117625
-0.07333056
0.08237711
0.06799663
0.012646065
0.037984394
-0.03556581
-0.009070806
-0.01815765
0.05656088
-0.11933457
-0.15416984
-0.032690465
0.014248482
-0.063464984
-0.0064343587
0.07299628
-0.04752596
0.037701715
-0.07063761
-0.036967784
-0.014226205
0.0020254762
0.1649899
0.09631717
-0.21415828
0.007874512
-0.08132732
0.1465334
-0.023125248
0.035685904
-0.22403713
0.019803492
0.11676797
0.120581955
-0.09034598
0.028720547
-0.005877087
-0.05218539
-0.010408838
0.07631145
0.156861
-0.023005398
-0.11036945
0.07766979
0.085096985
-0.01640071
-0.08650748
-0.06170737
-0.18752623
-0.32708466
-0.0025169349
-0.048888944
0.036789916
0.13284233
-0.21844031
0.013342694
0.039805647
-0.020134594
0.010041354
-0.05827306
-0.047891453
0.11784922
0.13707027
-0.055019908
-0.07964601
0.004243237
0.016894832
-0.2651143
-0.10351128
0.04305448
0.03632099
-0.038705707
0.077162236
0.027977247
-0.049230315
0.17961068
-0.15740426
0.055575904
0.0005848017
-0.18330546
0.08551343
0.061752137
0.17600913
-0.08534035
0.006983118
0.016312478
-0.11184241
0.0049958257
-0.029218238
0.04278712
0.22501393
0.06663194
-0.051875982
-0.10334668
-0.10716914
-0.074153535
-0.1289583
-0.046729814
0.049983084
-0.0041077463
0.011875149
-0.010286784
-0.011955761
-0.050373197
-0.16899042
-0.06302982
-0.10184704
-0.036867585
-0.07908282
-0.036976803
0.040700838
0.08446634
0.0015998028
-0.05837491
0.06644648
0.1162521
0.03472142
-0.036715917
-0.014288902
-0.10458211
0.06404811
-0.0069358936
-0.08295639
0.038531594
0.026715934
-0.16595355
0.084280126
-0.105516076
-0.09314715
-0.13811581
0.05949923
-0.010404523
-0.055140097
-0.105248354
0.12852944
0.0056102183
0.01358547
0.10047902
0.014629259
0.052902423
-0.09006874
-0.0018286952
0.023119245
-0.043583754
0.027146146
0.016941015
0.1348558
0.02210709
0.01695405
0.16659464
0.005641511
0.021622535
0.10582665
-0.092848934
0.061481304
0.1603845
0.0084302975
-0.109896466
-0.040570404
0.10349368
-0.12685451
-0.005689815
-0.016878968
-0.17062151
-0.02891515
-0.0383742
-0.0661138
-0.078144774
-0.12548046
-0.0024434417
0.13681333
0.021627061
0.1358744
-0.0840789
-0.17463312
-0.10007455
0.08167036
-0.1070401
0.05119129
0.0057358695
-0.039859094
0.14082608
0.116793886
-0.05944305
-0.028041681
-0.05291786
-0.15271941
0.17698818
0.021384789
-0.13044716
-0.08839867
0.03288503
-0.0071103666
0.06038482
0.006323359
0.067411594
0.24154216
0.09807383
-0.10102379
0.09287874
-0.07860726
0.048106957
-0.022806052
-0.025886696
-0.03442918
-0.058173098
-0.07553025
0.02438323
-0.09599764
0.011077037
-0.06682056
0.069727935
0.022090359
0.03918572
0.10827447
0.060508426
0.11027763
-0.17950408
-0.07322481
-0.13902675
0.045724727
-0.0066963723
-0.03910456
0.11956303
0.02445441
0.11501231
0.17891537
0.04460786
-0.30020383
0.027613191
-0.13304201
0.012252834
-0.05569652
0.03521783
0.09076488
0.08160135
0.015643893
0.056287345
-0.101205915
-0.011193574
-0.058733672
-0.14225242
0.13460633
0.0059262197
-0.00596879
0.13647489
-0.043532927
0.086496525
-0.32497302
-0.047014117
-0.2219553
0.043485727
-0.05720444
0.23099165
-0.15367717
0.16934288
0.08479398
0.038654797
-0.016038591
0.054643933
0.1507176
0.032689285
0.0025526192
0.07040733
0.030562773
-0.111577936
0.0027858054
-0.15369782
-0.033110768
-0.023417758
0.024784716
0.1826394
0.024133828
-0.11397193
-0.27780434
-0.11930853
-0.015077848
0.062125653
-0.08635326
-0.11530372
-0.06825067
0.11489302
-0.037276812
-0.044085957
0.038758278
-0.023631101
-0.024464082
-0.041303467
0.026388766
0.16833209
-0.08426338
0.069141544
-0.012769337
0.1460518
0.036536276
-0.15578751
-0.080070786
-0.007962272
0.22857034
-0.12040135
-0.20162167
-0.0529883
0.09155674
-0.045976497
0.050762758
-0.092173144
0.10306541
0.15713412
-0.057943147
-0.13311197
0.12615494
0.24132587
-0.01221868
-0.058578745
-0.3145045
-0.31164604
-0.072105356
-0.067593075
-0.017609077
0.01386296
0.03270613
0.028794007
-0.0023582913
0.22282068
-0.022592502
0.12952049
0.17431422
-0.14177912
0.119496524
-0.01528364
0.008253131
0.010185276
-0.054912146
0.0057198806
-0.037483733
-0.010352823
-0.04891682
0.0028728393
0.3244872
-0.14129026
-0.033821687
0.004239319
-0.21652341
-0.05326676
0.08031308
0.05208085
0.1973871
-0.024146238
0.03632282
-0.12901121
-0.031539768
0.037737656
-0.052636325
-0.046428066
0.09457361
-0.011086312
-0.005999241
-0.0031774668
-0.023641227
-0.36412406
0.05052091
-0.07762614
0.046618875
-0.06119068
0.0053449348
-0.071077295
0.0017576223
0.11598087
-0.04965276
0.12121486
0.0925911
0.11398593
-0.0023632934
-0.012506379
-0.06912651
-0.03692189
-0.07203584
-0.0021771668
0.08162079
0.008603273
0.028657624
-0.03703264
-0.01651268
0.16323268
0.0415232
0.1129354
0.08170092
-0.08163611
0.022265127
-0.050969098
-0.050767872
-0.00092549995
0.16538669
-0.19402365
-0.044007823
0.062607825
-0.072594695
-0.04083405
0.034070306
0.13986334
-0.05946807
0.032890677
0.07879797
-0.029201664
0.20087741
0.0028011757
0.09367718
-0.055928677
-0.21776873
0.016506214
-0.035859175
-0.014872368
0.018663464
0.11886636
-0.28058934
0.028926332
0.060498
0.1578506
0.15891483
0.04251717
-0.011046833
0.0053359694
0.02818106
0.095294625
0.10976995
-0.030823175
-0.16085713
0.07386999
0.09667722
0.056177486
-0.118341
0.11287292
-0.09643145
-0.24914426
0.060005907
0.0022655306
-0.023083499
0.1974119
-0.075369105
0.04784004
-0.060325142
0.019872602
-0.007967837
-0.27568075
0.033875115
0.14582986
0.12047035
-0.13109499
-0.06325102
-0.017281735
0.00783665
-0.24996322
-0.025949735
0.1948344
0.022814127
-0.07177435
0.039562803
-0.022436187
0.12337054
0.13009112
0.04062942
0.12551375
-0.08168915
-0.014006869
0.028498381
-0.12686719
0.083110645
-0.10615368
-0.013700302
-0.11311373
-0.11856083
0.043170374
-0.012729353
0.018874144
0.14343812
-0.05371473
-0.0005849218
0.0052897353
-0.16709627
0.010133173
0.0025591613
0.119425826
-0.06444123
-0.0941565
-0.0729583
0.04263404
-0.00420006
0.1265474
-0.15352494
0.023211796
0.14287306
-0.07576176
-0.01801619
0.066731595
-0.054143365
0.0014615627
-0.06441411
0.046696525
-0.017964913
0.19783875
0.010249205
-0.13636188
-0.058399413
-0.14454861
-0.1275628
-0.006554801
-0.18367766
-0.048035126
-0.11857334
-0.13958026
0.09920815
-0.02972196
-0.010645053
-0.24963343
0.019357396
0.06899598
-0.21709098
0.032990564
-0.18291603
0.15953653
-0.15382035
-0.031432822
-0.16811274
0.13007993
-0.110163674
-0.05011313
0.0064707254
-0.034840368
-0.04992424
-0.062093906
-0.067068815
0.048143446
-0.033601027
-0.06396264
0.15716054
0.07160033
0.13471432
-0.028240014
-0.08883122
0.13706233
-0.056539044
-0.050093587
0.051197376
0.08835187
-0.25769347
-0.07126359
-0.10406381
0.10158489
0.0011692024
0.046915226
0.034936268
-0.19396363
-0.22170572
0.028351115
0.040475726
-0.051235877
-0.25436795
-0.0741761
0.010861125
-0.02707706
0.093731694
-0.15520525
0.01584871
-0.1283267
-0.06496306
-0.23414533
0.024465203
0.011506009
-0.052799
0.000995504
0.13053127
0.05000943
0.010410546
-0.37880775
-0.10604811
-0.12081772
-0.013637934
-0.06274119
0.08140484
-0.18980664
0.0690807
-0.05997196
-0.13012467
-0.0014308759
0.0028436305
-0.021423114
-0.034709733
-0.3954441
-0.095137194
-0.039764564
-0.040361457
0.01288196
-0.16102357
0.12143703
-0.22257696
-0.12006757
-0.040128462
0.05616169
-0.052627552
-0.027103623
0.012897036
0.060716186
-0.02284612
-0.05558687
-0.046367783
-0.05444959
-0.090790495
-0.0690355
-0.021447243
-0.0501253
-0.15575069
-0.028584106
0.02375968
-0.017002631
-0.01885285
0.13834876
-0.075472385
-0.022074807
0.11497836
0.004996018
0.04912129
0.077543944
-0.1415548
-0.060769193
-0.030723112
0.025677375
-0.069175266
0.043698095
-0.08454513
-0.006328951
-0.03607981
0.20349693
-0.043126773
0.045407142
-0.24623945
-0.005401686
0.060352203
-0.12447544
0.14974587
-0.046069585
0.078443155
0.17750973
0.08271873
-0.07411635
0.017895713
0.019161958
0.20932446
0.11770198
-0.050819058
0.0363323
0.036934968
0.028383488
0.016979693
0.02560475
-0.053183563
0.08198417
0.03289863
-0.027366536
0.018358981
-0.053981192
-0.09726163
0.03203685
0.07031756
-0.020366
0.08524932
0.08012197
-0.39942166
0.054785363
-0.1909651
0.010515386
-0.119041525
0.009495955
0.0039314097
-0.045716688
0.010679592
0.039368078
0.018798543
0.02864801
-0.006675773
-0.032223802
0.0673719
-0.003278891
0.18072593
0.10626874
0.06835844
0.06892732
-0.0549855
-0.012714682
0.14878698
0.0047310563
-0.0005156563
0.1581629
-0.005680461
0.02193798
-0.038566478
0.047256254
0.03255771
-0.03186679
0.18153208
-0.28038716
0.0135175185
-0.04045627
-0.004322486
0.052683536
-0.03586866
0.020854346
0.17437477
0.16422546
-0.1865684
0.255378
-0.0005684928
-0.019401971
0.0032457162
0.00853212
0.1538684
-0.020684702
-0.19007385
-0.06549787
-0.011790915
-0.22539333
-0.0017716318
0.06802058
-0.1120341
-0.05729206
0.0008900009
-0.046998117
-0.16655506
-0.072688594
0.08758999
-0.055077977
0.050304256
-0.009746108
-0.016823467
0.020585371
0.012590332
-0.021815494
0.017894909
-0.054542672
0.03768697
0.033809867
0.028419036
-0.039767366
-0.036551222
-0.031335004
-0.023927484
-0.046372257
-0.0038329193
-7.3052244e-05
0.04473234
0.035343498
-0.059469078
-0.023291683
-0.024431234
-0.060741376
0.054096546
0.017487366
0.040897705
0.0230556
0.0028143013
0.043393377
0.032429963
0.0151350405
0.037619896
-0.028180277
0.016706383
0.028672252
-0.0021565775
-0.04263629
-0.0366672
0.04375774
-0.019717962
0.056613322
0.04434929
0.003803211
-0.014325394
0.0098291775
-0.017079126
0.011340963
0.015896918
-0.010225987
-0.031576317
0.018200718
-0.024800083
-0.05975841
-0.049231526
-0.03260794
0.026062973
0.03019022
0.041414864
-0.013841281
0.016271962
0.005452427
0.013096434
0.034266688
0.04048469
-0.012012206
-0.05078933
0.005968557
-0.036009062
0.040964272
-0.013154713
-0.053585477
0.02773878
-0.03178733
0.0114254
-0.015994644
0.024444547
-0.053538024
-0.006239929
-0.027051438
-0.015107259
0.026930086
0.052496437
0.04315592
0.03924413
0.010590213
-0.0017855318
0.0058541666
-0.01692687
0.04785456
0.01253601
-0.0030790656
-0.008646202
0.04217934
0.019767199
-0.018167967
0.0070808744
0.005214678
0.05356495
0.027095597
0.018205484
0.044114925
0.004898301
0.034869954
0.0382996
-0.0018173207
-0.06057287
0.015836902
-0.008820327
0.039229304
-0.013398242
-0.0004465067
-0.041167114
0.035356164
0.03306653
-0.005105818
-0.042752873
0.009233762
-0.029032445
0.016242702
-0.046740163
-0.0050014136
-0.02604038
-0.034569833
0.002574265
-0.044453774
0.017448643
-0.013186382
-0.01673147
-0.01082888
-0.0008992322
-0.038065437
-0.12561333
0.20751072
-0.018556824
-0.021605836
-0.23977266
0.002764592
-0.14536317
-0.04944819
0.036264
0.11420183
-0.07592959
-0.023618829
0.07621216
-0.026740937
-0.21798399
0.12171568
-0.05035005
-0.13817604
-0.060718726
-0.039030865
-0.002739966
0.025141254
-0.05526159
0.05432208
-0.010216709
0.14568146
-0.09694062
0.020589592
-0.2666265
-0.046726484
-0.0790728
-0.14379051
-0.082475945
-0.003843899
0.032841403
-0.06385679
-0.03884772
-0.09371335
-0.27549464
-0.047419276
-0.12504552
0.02876208
-0.06925666
0.06083781
-0.2575185
0.02488927
-0.08022658
-0.05079266
0.0017361314
0.07697734
-0.006926232
-0.052772492
0.16565262
0.042647827
-0.1327069
-0.21665475
0.086321816
0.05267502
-0.0043772077
0.022265567
-0.16322643
0.012683488
-0.047093756
0.09931961
-0.09744021
-0.014625897
-0.35561568
-0.09469629
-0.09570631
-0.020513201
0.051449347
0.023112934
0.07834361
-0.12966165
-0.21059987
0.08309889
0.0050739925
-0.14561291
0.003131076
0.033550438
-0.0846872
-0.09084026
0.097420715
-0.064476974
0.051789775
-0.034515902
-0.06860067
-0.14854215
0.12622294
-0.010640747
0.01814378
0.014842951
0.20726876
-0.07308904
-0.07517214
-0.13946983
-0.095281705
0.040194556
-0.10778603
-0.054034926
0.10941977
0.018368738
-0.060799588
-0.020568145
-0.05979477
0.14452356
0.021961665
-0.06108127
0.033388596
-0.13251926
-0.08909762
-0.11724696
-0.029859597
-0.12463821
-0.07342717
0.064744785
0.04347765
-0.028465923
-0.051079202
-0.024844335
-0.057665683
-0.03256642
-0.00035327868
-0.05102985
0.073276676
-0.0060027884
0.004287521
-0.0043657864
-0.11142592
-0.13071385
0.10902341
-0.07385021
0.2456665
-0.019445844
-0.0070767133
-0.016478218
0.096833125
-0.119946964
-0.05035495
-0.033597656
0.033732295
-0.0667274
0.049439166
0.026509231
0.10647871
-0.03995393
-0.0676716
-0.039870586
0.08970687
-0.11998132
0.07344823
0.06621778
0.12470439
-0.007321792
0.1635432
-0.06686665
-0.003429783
-0.018601673
0.11264559
-0.0630402
0.14652967
-0.15666015
0.0021186054
-0.011854616
0.0111414455
0.041547466
0.06727851
-0.023496129
0.13162376
-0.004496445
-0.096164994
0.03288926
0.10941574
0.1195402
-0.012322164
0.007334989
0.015109481
-0.09801757
0.006230736
-0.07092062
0.1414191
0.25452018
0.025842672
0.017434347
-0.086604044
-0.08362287
0.09344101
-0.081915244
0.109480366
0.18760204
0.093343675
0.010231751
-0.06675407
0.0024984728
-0.078666784
0.23880655
0.11019034
-0.052748207
0.016529791
-0.09776679
0.21943715
-0.1259051
0.06871172
-0.017734928
-0.100818194
0.069660105
0.14769952
0.030384397
0.097035155
0.080772914
-0.099852964
0.10534299
0.16483644
0.06431107
-0.011130792
0.10112942
-0.011009695
-0.07736543
0.022597734
-0.028433116
-0.101468116
0.20521079
-0.06356692
-0.04199832
-0.14608005
-0.01193312
-0.030694906
-0.00951028
0.09515488
-0.00037356335
-0.10125354
0.11006105
-0.09586445
-0.03025098
-0.029243657
-0.01459501
0.026125025
0.120911784
0.124428056
0.041594267
-0.024770409
-0.025805416
-0.09286492
-0.026354492
0.026940238
0.045994204
0.017714767
-0.021297695
0.20292507
-0.05569713
-0.060858697
-0.15807249
-0.004607182
-0.12570336
0.023944408
-0.07814585
-0.02682441
-0.23527569
0.0692619
0.1432233
-0.09494265
-0.13497536
-0.1066431
0.026171831
-0.025882069
-0.048377834
-0.1666677
0.0021487689
0.06188559
-0.21991262
-0.1058581
0.067678526
-0.013807764
-0.20882511
-0.047091864
-0.19881098
0.053625632
0.18474205
0.078426436
-0.1866249
0.10360755
0.116021164
-0.23212211
-0.047789697
0.025333874
0.014302553
0.00029749027
-0.21947294
0.05174133
-0.036966383
0.16415446
0.05630482
0.08333862
-0.0515335
-0.15711643
-0.018534837
-0.12594
-0.06114951
0.0860911
-0.16046102
0.1112201
-0.17262702
-0.037073445
-0.043028466
-0.016968869
0.058643218
0.027266052
-0.008320181
-0.06841103
0.019656079
0.17932217
-0.048060223
-0.15148237
-0.03390448
0.15474282
0.12026888
-0.21262486
0.12038317
-0.15727603
-0.047547456
-0.04045358
-0.07386978
-0.045597155
-0.14310831
-0.05402044
0.1540392
0.038425837
-0.086206354
0.053459156
-0.10687214
0.069711015
0.08487583
-0.10953595
-0.02516953
0.00038292198
0.08105324
-0.14123745
-0.091306
0.11004961
-0.15093343
0.1586275
0.15559953
-0.008119435
-0.19142845
0.100417405
-0.079767704
-0.02011582
-0.011090174
-0.017582962
-0.09840548
-0.04770986
-0.1171106
-0.26507768
-0.11238578
-0.030903429
0.003227377
-0.08738007
-0.19785233
0.14109316
-0.0017307006
-0.06539578
-0.07197609
0.060993485
0.012823233
-0.03769719
0.049907997
-0.275899
-0.08685805
0.016329747
0.048788454
-0.27565867
-0.15703148
-0.09525206
-0.05657427
-0.00793403
0.14878143
-0.10956929
0.1608618
0.14283259
-0.18085238
0.172997
-0.08961764
0.004603895
-0.17776534
0.05567264
-0.022740794
0.06083762
0.018456744
-0.02085789
-0.017279863
0.042231794
-0.040731944
0.051024232
0.020501014
0.06656699
0.007673386
-0.04281146
-0.03299699
0.04804545
0.04169626
0.0461121
-0.047485054
-0.03273714
0.022245193
-0.034213997
0.030315425
-0.024754288
0.03514446
-0.010060501
0.005522819
0.002307541
0.042798687
0.0063901977
0.035955485
-0.006824306
-0.020140754
-0.031032259
0.017642258
0.02694551
0.05729346
0.04077884
0.004883883
0.033994798
0.0103435395
0.026798373
-0.03335082
0.052973043
-0.0064760568
-0.024874924
0.05286535
0.009994468
0.046641722
0.049642403
0.008824914
-0.061334845
0.008594951
-0.056335814
0.068425775
0.07023755
0.010788584
-0.030524695
0.040283125
0.034266226
0.052799
-0.03145688
-0.02770652
0.026389934
-0.01571391
0.008520964
0.034184437
-0.03648173
-0.032017957
-0.024019122
0.0308364
0.031759188
0.016484983
0.06392493
0.00086227607
0.05522695
-0.044177473
0.0100937355
0.04158928
0.014656856
-0.026324566
0.051145226
-0.029469227
-0.0444828
0.04930014
0.03121069
0.008937728
-0.03458102
-0.030008689
-0.04625796
0.04184411
0.017264778
-0.020858884
-0.017366169
-0.03154659
0.034790445
-0.03322187
0.018062253
0.025739681
-0.042079918
-0.0020687166
0.005345986
0.02506497
0.04373185
0.0254432
0.0331989
0.045396987
0.06826786
0.0381568
0.022514807
-0.026447173
0.037886303
0.045135893
-0.04222702
-0.05973176
-0.026443489
0.020394748
0.04286188
0.037166785
0.015362305
-0.020224653
0.048556305
-0.061202716
0.0148071125
0.068875834
-0.010613734
-0.0116443625
0.036926795
-0.0050630956
-0.09266917
-0.07404457
0.13337454
0.06631452
-0.21299474
-0.024088202
0.15063463
-0.034619972
-0.16562785
0.22968684
0.018056575
-0.036142554
0.23027585
0.03788076
0.058733236
0.048783515
0.0053261793
0.20866947
-0.02701591
-0.036915228
0.12067139
0.24901696
-0.07875591
0.07581609
0.06251324
-0.051852707
-0.08662929
0.02493337
-0.075046055
-0.029133309
0.011529304
-0.09153057
-0.07664717
0.14659424
0.05303348
-0.021646904
0.16350888
-0.051474746
0.045930147
0.002947466
0.2861175
-0.015627611
0.14366736
-0.10775127
0.10547541
0.064963415
-0.04261648
0.0291813
-0.01569349
0.07804536
0.042029403
-0.04444385
0.008056542
-0.05274187
-0.11250212
-0.09108293
-0.14595081
-0.044724055
-0.06743569
0.13061917
-0.15466228
-0.0020423424
-0.021470018
-0.17230305
0.19100559
0.13980462
0.006344412
0.047800343
-0.0024313794
-0.0885752
0.02808732
0.060367342
-0.06387361
-0.052196063
0.07355147
0.099524304
0.047484484
0.16954158
0.06817544
0.019309813
-0.0319401
-0.006411083
-0.20507267
0.09989639
-0.055196777
0.0343305
-0.0009229019
-0.1642047
-0.06135815
-0.08863391
0.021780506
-0.028126715
0.10771098
-0.06731615
-0.06176985
-0.019566722
-0.04740393
0.19713412
-0.06721517
-0.015971916
0.04529488
0.053255543
-0.1936959
-0.0607604
0.021084785
0.0865179
0.108682886
-0.027554592
-0.05839138
0.08511841
-0.022358758
-0.02399127
0.034919966
0.17005758
-0.012699266
-0.08044494
0.011136816
0.018243115
0.053607583
-0.09810786
-0.12521183
-0.27324322
-0.04933725
0.15914008
-0.027904335
0.061928246
-0.024916038
-0.056973618
0.1205748
0.015934777
-0.17373846
0.13752726
-0.072522685
0.1367957
-0.19341503
-0.05991905
0.047759734
-0.090062544
-0.0012555274
-0.06778731
0.15321828
-0.0030476067
0.16448814
0.0772123
-0.08766145
0.15026465
0.04854002
-0.07500609
0.12682825
0.03734662
-0.0673929
-0.10110841
-0.02974183
0.015417159
-0.08425563
0.017236525
-0.14202029
-0.045222938
0.10485959
0.006704005
0.12245293
-0.10303785
-0.10140654
-0.16126095
0.14199828
0.017846005
-0.12647818
0.026094848
-0.028766725
-0.098527566
-0.11686018
-0.16097099
-0.20695649
0.12709376
-0.036348812
-0.010976406
-0.01895334
-0.06963427
-0.018361673
-0.01181817
-0.024295036
-0.21019238
-0.09828886
-0.15354733
0.062961936
-0.06704695
0.019887583
-0.11008825
-0.045434237
0.13117403
-0.14464307
0.05378689
-0.19831678
0.041597836
0.10778721
0.10617369
-0.05289658
-0.13887322
0.039365
0.08238894
0.0456799
-0.017116407
-0.09945789
-0.06466074
-0.16929673
0.039092258
-0.02007209
-0.03457954
0.02967484
0.02588181
-0.24945302
-0.23721415
-0.023591273
-0.081093304
-0.05975066
-0.12530361
-0.24220209
-0.020610949
0.013774009
-0.058097545
-0.25585648
0.16849656
-0.013583776
-0.049457315
-0.03924869
0.004946862
-0.015082366
-0.026713656
-0.018918497
-0.22744443
-0.012272833
-0.022117566
0.0018759455
0.01958965
0.015399407
-0.01686804
-0.027638389
0.09555895
-0.14706056
0.21259108
-0.026701776
-0.22698963
0.09402937
-0.053649183
0.1322357
0.08575467
-0.02581614
-0.095303096
0.037272397
0.10984002
-0.14484459
0.07870449
0.28839502
0.11924087
-0.01892515
0.049407784
0.010314337
-0.098060675
-0.18288945
-0.055968266
-0.12523031
0.058342908
-0.055982444
0.011253133
-0.12102756
-0.07603601
-0.031575453
-0.0018798312
0.17238726
-0.029640619
0.1387005
0.082846865
-0.13568318
0.057382725
0.001584368
0.12612289
0.14016491
0.11803215
-0.13526694
-0.011411259
-0.119769916
0.08962465
-0.10119495
-0.04950617
-0.023318902
0.002419903
-0.1302076
0.0078443205
0.03976002
-0.0077534895
0.123147614
-0.18355387
0.16850156
-0.00621229
0.056189686
0.028156474
-0.011654533
-0.016127402
-0.19238044
-0.13864331
-0.24141324
0.06150849
0.027399797
0.04688576
-0.055930294
-0.038198743
0.050927684
0.035957426
-0.011874488
-0.033301573
-0.05790045
-0.2414077
0.18167987
-0.06729704
-0.14690314
0.03798626
-0.14787808
-0.0020243959
-0.31680605
0.10017759
-0.053777732
0.09455476
0.025419816
-0.050589494
0.13458326
0.11569007
-0.026354784
0.082917206
0.12558599
-0.033050995
0.0044877846
-0.11402315
-0.028837685
-0.015640993
-0.042224724
-0.01898525
-0.02432706
0.09324571
0.062376212
-0.15064324
-0.14757983
-0.012075131
0.008547013
-0.022806622
-0.097793706
0.041947257
-0.003641085
-0.035347857
0.052311935
-0.16338897
-0.06888515
-0.017491166
0.0039376793
-0.10343063
-0.023714805
-0.061889853
0.19376788
-0.07232792
-0.061030876
0.15416123
0.03470329
-0.22148052
0.022682954
-0.0043982277
0.15326728
0.027877728
0.030815078
0.0744428
0.024092156
-0.2645326
0.0105509935
0.059360262
-0.030099832
-0.07731345
-0.06381214
-0.09426017
-0.062855795
0.11900714
-0.08927337
-0.046353713
0.1908613
0.14780456
-0.06277009
0.01170848
-0.16411221
0.10449452
-0.06372133
-0.15208615
-0.20560741
0.05412941
-0.13974355
-9.0005415e-05
-0.07251155
0.08579443
0.14709389
0.019123498
0.039851163
-0.1484828
0.010751617
0.14219807
-0.01909229
-0.10348316
-0.031944636
0.008890442
0.014395442
-0.09706885
-0.157927
0.0640173
-0.052908752
0.009753907
0.0182071
-0.04970296
-0.13211551
-0.043891195
-0.06794854
-0.13628632
0.036748096
0.091779515
0.050631374
0.00066521735
0.026211409
0.050987344
-0.2101846
-0.052456986
-0.014288612
0.074041806
-0.1640712
-0.115260385
0.021405973
0.06429141
-0.07381145
-0.038021848
-0.02169406
0.14406025
0.01174769
-0.0800761
0.09972026
-0.07797438
-0.0068496363
-0.029795941
-0.005208857
-0.022927254
-0.009824015
0.091694854
-0.051329337
0.115117386
-0.14778131
0.14117558
0.04226138
-0.1074418
-0.21813188
0.0037644464
0.06380321
-0.007474912
-0.06613869
0.001808425
0.097368754
0.010037655
-0.0069658197
-0.16121513
-0.01664817
0.114459395
0.21062085
0.120410345
-0.08902858
0.1104406
0.1309033
0.03735676
0.082337596
0.06511795
-0.022618284
-0.055678464
0.029660875
0.06509569
-0.023854313
0.030946365
0.16155176
-0.22132745
-0.046359595
-0.048254866
0.046371154
0.17318593
-0.008932913
-0.051482853
0.14295144
-0.034694925
0.014429691
0.04476888
-0.01832244
-0.024109153
-0.023527987
-0.02747694
-0.18546623
-0.04074761
-0.15225752
0.07999371
-0.0046247058
-0.062530585
0.0012355959
-0.043769043
-0.041686524
-0.019830316
-0.018665195
-0.040683113
-0.07920861
-0.080365
0.087295234
-0.07492374
-0.037163205
-0.012800706
-0.037094027
-0.021017848
-0.09474662
0.3281943
0.0087971445
-0.03416128
0.09212159
-0.29074556
0.17912516
0.0186627
-0.18014282
-0.1514079
-0.31539014
-0.00023028946
0.06873255
0.076079644
0.21126796
-0.022430511
-0.12979399
0.22324386
0.0027723867
0.060579862
0.10585447
0.020199375
0.15379083
-0.07357674
0.017609466
-0.18908991
-0.03515194
-0.008832494
-0.22416985
0.02109853
0.23310713
0.03387148
-0.14592269
-0.13736497
-0.04446265
-0.18659404
0.2634569
-0.11084136
0.09445763
0.015907252
-0.06478297
-0.05725261
-0.05608519
0.008883156
-0.3057875
-0.14469889
-0.07313775
0.0077668736
0.015785202
0.073452175
0.03742337
-0.12457577
-0.05974562
-0.099443994
-0.1816947
-0.10170215
0.01736246
0.030045884
0.0022537983
-0.068330646
0.042311996
0.09633614
-0.11607335
0.09560524
-0.27044606
-0.098752365
-0.29920128
0.038372625
-0.3030273
0.0013939756
-0.051418126
0.06861754
0.0091925915
-0.49081805
-0.093919665
0.086877935
0.05359586
0.24593179
-0.042416003
-0.47762352
0.121757284
-0.32280087
-0.24741141
-0.093562104
0.13263027
0.2339213
-0.013312706
-0.030417599
0.13571888
-0.12559384
-0.04024309
0.056532655
0.18801722
0.065356076
0.019639451
-0.06614107
-0.06199988
-0.036297675
-0.055461314
-0.009582186
-0.011986898
-0.11325341
-0.05310617
-0.277024
0.022094171
0.27826133
-0.17838265
-0.01982577
-0.26647887
-0.21346137
-0.017027479
0.13507034
0.01702119
0.011416283
0.24505949
0.3111683
-0.039695274
0.15249628
0.004606583
0.03307574
0.07671169
0.19343115
-0.24542026
-0.07866493
0.079812035
-0.003521737
0.025967224
0.044441033
-0.25831604
-0.028425317
0.06993754
0.077055454
-0.13953279
0.056986682
0.003202978
-0.04142666
-0.072815165
0.106348
-0.32756746
-0.0887234
0.0021580728
-0.1587955
-0.09629535
0.18089186
0.032043386
-0.23133515
-0.054719873
-0.03878137
-0.03618662
0.16923909
-0.10168438
-0.050166447
-0.082333416
0.21256451
-0.08737865
0.027579082
-0.087439604
-0.06141497
0.10453234
-0.15748593
-0.07280848
-0.043941617
0.1052623
-0.14892796
0.02268688
-0.09167594
0.056369178
0.008494078
-0.091666795
0.00171185
-0.014210438
-0.09778143
0.069728374
-0.119693555
-0.011668253
0.01420404
0.029234763
0.021389106
0.009614416
0.03225851
-0.07002269
-0.024855731
0.10541194
0.12799357
-0.025392355
0.043463044
0.080300294
0.013958096
-0.18770637
0.17869692
-0.22377676
0.034780037
0.060936335
-0.10380307
-0.09901206
0.069871925
0.085385874
0.047519084
0.034951318
-0.09909704
-0.02183049
-0.3386066
0.10085139
-0.08399542
-0.057345845
-0.061140113
-0.100171536
0.10992742
-0.028245477
0.034308977
0.071184635
0.04032102
0.10009062
0.21874394
-0.03825776
0.1481672
0.10406997
-0.029695457
-0.060970698
0.026395429
0.07036907
-0.10347104
-0.031654317
-0.06809226
-0.12684235
-0.0159683
-0.15777752
0.022733567
-0.05490455
-0.26350647
0.14211653
-0.1456264
0.029566621
-0.0018948443
0.10701617
0.013919278
-0.115199566
-0.0021565312
-0.15601654
-0.04097076
0.023861073
0.11578366
-0.12279312
-0.031126387
-0.057854634
0.030137988
-0.015315889
0.13481778
-0.2303308
0.03750628
0.16467142
-0.15024221
0.084788516
-0.16374038
0.039778825
-0.22563282
-0.0043449826
0.20224659
0.1439073
-0.027476821
-0.09786136
-0.011233053
-0.09756183
-0.032352038
-0.09102029
-0.13799506
0.08242995
-0.053691044
0.06460471
0.0941652
-0.049891643
-0.08643677
0.19957013
-0.122356854
-0.0510807
-0.049248308
0.017257381
-0.22179346
-0.07721331
0.05620628
0.06579967
0.0033242474
0.05320368
0.025880126
-0.00036353423
0.04391934
0.13501431
-0.008853694
0.036920194
0.029844146
0.103334114
0.08173018
0.12241751
-0.06679567
0.023625158
-0.058865804
0.2312397
-0.003736165
0.04102857
-0.08360847
0.05813096
0.10881089
0.02058155
-0.030812014
-0.018797461
-0.004987837
0.08022834
0.03200927
-0.096883826
-0.055899035
0.033423714
-0.031123914
-0.046075303
-0.12242066
-0.11734358
0.05894157
0.008274174
-0.03950979
0.22387218
-0.18043648
0.20056728
0.05536777
0.010970877
-0.026321791
0.2231401
-0.03525668
0.0018008583
-0.049878344
-0.14240108
0.008874782
0.01216905
0.022072326
0.07767084
0.13739087
0.052067008
-0.0025559394
-0.06801788
0.08630917
-0.18209086
0.15506203
-0.06907662
0.03284782
0.0037375425
-0.07344854
-0.033772983
-0.032083504
-0.043149408
-0.010981951
0.11845694
0.10389802
-0.055870336
-0.021703579
-0.012187691
0.40511394
0.012075926
0.037580844
0.06498506
0.029212495
-0.045364704
0.10276163
-0.019842258
0.115497954
-0.05098802
0.009932985
-0.012346823
-0.0012792355
-0.15463851
0.056608893
0.04593166
0.18156716
-0.10001245
-0.017569017
-0.13384554
0.008749614
-0.040120415
-0.055421107
-0.090265624
-0.19710219
-0.005910212
-0.020761892
-0.3062922
0.035189398
0.052287817
-0.0015621023
-0.14925657
0.018028863
-0.059783995
-0.20460083
-0.017196517
-0.15885094
0.026689978
-0.0073648584
-0.10707571
0.032517157
-0.081550844
-0.10439588
-0.011737912
-0.018635867
0.078900576
-0.07738216
-0.04661532
0.09242483
-0.055133782
0.06853826
0.022850959
0.016054139
0.025359241
-0.09240887
-0.089443035
0.07767328
0.04874412
-0.04548849
0.097484775
-0.012842789
-0.09613684
-0.0266819
0.02133709
-0.036895644
-0.09918069
-0.1328819
-0.00021460681
0.07620103
-0.10146012
0.0026690925
0.0774141
-0.068656914
0.009393804
0.08712903
0.1753721
0.03594937
-0.05423223
0.015003671
-0.045613464
0.005176459
0.014819002
-0.019299364
0.010164885
-0.050188057
0.09594427
0.15192793
0.07353709
-0.12890497
0.016462535
-0.08816726
0.010384848
-0.042026125
0.016232163
-0.11766343
0.033757113
0.11304765
-0.09703037
0.08543357
0.13529071
-0.07576737
-0.07757488
0.06191822
0.07525605
-0.008032053
0.049629323
0.046482857
0.05019996
0.052814018
0.022373302
-0.10858063
-0.041607875
-0.005471731
0.13763787
-0.19390422
0.0010990091
-0.1290444
0.019847509
0.09698681
0.048053555
-0.13052364
0.039287336
0.038009178
-0.110175766
0.16746107
-0.04921131
-0.09270716
-0.052534338
-4.38492e-05
-0.025346207
0.006483132
-0.007936124
0.06431974
0.15422432
0.013851534
-0.026040157
0.1707532
-0.029157171
-0.0152220335
0.0010899417
0.08258628
0.15678379
0.08067081
0.057240136
0.017348047
-0.02643317
0.014958538
-0.055879135
-0.1334084
-0.06039109
-0.09538177
0.21953239
0.039068367
-0.036296453
-0.14724384
-0.034841415
0.007906937
0.028511928
-0.12740357
-0.095679335
0.14729491
0.041627727
0.068237804
-0.16860819
-0.16732712
-0.07485407
-0.066756696
-0.118479036
0.07528956
-0.16501445
-0.0587714
-0.0039246455
-0.108112484
-0.059630062
0.16902085
-0.017934632
0.045019187
0.030577866
-0.016743619
-0.061265327
0.14787892
0.019523242
-0.22319523
0.01200407
0.008874586
-0.3079689
0.025526341
-0.0012789926
0.023218375
0.030773396
0.0041407025
-0.01980877
0.038983814
0.11743388
-0.15697442
0.057952926
0.11076901
-0.1195854
0.018503137
-0.28504753
0.021622222
-0.059650484
0.013776161
-0.06382036
-0.041863486
0.022855876
-0.044793513
-0.03531379
0.021977961
-0.029807335
-0.02921188
-0.107806675
-0.032711066
-0.08858135
-0.03342691
0.20277226
0.112331584
0.13752557
-0.19437562
-0.09501447
0.0852355
-0.30623427
0.015060161
-0.07403437
0.07973422
-0.20420137
0.16637383
-0.13409567
0.31164503
0.010653292
0.16219091
-0.0508485
0.002978167
-0.22603357
0.004916363
0.01330164
-0.043569304
-0.47821862
-0.03798195
0.14373228
-0.06135966
0.031379063
-0.18703343
0.12358973
0.18817934
-0.045789383
-0.120477416
0.00036881963
-0.11872478
-0.04597949
-0.05245225
0.076597944
0.08108319
-0.011001743
-0.20537315
-0.12114834
0.04815507
-0.028766753
-0.029883763
0.033282533
-0.06268916
0.02568435
-0.19361132
-0.22150101
-0.0032545126
0.051326703
-0.00969463
-0.03591316
-0.2241735
-0.090548374
0.026497621
-0.051066082
0.13779314
-0.022830918
-0.05633099
-0.04054426
-0.15951556
-0.0516807
0.0026201734
-0.053632904
0.07499721
0.07775843
-0.21541137
0.10941196
-0.1247678
0.05685503
-0.025783625
-0.09071694
0.1705704
0.04641827
-0.093804725
-0.0192069
-0.016340926
-0.13475932
-0.027804578
-0.10121295
0.023779418
-0.13440199
-0.02914833
-0.06402364
0.04828025
0.10773148
0.1247073
0.010344714
-0.012760129
0.0047997194
0.07223795
0.06313623
0.035460964
0.06830304
-0.003504207
-0.00034681865
-0.05576227
0.077638894
-0.061980255
0.06839517
-0.06520412
0.028216304
-0.07789645
-0.064784914
0.022033047
-0.10496836
-0.028625742
-0.010592958
0.030132368
-0.09715226
-0.06725737
0.049855262
-0.04058792
-0.038533885
0.015569468
0.07020666
-0.15254898
-0.069722585
0.010917929
0.012056092
0.120766826
-0.047649525
-0.08551471
-0.0013057991
-0.08260578
0.049558964
0.06422056
0.08308236
-0.04784679
0.030091137
-0.09843721
0.015197071
0.05260495
0.039878894
-0.025778411
0.055671856
0.021451317
-0.1042629
0.0543755
0.08079671
-0.030927233
-0.012210574
0.087974824
0.12603049
-0.020362386
0.08232642
0.083534025
0.05576981
-0.019583207
0.043893177
-0.085858844
0.0062061767
-0.07830157
0.071158394
-0.10164046
0.0072074174
-0.011102594
-0.05725946
0.1165717
0.035266433
-0.11213786
-0.00677767
-0.0653809
-0.075146034
0.16681796
-0.0040659644
-0.09609314
-0.11805736
-0.081676684
-0.08997927
0.038543794
-0.098419785
-0.044142973
0.0907209
0.056282658
-0.0036008353
0.16498531
0.0398373
-0.0732058
-0.07041992
0.009931728
0.02446409
0.041719127
0.028688256
0.08206001
0.016298095
0.09144295
0.078525476
-0.03365067
0.022446306
0.030965105
0.19571075
0.1225661
0.014634374
-0.061662022
-0.040624272
0.16732329
-0.051574208
-0.17015757
-0.00956775
-0.10095725
-0.24359417
0.06532728
-0.08657241
0.04327267
0.26233727
-0.0075352467
-0.24565622
0.000177376
0.094765656
0.0060439757
-0.13762979
-0.31177178
0.12633336
0.04789576
0.14092948
0.14575614
-0.05910834
0.07551816
0.033417773
-0.1134161
-0.18462054
0.0793334
-0.15450473
-0.11314326
0.19515422
-0.022004973
-0.14096326
-0.045522906
0.104805976
0.006419333
-0.007912656
-0.10567505
-0.03131698
-0.049230523
0.09752717
-0.1314555
0.098045364
-0.057695236
0.3337081
-0.3208471
0.099594824
0.18816881
0.07968999
-0.018204281
-0.064063735
-0.04128171
0.0034669389
0.047640238
0.019288065
-0.092861086
-0.122175016
0.09491524
-0.06146008
0.058364816
-0.09634718
-0.047806006
0.023635004
0.1071317
0.13148332
0.11276536
0.10880624
-0.1682218
-0.20936936
-0.06575721
-0.14656968
-0.014301634
0.04898955
-0.0011791569
-0.031594668
-0.13754481
-0.014150482
-0.17621198
-0.13960177
0.0035764037
-0.23649786
0.04458542
0.2344525
-0.1816288
-0.03961263
-0.21210808
-0.09389763
-0.0813664
0.037066527
-0.0024292888
-0.0071694343
0.022676816
0.026187986
-0.025707852
0.017023336
0.032149155
-0.03360494
0.3138999
-0.07772369
-0.106976144
0.017165259
0.2092628
-0.021076487
0.021713607
-0.028159698
-0.26900536
0.0167491
-0.1294389
0.07799898
0.066632845
0.13022597
0.03536039
-0.065164596
0.071843535
-0.44211438
-0.06979503
0.0060575656
0.15490258
0.061337788
-0.020597612
0.036873493
0.0042518564
-0.05205088
-0.0072125695
0.30745557
-0.09898726
-0.14902946
-0.14242947
0.2017667
-0.27980724
0.050390504
0.12760858
0.08051499
-0.09388212
0.079410724
-0.016346004
0.09184329
-0.010631486
0.025956335
-0.066348374
-0.0073587955
-0.14395109
-0.11121876
-0.0985859
-0.08390096
-0.015497124
0.09470192
0.05098857
0.06684273
-0.022821885
-0.05165053
0.02640027
0.009696407
-0.06116824
-0.121322386
-0.13384627
-0.04757206
0.03892162
0.0714801
-0.046272077
0.22602569
-0.010990986
-0.042827684
0.10783022
0.13204342
0.008470656
0.03789908
0.07508813
0.023603678
0.114564136
-0.02356965
0.020862145
0.18948017
0.06816548
0.10312783
-0.0012056171
-0.020042675
0.04686543
-0.06233657
0.03556982
-0.065489754
-0.089767314
0.04199686
-0.028762173
0.015628044
-0.0399711
0.034556508
0.088441774
-0.0042966055
-0.027699007
-0.10718065
0.20439722
-0.101703435
0.0058832844
-0.119096704
-0.056609616
0.046200376
-0.100715205
-0.046969935
0.22237721
0.07853694
-0.031337343
-0.04838397
0.059461918
-0.08893119
0.09162349
0.03823304
-0.11440677
0.038374312
0.10605835
0.19590124
0.1262822
0.053729035
0.12165487
-0.025218306
0.024249611
-0.026422914
-0.22331133
-0.0010427025
0.024653662
-0.14242433
-0.044531632
0.00857989
0.025621152
-0.13305372
-0.16265553
0.03786629
0.18783925
0.029096868
0.019456936
0.027895404
-0.013201278
0.17901814
-0.12051385
0.1414793
0.12864026
0.09665608
0.0853343
0.13093407
-0.0065090624
0.03219738
0.090851635
-0.008498147
-0.061650865
-0.014288899
-0.059246797
0.05881542
-0.10006186
0.018284554
-0.13719307
-0.008682291
0.06207032
-0.005143578
0.29118273
0.055632465
-0.0063187038
0.1879953
0.03540851
0.037726514
-0.12760344
-0.05871399
-0.1418139
-0.022773772
-0.015192838
-0.11698811
-0.009837931
-0.07338504
-0.0489641
-0.14261985
0.21884021
0.0036107413
-0.044622973
0.123427555
0.10013432
-0.1339244
0.011338977
-0.005751496
-0.12342534
-0.08652584
-0.060683955
-0.0700173
-0.017741205
0.0038608143
0.04806962
-0.16811536
0.023433842
-0.09307554
0.022002146
-0.20520931
0.06755549
-0.0598644
-0.07416963
-0.043184385
-0.05380958
0.039020278
-0.20824315
0.05796854
0.09769648
-0.22335692
0.027836667
0.042798344
0.16583599
-0.12390761
0.11300067
0.085571855
-0.008359761
0.029553147
-0.017663468
-0.025492989
-0.17133543
-0.07403763
-0.06434411
-0.1205406
0.015291259
0.016535535
0.05858801
0.08869287
0.008793879
0.011081099
-0.10513683
-0.16774829
-0.027657855
-0.035141144
-0.052200414
-0.10709461
0.021012448
-0.25013137
-0.038074687
0.031387024
0.11855085
-0.01122824
0.04575382
0.01073834
-0.042286705
-0.364465
-0.1625511
0.1775729
-0.26086366
-0.21742013
0.10127068
0.0114014065
0.118287764
0.04224076
0.19280241
0.031407688
0.028758181
0.037146404
0.04801545
-0.020940492
0.14013818
-0.026321663
0.023903448
0.016006459
-0.2104616
-0.062674046
-0.10320014
-0.12788972
-0.04766569
-0.06389634
-0.0013819392
-0.038647126
0.17606163
-0.07238885
0.0023524899
-0.063200496
-0.21274321
-0.02937702
0.018363915
0.0019257291
-0.032881048
-0.2146406
-0.12396714
-0.037406124
-0.049669586
-0.050281063
-0.33129898
-0.0602742
-0.0797069
0.034174733
-0.17614986
-0.101888314
0.061754107
-0.02181528
-0.14809571
0.14633362
0.030879084
0.036599547
0.022097556
-0.2364066
0.21129489
0.13774818
0.08220191
0.012194029
0.10698093
0.05030214
-0.024135994
-0.06756569
-0.0924363
-0.06601452
-0.021210587
-0.02226487
0.021743592
-0.0957109
-0.018254682
0.06691145
-0.00029679303
-0.034502774
-0.09674692
0.1365203
-0.040444974
-0.19257858
0.058788914
0.01643964
0.049596
-0.04793759
-0.058283042
-0.2705077
-0.06358642
-0.20095941
-0.052728906
-0.11107324
-0.10421795
-0.22460592
0.073925525
-0.03419543
0.046699427
0.18173696
-0.041341815
0.07588554
0.048407838
-0.19110037
-0.2605512
-0.22979248
-0.120497584
0.0073934495
-0.0600688
-0.08714414
0.08878267
0.01853084
-0.046855696
-0.3160178
-0.014169537
-0.08048811
-0.20104845
-0.05874065
0.31840566
0.15371162
0.06704037
-0.10481982
-0.17751168
-0.0050330316
0.12148645
0.01315699
0.04185553
-0.12458945
0.012764021
-0.04883466
0.023108361
-0.030010127
-0.00031383976
-0.051066216
-0.058729887
0.111731656
0.19804291
0.056383736
-0.12381977
0.044306144
0.047567375
9.986277e-05
0.030938819
0.107533105
0.22879083
-0.083680294
-0.074910864
-0.061022796
-0.3210171
-0.04639159
0.019314026
0.04938832
-0.042952057
-0.10516712
-0.1267896
-0.01234043
0.020598924
0.08736799
0.20477346
-0.06666014
0.03969385
-0.33011615
-0.269457
0.019193377
0.058715407
0.097967245
-0.21718843
0.16076294
-0.044581756
-0.26695997
0.033374332
-0.19009335
0.10943459
-0.056143507
0.1028878
-0.19477834
0.07155143
-0.14436021
0.03363824
-0.001162542
-0.017527627
-0.18255423
-0.05393732
0.071904644
-0.09899418
0.08227787
0.026091203
-0.052673604
-0.14247511
0.12316462
-0.23513383
-0.14578037
0.20161302
0.21221015
-0.26304746
0.040845443
-0.07142076
0.014163107
0.17771228
-0.13590291
0.0014378123
0.020380724
-0.14616124
0.0064788624
0.14264497
0.08970846
0.118444405
-0.0031817453
-0.24343878
0.026713146
-0.036731705
0.08193939
0.12189689
0.08651927
0.21087027
-0.071798444
0.0003554243
0.04781175
-0.03697815
-0.04781016
0.101349406
0.2126974
0.13429041
0.1052983
0.24977916
0.022588635
0.2109797
-0.23915546
-0.028374583
-0.17723389
-0.054897293
-0.03110603
-0.30783746
-0.13210249
-0.35835305
-0.06642905
-0.059288334
0.017957447
0.29250354
0.057437353
0.041254215
-0.20200948
0.15592057
0.3018319
0.13466561
0.19637252
-0.2155536
0.2103413
0.1679909
-0.15092425
0.14856012
-0.038562454
-0.13504589
0.27437893
0.23496158
-0.003403817
0.022923235
0.025486266
0.26301733
-0.029701173
0.21142922
0.10328053
0.0017639417
-0.03139323
0.03309845
-0.1624885
0.060249444
0.1348583
0.17797437
0.13244393
0.19905947
-0.14768484
-0.23581448
-0.18478453
0.09315096
-0.07311365
0.038357526
-0.162504
-0.088586055
-0.023698764
-0.04067084
-0.11292849
0.16993172
-0.06554384
-0.023934009
0.045532912
-0.08063704
-0.007623754
-0.0031375072
-0.023698263
-0.16824758
0.041653417
-0.018685278
0.042779073
-0.23815495
0.2661412
0.047809497
0.08967085
0.030823609
-0.18801156
0.11392662
-0.013453335
0.15674204
0.011150102
-0.06449255
-0.021090196
0.039093055
0.045318566
0.16569561
-0.10026986
-0.18842651
-0.0069899494
-0.072371066
0.114139505
0.17132021
0.038045995
-0.1381633
0.08242542
0.16791075
0.055693094
-0.1726234
-0.10615377
0.03599067
-0.22286795
0.056710504
-0.0048432304
-0.10824966
-0.024925267
-0.024245502
0.053143267
0.0340693
-0.03753641
0.046763204
0.021300206
-0.1293158
-0.03984455
0.08064663
-0.19272394
-0.062478397
0.04167755
0.08572871
-0.028004564
0.028633257
-0.04836735
-0.017067945
-0.035607122
-0.06644664
-0.08468434
-0.13477217
0.080104895
-0.14495581
0.10691407
-0.092545375
-0.014941944
0.05150463
-0.20084676
0.015744288
-0.07458178
0.122311234
-0.38163012
-0.068964355
-0.22190681
0.08445521
-0.036464173
0.046971682
-0.003693507
-0.120380506
0.05663098
-0.06990645
0.12970188
0.12003636
0.11806836
-0.048335426
0.13676442
0.041051365
-0.27318695
0.079724856
0.06041026
0.07609547
-0.04777082
0.20378068
0.058237616
-0.0010732452
-0.09879712
0.07834838
0.073589675
-0.05949147
0.04810946
0.03005826
0.20655976
-0.061834466
-0.016750447
0.044331007
0.05761298
0.106313944
0.13794835
-0.01113322
0.14052579
0.018071717
0.07233939
-0.10933616
0.007723281
0.011074773
-0.05441317
0.018822549
-0.035527878
0.18374869
0.04407091
-0.009133537
0.10347343
-0.098241165
-0.06297773
-0.025869783
-0.1249669
-0.032529686
-0.059609175
0.003421275
0.025376411
-0.025875643
0.030284736
0.13012163
0.0041100723
-0.006732833
0.12485682
-0.023599379
0.013109095
0.15888046
0.0014559155
0.13302043
0.004950492
-0.31372404
-0.06858381
0.010214143
-0.005834758
0.03238007
-0.0034332194
-0.0073374244
0.076373205
-0.023294406
-0.047065653
0.05552651
-0.06864439
0.050124012
-0.0049025156
0.08393366
-0.11743896
-0.072055504
-0.019601822
-0.05412165
-0.06543026
-0.14268959
-0.13159563
-0.0051407474
-0.022207418
0.007125961
-0.000864881
0.01000618
-0.031757064
0.03254479
-0.02248324
-0.081793405
0.05572291
0.0060567614
0.045158617
0.025615234
-0.0075764926
0.09452527
0.112754
-0.11742225
-0.079768166
-0.034814276
0.010844105
-0.028741598
0.02939492
0.024589825
0.035302803
0.00894057
0.1094557
0.010313853
-0.03797552
-0.20598485
0.01007567
0.037638113
-0.12923102
0.01065639
-0.030397942
0.07247851
0.015498964
-0.011069823
-0.08035318
0.14466652
-0.0445207
-0.012853045
-0.04488487
-0.0034892492
-0.047645994
0.0035291873
0.073408894
-0.0081646
0.06673487
0.03911473
-0.001334878
-0.0486936
0.017083151
0.050560415
0.096777335
-0.007630553
0.056599032
-0.14651093
-0.0036274157
0.12352214
-0.114216626
-0.07587004
0.027880553
-0.061340746
0.041365754
0.02980664
0.075131275
-0.13895814
-0.048481114
0.015238834
0.09172159
0.07177908
-0.037458226
0.024839459
-0.13488813
0.03723575
0.093455106
-0.1427911
0.015169323
-0.029065803
-0.040914122
-0.02456129
0.025602523
-0.020639667
0.038228497
0.03597673
-0.15966614
0.06700299
-0.07021481
-0.2481389
-0.031686455
-0.020088138
-0.091796026
-0.09080779
0.12582615
0.017652836
0.08705093
0.04152997
-0.073671006
0.16987939
-0.04521137
-0.01496935
-0.065730035
0.021657858
0.17640492
0.03360995
0.0054993457
0.012794489
-0.09679178
0.17759782
-0.29874882
-0.08977822
0.045653448
0.0048587034
0.096126445
0.002198345
-0.013056573
-0.04236731
-0.019940257
0.02593075
0.026886178
0.02205597
-0.057692092
-0.01581224
-0.10958361
-0.011940717
-0.04145937
0.017118983
-0.044327527
0.007386019
0.09087886
0.10301587
0.12981418
-0.07799573
-0.019557104
-0.13433762
-0.013922462
0.21788295
-0.017368985
0.035448298
-0.058699284
0.068202786
0.0011508164
0.14655334
-0.08334167
0.042898424
-0.046528757
-0.008851718
-0.18936619
0.025593419
-0.0003828577
0.020578578
0.051929355
-0.10718138
0.024950191
0.10419943
0.05034624
0.036775596
0.13126369
-0.2511007
0.021994393
0.021475006
0.08229985
0.04458978
-0.017802533
-0.2203649
-0.06415969
0.016882846
-0.028265713
0.0016086374
-0.012257793
-0.022431338
-0.054251306
0.072083965
0.03946943
0.06549694
-0.025148826
-0.17968294
0.15497732
0.050010014
-0.20122144
0.014393045
-0.20103431
0.070845135
-0.052044615
0.14076851
-0.07406728
0.0065686028
0.033618018
0.076701425
0.15997489
0.10330872
0.007318292
-0.03411485
0.12520859
-0.0039274124
0.06290305
-0.1701821
-0.14029634
-0.030307679
0.056177795
0.014937321
0.057933055
0.11892559
0.0037622917
-0.07469059
0.06619902
0.07159325
0.015158749
-0.004191356
-0.30651918
-0.011044791
-0.014747419
-0.053433333
0.076598175
-0.23692308
-0.05285717
0.0446801
0.12220213
0.069180824
-0.06313776
0.029353462
-0.013372004
-0.21391827
-0.11257788
0.020746028
0.109949894
-0.01180407
0.08432646
0.01555559
-0.06947084
-0.046762172
-0.13234265
0.07470573
-0.056333765
-0.12111344
-0.032648824
-0.029552318
-0.03796808
-0.190848
0.05394369
-0.17936525
-0.024116272
0.057085805
0.03350808
0.0763701
0.1777762
0.12125515
0.050801117
0.016733468
0.06286179
0.05574436
-0.04195693
-0.015385728
0.025232976
0.02242376
0.0025536406
-0.04682025
-0.031050913
0.015658274
-0.036881384
-0.03967727
0.038156252
0.049692508
-0.018253682
0.007957129
-0.035766236
-0.020608788
0.0005901862
0.007471658
0.05710023
-0.016454259
0.008156361
-0.03971766
-0.004833967
0.026197394
0.04922011
0.055476632
-0.015538983
0.034754906
0.056289174
0.026955694
-0.06293301
-0.031680744
0.049599286
-0.01700537
0.048876315
0.028617868
0.004103556
0.031600386
-0.02717255
0.049084906
-0.010256304
0.016112309
-0.040458947
-0.01337417
0.020618636
0.011215404
-0.03144062
-0.014261897
-0.030562485
0.048617464
0.033970714
0.056596026
-0.058829524
0.05462244
0.008635096
0.021184485
0.040373106
-0.0011783082
-0.026752174
0.024146242
-0.028786533
0.0023718714
-0.054319564
-0.026856676
-0.019307554
-0.015860073
-0.010191754
-0.057776954
-0.010484368
0.029619213
-0.052035432
0.022992102
0.045238487
-0.05273522
0.030426256
-0.049823508
-0.03179704
0.05413208
-0.018301608
0.038978167
-0.0021314677
-0.047394447
-0.011495931
-0.029523378
0.034436766
-0.046418294
-0.053384166
-0.008077063
0.015571221
0.00094465166
-0.03075884
-0.0034711605
0.0040672966
-0.0149712
0.06090386
0.0019935637
-0.028722608
7.61492e-05
0.03255629
-0.055365577
-0.022359282
-0.014241685
0.056646787
-0.068719834
-0.038938317
0.04113475
-0.036303725
-0.017647816
-0.015654236
-0.043431297
0.057132896
-0.012906244
0.029171336
0.013349441
0.018429004
0.0015044789
0.025592582
0.0323057
0.01760021
-0.019147137
-0.019059626
0.03481342
0.018211262
0.060600482
0.040883888
0.0036738496
-0.04933964
0.08628334
0.03060853
-0.113578595
-0.3778669
-0.049659546
0.19311541
0.007444702
0.05105966
-0.1006838
-0.0679727
0.0048036347
0.10099143
-0.02315845
-0.16705555
0.10624232
0.059733275
-0.17714703
0.013523278
0.08344144
-0.09925037
-0.050096843
-0.074181594
-0.022133563
0.056965988
0.068371646
-0.0059272195
0.013996497
-0.29866746
0.03822909
-0.021427363
-0.11831344
-0.035826515
-0.022143913
0.047057237
0.005314846
-0.0023699496
-0.23678371
0.06631203
-0.04465299
0.10290954
0.04162051
-0.050373573
-0.106523655
-0.14794351
0.097759575
0.015120271
-0.05253599
0.0075418414
0.010473731
-0.005888945
-0.10668651
0.07531061
0.06057398
0.05223858
-0.0054637124
0.17716627
0.034104306
0.067749105
-0.026686775
-0.019751495
0.014302946
0.024898944
-0.022547748
-0.16837202
-0.10107255
-0.18350121
-0.17192957
-0.026374927
-0.035382807
-0.0008214543
-0.10083816
-0.031395942
0.041954085
0.082969084
0.1040723
-0.06707263
-0.031652406
0.052948497
0.048825108
-0.07809175
-0.012703241
0.11684505
0.054462746
-0.028685942
-0.008683115
-0.03643212
-0.09012949
0.013980174
-0.100878194
0.026701717
-0.025501598
0.18403617
-0.072623834
-0.014644562
-0.08111853
-0.12342206
0.14559524
0.00026525557
0.0014126626
0.16911297
0.13588285
-0.10209302
0.080923796
-0.050382584
0.03165051
-0.00018819638
-0.0120541025
0.0812116
-0.06949292
-0.062177993
-0.00047872716
-0.111788265
-0.28906214
-0.06338624
0.015759757
-0.00887933
0.010738646
0.04126911
-0.12546979
-0.13671418
-0.17605358
0.1872474
-0.09482949
-0.02384985
-0.033749476
-0.060979106
0.10509862
-0.18173721
0.12758872
0.15829629
-0.012043727
-0.19272444
0.096138455
0.16146712
0.003683336
-0.025087584
-0.30395374
-0.1294958
-0.005694874
0.053231966
0.00024370916
-0.06655289
0.022437852
0.08102823
0.25854164
-0.044145677
0.049520113
-0.046468522
-0.40840718
0.061591685
-0.04018175
-0.26720145
-0.013928357
-0.024417033
-0.015910834
-0.08966027
-0.075205
-0.089194074
-0.15983078
0.083707996
-0.13941824
0.27030435
-0.085191466
-0.010264653
0.17511258
-0.27182993
-0.09001076
-0.22215581
-0.051447384
-0.066807896
-0.13980187
-0.015326902
-0.08339518
0.024623593
-0.012970332
0.05502873
-0.21267343
-0.033583146
-0.056978453
0.14643778
0.090796486
0.12370335
0.016705649
0.26415828
0.09337219
-0.21267793
0.12571834
-0.041774888
0.11219682
0.22788405
0.01967781
-0.009347812
0.00987044
-0.02992555
0.11252026
-0.11168959
0.22502668
-0.012567285
0.019449672
0.06971972
0.110963136
-0.057724234
0.060972076
-0.07613932
-0.012008841
0.003463484
0.20273142
0.12114853
0.1341498
0.06306579
-0.10029118
-0.024082895
-0.24721429
0.0037133798
0.011195712
0.015670279
0.09205819
0.0026798525
-0.027752228
0.33583
0.061835445
-0.07982358
0.08867547
-0.1050801
0.027038964
-0.008902367
0.030701889
0.039764486
-0.31874147
0.04686075
-0.06004579
0.08229805
0.01753087
-0.042477462
-0.014592649
0.047090136
-0.027576338
-0.0012211668
0.16792221
-0.014979103
-0.17808808
0.16676167
-0.15774912
-0.01392749
-0.29308945
0.023764214
-0.3023693
-0.04013666
-0.017987618
-0.017014356
0.103346676
-0.3641842
-0.08859197
0.023939261
0.093652956
