0
-0.020906895
-0.023182707
-0.056194264
-0.027944027
-0.08834826
-0.002902496
0.05114031
-0.0315935
-0.12039746
-0.041818958
0.01979917
-0.023334512
0.05243672
0.14260261
0.14090273
-0.007438054
-0.02146402
0.05063652
-0.03172465
0.14260775
0.044771213
0.07583367
0.11995473
0.0347994
-0.014667273
0.050133392
0.057708245
-0.026123635
0.075122766
-0.021795524
-0.07625056
0.021072427
-0.13611266
0.06416816
-9.84265e-06
0.031052226
0.06597521
-0.04656837
0.13484862
-0.039719433
0.106115356
0.13835464
0.06544068
0.16322829
0.06958971
0.07255125
-0.026119454
-0.017001128
-0.034794137
0.11697851
-0.027012084
-0.06978188
0.17458498
-0.06389375
0.032116994
0.11745113
-0.0053917775
0.0857263
-0.034231395
0.008210284
-0.071389124
0.030514251
-0.002924695
-0.03422091
-0.038580436
-0.0642624
0.09576346
0.060062595
0.09880805
-0.09577487
-0.0123489555
-0.12082562
0.05006153
-0.021906957
-0.0049976297
-0.05301073
0.12513518
0.097801514
0.014112726
0.012127984
-0.014288002
-0.035428695
-0.028210072
0.06445065
0.091710895
0.015375811
-0.037162248
0.03298973
0.010324226
0.047404584
-0.025177427
-0.042080864
-0.017535515
-0.026314408
-0.02983806
-0.025837973
0.0029611418
0.06473572
-0.05571561
-0.039181482
-0.10367333
0.0015062941
0.13609311
0.07174826
-0.014173085
-0.14381619
-0.012250973
-0.016625002
-0.080648534
0.056263726
0.08630213
0.020976264
-0.04537842
0.026160667
0.059811622
0.0674199
-0.057287175
-0.031798683
-0.053864446
-0.054531295
0.034182064
-0.07900279
0.03302284
0.031584334
-0.07313074
0.0027348911
-0.012621423
-0.16747516
