0,1,2,3,4,5,6,7,8,9,10,11,12,13,14,15,16,17,18,19,20,21,22,23,24,25,26,27,28,29,30,31,32,33,34,35,36,37,38,39,40,41,42,43,44,45,46,47,48,49,50,51,52,53,54,55,56,57,58,59,60,61,62,63,64,65,66,67,68,69,70,71,72,73,74,75,76,77,78,79,80,81,82,83,84,85,86,87,88,89,90,91,92,93,94,95,96,97,98,99,100,101,102,103,104,105,106,107,108,109,110,111,112,113,114,115,116,117,118,119,120,121,122,123,124,125,126,127
0.0030006832,-0.11769951,-0.08795885,0.14005539,0.055664737,0.09726952,-0.0666011,-0.2333703,-0.018925948,0.036719173,0.0379624,-0.016490247,-0.080748074,-0.026936322,-0.0113707045,-0.18886313,0.25186145,-0.11179999,-0.06778089,-0.009711429,0.057547327,-0.022316065,0.0087620085,-0.116568595,-0.082928166,0.20947999,-0.04947407,0.025899462,0.019709118,0.034025967,-0.07913585,-0.04163806,0.020139642,-0.010335654,0.027672034,0.09447867,0.0676355,-0.0059201494,-0.097101755,-0.03229304,-0.026639327,0.09826996,-0.024060447,0.1344648,-0.06668854,-0.11064379,-0.036364373,0.12087129,-0.013540995,-0.014465387,0.094321616,-0.18198578,0.17643979,0.017386852,-0.07738325,-0.04807423,0.14980043,-0.038098313,0.077041656,-0.014938714,0.009727195,-0.22399393,-0.20140629,-0.07993803,-0.08904655,-0.06592414,0.046502598,0.09118499,0.1434949,0.060061913,0.007362008,0.12589845,0.012536553,-0.028748732,0.220165,-0.040212903,-0.06688692,-0.11309736,0.14045282,0.04923912,0.14083327,-0.028969806,-0.03508018,-0.1242104,0.027501615,-0.054130413,0.15364215,-0.099278,-0.055148147,0.036870066,-0.26069918,-0.030917102,0.073931545,-0.029764447,-0.043535672,-0.024099756,0.06860479,0.03719143,0.04354402,-0.041216206,0.11180042,0.024642928,0.014564753,0.11603546,0.118055254,0.123766206,0.05625156,-0.06515795,-0.039980534,0.007645003,0.050593562,-0.028056744,-0.0661551,0.034004834,0.050304864,-0.058585737,0.029542081,-0.2025605,-0.07679304,-0.026652288,0.044255346,0.053420886,0.101425216,0.010669145,-0.07601319,-0.00010217721,-0.058504842,0.055520948
-0.088547446,0.07878982,0.13835356,-0.02811742,0.04095768,0.05641142,0.07195403,-0.19274978,0.08291207,0.02436114,-0.14749433,0.0528966,-0.27540985,-0.08919823,0.097762875,-0.16319509,-0.041339964,0.044620432,-0.12933005,-0.03434051,-0.11696699,-0.10074623,-0.11255619,0.06439411,-0.27460924,0.00077622297,0.053125627,0.12004823,-0.11129139,-0.053532254,-0.013745427,-0.26109108,-0.2800869,0.116117485,0.12230586,-0.06242011,0.19271845,-0.073493734,-0.044539373,-0.13699229,0.054046456,-0.12914617,0.12810755,-0.06513613,-0.07399529,-0.028348373,0.08990085,-0.04709982,0.18782064,-0.047768924,-0.037636403,-0.117871836,-0.07949471,0.014013257,0.0062120487,-0.02020416,-0.048298217,0.027926337,0.17810792,-0.10245741,-0.10140473,-0.10470648,0.021400778,-0.013209224,-0.09603087,0.10119949,0.08313689,0.15575452,-0.0031375801,0.056795023,0.19376011,-0.2197811,0.019562934,-0.017033352,0.12140195,0.010154586,0.07893954,0.06595318,-0.018305337,-0.031559546,-0.16155474,-0.09379999,0.0106206285,-0.037021726,-0.15122618,0.106573805,0.105237775,-0.11431177,0.05521476,0.15586747,-0.2627143,-0.09253189,-0.01769781,0.06995856,-0.14501867,0.0758432,-0.08399095,-0.050868426,0.0031736253,-0.015089434,-0.23718214,-0.17725216,-0.008429457,-0.01588815,-0.031583562,0.21391152,0.1253194,0.0016875595,0.139058,-0.048637222,-0.026288914,0.0853264,-0.030397138,0.08202273,-0.028711392,-0.032052893,0.11508339,-0.16244206,-0.28509954,0.1902791,0.028607296,-0.138637,0.17505135,-0.013402289,0.0004305602,0.010885053,-0.03654421,0.055399925
-0.046014093,0.05073287,-0.11826344,0.059123173,-0.15600586,0.011696994,-0.077129886,-0.23619321,-0.11475778,-0.053008452,0.07802062,-0.020749627,0.07865543,-0.014299743,-0.08623284,0.012054234,0.0004938358,0.052584372,-0.012556341,-0.07795984,-0.040761564,0.06264411,-0.015894702,-0.05162304,-0.009815782,0.060289208,0.075888075,-0.0580187,0.12036994,0.019255266,-0.079430185,0.025810622,0.056448847,-0.09152575,0.04868996,-0.18636774,-0.051209986,-0.11199687,0.13216807,0.0350387,0.039040256,0.04500573,-0.050456904,-0.2021688,0.02970791,-0.032049533,0.0024109862,0.042474207,-0.0031368486,-0.0023479664,0.07747029,0.008073907,-0.019662244,-0.0939664,0.0033356384,-0.052231215,-0.014500929,0.011666803,-0.00714045,-0.0071153515,-0.07153817,-0.08261475,-0.035101358,0.051582016,-0.008499116,-0.005098903,-0.080612935,0.03939607,-0.048289537,-0.021167986,0.016630914,-0.18821488,0.12120937,0.10964487,-0.009217022,-0.0673302,0.035487562,0.033581782,-0.031167403,-0.036273826,0.12292466,0.13036898,0.034815986,-0.051548522,0.09107311,-0.089881755,-0.009382203,-0.073064364,0.17293414,-0.1603486,-0.15243296,0.013085167,0.07858871,0.0687436,-0.08864886,-0.0003090161,0.016874958,0.0114773335,-0.15287681,-0.010779998,-0.09810503,0.02487991,0.06580582,-0.18703818,-0.06430492,-0.018757885,-0.16577944,0.02729056,-0.011455456,-0.08903199,0.05136218,-0.008931345,-0.07412999,-0.056492526,0.05096071,-0.0036967304,-0.06049183,-0.061029732,-0.12044886,0.06003759,0.07119133,0.051709592,-0.001088501,0.0836733,0.07270426,-0.058012687,0.08108154,-0.08098418
-0.09824601,0.01801069,0.07186993,0.088548176,-0.048736997,0.046830323,0.047806606,-0.077306665,-0.07920847,-0.06220654,0.1066035,-0.07911012,-0.11842472,0.016920334,0.064836055,-0.13906302,-0.0007839358,0.095896386,-0.008864729,0.15928692,0.21456577,0.038957726,-0.061427247,0.09309732,-0.21237332,0.06863569,0.07642678,0.035593778,-0.053138163,-0.012601925,-0.042181104,0.11525034,-0.19981173,0.12265206,-0.053119212,0.06985978,0.12045585,-0.05436858,0.013178826,-0.19011006,-0.0006542573,0.03812088,0.059890587,0.099195205,-0.03962601,0.02229294,0.061638515,0.018874353,0.11421205,0.036879245,0.014345272,-0.06325692,-0.06543358,0.15298441,0.09192722,0.11148047,-0.05928436,0.06811748,0.11575124,0.04993039,0.025401458,0.058208227,0.09876675,-0.23614328,-0.07811262,-0.015567967,0.041408665,-0.022630785,-0.044717528,-0.059143707,-0.04403896,-0.2053831,-0.05080411,0.037068628,0.04302234,0.097988665,0.08797774,0.034064963,-0.00014132142,-0.13371529,0.14574337,-0.045791697,-0.03575576,-0.06280989,0.08427721,0.047006004,-0.020434411,-0.021305034,-0.050076973,-0.0075169946,0.087623246,-0.051118188,0.040060557,0.047879923,0.009052309,0.069384165,-0.11546181,-0.13570721,0.04498092,0.0102052735,-0.105353996,-0.19312698,0.09547715,0.06005745,-0.24398103,-0.06212817,-0.13961828,-0.022754937,0.06951391,-0.025394136,0.006284906,0.06708527,-0.04910853,0.08113673,0.061418705,-0.058037825,-0.036508225,-0.109519,0.05227141,-0.11083191,0.047313005,-0.057848997,-0.0685301,0.048010062,0.088914424,-0.0055058156,0.07913521,0.016792018
-0.20754342,-0.012359599,-0.07726169,-0.12275395,-0.16995966,-0.013661179,0.08421556,-0.16192782,-0.026699299,-0.18963501,-0.012308714,-0.049857773,-0.29160142,-0.12773111,-0.0927901,-0.09874828,-0.09934372,-0.049953222,-0.17924266,0.019288115,-0.09260305,-0.045302548,-0.045816496,0.05749082,-0.11412778,-0.0733247,-0.053503823,-0.021796536,-0.022728177,0.08049142,0.054363962,-0.11721342,-0.20699407,0.11611478,0.016630918,-0.14267707,0.094489954,0.12755126,0.011504809,-0.04101824,0.13922241,-0.034881543,-0.0064575067,0.08162945,0.18992639,-0.0003156964,-0.014169469,-0.04322468,0.16612771,0.09877236,-0.20428877,-0.17690958,0.017520996,-0.110582754,0.14909162,0.053111847,-0.0051567117,0.07091974,0.28965077,-0.03207402,0.16736531,0.026942238,-0.017666284,-0.08784693,-0.15150706,-0.0007198606,0.14869188,0.13761646,-0.020223958,0.11956995,-0.1840131,-0.07941974,-0.01127117,-0.18380278,-0.0590616,-0.118662566,0.057413124,0.009251801,-0.022091115,0.021295004,-0.033827662,-0.09463446,-0.062364195,-0.030412162,-0.015302589,0.105992384,0.13041642,-0.09660074,-0.035775926,0.0727062,0.020297477,-0.05338922,0.14373486,-0.11890456,0.047804315,0.066515915,0.02767411,-0.0045699365,-0.097490735,0.076020256,-0.24056497,-0.0060650655,0.06877615,0.04751838,0.028762538,-0.04738382,0.052346226,0.13139965,0.057259466,-0.13734639,-0.0205251,-0.043186307,-0.013200208,0.013130887,-0.030897042,0.10386329,0.0021391346,-0.10005595,0.046544947,0.081719,0.10325366,-0.0065132463,-0.010617059,-0.14394683,0.015323769,0.12890846,-0.09055196,0.041387822
-0.31140667,-0.20497085,0.14368345,0.0933073,0.13242061,0.06069004,0.098961405,0.034583036,-0.052188702,-0.027463295,0.0845908,0.05372288,0.13499662,0.10482804,-0.071904264,0.126327,0.1541327,0.041948304,0.06651482,0.008062913,0.098400794,-0.009574889,-0.13122986,-0.030582774,-0.011203848,-0.16189916,0.07392729,0.18377458,-0.15498567,0.19349694,0.07885343,-0.02120906,-0.14426722,-0.009284562,-0.13308181,0.13077322,-0.140415,0.004183495,-0.026608298,0.06879742,0.02656532,-0.09437526,-0.053989876,0.06067841,-0.032359414,0.073938765,-0.0011552338,-0.0017656646,-0.028212493,0.022943055,-0.024891347,0.07514576,-0.13391483,0.035642948,-0.04919997,0.072985016,0.073869854,-0.05955188,0.11356003,0.012352041,0.06830786,0.03292056,0.075314835,0.0020021633,0.004087138,0.002578165,0.14980783,-0.062131163,-0.008913045,0.06579962,-0.103414975,0.067920424,0.020757774,-0.15374987,0.053145308,-0.00051896326,0.29791987,-0.074254654,-0.060797255,-0.03793286,0.15409592,-0.025155513,-0.14531793,0.21993446,0.104914784,-0.13700706,-0.0022223424,-0.060101394,-0.11653415,0.1432666,0.10621496,-0.09902665,0.22323982,0.15436679,0.026655758,0.06624441,0.04621994,-0.18631819,-0.025853103,-0.10551376,0.25680694,-0.032833647,0.09721468,0.14004913,-0.22423145,0.05870671,0.04006376,0.16279407,0.05014776,0.12962165,-0.14919586,-0.11484951,-0.11062176,0.0018375433,-0.06901488,-0.07406079,-0.012672338,-0.09742038,0.022758983,-0.03567521,0.023111863,0.07918682,0.030987002,-0.106595024,0.022890197,0.14299816,0.029546088,-0.23750837
-0.031261034,0.023120545,0.0847074,-0.030944021,0.060375486,-0.03596404,0.10907168,-0.13368697,-0.21738374,0.036859572,0.0044202544,-0.13467094,0.04295733,0.14630407,-0.12870114,-0.1528546,0.06406017,-0.15243442,-0.0015055495,-0.1563584,-0.016079657,0.07426422,-0.09985202,0.034181632,0.043701846,-0.010663189,-0.013317131,-0.029548174,-0.19781347,0.054153424,-0.02008666,-0.21770242,-0.14477158,0.036553435,0.13294166,-0.07508686,0.058733862,-0.071350574,0.013370765,0.010459955,-0.067911886,0.20299777,-0.08047758,-0.06362353,0.15419629,-0.085651375,0.13018303,-0.262046,-0.104850575,0.04489778,-0.051059984,-0.10062161,0.16137542,0.0010246456,-0.04072255,0.03166223,0.0056976182,0.084785946,0.21861666,-0.22486964,-0.15313664,-0.009350665,0.029406838,-0.06854204,-0.027515922,0.05593451,0.13945144,-0.02396156,0.051351387,0.032067653,-0.095339365,0.09573757,0.10264201,-0.0587624,0.04224236,-0.11600706,0.09928635,0.0860662,-0.11611076,0.15680388,0.07597574,0.08435193,0.009868596,0.08263148,0.1823491,-0.11223403,0.13864815,-0.13120532,0.05589537,0.15542062,-0.04749296,0.04688052,0.054562915,-0.028273769,0.06505498,0.15365937,0.05541685,-0.048514806,-0.09863064,-0.09198962,0.030385291,-0.11437435,0.023420732,0.043473028,0.050488472,0.2027501,-0.094166055,0.12879415,0.02105997,-0.007784594,0.03730211,-0.11457272,0.006303619,-0.0584143,-0.032124218,-0.2715876,0.16071618,0.014146525,-0.03804041,-0.06305294,-0.05557444,-0.019195693,-0.12992744,-0.1319992,0.048329167,0.35091853,-0.16541472,-0.09262601
-0.10005321,-0.04511029,-0.0250703,0.07537019,0.0278585,0.1224135,-0.08228517,-0.020711679,-0.026427578,0.03293725,0.034659088,0.082449436,-0.0045831455,0.1194318,0.016413199,0.036822982,0.15298517,0.008104678,-0.02636035,0.15105513,0.11986255,0.11386659,-0.023071123,-0.08870464,0.011213318,0.12997985,-0.061536502,-0.04766366,-0.023033947,0.006372325,0.043276813,0.061351042,0.026072875,0.071072556,-0.030412773,-0.06968608,0.042861976,0.13050382,0.12250697,-0.107689835,0.044019353,0.1352896,-0.087353766,0.0021997772,0.004070565,0.009972417,0.11196035,0.07707615,-0.08774804,0.02833617,-0.04159249,0.098410316,0.1580403,-0.068466604,-0.054967545,-0.08282627,0.09207499,-0.18056118,0.024293492,-0.014996222,-0.019073125,0.10275149,-0.13033934,0.009607902,0.0187304,0.030091083,-0.07830484,0.15396985,-0.14468595,-0.09511696,-0.13778986,-0.008343379,-0.035463862,-0.08625518,0.11882801,-0.020993847,0.016138451,0.0027235774,-0.06362523,-0.060775995,0.17876944,0.020571262,0.06303935,0.025944695,0.08133855,-0.042791586,0.15704064,-0.20839679,-0.116745174,0.050126597,-0.0044670487,-0.05644319,0.07383363,0.06691087,0.017844964,0.0666421,0.1571205,-0.0218342,-0.032796703,-0.07690325,-0.02401654,-0.0907132,-0.091943406,0.059005536,-0.06657293,-0.040221076,0.044338126,0.08437427,-0.26677057,-0.08981843,-0.03470948,0.081709266,-0.00014748728,-0.016968274,0.22977947,-0.0953859,-0.13649556,0.031090725,0.046124954,-0.06384167,0.10965425,-0.018841384,-0.017292915,0.052311562,-0.024154205,0.0015449899,-0.10918665,-0.16796605
-0.029712597,0.05696088,-0.16127929,0.12505218,0.0941631,0.05911483,0.08973854,-0.060623307,0.058956772,0.15014389,-0.035918016,0.055437054,0.080798276,0.15670367,0.0017514316,0.013673132,0.12537123,-0.09334362,-0.018171998,-0.1422343,0.13414693,0.14693867,-0.14909028,0.0033041611,0.22915219,-0.04293676,-0.06953335,-0.09954973,-0.096057,-0.029609106,-0.076269075,-0.23001944,0.09916434,-0.02744221,0.12651877,0.15601915,-0.028719405,-0.10795133,-0.04288703,-0.09069425,-0.23612522,-0.021221494,0.11444653,0.076543495,0.0138846915,-0.08528754,0.046527434,-0.060644723,-0.16357549,-0.23514909,0.17664556,-0.05906944,0.15570885,0.10611096,0.04535594,-0.13496636,-0.18148336,-0.022333656,0.016922457,0.101952374,0.11249554,-0.024901763,0.078097396,0.24348304,0.03219739,-0.009451627,0.1896064,-0.16065386,0.17423521,0.13730505,-0.001680059,0.053941086,0.10071615,-0.1575159,-0.009352417,-0.12414688,0.026258549,0.024309361,-0.008535209,0.21187498,-0.07277666,0.07299394,-0.10841447,0.047443938,-0.085569926,-0.09832358,-0.13649209,-0.07287058,0.059434656,0.0879593,0.03255736,0.08330224,-0.14550997,0.13585542,0.017286371,-0.13982593,0.06241517,-0.008094169,0.04420203,-0.05488237,-0.09657591,0.07924709,-0.045112014,-0.10998614,0.037903607,-0.07534263,-0.072276026,-0.0110258255,0.09940125,0.030764433,0.21182476,-0.02568544,-0.17454652,0.23117334,0.13933544,0.17282885,0.027266648,-0.09717449,-0.04196099,0.09254866,0.027091539,0.061678037,0.14873305,0.102804966,-0.08917314,0.029813057,-0.07060718,0.109481595
-0.0087513365,0.05053771,-0.014501805,0.005908885,0.014805894,-0.0056687673,0.010775072,0.0020363075,-0.02220534,0.024576075,-0.016831454,0.029126892,0.033960693,-0.010635899,-0.05598435,0.009208821,-0.025002757,0.061805326,0.003690532,0.015678221,-0.055988267,0.019607443,-0.050033405,0.015316156,0.03688362,0.017132422,-0.018987484,0.013591492,0.04552925,0.019075615,0.006513596,-0.029734034,-0.01178746,0.03425354,-0.020750092,-0.008972031,-0.058370113,-0.031247785,0.010097882,0.033498034,0.023068752,-0.042430278,-0.035047513,0.024404207,0.042736053,-0.057882454,-0.00251195,-0.0031276841,0.038314894,0.042000122,-0.016431844,-0.027057879,-0.012093723,0.0013010381,0.03677547,0.023794953,-0.033582408,0.023296976,0.02213201,0.009451735,0.018605173,-0.059477605,-0.031385507,0.018568514,0.03546535,-0.028832275,-0.042693097,-0.050708577,-0.046755467,0.0050324677,-0.04605367,0.0007346968,-0.032092776,0.037760783,0.030360457,-0.037192464,0.0034966557,-0.028112354,-0.03555303,0.009079919,0.02566756,0.004837029,-0.016064242,0.047072165,0.030608518,0.04789369,0.0034034378,-0.06705708,0.015517915,-0.041978,-0.034374543,-0.002493555,-0.04831607,-0.036631674,-0.024595363,0.038188353,-0.006622198,-0.047604308,0.027605219,0.010096019,-0.014131204,0.017847205,-0.016137475,0.032609455,0.0183802,0.008979277,0.0015787986,0.0052614305,-0.0063411347,-0.041868668,0.05177934,-0.023305668,-0.044236258,-0.012929866,-0.03692539,0.06973318,-0.03905137,-0.027137931,-0.045582615,-0.014510457,-0.052886356,0.015025498,-0.014941326,-0.012078249,0.04635263,0.055175632,0.05799013,0.005868198
0.19725898,-0.19936699,-0.13720801,-0.029315805,0.047581743,0.16069439,-0.15439406,0.13593751,-0.049787283,-0.21721387,0.11436556,-0.015002115,-0.015745541,0.09651252,-0.07244788,-0.030352222,-0.089870855,-0.08713104,-0.24178775,0.025998369,0.1380774,0.063802935,0.04912735,0.040472306,-0.070923634,-0.16819243,-0.015910584,-0.106638186,-0.017308885,0.20667532,-0.11431442,-0.288331,0.17272474,0.05739479,0.02139075,-0.035274692,0.0376559,-0.04531597,-0.1155798,0.031362206,-0.017443467,-0.031179233,0.09138464,0.1368692,-0.07916717,-0.16128623,-0.1692337,0.11449304,-0.19396283,0.12690423,-0.016527303,-0.031625498,0.10119375,-0.01763055,-0.10934587,-0.028979661,0.2557308,0.07914929,-0.058915835,0.028480574,0.017601842,0.2627025,-0.24513847,-0.103288636,0.012258356,-0.018702297,-0.0698636,-0.0886638,-0.039833702,-0.0005484916,-0.17401625,0.2313054,-0.017325334,0.16902916,0.03354079,-0.057672035,-0.1313458,-0.085818596,-0.09248271,0.08915471,0.09223609,-0.07420392,-0.14491901,0.14693865,-0.02578754,-0.075006485,0.1166521,0.15846485,0.11942159,-0.13223673,-0.15015814,0.15027428,0.011364931,0.09167337,0.21553104,-0.0971495,0.19851367,-0.09223655,0.099134184,-0.045461677,-0.030390015,0.2152168,0.0731756,-0.057028383,0.1501878,-0.0722634,-0.10865182,0.06792918,-0.24279866,0.015541324,-0.13271941,-0.10998447,-0.060324844,-0.12460352,0.113688484,0.017838065,0.036986705,0.15615198,-0.0016914859,-0.21565312,0.32466164,0.322058,-0.23394446,-3.788396e-05,0.046820574,-0.04711227,-0.1745351,0.101192884
-0.09758628,-0.037194774,0.07269734,-0.029233912,0.0015394066,-0.085743524,-0.039368574,0.08264237,-0.08819114,-0.09964375,-0.07032194,0.0073127463,-0.09741022,-0.024152715,0.05146675,0.13680716,-0.08820734,0.08499747,-0.26103616,-0.043505453,0.12001115,-0.24973923,-0.20270914,0.0129079325,0.03210042,-0.008668069,0.11213625,-0.050140962,0.12098175,0.051523358,-0.08989019,-0.042383254,-0.22790782,-0.011332919,0.19333805,0.07625692,0.16501382,0.07787103,-0.11513673,-0.0032365185,0.03868297,-0.049518876,0.120317124,-0.123638526,0.13738288,0.08989841,0.00939889,0.037006352,0.021384763,0.028675318,0.08834429,0.031578664,-0.0267293,-0.021789288,-0.09188256,-0.0008957179,0.120047815,-0.13038772,-0.021287339,0.1307912,-0.13584973,0.13846816,-0.047027554,-0.05311388,-0.16203889,-0.15986794,-0.13582653,0.13582437,-0.16098845,-0.066840276,0.07864259,-0.0069618165,0.045099568,0.1910052,0.30260593,-0.08979086,-0.061550375,-0.19258304,0.06631514,-0.2702029,0.06791728,0.03653053,-0.03963512,-0.03583081,0.018223787,0.11338508,0.08829079,0.11420749,0.14387424,-0.023856511,-0.030995542,-0.14418705,0.12557311,0.109328076,0.09568656,-0.011583242,0.0124552585,-0.16937028,0.10040109,-0.032235473,-0.07424871,0.02388232,-0.008523562,0.02781027,-0.17008904,0.24267878,0.046969768,-0.07447763,0.065314725,0.13661245,0.015776664,-0.04110689,-0.14254753,-0.12751834,0.14246523,-0.011870531,-0.13559279,-0.018770633,-0.32378796,-0.04077936,0.020035533,-0.025444338,0.13189268,-0.018436251,-0.0350706,-0.0011509169,-0.1146798,-0.039473597
0.03381098,0.12893504,-0.05368683,-0.075422965,0.07059361,0.097490124,0.07141506,-0.119299345,-0.06488899,-0.026273808,0.10660156,-0.06375285,-0.00947555,0.05967739,-0.075849935,-0.072453104,-0.021415725,-0.12259038,-0.12837474,-0.04236848,0.0724135,0.05454568,0.007854409,-0.04736744,0.13396378,-0.13946031,-0.15380213,0.095854945,-0.0892864,0.0027144921,-0.016597128,-0.10555166,-0.10083472,-0.0038607318,0.11388205,-0.026883718,0.12930143,-0.02301261,0.012032257,-0.13395688,-0.14299098,-0.064281344,0.048410736,0.028910149,0.0022264936,0.07059327,0.060505398,0.02224784,5.4204025e-05,-0.02127769,0.15966088,0.026282648,-0.037093684,-0.068886384,-0.0104955165,-0.16120067,-0.046277855,-0.021848848,0.10668677,-0.14229141,0.028075662,0.06421921,-0.051824015,0.092149384,-0.0932906,-0.0959815,0.14679681,0.1502717,0.22238979,0.08893039,0.10355508,0.020991202,0.10712721,-0.07948601,-0.047710832,-0.1993982,0.00936304,0.03734309,-0.03974695,0.087093376,-0.08128958,0.015271466,-0.04251886,-0.061161652,0.050102238,0.035583276,-0.025238274,0.07011225,0.09025845,-0.00830707,-0.23560166,-0.049301155,-0.034465663,0.1290838,-0.15867452,-0.015405572,-0.034201916,0.02519191,0.06569359,0.056681246,-0.1853274,0.19575745,-0.12118804,-0.07983782,-0.0615283,0.020087043,-0.004268275,-0.025873173,0.043877244,-0.095037445,0.11602637,-0.04926811,-0.0784195,-0.028621724,0.06199076,0.09230538,0.12101916,-0.20479898,0.042205907,0.10486129,0.16533765,0.011097202,0.2641297,-0.06070859,-0.17350471,0.040823076,-0.04741968,0.07642422
-0.14588717,-0.06478602,-0.0025516725,0.008751158,-0.02279933,0.11531686,-0.14205506,-0.0050932374,3.6539568e-05,0.10221512,0.022079686,-0.094579205,0.047663845,0.20904657,-0.15081081,-0.08192105,0.2245548,0.18893155,0.16751222,0.11660388,0.12351218,-0.008889602,-0.03264801,0.12008933,-0.08090095,-0.25552458,0.1584581,-0.0385384,-0.040427487,0.14755565,0.16226159,0.18959157,0.24555783,0.1407476,-0.35407555,0.033490643,-0.16816907,-0.05626683,-0.051450197,0.04465796,0.0769964,0.028355185,-0.04337364,0.31168443,-0.12690511,-0.027740158,-0.23485535,0.07216009,-0.059900846,-0.063098714,-0.00057156815,-0.11366168,0.07471889,-0.119786255,0.08890499,0.112121195,-0.019900711,0.053953856,-0.04794197,0.26057586,0.20147856,-0.16135553,0.09688241,0.00011555638,0.1714908,0.019294912,0.1969518,-0.21108536,-0.3018228,-0.082223915,-0.20478009,0.113726646,-0.07941222,-0.14905679,0.03612575,0.21601407,0.13997772,-0.10213093,-0.066333525,0.070438825,0.092412464,-0.16070957,-0.1444204,0.079455614,-0.0027427578,-0.09466479,-0.19052663,-0.17812486,-0.3344729,-0.16735172,0.21920037,0.12843305,-0.011734511,0.07891704,0.040609356,0.07973838,0.1268816,-0.16254851,0.07231706,-0.060604133,0.18719567,0.04091855,0.21599649,0.14752775,-0.050786313,0.08293784,-0.066946544,0.028396096,-0.040553052,0.21023922,-0.04845698,0.07961935,0.0145406835,0.17421456,-0.24839649,-0.037619848,-0.14154875,-0.16271584,0.049543094,-0.07321406,-0.05967044,0.060366444,-0.13730708,-0.025155762,0.1560713,0.042245537,0.029018853,-0.12990439
0.041020006,-0.03466643,0.067051895,0.020010421,-0.034529693,-0.05583291,-0.0037785554,-0.15158294,-0.0890118,-0.019297704,-0.16095534,0.050740648,-0.1345656,0.08076336,0.010122747,-0.033630565,0.060912587,0.098403536,-0.027084596,0.013611236,-0.07764455,-0.12532276,-0.03187449,-0.038392622,-0.08032991,-0.02502298,-0.017830782,-0.015336034,0.066816874,0.04984408,0.09277742,-0.059309993,0.039795205,0.08458864,-0.24149984,-0.12991728,0.109987654,0.06232078,-0.03159641,0.0795272,-0.078381516,0.028473,0.010834252,-0.09189926,0.1473594,-0.048306443,-0.031551912,0.14923084,-0.028780745,0.21520099,-0.12245911,-0.017168898,0.07872443,-0.12746637,-0.030786674,0.079478286,-0.0075732144,-0.123871274,0.0031382258,0.10441536,0.012499044,-0.06042745,-0.07622741,0.15081681,-0.0035491383,-0.11952651,-0.0005675082,0.056664832,-0.032141875,0.07284438,-0.18099754,-0.016272677,0.020354457,-0.23292473,0.03514254,0.091354035,-0.11617403,-0.007596382,0.13102828,-0.058290847,0.07835276,-0.11241811,-0.07162618,0.11720995,0.053328287,-0.077072725,0.017639626,-0.06930803,-0.10912589,0.013707737,-0.10102004,-0.033052363,-0.08278541,0.029502824,0.12334481,-0.107283644,0.16253889,0.06364459,0.033212546,0.055051494,-0.086425014,-0.07323752,0.0242349,0.08562195,0.05123831,0.07018446,0.032689966,0.07492493,0.031399086,0.10527198,-0.05994293,0.13717373,0.16075797,-0.18271661,0.1616221,-0.011283916,0.06678082,0.07320539,-0.11704263,-0.17758992,0.019267572,-0.0004141042,-0.017583763,-0.024317669,0.13626778,-0.026595246,-0.012255164,-0.078336395
-0.03587612,0.061779175,0.003869276,0.06647643,0.1658847,0.07110689,-0.054896194,0.06418424,-0.047035202,-0.117000155,-0.032134257,0.08605312,-0.047184266,0.20336202,-0.13208468,-0.13733017,0.27558035,0.038561076,-0.0068004956,0.15766965,0.0801915,0.018128231,0.11541217,-0.10789821,-0.17297666,0.07716128,-0.031844933,-0.18617521,0.011082159,0.04810919,-0.06801439,0.14572938,0.10673731,0.16645543,-0.20289199,0.16054969,0.161692,0.050245438,0.0719204,0.05784208,0.16017115,-0.051332794,0.03176552,0.11879892,-0.057029117,-0.113485515,0.016712463,0.14144908,0.06801021,0.02500761,-0.012213733,-0.0009866193,0.024720155,0.053241882,-0.15656659,0.011261545,0.11261833,-0.07621869,0.06258446,0.14760679,0.1352437,-0.008111594,0.007999064,0.025567614,0.018291222,-0.023988487,0.07068324,0.045231868,-0.09143289,-0.12032674,0.0013826771,0.115704395,0.076536536,-0.13697535,0.020531034,0.0065575573,0.03596238,0.0036662214,0.06710927,0.08254292,0.15970582,0.0268299,-0.012593313,0.013123095,0.03665053,0.102983095,0.038025573,-0.1263897,-0.14437671,-0.05647179,0.082146466,-0.041230466,0.0060298154,-0.06404868,0.060106445,-0.03071976,0.10571684,0.0972503,0.15363555,-0.0067888806,0.052674748,0.072062865,-0.0059517287,0.15025441,-0.03200401,-0.11089069,0.04153413,-0.11604642,-0.031241583,0.016239626,-0.057731956,-0.04490415,0.14007294,0.1534887,0.12248678,-0.049260184,-0.013051064,0.016584437,0.05219827,-0.20759264,0.10908445,0.054155316,-0.1491666,-0.065302886,-0.038838528,0.042205766,-0.0314729,0.020012615
0.009588279,0.05033624,0.0261483,-0.0510608,0.04371889,-0.01803661,0.05316187,0.0064114644,0.011050353,0.035260756,0.04821705,0.05056924,0.029417811,0.033875898,-0.032975268,0.001453078,-0.042771634,0.014284734,-0.02520909,-0.040700946,-0.040688153,0.014791423,0.055932377,0.0054789744,0.031851247,-0.03915891,0.02817435,-0.007890526,0.011524448,0.015481273,0.027667994,0.047164243,-0.015775627,0.0006497341,-0.046355292,-0.051110003,0.0114952335,0.00380383,0.04102023,0.034798365,0.031882305,-0.008651771,-0.030513398,-0.03066305,0.0072282627,0.02782179,-0.037485506,0.053653557,0.05585112,0.014532813,0.025854377,0.027772587,0.028883774,-0.0075471275,-0.033720348,-0.0440972,0.023999095,0.01991904,0.0236652,0.0035525223,0.009590376,0.032213833,0.028743418,0.02724427,0.0038144256,-0.044172805,0.0047196066,0.0068446165,-0.0014494435,0.04120563,0.023260556,-0.008198141,-0.04523274,-0.012032245,-0.019570472,0.03697939,-0.0031348597,-0.0107318275,-0.022500161,-0.04059118,0.024540475,-0.030086698,0.0334224,-0.044019327,-0.012898077,0.018405039,0.051030833,0.028247526,0.043388367,-0.025846057,0.04716053,-0.033115026,0.020283422,0.04567431,0.029059146,-0.00090469397,-0.021749819,0.07095249,0.030857027,0.0050947824,-0.048237007,0.04550084,0.015281723,-0.048381012,-0.04314322,0.0088556465,-0.03649186,-0.043122135,0.012806617,-0.04293215,-0.022675397,0.03022117,-0.0344502,0.04174899,-0.05607797,0.015504917,0.011484413,0.051446017,0.020838326,0.010494635,0.04370133,0.041988745,-0.033135917,-0.0059887436,0.0023970965,-0.00498423,-0.03712991,-0.011140888
0.16818812,0.04405403,0.1045954,-0.14338183,-0.010344867,0.0153187895,-0.20104948,0.03442274,0.030816033,-0.031438358,-0.07301595,0.11388204,0.30616537,-0.016100775,-0.054430846,0.1998132,0.14706679,0.0786172,-0.02511542,0.106055655,-0.06412344,0.021423152,-0.013891775,-0.018904524,0.06980938,-0.07100135,0.14951317,-0.09989174,0.17668413,0.12949666,0.087693095,0.16920319,0.42690554,-0.027798465,-0.022544144,-0.087955914,-0.025404425,0.053303443,0.03259503,0.08220282,0.03916487,-0.029414428,-0.04854797,-0.13609923,0.10823432,0.12247684,-0.007128185,-0.16527158,0.012435328,0.098389916,0.08273519,0.018436054,0.08060763,-0.15991384,-0.23242071,0.039593894,0.01061507,-0.07191944,-0.031904362,0.23396964,-0.104618736,0.18219511,-0.02729528,0.05383315,0.22282745,0.012848853,-0.14363486,0.13577884,0.12177896,-0.3231226,-0.04537003,-0.14774114,0.056339372,0.013622545,-0.08883888,0.08523497,-0.07569191,-0.044085793,0.119889274,-0.16750373,0.2044472,0.06969498,0.023270147,-0.02805778,0.092764676,0.057134174,-0.12629269,0.071296945,-0.064848125,-0.09054862,0.0678473,-0.06512597,0.15707354,0.019593257,0.14372997,0.060194474,0.04190224,0.29750532,0.09782506,-0.16980615,0.053157195,0.19624552,-0.0032818085,0.20029351,0.064466044,-0.20052059,-0.111683205,0.004586028,-0.13548057,0.026990337,-0.27177513,0.24617763,0.030161357,-0.113721885,-0.21446998,-0.1196998,-0.017952275,0.057762664,0.00026687636,-0.17877354,-0.0012471266,0.09833353,0.023143165,0.07637981,0.0926922,-0.25570542,0.13730933,0.02849834
-0.0021841542,0.09070209,-0.049042236,0.03469501,0.032497507,0.0058221747,0.022361869,0.0009271615,-0.122312635,-0.043854024,0.04656966,-0.028961053,0.026300091,0.08069472,0.010758543,-0.042598475,-0.0076795337,-0.04639789,-0.081510946,0.15781522,0.032601405,0.07550168,0.14233649,0.0053536096,0.096752755,-0.066726856,-0.123915754,-0.021886578,-0.060731683,-0.11745475,0.14852397,0.23244026,0.11769612,0.23049098,0.0027953023,-0.033704847,-0.011214399,0.062070217,0.06576505,0.14090468,0.043207917,-0.040723193,0.08519007,-0.024006158,0.04031793,0.08171048,0.077929765,0.11115043,0.03392249,-0.0068995133,0.04619179,0.07064786,0.017792903,-0.03499122,-0.11476889,0.068654075,0.0016623958,-0.041137997,0.02811122,0.062065877,0.17261009,0.03777138,0.03530447,-0.039575055,-0.045051374,-0.10592611,0.022221167,0.052896492,0.031268947,-0.08592535,-0.116866656,0.068436764,0.055053845,-0.10627162,-0.20225903,0.037180454,-0.06042825,0.09011594,0.03254635,0.12016477,0.023543581,-0.09176975,-0.0068623614,-0.12088214,0.06618907,-0.049552213,-0.100663505,-0.07321849,-0.14753176,0.015011178,-0.0009831596,-0.13477767,0.011945605,-0.13400349,0.08442762,-0.039949406,-0.043214317,-0.03277338,0.024036147,0.017079128,0.04900369,0.10738227,0.04373272,0.08731361,0.0045977044,-0.1496939,-0.0057299216,-0.07652199,0.03543346,-0.13586858,-0.093221314,0.12257919,0.13458236,-0.10418957,-0.11188253,-0.031071642,0.022779869,-0.008942255,0.17805213,-0.13355298,-0.055974297,-0.025899844,0.05171065,-0.13755941,-0.08624503,-0.008448543,0.018075125,0.06802881
-0.07505556,0.011863432,-0.12889268,0.17749871,0.14690515,0.19450241,0.04239787,-0.18625352,0.03523095,0.070241235,0.07284465,0.0028346549,-0.011403429,0.2887222,-0.20527807,-0.06992632,0.13681206,-0.2524504,-0.2651387,0.018023126,0.22397,-0.013581931,-0.091083124,-0.14937702,-0.13900226,-0.10065521,-0.061311774,-0.024448525,-0.16961986,-0.08939975,-0.07616627,-0.35116237,0.04281233,0.24207468,0.18558,0.1334483,0.20258123,-0.10420932,0.059303932,-0.19516006,-0.17942782,0.15351237,-0.055402763,0.21407293,-0.06417203,0.01974448,0.06105741,-0.12743235,-0.005911491,-0.034413517,0.2138287,-0.12849039,0.11900426,0.013103751,-0.20536211,-0.112919964,0.06475212,-0.020374266,0.09327896,-0.20961903,-0.16634652,-0.06892416,-0.23692349,0.12006941,-0.04503195,-0.055086907,-0.06214057,0.18880132,-0.006638451,-0.05199512,-0.050668046,0.20522122,0.18647921,-0.00072066265,0.2846725,-0.029353771,0.15117183,0.019175656,-0.009065559,0.09054886,-0.04706622,-0.17372647,0.087232925,0.08056401,-0.060754135,0.08711037,0.19215699,-0.05606267,-0.08175937,0.093092166,-0.33852237,0.010971938,0.00095553254,0.16979998,0.06542821,-0.027644886,0.10942909,-0.13391097,0.04521989,-0.05302829,-0.014925795,0.033818528,-0.04911997,0.06047051,0.08440575,0.19367293,-0.053102728,-0.16716488,-0.044178512,-0.03322944,-0.0010292276,0.0049745007,-0.116206445,-0.057090245,0.2577375,-0.06626523,0.09688752,-0.033000413,-0.019201359,-0.094105974,0.34592333,-0.056166288,-0.022883998,-0.096247636,-0.0641709,-0.1493314,-0.25351545,-0.055523146
0.009271562,-0.0048511014,-0.010334828,0.13092446,0.06005295,0.06966056,-0.12616047,0.18152678,-0.084181555,0.13741274,0.090231985,-0.10674993,-0.020573221,0.06922473,0.049401507,0.08000073,0.04683964,0.00404215,-0.02601256,-0.021929039,0.038725663,0.06420143,-0.03969175,0.026441049,-0.06014965,-0.03275703,0.062167622,0.035892688,-0.07297142,-0.02317401,-0.01393104,0.05611918,-0.035117097,-0.1258318,0.08456689,0.06277322,-0.034950655,-0.08818614,-0.0141150355,-0.14553319,0.029783918,0.07176784,-0.13939357,-0.018377839,-0.026171053,0.036497608,0.12702316,-0.10783568,-0.14486866,-0.043984264,0.06846851,0.028526364,-0.09292667,0.10762018,-0.074518286,0.002204236,0.13949715,0.023366839,0.03880023,0.012277063,-0.08045665,0.1387317,-0.018106211,0.06400435,-0.03288209,0.10495788,0.013076035,-0.08212303,-0.044653438,-0.2107359,-0.07434228,0.12916026,-0.060217205,0.05516048,-0.0039816666,0.03542178,0.17398337,-0.0422101,-0.06713296,-0.11822438,0.0736738,0.1866683,-0.06720028,0.037139382,0.07302452,-0.07514399,0.1549199,0.01889128,0.09644371,-0.0148170395,-0.047132418,0.13225164,0.053270094,0.19620991,0.10086848,0.042704716,0.07937676,-0.06851751,-0.14632568,0.11174834,0.22161335,0.04015017,0.011391982,-0.06498719,-0.09042473,-0.051233977,-0.17061682,0.01061998,-0.19906668,-0.062131144,0.11285748,0.048728444,0.019660551,0.11289757,-0.012229798,-0.019253915,-0.035752963,0.111483514,0.06022601,-0.14069258,0.07638674,0.078018025,-0.036798645,-0.13362464,0.022752421,0.010201019,-0.06528391,-0.07663021
-0.0294571,-0.07947883,0.03832933,-0.029706547,-0.069839254,0.027942855,-0.22594579,0.111846134,-0.10329157,0.026262391,-0.0059231706,-0.06413592,-0.1613701,-0.06206063,0.06956096,-0.089146115,-0.06439315,-0.004024068,0.0021529805,-0.03603446,-0.11115052,0.011916353,0.13739048,0.067147,-0.11467389,-0.08475493,0.010737141,0.022456469,0.064308494,-0.15486339,0.094789684,0.027589004,0.038346294,0.090447985,-0.013589548,-0.039271746,0.067546204,0.101773076,-0.016124425,0.10662649,0.18502529,0.06698234,0.046519708,-0.17711197,0.09301248,0.1789657,-0.07580311,-0.021230048,-0.03213807,0.13367163,-0.057284486,-0.06508229,0.07338106,-0.11013939,-0.118463226,0.03518881,0.13448693,-0.063053735,-0.06377459,0.07532788,0.0049875374,-0.020429565,0.15979818,0.0006627908,-0.1002408,0.025844293,-0.08707678,0.13047783,-0.12210184,-0.14026381,-0.018519118,0.07938702,-0.18253548,-0.026151177,0.054279946,0.056610554,-0.038024373,-0.04169583,-0.069641285,-0.098125026,0.027006902,0.07712222,-0.103330456,-0.042752206,0.086078234,0.0069988915,-0.09272805,0.017975077,-0.022719273,-0.10356105,-0.23084268,0.0073404047,-0.026955618,-0.21795264,0.16415238,-0.016571239,-0.04242167,0.047839977,-0.054720994,-0.023809334,-0.13197257,-0.16479857,0.1150369,0.04082262,0.13485685,0.00944777,0.054975748,0.029345872,0.043233316,0.08778829,-0.18007015,0.1626526,0.03554292,-0.03364709,-0.0695569,-0.09346593,0.030373257,0.03904165,0.059822492,-0.2647313,0.030311475,0.18787971,-0.10239935,-0.2353392,0.03509404,-0.017667616,0.010065293,0.12384848
0.106047295,0.028877407,-0.025873065,-0.03552516,-0.04699521,0.010482952,-0.052476775,0.09061275,-0.15676579,-0.013030341,0.09567378,-0.034233876,-0.05993869,-0.0409805,0.06667634,0.1081815,-0.045045704,0.030144077,0.08311657,-0.024912003,-0.02298853,0.062811896,0.11819109,-0.034571987,0.17795748,-0.056563515,-0.0723298,0.049440198,-0.0020092865,0.04804222,0.09087322,-0.061995525,0.012507761,0.086032085,0.048675206,-0.028021365,0.074232996,0.034938745,0.003906536,0.08592214,-0.029320069,0.037374042,0.08188605,-0.05400898,0.0015341799,0.09645261,0.03560169,0.06737671,-0.054550458,0.050228648,0.113997914,0.03016935,-0.11018212,-0.073023126,-0.051012285,0.009555535,0.03560935,-0.025086844,0.16099235,-0.059138726,0.04497762,0.10635876,-0.042410538,-0.046127148,-0.11213905,0.017059108,0.015773948,0.026205048,0.0065736906,-0.016224923,0.035596374,0.08940444,-0.008349651,-0.06859072,-0.1098471,-0.02047813,0.06520075,0.046080355,-0.0288118,0.035687,0.08878077,-0.04228207,-0.09892201,-0.035290148,0.10504439,0.010821487,-0.063900664,0.03761057,-0.10950021,-0.11486043,-0.012857688,-0.03465231,0.013052959,-0.058129344,-0.051237006,-0.013998484,-0.014705231,-0.119745255,-0.04281518,0.09984267,-0.1496614,-0.06788007,0.00233092,-0.033966735,0.061297975,-7.70997e-05,-0.061776914,0.10165254,0.042169683,-0.0712223,0.02906133,0.04442049,0.09291271,-0.07966989,0.14007069,-0.017336752,0.14475031,0.07516869,0.104334414,-0.037830617,-0.044511233,0.022912735,0.035323825,-0.119141385,0.019493569,-0.04818691,-0.0142095415,-0.06571188
-0.022773212,-0.036230948,-0.05109181,-0.03594677,0.009196743,-0.07379349,0.11955699,-0.27454424,-0.08452499,0.0779271,-0.031389475,-0.047178604,0.001290145,0.109098114,-0.11398273,-0.053883594,0.113552265,-0.11583979,-0.016883155,0.005561523,-0.02524012,0.041200556,0.031676784,-0.061438225,-0.14511317,-0.025781667,0.11623893,-0.027693337,-0.11193625,-0.012204404,-0.034483276,-0.053228866,-0.07327619,0.17273481,0.12107811,0.0438436,0.10045934,-0.045101117,0.033297718,-0.017299682,0.018558865,0.00912509,0.056765012,0.13583791,-0.00045358192,-0.06871874,-0.021949444,0.009426961,0.026002565,-0.005092972,-0.07087793,-0.12679827,-0.012163715,0.00899173,-0.0019041852,-0.028821636,-0.056601845,0.096859604,0.21565878,-0.087685935,0.03161506,-0.2082064,-0.018490884,0.02789784,0.021608446,-0.08305444,0.11199541,-0.021969818,-0.0005878582,0.020693896,0.010974516,0.034583345,0.068183,-0.11167764,-0.048081476,-0.082676105,0.07881864,-0.025962593,0.028652687,0.23676498,-0.05403051,-0.07650976,0.013098505,-0.087988056,-0.101251885,-0.08804415,0.01290122,-0.04436592,-0.12929036,0.15533899,-0.0004178699,-0.07397643,0.1780734,-0.07001209,0.036576692,0.056458455,-0.03939904,0.049836382,0.009980178,-0.10535604,-0.06497861,-0.027883269,0.01925325,-0.0011736363,0.032608535,0.027810402,0.050769154,0.07251934,-0.02432169,-0.04045109,0.021379313,-0.03956284,-0.006807572,0.051488332,-0.036463276,-0.0021649636,0.09362735,-0.2010979,0.013253263,0.090802014,0.02359172,0.05634822,-0.02918057,0.029414337,-0.0060448423,0.044848137,-0.14094935,0.11168587
-0.041787375,-0.06809188,-0.011050292,0.0052540447,0.022463461,0.0276269,0.027629003,-0.06228017,-0.013893415,0.01511158,-0.095363885,-0.07746617,0.054828558,-0.074183494,0.039286826,-0.005432421,0.030995695,-0.013734804,0.0055355546,0.01375925,0.016211411,-0.08710238,-0.07172903,0.009140973,0.0490958,-0.081172474,0.015879178,0.034814943,0.006371421,-0.039997205,0.044710465,-0.02470588,-0.01618462,0.0076802033,0.04710405,0.03953282,-0.10032261,-0.0959114,-0.06855345,-0.04328414,-0.030687299,0.015618588,-0.031175282,0.028665543,-0.09112785,0.00036076648,-0.07050743,-0.08348418,-0.00019683878,-0.03144668,0.042918827,-0.07727489,-0.03089641,0.049419023,0.008085199,0.02149611,-0.019476905,0.059203926,-0.05873106,-0.031769786,0.002635274,-0.05622165,-0.030100293,-0.016920405,0.093273416,0.037860725,0.05940399,-0.0234623,-0.022749634,0.047713805,0.01464177,-0.042821437,-0.009734792,0.03323089,-0.045348376,0.05018328,0.050788585,-0.03995385,-0.015291492,-0.02326682,-0.030443737,-0.015973862,0.032456856,0.041491017,-0.012669593,-0.029982824,0.023494998,-0.06804751,-0.009287867,0.017758727,-0.04425945,0.011339676,-0.010123497,0.04531479,-0.034947332,0.04770527,0.075956754,-0.09757616,-0.04513684,0.019361824,0.029546842,0.04818098,0.051623367,0.0068354034,0.06396908,0.058363978,-0.051331602,-0.009610062,0.050067462,0.089886256,-0.023013562,0.0005113634,-0.03015512,0.038553726,0.04197254,0.00810101,0.049011193,0.032113634,-0.038278773,-0.025626825,-0.019992732,0.047156077,0.03889763,-0.021600878,-0.0048990776,0.016866066,-0.015359351,-0.06204999
0.12870581,-0.06631526,0.06700003,0.040507596,0.05517105,0.095262155,0.025025181,0.054806385,-0.047806516,0.10452495,-0.03668921,-0.02341572,0.03898629,-0.044040557,0.003438446,0.010972322,0.08023093,-0.16812529,-0.08599451,-0.09747872,0.030058548,0.04524498,-0.08523711,0.028519614,0.012154536,0.013448003,0.15761736,-0.12387198,-0.18190709,-0.024530046,-0.0028074353,-0.035712782,0.095270514,-0.052612405,0.08308882,0.020538706,-0.029760351,-0.028298227,-0.044520658,-0.034908228,-0.0044133286,0.12366563,-0.19727367,0.05254614,0.044244714,0.047998566,0.04253217,-0.21487822,-0.10544709,-0.0475565,-0.023279276,0.044846717,0.17646182,-0.0009360502,-0.24667586,0.03843232,0.06729692,0.02957619,0.1018331,-0.04254157,-0.18421565,0.07566149,0.036645573,-0.08414337,0.04551291,0.11982417,0.11108883,-0.042352643,0.047929056,-0.15869014,-0.027300296,0.18706255,0.034879003,-0.07695074,0.080072835,-0.037027184,-0.047725376,0.018126223,-0.07592666,0.08599985,0.10022617,-0.0022037171,0.03328792,0.07607686,0.1474472,-0.011850519,0.12323747,-0.12501386,-0.02630191,0.13223371,-0.13302766,0.10102655,0.14834665,-0.13510288,0.23913811,0.05186736,0.099141434,0.0071009584,-0.14784151,-0.23684047,0.047048822,0.036022864,0.038215652,0.078526475,0.060908675,0.07919546,-0.00016702342,0.04373933,-0.015841508,0.028596817,-0.0040821964,0.032070834,-0.05789791,0.1291033,0.048333604,-0.19287045,-0.05676967,0.11001797,0.023981933,-0.1429331,0.105034985,0.0730481,-0.15050082,0.060751587,-0.038765837,0.11351791,-0.18459333,0.07144595
-0.012798505,0.10186802,-0.062383022,-0.098174,0.017728819,0.08454909,-0.004117277,-0.035819314,-0.027350087,-0.09846807,0.072735675,0.0101580685,0.057524644,-0.10754755,-0.05862294,0.07328299,-0.05399571,-0.1250854,-0.12767634,-0.016725607,-0.06026629,0.021966586,-0.036153108,-0.14655583,-0.05322144,0.027839195,-0.014515723,-0.064386174,0.06275224,0.052022073,-0.043021835,0.032787133,-0.011612477,0.21033306,0.17723618,-0.06838486,0.20049699,0.02735934,0.095179215,-0.05214645,0.0071399827,-0.09561204,0.015630495,0.016726896,0.06207355,0.084736176,0.0008577832,0.017336877,0.12949838,-0.031389486,-0.07183808,0.15826178,0.009739727,-0.0985495,-0.04399911,-0.07574091,0.07088909,0.00515784,0.011759248,0.04853008,-0.032503657,0.10329853,-0.10457101,0.019969342,-0.095127925,-0.039597753,0.049849126,0.2526724,0.152421,0.015407695,-0.12549664,0.22814977,0.1027582,0.030608512,-0.10970455,-0.21819746,-0.012686154,0.03370444,0.07247429,-0.00026002075,0.04570013,0.034527052,-0.040418003,-0.024651302,-0.07645214,0.13526967,0.13820143,-0.016681928,-0.053318467,0.14105652,-0.01579019,-0.20370506,0.11509514,-0.08502607,0.056517318,-0.06653546,-0.04318769,0.10005757,-0.0010320268,0.026738215,-0.033597685,-0.0022984897,-0.032260157,-0.09227004,-0.18290342,-0.0813498,0.08021929,-0.013200138,-0.018508853,-0.104784824,0.008942743,-0.03644728,0.06077669,-0.03176737,-0.007974763,0.05318105,-0.0014520563,-0.11277881,-0.02531905,0.03991766,0.15315437,-0.05643338,0.07461802,-0.0003797785,-0.11477751,-0.098035656,-0.098865494,0.011304388
-0.022585498,0.0368252,-0.030345384,0.034959678,0.006052303,-0.04639227,0.033502452,0.03894947,0.047645833,-0.015968218,0.0082077375,0.031164857,-0.028344229,-0.022974154,-0.0010240774,-0.022638049,-0.0039664176,0.0072235386,0.044427525,0.0019657437,0.030404793,0.043687623,0.016634287,0.03400111,-0.012708334,-0.019788723,2.3517556e-05,-0.04022715,-0.026562022,-0.016730007,0.01956037,0.017308658,0.048008043,-0.028488027,0.0033568647,0.017542474,-0.027664237,0.009213104,0.044473875,-0.037617013,0.027501112,-0.029964259,-0.018361479,-0.035543848,0.03916739,-0.014126629,-0.05626688,0.011704231,-0.026528364,0.02081889,-0.007024759,-0.026393961,0.015705867,0.0038732302,0.043565087,0.028931066,0.016712295,0.04327281,0.05730077,0.038337875,-0.045770295,0.009751433,-0.016829524,-0.026371421,-0.020469297,0.05188425,-0.055140756,-0.04512667,0.03130337,-0.042310167,-0.023459768,-0.0054311603,-0.03940509,-0.007778652,-0.02423337,-0.048584025,0.013197952,-0.052390873,0.035234112,0.036787726,0.013796444,0.048974738,-0.02421667,-0.037229948,0.00017542981,-0.037768368,-0.017553912,0.050815832,-0.034735642,-0.03429476,-0.042376928,-0.0020666607,-0.014760536,-0.01969242,0.022704493,0.010073361,-0.04082954,-0.007840398,0.047635954,0.001484506,0.01788375,-0.024864148,-0.024807341,-0.020077193,0.03570988,-0.040399093,0.008829734,0.01932815,0.009778552,-0.026945291,-0.043680448,-0.00028655928,-0.018246096,0.00587141,0.033034276,0.045408506,0.000103799226,0.0344143,0.00022476188,-0.024279224,0.0016053421,-0.018509943,0.05089124,0.03106141,-0.012213187,0.027649563,0.056680195,0.034031462
-0.026352756,-0.0032682456,-0.012058751,-0.009445145,-0.121575095,0.15204978,0.115570545,-0.18928093,-0.175148,0.09589824,0.14578682,-0.16641863,0.15475057,0.04831092,-0.08053634,-0.033500943,-0.007157767,-0.15315239,0.050899763,-0.19347407,0.07042508,0.04503514,0.012534529,0.010908481,0.11237166,0.07085972,-0.0039826105,0.107521996,-0.07422752,0.13728581,-0.11623629,0.008865897,-0.077607706,0.14389177,-0.046775144,-0.02872583,-0.103193484,-0.09177537,-0.0067111165,-0.046663333,-0.10011038,0.22702597,-0.10539545,0.10806561,-0.006814713,-0.17245728,0.075994916,-0.20098025,-0.0671293,-0.14788361,0.05633097,0.0049601225,0.089583784,0.026755428,0.016391302,-0.03858536,0.11019028,0.09897446,0.17617813,-0.0927061,-0.045588706,-0.19226365,-0.07423979,-0.11899406,0.065804526,-0.04822083,0.08389266,-0.1352538,0.1187996,0.059014186,-0.019257825,0.16637868,0.03144576,-0.09677429,0.044114985,-0.038428355,0.05707368,0.05840872,-0.07370619,0.12516113,-0.14134714,0.07993173,-0.05488022,-0.14768861,0.27241114,-0.12115167,-0.032382265,-0.004734902,-0.07448767,0.07567928,-0.068412766,-0.045281183,0.053899296,-0.09902371,0.008071889,0.14447396,0.1391687,-0.05805318,-0.25029963,-0.025866471,0.20152229,0.056862667,0.008159254,-0.09992249,0.20547383,0.06611162,-0.08123953,0.23252003,-0.2545107,-0.0625752,0.1041118,-0.19451022,0.013240846,0.10716091,-0.18492799,0.0013429228,0.07243287,-0.1236798,-0.044551227,0.037420742,0.08314247,0.008017109,0.027305933,-0.060091294,-0.07217054,0.1831047,-0.07330277,-0.108304046
-0.06901275,-0.15405999,0.10108309,0.045179315,-0.06385267,-0.1211018,-0.11275616,0.012165065,0.19164409,0.12230413,-0.023096338,-0.06433751,0.08936286,-0.012812164,-0.054050278,0.14855766,0.1613246,0.14536913,0.06769625,-0.0027280808,0.056988243,-0.0014440474,-0.05458512,0.064250894,0.18109283,-0.1547974,-0.017739676,-0.19902498,0.20571122,0.13518073,0.16594255,0.039054736,0.27026162,-0.24012277,-0.23738138,0.007898819,-0.11603484,0.13937245,-0.07292287,0.09259586,0.08629861,-0.030392708,-0.048571378,-0.18806241,0.16240865,0.025773123,-0.034899436,0.023914782,-0.12459715,0.118345015,0.055646677,-0.040791687,0.077771276,-0.10687711,0.055456717,-0.0045033027,-0.097348645,0.004718745,0.022184264,0.119681254,-0.024676071,-0.0030155457,0.116863206,0.14613695,0.22661729,-0.00036108514,-0.07341965,-0.064598925,0.045934945,-0.082843624,0.051489677,0.006653745,-0.105971485,-0.18687253,-0.22058542,0.08856172,-0.024974003,-0.116613604,0.06278457,-0.07377436,0.006816417,0.042684726,-0.09272904,0.049319375,0.04269302,-0.13439679,-0.21314609,-0.2325378,-0.2896938,-0.24686421,0.17173912,0.1431633,0.029461619,-0.12181824,0.08351957,0.1423224,0.04487073,-0.0018763865,-0.16056798,-0.013109634,0.04059428,0.28932816,0.032860763,0.079228364,0.030818556,-0.17872934,-0.120912135,0.04881193,0.12285208,0.174524,0.09480856,0.061543185,-0.06731238,-0.056648836,-0.1646989,-0.18723577,-0.20203213,0.11880142,-0.013145229,-0.002109455,0.02176895,0.03656215,-0.015061381,-0.020457638,0.014055835,-0.08313289,0.09737974,0.13541271
0.08341687,0.057564553,0.13857767,-0.00976171,-0.077151135,-0.039870724,0.041806675,-0.12519145,-0.002036497,-0.117946334,-0.08081839,0.10252196,0.02909611,0.0145862065,-0.07866819,-0.098327674,-0.030404024,-0.020418053,-0.011938141,0.09819237,0.10007794,-0.113115855,0.20546056,0.0039716004,-0.04464833,0.0051659388,0.029486805,0.05039955,-0.011571824,0.020301234,-0.14023358,-0.045776315,0.10267875,0.09699138,0.044252843,-0.1132203,-0.014743428,-0.14239159,-0.049274877,-0.13215125,0.004668106,-0.017044412,-0.009798012,0.116531566,-0.08385412,-0.1296844,-0.06723381,0.013846527,-0.061160255,0.01631768,-0.16098137,-0.27092883,-0.09504087,-0.05664509,0.16833839,0.0015248263,-0.05275121,0.1521531,0.093099825,0.022808233,0.08062751,-0.1506822,0.027493015,0.13045324,-0.09770024,-0.104483336,0.11069932,-0.028190626,-0.29993722,0.14844257,0.035369948,-0.1446543,0.05100328,0.07322141,0.020689366,0.02486428,0.071281165,0.0021538069,-0.113789946,0.08122158,-0.13901715,-0.1332863,-0.03619736,0.00453308,-0.008541464,-0.044742137,-0.02518535,-0.11675376,0.011431678,-0.07346959,0.09410872,-0.07529941,0.023848383,-0.06298069,-0.117138356,0.0139272055,0.049053602,-0.112522826,0.1465713,-0.0057888767,0.044957466,0.06228242,-0.0043748803,-0.028461147,0.11323247,-0.021411674,-0.13640189,0.10615675,0.14698537,-0.034915846,-0.07876729,-0.121299684,0.13501039,-0.047939155,0.12635465,0.22078851,0.12286753,0.02365144,0.026282648,-0.037731804,0.008721212,0.06495459,-0.013564472,0.03330233,0.086072415,0.03492015,-0.06889076,-0.05687132
-0.0814639,-0.020526187,-0.100031696,-0.14230725,-0.13089095,-0.1479927,0.013238429,-0.04164424,-0.10304096,-0.18552046,-0.024762372,0.108659595,0.009274521,-0.018645145,-0.15347101,0.071265005,-0.06480151,0.12478517,0.13352701,0.103145026,-0.10401765,-0.085483246,-0.13599618,-0.100788,0.091784604,-0.035684552,-0.086855836,0.17270729,0.058861695,0.087149315,-0.0056772544,0.002008271,-0.20839588,0.13037606,-0.19224049,-0.19082482,-0.011593976,-0.0017352155,0.021964248,0.030156028,0.05281272,-0.22856382,0.0057807844,-0.036944438,-0.024101457,0.057117246,-0.019603083,-0.09516823,0.12024616,0.11382146,-0.09115358,-0.018571097,-0.094493054,-0.17138022,0.022690179,-0.033198886,-0.124777116,0.022994142,0.015465499,0.07928851,0.052526552,-0.055363197,0.01993854,0.0077582565,-0.0622741,-0.15141547,0.086356334,0.05143533,0.026826806,0.1278259,-0.05994724,-0.0026404648,0.21027479,-0.049947526,-0.16814989,-0.09146306,0.09302477,0.020075334,0.07957476,-0.0006378046,0.030147053,-0.012014473,0.04089533,0.1516896,-0.06206315,0.07542626,-0.10326859,-0.063780196,0.0030659365,-0.18341962,0.062476166,-0.16602112,0.13328373,-0.01871959,0.02480204,-0.058251712,-0.14165297,0.01753557,0.19826171,0.06734253,-0.028468587,-0.0028379948,-0.05892198,-0.025253432,-0.16032703,-0.023452075,-0.03575288,0.03341286,0.040627934,-0.063309334,-0.09664426,-0.09255017,-0.021754019,-0.06912047,-0.047167532,0.08529907,-0.021338176,0.007229635,-0.08664498,0.13283648,-0.020835774,-0.082733236,0.21672752,0.022521501,-0.11111321,0.07937676,0.122068815,-0.14459367
0.030879894,-0.113244176,-0.01947058,-0.0512914,-0.0924258,0.04614609,-0.021824406,-0.25934792,-0.17869394,-0.036827363,0.024870206,-0.06960596,-0.04277114,0.08981602,-0.14871353,-0.10961246,-0.054516084,0.020568283,0.11229704,-0.032746635,-0.14354241,0.06571908,0.020144837,0.08233675,-0.044069115,-0.07610675,0.06505202,0.06925665,0.12833425,0.12911525,0.015867155,-0.015421999,0.06307508,0.18892363,-0.037699115,-0.046223216,-0.013295685,0.1100865,-0.062263764,-0.08486029,0.048220336,-0.14146316,0.06939759,-0.030322587,0.10855555,0.11341138,-0.122992635,-0.15416977,-0.0011152981,-0.12067364,0.11754872,0.063037746,-0.106900945,-0.080382206,-0.060238123,0.07913644,-0.068721816,0.10992797,0.060230535,0.014248202,0.16051866,-0.038622677,0.04272632,-0.036288813,-0.026079537,0.022740796,0.21752949,0.00226461,-0.036037374,-0.026695188,0.05605123,0.016336553,-0.049260166,-0.14414279,-0.03654374,-0.0036912656,0.117396094,-0.12688719,-0.054033313,0.090162106,-0.1121591,0.04029357,-0.060933843,0.011364368,-0.06587415,-0.09381172,-0.15210037,0.027661314,-0.09017067,-0.09192292,0.1355223,-0.11898563,0.034491614,0.016841313,0.017398331,0.061520435,0.04463944,0.02443202,0.06279138,0.22165489,-0.033879105,0.05442571,0.022279585,-0.073439695,0.013758781,0.03580458,-0.024763223,0.11780877,0.16730903,-0.07648038,-0.064335585,0.0050528347,-0.09088272,0.012071956,-0.057560127,-0.00012414256,0.05262685,-0.020345503,0.080211334,-0.08605484,-0.11952166,0.07131387,-0.022727516,-0.03982356,-0.12285538,0.00059377187,0.028717972,0.111029394
0.032537557,-0.027152326,0.086042754,-0.053002466,-0.018958338,0.07176274,-0.08050419,0.12584545,-0.015518053,-0.059279818,-0.035906386,0.03589013,-0.2850485,-0.08681509,0.11027082,-0.044658963,-0.011003003,0.0741292,0.04970181,0.008613477,-0.0038819842,-0.090102434,0.010901327,0.021091387,-0.24032047,0.09073459,0.027890557,0.12093971,-0.030722361,0.017952414,0.038175117,0.040228564,-0.20683189,-0.018333033,-0.035272907,0.04889855,0.120354034,-0.06183986,-0.019527452,-0.10899637,0.038662147,-0.1339847,0.09580309,0.05155874,0.049686372,-0.0055069784,-0.08060436,-0.040411927,0.08333777,-0.028029736,-0.07239889,-0.12497133,-0.12941216,-0.05673537,-0.0017123593,0.12424585,-0.06496667,0.03620857,-0.028151399,0.14835058,-0.04180418,0.06482179,0.014231704,-0.046932023,-0.09911849,-0.08444322,-0.093086965,0.004137994,-0.17116442,-0.040362332,0.23025331,-0.03699015,-0.09079031,-0.021970885,0.060035363,0.11510893,-0.0034996225,0.044172708,-0.056046527,-0.10247671,0.13802198,-0.002703367,0.086231664,0.0694725,-0.06300895,0.09580774,-0.028184915,-0.082693316,-0.018507019,-0.17176907,-0.046480987,-0.014886381,0.06957538,0.1575341,-0.034825213,-0.04499998,-0.050426237,-0.029370379,0.08728695,0.13945201,-0.152459,-0.1718843,0.08487451,0.04119953,-0.13435379,0.026627025,-0.044580724,-0.029614197,-0.105330415,0.17469278,0.013235725,-0.023393787,0.057528906,-0.0023293209,0.22316706,0.019197175,-0.17660485,0.017762607,0.008063433,0.118605144,0.06708377,-0.13021947,0.054288805,-1.0636042e-05,0.026963867,-0.013645699,0.01714967,-0.035648774
-0.031173758,-0.19895168,-0.08390331,0.060639948,-0.0027626285,-0.14484546,-0.25978166,0.050519977,-0.09456643,0.01736851,-0.04259047,0.21067043,0.1340985,0.08681571,-0.10731006,-0.052953184,0.06065614,0.15001501,-0.12270904,-0.011292062,-0.1625584,-0.26345506,-0.18598948,-0.17835471,-0.15938719,0.07566467,0.1250142,-0.08911908,0.07609734,0.09526617,-0.06506894,-0.20544882,-0.011087909,0.07543304,0.024368202,0.021792734,0.08137377,0.16570431,-0.0013715324,0.09298578,0.030236702,0.18649931,-0.07621623,-0.09170299,0.1910958,0.014684904,-0.05593904,-0.02915551,-0.11225402,0.13309589,0.22152343,0.10450305,0.0967219,-0.05163024,-0.26311725,0.04249381,0.103899285,-0.26823303,-0.14372328,0.15634479,-0.22467391,0.19067696,-0.15408622,-0.20932099,-0.11193535,-0.11120406,-0.085838705,0.10700678,-0.1595803,-0.38719603,-0.1108141,0.04430135,0.02627719,0.16535476,0.10856943,0.028236443,-0.19469951,-0.051285982,0.10716533,-0.17564559,0.16336858,0.15748654,0.10552438,-0.01000394,0.07438741,-0.21878713,0.07707054,0.059732944,0.08326765,-0.032663234,-0.2185931,-0.087739155,0.19061655,-0.20730545,0.11539995,-0.09926606,0.26674575,0.06997793,0.024074292,-0.15415181,0.013193188,-0.084130436,0.028857984,0.111504026,-0.21332006,-0.024853498,0.12593861,-0.056558836,-0.12631232,0.15851802,-0.15286893,0.21799952,-0.005772573,-0.08199498,-0.05780426,0.046983622,-0.11534095,0.05357677,-0.16392687,-0.28442436,0.091556415,0.27409145,-0.22072715,0.037678543,-0.02660672,0.014061085,0.06732547,-0.045233894
-0.12150714,-0.25096264,-0.06866175,0.06162986,-0.102979645,-0.22529525,-0.042300202,-0.017553015,-0.0348993,-0.023401374,-0.13423459,0.014161042,0.026758049,0.0784001,-0.06596013,0.2706307,-0.14202456,-0.14902389,-0.19336103,-0.022215825,-0.0011648432,0.018198011,-0.17506576,-0.00096437347,0.060027674,-0.35528365,-0.022227896,0.16875494,0.12262207,0.21275653,-0.19583958,-0.09023322,0.0030924007,-0.24536425,0.15509959,0.087868825,0.08969152,0.16926448,-0.07460129,-0.1591854,-0.14632538,-0.028179474,0.017398125,0.16486491,0.09083241,-0.25762326,-0.1104403,0.04689285,-0.27076277,0.12919056,0.20156078,-0.047671914,-0.19809063,-0.14889194,-0.28481418,-0.12164079,0.00060235197,0.14673805,0.09127137,0.023713704,-0.027900362,0.008252905,0.0074071367,-0.103983626,-0.061752137,-0.05636856,-0.09038064,0.054141924,0.036895383,0.033493835,-0.06930607,0.009723424,-0.11432419,0.19658461,0.09863244,-0.06412546,0.21331224,-0.06066405,-0.08895457,-0.012765999,-0.3410811,0.09087552,-0.12379392,0.22969076,-0.006696782,-0.18048255,0.023891006,0.0063515445,0.35557723,-0.13422246,-0.02740447,0.11443191,-0.001637178,0.2210823,0.14231218,-0.24485272,0.13843516,-0.11198419,-0.04687184,0.03781842,0.031468596,0.1793705,-0.071001716,-0.29997912,0.11698143,0.059693538,-0.23490988,0.07737855,-0.13369603,-0.03655174,-0.076372646,-0.21993926,-0.1507209,-0.12867859,0.020137139,0.18696643,0.11042306,-0.006907154,-0.056682784,0.05402909,0.22732039,0.32997313,0.17227413,-0.04120584,-0.052705627,-0.026234854,-0.08636607,-0.18046114
-0.015252253,0.047930837,0.0335072,-0.03712172,0.05326991,0.04148282,0.052562032,-0.0195912,0.04230054,0.016858453,-0.03240993,0.03653852,0.048443794,-0.014926932,0.033929765,-0.03682396,-0.047665674,-0.0032025443,-0.001006767,0.022682361,0.04516031,0.0035681475,-0.0021814252,0.006920836,0.028002515,-0.0036662412,-0.012034561,-0.015704237,-0.046471696,0.032630414,-0.03309096,0.019846637,0.030404748,-0.028128462,0.048402786,0.03200956,-0.051152445,0.048963618,-0.005423744,0.020019164,-0.015267995,-0.037741978,0.024134222,-0.0326065,-0.029259684,0.018688025,-0.0030268936,0.023738908,0.013464543,0.05248277,0.0011589836,-0.016781261,-0.018121565,0.02595988,0.0017563695,-0.013076166,-0.044127963,-0.008490515,-0.0015238236,-0.009771988,0.012739964,-0.008849178,0.03897294,0.047855772,0.01397362,0.028388582,0.034826346,-0.038562257,-0.033037066,0.021697646,0.030522503,0.02650696,0.0021695893,-0.060410615,0.022306047,-0.040935863,0.00024218169,-0.00036579612,-0.04380009,0.017697334,0.042143166,-0.022066737,0.054008476,-0.058056865,-0.039866738,0.01679213,-0.0131411385,0.0137535045,-0.052853756,0.043564796,-0.022356017,-0.04949673,-0.012943614,-0.027097493,-0.019226357,0.055645432,-0.018617619,0.02043824,0.038911067,0.05821699,0.015104355,0.04070095,0.036185253,-0.030620754,0.031615335,-0.011502625,0.045527,0.022260454,-0.05248424,0.048347045,-0.030235166,0.0114286905,0.0026413754,-0.011053289,0.011955728,0.010915998,0.030559553,0.04930078,-0.046772838,0.04139394,-0.042512227,0.035092704,-0.0046953,0.06412768,-0.038740028,0.03523074,-0.035264146,0.022374937
-0.044294942,0.07802216,-0.045735367,0.0150919445,0.14651433,0.0663689,0.1558702,-0.06951327,-0.059282288,0.063027725,0.015066084,-0.018584155,0.18455558,0.08370595,-0.15717037,0.1743553,0.08399969,-0.13490899,-0.015452292,-0.09106789,0.10055827,0.06639731,-0.168487,-0.013630862,-0.076878056,-0.030766305,-0.06603999,0.01526105,-0.15543741,0.1340703,-0.035601314,-0.20039357,0.20420788,0.011535278,0.046254057,0.20319358,-0.07364646,-0.1857182,-0.0020691738,-0.039775144,-0.17315854,0.08262126,-0.016729714,0.11604812,-0.16907161,-0.045061316,0.07303126,-0.08397731,-0.08247525,-0.1558735,0.11462241,-0.020418879,0.03345616,0.22941142,-0.11723128,-0.12940879,0.02563337,0.15683877,-0.011556887,0.10862369,-0.06566115,-0.0432133,0.006150443,0.08394666,0.04160566,0.09284697,0.1506182,-0.04698428,0.14400087,0.072121635,0.097301945,0.22954059,0.10572517,-0.20539501,0.003280748,-0.05437109,0.14559935,0.009573564,0.026474008,0.10455191,0.00068223954,0.18651058,0.06810372,-0.0049813795,-0.026799584,0.0051159495,0.042030375,0.0047187502,-0.07856203,0.07603701,-0.06657732,-0.008089868,0.051248807,-0.03570359,0.009357944,0.11932061,-0.038556293,0.020618692,0.008455406,0.08181338,-0.007650689,0.04261618,-0.037371695,-0.036927152,0.12530392,0.16350542,0.06905678,-0.07385131,-0.14366189,-0.095950365,0.15079078,-0.12615353,-0.286434,0.07514019,-0.21215515,0.07852513,-0.046160232,-0.09199156,-0.045608114,-0.00056190486,0.1783853,-0.008639529,-0.02036847,-0.08280831,-0.0994857,0.11983968,0.01867424,0.16184615
-0.07163195,-0.08432619,0.09372329,-0.09837112,-0.12797229,-0.25517565,-0.056294017,-0.17159382,0.008469715,0.18417558,0.032336634,-0.09280426,0.116704896,0.02625222,-0.037551723,0.020559305,0.2649108,0.015725024,0.12677912,-0.11563908,-0.15935834,-0.07007562,0.02061638,0.15031162,0.26604167,-0.25165462,0.34749934,0.009557459,0.18612723,0.061228465,-0.03265871,-0.06660823,0.1505274,0.08100563,-0.4895012,-0.07201924,-0.18320319,-0.017560223,-0.15734918,0.10057911,0.010795335,-0.0809635,-0.044756964,-0.023509275,0.25363526,-0.110326216,-0.17379095,0.013186343,-0.20485361,0.18498242,0.058859564,-0.009623508,-0.11872207,-0.17386273,0.030039769,0.1498101,-0.197887,0.14823182,-0.01989039,-0.00076862203,0.05093753,0.059991937,0.15440169,0.055061605,0.34566838,0.069615744,-0.04043163,-0.15824278,-0.010130361,-0.054862626,-0.042631075,-0.036361497,-0.1504491,-0.020578101,-0.030426975,0.20496386,0.10401704,-0.1790357,-0.051791888,0.042283006,-0.07185476,-0.07645951,-0.10102352,0.016052809,-0.019689783,-0.20133102,-0.22691688,-0.042045105,-0.029167961,-0.0809862,0.101860024,0.138588,-0.09222468,-0.0796478,0.04179974,-0.07166839,0.045560446,0.11724373,-0.03578617,-0.129678,0.169785,0.16842887,0.09360407,0.04791053,0.025974073,0.010678918,-0.25244877,0.074723475,0.058013964,0.14141765,-0.007711589,0.104299895,0.0043088435,-0.07274941,-0.008792028,-0.04137901,0.100439586,-0.0765956,-0.0403729,-0.24821585,-0.086122304,0.033321902,-0.022776453,-0.043044932,0.17129177,-0.1348034,0.18592905,-0.0009676333
-0.0435106,-0.054402865,-0.0882572,-0.11685956,-0.09132959,-0.049621604,-0.22526415,0.16655432,0.05884242,-0.042368483,0.019903753,0.17883596,-0.02168958,-0.03055059,-0.014388787,0.20943253,-0.107747376,0.19609395,0.034700874,0.05066325,-0.06550315,-0.00525828,-0.042562917,-0.052780822,0.0038602483,-0.0046427427,0.022502074,-0.0054956637,0.19465302,-0.025323847,0.022896295,0.18259978,0.07820833,-0.064389534,-0.07669456,7.475222e-05,-0.053741615,0.07837642,-0.07103557,0.15245196,0.07504594,-0.15494922,0.13650773,-0.11495916,0.07206603,0.08364399,-0.070827805,0.1194284,0.024827497,0.029351544,0.019091694,0.15783706,0.027068555,-0.110986166,-0.12534426,-0.0060100374,-0.07570106,-0.1860055,-0.1330524,0.23833564,-0.069624156,-0.014935686,0.15732984,0.10829411,-0.038171127,-0.09524121,-0.24936414,-0.040280983,-0.010014282,-0.12357579,0.07147172,0.0033799107,0.018557431,-0.06650048,-0.075618714,-0.018347152,-0.06716388,-0.072894365,0.081374794,-0.11420795,0.1275903,0.123120524,0.004401562,-0.10967971,-0.09391395,0.03242518,-0.08094956,-0.10728899,-0.017799117,-0.20013113,0.010041899,0.035465926,0.20348974,-0.032916475,0.03812157,-0.09456877,-0.05784247,0.05231909,0.070088044,-0.123827726,-0.10341272,0.08842904,-0.0016214708,-0.0126474025,-0.22151966,-0.09197141,0.11626007,-0.12708497,0.06526908,0.09803458,-0.19194497,0.08141508,0.0021861617,-0.0009975523,-0.1115245,0.007910715,-0.13391009,-0.055733684,-0.016649105,0.09951435,0.050378494,0.14461955,0.10747696,0.123790674,-0.012307766,-0.05808515,0.13058935,0.053764205
-0.07862968,-0.04252736,-0.054410614,0.044476617,-0.027134184,-0.08175012,0.014073627,-0.0035174526,-0.04116238,0.05558441,0.008366745,5.431013e-05,-0.009048298,-0.05294178,-0.08965226,-0.042361367,0.0076708305,-0.049131736,0.021401491,-0.0125869615,-0.021547783,-0.07709208,-0.031066014,0.01280241,-0.019693311,0.050017186,-0.0007905842,-0.0068089035,-0.046432693,0.024015373,0.018648257,-0.016789963,-0.028359408,-0.028442664,-0.021424364,-0.008828105,-0.05906837,-0.015054016,-0.0037987854,-0.029302716,0.047054075,-0.024713067,-0.008582689,-0.020691385,-0.010647621,0.005552456,-0.026569292,-0.025566503,0.025414595,-0.05714443,-0.059408393,-0.048339568,-0.05220455,0.039742086,0.017574307,0.051356554,0.020847082,0.037661415,-0.040854033,-0.045462757,0.0038421093,-0.05602119,0.0027739967,-0.03005533,0.057309438,-0.024390623,0.014432973,-0.06734018,-0.0491967,-0.02897594,0.04056554,-0.043304365,0.031027526,-0.059921306,0.002940152,0.006303791,0.035847176,0.013049187,0.028212275,-0.007502239,-0.064979695,-0.025049798,0.049402352,0.06493894,-0.054713566,-0.0017786911,-0.03219887,0.012567462,0.022398755,0.011642919,-0.009517323,-0.015473432,-0.009620236,0.052445535,-0.06176885,-0.04305219,-0.013197978,-0.04366862,-0.03340264,-0.029997973,-0.037735265,-0.02385834,-0.0008487239,-0.032883678,0.015179915,-0.03450273,-0.051839944,-0.043844253,-0.01382998,0.005666255,0.039197367,0.019698963,-0.07298434,-0.02413803,-0.012209401,0.026307175,0.021689486,-0.020135457,0.0020860718,0.06249047,0.04653643,0.02444753,0.02466938,-0.0161661,0.06968598,0.03579123,-0.0051932954,-0.03160677
0.04574173,-0.0886319,0.039171167,0.054251984,0.07888345,0.100963585,0.04116816,-0.14537387,0.023998985,-0.035272863,-0.061866876,0.018289814,0.09937341,0.19147196,-0.21978828,-0.13832782,0.046152506,-0.050426085,-0.011509708,-0.04308124,0.06431288,-0.022304548,-0.08444039,-0.021189138,0.073550336,-0.18676901,0.045539778,-0.16841365,-0.08160005,0.23464285,-0.12978067,-0.1791005,0.11544952,-0.09655563,0.019328486,0.025745507,-0.04462181,0.041646473,-0.022158327,0.06124125,-0.012181406,-0.075999945,-0.13198899,0.17104536,-0.0036686033,-0.06873938,-0.05664918,-0.013931098,-0.20162323,-0.0016039188,0.025175432,0.00972778,0.17141776,0.011327963,-0.15369259,-0.061378315,0.07558488,0.14016864,0.06489903,0.07506996,-0.021913325,-0.023690963,-0.13465255,-0.035542298,0.05376758,0.022042688,0.098739535,-0.09151115,0.001197515,0.073638305,-0.19636649,0.25632766,0.026960285,-0.00021944524,0.011213465,0.057290796,-0.0020270175,-0.12713362,-0.02682843,0.16572762,-0.08194556,0.01866124,-0.06387251,0.042006258,-0.011248042,-0.101338655,0.06986778,-0.029920038,-0.033559363,0.07138962,-0.020045504,0.09176215,-0.05493618,0.060263757,0.105620995,-0.014652199,0.19019088,-0.016858343,0.011646017,-0.19604386,0.09297596,0.14781527,0.01627267,0.1731648,0.1262345,0.100696415,-0.08436782,-0.028924374,0.030684015,-0.028690934,-0.0837831,-0.06256326,-0.11279371,-0.007137773,-0.17152105,-0.08061141,0.049742166,-0.13140467,-0.09195056,-0.124872275,0.04333333,0.06963021,-0.11802756,-0.06614153,-0.008202315,-0.05424048,-0.13346592,0.12471199
0.019788828,-0.11076491,-0.0010071038,-0.06433298,-0.014433347,0.038734347,-0.21467485,-0.072342485,0.04343059,-0.038106076,-0.013474492,-0.008239901,-0.26771083,-0.006264391,0.062340204,-0.11723704,0.051764455,0.044332158,0.031053811,-0.082897134,0.07506077,0.07478884,-0.08758017,-0.012940802,-0.049531016,-0.11996961,0.000325159,0.07687437,0.05813225,-0.0042518214,0.060606316,-0.08037532,-0.13046275,0.08976326,-0.15123154,-0.0041402364,0.055441372,0.07994836,-0.050551325,-0.012347821,-0.08982976,-0.011294795,0.028885521,0.029912766,0.01782245,-0.10789851,-0.118049875,-0.05062143,-0.18098694,0.03201908,0.020234283,-0.14179733,0.024100479,-0.059620813,0.070215054,0.083175145,-0.010975791,0.05276864,0.12413191,-0.04543225,0.028057845,0.00025862752,0.049003616,-0.06427069,-0.09768759,-0.03320645,0.031497877,-0.0056074685,-0.064100385,0.114426665,-0.05593695,-0.07874142,-0.15437917,-0.031961758,0.010466604,0.09394663,0.07720578,-0.20630369,-0.020351976,-0.03222146,-0.0384631,-0.10738656,-0.10558508,0.040269297,-0.11011168,-0.119241126,0.09413433,0.0039010132,-0.09908838,-0.19288857,-0.04693025,0.11932283,-0.12839764,0.17208007,-0.08798284,0.07923489,0.17499988,-0.11307228,-0.05044146,0.023681805,-0.08151731,-0.15918459,0.09227008,0.04955438,0.055241004,0.07710821,-0.01995595,0.011300629,-0.025195273,0.06305549,0.095121935,0.0732136,0.06724584,-0.06093287,0.08237109,0.009618773,-0.071551114,0.030732522,-0.00036060612,0.084928095,-0.032540567,0.026876265,-0.099914014,-0.14756203,0.004262943,0.03907016,-0.12411909,-0.024916532
-0.06779227,0.09187507,-0.045394037,-0.09321335,-0.09876193,-0.12951094,-0.13850854,0.06279317,-0.19823398,0.0035108256,0.04595515,-0.018697219,-0.07627813,-0.07369125,0.009222835,0.06804501,0.012762257,-0.0293411,0.08326737,-0.040043253,-0.08438726,0.053934205,0.015676698,-0.03880476,0.029491892,-0.07885397,-0.0498245,0.066140585,0.07572263,0.056972217,0.0027186675,0.06702669,0.009195881,0.071928926,-0.042458322,-0.094999686,0.04916469,0.1478315,0.06497219,0.05689443,-0.025681926,-0.0017141076,0.024452109,-0.0919043,0.10172891,0.014242769,0.09020293,-0.03551943,-0.06177105,0.1258615,-0.01186133,0.14624663,0.014101911,-0.10594853,-0.17781669,-0.07036854,0.12505436,-0.09863225,0.10656849,0.08445847,0.07300425,0.07758732,0.015356573,0.057249736,-0.19652443,-0.020610485,0.027042199,0.0037550493,0.048735008,-0.09807983,-0.033454448,0.16302964,0.1441519,-0.08425487,-0.14254059,-0.10826852,0.014917136,-0.009701053,0.044899955,-0.04959671,0.01460057,0.22232325,-0.09533904,0.012709357,0.03476025,-0.039489064,0.024940288,0.052809276,-0.014587493,-0.23071693,-0.10426388,-0.03768922,0.20727828,0.021589689,0.04901408,-0.0748739,-0.021789014,-0.027728587,-0.03278701,0.07074345,0.021280115,-0.006817429,-0.028911466,-0.018630523,-0.08791418,0.047077745,-0.054529812,0.13656637,-0.07124638,0.00981731,-0.0020488529,0.022129491,0.065682806,-0.14198942,-0.1595957,-0.06671484,-0.18537933,-0.0034207061,0.04486504,0.061087046,-0.03940537,0.13064064,0.08872693,-0.14745641,-0.07866231,0.058111187,0.0032936381,-0.03334835
0.002926093,0.018920302,0.2557821,-0.055288557,0.0719479,-0.025243394,0.07321781,-0.18032333,0.118627295,0.1651252,-0.04188049,0.07524006,0.043479618,0.33527818,-0.008382164,-0.012713461,0.18181461,0.03984021,0.07166428,-0.10733879,-0.038188845,0.013781352,-0.026823418,-0.03093828,0.13281539,0.26760036,0.16040313,-0.13543357,-0.19090196,0.0366949,0.08348442,0.301502,-0.04032615,0.09516367,0.021009546,-0.0384729,-0.019333411,-0.048001964,-0.026704758,-0.040407505,0.06543561,-0.21089275,-0.037851166,-0.079362884,-0.17442343,-0.010692169,0.021975094,0.03329263,0.0676392,-0.19895057,0.053333953,0.17658144,0.17261408,0.08969139,0.18592258,0.060417503,-0.1277214,0.12294038,0.13982067,-0.026371337,-0.04133812,-0.09637588,0.024744209,-0.063286886,0.17904203,-0.0025140166,0.16650246,-0.09697647,0.013219214,0.20263763,0.18009208,-0.086079314,4.9217342e-05,-0.011128732,-0.22436011,-0.00042832884,-0.03727457,-0.037341956,0.053525884,0.060865123,-0.030978253,-0.13668714,0.02608513,-0.12636483,-0.0029451312,0.011048388,-0.12922198,-0.11409791,-0.03659687,0.015272332,0.08532519,-0.065904945,-0.14032932,0.18582745,-0.3655352,0.23250799,0.018502956,0.1154143,0.00406758,0.116540976,0.12136026,0.022492634,0.06034118,0.05765391,0.051287916,0.10617614,0.00043983042,0.062438756,0.1465223,-0.11146433,-0.0064087715,-0.12737656,-0.11204558,0.08466917,-0.22398639,-0.15319517,0.023351206,-0.16368203,-0.1580063,0.23341839,-0.2095528,-0.196849,-0.11747926,0.048357595,0.03847088,0.0776702,0.15026928,0.09086013
-0.16759823,0.090784036,-0.05794003,0.08460867,-0.10425383,0.21098861,-0.075149335,-0.0848305,-0.0465762,-0.16026528,-0.18548581,-0.057180393,-0.25305036,-0.09450567,-0.097814046,-0.2926891,0.122166514,0.08780012,-0.10308685,0.14383088,0.16627201,-0.13165548,-0.17825879,0.004410182,-0.2507569,0.15772153,-0.17206681,-0.10646643,0.08977797,0.09760084,-0.11972757,-0.06643644,-0.1404622,0.17024559,0.0044975267,-0.0008027489,0.22442448,0.05931059,0.05923704,-0.23392333,-0.05488362,-0.16156432,0.18993881,0.20747307,-0.16295607,-0.10483088,-0.016303224,0.1166642,0.15908897,-0.18993612,-0.15971923,-0.08065445,0.06810455,-0.08871117,-0.017630082,-0.108571835,-0.13417551,0.0452742,0.005008806,0.03438571,0.080113135,-0.37655798,-0.12753747,-0.17803052,0.00079113594,-0.09528069,0.04286382,0.20859016,0.021835407,0.16328396,0.03555861,-0.06824849,0.040013015,-0.13358545,0.259479,-0.094361804,-0.086251386,0.0043695956,0.09976953,0.0074449717,-0.03678594,-0.14326173,0.138491,-0.13709572,-0.2425331,0.05177857,-0.0026216668,-0.14260188,0.0362268,-0.15071209,-0.19158031,-0.2010328,-0.0022060955,0.008024686,0.079067625,-0.079817526,-0.109055445,0.111304834,0.18602817,-0.011437109,-0.2604212,-0.13075663,-0.06457602,0.09968365,0.035679284,-0.077036306,0.27062866,-0.17614132,-0.095140845,-0.12451268,-0.022681968,-0.13685739,-0.14997242,-0.043166865,0.12674105,0.18845607,-0.028365558,-0.11207347,-0.08552104,-0.014938936,0.071281366,-0.036374077,0.16302457,0.086038396,-0.19246621,-0.10061414,-0.05885608,0.15514125
-0.013489764,-0.11862905,-0.085950546,-0.10720016,-0.1445079,0.040575325,-0.06647943,-0.02154763,-0.03312851,-0.0056258435,0.055656966,-0.040381804,-0.14279765,0.008753886,-0.15024324,-0.020252034,-0.025845515,0.068896174,0.041407347,-0.106536776,-0.02569741,0.043454926,-0.06927944,0.00737522,-0.08731967,-0.17286354,-0.024371196,0.14849073,0.15071179,-0.037968125,0.047758177,-0.14102615,0.027459178,0.20301236,-0.055460453,-0.11112779,0.11423835,0.076653644,-0.08726057,0.10892572,-0.005521436,-0.0051428946,-0.00409404,0.036179215,-0.061120823,0.030278295,-0.18334305,-0.06258081,0.0999348,-0.049102016,0.06051101,-0.13920859,0.096938044,-0.19763742,0.2867187,0.014188677,-0.0701805,0.1542221,0.12594621,-0.08252745,0.12632552,-0.16235927,-0.08013691,-0.19264665,-0.07313306,-0.099904366,0.13737294,-0.019636147,-0.0598939,0.004498566,0.05814228,-0.19808923,-0.17578803,-0.08912351,-0.20910369,0.039624665,-0.014832616,-0.06926948,-0.05114898,0.020686004,-0.16552505,-0.058363598,-0.1296248,-0.08949795,0.107146375,0.07246325,-0.08646635,-0.100408964,-0.14686579,-0.21128048,-0.007459332,0.06333606,-0.24183728,0.08094251,-0.19439882,0.016497573,0.0016238039,-0.14198412,0.040056307,0.24433647,-0.2560048,-0.117404915,0.041550487,-0.016346768,0.091577336,0.101767674,-0.025784822,-0.080599435,0.26043865,-0.071284235,-0.00018161983,-0.025018077,0.056133818,0.070165254,-0.01642979,0.09306683,0.10188489,-0.07958293,-0.025802406,0.094293155,-0.18849777,-0.15619776,0.08652668,-0.09667269,-0.0034537236,0.17932792,-0.022837361,0.16936311
-0.06175166,-0.097484276,0.029968698,-0.0138479145,-0.023069134,-0.020274315,0.0882375,-0.23756701,-0.11576124,-0.0067271753,-0.044090565,-0.064406656,-0.05367763,0.0035265775,-0.0945337,-0.20009342,-0.045691337,0.1262597,0.21013406,0.025223572,-0.2187408,-0.05148673,0.08414576,0.1055184,-0.31025907,-0.12995198,0.06424058,0.0209116,-0.0877678,0.10352503,0.03881156,-0.10838005,-0.024779283,0.21279053,-0.28220227,0.01718031,-0.023806656,-0.0029561538,-0.0863199,0.18159579,0.097182535,0.007901244,-0.00033140602,0.12961231,0.16760746,-0.12292514,-0.05734725,0.048097357,0.13762933,0.06676349,0.008825534,-0.108260855,0.03123922,-0.004461537,0.032697752,0.09732451,-0.027412849,0.086710855,0.11772426,-0.076164156,0.11673468,-0.20113537,0.08650804,-0.37806615,0.009689612,0.041810166,0.12134877,-0.01943353,-0.080674976,0.091616094,-0.055460706,-0.08214409,-0.17096233,-0.13094662,-0.14694434,0.123225875,0.01811828,-0.13344671,-0.040241692,0.0872792,-0.14361209,-0.13176955,-0.1117426,-0.024784468,0.1837892,-0.07911073,0.030264389,-0.016899392,-0.109576255,-0.21560107,-0.0017114483,-0.06519924,0.008811212,-0.026197504,-0.003575569,-0.020719744,0.009730015,-0.03125263,0.071699694,-0.0489718,-0.06775583,-0.16416201,0.11626267,0.05477556,0.17672351,0.044533797,-0.054623116,0.07841924,0.12647867,0.20650083,-0.08007073,-0.022891074,0.104745746,-0.13747872,-0.04502063,-0.09594372,0.09465554,-0.059861477,0.06602955,-0.04890035,-0.11413724,-0.0871278,-0.16233265,-0.17134452,0.10815579,0.15832192,-0.059796195,0.007556128
0.08049586,-0.11878693,-0.12815933,-0.20484182,0.040917795,-0.025875749,-0.12152119,0.051814064,-0.08497923,-0.100329146,-0.028376056,0.096688695,-0.124344744,0.008914785,-0.023766043,-0.005273263,-0.015209012,0.035007745,-0.0055637024,0.007025357,0.069708325,0.0072374647,0.08702838,0.014992904,0.12689391,-0.09568222,-0.11192908,0.058738884,0.0064353454,0.13136972,0.0771827,0.043389168,0.07216058,0.04399021,0.13772105,0.0607658,0.06660171,0.10779277,-0.0455124,0.12291957,-0.024047978,0.07354438,0.10793356,0.011700508,0.14946339,0.10643662,-0.0018711167,0.06796624,-0.15149339,0.17351216,0.07636124,0.09381217,-0.022001158,-0.1789719,0.010531664,-0.0028162114,0.17390786,-0.14941137,0.08396768,-0.12002832,0.10357141,0.19634983,0.10302423,-0.074463755,-0.16501673,-0.13225852,0.16091968,0.10081288,0.1080634,-0.0427598,-0.17506012,0.14866608,-0.015507135,0.0079981,-0.11265534,-0.103350654,-0.066868216,-0.054461136,0.0045890594,0.013477346,0.1700457,0.19813491,-0.10599654,-0.042678945,0.14390814,-0.11358721,-0.045838647,0.11848628,-0.09442713,-0.10941893,0.040800687,-0.009976875,0.26855966,-0.076525524,0.13043046,-0.06534157,0.13720278,0.010051519,-0.011144013,-0.008698245,-0.036836505,-0.090313025,-0.0009874947,-0.012043927,-0.085030265,-0.14078371,-0.012583094,0.084237315,0.10368726,-0.17749687,-0.0513067,0.04322556,0.02407971,-0.02141213,0.06770366,-0.11738984,-0.17158234,0.079574235,0.037023425,-0.17394054,0.08374129,0.18294115,0.10910122,-0.08834586,-0.102728255,0.12502886,-0.014611924,0.0207721
-0.06034428,0.054500833,0.05634515,0.08682581,0.07051488,0.15423681,0.020329628,0.14479746,0.13132775,0.12236139,-0.18130901,0.07415855,-0.057635553,-0.061168898,-0.02366699,-0.06750629,0.09844501,0.08935459,-0.09484987,0.04975557,0.09833748,-0.2509827,-0.31690994,-0.041487467,-0.27663523,0.26545092,0.19377398,-0.06854483,-0.011660109,-0.1592484,-0.002636336,-0.045076724,-0.20377064,0.06548743,0.010460144,0.1682701,0.28342086,-0.14859709,-0.026614359,-0.18327375,0.0430329,0.041124877,-0.0125714075,-0.07201984,-0.16011538,-0.029227728,0.13601065,0.07960737,0.13714688,-0.13564911,0.2232107,0.15256365,0.050051607,0.105144836,-0.18532124,-0.094532065,0.051854685,-0.10891794,-0.008153855,-0.076364934,-0.18759361,0.020869669,-0.015292334,-0.03533713,0.068647146,-0.010106903,-0.13584243,0.033334084,-0.10755251,-0.30463088,0.12551138,0.07340647,-0.0068620737,-0.012506465,0.10556427,0.0852903,-0.13096263,0.031235507,0.20716305,-0.12945788,0.100612305,0.07775971,0.17930382,-0.080222465,-0.006312751,0.13982213,0.05275551,-0.0428792,-0.0007343313,0.15852864,-0.22798936,-0.093857855,-0.016463932,0.04815656,0.17292726,0.005815195,-0.0633299,-0.05117788,0.04694298,0.09230121,-0.1415375,-0.2046136,0.07742995,0.07777794,-0.09952279,-0.031245353,0.17420556,-0.071676336,0.094525516,-0.083568506,0.017752146,0.09703751,-0.03478033,0.17589411,-0.025845073,-0.09909242,-0.23586057,-0.16185194,-0.1043354,-0.1375514,0.12206955,-0.09892716,0.024524976,0.14073274,-0.06262721,-0.0363554,0.1391066,-0.05838852
0.11842712,-0.12483592,-0.15216844,0.06993919,0.07863397,0.051702626,-0.0030763801,0.06477868,0.06290266,0.10654193,0.031462934,0.0209948,0.02400344,-0.02726869,0.12754187,0.010483721,-0.08878743,-0.022115134,-0.06960823,0.068240725,0.15193233,0.12051797,0.016913043,-0.07364244,0.24963787,-0.02161926,-0.028756116,0.13246997,-0.080480725,-0.11678566,-0.08276582,-0.08029782,0.2913004,-0.25576675,0.15937233,0.17984596,-0.047095466,-0.15226449,-0.059707955,-0.15683687,-0.04424714,-0.008370971,-0.0867428,-0.01596474,-0.13549235,-0.07818164,-0.021378737,-0.065342516,0.010017038,-0.24665107,0.003592802,-0.08497839,-0.10253714,0.103231594,0.107727766,-0.011212436,-0.07044658,0.07390357,-0.18825029,-0.0713723,-0.021609234,0.030554416,0.0200357,0.16955361,0.020517683,-0.018801142,-0.18423888,-0.16301079,0.070502214,-0.058677834,0.044077065,0.062019587,-0.031843353,0.0133763915,0.03403258,-0.08316376,0.082617074,-0.16549346,-0.06435999,0.072247714,0.07444913,0.035832178,-0.0024480554,0.023265386,-0.073543996,0.0020747005,-0.017464802,0.04102151,0.0034358238,0.045806494,-0.0541666,0.022670344,-0.09615351,0.05595409,-0.0057310383,-0.1023713,0.00553361,-0.20962754,0.0034582005,-0.023818646,0.09420664,0.29994503,0.039136168,-0.20207869,-0.15737158,0.005247193,-0.16146925,-0.11385009,-0.026124757,-0.009231269,0.15568122,-0.116777554,-0.014988657,0.12759323,0.014244246,0.015317238,0.088202044,-0.03192055,0.06943624,0.028346779,0.18788895,0.09296577,-0.00875671,0.15738888,-0.090031594,0.012358386,-0.07593986,-0.14246398
-0.071865626,0.08253465,-0.044171266,0.027121222,-0.00847391,-0.08012964,0.14160036,-0.16741095,-0.039564777,0.07836065,0.17954615,-0.015584964,0.07612202,-0.1271685,-0.086354464,-0.025061471,-0.09304582,-0.07322289,0.0863048,-0.0425915,0.06724779,0.0999057,0.15636234,-0.1461242,-0.24075316,0.03395481,0.0072356313,-0.048217744,0.02774787,0.17649685,0.034770705,0.05688984,-0.060871214,0.21086544,-0.109559454,-0.107260644,-0.049860787,-0.12172704,0.2405252,0.049172506,-0.011724579,0.0050538136,-0.08205877,-0.14020686,-0.03697036,-0.09064429,0.20467019,0.17081189,0.15992355,0.06650949,0.15125789,0.10377571,-0.16496532,0.0028229132,0.050686784,-0.16312209,-0.018742358,0.10323575,0.1555878,-0.1750809,0.15685478,-0.0034658024,-0.008068427,-0.014921435,0.07645115,0.039429635,-0.007624057,-0.055072725,-0.04328738,-0.051127147,0.06928694,-0.12963222,0.18809167,0.07555822,-0.28092617,-0.023670075,0.13909934,0.16649005,-0.14453456,0.01940578,-0.10151973,-0.1742489,-0.04369486,0.006351027,0.014297983,0.026224608,-0.08018554,0.03562912,0.064226605,-0.09111103,-0.0026894477,0.10794234,0.02316797,-0.019209947,-0.06592213,-0.010333315,-0.22763076,-0.02684122,0.06000295,0.20816448,-0.03243363,-0.052932285,-0.05286345,-0.15748338,0.06158694,0.06932049,-0.18916328,0.008224119,-0.008527714,-0.17551842,0.032443766,-0.096596256,0.0058203107,-0.0849716,-0.0143886795,0.090304986,0.2049009,-0.04882217,0.11529054,-0.13398188,-0.123229824,-0.057580665,-0.013506395,-0.027435392,0.0012577986,0.0853903,0.07956443,-0.22653681
0.04258671,0.123387754,0.015195068,0.098933436,-0.01483765,0.06853213,0.121764205,-0.033482905,0.03442972,0.07144187,-0.019003477,-0.05597809,0.07956163,0.09381047,-0.19245186,0.18178594,-0.016163262,-0.049931537,-0.15191658,0.028876299,0.029302724,0.051728435,-0.06231655,-0.043122135,0.15444098,0.108924195,0.02416504,-0.25245512,-0.008159004,-0.05536465,-0.0032748382,0.19260052,0.068377,-0.16243774,0.18758234,-0.062267933,-0.05751779,-0.04461592,0.0989503,-0.058340248,-0.062894344,-0.02500005,-0.16631013,0.08389524,-0.14036684,0.042388454,0.079414286,0.014387084,-0.04867828,-0.07478223,-0.07890129,0.11019748,0.14021325,-0.0034829935,-0.0046730014,-0.05968048,-0.020473106,0.05421228,-0.16290578,0.05168175,0.011115457,0.1311629,-0.05295537,0.011238301,0.17792426,-0.007920099,-0.082518816,-0.13725552,0.032250613,-0.05656652,0.016180512,0.06268128,0.04235765,-0.02848266,-0.08538648,-0.14799774,-0.0572211,0.16966233,-0.023667198,0.11992766,0.14693342,0.10373424,0.16188706,-0.325834,-0.061670106,0.05799248,0.060104232,-0.09569851,-0.071222685,-0.001258945,-0.12712786,0.0243749,0.01885098,-0.04392482,-0.06651459,0.04250327,-0.07922596,0.16630028,0.0025442305,-0.004481413,0.006719184,0.17505166,-0.12547061,0.036916815,-0.040445313,-0.11876595,0.060145583,-0.021128776,-0.1015916,-0.08251563,0.0707133,-0.005861356,-0.054391436,-0.003922432,-0.17889158,-0.08848823,-0.056093916,-0.11115795,0.070230685,0.06345913,0.2169215,-0.16817464,0.010620333,0.20736004,-0.058412842,-0.071302995,0.00069187,0.12756893
-0.032859396,-0.011711049,0.01812166,-0.19954452,-0.03453822,-0.068767786,0.088308536,-0.26349986,0.0059795477,-0.0032654551,0.0036722454,0.023073751,-0.14200522,-0.030738315,-0.03426032,-0.21780878,-0.10693446,-0.11508936,-0.12524922,-0.16109794,-0.08994111,0.008815263,0.024850301,-0.053234905,0.024808934,-0.08504326,0.012460842,0.050525937,-0.008662433,0.07486557,-0.085741974,-0.15113792,-0.17340825,0.039718475,0.13403697,0.0031448954,0.2243008,0.103777125,-0.096860036,-0.14490388,-0.067409694,-0.12473205,0.1404898,0.0031015943,0.04893635,-0.00670257,0.028376425,-0.06949234,0.0132756885,-0.058469333,0.022237174,-0.07894142,0.012939004,-0.13084419,-0.15447623,-0.067177616,0.06619865,0.008053942,0.2707169,-0.06380315,0.07993857,-0.031064127,-0.06789631,-0.07855869,-0.14962912,-0.00041866722,0.30958503,0.19496225,0.10190344,0.15257162,0.008713845,0.07578191,-0.009881388,-0.00042284586,-0.03800329,-0.19034708,0.023285137,-0.12462548,0.062393617,0.16646342,-0.1399358,-0.040456396,-0.06669446,-0.023879798,-0.035394885,-0.0015772731,0.14815275,0.051598296,0.0639068,-0.066719376,-0.13370357,-0.18348974,0.10864565,-0.020053338,0.16655426,0.0014879678,-0.024603376,-0.056386303,0.005536107,0.0986195,-0.09338906,-0.076818705,-0.0011991186,-0.103929326,0.016100986,0.135937,-0.025477786,0.1301186,0.01219106,0.0026491731,-0.024958821,-0.1770242,-0.050143585,-0.033692792,0.10780454,0.010166199,0.07961218,-0.13981572,-0.04228105,0.08711854,0.027506744,-0.09458343,0.13303697,-0.22602907,-0.21629043,0.10658637,-0.2170034,0.05911129
-0.052325234,0.07126716,-0.014019481,0.15452772,0.094720505,0.28239405,0.08785826,0.016809365,0.013112252,0.011730909,0.16224974,0.024742104,-0.16984583,0.08118953,0.04305423,0.0016527511,0.0893402,0.08095216,-0.117801405,0.10624764,0.2151246,0.15376686,0.09258098,-0.089657374,-0.22065589,-0.037910633,0.005852614,-0.13675115,-0.120199576,-0.06856984,0.13264687,-0.0001806194,0.047457226,0.13988073,-0.028649675,0.0050908956,0.02201433,-0.08639555,0.19099909,-0.21969499,-0.021717405,-0.0415132,-0.051749956,0.08911207,-0.058945768,-0.0865452,0.038584273,0.10937642,0.059583463,-0.08126275,0.04496791,-0.09735104,0.16222988,0.079587154,0.16322844,-0.099982135,0.06030549,0.0055969064,-0.025734205,-0.15197173,0.07857373,-0.16674562,-0.18893059,0.12852421,0.046460275,0.06717759,-0.10412672,0.0720732,-0.11381461,-0.031336617,-0.083848014,-0.0680863,-0.017221447,-0.11964121,0.16223648,-0.053831395,-0.017975992,0.18923026,0.011369732,0.16549882,0.11903997,-0.31478125,0.120760866,-0.05851113,-0.030818507,0.10912274,0.040409695,-0.203632,-0.10956938,-0.04410586,-0.16448955,0.030205937,-0.009810882,0.057987023,-0.048906866,-0.0038578152,-0.041107245,-0.045612033,-0.058107812,-0.11791394,-0.052825168,-0.0337703,-0.092809066,0.12487361,0.060359947,-0.15334144,-0.01568139,-0.126295,-0.103875935,-0.04561691,0.09317751,-0.015724733,0.18685421,-0.038275965,0.13040933,0.13511002,-0.0075938813,-0.055559196,0.14478326,-0.07101519,0.20259996,-0.017873688,-0.049386553,0.05180619,-0.07305056,-0.09695852,-0.061386462,-0.03098599
-0.09411981,0.09807665,-0.03524823,-0.007859167,0.044810195,0.071196824,-0.12035215,0.029891113,0.024267236,-0.08585928,-0.11464026,0.10030386,0.029419785,0.2517892,-0.24349973,0.22963612,0.10632846,0.024373548,0.06471903,0.11907694,0.04720483,-0.031159755,0.008714439,-0.121881746,0.04498723,0.03452909,-0.17763157,-0.2264541,0.07450628,0.22967622,0.07732728,0.21471106,0.22289865,-0.086475395,-0.13814011,-0.10354813,0.01734322,0.08785834,0.11995085,0.10278991,-0.0025225508,-0.115319,-0.04277482,0.020724688,-0.07564143,-0.10829753,0.01700511,0.1670785,0.05969213,-0.05030525,0.065998495,0.11592172,0.09276096,-0.10249647,-0.10184986,-0.099744014,-0.0018697518,-0.022470905,0.0021504816,0.06993285,0.16110966,-0.12369105,-0.06446986,-0.0010344193,0.1252649,-0.11133753,-0.1801544,-0.040278908,-0.17555234,-0.101389535,-0.07303155,0.12434117,0.074767284,-0.2887914,-0.09736971,-0.017889807,-0.120170645,0.17179254,0.16892605,0.02122935,0.08988309,-0.07293984,0.12460923,0.09313689,-0.022781063,0.14578526,-0.04473118,-0.23476273,-0.053981356,-0.03614003,0.015653284,-0.0637053,0.18441002,-0.080100745,0.21340853,-0.099749155,-0.11760512,0.19212824,-0.011917088,-0.08551987,-0.026462005,0.22084472,-0.1660174,0.20319791,-0.14884476,-0.14013752,-0.00011671164,-0.0429451,-0.10021675,-0.083218776,-0.07514197,0.151393,0.022282943,-0.024785819,-0.12060405,-0.03084694,-0.1425553,0.086650535,0.06841216,-0.01106711,-0.114346415,-0.028599018,0.039925717,0.122481264,-0.08168939,-0.008891097,0.29729423,-0.09931732
-0.08685446,0.028025758,0.015211799,0.07788045,0.033207502,0.030658737,0.073861554,-0.15186737,-0.054877542,-0.004673773,-0.053658053,0.10646383,-0.23392037,0.027783526,0.03748949,-0.02373074,7.1551476e-05,0.10566208,-0.06836348,0.020277511,0.101790905,-0.015871607,-0.06450416,-0.03953503,-0.13662596,0.070951514,0.025144415,0.038011562,-0.09686999,-0.0063138893,-0.10533374,-0.004192076,-0.054441676,0.053252123,0.10913332,0.051281013,0.24306059,-0.13285778,0.0063706283,-0.21355666,0.003976461,0.010801048,0.06414678,0.15459098,-0.104775056,-0.058142394,0.041975066,0.041534465,0.015796877,-0.08121734,0.11419297,-0.20767461,0.16407597,-0.032930184,0.09866045,-0.122055806,-0.038555887,-0.00574679,0.0515873,0.009137861,0.05255915,-0.113779135,-0.032960027,0.068836674,-0.17942879,-0.0622753,0.09474921,0.033713184,-0.04266505,0.016912257,0.046499137,-0.16745496,0.032058384,-0.02511968,0.23614968,-0.071824566,0.043894988,0.07771934,-0.034274068,0.055887733,0.018683717,-0.10978184,-0.07801997,-0.023552034,-0.15294704,-0.05151511,0.07486049,-0.12571082,0.13174202,-0.096445836,-0.08989063,-0.17224266,-0.078185976,-0.029852878,-0.09452245,-0.052137244,0.049913764,-0.13414538,0.027398678,-0.079787664,-0.32074073,-0.01717033,-0.06863936,-0.097507894,-0.08423361,0.05946906,-0.048230197,0.060200334,-0.11423884,0.041972514,0.10608052,-0.067718804,-0.053287867,0.08107007,0.10530647,0.08269257,0.03540114,-0.066155605,-0.040472012,-0.0033084205,0.08828717,-0.060901787,0.0006809565,0.01307908,-0.13370368,0.031417247,-0.14010932,-0.021942217
-0.06269822,-0.18130101,0.20502557,0.008485311,0.09203954,-0.11770882,-0.008524965,0.052575566,0.23001121,0.055512123,-0.22554122,0.08427073,-0.025639882,0.023418542,-0.08663435,-0.027171787,-0.073224485,0.27346125,0.17213558,-0.0789079,-0.26566705,-0.18570808,-0.20377815,0.031404868,0.01785198,0.03348595,0.14333232,0.035820287,-0.085994944,0.08818653,-0.04035459,-0.38399222,-0.0734827,-0.09475258,-0.19705585,0.05142934,-0.069226585,0.041695587,-0.07969937,0.04586952,0.22839469,-0.16354609,0.06256533,-0.2516942,-0.053539284,-0.2196597,-0.23337734,-0.033201903,-0.0116379885,0.06594507,0.13001825,-0.06420554,-0.022227483,0.0047154324,0.08688747,0.059896134,0.09041484,0.07939075,0.13292232,0.08416552,-0.10596724,0.036470603,0.029888533,-0.14672998,0.13077702,0.04380278,-0.01077723,-0.0639107,-0.21774805,0.025837695,-0.042171426,0.02838595,-0.19341198,-0.024937274,0.17077233,0.22919719,0.044102844,-0.28092378,-0.009545398,-0.12879173,-0.16538079,-0.030103156,-0.05727456,0.09871606,-0.20480362,-0.12921715,0.084200114,-0.018303761,0.0114899445,-0.15214452,0.24810328,0.19580503,-0.06159095,-0.07585432,-0.06627431,0.11973455,0.03442164,-0.07477637,-0.046576746,-0.13712533,0.040465347,0.08740473,0.12480717,0.1535972,0.04503,0.20397063,0.03995004,-0.041302387,0.10467616,0.22212334,-0.10226554,0.07861481,-0.22705159,-0.022867618,-0.055024814,-0.075716935,0.01568188,-0.038402997,-0.2309102,0.06942521,-0.1638588,-0.052050944,-0.21610142,0.02957361,0.17610857,-0.019400079,0.087218896,0.02200888
-0.13592602,-0.028023137,0.09125137,-0.13715926,-0.031404596,-0.04562933,0.3062884,-0.19124258,-0.13510764,0.14873002,-0.057317697,-0.08672857,0.16721824,0.068942234,-0.25128114,0.12794499,0.008582771,-0.13803382,-0.057707563,-0.12434535,-0.15483634,-0.011027675,-0.053205825,0.039472606,-0.044878643,0.020495739,0.07384008,0.09238018,-0.04826256,0.08124648,-0.1706784,-0.017979002,-0.043390345,-0.045491427,0.17963493,-0.12580031,-0.18926041,-0.053358156,-0.087773584,0.07519018,0.13250597,-0.0135779595,-0.186238,-0.13490747,-0.05576956,0.035605833,0.22461331,-0.1287527,-0.011509533,-0.07257341,-0.14689246,0.04283929,0.07829646,0.08068053,-0.07461656,-0.11271524,0.044719953,0.095866434,0.2486316,-0.15930295,0.025502052,-0.006627388,0.019010553,0.052055538,0.026959397,0.012647223,0.17337628,-0.14273137,0.10618464,0.111001484,-0.07283075,0.113341644,-0.043889504,-0.012926819,-0.12534146,-0.1188812,0.09095206,0.010121279,-0.12150311,0.111446016,-0.1856526,0.13216972,-0.07931646,-0.154638,0.15589233,-0.07394746,0.18360683,0.01682403,-0.00037822782,0.059694476,0.036847606,-0.0058224453,0.0034072464,-0.055334315,0.09707473,0.13565464,0.07692611,0.0216252,-0.063236915,0.02462734,0.11276042,0.0048436327,0.031245692,-0.022831744,0.0578063,0.057336397,0.009016634,0.07519588,0.030334914,-0.118689485,-0.0044155964,-0.1787478,-0.12225535,0.034397345,-0.14512031,-0.13544846,0.080874,-0.120420195,-0.20419963,0.002552481,-0.073820695,-0.12616952,-0.029963002,-0.0201925,-0.0029646372,0.05999042,-0.084952414,-0.05247451
-0.041135352,-0.08506025,-0.02688775,-0.08965015,0.029560609,0.042352296,-0.10648993,0.0015369584,-0.14131033,0.17839445,0.058988493,-0.04724394,0.029820306,0.09766695,-0.07469743,-0.023567721,0.029307181,0.031108249,0.0428438,-0.074028105,-0.022427512,-0.010588457,0.03334901,0.07412284,0.28292304,0.032621183,0.006289409,0.020991128,0.12251449,-0.08890866,0.0561575,-0.01840049,0.26461408,-0.057415795,-0.031477842,-0.041613247,-0.016069256,-0.08085751,-0.11497879,0.042574387,0.0027330574,0.00031750975,0.0480727,-0.06217264,0.043741416,-0.0035561493,0.07901202,0.018248847,-0.12034921,0.009058109,-0.09952725,0.13545169,0.04927717,-0.064382434,-0.1383906,-0.0050248536,0.2550725,0.04200372,0.020798134,-0.092467494,0.0054072184,0.032751467,0.052213434,-0.031035727,0.015678858,0.06428642,0.084313914,-0.065868855,0.018710209,0.014436157,-0.106451124,0.1825024,-0.05593629,-0.0072538992,-0.24917716,0.035812672,0.098162495,-0.111973196,-0.10045387,-0.038290203,-0.04600202,0.16760802,-0.10184201,-0.16011253,0.14343427,-0.11571523,-0.028769618,0.052859087,-0.012859072,0.0069815577,-0.049980942,0.036934715,-0.016118478,-0.059892014,0.10437743,0.008459806,0.13361445,0.17094159,0.07746206,-0.0069543417,0.18640104,0.18112412,0.03763308,0.026185405,0.14772955,-0.03463008,-0.009184705,0.10261611,-0.0027064423,-0.07501042,-0.028607052,-0.03244916,-0.015088131,0.14098082,-0.030330308,-0.035997417,0.033662993,0.00029876266,-0.069262795,-0.08039512,0.024795491,-0.010106125,-0.053840984,-0.0909185,-0.026964564,0.12756823,0.02358411,0.16445734
0.018782426,-0.056894243,0.084356256,0.031142768,-0.00043793523,-0.123167135,0.06802098,0.11251928,0.05741805,0.030845175,-0.090442345,0.074935146,0.19697028,-0.043132346,0.038534056,0.20009348,-0.08818755,-0.024950746,-0.14181337,-0.014538053,-0.109285116,-0.030561682,0.008146191,0.04381768,0.08362696,-0.053295538,0.11112667,0.10335418,-0.042445365,0.10924818,-0.041362993,-0.008740917,0.062203605,-0.15619875,0.10471063,-0.15094127,-0.027508365,0.11254368,-0.0054714773,-0.06685537,-0.0995624,0.093176425,-0.08353243,-0.16728869,0.13928686,0.028173985,0.04970853,0.0063642156,-0.02242643,-0.091152154,-0.1390412,0.101184234,-0.14323328,-0.057969276,0.07687679,0.0387794,0.05353745,-0.06691388,-0.009967227,-0.08824145,-0.13612247,0.006975153,-0.009237025,0.009741809,0.019499071,0.083002,-0.06957811,0.05398741,0.018044597,0.103980266,-0.046248455,-0.08059222,-0.07655607,0.107567556,-0.15577085,-0.1418224,0.08149766,0.08275072,-0.07285908,0.060849123,-0.03735615,0.1607147,-0.043746617,-0.04391997,0.021971636,-0.035081275,0.012405794,0.07512821,0.19182155,0.14492646,-0.0032142722,0.069822036,0.14658411,0.11538589,-0.023829851,0.08138488,-0.029136783,-0.046661694,-0.031259675,0.14919552,0.14767055,-0.06501435,0.0067181825,0.019377274,-0.13904406,0.046099912,-0.070056975,0.05294689,-0.14070746,0.07151521,-0.0972392,0.022093132,0.018642817,-0.07420306,-0.010104457,0.053060282,0.005202391,0.022978276,-0.0060709002,0.06141166,0.15473616,-0.07996144,0.12526244,0.029141119,-0.09099791,0.089544445,-0.031944342,-0.22986712
-0.06496868,0.017402219,-0.029346732,-0.046062846,0.073649794,0.022471184,-0.0071015344,-0.078739755,-0.0041955807,0.10073428,0.102972604,-0.02809584,0.14000377,0.2512658,0.059947778,0.075501576,-0.06577821,0.057268098,0.008851495,-0.03713171,0.030948859,0.06730643,0.073008545,-0.132053,0.012744296,-0.015623371,-0.014550703,0.012850587,-0.09378064,-0.071197204,0.08230262,0.13817698,0.14328466,-0.0068009505,-0.07360339,-0.002325881,0.12691069,-0.035709023,0.02608909,-0.012315977,-0.08435222,-0.040569834,0.041281488,0.05184243,-0.11514811,-0.0060190833,0.12217592,0.049271632,-0.007230389,-0.03784186,0.028971324,-0.027754936,0.01526469,0.04708748,0.036391545,-0.11089589,0.014994203,-0.111108236,-0.012104075,-0.0015329217,0.0999257,0.038718548,-0.001868305,-0.047357153,0.009030097,-0.15646984,0.20289853,0.10033705,0.02124306,0.05178984,-0.12392448,-0.0017765474,0.049517572,-0.053219188,-0.07147851,-0.09117995,-0.059156295,0.050453544,0.16829732,0.08020295,0.01654328,0.048713475,0.078190856,-0.052572764,0.05943749,-0.1195159,0.023569675,-0.1107273,-0.037160646,-0.056898937,0.004551366,-0.12276466,0.06997649,0.10079103,0.15084358,-0.038198017,0.065151244,-0.09771703,0.058158346,0.051994383,-0.03474632,0.102558956,-0.057383727,-0.013005488,-0.12245367,-0.099869385,0.063589744,0.006230268,-0.13318153,-0.058431022,-0.038103055,-0.032707147,-0.008889141,0.03340234,-0.13338815,0.04043232,-0.04239961,-0.016376669,0.09241961,-0.13677053,0.08684746,-0.09254181,0.06911071,0.0044540875,-0.19328381,0.17624576,0.0665347,-0.07886622
-0.22152673,-0.2150202,0.03908386,0.007268182,-0.071333565,0.041591007,-0.08900413,-0.0064939037,-0.091672696,0.25199172,-0.08410302,0.010601965,-0.084518746,-0.12365751,0.11677537,0.1197967,0.040059727,0.2899245,0.026819235,-0.035385355,0.0037908887,-0.07704603,-0.09196615,0.19265738,0.11337689,0.0025969564,0.2033264,0.026978321,0.02019609,0.0680445,-0.086986125,-0.089883864,-0.015827695,-0.21101753,-0.0090118665,0.07752793,-0.2857314,-0.23036961,-0.13975988,0.018593179,-0.020504162,-0.13523172,-0.14175735,-0.008922772,-0.065959655,-0.028691316,-0.19409761,-0.11631542,-0.023272544,-0.16974284,-0.095893085,-0.06354052,-0.15013324,0.0279136,0.19459364,0.013262926,-0.13924426,0.065542206,-0.08373108,-0.0756967,-0.19910671,-0.12435039,0.05608587,0.10275483,0.087306865,0.168623,-0.11919521,-0.24687688,-0.06346266,-0.14167547,0.07515911,-0.066778556,-0.104835235,0.071111135,0.10904394,0.12537992,0.05367479,-0.16257353,-0.18364109,-0.046959125,0.0084881885,-0.010622194,-0.01001026,0.008861888,-0.1530429,-0.032763615,-0.12763958,-0.02035541,0.07530844,-0.08881084,0.037981395,0.22423689,-0.09601057,0.14185748,-0.07055232,0.052814476,-0.028164176,-0.11475187,0.0022683954,0.032557055,0.04329552,-0.0062453863,0.1328665,-0.035531405,0.0717854,0.18698876,-0.04692102,-0.0022615595,0.029535983,0.17146622,0.08613281,-0.061918635,-0.23331945,0.19879764,-0.048821505,0.021727255,-0.0152440015,0.045443114,-0.10933838,0.08351616,0.022260668,-0.07926537,-0.012051541,0.067295425,0.046265528,-0.0661206,0.022603337,-0.1298498
-0.055267613,-0.11612302,-0.00559806,0.031730164,0.0038680835,0.09637055,0.061006412,-0.028155822,-0.067233846,0.114250265,-0.035611823,-0.063769385,0.096016735,0.06492281,-0.14381306,0.046968415,0.11945497,-0.18725334,-0.14231195,0.07689267,0.017674858,-0.06469669,-0.04177361,-0.029421113,-0.008728434,0.015403946,0.04849065,-0.10145183,-0.09331823,0.115499675,-0.025870312,-0.09682865,0.007828662,-0.0337453,0.14949498,0.10800516,0.07387045,-0.008654389,-0.013812199,-0.099124566,-0.04290301,-0.0013750556,-0.089882106,0.14172737,-0.022727842,-0.03953871,-0.043565508,-0.0075398395,0.017050764,-0.12488883,-0.08457117,-0.059701603,0.08715339,0.028600149,-0.10509014,-0.026392931,0.0640833,-0.025529465,-0.059097596,-0.092173636,0.033777263,0.03933534,-0.050073434,-0.030954193,0.022178952,0.09898461,0.02107049,-0.06955999,-0.08304111,-0.015900116,-0.05609928,0.14576526,0.023841102,0.01657075,0.028875556,-0.09816436,0.04004687,-0.10450066,-0.057963595,0.09834386,-0.009849866,0.016267905,-0.014437912,0.02182164,-0.0458134,0.020709869,0.1803437,-0.08905876,0.019535907,0.10344075,-0.02704705,0.12294505,0.1348303,0.11019734,0.13157941,-0.061429966,0.04766912,0.020100486,0.026033102,-0.03235931,0.12100642,0.07371694,-0.01636748,0.11663881,0.078498505,0.03818461,-0.057875816,-0.06895735,-0.16778667,-0.048903476,-0.049974546,-0.085591875,-0.088466845,0.061154068,0.13987292,0.07522479,0.10586032,-0.16103299,-0.06151051,-0.067932546,0.20666999,-0.04807147,-0.054808915,-0.08445579,-0.054951392,-0.087484896,-0.09153327,-0.037003357
-0.046131503,0.049105898,-0.18631886,0.16248786,-0.06383581,0.24915162,0.059246693,-0.0854813,-0.1525875,-0.043790195,0.14561193,0.09521321,-0.07890634,0.029800812,0.12936226,0.056440413,-0.12639634,-0.090680204,-0.26701114,0.09220271,0.34658363,0.14451747,0.12172153,-0.11051512,-0.17215332,-0.073432386,-0.15033203,0.12225013,-0.089490496,0.037276465,0.018671636,-0.063599914,0.02822437,-0.024252452,0.2403536,0.09037369,0.1466025,0.04516265,0.13102637,-0.35864386,-0.27541226,0.07746408,-0.025606722,0.1926788,0.10667804,-0.09209457,-0.014105616,-0.023854438,-0.0013663427,-0.019880788,0.113453105,0.023507493,-0.037715968,0.050432473,-0.014405765,-0.20595428,0.13186364,0.01209327,0.031858116,-0.29389462,0.12371915,-0.05107902,-0.20262934,0.0050971587,-0.1466372,-0.11976755,-0.1083139,0.08389159,0.05380065,0.1314908,-0.0766019,0.002924156,0.15245634,-0.045898613,0.09947273,-0.2154483,0.0011488674,0.07394014,-0.0067724334,0.19027539,-0.0839163,-0.13388655,-0.007765627,-0.019095397,0.06555724,0.02351553,0.1347939,1.3568206e-07,-0.041902002,0.02229324,-0.23936915,-0.123307556,-0.011376702,0.42739987,0.023727586,-0.14302859,0.05620939,-0.3490943,-0.008659204,0.04490937,-0.11106229,-0.031924244,-0.13022172,-0.055946503,-0.11033914,-0.028875994,-0.074846424,0.003987054,-0.29701275,-0.22529837,0.105922945,-0.08223103,0.011993731,-0.039129317,0.18943097,0.09892646,-0.09740779,-0.06674121,0.07483957,-0.036958583,0.22125617,0.008285576,0.11108099,-0.04326465,-0.22085895,0.06475026,-0.20052432,-0.19290158
