0,1,2,3,4,5,6,7,8,9,10,11,12,13,14,15,16,17,18,19,20,21,22,23,24,25,26,27,28,29,30,31,32,33,34,35,36,37,38,39,40,41,42,43,44,45,46,47,48,49,50,51,52,53,54,55,56,57,58,59,60,61,62,63
0.092371136,0.03148394,-0.34297845,-0.022189084,0.3549455,0.23247468,0.34247687,-0.2505782,0.16176115,-0.059875477,-0.10281999,-0.051641546,0.28182536,-0.13822018,0.3070049,-0.07651222,-0.010008139,-0.1169724,0.21779023,0.15488352,-0.1684194,-0.16510683,-0.18944763,-0.1869479,-0.621022,-0.23436148,-0.02769795,0.41339242,-0.15310025,0.020100964,-0.35208544,0.29095572,0.021380283,-0.20768733,0.058128603,-0.3324469,0.18043232,0.3237096,-0.267344,-0.16409059,0.27484846,-0.30451563,0.18982336,0.110465415,0.03840824,-0.02872683,0.15524173,-0.1386359,0.16161579,-0.11100193,0.18675366,-0.14337179,0.1703982,0.38264012,0.25376046,-0.27753246,-0.28035727,-0.050089024,0.080251634,0.33158246,0.19723278,0.16321625,-0.022345146,-0.23613186
-0.16052844,0.027122028,-0.11863644,0.2968496,-0.042302936,-0.23734662,-0.04128246,0.31622043,0.21309565,0.4323274,0.3162894,-0.020877434,0.11286101,0.39476812,0.25504845,-0.45078894,0.01719317,-0.41604325,0.17352863,0.00079074386,-0.1768893,-0.04803803,-0.44681185,0.20374076,-0.14050663,0.25665703,-0.097509235,-0.25312284,-0.30612752,-0.15910602,0.028010024,-0.31671184,-0.2680727,-0.05457314,0.30153248,0.032544874,-0.25179243,0.01905877,-0.23605046,-0.31567207,-0.030619888,0.100281544,-0.12208526,0.3420062,-0.40650052,-0.2141139,-0.11719253,0.065253705,-0.296696,-0.26785737,-0.03182697,-0.26319903,0.4679074,-0.15554537,0.10186196,-0.4310968,0.22528829,-0.09210831,0.29831344,-0.14439692,0.17118204,-0.3047546,0.13681367,0.08061461
0.07524569,-0.120955095,0.16992676,-0.15139091,-0.0879937,-0.30887514,-0.2828598,-0.018092474,0.14367327,-0.20619853,-0.29219642,-0.08327661,-0.074132554,-0.32631013,0.002306417,0.29640257,0.0087597715,0.023324875,-0.22135253,-0.041152254,-0.071139954,-0.033850905,0.16570081,0.17676388,-0.03741464,-0.10220335,0.03398371,-0.13859144,0.1724093,0.1531331,0.09798393,-0.1620275,-0.10883756,-0.004348347,0.011079596,0.16698383,0.07971076,-0.3261673,-0.1251702,0.021801002,-0.08816201,0.17321944,0.29322404,0.07172928,-0.0008093819,0.07971206,0.040024906,0.089913934,0.013566041,-0.1721473,0.1975116,-0.10654379,-0.33220634,0.053924818,0.10572756,-0.065326005,0.28047657,0.365709,0.12347603,0.054331187,-0.16000071,0.11524435,0.17204608,0.10457969
0.001970532,-0.28636622,-0.20572512,0.049972933,0.106603645,0.22953723,0.23778453,0.112142794,-0.037725817,-0.03154345,0.25572467,-0.046715915,0.0925479,-0.075303085,-0.41854736,-0.020000326,-0.38856697,-0.07171255,0.038057163,-0.5869824,0.3598256,0.53222317,-0.051286813,0.0439654,0.3256752,0.16907905,0.35507303,-0.1939374,-0.3263302,0.06416038,0.01937665,-0.05702182,-0.244141,-0.08728839,0.18472354,0.18511713,-0.45199734,-0.15043543,0.31178126,-0.1103418,-0.45123798,0.22702356,0.03658457,-0.2970404,-0.067050956,-0.02529331,0.06364298,0.15626578,0.35545355,-0.64700496,-0.41226703,0.4161243,0.06795748,0.10499321,-0.042173952,0.121190675,0.37207225,0.094923645,-0.060516678,0.066728406,-0.39966032,-0.060553145,0.14560099,0.22792476
0.0052524707,-0.3290838,-0.11652941,0.24128498,-0.08281846,-0.19047794,-0.11281622,0.05960551,-0.013224797,0.052328654,0.0766273,0.12911625,-0.20511034,0.08192755,-0.32486883,0.25468364,-0.12826222,-0.11444545,-0.32714683,-0.38406292,0.08243885,0.28715232,-0.14659677,0.17172375,0.5522913,0.13288718,0.37853503,-0.26188478,0.010132033,-0.029762262,0.19427735,0.123503886,-0.39726084,-0.09294285,0.206616,0.16239949,-0.31777227,-0.37341008,0.43563774,0.12659542,-0.40964213,0.3235724,0.053410225,-0.010375678,-0.43296292,-0.09556372,-0.09222092,0.079638176,-0.17365786,-0.2908478,-0.27039227,0.4399623,-0.16360672,-0.03640426,-0.30750346,-0.035093747,0.41941184,0.056242537,-0.015320624,-0.108611524,-0.2841852,0.13409705,0.04390881,0.16148882
-0.07177775,-0.24756578,-0.2591589,-0.14080831,0.17597649,-0.03731909,-0.14292842,-0.1148307,-0.06559647,0.135301,0.27238467,0.13915451,0.32063016,-0.045623798,0.0864962,-0.057571348,0.065528974,-0.23766752,0.02956047,-0.3104707,-0.028446171,0.074246906,-0.040712938,0.215902,0.19054958,0.49467242,0.32053688,-0.085901186,0.1490497,-0.21952797,0.02767544,-0.04648277,-0.31698462,0.1691802,0.33175778,-0.117428035,-0.3393058,0.27421114,-0.13662417,-0.039831124,-0.02536039,-0.14171223,0.04877291,0.11028378,-0.42139527,-0.23991483,-0.025574394,-0.12193586,-0.0043232893,-0.4048293,-0.43773746,-0.0515938,0.09214049,-0.0147037795,0.22353505,-0.12742746,0.050008222,-0.020543126,0.13819711,0.101155624,-0.10494753,0.06660438,0.24546778,0.08408407
-0.2160906,-0.17734976,-0.26430133,0.6324041,-0.5917746,-0.33392113,-0.12783553,0.20765385,0.16698988,0.41945916,-0.1019799,0.07121834,-0.025175894,0.09207196,0.29366153,0.3136303,0.1894461,-0.1477691,-0.43989265,-0.15219986,-0.09995212,0.0010898274,0.17351755,0.6355909,0.06741125,-0.0023663638,-0.15270916,-0.27762738,0.32392794,0.15994635,0.4009656,-0.053523358,-0.15824951,0.2405856,-0.3161836,-0.09019389,-0.18170005,-0.39047232,0.058559276,-0.33031046,-0.46478313,0.23716572,0.020679692,0.3379593,-0.008783148,-0.013688517,0.109499834,0.1801416,0.10124744,0.047343068,-0.26328784,0.0036363222,0.15358956,-0.014885314,0.08578101,0.029871026,0.13709837,0.31591195,0.41430095,-0.18586153,-0.07040283,-0.18720314,0.34168762,-0.15550476
-0.0282361,-0.018788023,-0.18475203,-0.33642614,0.30950192,-0.021083333,-0.004879962,-0.2705238,-0.048337653,-0.37250143,-0.020458933,-0.0034874512,0.34108767,-0.1550863,0.09457144,-0.283776,-0.24615943,0.116003245,0.23469889,-0.06518784,-0.17716955,-0.11684654,-0.11254335,-0.31458494,-0.19810377,-0.11277791,0.30166507,0.15742125,-0.048508212,-0.073153526,-0.21626584,0.10648527,0.063746735,-0.32058784,0.16778022,-0.035559054,0.0033366787,0.15991618,0.22672445,-0.07024086,-0.064921305,-0.15754564,0.25218162,-0.080018654,-0.055914205,0.16260073,0.1314161,0.013719007,0.19359873,-0.30355638,-0.007194071,-0.12350745,-0.10977693,0.0002655487,0.011079695,-0.1919796,0.010407878,0.12054848,-0.19910024,0.060012706,-0.061736684,0.100707024,-0.1222256,-0.0072578937
0.044290368,0.6938192,0.08738678,-0.08921591,0.28163847,-0.32402563,0.21164745,-0.2737371,0.35480514,-0.37138164,0.34631416,-0.24001499,0.16857181,-0.48069087,0.59981745,-0.008584885,-0.19885527,-0.31362316,0.07024279,0.5824384,0.0317249,-0.21375696,-0.37228253,-0.10667564,-0.47797814,0.09071715,0.094143845,0.27948323,-0.3147591,0.27360597,-0.39848045,-0.36889142,0.5195401,0.01869368,-0.06902469,-0.017513324,0.17233962,0.64582163,-0.5070227,-0.30749768,-0.18492019,-0.17309283,0.32295892,-0.15846382,-0.091215014,-0.21929874,-0.3382614,-0.13491991,0.53735113,-0.086503245,0.47067884,-0.17379765,-0.19380018,-0.02894941,0.2806507,-0.3813769,-0.19586204,0.411297,0.51432455,-0.32668743,0.43955502,-0.22220656,0.46058857,-0.2567609
0.18915348,-0.0095605375,0.0020897142,-0.06690091,-0.2968865,-0.26102608,-0.24204768,-0.34927964,0.1176974,-0.31261936,-0.25857642,0.036037266,0.070828006,-0.037111357,-0.018767083,0.110954195,-0.22500856,-0.039811235,-0.12440328,-0.008961798,0.20480046,0.107452884,-0.04581337,0.14364126,-0.12067927,-0.120124325,0.04315404,-0.28901824,0.16827062,0.042112187,0.17894505,0.15239833,0.15469112,-0.25062603,-0.18391612,0.24508347,0.18261656,-0.20391232,0.17093231,-0.10041228,-0.14693864,0.3239575,0.19300951,-0.040644962,0.2338864,0.08897412,-0.11494446,-0.25656825,0.17999442,-0.014049558,0.033349257,-0.0803534,-0.17614102,0.077554576,-0.0525885,0.0048392154,0.18207434,0.36026698,0.18959615,0.21140336,-0.031825036,0.12673834,0.18986316,-0.034095004
-0.32209247,-0.07650492,-0.43168905,0.19533315,0.17386289,0.29595163,0.13026619,-0.0062565375,-0.19694227,0.047115132,0.006415023,0.0035362681,0.23445673,0.41130567,0.27519664,-0.16054215,0.3118632,-0.35213444,0.10634557,0.35047314,0.1703226,-0.10380144,-0.18806355,0.075421065,-0.26613408,-0.102740325,-0.42372566,0.14888272,0.020925706,-0.10220958,-0.078129604,0.3363554,-0.005763374,0.28992867,-0.081590146,-0.4308306,-0.20383443,0.39656752,-0.062920555,-0.32269737,0.349148,-0.034234077,-0.33943266,0.04269862,-0.18197694,-0.07245363,0.34237558,-0.36175048,0.0532085,-0.2510898,-0.15224312,-0.20106858,0.30732575,0.30097508,0.4099113,-0.1359162,-0.3267675,-0.36103627,-0.3576627,0.34325904,0.24056228,0.06334298,-0.3021493,-0.26486385
0.3698804,-0.025943205,-0.0169024,-0.19409128,-0.07255741,-0.078219116,0.11963231,0.2077661,0.17063661,0.102026924,0.54635304,-0.27838922,-0.39765707,0.2522256,-0.4166072,-0.403691,-0.224393,-0.1716159,0.31023353,-0.5487467,0.10046054,0.5644363,-0.121842004,-0.2247678,0.3540904,0.16558966,0.3969971,0.09755364,-0.029039701,-0.031641424,-0.2170122,-0.23520754,0.21735714,0.19579978,-0.026197376,-0.049092263,-0.10080956,-0.04659607,0.13720691,0.28920174,0.18515286,-0.19474468,-0.10283594,0.0046438803,-0.07513953,-0.36977172,-0.28227755,0.27033138,-0.28204435,-0.06771716,-0.5607855,0.3999244,0.22788185,-0.38492092,-0.39363775,0.05568425,0.05174341,-0.30759028,0.08342832,-0.21012339,-0.18339057,-0.42138702,-0.053382635,0.42713863
-0.22483073,-0.1558567,0.07654693,0.34387508,-0.21990505,0.25427505,0.104037926,0.034398124,-0.14245021,-0.01274691,-0.21032633,-0.04386926,-0.1164246,0.15490809,-0.34593818,-0.32666504,-0.20045239,0.033606637,0.27877623,0.0011184656,0.032227676,0.15069716,0.08018188,-0.10002936,-0.0038184915,-0.13234502,0.19894211,-0.09097217,0.07250579,-0.079659,0.16735503,0.1972511,0.09001112,-0.12859578,-0.0025947765,0.08982885,-0.106609434,-0.19910535,0.40095648,-0.09031004,0.16927142,0.288537,0.053055078,0.16611314,0.30075774,0.37434143,0.22568695,0.17302686,-0.1493574,-0.091819435,-0.03104586,0.081439726,0.30345795,0.029834738,0.104896836,-0.008001169,0.2003949,-0.14736335,-0.3119011,0.042925905,-0.42546597,-0.06706533,-0.25833115,-0.0027712323
0.17547357,-0.21505375,-0.11975611,-0.08511139,-0.15935996,0.058179922,0.0003660942,0.1940546,-0.17750648,0.1994536,0.12780787,0.022547668,-0.33888292,0.08875233,-0.19358115,-0.14663348,0.080169804,0.19670567,0.06350158,-0.35641974,0.2558334,0.10711138,-0.2500984,-0.026557874,-0.03583293,0.18443158,0.12151177,-0.08390207,-0.14748052,-0.080445446,0.06721162,0.18222845,-0.08213745,0.11717481,0.06961362,-0.13833593,-0.024577495,0.085273035,0.068006046,0.07981345,0.28412005,-0.04344392,0.047015466,0.010020775,-0.17155878,-0.2737563,0.26200378,-0.08520635,-0.21699709,0.08762281,-0.33484927,0.1983168,0.03344137,-0.07444269,-0.23864965,0.25359085,0.14707647,-0.053102735,-0.1550602,-0.001283434,0.08810301,-0.100970045,0.12278749,0.084999084
-0.28147906,0.18487632,-0.25692528,0.03559932,0.2699261,0.018355668,0.23917125,-0.22189562,0.21765266,-0.22386116,-0.21532804,-0.23313463,0.46172148,-0.17637199,0.32655057,-0.17797774,-0.039043088,-0.012386775,0.17081743,0.52342254,-0.09860481,-0.3061033,-0.19744799,-0.26043823,-0.26881957,0.22260281,-0.18764955,0.24813858,-0.30995923,0.25220674,-0.43454474,0.0044714,0.1044556,-0.21883036,0.05764423,-0.20089652,-0.16901888,0.3941455,-0.023305094,-0.305433,-0.2764386,-0.015052747,0.39960188,-0.04083629,-0.240082,0.19058338,0.04541023,0.07452205,0.27315274,-0.4090377,0.46361843,-0.30004537,-0.16044734,0.1961122,0.56280977,-0.42905578,-0.3046271,0.23856379,0.087443694,-0.01754832,0.23047659,0.06927098,0.067452714,-0.25158283
-0.094020836,0.10060311,0.31336802,-0.039766476,-0.013257705,0.0335167,0.24548477,-0.03463166,0.2421429,-0.06827796,-0.12987344,0.030894931,0.36411187,0.19888788,-0.18351497,-0.14449906,-0.27538458,-0.11093673,0.3066569,-0.003949135,-0.22317359,-0.017445704,0.19175872,-0.435226,-0.0957564,-0.31192955,0.23974171,0.33240172,-0.19362849,-0.13827848,-0.13535658,0.035128597,-0.059456002,-0.29139793,-0.16109568,0.26307848,-0.036584336,-0.13029252,0.3783168,-0.09471899,-0.074835405,0.26559016,-0.14796084,0.029545924,0.35631767,0.4280567,0.17310075,0.14390284,0.022175882,-0.15666497,0.18987325,-0.024101947,-0.0033565098,0.23812883,-0.03081824,-0.22794901,0.16505711,-0.024657112,-0.024334831,0.20069891,-0.29930747,0.056275953,-0.30729827,-0.108644016
0.30190367,-0.28613412,0.04226108,-0.118564025,-0.11283942,-0.13660896,-0.3518183,-0.035269517,-0.08413182,0.055092514,0.089912444,0.19349052,-0.21821426,0.13461013,-0.022407597,-0.26651794,-0.071272515,0.014677945,0.09152955,-0.3563419,-0.018776609,0.49561796,-0.094191544,-0.007125505,0.2767833,0.33048493,0.35000437,-0.21446747,0.22046511,-0.2941727,0.25889334,-0.14698973,-0.19474615,0.114643045,0.46024686,0.3390921,-0.07397862,0.017183961,-0.095017456,0.07713284,-0.16909215,0.13115515,0.05039898,0.01799186,-0.3516196,-0.0097921295,0.015052745,-0.49341127,-0.17539611,-0.10652791,-0.32343227,0.15222941,-0.19998522,-0.25291836,-0.20271851,0.099512294,0.31812462,0.13952453,0.009999354,0.122010164,0.022706881,0.014316915,0.23303574,-0.08168639
0.23494901,0.204117,0.40994024,-0.16158366,0.18658876,-0.056489803,-0.11048696,-0.29301393,-0.1632569,-0.15233643,0.055876978,0.033622727,0.13654593,-0.24791871,-0.19531989,0.0068133925,-0.31145808,0.048420664,0.116947256,0.18598558,-0.17368531,-0.016660746,0.14790231,-0.2356941,0.1660793,0.09028283,-0.09057347,0.35679984,0.21317567,0.13790058,-0.05099538,-0.30887154,0.046264056,-0.0521588,0.09404747,0.27390492,0.21584812,-0.08448155,-0.09986117,0.13877724,-0.16654497,-0.20133293,-0.17261136,-0.07953934,0.0841079,0.08268627,0.03908093,0.135743,-0.21159762,-0.10637851,0.20010525,-0.14640144,-0.15045391,-0.11980987,0.057457827,-0.051828645,0.16780469,-0.001498548,-0.08482306,-0.08817621,-0.12805238,0.07620168,0.016063197,0.24643359
0.37728748,-0.22100598,0.10450017,0.0036269478,-0.23381208,-0.6591281,-0.29628727,-0.12429518,-0.22354929,-0.24506126,-0.20207664,-0.21905382,-0.24827674,-0.22386615,0.019031381,-0.2868677,-0.23606412,-0.08719344,0.15928438,0.23761865,-0.10178349,0.09102786,0.2721235,-0.19837937,0.1005826,0.18608677,0.0018909744,0.04579656,0.29355958,0.22629428,0.26723367,-0.116786815,0.3249421,-0.14776911,0.19825983,-0.03371181,0.22618935,0.076804124,-0.38116676,0.45433956,0.26405463,0.016187157,-0.067239456,0.26462123,-0.06921665,0.16051385,-0.049709756,-0.2938224,-0.31379843,0.17181264,0.04161453,-0.21368288,-0.30957982,-0.1359213,-0.05354273,0.036091946,0.3046313,-0.0005857897,0.26941678,-0.065492265,-0.22380765,-0.24118397,0.17943276,-0.51897436
0.033520915,-0.6873529,0.12266807,-0.24402915,0.21048744,0.040491898,0.14574555,0.36637554,-0.41178143,0.53013164,0.24841434,-0.32416606,0.06421921,0.20850633,0.049930118,0.027440248,-0.2749004,-0.4859814,0.113641046,-0.106818065,-0.50840914,0.071829624,-0.036571883,-0.09721305,0.41375247,0.31335458,0.11560863,0.04588009,-0.06296387,-0.32806566,-0.3539579,-0.58403695,-0.3974517,0.1406034,0.1109473,0.12479236,-0.4201498,0.11009922,-0.09596893,0.20450786,0.20152688,-0.19029196,-0.414846,0.49623597,-0.35250053,-0.101520084,-0.3688338,0.30627114,-0.64388794,-0.10060543,-0.16328536,0.08917976,0.45507038,0.18580304,-0.08081965,-0.2582212,0.22770484,-0.32588345,-0.15747443,-0.17466633,-0.31679657,-0.08720507,-0.14636216,-0.07934099
0.023406537,-0.14015469,-0.33185074,-0.14572193,0.21505412,0.13817066,-0.00908552,0.031919554,-0.01684331,0.032274067,0.1838023,0.022747215,0.16867468,0.2095815,0.102267325,-0.020783365,0.13522494,-0.1624313,-0.081693135,-0.33367652,0.21572196,0.39452538,-0.38108996,0.0966561,-0.015744157,0.25017026,0.10786173,-0.16089287,-0.045909263,-0.07712503,-0.11470877,-0.08998928,0.03238754,0.2763002,0.19587952,-0.100573786,-0.40266064,0.02820752,0.23553322,-0.08368578,-0.07229861,-0.09503817,0.07517397,-0.16741417,-0.46232614,-0.36508903,0.12312404,-0.23369919,-0.023468692,-0.27600533,-0.3660733,0.046604667,0.20547779,0.24950448,-0.014026449,-0.038548764,-0.17683968,0.02521244,0.23444605,0.21504386,0.17948331,-0.091055006,0.062406763,-0.09620632
-0.32064414,-0.25397018,-0.43357998,0.3611734,0.08416619,0.128828,0.13061818,-0.17250349,-0.064858116,0.15375505,-0.005676419,0.07047314,0.30119085,0.3170022,0.1902449,-0.47517037,0.0072896644,-0.29997697,-0.041775864,0.27329928,0.011830217,-0.20182882,-0.25895998,0.23335774,-0.5093858,-0.07422097,-0.20563386,-0.09863698,-0.08298997,-0.057416815,0.0077114957,0.2062262,0.08165642,0.4615106,0.11960025,-0.5362694,-0.25846764,0.33093575,-0.34300917,-0.25802583,0.27956235,0.068261966,-0.41953608,0.3375724,-0.08739091,0.111428685,0.23342726,-0.2297772,0.048068676,-0.08995105,-0.06644573,-0.32440132,0.30292806,0.45550346,0.45682305,-0.16623215,-0.33275676,-0.4292926,0.012616497,0.27747524,0.21085273,0.18147658,-0.36162072,-0.5751336
-0.18040308,-0.11726527,-0.32149348,0.17153358,0.31934792,0.10791339,-0.04545095,-0.31604278,-0.64378303,0.22137544,-0.21122725,0.11469148,0.14283924,0.033443335,0.3732893,-0.21181916,0.18276732,-0.059331976,0.059876565,0.5436081,-0.14294338,-0.54730016,0.072922096,0.3603618,-0.123982534,0.07957672,-0.6937656,0.3899908,0.13314305,-0.2931143,-0.16185147,0.03896728,-0.41978714,0.07990709,0.299113,-0.46462655,-0.14817348,0.31732723,-0.23024614,0.031265642,0.41044575,-0.024847744,-0.51311284,0.33233568,-0.05028612,-0.1658715,0.31801087,-0.5628004,-0.35691193,-0.14297856,0.12010947,-0.5369111,0.018966904,0.48584026,0.5396969,-0.3689561,-0.28886366,-0.32640427,-0.28240073,0.45032632,0.21473843,0.4680697,-0.35738602,-0.35088274
0.08996323,0.094964504,-0.030179244,0.021734975,-0.10243565,-0.24468814,-0.09600092,-0.2926783,-0.20962755,-0.30283442,-0.122103095,-0.11103454,-0.09990495,-0.33773172,-0.09395888,0.2831284,0.027428104,-0.0992344,-0.10339427,0.2752383,0.07417599,-0.29971576,0.22617288,0.012816149,-0.097979575,0.10355706,0.014865063,0.07622901,0.02602241,0.0741293,-0.052858286,0.081356406,-0.1918751,-0.06122967,-0.21265325,0.19559632,0.18919651,-0.17393754,-0.19433832,0.0028108987,-0.3072241,0.19358519,0.2586025,-0.0133338915,0.2204405,0.037643366,0.0078059337,-0.051575612,0.21046266,-0.103594474,0.16145451,-0.058283877,-0.23837987,0.21283957,0.259017,0.13800617,0.1231166,0.23043309,0.19254588,-0.17479461,-0.15172227,0.06791277,0.19248968,-0.29793817
0.12170384,0.12603053,-0.20079453,-0.18320319,-0.07438271,-0.06811533,0.20612378,0.015651282,0.21104535,-0.24353386,0.005361503,-0.1444872,0.1172672,0.14397208,-0.26073143,-0.24755424,-0.03076925,0.048122946,0.22647624,0.03106707,0.08878377,-0.15969753,-0.0128427725,-0.42173687,-0.4882902,-0.3026346,0.1156667,0.1594259,-0.20425141,0.17838652,0.10077281,0.18542288,0.3444663,-0.04482621,0.110854745,-0.2938027,0.15794133,0.100635044,0.05939137,-0.29956952,0.09769145,-0.0087697925,-0.2305325,0.27534223,0.20779246,0.29515725,-0.13854548,-0.2058295,0.20921135,-0.11016438,0.072919376,-0.1557841,0.07997987,-0.023076925,0.212488,0.11484994,0.11335029,-0.2832963,0.081020705,0.2624243,-0.1975263,-0.17831846,-0.26986238,-0.07394948
-0.09013542,0.17569208,0.40104094,-0.031739216,0.12182997,-0.08572398,-0.027097203,0.20149758,0.08725135,-0.08208656,0.11368891,0.21780495,0.27512202,0.09027846,0.4060673,-0.13921729,-0.2668182,0.04589661,0.21681783,-0.07846794,-0.44222,-0.18001741,-0.33145776,-0.1945528,0.047300637,0.29880914,-0.047880083,-0.20629328,-0.20917308,-0.058153715,0.00882892,-0.2973982,-0.3326597,-0.56199414,0.3679779,0.46619472,-0.24571988,-0.2180531,0.22226533,-0.23202382,-0.26774204,-0.023186155,0.1801457,-0.15972142,-0.32028294,-0.04929649,-0.12701227,0.070255294,-0.040497024,-0.28110313,0.040864952,-0.15306106,-0.08966451,-0.37309223,-0.3532712,-0.43619496,0.039023604,0.25416452,-0.035114367,-0.27266395,0.27987555,-0.025893996,0.18302651,0.36671257
0.1738853,0.024815688,0.21041715,0.18501347,-0.008292956,-0.15955904,-0.3799748,-0.06675277,-0.15426475,-0.31457508,-0.05005817,0.10026001,0.02740666,-0.3345093,-0.060741685,0.025290664,0.030574236,0.102720685,-0.24791919,0.022323249,-0.02210919,0.013152194,0.115258835,-0.08340215,0.1001434,-0.08154236,0.10546972,-0.1647644,0.28268757,-0.04982299,0.09548576,-0.007024529,-0.24403232,-0.27160308,0.056916136,0.11698864,0.17797686,-0.07123892,0.050600335,-0.017016575,-0.20279452,0.32135293,0.072703004,-0.19517326,0.06485485,0.12849087,0.058054388,-0.1547915,0.09190932,0.17148973,0.25723216,0.09851748,-0.4123704,-0.04155404,0.10182059,0.08529225,-0.004188314,0.20428814,-0.060534365,-0.14660147,-0.14707816,0.11522769,0.1842758,-0.09695008
-0.1567966,0.081342295,-0.2966973,0.31797227,-0.14605466,0.25559455,0.36533397,0.044465207,0.25691485,0.085590586,0.100908,-0.31651387,-0.08572338,-0.14815392,-0.041134838,0.29657918,0.43808255,-0.3231417,-0.20587994,0.30492833,0.22823106,-0.32562384,0.11370987,0.060904045,-0.1294861,-0.06803284,-0.22183453,-0.018477205,-0.059804156,0.33733502,-0.15045634,0.05935361,0.013083046,0.374706,-0.43070713,0.009233968,0.29462928,0.02270963,-0.17086202,-0.13640496,-0.36955658,0.12071531,-0.06463581,0.011045501,0.29311994,0.15861587,-0.21917967,0.30382875,0.34384358,0.2047407,0.008620165,0.3073116,-0.010120339,0.1993017,0.23883228,0.14323077,-0.2733462,0.17295662,0.24507913,-0.032730836,0.14820307,-0.010321963,-0.049921196,-4.185202e-05
0.070235096,0.20833997,-0.01464873,-0.2517478,0.19535375,0.17993149,0.24598315,-0.094044656,0.058134425,-0.07481507,-0.14131589,-0.06840027,0.101946406,0.13114314,-0.028184969,-0.08596989,-0.10129296,-0.067332864,0.027716765,0.005366793,-0.07599192,-0.2905914,0.12942055,-0.25120026,-0.30298343,-0.029396411,0.06919547,0.23135152,-0.14939156,0.032044865,-0.3080354,-0.19124691,0.1626216,-0.1351642,-0.07949322,-0.12811908,0.25313744,0.3149393,0.10829698,-0.010345883,0.20443207,-0.16325638,-0.23504901,-0.0842456,0.24305272,0.1269859,-0.09022593,0.021432595,-0.017654376,0.1464985,0.116615914,-0.10920032,-0.087133676,0.14378801,0.15999363,-0.11317578,-0.07125216,-0.17363268,-0.11082649,-0.1329933,0.041872956,-0.044906728,-0.27910072,0.19697392
0.021250067,-0.1381955,-0.06021396,0.27695626,-0.2081802,0.11047948,0.21801272,0.21586883,0.07595468,-0.110256225,-0.052462038,-0.106150225,-0.24568434,0.14692833,-0.27770996,0.25246656,0.18018392,-0.042184893,-0.028499112,-0.14979878,0.13471198,-0.030252604,0.15419263,-0.061391193,0.07153564,-0.11306447,-0.18621522,0.025056778,0.21658932,0.17244536,0.18405093,0.17885691,0.122079656,0.4115301,-0.39875123,-0.20219208,0.13627534,-0.082175314,0.22201462,0.14300516,0.04179826,0.16990785,-0.33700815,0.0026694087,0.3831489,0.18285792,-0.010246673,0.21237053,0.13641784,0.03138777,0.07306958,0.29995772,0.07957811,0.02987556,-0.107763335,0.38971353,0.07093889,-0.1294197,-0.15607943,-0.10889943,-0.3030088,0.014823611,-0.29147378,-0.016319653
0.2387349,-0.27713028,-0.021980017,-0.18005142,0.12764,-0.10907507,-0.05641999,-0.25878546,-0.06780554,0.17503095,-0.29598993,-0.1417374,0.13650927,0.0155204255,0.26145804,0.11775398,-0.16506168,-0.024891652,0.04044945,0.18561219,-0.37349787,-0.20281662,0.1893936,-0.023324145,0.23948969,0.3161759,-0.096146844,0.16252594,0.2593404,-0.0024845062,-0.0016861481,-0.21044017,-0.13830394,-0.15769294,0.18030794,0.09143437,-0.16137312,0.107609615,0.027055157,0.2843344,-0.01923572,0.06785549,-0.09188129,0.18692294,-0.16531688,0.119329154,-0.23172835,-0.16604172,0.011406288,-0.17657194,0.07810896,-0.33371112,-0.21346015,0.17832713,0.32768324,-0.11136723,0.23509265,0.036122546,-0.15243816,-0.2588709,-0.20061351,-0.183139,-0.0098428875,-0.28131306
0.23360138,-0.2578881,0.26884374,-0.083175026,-0.15270764,-0.26550892,-0.17697635,-0.073039755,-0.19309047,0.02589379,0.20502387,0.0022579439,0.13491923,0.30949035,-0.0019906294,-0.36725378,-0.20383215,-0.048408628,0.26918316,0.27991387,-0.49376112,0.09858996,-0.23268494,0.06406486,-0.04201036,0.26735297,-0.07024308,0.08476552,-0.17871691,-0.061770342,-0.04981391,-0.16417368,-0.10600543,-0.042730805,0.2422553,0.15874723,-0.015360565,0.27911818,-0.10660467,0.21049474,0.2884134,-0.0031520098,-0.2176659,0.5821929,0.038772866,0.08948807,-0.1150351,-0.27422696,-0.33902,-0.19441961,-0.111598864,-0.38555557,0.070205025,-0.1013548,0.1983615,-0.24456878,-0.03897711,-0.063763954,0.0802116,-0.1176303,0.15427075,-0.2870955,-0.15185277,-0.06973812
-0.05679008,-0.17690462,-0.15725483,-0.0023413207,-0.039404787,0.23562026,0.0058598565,-0.25947678,-0.12754467,-0.19780116,0.080536745,-0.090560615,0.20461705,0.010908366,-0.25791973,-0.39599583,-0.14500727,0.048750345,0.151929,-0.22164172,0.092045635,0.21200156,0.055549085,0.06564444,-0.06760661,-0.047429834,0.24384932,0.14901775,-0.14733315,-0.0905122,-0.012627739,0.031780235,0.10404271,-0.06370634,0.16405499,-0.101511896,-0.1548868,0.24121238,-0.06780453,0.07518405,0.2902303,0.068295434,-0.2347711,0.13074932,-0.19594517,0.10441981,-0.08328792,-0.3155823,0.14268602,-0.40580428,-0.179838,-0.10367397,-0.03531242,0.25303826,0.22634515,-0.038705826,0.25596717,-0.061388377,-0.062270273,0.28297806,0.003919924,-0.19502957,-0.1973581,-0.29276627
0.12989067,0.034832664,-0.2376154,0.20605214,0.11528216,-0.32550564,-0.3577027,-0.15335171,-0.5377368,0.25009272,-0.20319766,0.21706618,-0.28345683,-0.20891732,0.37445325,0.45596528,0.30847475,0.15125424,-0.5118486,0.39129803,-0.14187884,-0.29860142,0.22948503,0.73282903,0.49033356,0.5113631,-0.38950256,-0.048531655,0.42383122,-0.17667484,0.07256698,-0.5652864,-0.2242873,0.3979118,0.1584672,-0.18082596,0.12755314,0.49739185,-0.3771455,0.5061152,0.017287806,-0.2537463,-0.47384155,0.18467274,-0.39585128,-0.5080878,-0.083152205,-0.13804068,-0.3292432,0.37309903,-0.04586782,-0.22672638,-0.10859267,-0.22003214,0.049056537,-0.15888149,-0.48403093,-0.040727932,0.22417934,-0.18225877,0.51986355,0.11990829,0.14986242,-0.12416496
-0.19322383,0.10870226,-0.079840004,0.23185758,0.06456251,-0.0906069,0.1976537,0.15903367,0.41404906,0.14527471,0.06650612,0.12397887,0.24201714,0.26470852,0.0966679,-0.07148787,0.22856636,-0.019272005,0.21416555,0.055490628,0.111903645,0.08401587,-0.14724974,0.11892457,-0.17965735,-0.0628184,-0.1270844,-0.055617522,-0.3459792,0.042988878,-0.18263859,0.17887735,0.015656123,-0.2237757,-0.2436352,-0.29987425,0.14602312,0.022650883,0.13512732,-0.27395397,-0.23081645,-0.14281946,0.16986509,-0.022095066,-0.14376925,-0.25854483,0.2270666,0.19430357,0.2710602,-0.21428934,-0.121621534,0.20266512,0.24058264,0.035613205,0.09879901,-0.105074964,-0.31331348,0.20124815,0.054222014,0.0028005138,0.32808718,0.050812192,0.11807157,0.07661669
0.1908312,-0.06006714,-0.16771048,0.053730246,-0.12566975,0.11712179,-0.20976128,0.1170373,-0.20157573,-0.019612473,0.12114264,-0.120244205,-0.42931816,-0.14234346,-0.4346201,0.10874665,-0.142546,0.31434536,-0.16771676,-0.5724608,0.3724722,0.60090744,-0.26127616,0.15252857,0.3797144,0.062063858,0.5729019,-0.2258952,0.01788985,0.0041809273,0.249587,0.29352304,-0.14311258,0.18234009,-0.062059373,0.2699064,-0.29651338,-0.1957491,0.45901534,0.2107343,-0.14391269,-0.12607785,0.19207561,-0.437209,-0.3359365,-0.18765272,0.16939124,0.016250234,0.30397576,-0.0691249,-0.4303224,0.6139391,-0.13767399,-0.33078822,-0.40695563,0.13452083,0.3204178,-0.010094859,0.11614182,0.057199314,0.03623474,-0.14532828,0.29214793,0.19499964
-0.09382184,0.15134865,0.023134198,-0.10582018,0.26099664,0.10791914,0.17033194,0.21238233,0.06820529,0.0979769,0.37725514,0.1292029,0.07587397,0.14807118,0.02557768,0.13387632,0.34583026,-0.10531217,-0.22301005,-0.09025694,-0.05757826,-0.08807112,-0.21847633,0.2951864,0.20865005,0.22948456,-0.10489011,-0.1487017,-0.19870193,-0.20864457,-0.034914993,-0.08006438,-0.0080517065,-0.056823514,0.17164217,0.061611116,0.043222915,-0.013014819,0.14167719,-0.11043191,-0.00055763096,-0.396835,0.107663915,-0.24772252,-0.012284543,-0.26923168,0.14169233,0.053050306,-0.06619224,0.17964266,-0.04255118,0.001988598,0.23428519,-0.3147571,-0.26615882,-0.061652344,-0.30691576,-0.11855322,-0.0030481743,-0.034965545,0.38596636,0.056622807,0.17943498,0.1169062
-0.010152218,0.11683464,0.1686905,-0.18570495,0.119306155,0.07535565,0.21772425,-0.036331158,-0.058168855,0.09869841,-0.08883496,-0.14266914,-0.017731264,0.09739934,-0.13173468,-0.09526243,-0.041623253,0.2854769,0.06128187,0.16371089,-0.08863905,-0.17085262,0.07783696,0.10193697,-0.11337106,-0.08485115,-0.044570785,0.37231287,-0.10883467,-0.17521623,-0.121907406,-0.1578139,0.10004288,-0.023693219,-0.12033548,-0.18835013,0.14102411,-0.083349295,0.19644977,0.25742176,0.24799559,-0.3737409,-0.22713295,-0.11474256,0.12301965,0.08950734,-0.13995919,0.19196253,-0.19795468,0.24963866,-0.018759882,-0.113991864,0.04368764,-0.039624475,-0.07260942,0.17693828,-0.31441978,-0.2464504,-0.1774973,-0.07716473,0.0040249233,0.22125563,-0.17520824,0.2219885
-0.18788475,-0.3964618,0.23428269,0.24691512,-0.08253991,0.14851865,0.15482995,0.30471578,-0.17638642,0.28310218,0.35044545,0.052008864,0.37248775,0.46900702,-0.07136662,-0.07250969,-0.14216523,-0.48918745,0.1928432,-0.0073641515,-0.540618,-0.13445674,-0.19532879,0.14783682,0.12264049,-0.0823798,0.06849211,-0.021489035,-0.25358036,-0.44743627,-0.1566585,-0.10871834,-0.44589078,0.19732152,0.3543045,0.052340027,-0.44499013,-0.16750588,0.10052642,0.08462715,0.028541945,-0.013905555,-0.033431064,0.4370446,-0.04666851,0.016255071,0.036294483,0.06280994,-0.36205122,-0.4257862,0.05179782,-0.043617588,0.48170194,-0.101183146,-0.05623611,-0.25846082,0.22135478,-0.080351464,-0.022103997,0.07987917,-0.1221189,-0.28624454,-0.23185658,0.00012486568
-0.051854648,-0.23522304,0.53384733,0.18761839,-0.44611904,0.12081294,-0.4823395,-0.108281575,-0.51003236,-0.2440389,-0.4737206,0.31971815,-0.5672437,0.1621721,-0.035662524,-0.23158343,-0.10153874,0.23195973,0.36975726,0.20089732,-0.5546976,-0.13281189,0.6092371,-0.14406554,-0.049051635,-0.17990203,-0.24558872,0.43930134,0.3033161,-0.44901592,0.33161703,0.06899721,0.080167666,-0.31426176,0.045250162,0.22098151,0.62186956,-0.24629235,0.086706124,0.48046103,0.63107747,0.20767628,-0.44628122,0.30405542,0.44942832,0.29862633,0.13491054,-0.1279724,-0.43954742,0.55592674,0.24474207,-0.41111913,0.1400568,-0.21118279,-0.4781682,0.29281506,0.15102944,-0.27638027,-0.43041492,0.040479086,-0.086948454,-0.05946476,-0.46797702,-0.022747608
0.3313801,0.15301698,0.3570477,-0.091887504,-0.059363652,-0.23786333,-0.11731064,-0.47244152,-0.3095335,-0.44667828,-0.31485993,0.13043314,-0.15847307,-0.45534787,-0.13461183,0.05349839,-0.051837757,0.15459846,0.18035555,0.027973825,-0.26530683,-0.08299774,0.24523099,0.06684873,-0.10413255,-0.13128212,0.013558971,0.30048665,0.16797452,0.14220168,0.0174816,0.07128828,0.0061238767,-0.16489717,0.21869725,0.19483484,0.2681263,-0.037537187,-0.2630876,0.28710657,0.086473465,-0.09516739,-0.20328343,-0.07518735,0.08491019,0.10880502,0.041689835,-0.007590882,-0.22106497,0.22346485,0.45475963,-0.31197757,-0.41024473,-0.13780212,-0.17315914,0.21836506,0.21235104,0.21824351,-0.08531338,-0.14086331,0.17384262,0.043978926,0.14791508,-0.044029042
-0.16851577,0.037103735,-0.31415942,0.34791854,-0.052165452,0.06698693,-0.11095484,0.011592738,-0.0443076,0.0055174786,-0.24181633,0.47169673,-0.021884102,-0.08209822,-0.0042312345,0.112342976,-0.018789388,0.2713826,-0.15448534,-0.032072145,0.23855993,0.0115132015,0.14751787,0.1436961,0.11232135,0.028278312,-0.043172285,-0.23291267,0.057982113,-0.18224503,0.20557195,0.4358682,-0.15624924,0.07481218,-0.013335705,-0.087312296,-0.0048351865,-0.027689273,0.3427716,-0.17539713,0.0017082209,0.07589548,0.23596075,-0.0038840645,-0.220379,0.10522361,0.5146294,-0.26516053,0.070853956,-0.091166675,-0.10704265,0.06296518,-0.18916534,0.17403652,-0.07676457,0.025956575,-0.28322545,0.16174994,-0.057631835,0.33316782,-0.028414361,0.37443832,-0.041800454,-0.13723956
0.17561021,0.38732424,0.10915555,-0.29381433,0.33090386,0.18331943,0.24871016,0.11733924,-0.020532224,0.14356343,0.18844448,-0.26692528,-0.17256422,-0.2023183,0.074135065,0.05590138,0.06504959,0.028881492,0.12038599,0.16701275,-0.007925165,-0.014757581,8.66888e-05,-0.089886196,-0.1944109,-0.10105837,-0.35765737,0.21326146,-0.19506156,0.18725553,-0.16511792,-0.27856603,0.14773326,0.30677176,0.16915658,-0.21501966,0.3108346,0.40469235,-0.35629815,0.040425107,0.19775939,-0.3699757,-0.0035391415,0.0737543,-0.10336684,-0.23272087,-0.123060696,-0.07369912,0.006773873,0.1136285,0.034462683,-0.1226411,0.12044548,-0.15754281,-0.026041979,0.049560335,-0.22398144,-0.027165081,0.09723404,-0.21805729,0.35194698,0.04991695,0.02248761,-0.045000926
0.3618295,-0.07576927,-0.29234764,0.025962174,0.057300966,-0.20880903,-0.009876783,0.1533998,-0.15663238,0.16418815,0.009292798,-0.12703577,-0.27671,-0.102851056,-0.22795609,-0.22634809,0.21596868,-0.14660574,-0.008782097,-0.2639386,0.2389637,0.30298725,-0.0006690379,0.18694407,0.1669732,0.17305024,-0.022511238,-0.24114189,0.039270874,0.14027114,-0.029462593,0.009539612,-0.039864533,0.3581558,0.18202761,-0.16847911,-0.084595054,0.2274416,-0.33152312,0.276049,0.23217297,-0.066616625,-0.16967987,0.071543306,-0.19805074,-0.20154895,-0.25510976,-0.19877961,0.029566597,0.019552954,-0.3138711,0.107980005,0.26375648,-0.13339652,0.1538969,-0.031247953,0.03505779,-0.18033545,0.07475713,0.14971523,0.1903806,-0.20088758,0.05064056,0.12578464
-0.2616948,0.08061003,0.024100862,-0.014853978,0.24079686,0.040669963,0.15501846,-0.17664951,0.017937329,-0.21790378,0.10491385,0.24731445,0.07071863,-0.11758194,0.02205059,0.004906999,0.2925494,0.12867026,0.053666938,-0.054205094,-0.044302423,-0.1755507,0.04076695,0.12727065,-0.113136426,-0.10247616,-0.36222818,0.14081796,0.14724715,-0.21392603,0.027896736,0.17923915,-0.025160942,0.14568654,-0.15102609,-0.0696342,0.2489449,-0.11154545,-0.009863737,-0.027399287,0.03263985,-0.010156406,-0.06600386,-0.116518565,0.12678845,-0.059421726,0.19187918,0.19393162,-0.062227663,0.3533679,0.12779284,-0.16865577,0.039632164,0.07490439,0.009721469,0.09277543,-0.31806913,-0.1693294,-0.24766527,-0.070447676,0.0807034,0.382991,-0.09813904,-0.045921564
-0.27204502,0.101409495,0.15718828,-0.11627932,-0.030046145,-0.16418418,0.012649022,-0.2785793,0.19904889,-0.15381044,-0.10529643,0.116564244,0.19722134,-0.034221746,0.24543068,-0.12011054,0.008588047,-0.0403998,0.16274065,0.28330538,-0.5018066,-0.40104625,0.123238586,-0.110707946,-0.30538917,0.004979853,-0.051326193,0.17302553,-0.2155088,0.08982988,-0.10665019,0.024072142,0.09485604,-0.10337687,0.13723315,0.2308578,-0.084487565,0.031120215,-0.13405007,-0.26082367,0.044260405,-0.08710959,0.094747454,0.1076453,0.060811296,0.092216186,-0.11810989,0.01660708,0.11303236,-0.23164232,0.32431188,-0.49214336,-0.015192832,-0.101100504,0.047524426,-0.31813082,-1.9459112e-06,0.04320738,0.11356039,-0.083450645,0.2805237,0.08169412,-0.019304015,-0.101189986
-0.3949264,-0.46457765,-0.019981502,0.48268723,-0.37238106,-0.10884826,0.04135472,0.48021576,0.25150985,0.5083369,0.15114535,0.38095558,0.15100119,0.50377035,0.3757171,-0.2985258,0.38890862,-0.257234,0.304845,0.11864309,-0.14382467,-0.24529704,-0.34168142,0.1653335,-0.042398404,-0.16210552,0.069200575,-0.1309378,-0.34859693,-0.47543946,0.41037413,0.2862343,-0.12265069,-0.19287482,0.099246606,-0.064675115,-0.2813609,-0.05035094,0.3097147,-0.52065516,-0.014573695,0.13220991,0.11926247,0.2856965,-0.1542531,-0.19166636,0.22241493,-0.010790292,-0.47785452,-0.18451126,-0.1384269,-0.29688305,0.27006665,-0.09683365,0.07904049,-0.3869866,-0.114255734,-0.095208734,-0.021537313,-0.015163555,0.13836396,-0.22824964,-0.10614782,-0.20825453
0.4319679,-0.40324852,0.3168108,-0.35894635,0.20522314,0.40405202,0.2637974,0.25189453,-0.18254915,0.20687616,0.1324727,-0.24865393,0.13436191,0.07537232,-0.32535207,-0.013135796,-0.19818966,-0.3233138,0.29296446,-0.45539182,-0.20506378,0.46494865,-0.22585,-0.2900243,0.57241493,0.30084184,0.080308765,0.09476887,-0.15283513,-0.14656547,-0.25199386,-0.5086839,-0.25868148,0.16522603,0.11741909,0.11947134,-0.13107726,0.25343832,0.07021602,0.5083882,-0.08477856,-0.06615453,-0.26774335,0.20668335,-0.14643542,-0.12839054,-0.20931424,0.4019708,-0.5700185,-0.076772764,-0.53290206,0.3513159,0.33712023,-0.16791688,-0.24318995,-0.12669228,0.15819052,-0.3323422,-0.3449904,-0.34229398,-0.4911987,-0.41065308,-0.1586044,0.41548118
-0.20419942,0.16371009,0.43987498,-0.083399944,-0.08479144,-0.29932642,-0.035765998,0.20841074,0.05137374,0.36176524,0.03321589,-0.16495828,-0.070573874,-0.12852472,0.34756535,0.13783328,0.05518112,-0.1708159,0.06684721,0.24610245,-0.56039983,-0.2665366,0.0023373507,-0.13897306,-0.0030032457,0.3436502,-0.1690747,0.031812266,0.012078463,-0.2238685,-0.1311433,-0.54092103,-0.10272055,0.05725449,0.21146563,0.20391046,-0.12417312,0.027815502,-0.17836906,0.1573964,-0.04625396,-0.072526366,0.12458023,0.14979413,-0.2953321,-0.106398724,-0.30691826,0.13980497,-0.29088712,0.058358498,-0.0009582421,-0.18146421,0.1279471,-0.21319945,-0.21060064,-0.28072116,0.16143647,0.09474588,0.09342435,-0.5606902,-0.12135897,-0.31258687,0.14044273,0.028617132
-0.04451472,-0.0006514509,0.009544452,0.1427158,0.042236187,0.42047754,0.009191956,-0.17719881,-0.24678159,0.062397216,-0.101927586,-0.13118681,-0.0076565254,0.06393537,-0.09523504,0.20317313,0.15499894,0.1482067,0.057644773,0.22575426,-0.14266999,-0.2623317,0.106317356,-0.09114514,0.03554501,-0.16863364,-0.1547546,0.3723487,0.023227923,-0.020171685,-0.108548395,0.046569902,-0.120127246,0.26394778,-0.1733812,-0.18826847,0.14060909,-0.027633255,0.22164775,0.13089254,0.29917696,-0.27446526,-0.3290706,-0.13984463,-0.07339471,-0.17775008,0.099932544,0.14587101,-0.22930734,0.16784091,0.086429685,0.030038802,-0.032186892,0.19053838,0.016993422,0.2856502,-0.18280837,-0.008316159,-0.43001273,0.054988593,-0.07747624,0.26233292,-0.24094686,-0.08935802
0.024846172,0.42990193,-0.35206872,-0.22983304,0.3813308,0.028380336,-0.061608322,0.18902291,0.07851649,-0.32349768,0.15869448,0.43535647,-0.4543447,-0.026132774,-0.21664588,-0.2696551,0.20261131,0.6199733,-0.04261994,-0.28994408,0.3545508,0.496734,-0.21553375,0.1631187,-0.092450514,0.12728244,0.44984028,-0.46636578,-0.096367165,-0.11024335,0.23087083,0.2358405,0.2527078,0.061653342,0.22462791,-0.30288243,-0.06763618,0.18025218,0.2312396,0.17783117,0.19905293,-0.39816687,0.24558069,-0.39629346,-0.2537588,-0.39740562,0.39760482,-0.1788892,0.29086867,0.39983016,-0.35596007,0.03514015,-0.32373172,-0.2438047,-0.3759583,0.2467313,-0.365783,-0.06681552,0.050977215,0.24706577,0.55578154,0.04953992,0.3338533,0.3134071
-0.16799186,-0.13604197,0.32935295,-0.038586695,0.036620226,0.28468564,0.06593986,0.22310925,0.16683589,0.03195539,-0.02898688,0.08112565,0.11164543,0.20681304,0.079760484,-0.27962354,-0.16933815,-0.003920238,0.23341459,0.07390079,-0.095902376,0.03726729,-0.1093471,-0.10681016,-0.056028184,-0.27445048,-0.1504122,0.13705778,-0.17642617,-0.21021774,-0.040915556,0.12691398,0.08278479,-0.25307867,0.13815813,0.06766182,0.16383022,-0.17316127,0.27465564,0.007156819,0.16860542,0.017843407,-0.027365943,-0.050280035,0.2788544,0.076636545,0.306336,0.121517956,-0.15642954,0.124680445,-0.013999222,-0.21867032,0.13889341,0.078341685,-0.1559257,-0.02127738,0.19842151,0.08308497,-0.41262582,-0.04442376,-0.25273046,-0.059054945,-0.28552213,0.16840065
0.17533612,-0.0967712,0.13592787,-0.07071802,0.08323613,-0.1401409,-0.272212,0.23107105,-0.14765283,-0.018749394,0.14952472,0.4417304,-0.28723425,0.04335015,-0.10473551,-0.1314869,0.09210629,0.20322625,0.049842738,-0.07529602,-0.03790496,0.31219083,-0.24242197,0.15273732,-0.17304195,0.01453439,-0.0592839,-0.26743737,-0.11123283,-0.04600981,0.16409582,0.059891682,0.02132067,-0.14902182,0.12997355,-0.1674236,-0.013401866,0.063331835,0.049959745,0.023339318,0.2522181,-0.31348652,0.14056438,-0.036719922,-0.05402306,-0.3136496,0.43192104,-0.33575726,-0.23498595,0.16087581,0.06893386,0.07345155,0.065425746,-0.07409235,-0.19074805,0.16122432,0.09679295,-0.10769197,0.08926669,0.057369884,0.10518036,-0.09208422,0.15655553,-0.10506337
-0.036737118,-0.15787365,0.007028611,0.049871173,-0.39796266,-0.27464476,-0.36927095,-0.16838019,0.023059187,0.0064778645,-0.09777233,0.09294636,-0.2146933,-0.07271939,0.122713834,0.18835562,-0.2604723,-0.13195138,-0.16170947,-0.09846757,0.2819266,0.044013776,0.036758956,0.20177223,0.18484938,0.21817985,0.22435531,-0.5370989,0.16997695,0.08413649,0.3205179,-0.08706296,-0.052320015,-0.015400676,0.13803174,0.25994596,-0.29720008,-0.29680592,0.16439414,-0.16060467,-0.5521405,0.3244044,0.33428094,-0.13729757,-0.30395895,-0.088324845,0.07332991,-0.27948058,0.29231936,-0.07371925,-0.3441533,0.28955185,-0.2582409,-0.07483224,-0.10082959,-0.10596316,0.2050931,0.4143639,0.3286453,0.07747664,0.13423616,0.13955306,0.48742968,0.011532326
0.08895805,0.09950748,-0.26971787,-0.008587373,-0.06574868,-0.29976368,0.24670658,-0.16516815,0.37728757,0.28440908,-0.22551847,-0.53061706,-0.12611717,-0.23827869,0.37183106,0.32058427,0.24324667,-0.47631004,-0.33922154,0.381008,-0.036343645,-0.17631778,0.05618183,0.14688882,-0.075316645,0.019854207,-0.18572728,0.13909857,-0.09245533,0.41526505,0.07858363,-0.3952728,-0.003529599,0.33481696,-0.3355488,-0.008006687,0.26182252,0.34994084,-0.22650565,-0.203518,-0.21061857,0.33098578,0.01661552,0.29577973,0.022650218,0.43272835,-0.47954303,0.116208635,0.31942979,0.06363178,0.33312255,0.09053599,-0.005204578,0.14657328,0.4445693,0.04686589,-0.27105117,0.27376002,0.3341104,-0.3489509,-0.004064598,-0.07974664,0.19369699,-0.48894048
0.20918128,-0.068122126,0.13823652,-0.19176716,0.116165176,-0.09081526,0.011153433,-0.26507056,-0.15569842,-0.13291898,-0.3835381,0.096951894,-0.17442141,-0.4242479,0.108763754,0.21993077,-0.003095494,0.15300325,-0.20496522,0.2614231,-0.18675931,0.07343673,0.13367763,-0.16431467,0.06698878,0.14608972,-0.011014869,0.2634407,0.15635805,0.22090167,-0.0700989,-0.06942134,-0.103893206,-0.1945315,0.13911608,0.04978382,0.22739124,0.05604086,0.089374,0.21343772,0.07181162,-0.01414619,-0.01934144,-0.025312336,0.100366935,0.07412461,-0.005679894,-0.2644624,-0.13919604,0.1562735,0.02878906,-0.08614875,-0.24151808,0.118371695,0.16707599,0.076316945,-0.16887882,-0.076744266,0.13561329,0.017791463,0.1331128,0.23525868,0.15116963,-0.16594358
-0.011361566,-0.1538138,-0.19797371,0.21907295,0.16746663,0.18902497,0.095278166,-0.029276617,-0.2316526,0.029276997,-0.054186884,0.28075844,-0.048322774,-0.064687416,-0.1823086,0.1268239,0.06080717,0.26379484,0.053595196,-0.012150584,-0.06371154,0.17605636,-0.11710956,0.08506711,-0.07104119,0.029096227,-0.055671204,0.10417523,0.1098124,-0.3063913,0.11361054,0.07293154,-0.06251607,-0.1619905,0.00050859805,0.094952814,-0.23934437,-0.26461726,0.36369836,-0.14819756,-0.13911487,0.09208392,-0.039949615,-0.17329818,-0.23348857,0.066338,0.24490647,-0.043208875,0.1216824,0.09096842,-0.23456751,0.08679605,0.092353374,0.05696741,-0.11301644,-0.055084247,-0.065541096,0.14491257,-0.3284644,0.29904047,-0.19763033,0.02454967,-0.017043307,-0.02446453
0.30788672,-0.19538872,-0.3035271,0.20164794,-0.46352494,-0.21005033,-0.31865945,-0.36698684,-0.12386573,-0.0042155874,-0.5280193,-0.42644495,-0.089105606,-0.32597107,0.08636801,0.32519817,-0.008042023,-0.35294574,-0.24308479,0.047368787,0.23896447,-0.12410163,0.4069556,0.08963881,0.034624726,0.1803695,-0.17888074,-0.27670377,0.09949983,0.42049322,0.23539306,-0.14596248,-0.16316223,0.2571397,-0.07855201,-0.14469804,-0.19802375,0.22342119,-0.2899444,0.14031033,-0.271552,0.379706,-0.30801982,0.37885118,0.182661,0.55744314,-0.39709437,-0.32586768,0.1814119,0.14223854,-0.13286184,-0.028138025,-0.23321563,0.4967539,0.35772422,0.11280427,-0.0015845996,0.045433704,0.25895867,-0.057423133,-0.0887001,-0.04368225,0.20160563,-0.60310864
-0.29351458,-0.18339734,-0.08245614,0.4265901,-0.20903857,0.033911042,-0.25251842,0.115383476,0.08303728,-0.041232012,-0.1513494,0.14024495,-0.17185187,0.078443944,0.110724084,0.122446805,0.29011196,0.14005622,-0.31065816,-0.04184574,0.058104582,0.07615161,0.31274334,0.21869025,-0.03333687,-0.20452783,-0.29897484,-0.18271162,0.39964634,-0.11111717,0.04541007,-0.04301071,-0.19749069,0.2387196,-0.21307589,-0.09793939,0.060205486,-0.27198118,-0.06395222,0.07663544,-0.11629774,-0.136862,-0.1388196,0.0017989072,0.20559055,0.037596297,0.26747373,0.24071369,-0.27696392,0.23636559,0.0950929,0.10072627,0.0467352,0.049247995,-0.19055511,0.31924126,-0.027332013,0.09068114,-0.17151216,0.16601035,0.09578308,0.17003179,0.071567915,0.22067109
0.3102682,0.2798872,0.42629534,-0.37586808,0.2545204,-0.16930996,-0.042003427,-0.08906012,-0.025016308,-0.101320475,0.12205088,-0.053374574,-0.3176916,-0.14813429,-0.1137307,-0.20407714,-0.25700927,0.37478328,0.44449097,-0.12000162,-0.13674198,0.020678913,-0.34936225,-0.4854485,-0.28391746,-0.1113142,0.28273705,0.30407912,-0.11448176,0.011855697,0.019556537,0.16007623,0.59865934,-0.25177312,0.4122686,0.052598655,0.40815973,0.06314479,-0.28065407,0.2651476,0.32898083,-0.32308775,-0.03513167,-0.20358898,0.27446735,-0.16142957,0.017756559,-0.3032024,-0.04177411,0.29208902,0.27375972,-0.07639652,-0.168599,-0.40761364,-0.42310745,0.13694087,0.088654906,-0.08841858,0.20960052,0.019054467,-0.051055215,-0.121243745,-0.03818672,0.27389896
0.034967884,-0.43414125,0.16743073,0.14917885,0.06678782,0.029900488,0.23552823,0.21119179,-0.30276367,0.41695178,-0.030647734,-0.34195942,-0.07618184,-0.030633958,0.18548237,-0.21753465,0.085504435,-0.36399305,-0.03732016,0.008955781,-0.11558699,0.011592472,0.053100266,0.2399505,0.25799534,0.26339632,-0.06294061,0.26501748,0.09188422,-0.16242084,0.13856028,-0.32850865,-0.0959237,0.4104104,-0.12960768,-0.26197994,-0.0811033,0.3893053,-0.4182687,0.18637027,0.011824218,0.054909322,-0.56557417,0.48909262,-0.041541666,0.019897748,-0.37298545,0.041587796,-0.48096406,0.0703465,0.023413781,-0.017404277,0.16774353,0.083620906,0.2502129,-0.10261867,0.19485739,-0.3535484,-0.02744949,-0.21254312,-0.24461225,-0.22928825,-0.30364683,-0.18970688
-0.41874817,0.31461474,-0.20425808,0.25880808,0.2843592,0.34163803,0.27637392,-0.16380897,0.17660351,-0.10918341,-0.076284245,0.07829952,0.10046405,0.114086844,0.11774362,0.10235405,0.3464621,-0.033264525,-0.15102234,0.38106525,-0.11395984,-0.34180462,-0.0017530181,-0.24811801,-0.45328796,-0.23802094,-0.29599276,0.33517468,-0.26054785,-0.17883818,-0.13337193,0.2833316,0.123718366,0.005100977,-0.1075836,-0.13596752,0.095193364,-0.005225711,0.13060215,-0.42587936,0.18315929,-0.010607754,0.122114435,-0.11057245,0.209196,0.02609951,0.22255176,0.11617654,-0.046732336,0.14288308,0.21974936,-0.04154963,0.1654799,0.26715368,0.14577074,-0.16374333,-0.45808464,-0.11381315,-0.4249177,0.31791013,-0.021547474,0.16572538,-0.40041485,0.07594507
0.29158762,-0.060667,0.0982762,0.112511374,-0.049972422,-0.1679951,-0.37055695,-0.5353058,-0.055991706,-0.22991271,-0.3413034,0.041604668,-0.20780528,-0.08475575,0.15704933,-0.19615139,-0.28635103,-0.1318827,0.030739745,0.228244,-0.061095003,-0.25245288,0.26042545,-0.25634855,-0.11117191,-0.0203929,0.00439673,0.26510844,0.20408471,0.24337305,-0.038486883,-0.16361123,0.11584355,-0.24377845,-0.1512055,0.21888636,0.22283468,0.1281735,-0.21181987,0.17457345,0.19474727,0.30901235,0.003760209,0.15474479,0.23316474,0.10762971,-0.1828432,-0.37859857,-0.018274872,0.05011025,0.42175835,-0.27340487,-0.3942938,0.2454556,-0.07082411,-0.0032007948,0.236444,0.11928037,0.13732624,-0.1741576,0.07781864,0.05606443,0.1700844,-0.28532577
0.022428265,-0.14950478,0.30208242,0.119555265,0.0147921555,0.06806976,0.063284196,0.13278404,0.39616525,0.012844763,0.17868115,-0.061099,0.17866233,0.31539807,-0.08773541,-0.37925825,-0.090839885,-0.38854033,0.25193635,-0.27740785,-0.028677203,-0.014801557,-0.34997433,-0.36127424,0.04317368,-0.27409145,0.45549083,-0.13269,-0.40910676,0.11150901,0.14517535,0.031711344,0.3680335,-0.123279504,-0.19864573,0.1691953,-0.14376518,-0.06036916,0.19812383,-0.1331904,-0.19533737,0.10403441,0.02254559,0.2171004,0.26641986,0.14136226,0.156293,0.139789,0.18899766,-0.30576098,-0.20227517,0.15946554,0.07810242,-0.1094857,-0.05339794,-0.14576852,0.13975072,-0.13717987,-0.0040305695,0.10936086,-0.13720575,-0.35256863,0.001103861,0.14328523
0.32741824,-0.2623948,0.28605947,-0.13404718,-0.22014287,-0.22293003,-0.15226048,-0.034717955,0.0126439985,-0.016287548,-0.13724093,-0.10421053,-0.16303855,-0.15935639,0.05307806,-0.14848451,-0.4840742,-0.01864767,0.18668067,-0.09727509,-0.029909557,0.1483288,0.23752657,-0.052886643,0.18590946,0.2061515,0.2600428,-0.04724742,0.09347414,-0.0032800736,0.16494828,-0.21331143,-0.13371761,-0.06429182,0.24973795,0.28539643,-0.3508395,-0.05763669,-0.054099113,0.037524786,-0.18568024,0.2999936,-0.16898093,0.424007,0.1198503,0.29229963,0.09753392,-0.27074534,-0.0555047,-0.14336407,-0.17249465,0.0061429143,-0.02068228,0.19769283,0.022049531,-0.04215977,0.4005844,-0.01008208,0.2074978,-0.057782,-0.23684978,-0.12880434,0.16094431,-0.2944514
0.033776797,-0.17409965,0.06998495,0.11761798,-0.28048012,-0.17851019,-0.111232124,-0.3564743,0.123835,-0.17438668,-0.32874417,0.18696924,0.0073489496,-0.2132701,-0.017691977,0.013479872,-0.11047167,-0.1399471,0.039614413,0.16435544,0.10310576,-0.10601709,0.19894448,-0.21140437,0.13637842,-0.1751609,0.05026083,0.14956994,-0.072857544,0.2756761,0.024102688,0.094567336,-0.2019075,-0.21861778,-0.15689626,0.34787396,-0.17119068,-0.24314065,0.09501744,-0.13133205,-0.26299304,0.29299122,0.03457164,-0.10309514,0.16501766,0.26463634,-0.08082513,-0.061114725,-0.07531087,-0.25996315,0.029012598,0.09344819,-0.20702842,0.25946265,0.053011976,-0.011638025,0.05999063,0.21233045,0.057401028,-0.0051257573,-0.103201516,-0.009407974,-0.056120396,-0.061693236
0.0698825,-0.13859051,-0.0573275,0.27621165,-0.26359904,-0.24765295,-0.3656082,-0.011891496,-0.011022134,0.018184317,-0.10347582,0.20477419,-0.18317516,-0.2046962,0.19181897,0.12837143,0.11227873,-0.04101469,0.09350422,0.07361822,0.015215583,0.09556148,0.18088023,0.22065586,0.18535855,-0.05304745,-0.29252964,-0.28591466,0.32332498,-0.18370737,0.40456063,-0.13091682,0.13966988,0.10365228,-0.052165616,0.010118206,0.28137007,0.110729136,-0.2825847,0.31404698,0.26759592,-0.06123964,-0.09666809,0.21540546,0.12524454,-0.18654075,0.13545474,-0.083024815,-0.23768912,0.38207987,0.051852856,0.041402917,-0.12251383,-0.10181575,-0.25371554,0.0015868966,-0.1966167,-0.04927554,-0.01768767,0.10364668,0.16938241,-0.0018698412,0.24397007,-0.23147568
-0.16170767,0.12084076,-0.17237005,0.08757895,0.22269514,0.21542768,0.2423503,0.24885055,0.20536107,0.005090977,0.07597505,0.10631543,-0.0014147436,0.19533718,-0.021687342,0.2615205,0.2487302,0.077496156,0.015934004,-0.1345372,0.00799865,-0.03949798,0.09906086,0.033237364,0.10470172,-0.18287706,-0.11496322,0.040221505,0.071580015,-0.13657756,-0.115272366,-0.10031276,-0.093295,0.09662259,0.0340644,-0.049360353,0.16621555,-0.03365426,0.1649394,0.007460339,-0.0010708376,-0.3783302,0.015738957,-0.248851,-0.014166096,-0.2849412,-0.093492806,0.2652869,-0.13398218,0.05307951,0.036078982,0.06446519,0.1549708,-0.3488643,-0.09238201,0.062852286,-0.2742952,-0.18964198,-0.18843727,-0.034249853,0.21061802,0.17046052,-0.10947268,0.32053313
-0.13769561,-0.15136711,-0.08856149,0.10294824,-0.32532954,-0.1745306,0.18667696,0.06608021,0.10438402,0.31311083,0.21303666,0.12990022,-0.26243043,0.44580403,0.34151658,-0.26296976,0.3754812,-0.21263407,0.14068174,-0.004781738,0.119883016,0.05855773,-0.36279818,0.13296019,-0.33563277,-0.3881926,-0.10473808,-0.3993779,-0.36652443,-0.26653004,0.20905112,0.39389038,0.14857648,-0.04231734,0.0062365513,-0.39024138,0.042336367,0.08605363,-0.32684368,-0.40237758,0.2939153,-0.13866244,0.07952034,0.2216499,0.14433935,-0.3139924,0.24570383,-0.45820838,-0.13152862,0.12535429,-0.15907513,-0.24290624,0.15553987,-0.08965921,-0.068166904,-0.17713585,-0.15061992,-0.09180682,0.29317725,0.32786277,0.30191696,-0.22752123,0.15241018,-0.26859042
0.18357301,0.20469174,-0.34093475,-0.06588958,-0.10318413,-0.10529701,0.10802177,0.36340132,0.35118198,0.2531082,0.06243723,-0.39302447,-0.33801407,-0.18555516,-0.050176386,0.058499277,0.45235977,-0.22920223,0.11120675,0.21996945,0.39085147,0.13495865,-0.14280543,0.23475584,-0.2623396,-0.19478202,-0.1822069,-0.25722614,-0.11406492,0.3914026,0.032224696,-0.017958011,0.40358698,0.28913665,-0.25731102,-0.2110273,0.32691115,0.44259638,-0.23715803,0.13059714,0.20029521,-0.14785483,-0.12688738,0.12884122,0.27437904,-0.0556043,-0.4631637,0.22537072,0.20019983,0.25040352,0.024380323,0.08047289,0.14600568,-0.063870475,0.1316113,0.36704475,-0.361945,-0.26471126,0.23746583,-0.05074175,0.33683673,-0.42799664,0.080649674,-0.06496407
-0.11508521,0.33887348,0.2582052,-0.05581349,0.013010953,-0.18251464,0.062454235,0.10282654,0.4322797,-0.059113454,0.13987859,-0.042600878,0.27131483,-0.02932086,0.080736086,0.10211507,0.0076762317,-0.31963986,0.0067171017,0.17196798,-0.27790707,-0.112120286,0.070044674,-0.11948569,-0.10434104,-0.16910562,-0.008047863,0.16576394,-0.382922,0.2503437,-0.29413512,-0.099935435,-0.029760402,-0.10151983,-0.18236072,0.2090632,0.1083899,-0.014355358,-0.10068788,-0.25665456,-0.49180007,0.11528574,0.29909638,-0.07302186,0.23798735,0.09483404,-0.05455594,0.1621674,0.28216618,-0.15941994,0.10979577,-0.07393649,0.12836511,-0.08206081,-0.033324644,-0.24044167,0.27789202,0.31822354,0.17488855,-0.5028081,0.009433079,-0.17449248,0.23170103,0.015844224
0.09057381,-0.07885075,-0.005540633,-0.05088881,-0.14228833,0.06268436,-0.051191896,0.23789227,-0.06333601,0.05944049,0.044574153,0.37054533,0.036724456,0.2982445,0.061603993,-0.29766867,-0.039439254,0.2927966,0.057209007,0.04402223,0.23324484,0.19905731,-0.16346388,0.020770678,-0.17820863,-0.0708194,0.25747678,-0.058521982,-0.16179949,-0.30730382,0.13809045,0.21832061,-0.04139174,0.07982598,0.15721598,-0.121077366,0.07623617,-0.040809922,-0.016137602,0.107426755,0.08691272,0.06229659,0.09443326,-0.15331239,-0.24275546,-0.07059886,0.4215235,-0.116505526,-0.018118784,0.16797945,-0.056912463,-0.047350723,0.12642588,0.00015960057,0.01775918,0.20583333,-0.044900324,-0.09009947,-0.2508284,0.33479294,0.19774349,0.028706271,-0.07725772,0.14038235
-0.22018608,0.018003961,-0.15912677,0.13355215,-0.035995934,0.15736353,-0.033472594,0.51131254,0.1674699,0.5023307,0.5059522,0.09238713,-0.060258538,0.6210801,0.02032921,-0.48592806,0.40193492,-0.35763267,0.20357507,-0.28727752,-0.1952914,0.12098591,-0.55243874,0.3219634,-0.040353805,-0.23626922,0.058766495,-0.15708382,-0.53100455,-0.33886877,0.21424212,-0.023774352,-0.094338186,0.3278208,0.09049731,-0.2159594,-0.24273303,0.13984828,0.22231388,-0.26851207,0.17989062,-0.101850614,-0.056672707,0.0372599,-0.002505772,-0.26969373,0.06850813,-0.04403895,-0.18446007,-0.022533437,-0.32583532,-0.123220645,0.2823867,-0.16560549,-0.19772439,-0.16198328,0.107386194,-0.32060432,-0.17683314,-0.030982876,0.024626983,-0.37653023,-0.027124409,0.25752464
-0.49223283,0.14815128,-0.20916478,0.13423796,0.23954993,0.4655097,0.5194011,-0.07983159,0.3940181,-0.11285069,-0.21005625,-0.085433625,0.26532042,-0.051069934,-0.30253738,0.12040421,0.25339192,-0.04834784,-0.0051032933,-0.0875149,0.28060296,-0.04352831,0.08072207,0.0055023828,-0.21696223,-0.4694905,-0.06662073,-0.045209866,-0.06703263,0.45453265,-0.29195642,0.13457194,-0.06542318,0.20568751,-0.53807,-0.05369162,-0.06293248,-0.27066505,0.19553179,-0.5541553,-0.28232607,-0.051387783,0.4277894,-0.4767822,0.2989647,0.16414511,-0.004183605,0.36248177,0.5140458,-0.25920147,0.05534879,0.2738513,-0.20099519,-0.009794795,0.1908059,0.038339466,-0.35704023,0.25250176,-0.06681222,0.2982131,-0.07880836,0.30753767,-0.10740122,0.18719989
0.24970517,0.15199871,-0.034539055,-0.2805524,-0.037508957,0.023934266,-0.1549981,-0.020477813,-0.048677646,0.0088684205,0.20684454,0.06055222,0.12685084,0.038075138,-0.24076216,0.080035605,-0.11694501,0.26753637,-0.15420425,-0.20744877,0.30658782,0.24278295,-0.016769359,0.17905854,-0.0064039277,0.1807273,0.30549592,-0.22364105,-0.15119497,-0.045227308,-0.03616264,-0.010470403,0.19008271,-0.0427752,0.08523246,-0.108474165,-0.2696323,-0.035718504,-0.0060304464,-0.032349065,-0.25056854,-0.08254343,0.41496536,-0.4149785,-0.054920424,-0.22055678,-0.06502558,-0.032249995,0.36131722,0.13688318,-0.022670606,0.17641105,-0.15054186,-0.010287652,-0.15539117,0.17602055,-0.17534941,0.25238332,0.1235732,0.08869583,0.18166257,0.25477657,0.20226571,0.18521889
0.02399362,-0.108443946,0.118202865,-0.23429579,0.2538886,0.097795464,-0.21458495,-0.31669152,-0.40596333,-0.08369553,-0.16738817,-0.04378117,0.06308287,-0.3355514,0.002793924,0.19377723,-0.1618326,0.26443768,-0.025080876,-0.06906261,-0.14717968,0.0534285,0.38737458,0.1171416,0.02576372,0.13710453,-0.21316722,0.3625199,0.067874834,0.16363733,-0.23822828,-0.17389542,-0.07974652,-0.20546319,-0.12338226,0.3814432,0.11344141,-0.09124699,-0.057982434,0.10730916,-0.14414044,0.10879857,-0.16698265,0.06807086,-0.14553344,-0.02931033,-0.07686261,0.107564285,0.031003546,0.08182522,0.06174922,-0.18715264,-0.041617505,0.25653744,0.16259068,-0.0021318502,0.164792,0.12741803,0.000117317395,-0.016981758,-0.05448027,0.074919365,-0.16808228,-0.026254017
-0.114798814,0.1851662,-0.29806304,0.31165123,-0.32264018,0.043403767,0.20910913,-0.19353841,0.17594558,-0.04827921,-0.32983807,-0.46082407,-0.20245041,-0.32025588,-0.004185565,0.27916607,0.015786361,-0.18625286,-0.32509986,-0.038059648,0.10773083,-0.17465045,0.27763158,0.19000082,0.18008795,-0.31552252,-0.1845162,-0.11911857,0.21179882,0.4666285,0.1775424,-0.08002052,0.17257802,0.18112248,-0.47137323,-0.043548208,0.023157408,-0.30150783,-0.06731021,-0.14155802,-0.16889448,0.38458237,-0.0019503477,0.028251829,0.39019552,0.589971,-0.3397541,0.06945272,0.30854025,0.10853526,-0.16584288,0.09274899,0.022344336,0.19164386,0.4859417,0.15144455,-0.16016647,-0.11443733,0.332578,-0.016702386,-0.32037923,-0.14174134,-0.2020715,-0.2746387
-0.29818067,-0.5645017,-0.08166171,0.16488537,-0.062190957,0.051296312,0.04972697,0.42660472,0.05920413,0.4750587,0.17846319,0.066995546,0.29052746,0.3282856,0.2505356,-0.44030714,0.17018025,-0.5959252,0.27024573,-0.15151662,-0.33379462,-0.032372553,-0.33487168,0.1910017,0.22345857,0.29674992,-0.017836474,-0.00831533,-0.402972,-0.2669397,0.15430053,-0.30079657,-0.19893435,0.2407967,0.4198797,0.065793894,-0.3992832,0.09492281,0.07217004,-0.30133453,-0.09133076,-0.015746275,0.0046318774,0.38500392,-0.33699763,-0.2943845,0.052230697,0.17225128,-0.43874413,-0.43617007,-0.16036907,0.06909167,0.5447804,-0.11574311,-0.06845069,-0.52845633,0.03201048,-0.1919522,-0.0087229,-0.14617649,-0.08189002,-0.26528195,0.00089369307,-0.0044394727
0.0056381044,0.00025859024,0.14108175,-0.13285902,0.2618888,-0.16014262,-0.09110621,0.2590711,0.013645674,0.121306375,0.30217397,-0.0066144285,0.01230553,0.010673307,0.021067938,-0.40265867,-0.05194008,-0.17054889,0.25554597,0.16957738,-0.23001969,0.12312619,-0.29988804,-0.12925707,0.044934824,-0.09864284,0.21868397,-0.040140316,-0.051277634,-0.123819,-0.15538986,0.026409402,0.0032310572,0.029595522,0.2622807,-0.20652233,0.008095067,0.31447244,0.03158937,-0.092669606,0.2157138,-0.389083,-0.11071354,0.2356435,-0.22517695,-0.38810185,0.16611235,-0.12591499,-0.17225039,0.1236761,-0.13205539,-0.21576422,0.014963767,-0.19202904,-0.08909947,-0.30889836,-0.07206041,-0.21276326,0.022286952,-0.17002991,0.19162871,-0.2651765,-0.06253524,0.233064
0.103388004,-0.35767803,-0.14018679,0.24179085,-0.20497859,0.07882934,0.020762565,0.2770177,-0.25548136,0.18079922,0.24074988,0.009465575,-0.31041637,0.18949763,0.03499575,-0.17075352,0.032227993,-0.18071704,-0.10445109,-0.17791489,0.19111851,0.11780332,0.080468066,0.25562415,0.18201056,-0.17376375,0.10825781,0.005526744,0.00026370515,-0.14286293,0.30471823,0.19297542,-0.056937516,0.14912952,0.06364209,-0.18809229,-0.17810349,0.11276173,-0.18923487,0.27764523,0.19776326,-0.018855317,-0.2918036,0.3224873,-0.144367,0.059848905,-0.016331986,-0.14703174,-0.19779289,-0.07073017,-0.21107079,0.057775002,0.1327285,-0.010830416,0.12449054,-0.06186703,-0.14433984,-0.2908308,0.1581612,0.046473604,0.084449686,-0.07827818,0.07450469,-0.24283339
-0.034398507,-0.23537788,0.22643022,-0.24302341,0.24358192,-0.07071482,-0.12320189,-0.1686517,-0.16051142,-0.17337957,-0.12316388,0.077976115,0.08192427,-0.021558393,0.12934978,0.06781829,-0.1312041,-0.09740305,-0.11010736,0.101131946,-0.05047444,0.044427413,-0.13519406,-0.10202471,0.08979936,0.28319833,0.041535012,0.20246789,-0.15737948,-0.3330005,0.019714527,0.1704809,-0.42879057,-0.24657695,0.3242866,0.19626868,-0.17782815,-0.03822042,0.23111226,0.06428705,0.16684516,-0.06584821,0.08604178,0.14767788,-0.218786,-0.18884712,0.100672394,-0.08072818,-0.27674446,-0.24176456,-0.01924159,0.048009083,-0.14264113,0.13616227,-0.09937419,-0.16581354,-0.031287163,0.15338366,-0.033931147,0.005645067,-0.14332974,-0.023631226,-0.07945628,0.036006194
-0.13815324,-0.06958531,0.048550293,0.30206275,0.06515636,-0.11697638,0.08504334,0.023753988,0.13516164,-0.278339,0.09803766,0.43924168,0.14133151,-0.049355567,-0.037814822,-0.03039575,0.12087585,0.26630133,0.14545716,0.117694706,-0.03582752,-0.11358644,-0.13142915,-0.24146228,-0.2331136,-0.444434,0.17025852,0.11737577,-0.2935313,-0.0760412,0.1347775,0.38969356,0.2516938,-0.45219463,0.04425659,-0.06537643,0.34121028,-0.20577404,0.24468613,-0.319088,0.17132379,0.15916876,0.1348735,0.043413658,0.29862666,0.09029419,0.39626575,-0.07078225,0.19151312,-0.18699788,0.2614771,-0.14246811,-0.17025234,-0.082159854,0.11592832,-0.020434912,0.069342874,0.12887175,-0.15097347,0.1875132,0.1222281,0.029624756,-0.07002627,0.10984503
-0.04368304,-0.18562265,0.12432175,-0.19121522,-0.101516,-0.1128841,-0.0062195007,0.043706626,0.23948735,0.027221806,0.07754618,-0.2294367,0.075877614,0.22231634,-0.07487119,-0.12966685,-0.14270875,-0.05401872,0.28836918,-0.10641553,-0.22342566,0.22332652,-0.30806196,-0.06260149,0.09388831,0.15604773,0.25060952,0.16502938,-0.20824413,-0.072880894,-0.055791717,-0.08110318,-0.0550662,0.0006237861,-0.08806303,0.24314077,-0.25907436,0.12442045,0.22357997,-0.03841673,-0.22274996,-0.002420893,-0.06384923,0.34358853,-0.049127437,-0.0135656325,-0.15536776,0.16079694,0.012654182,-0.10711212,-0.21757019,-0.055534516,0.36083415,-0.23586988,-0.2908926,-0.14990614,0.16322586,0.062731564,0.0059812805,-0.31038705,-0.21400432,-0.21289209,-0.05992158,0.21711211
-0.09742474,-0.096769184,-0.25738177,0.17238183,-0.050468244,0.33113062,0.23804781,0.06579626,-0.078594364,0.105926305,-0.077052146,-0.40661928,-0.1551673,-0.10011431,-0.42172864,0.0138509525,-0.021248624,-0.013800457,-0.18212032,-0.104870975,0.2717629,0.05717415,0.034744855,0.028338538,0.06693866,0.020071879,0.0748532,0.073174946,-0.063649654,0.14208761,0.1013854,0.20911942,0.20024863,0.3704928,-0.34598017,-0.1881015,-0.14938737,-0.004447393,0.063841216,0.097295254,-0.10312556,0.07390431,-0.2686143,-0.29488805,0.261319,0.19968377,-0.023393936,0.06825005,0.16162278,0.13414963,-0.058105465,0.22642359,-0.050168976,0.054295633,0.123620875,0.3426016,-0.121557355,-0.2321593,0.033505857,-0.083737515,-0.15751967,-0.02869892,-0.16197664,0.23457845
-0.10819208,-0.19343798,-0.2406704,0.0596632,-0.26866445,-0.051777568,-0.2181314,0.007851424,-0.15923665,0.025439883,-0.022998063,0.14658476,0.080592975,0.07825768,0.13257985,-0.013649453,0.051009566,0.16836856,-0.224063,-0.08168937,-0.1716047,-0.17534158,0.39730078,0.22920749,0.11028277,-0.17591628,-0.057848234,-0.122356825,0.27797002,-0.06860938,0.07361244,0.4174345,-0.10164306,-0.16223584,-0.05828771,0.033227548,0.08558584,-0.2905868,0.14854956,0.009106752,0.17009366,-0.053823926,0.080821246,0.009394519,-0.16256143,0.20734137,0.37351894,-0.1604336,0.018812256,-0.07799606,0.14080234,-0.063349895,-0.09148021,0.17225309,0.056664847,0.16271389,-0.121619694,-0.21397135,-0.20074335,0.25073102,-0.067921355,0.33100992,-0.2834353,-0.15705778
-0.17868447,0.12409216,0.062838405,-0.11817174,0.16630766,0.09420442,0.02337078,0.15695415,0.25513485,0.30227,0.2775451,-0.2166205,0.3627391,0.086483315,0.31608573,0.13452628,-0.16911635,-0.34993565,0.15929976,0.060767643,-0.2692702,-0.13060749,-0.07689907,0.12901753,-0.014279449,0.37033623,-0.049551904,0.214647,-0.24192177,0.031377908,-0.3007594,-0.40825686,-0.34970716,-0.1925074,0.037765596,0.07266406,-0.22885853,0.23598808,-0.104896195,-0.1434285,-0.26415184,0.09179347,0.1482689,0.06385096,-0.008676512,-0.07369581,-0.31904462,0.22681285,-0.21443993,-0.090922095,0.20737799,-0.28755912,0.32930407,-0.13307127,0.085549526,-0.495269,-0.06249263,0.22671217,-0.045373663,-0.34781897,-0.13666648,-0.27235115,0.13552465,0.061907165
-0.36779192,0.24324381,-0.16265532,0.24677823,0.038183652,-0.009673886,-0.023402592,-0.046322655,-0.0024642628,0.16680533,-0.012919585,0.33465332,-0.03847737,0.17794159,0.1534667,0.12494827,0.18211003,0.15120916,-0.25123397,0.04289133,0.13074967,-0.03525031,-0.01368402,0.18648912,0.11399757,0.10696108,0.10831934,-0.35065717,-0.006686695,-0.06339525,0.062061615,0.3024876,-0.19668524,0.015168026,-0.2728835,-0.24024968,-0.11140574,-0.2276818,0.25950533,-0.25639397,-0.029021151,0.12894002,0.1964964,-0.21619086,-0.312435,-0.2888312,0.3646177,0.02575284,0.15622494,-0.17526929,-0.08345898,0.3028899,0.027539596,-0.18608747,-0.064910136,0.2344232,-0.24654526,0.19945209,-0.21911782,-0.020330848,0.39636523,0.29935974,0.15432069,0.07114883
-0.44188964,0.37320685,-0.33920017,0.2922659,0.1846223,0.20810865,0.2843753,-0.02323853,0.120350294,-0.025638068,0.11562655,-0.14616208,0.00694808,0.15347031,-0.02942573,0.16790013,0.19273469,0.13418753,-0.11813951,0.27466968,0.14237885,-0.32968238,-0.14005736,-0.21145734,-0.30617002,-0.2921244,-0.26422122,0.012255185,-0.26827863,0.3196584,-0.21166259,0.28981188,0.036364466,0.21995339,-0.4120413,-0.24918379,0.24152423,0.0811849,0.068584755,-0.44874734,0.043026317,-0.023510424,0.0044455044,-0.0021181453,0.059420206,0.08810968,-0.0076932022,0.13311772,0.24179336,0.09612126,0.2675371,-0.024172112,0.27284172,0.10372503,-0.029312039,0.25048545,-0.4324012,-0.24499936,-0.24786055,-0.0303698,-0.062647685,-0.045738894,-0.30721956,0.1534668
-0.3694521,0.5542995,0.058441475,0.023966365,-0.06016573,0.08434018,0.3935408,0.11301724,0.66064054,-0.17377834,0.007487632,-0.26771,-0.05033964,0.17861556,-0.2603787,0.17418069,0.33025265,0.14329982,0.1370168,-0.06553304,0.39325744,0.05097878,-0.12750816,-0.17609814,-0.31588262,-0.58126605,-0.095228486,0.014228025,-0.3883448,0.44065955,-0.06584219,0.21969762,0.24515711,0.05957184,-0.49904332,-0.0018361963,0.35476884,-0.03279061,0.17758861,-0.27833128,-0.3829437,-0.06713143,0.3864324,-0.46314776,0.5861647,0.16281372,-0.103472665,0.66808915,0.4541784,0.050359666,-0.089607604,0.39518654,-0.09186535,-0.34533468,-0.34559584,0.2125938,-0.17523815,0.18304273,-0.021703893,-0.3517635,-0.09552928,-0.012668224,-0.041726723,0.5497263
-0.12850149,-0.52934915,0.096362025,0.4692971,-0.43710566,-0.0938242,-0.17743568,0.035623394,0.21238141,0.109457925,-0.09655832,0.4684135,-0.04541391,0.123296395,0.113426976,-0.053217486,0.038935043,-0.20091514,-0.12934758,-0.25441408,0.17202069,0.21906461,-0.09629303,0.29533044,0.43454018,0.031187143,0.42751405,-0.36197203,0.16565396,-0.008059513,0.35945517,0.17328636,-0.46773958,-0.21466343,-0.07133098,0.2833861,-0.31864688,-0.41994378,0.29772407,-0.2483044,-0.49360326,0.5524799,0.29554012,0.13214146,-0.45628136,-0.04376163,0.44547313,-0.14913337,0.017244475,-0.35561863,-0.32647225,0.34939778,-0.036338177,0.05507014,0.0343287,-0.034920923,0.32235086,0.36722302,0.20168263,0.07041835,-0.15672398,-0.076786324,0.3111426,0.10184799
0.26591817,0.09226397,0.365744,0.13784134,-0.29066202,-0.016739653,-0.24452761,-0.37587047,-0.30807558,-0.23890074,-0.27375668,-0.2203958,-0.18904197,-0.2052072,0.18250103,-0.019474875,0.036789875,-0.050129715,0.16386917,0.22948033,-0.12810242,-0.18726389,0.20118582,-0.13895276,-0.11104901,-0.13692544,0.066764615,0.10856561,0.04474198,0.08153144,0.14590603,0.079399765,0.2350613,-0.12435848,0.23663153,-0.034304064,0.1932066,-0.17278267,-0.3135773,0.14781599,0.21171346,-0.007113577,-0.25679424,0.3384657,0.13603057,0.15778558,-0.082397245,-0.38327962,-0.122479126,0.24440733,0.10954815,-0.42252135,-0.27471477,-0.15509109,0.09331078,-0.1252878,0.04874708,0.008920692,-0.14906277,0.010751317,-0.058022566,-0.13716851,-0.0104478,-0.103038296
0.25651398,-0.05605213,-0.17331225,-0.05671075,0.015320245,-0.05055303,-0.18502049,-0.50231576,-0.14192526,-0.3875674,-0.31601006,0.098155096,0.26105407,-0.5181043,0.10112403,0.08925726,-0.4110307,0.110278256,0.07308581,0.15086353,-0.11386481,-0.0015002287,0.07208468,0.04441581,-0.222225,-0.1659017,0.22445591,-0.030852322,-0.028024284,0.20016962,-0.14679891,0.15014228,-0.049389735,0.009756391,-0.13893664,0.3577479,-0.10668169,0.07220854,-0.1045098,-0.007726512,-0.14593613,0.20852065,0.09890512,-0.07741046,0.120796874,0.39464024,-0.078358695,-0.17527132,0.2489511,-0.24960664,-0.005260193,-0.12472565,-0.4999792,0.5139942,0.45152533,0.16274147,0.21173513,0.22311069,-0.057508323,0.11123985,-0.30618608,0.018803598,0.05178693,-0.17213628
-0.16939054,0.17532428,-0.040219523,-0.043658108,-0.024583533,0.31970292,0.120137505,0.28538713,0.11211015,0.16586621,0.07219738,0.24881439,-0.13450758,0.041240197,-0.19624214,0.02675325,0.035157237,0.28915435,0.2254973,-0.08489472,-0.17761417,0.00457605,-0.16380164,-0.20391476,0.02047022,-0.19155812,0.14724962,0.100180544,0.0636159,-0.29158062,0.20708993,0.25641116,-0.10493304,-0.13218726,0.13743009,0.06808598,0.12474573,-0.23944312,0.21830758,-0.10896309,0.18121386,-0.14758699,-0.058008075,-0.25160024,0.076956965,-0.14562008,0.20120935,0.081540376,-0.10803251,0.2154256,-0.029953172,-0.08552276,-0.07854256,-0.13816145,-0.23821765,0.01834873,0.033840336,-0.18236372,-0.17322408,0.06709711,-0.07480105,0.04299988,-0.255728,0.06500861
0.022903878,0.014461228,-0.19000119,0.24744982,-0.06333385,0.010402095,0.081154026,0.09300139,0.18107578,0.23425618,0.2710561,-0.23883109,0.24274772,0.15791492,0.034497347,0.035580054,0.14141572,-0.3470599,-0.24009447,0.037441798,0.19632842,0.10307889,-0.08234582,0.18052371,0.14778788,0.18123151,-0.19457376,-0.20177767,-0.05498354,0.219874,-0.14800136,-0.13965893,0.051953793,0.13114122,-0.30447343,0.08058964,-0.30120048,0.07158729,-0.04997865,-0.091590695,-0.29648197,0.11252845,0.20701368,-0.06669449,-0.012546775,-0.13236699,-0.23260605,0.1904153,0.3116847,-0.27277476,-0.21553098,0.06199654,0.03432208,0.22347736,0.029696358,-0.0656092,-0.23858985,0.036318023,0.041814324,0.13002622,0.25599846,0.08491431,-0.11487146,0.18572956
-0.08980014,-0.18876223,0.12096223,0.016391851,0.17997728,0.2581961,-0.11998359,0.13786912,-0.25803986,-0.11312483,-0.17020255,0.16911301,-0.07096515,0.10864328,-0.28041294,0.040047534,0.061148033,0.2204839,0.09872618,-0.053723797,0.07671771,0.009157601,0.07273549,-0.013400382,0.074925624,-0.09784062,-0.022261227,0.17841265,-0.05348319,-0.0827443,-0.027616281,0.026521657,-0.048536,-0.1838325,0.13435924,0.056880254,-0.13937557,0.08235072,0.16856073,0.18210118,-0.09009729,-0.034180272,0.16865449,-0.30139792,-0.14649029,-0.02993619,0.07449958,-0.0024590646,-0.18517931,0.033193205,-0.13142481,-0.062268533,-0.04657586,0.06723947,-0.21119829,0.25713852,-0.07549138,0.11682955,-0.3228347,0.12485768,-0.04503647,0.10921549,-0.17086324,0.09693635
0.18060587,0.12637395,0.11369405,0.17914253,-0.2984981,-0.140172,-0.23307268,-0.22020844,-0.072920464,-0.049720302,-0.3184883,-0.011567401,0.020289999,-0.2121248,0.15027432,0.17209847,0.042903855,0.11749007,-0.040649477,0.2932149,-0.20511268,-0.24389267,0.13482384,0.026805025,0.0112763215,-0.08284903,-0.042126667,-0.14403291,0.25590453,0.0010710703,0.09691652,-0.20370343,-0.18361753,-0.2902477,0.17679417,0.34633806,0.06667335,-0.1476948,-0.09444353,0.040269118,-0.13666527,0.35154673,-0.024942376,-0.037064213,0.07471111,0.120735265,0.098456435,-0.14288604,-0.014794774,-0.12546106,0.18369706,0.02828966,-0.061021555,-0.065175734,0.26223046,0.024769902,0.26326534,0.15783893,0.21812138,-0.25143364,0.10703005,0.08156072,0.15681557,0.009088051
0.3003885,-0.009006308,-0.17662224,-0.14001854,0.14087881,0.13634484,-0.06501541,-0.1653701,-0.024414264,-0.32449573,-0.1537751,0.32301575,-0.25301057,0.048107218,-0.07030349,0.09029267,-0.037100706,0.44707546,-0.14824827,-0.19100016,0.2799878,0.115416415,0.21002632,0.23439519,-0.12790242,-0.06779811,0.027911613,-0.095013484,0.21982947,-0.24781509,0.21106401,0.45983174,0.07245781,0.25179774,0.043253485,-0.26324221,0.10422712,-0.10960942,0.18925247,0.062026,0.013834798,-0.18607451,0.008280637,-0.4012432,-0.08185221,0.01200504,0.25496972,-0.07950315,0.010695179,-0.02675751,-0.19747113,0.21529402,0.062104635,0.0077056196,-0.14757714,0.4516174,-0.32228258,-0.073512994,0.008772899,0.35330963,-0.02371425,0.39322105,0.09476736,0.003144869
0.21982464,0.1347061,0.5404793,-0.08412728,0.029117899,-0.20629439,-0.13843594,0.12377885,-0.112790786,-0.07132887,0.103238754,0.194863,-0.28642654,0.1328642,-0.13729566,-0.3723013,0.01642235,-0.114093944,0.13121276,0.005256724,-0.48702824,-0.0088959355,0.07919467,-0.2752716,0.104053184,0.031272586,0.1508454,0.21171032,-0.1216939,-0.006828175,0.06623809,-0.08772372,0.23096527,-0.37497798,0.34836906,0.26202223,0.10394348,-0.22185788,0.06747073,0.19971457,0.24749744,-0.032649033,-0.08908774,0.3397453,-0.061691914,0.05353408,0.017485075,-0.15544975,-0.38838434,0.13709718,0.21755154,-0.2640378,0.26515016,-0.25264776,-0.38680336,-0.17782262,0.04498257,-0.1796407,0.0592853,-0.3516958,-0.1423614,-0.24037205,-0.021814663,-0.027980259
0.32314628,0.2783948,-0.022732902,-0.17790377,0.20514625,0.19972345,0.3693244,0.39528042,0.029686198,0.34237245,0.5109645,-0.48030525,0.11383736,0.3514714,-0.21004634,-0.14383833,-0.044374883,-0.26054615,0.083124354,-0.30619296,0.11332479,0.24431834,-0.47147408,0.20135732,0.047349956,0.1919329,0.058918484,0.2107912,-0.13273259,0.07740419,-0.43308944,-0.4719335,0.15971653,0.3827128,-0.026315259,-0.0056067696,-0.21080829,0.39029485,-0.36542496,0.27535173,0.06271673,-0.25554442,-0.2801171,-0.09439141,-0.017027725,-0.25252536,-0.6548961,0.5687315,-0.16933641,0.26303467,-0.14810464,0.1768384,0.3238604,-0.3823748,-0.25920853,0.032779157,-0.10598476,-0.20898756,0.29434696,-0.31435946,0.041776538,-0.47279897,-0.300311,0.37015563
-0.36151326,0.25965476,-0.08933068,0.08838364,-0.089087345,0.0019680406,0.35519406,0.115880854,0.2657906,0.020664731,-0.21179786,-0.28396115,0.3519015,0.09865962,0.1868811,0.40618,0.05895818,-0.27022913,-0.09477204,0.23421024,-0.111118406,-0.5805197,0.2668256,0.22044946,0.040422663,-0.1841187,-0.38226068,-0.039049815,-0.09401479,0.17560922,-0.3242216,-0.04848154,-0.21249522,0.08092695,-0.32369545,-0.2149996,-0.027952146,0.23524961,-0.05776905,-0.34353456,-0.25729808,-0.08626406,-0.028769007,-0.0010266068,0.003728947,0.16724733,-0.12653333,0.3747779,0.23049527,-0.13014069,0.43015492,0.07926792,0.046394955,0.2032378,0.47006616,-0.21163839,-0.45068952,0.09729367,0.03509857,-0.1325446,0.16301745,-0.020552574,0.034228496,-0.11068358
0.3559067,-0.47879004,-0.14029276,0.1926016,-0.4613885,-0.012742218,-0.022836281,-0.47335896,-0.23010235,-0.17656079,-0.14759393,0.16561656,-0.475986,0.079463065,-0.5607165,-0.3816394,-0.45086095,0.18174106,0.22150423,-0.37834206,0.14319462,0.09457205,0.15163927,-0.24475254,0.18341109,-0.065607734,0.28966346,-0.11596419,0.24275848,-0.21682897,0.44232175,0.33574882,0.014334367,-0.11531177,-0.15251717,0.04552067,-0.15292571,-0.39473587,-0.056056734,0.11597608,0.13448301,0.28029394,-0.2590649,0.1196897,0.19728766,0.49464738,0.37852263,-0.3396662,-0.07322315,-0.18337432,-0.15429898,-0.025559451,-0.26669842,0.49188507,-0.062296297,0.31430095,0.33277464,-0.3991866,-0.15673864,0.4697837,-0.6348183,-0.06761676,-0.057666622,-0.41814673
0.20934196,-0.09737284,-0.16857311,-0.11820101,0.058329117,0.010623354,0.114219174,0.055515524,-0.11281595,-0.072941996,0.20685767,-0.1094145,-0.14041829,0.08321332,-0.25506267,-0.34157327,-0.14489274,-0.19063993,0.39874288,-0.17661622,-0.015929848,0.108311616,-0.31268027,-0.28861672,-0.0210988,-0.12132927,0.2570691,0.09509995,-0.2203412,0.08462361,0.025198815,0.059559625,0.358808,0.21222511,0.030134087,-0.19795048,-0.024136586,-0.07586385,-0.11008439,0.03790565,0.27376926,0.007331717,-0.10886115,0.17285499,-0.034192882,-0.0831837,-0.035894617,-0.22848418,0.11732204,-0.17066865,0.01790858,0.036187913,0.16477178,0.17298558,0.12771085,-0.0729073,0.23559086,-0.25948593,0.13037321,0.30360818,-0.25358328,-0.26776335,0.026623648,-0.23192374
0.04187176,0.109963074,0.03896382,0.08463456,-0.099050514,-0.24675865,-0.3547982,-0.27915064,-0.29953018,-0.16244467,-0.35935083,0.22399046,-0.0708023,-0.3916344,0.11143316,0.1157202,-0.26612532,0.16402054,-0.09950785,0.07626755,-0.008322361,-0.026729565,0.35858247,0.11297542,0.09483308,0.07103054,-0.0013493667,-0.09640583,0.25335267,0.14332113,-0.041655675,-0.015259698,-0.15372026,0.03995129,0.20603806,0.2684747,0.07062334,-0.054987416,-0.07978279,0.18324383,-0.0788063,0.02394858,0.16656817,0.13228887,-0.029104343,0.23908259,0.06678376,-0.21970978,0.0032822944,0.13945386,0.27979216,-0.09839532,-0.36535335,0.20607992,0.06480868,0.18821397,-0.11581184,-0.014937267,-0.13102077,-0.047752894,0.036504358,0.114044994,0.17149223,-0.060037766
0.16347638,-0.032531824,0.3756933,-0.11626065,-0.0030361111,0.038492963,-0.2229708,-0.029033206,-0.23128179,-0.01349801,-0.006380237,-0.16205958,-0.24754679,0.0392642,-0.031778358,-0.03681959,0.026173523,0.2533146,0.05353322,-0.086219005,-0.13626733,0.21935599,0.08050099,-0.03383349,0.38576996,0.34237385,0.22494878,0.01876999,0.21105947,-0.27515504,-0.16278951,-0.028565753,-0.18683386,-0.06734744,0.35841462,0.38903365,-0.19909246,0.002484224,0.02789939,0.42252585,0.09594905,-0.10615372,0.005850919,0.01585256,-0.027433872,0.010114196,-0.20310912,0.16020414,-0.2823274,0.18728597,-0.20453776,-0.03620677,-0.12741221,-0.39407596,-0.40132865,-0.14295274,0.052998275,-0.10324407,-0.008040237,-0.35686395,-0.12412927,0.061596032,0.15472217,0.096799545
0.28490525,-0.38044992,-0.5648813,0.39068842,-0.25043005,-0.3255866,-0.4226626,-0.20669022,-0.31371087,0.32055104,-0.42096922,-0.18569371,-0.36538756,-0.36905864,-0.10244575,0.31922472,-0.04876991,-0.3023181,-0.68882024,-0.32927623,0.56997013,0.25362206,0.44895646,0.39873382,0.24046877,0.3436546,-0.078564905,-0.2650112,0.64592737,0.14969437,0.31566575,-0.174666,-0.16849092,0.6468472,-0.27596703,-0.066543,-0.19111778,0.06038491,-0.22292422,0.41606626,-0.37750718,0.51535165,-0.062650934,0.25923416,-0.29902995,0.4018887,-0.37127867,-0.36135414,0.27097937,-0.20990852,-0.27587605,0.13351502,-0.12732042,0.58394134,0.5725279,0.36506706,-0.09727123,-0.18561979,0.44590837,0.35518906,-0.28057963,0.2429953,0.16886128,-0.57647073
-0.0057820412,0.3661872,-0.21284322,0.26749456,-0.108473964,-0.113584846,0.20196638,0.07482155,0.14006859,-0.1549156,-0.0073502646,0.10242008,-0.06300546,-0.030168276,0.03369287,0.21249272,0.15067947,0.07802694,-0.07116531,-0.0051816897,0.1607665,0.11083445,0.15117148,0.15876813,0.06640181,-0.09689545,0.040528983,-0.39332762,0.052349653,0.2972265,0.2527159,0.03924778,0.17419958,0.11801456,-0.34315407,-0.09445984,0.15732789,-0.29211473,0.08313156,0.113594025,-0.08336115,0.22772518,0.39430845,-0.25113893,0.05196428,-0.02872659,-0.09891523,0.18461311,0.30761203,0.2690126,0.13130079,0.35037032,-0.22870962,-0.23447156,-0.23487884,0.24746181,-0.27643362,0.23392974,0.10434008,0.08681717,0.35285944,0.16781446,0.34801695,0.05055351
-0.11543636,-0.025847128,0.38288182,-0.2579043,0.060853526,-0.13489994,-0.19125472,0.092625365,0.0034006538,-0.010925758,0.31500953,-0.017665038,0.040019974,0.15356918,0.10016883,0.12829743,-0.055465132,-0.020297121,0.0086006895,-0.067541145,-0.2631468,0.26643246,-0.21150145,0.12528728,0.15042135,0.25522256,0.16657203,0.027381808,-0.19307724,-0.1312568,-0.20211646,-0.13590264,-0.13058922,-0.332966,0.29868945,0.26303756,-0.02748695,-0.15360309,0.11350004,0.15816925,-0.19361049,-0.13073684,0.14673279,-0.26690215,-0.08055167,-0.26820913,0.11695505,0.26644993,-0.34086937,0.03715656,0.007884861,0.24024084,0.20187913,-0.4117513,-0.3212755,-0.35192487,-0.05997311,0.24888445,-0.21358193,-0.40859222,0.05274556,-0.20409694,0.07314767,0.4280813
-0.3060154,-0.12085805,-0.056817424,0.45088676,-0.18634947,0.22697632,-0.08585942,-0.13739264,-0.06449781,-0.14032233,-0.015268711,0.1911159,-0.24881883,0.0682669,-0.058561027,0.001278101,0.07468715,-0.018469885,-0.10872201,0.178093,0.09134404,-0.07576735,0.17901172,0.040781643,-0.13065511,-0.30212536,-0.21449502,0.15451686,0.22214393,-0.14360052,0.27825478,0.14346607,-0.15523864,0.122199334,-0.33266744,-0.24115631,0.16732359,-0.19992891,-0.11198657,-0.07353383,0.23749189,0.20093268,-0.1839969,0.112620234,0.15715589,-0.09241545,0.12274101,0.18719026,-0.12448929,0.2464493,0.27238217,0.043168735,0.11515607,0.192916,0.085910186,0.19292486,-0.13693523,-0.29781768,-0.23161006,0.29601535,0.07339709,0.27748364,-0.095730074,-0.07626034
0.23949532,0.17632735,0.16777292,-0.098319225,-0.041537512,-0.47388518,-0.20250946,0.004146064,0.041223098,0.028846055,-0.029919703,-0.28798902,-0.05536122,-0.3890792,0.12083075,0.11519833,0.121233046,-0.10991339,0.090592176,0.37231782,-0.21763693,-0.21673103,-0.008649007,-0.15234022,-0.13019337,-0.084788434,-0.26595217,-0.022423089,0.08352518,0.28139263,-0.059664797,-0.3393469,0.37954172,0.16192463,-0.00741158,-0.09317682,0.40835944,0.24324526,-0.40971988,0.0977126,-0.057243828,0.0071646185,-0.1389744,0.2360068,0.10168686,-0.053373717,-0.14127228,-0.06960933,0.07958543,0.28804255,0.32210764,-0.0185503,-0.31874162,-0.37948218,0.09147594,0.07478543,-0.023260003,0.07565741,0.23342332,-0.5624828,0.23810099,-0.0262426,0.17286539,-0.16705179
0.30748552,0.29697186,0.045677286,-0.19652195,-0.10379277,0.030337537,-0.1866417,-0.25361705,-0.10150438,-0.36879036,-0.24532376,0.10353027,-0.041880168,-0.14954227,-0.21029124,-0.08733593,-0.2563015,0.28599668,-0.1445079,0.041736417,0.18902571,0.14144394,-0.0069448445,-0.2135167,0.006121417,-0.18289517,-0.049812786,-0.06239637,0.22944057,0.22048366,-0.11095453,0.004944251,0.20746574,-0.16299723,0.10888333,0.27749598,0.119701624,0.005076165,0.050499305,0.20462352,-0.12220237,0.11413056,0.17491564,-0.03302297,0.042155337,0.056810293,0.010681892,0.054438144,0.15114349,0.18674655,0.233186,0.19975415,-0.18628089,-0.057526547,0.07450847,0.21284582,-0.0048556533,0.31143713,0.23594718,0.009014552,0.11542507,0.020450663,0.23133442,-0.014081036
-0.10357253,-0.003623583,-0.14440235,-0.02820226,-0.033944596,-0.15652099,0.14118792,0.10039117,-0.014388388,0.10668551,0.010591709,0.18423477,-0.025546335,0.016984513,0.08736726,-0.22103097,-0.09542022,-0.21143007,-0.087097414,0.17094068,0.25128564,0.1303899,-0.20599525,0.23902914,-0.2564291,0.11588497,-0.029385835,-0.028056674,-0.16215467,0.20308353,0.2032965,-0.039184976,-0.067878574,0.044188198,-0.027599297,-0.05125489,0.01497068,-0.13556279,-0.1599971,-0.20129916,-0.029339176,0.05684508,0.25221503,-0.055963695,-0.21598954,0.12695591,0.013788035,-0.17700657,0.06955311,-0.23834032,-0.10518889,-0.1642661,0.107389405,0.124600984,0.2714256,0.04115998,-0.18424474,0.09905661,-0.01660599,-0.06766341,0.1663024,-0.14028336,0.24734548,-0.09565417
0.1132882,-0.061539005,0.4217647,-0.27530414,0.20305237,0.08843065,-0.15396939,-0.24574368,-0.22927584,-0.118546225,0.0057193306,0.10719418,0.09320436,0.035535343,0.18879305,0.035792142,-0.33640623,0.22147202,0.2526355,0.30355772,-0.36204445,-0.17472027,0.16947716,-0.18892747,-0.058568545,0.1450804,-0.009914847,0.13354933,-0.043500423,-0.18190062,-0.25841394,-0.02637618,-0.050029196,-0.3568073,0.32435465,0.175051,0.017664015,0.14004813,-0.0061505097,0.2731548,0.0052622873,0.14813456,0.07602406,0.061022267,-0.16703428,0.1395075,0.0037081179,-0.11267808,-0.048336703,0.05653135,0.23511623,-0.09867947,-0.056483835,-0.0050961403,-0.04695771,-0.39557847,0.2990096,0.27039823,-0.13320622,-0.304203,-0.20899631,0.022766542,-0.051379953,0.07178616
-0.019860411,-0.14045264,-0.15291993,0.008935791,0.57532614,0.40885538,-0.1218362,-0.32589963,-0.5139305,0.18248416,-0.23159692,0.20873441,0.6088212,-0.043853305,0.17498544,0.134903,0.010432253,-0.11644518,-0.1661663,0.14521836,-0.38720083,-0.20738137,0.11875075,0.26590338,-0.0049061417,0.33380014,-0.051004823,0.33925435,0.07075069,-0.34546253,-0.37917146,0.053830434,-0.63685614,-0.08134994,0.041636433,-0.23303108,-0.18956985,0.3227883,0.050774265,-0.23722714,0.18050936,-0.18792222,-0.18526201,-0.043527108,-0.2710798,-0.18030311,0.1468488,-0.22033651,0.09213462,-0.47261232,-0.0070432182,-0.32380542,0.025647119,0.4617466,0.32461593,-0.1967775,-0.21945228,-0.22828121,-0.15606768,0.42013636,0.0066828043,0.14079635,-0.3702158,-0.116953775
0.010103043,0.22371963,0.21665135,-0.13839644,-0.018384678,-0.65846485,-0.4178149,-0.19126354,0.015026356,-0.18654767,0.11294504,0.3147188,0.09329405,-0.35305116,0.42078564,-0.092478864,-0.29131785,-0.13425273,-0.14948969,0.022243708,0.056025214,0.03307622,0.11752867,0.13364556,-0.14236869,-0.016064728,0.16994186,-0.1750179,-0.037448112,0.16163658,0.24590942,-0.07593971,0.069350496,-0.21522456,0.1694719,0.29263875,-0.13244769,-0.06363607,-0.2608863,-0.14665368,-0.33300844,0.019143224,0.30960494,0.15884137,-0.2457033,-0.043088514,-0.04871091,-0.3367869,0.12303162,-0.04987886,0.15218325,-0.097255625,-0.20608954,-0.0347551,0.121276334,0.068384156,0.09642742,0.48740035,0.31858215,-0.0930342,0.31371534,0.1474566,0.59171593,-0.2211984
0.14226627,0.47558627,-0.28013095,-0.2626772,0.5428207,0.18188812,0.38761118,-0.16852225,0.018854372,-0.22918555,-0.017592931,-0.2038307,0.39626566,-0.30418524,0.040382992,0.3912012,0.110724844,0.18947189,-0.27864152,0.11745823,0.3034109,0.18500577,-0.20543584,0.037685975,0.109950244,0.1775603,0.061328653,0.30450824,-0.0074019474,-0.029120754,-0.4999633,-0.08019049,0.03818967,0.005824948,0.1506513,-0.28138208,-0.020591578,0.29657364,0.005326548,0.06623276,0.0465283,-0.65315,0.115593955,-0.59505504,-0.39918074,-0.5155015,-0.33895463,0.2838202,0.30007827,0.010613713,0.17704254,0.28059986,-0.10701845,0.252816,0.032934897,-0.11604659,-0.2615857,0.050090075,0.12478633,0.062440667,0.46531343,0.29040948,-0.06500933,0.39925492
0.21024741,0.16728334,0.09800969,0.03141839,-0.11805454,0.10588214,0.52663416,0.35976893,0.35504025,0.22793321,0.41038996,-0.42816386,-0.1817576,0.024761252,-0.16787905,-0.2810516,0.29346988,-0.46292287,0.13580164,-0.19884117,0.3833295,0.023040297,-0.23700877,-0.011866918,-0.1998585,-0.05508712,-0.0063129743,0.19260529,-0.19065784,0.50602925,-0.2224231,0.05995652,0.452614,0.44419497,-0.033971466,-0.13825217,-0.08409166,0.18885164,-0.25286192,0.13312931,-0.07159555,-0.06587305,-0.09039954,-0.09048025,0.2843049,0.21099101,-0.37092808,0.16774596,0.35867962,0.061624333,-0.19201078,0.2862151,0.18617474,-0.13452002,0.10222644,0.039420247,0.0046247146,-0.3466467,0.2919703,-0.2584383,-0.23484707,-0.23992029,-0.21751586,-0.041788705
0.3410049,0.00040409437,-0.24796821,0.4017499,-0.38589624,-0.29865906,-0.17747442,-0.1551764,-0.13692969,0.23224662,-0.42331168,-0.48156258,-0.31627852,-0.36881933,0.05534901,0.27691737,0.22344407,-0.36025202,-0.22473,0.2532088,0.01453567,-0.3647321,0.648786,0.36543375,0.38713667,0.004101439,-0.15575856,-0.23725411,0.56144774,0.3297018,0.20501913,-0.36065724,-0.023154965,0.48791698,-0.33082262,-0.06382331,0.12812635,0.1085505,-0.118519984,0.34257105,-0.3020152,0.555465,-0.34655604,0.43892118,-0.058718503,0.24316385,-0.43969867,-0.07379735,-0.12448615,0.07491165,0.06023458,-0.042091493,-0.07324329,0.035720516,0.33337227,0.28334004,-0.042158037,-0.10015741,0.20842806,-0.0567988,-0.10553677,-0.17566879,0.20450905,-0.5454057
-0.3244702,-0.14633293,-0.06430501,0.05759911,0.1514007,0.54231495,0.23140699,-0.1146942,-0.13716143,-0.14896707,-0.28357622,-0.017048111,0.3154334,0.17234963,-0.03136493,0.2896501,-0.084151916,0.14793777,0.03660478,0.2067879,-0.03026282,-0.13621368,0.17511062,-0.16044652,0.037967656,-0.10090857,-0.09873237,0.15922818,-0.13430259,-0.08168478,-0.3810699,0.16455184,-0.4444066,-0.15625769,-0.060036376,0.18591292,-0.058080073,0.05515784,0.4406583,-0.14865482,-0.14784917,0.001460944,0.07173705,-0.005358803,0.047978684,0.13733616,-0.12048376,0.37478876,0.20397902,-0.13909695,0.26701245,0.14911146,-0.09745945,0.38219565,0.24210018,-0.2148243,-0.057870336,-0.047209885,-0.20411572,0.21420506,-0.3279441,0.12306098,-0.45284024,0.14331993
-0.09120771,-0.6036135,-0.054740116,0.20261674,0.23726688,0.22334571,0.070972666,0.0275855,-0.42060298,0.20086238,-0.1369933,-0.25407958,0.3275956,0.2636585,0.2869505,-0.33822036,0.08331163,-0.542299,-0.082273595,0.20468946,-0.058521345,-0.10318491,0.10420082,0.25347346,-0.019757632,0.45357177,-0.40073055,0.15053444,0.14829902,-0.262133,-0.1749389,-0.21794935,-0.47640765,0.44236153,0.26903954,-0.35270214,-0.3538752,0.37903118,-0.2741505,-0.10096834,0.075821355,-0.17707944,-0.42479116,0.4942266,-0.4961868,-0.16257992,-0.13467066,-0.29227585,-0.5031423,-0.04534544,-0.07306914,-0.06859247,0.32537365,0.34891862,0.3266124,-0.11514343,0.04258115,-0.3249253,-0.13048917,0.11740445,-0.16855262,0.12713589,-0.29796275,-0.26592645
-0.16369611,0.29957914,-0.09513371,-0.037101712,-0.23032358,-0.07698904,0.32599583,0.20288137,0.3971807,0.27497998,0.31417173,-0.023809498,0.0980125,0.16209306,0.2913844,-0.13283955,0.20646064,-0.23321661,-0.01244898,0.43945336,-0.01833658,-0.14113368,-0.2855347,-0.16822863,-0.00043888172,-0.013515847,-0.19805749,-0.2466834,-0.25739548,0.45335883,-0.050037313,-0.19036269,0.052340258,-0.043368775,-0.25439623,0.0069106193,0.26124242,0.14876577,-0.37673667,-0.37133217,-0.21246292,0.24856149,0.25215524,0.20415469,0.066718414,0.32089242,-0.25715518,0.108335376,0.2354353,-0.22529984,0.16453828,-0.31534737,0.24382609,-0.022702925,0.08487608,-0.2709015,-0.19092938,0.21150531,0.38319403,-0.46814302,0.21224016,-0.13997336,0.1315817,-0.14614035
-0.106070705,0.30757138,-0.19360694,-0.14186944,0.27341697,0.22025144,0.34172946,0.15163381,0.20397831,-0.025045373,0.28311947,0.05269792,0.058942635,-0.12728144,-0.21031757,-0.05477642,0.026883401,0.15963688,-0.03348965,-0.24222651,0.034201268,0.14528273,-0.35108176,-0.18903403,-0.0433235,0.20605177,0.31130427,0.074884705,-0.34485823,0.114741474,-0.25494632,0.21308775,0.11227742,-0.14946695,-0.089737006,0.07983291,-0.19996668,0.21265566,-0.032499455,-0.23247366,-0.11344653,-0.17756388,0.03693588,-0.34522903,-0.09227048,-0.3125714,0.07818142,-0.0644099,0.26190457,-0.36392108,-0.28950253,0.30435959,-0.05557741,0.03617614,0.04740713,-0.06781752,0.16469239,0.11509716,0.050214116,0.17432883,0.22559161,-0.17183381,0.040091697,0.23683631
0.13008256,0.057282906,-0.22460209,0.021654233,0.22376058,0.2039121,0.2005729,-0.14776348,-0.19713065,0.09744057,-0.009250052,0.02926301,0.021283237,0.06624958,-0.50418013,0.16551767,-0.23003194,0.21169983,-0.19230512,-0.34483755,0.16493323,0.1659183,0.0039516566,-0.02092955,0.11522843,0.010918427,0.22653316,0.10689984,0.13437794,0.0934108,0.013424696,0.20530689,0.019363133,0.3243616,-0.087784335,0.08119117,-0.2713703,-0.010387338,0.22808887,0.0072201546,0.13334782,-0.007516629,-0.23879404,0.04894401,0.05527653,0.026634684,-0.061914537,0.16272339,0.06848672,-0.11889075,-0.1833685,0.41051003,0.13630338,0.08909104,-0.04295945,0.13750467,0.19139577,-0.22125205,-0.2190774,0.2964548,-0.20223497,0.18512298,-0.39564177,-0.09230569
-0.15626025,0.2552588,0.16316298,-0.09897564,-0.1585994,-0.0971576,0.23576659,0.045156747,0.4020846,-0.018439498,0.18054636,-0.09589551,-0.0005407502,0.15602255,0.2000387,-0.17398879,0.26764017,-0.21737908,0.3536406,0.16206367,0.12337518,-0.1963723,-0.19263607,-0.20971699,-0.3662433,-0.16600908,-0.022392321,0.06733191,-0.24324535,0.17819963,0.029758163,-0.099196896,0.22164203,0.002360508,-0.25507504,-0.17258321,-0.02659278,-0.14795661,0.0074914834,-0.31003937,-0.014772718,-0.13367534,0.039547797,-0.028476065,0.2587537,-0.06071324,0.025102668,-0.015180644,0.1164438,0.007958194,0.18593886,-0.14844353,0.23227425,-0.20528042,-0.21140991,-0.15364748,-0.17212829,0.0063015674,0.13405192,-0.12109486,0.053743813,-0.21085994,0.22854257,0.13640527
-0.16461311,0.0037193953,0.48583636,-0.2723634,0.025399053,-0.16022669,0.3010112,0.23568784,0.44719803,0.15491237,0.36060086,-0.23918763,0.38752192,0.095937766,-0.09181589,-0.2652467,-0.24568662,-0.486266,0.5322342,0.19957627,-0.3594605,0.070463456,-0.23351526,-0.53836966,-0.24202523,-0.0332322,0.43740156,-0.034656174,-0.29728994,0.13633282,-0.17184532,-0.06277027,0.33642086,-0.18770687,0.2294297,0.41532546,-0.18256103,0.1028232,-0.048630923,-0.21809895,-0.035135332,-0.014553726,-0.100366205,0.12483909,0.19282565,0.36943254,-0.23910312,0.19779049,0.3098121,-0.47989064,-0.094884865,-0.06562759,0.30675632,0.12217165,-0.070376255,-0.2855229,0.5491804,0.01658013,0.28365803,-0.47045386,-0.30908352,-0.42165828,0.042037167,0.025683679
0.23644958,0.04876179,0.14537537,-0.023090685,0.16728607,-0.0055693155,-0.17851783,-0.3574803,-0.2454612,-0.2405609,-0.5039501,-0.12169566,-0.16711937,-0.30406418,0.1531197,0.22540426,-0.13182838,0.11965296,-0.116761185,-0.03513121,-0.1539474,-0.25731844,0.4098537,0.08098129,0.056979887,0.063661784,0.06245936,0.31188425,0.29814702,-0.0030670958,-0.11386652,0.017086912,-0.14988004,-0.16718851,-0.018379947,0.46670488,0.19630331,-0.08549742,-0.1581482,0.23871484,0.10493814,0.053327702,-0.001841568,0.02431334,0.05272178,0.2485436,-0.13199359,-0.12161881,-0.09977598,-0.042703208,0.36552772,-0.0486566,-0.34916273,0.22787513,-0.036308397,0.15454073,0.17623037,0.2572994,0.06956087,-0.111114845,-0.31743088,0.28350443,0.060023826,-0.2876385
-0.10968158,-0.21820122,0.05650332,0.43015352,-0.3412091,-0.17965347,-0.28135177,-0.029860608,0.075122245,0.23430997,0.015096947,0.09133161,-0.062126275,-0.077611685,0.23712978,0.20882961,0.25660586,-0.0674925,-0.25138628,0.18221651,-0.14579707,-0.26054025,0.068401515,0.13732818,0.12958519,0.00671296,-0.20374188,-0.11953377,0.1393081,-0.1684334,0.3044151,-0.08616715,0.063805275,0.06458687,-0.1685622,0.020932648,0.17666975,-0.098279245,0.15838857,0.117895335,0.031365212,0.17537376,-0.12930125,0.13437267,-0.123189755,-0.046089377,0.16434686,-0.18374003,-0.26781893,0.043293733,-0.0025198327,0.041362684,-0.07765527,-0.24920121,-0.078012764,0.07999109,-0.19678459,-0.17830281,-0.17423132,0.124694005,0.26309577,0.26339003,0.022414511,-0.21914968
0.19515476,-0.04651559,0.43969128,0.011732541,-0.0136966845,0.10490829,0.09998604,0.021983478,0.011007761,-0.0044737114,-0.14810748,-0.11568394,0.118471526,-0.10597496,0.14261182,0.10835634,-0.4355762,-0.07286119,0.038330484,0.27601486,-0.49277055,-0.06630914,0.03664093,-0.4389427,0.027851544,-0.074130036,0.02092216,0.39805478,0.07933877,-0.09463454,0.025848454,0.024749931,0.15593627,-0.10473944,0.15961823,0.5283913,0.22181374,-0.06860364,0.16671726,0.19502439,-0.15033329,0.2326905,0.08721848,0.2796923,0.31283036,0.32419974,-0.25868106,0.027079577,-0.15488318,0.01909173,0.3967088,-0.0597434,-0.0511107,0.097812146,-0.01846728,-0.2740582,0.391241,0.0347184,-0.122146204,-0.27421454,-0.42475155,-0.12510493,-0.19274889,0.16118512
0.26260895,0.32986614,-0.048667528,-0.3619234,0.1721228,-0.28674284,-0.07995186,0.12382062,0.08361077,-0.020308381,0.2560273,0.12881283,-0.09632865,0.032321904,0.1865768,-0.45363912,0.09597121,0.2083576,0.34216183,0.0056450767,0.08421869,0.060784344,-0.13658427,0.054337874,-0.15777726,0.32293826,0.05107832,-0.19596098,-0.14037724,0.08609082,-0.06407142,-0.0010240074,0.44047514,-0.09840357,0.4800271,-0.12168597,0.13612312,0.07268238,-0.26518616,-0.005645774,0.34224814,-0.3806602,0.078240104,-0.009735172,-0.118160404,-0.42749143,0.2141193,-0.61561733,-0.1858763,0.2614835,-0.012165624,-0.23060293,-0.056279417,-0.18542878,-0.20991862,0.083937325,-0.060251135,-0.15792444,0.30743918,-0.10754578,0.27259353,-0.034171224,0.43716723,0.04204039
