0
0.13315088
-0.18903886
-0.08168482
-0.08266776
-0.07674655
-0.15484959
-0.06086298
-0.14963663
-0.03998821
-0.20746653
-0.2518037
-0.1307488
0.07434135
-0.09112981
-0.051397685
0.09802904
0.13981664
0.09614396
0.23083201
-0.27289948
-0.049663518
0.058278758
0.10083585
0.10685258
-0.03329596
-0.031344026
0.23564287
-0.057844017
0.07078265
0.07955325
-0.08500372
0.0033130425
-0.15395907
0.013169171
0.12456127
-0.06624238
0.0890009
-0.16499388
0.035286013
0.050028738
0.03320113
0.01728535
-0.09888109
0.22112776
-0.06782202
-0.057294566
0.08188267
0.0006078606
0.1925401
-0.075377524
-0.04363342
0.08852577
0.06480466
0.029357707
-0.02790765
0.048419785
-0.009652874
-0.0708509
-0.037084796
-0.019753369
0.10386837
-0.014291088
-0.063625544
0.019278072
-0.06026865
-0.037966557
-0.032979984
-0.084556565
0.13429354
-0.07713104
-0.06942321
-0.07148032
-0.1348081
0.11955617
-0.091129094
-0.03844928
0.08801025
-0.11672523
0.032687116
0.031022485
-0.15839669
-0.01812655
-0.17063972
0.12637608
0.08317337
-0.12905724
-0.19995496
0.029665694
-0.048804823
0.065851174
-0.14027306
0.23791182
-0.08401224
-0.14272133
0.08013575
-0.080648884
0.1758268
0.09366263
-0.05580644
0.07081964
0.010115996
-0.04016615
0.027829777
-0.30406013
0.11800866
0.07763335
-0.007840797
-0.12582101
0.038212784
-0.03513354
0.16437341
-0.1361752
-0.42877847
0.07454818
-0.019671462
0.004091145
-0.0054708472
0.09672779
-0.018755378
-0.086743236
0.12310717
-0.111796945
-0.10251912
-0.01225696
0.14272977
0.117098965
-0.14877842
-0.091765985
-0.030936796
-0.22321016
-0.04559285
-0.055033743
-0.14300273
0.20369773
-0.29345644
0.08744168
0.11742865
-0.122738235
-0.09799356
-0.009612668
-0.044721838
0.046047248
-0.031540785
0.0022073376
-0.06571133
-0.25839683
-0.31185788
0.15147212
-0.06616567
-0.11154947
0.030224612
-0.15782969
0.04019645
0.09843602
-0.07641845
-0.033572666
-0.10418837
0.049731314
0.0042254743
-0.2953245
-0.29110828
-0.17922162
0.055287007
0.04307124
-0.026764566
-0.0036950868
-0.1606307
-0.06277236
-0.16334221
0.041061252
-0.023828428
0.025293771
-0.18973249
-0.0070667765
-0.15055759
0.06029428
0.13223901
-0.068453774
-0.0075935563
0.1744909
-0.1461894
-0.13186966
0.02989275
-0.0992616
-0.15149978
-0.0836298
-0.18887058
0.08992101
-0.10741777
0.0005787987
-0.18482722
0.1966397
-0.09780278
0.12744741
0.047919914
-0.011491769
-0.071370795
0.06324169
-0.046264425
-0.06689416
-0.07081918
-0.07113025
0.051140767
-0.22233592
-0.026199155
0.14516938
-0.2549623
0.06856166
-0.16275802
0.17730027
-0.06295092
0.16728967
0.017721863
-0.102282286
-0.1890277
0.31589326
0.20401701
0.057688437
-0.16376567
-0.09750528
0.05801988
-0.047569297
0.06666758
-0.055122748
-0.090624034
-0.07099654
-0.29450354
-0.01706643
0.13228516
-0.03364558
-0.067429885
0.064448774
0.08686933
0.050370872
0.021495467
-0.2524143
0.044450223
-0.0038823292
-0.24719523
0.02253246
0.0141413
-0.026592802
0.045495175
-0.099394485
0.06332724
0.012741894
-0.058903147
-0.05017052
0.04885744
0.003928682
-0.33086428
0.17577541
0.12964399
-0.045287255
0.17067924
0.14493006
0.05720641
-0.08407073
-0.06828313
-0.04177537
-0.31808466
0.014989581
0.009920387
-0.08661549
-0.1550765
-0.23994124
-0.21732935
0.09607627
-0.1973948
-0.041940354
-0.11082124
0.02968644
-0.3451119
0.06962287
0.08026693
0.014401078
-0.039877396
0.088342585
-0.15303195
0.0052086855
0.2616012
-0.053760204
-0.13573405
0.026113883
-0.08677936
-0.12387763
0.015893282
0.049527574
-0.049679786
0.045447964
0.08787133
-0.043619998
0.046124298
0.107895255
0.04323145
0.06154254
-0.07289276
-0.021764785
0.112026416
0.0383217
-0.10604798
0.05842237
-0.08023967
0.08954563
0.064457625
-0.04777501
0.004193487
-0.0053273384
0.10161133
-0.01918602
-0.05067876
0.044152383
0.05057314
-0.036653817
-0.084933035
0.094459705
0.15349995
0.22542365
0.028342782
0.13498081
-0.003374131
0.1177126
-0.05931515
-0.0647462
-0.052075732
0.056190114
-0.14301649
0.13524279
0.040261395
0.117478
-0.09950295
-0.24133286
-0.06197296
-0.065469556
0.12026833
0.19025153
-0.00043493585
0.028695012
-0.059940107
-0.14786203
0.120148726
-0.09611482
0.07885267
-0.13889632
-0.04515381
0.1101684
0.11590419
-0.20839626
-0.078587174
0.03812169
-0.09252181
0.014905956
0.024745567
-0.09758346
0.09510022
0.08589625
-0.07355464
0.0786456
0.051616438
-0.05558737
-0.099023
0.039834004
0.013003464
-0.2769138
0.031788815
-0.10460056
-0.109942794
-0.11806317
0.11110163
-0.10238965
-0.008358785
-0.20736271
0.047577154
-0.06299756
0.0318935
0.0655021
-0.029765496
-0.20473062
-0.055887617
-0.14262255
-0.21507908
-0.12873371
0.007933295
-0.016592326
-0.11323689
-0.24428208
-0.087899685
0.03286077
-0.086719565
0.0847299
-0.13088447
-0.035670307
0.029925864
-0.07717707
-0.05678086
0.07232336
-0.060269248
0.019721104
-0.09205235
-0.019192496
-0.050710324
-0.13709937
-0.09681832
-0.009180143
0.027820623
-0.042998
0.014373492
-0.2205247
0.098933466
-0.009384942
0.13340658
-0.1088025
-0.03236201
-0.010889186
-0.012711868
-0.13028091
-0.009762123
0.039347306
0.098422624
-0.2210654
-0.024588356
-0.025035527
0.017787589
-0.057142716
-0.102551095
-0.15750046
0.09671822
-0.19429885
-0.16997021
-0.25129518
0.033318784
0.106745005
-0.06423885
-0.062176816
-0.07441509
0.18901776
-0.17828973
-0.054786842
0.2323975
-0.001818832
-0.05597933
-0.018359875
0.038178544
0.07832163
-0.15131211
0.09042389
-0.05413146
0.20775075
-0.16166764
-0.14891437
-0.01090521
-0.1107502
0.04272881
-0.10280502
-0.02416175
0.021815859
0.09644309
-0.1330689
-0.17618659
-0.021293411
-0.0031435394
0.03732357
-0.0869072
0.024351612
-0.12764497
0.15440607
-0.034776945
-0.079782926
0.002373151
-0.04125054
-0.16781761
0.17678367
0.09185024
0.22033645
-0.48646304
-0.04381896
-0.045742918
0.12832616
0.06873923
0.01844488
0.24908002
-0.030666102
-0.029197542
-0.05865439
-0.027908044
0.0057347873
-0.08808715
-0.0124717355
-0.34476042
-0.14549063
-0.020632163
-0.15426466
0.008651484
-0.02638603
-0.18825498
0.082411475
0.16461723
-0.069521256
0.1407417
-0.04375351
-0.0015091405
0.027094653
0.0475597
0.0008482302
0.04653201
0.02263593
-0.13789676
-0.11104669
0.0961415
-0.24459751
0.13875976
0.09527461
-0.036060642
-0.26506832
-0.12453058
0.03669209
-0.04059042
0.10855187
-0.03349736
0.034417067
-0.04110072
-0.3061084
-0.12136656
0.11600687
-0.22758181
-0.039113287
-0.08804556
-0.18529227
-0.0071146633
-0.16753
0.06318066
0.07165319
0.020605093
-0.0043028654
-0.11333687
-0.2631203
0.15060909
0.0012092235
-0.08360114
-0.13234502
-0.001144473
0.018276785
-0.04836545
-0.17614208
-0.020591887
-0.14434412
0.021477632
0.03550737
-0.044678498
-0.14548308
-0.034140576
-0.108834706
-0.21896183
-0.046561517
0.23892596
-0.1574667
-0.044343613
-0.19934744
-0.020108502
0.11889546
0.27925947
-0.0147528155
0.0160436
0.0050916825
-0.18472946
-0.102312945
-0.09575668
0.061132804
0.122457616
0.054587435
0.027387392
0.14572804
-0.061668105
0.10319344
-0.11120819
0.1077316
0.020718127
0.017192837
-0.01762206
-0.023122814
-0.14262106
0.08348655
0.09549303
0.16588442
-0.013535444
-0.2196417
0.15816055
-0.13821384
0.049415056
0.108958505
-0.01813799
-0.1290865
-0.048630316
0.18365358
0.02957461
0.084698446
-0.06772702
0.08814729
-0.057760425
0.098394334
0.091273345
-0.004751951
-0.05301736
-0.038549352
0.030876013
-0.01489059
-0.044659797
-0.018560214
0.0012036816
0.06531061
-0.13919234
0.025487505
-0.0040939115
-0.12645152
-0.0026908636
0.09180997
-0.18224587
-0.1235454
0.054529965
-0.0582186
0.110197544
0.01922759
-0.022795446
0.15021761
0.008365219
-0.20994014
-0.13100253
0.22176166
-0.35504776
0.013858613
0.0022911427
-0.20258242
0.023590244
0.0027697943
-0.21247597
-0.15746038
-0.17491324
-0.10177784
0.03635604
-0.013745051
0.2134107
-0.0027745955
-0.19568248
-0.06617742
-0.2423795
-0.112102374
-0.24334078
0.1448708
0.1704769
0.19629937
0.06479666
0.20072992
0.04375279
0.11290644
-0.041210197
0.048252907
-0.23313302
-0.0031239553
0.04135549
0.1744046
0.12065274
0.04665902
-0.06219513
-0.11539137
0.16134103
0.073445395
0.10231034
-0.0065958207
0.0119739305
-0.17404929
-0.044064842
0.003800414
-0.04153405
-0.116459586
0.01462137
0.08765441
0.14763476
0.06337998
-0.00036437955
0.07662048
0.26019692
0.05004069
0.07854086
0.011870189
0.034787245
-0.15973307
-0.21345665
0.04644306
-0.16917361
0.047101222
0.03430229
0.12875375
-0.25355554
-0.008939176
0.1764991
0.013961392
0.14036354
-0.012453985
-0.13086429
-0.094522305
-0.01435407
0.17570096
-0.079343475
0.12154937
-0.026787296
0.0048033395
-0.0031892194
-0.029796487
0.13834064
0.14954337
0.07188549
0.08648442
0.00049765763
-0.14376764
0.035945863
0.20839824
-0.28813773
-0.02230306
0.067590564
-0.006926356
0.05836406
0.11448308
0.008255656
0.009868828
0.039435744
0.03155865
-0.010833832
0.25368527
0.075264566
0.037050802
0.011207947
-0.24708332
0.079371125
0.10960287
-0.07660113
0.010217971
-0.12366284
0.00336474
0.1795583
0.09470378
-0.15806027
-0.20819028
-0.055996094
-0.04479355
-0.2757924
0.024788799
0.04637568
-0.24088153
-0.02501833
0.09846629
0.036005992
0.13579074
0.06271918
-0.21661724
-0.0029618454
-0.026171213
0.017788338
0.21874373
-0.01805471
-0.0101395445
0.111491956
-0.07653732
-0.18130969
-0.008711975
0.0020030206
-0.24346137
-0.015578204
0.04725282
0.060548153
-0.0051706857
-0.22526102
-0.022053136
0.20604701
0.062230863
0.06005129
-0.013931466
-0.22848946
0.08270989
0.056252275
0.10667698
-0.358692
-0.11211244
0.01677472
-0.23155138
0.26092982
-0.08221278
0.008072199
0.10173327
-0.027854748
-0.12656312
-0.15139353
-0.23022012
-0.05337739
0.13007598
-0.027412865
-0.00902607
0.098134734
-0.14412482
-0.034231838
-0.18910627
0.2412764
-0.18979722
0.020323072
0.13330564
0.08777566
-0.12977777
-0.1713021
0.095311664
-0.10240554
0.028445749
0.17422819
-0.10158439
0.12868668
-0.19853544
0.012529405
0.05078299
-0.09858433
-0.01521268
0.0019277161
0.1238891
-0.08532057
-0.047616962
-0.10791296
-0.124819264
-0.13446513
-0.0045913574
0.12610224
0.10281967
-0.23361303
0.013064368
-0.001289043
0.0091555165
-0.043796606
-0.041278206
-0.042598277
-0.073152445
-0.056069672
-0.09233877
0.01118056
0.089990586
-0.006683636
-0.36331785
0.036711834
-0.00021271307
0.14646567
0.018494891
-0.1070806
-0.043834418
0.17795353
0.12822786
0.047885146
-0.24754472
-0.1253873
0.15953697
0.16907603
-0.0020280764
0.025718523
-0.21321583
-0.023011269
0.10585456
-0.010584161
0.12831199
-0.08382878
0.030594205
-0.09849604
-0.1873842
-0.04843869
-0.13786411
-0.009597099
-0.0128150135
-0.060834315
0.22433549
0.21763721
-0.012951209
0.16297713
-0.039144438
0.13560092
-0.09258132
0.073653124
-0.048455827
-0.1483022
-0.12192266
-0.08112067
0.22414666
-0.26773974
-0.12408667
-0.047214814
-0.11366655
0.052702036
-0.12209535
0.017025562
0.05643263
-0.31823894
0.037836313
0.093609944
-0.13160329
-0.120609246
0.01574269
0.047407135
-0.024836358
-0.14880966
0.22787876
0.10955864
0.03407883
0.067257546
-0.10778466
0.15730017
-0.15000984
-0.3241025
0.056445107
0.098950244
-0.2267259
0.18498886
-0.21158177
-0.27919394
-0.06810398
-0.029283645
-0.012761442
0.003696117
-0.17400491
-0.031917494
0.10272407
-0.18783286
-0.08397225
0.0275924
-0.13068977
0.027172826
-0.20508544
-0.07020236
-0.17435907
-0.026216837
-0.005678386
0.062053118
-0.098271854
-0.25113407
0.10942695
-0.11364713
0.16867526
-0.025963066
-0.1293557
-0.20454901
0.030213017
-0.16486101
0.15511568
-0.075423285
-0.00788146
0.021398963
0.21946041
0.11306696
0.021169271
0.15252468
-0.12907667
-0.18132831
-0.014298725
-0.1855412
0.20004778
-0.25772172
0.08598685
-0.05466239
0.12991853
-0.1590124
0.013521469
0.035626132
-0.05286913
0.013090651
-0.2544839
-0.12252805
-0.13195814
-0.06624394
-0.21782126
0.12745501
-0.0809465
0.07531361
0.08502691
-0.23302028
0.04509315
-0.0006711266
0.09843234
0.052459892
0.06369523
-0.030051023
0.14827499
-0.1058856
0.11776402
0.10950938
-0.07194626
-0.31585824
-0.082650125
0.07525788
0.28158692
-0.17734692
0.10864202
-0.15970817
-0.2441297
-0.09532555
-0.16548148
0.02233402
-0.074268185
0.2113989
0.1520917
0.27768168
-0.091763586
-0.14580733
-0.19165157
0.021056913
-0.0013823519
-0.19753234
-0.12194039
-0.10426322
-0.098113924
0.13013773
0.09770455
0.024501786
-0.15849656
0.010543557
0.16671056
0.13617077
0.050160266
-0.27270845
-0.031912837
0.20992021
-0.07994813
0.13449247
0.1501368
0.028620271
-0.06722565
0.047970813
-0.06794976
0.022770418
0.13529848
0.11845048
0.068136774
0.087060496
-0.058314756
-0.10151624
0.03319863
0.2263242
0.19447462
-0.24044752
-0.014021799
0.27487853
0.08995542
0.16348025
0.028843204
0.06001848
-0.13565591
0.08187285
-0.0072540524
-0.009729086
0.10939154
0.112281285
0.008465118
0.04124757
0.06778982
0.006622603
0.099838465
0.081915274
-0.11658951
0.08990408
-0.017978497
-0.06438841
-0.053535048
-0.087159306
0.1444262
-0.028940493
-0.06676015
-0.11048356
0.05105693
-0.04080102
-0.15191434
0.02460207
0.13370167
0.15061255
-0.021387503
-0.04503933
0.14349642
0.04646408
0.16846873
-0.051652703
0.23640135
0.08084328
-0.012129718
-0.14810178
0.009449032
0.003518559
-0.30021662
0.01516039
-0.06050976
-0.232328
-0.19385454
-0.020890037
0.09177753
-0.055984106
0.07570551
0.117587596
-0.21960029
0.080083646
0.085185766
0.034254845
0.0012832737
0.3015873
0.103677504
-0.005663965
0.03867815
-0.32145673
0.2177533
-0.06588739
0.12702267
0.06406938
0.3135055
-0.14682277
0.21101858
-0.07894412
-0.16861126
-0.11643354
0.10338384
0.017099416
0.032019183
-0.030971
0.11714434
0.07471351
0.089617215
-0.20003527
-0.058526177
0.15685594
0.109350935
-0.014865446
0.030115807
0.36758453
0.011548151
0.18636931
-0.035714425
0.095866784
-0.011479208
-0.039165743
-0.021622032
-0.4589708
-0.08732892
0.057441022
0.06315914
-0.17999302
-0.12284419
-0.04632963
-0.050489377
0.10508227
0.18405177
-0.28807244
0.028012574
0.07852882
-0.1427545
-0.010749019
0.011224773
-0.020384522
-0.12037951
-0.13520207
0.07547157
0.0036731192
0.2522501
2.5281872e-05
0.02716324
0.09443874
-0.035054673
0.27360824
0.011133837
-0.2006167
-0.20482443
0.08741159
-0.0734164
0.13034134
-0.23644592
-0.00037965985
0.12360234
0.14511962
-0.074108414
-0.17331892
-0.41489708
-0.09861837
-0.09641147
-0.09541637
-0.0365639
-0.02032821
0.009859629
-0.014509592
-0.2181496
0.0004772112
-0.22462203
0.13406885
-0.0012901805
0.047769733
-0.0047551813
-0.07714917
0.1522099
-0.26996255
-0.025165359
0.104460835
-0.18404858
0.023831805
-0.35633805
-0.100212246
0.061535303
0.07094928
0.008670003
-0.053649068
-0.080033265
-0.23763227
-0.12544811
-0.12413259
0.023682535
0.156003
-0.006905729
-0.07445805
-0.008401654
-0.17418855
0.063890666
-0.3274855
0.03931433
0.05217987
-0.08484158
-0.07055278
0.10220065
-0.005474018
-0.2649189
0.10254086
-0.13010533
-0.18321085
0.009045004
0.09825131
-0.07587596
0.120883845
-0.023567505
-0.115508184
-0.11332583
0.12674855
0.14299142
0.16947477
0.03928681
0.053939957
0.043447897
0.09679468
0.16589491
0.092773646
-0.07001833
0.06159877
0.033440925
0.109649904
0.25419447
-0.129495
0.024485793
0.034163438
-0.35079607
-0.12397646
-0.093860015
-0.038730636
-0.05876644
0.12981713
0.087261625
-0.01759385
0.027496193
0.10938742
-0.008850392
0.19558977
-0.10424596
0.14242016
-0.2762461
0.029938199
-0.22767045
-0.28665042
0.13073893
-0.31648692
0.17353128
0.010643964
-0.07230152
0.04414696
-0.0684933
0.04941405
-0.09399346
0.021460196
0.12054319
0.057710435
-0.04464302
-0.19674592
-0.019243289
-0.018414933
0.018317815
-0.22287416
-0.0559107
-0.25808713
-0.035856076
-0.06762931
-0.12933247
0.04351884
0.05947899
-0.24994563
0.044162493
-0.12532738
0.04655462
-0.24282666
-0.115993276
-0.10699372
0.0059239864
-0.02180897
-0.07625501
-0.12856835
0.050611533
0.07289933
0.071136534
0.119802065
-0.06844221
0.0726901
-0.009642972
-0.066899315
-0.06910759
-0.13929637
-0.051088266
0.052201096
-0.23649432
-0.077573866
-0.14578228
-0.013585688
-0.08003429
0.06033729
0.018642632
-0.1354907
0.019955998
-0.24149926
-0.03316137
-0.010527737
0.11945168
0.053681783
0.04254456
-0.043894917
0.05227121
-0.21206972
-0.17320114
0.106002465
0.028812328
-0.11198658
0.05927195
-0.025306605
0.04525649
-0.22521079
0.05878918
-0.00093267614
0.14675482
-0.21928085
-0.003304066
0.001233894
-0.18897435
0.04560345
-0.05024288
-0.12605624
-0.0545124
-0.03864726
-0.18394609
-0.068989724
-0.20529084
-0.282547
0.028074777
-0.20652986
0.07074126
0.03528199
0.042713873
0.12292751
-0.028162787
-0.03986026
-0.1387274
-0.2791361
0.07092327
0.21281089
0.12486576
-0.22802712
-0.2916381
-0.04774909
-0.07907658
-0.1342368
-0.19652896
-0.069615245
-0.04594461
-0.08349869
-0.18823065
-0.024538882
-0.15920982
-0.097106144
0.081757754
-0.19246691
-0.11306563
-0.08464559
-0.17169066
0.009326386
-0.020844372
-0.16693908
0.07092958
-0.018341195
-0.076613665
-0.14600332
-0.10951891
0.004890804
-0.29142073
-0.028647345
0.020001907
-0.08917043
-0.039168775
-0.043063372
0.047449894
0.0008101172
-0.27836236
0.14081728
-0.00030253493
0.068325296
0.06052086
-0.083336964
-0.16230927
-0.107433826
-0.49235687
0.13071977
-0.14809291
-0.5316402
0.012906786
0.026476642
0.072943695
-0.080476254
-0.08409805
0.1183196
-0.116844006
0.09548867
-0.0942191
-0.0451682
-0.012681163
-0.17450386
-0.014481247
-0.17447878
-0.08141036
-0.18423744
0.14967345
0.035409704
-0.055350203
0.067374565
-0.4068647
0.05120264
0.0977246
-0.048029356
0.12506801
-0.112555206
-0.03303386
0.058133956
-0.10344431
0.035890464
-0.0026887273
0.15286
0.11346819
-0.070069194
0.09058013
0.082512595
-0.040072035
-0.0005565838
-0.3686073
-0.19437492
-0.0576571
-0.107144356
0.05697434
0.020247454
-0.0006511543
0.06975399
-0.055294067
-0.14734954
0.010989162
-0.14123888
-0.14262107
0.043111116
-0.06633848
-0.008031855
-0.051113736
0.029582506
-0.002560214
-0.0050644292
0.006764721
-0.15589017
0.12157878
0.09293762
0.050641596
0.09366943
0.05623028
-0.14591394
0.13259353
-0.0649637
0.0785156
0.046930443
-0.0030768523
-0.06797727
-0.090253256
0.03239893
-0.21727407
-0.09228261
0.0720458
-0.00026938497
-0.12871008
-0.20954661
-0.2764752
-0.011714863
-0.07143608
0.09599445
0.15766189
0.057416316
-0.014923976
-0.19255485
-0.31543216
0.18966992
0.044067748
-0.101669766
-0.12223162
0.035528753
0.050327357
-0.016853329
0.066334076
0.066167645
0.12605701
-0.16179226
0.20346935
0.0099116815
0.09520977
-0.035750303
-0.22535548
0.07636543
0.18946756
-0.23113747
0.012614179
-0.04806345
-0.2090435
-0.009253987
-0.04020773
-0.037365768
0.15421028
-0.12558615
0.20369129
0.08939774
-0.17648996
0.025237877
-0.16956155
-0.20512146
-0.032187216
-0.041673344
0.035902906
0.049030773
0.04744292
-0.046213042
-0.13944435
-0.335968
0.12431337
-0.09585868
-0.072744675
-0.046183843
0.20755506
-0.2542331
-0.06721602
0.03820938
0.27174336
-0.17942438
-0.1345989
-0.21210365
-0.037252754
-0.012939509
-0.015684921
0.031362027
-0.05491581
-0.07770222
0.09318852
-0.053542532
0.04209217
-0.2182855
-0.092473954
-0.19030367
0.020325797
0.0339452
0.057782743
-0.00065277005
-0.009396002
0.26939124
0.04144864
0.071872935
0.08208239
-0.09040749
0.02796949
-0.16072345
0.0644699
-0.21395391
0.014493858
0.012267983
-0.048470512
-0.14888254
0.018273586
0.016391272
-0.12906796
0.082179144
-0.034247894
-0.41860613
-0.04442143
0.18600641
0.2117643
0.09999058
-0.1465226
-0.089174286
0.18268299
-0.057593536
-0.16302212
-0.03671986
0.13211223
-0.13070107
0.10558067
-0.03534269
0.0815923
-0.085498355
0.0772062
-0.45134884
0.011913936
-0.07678349
-0.2409066
0.033741657
-0.09669513
-0.26850554
0.0828592
0.09495851
-0.14467818
0.11866565
0.09997048
-0.06908246
-0.09421471
-0.15744792
-0.19941473
-0.045125395
0.14086922
-0.07346004
-0.10776226
-0.23237681
-0.039908852
0.17123082
-0.089714654
0.08188663
-0.20560093
-0.024451815
-0.08572559
-0.33370697
-0.020320963
-0.13915789
0.052863415
-0.09780719
0.2231925
-0.03416488
-0.0789714
0.09438105
-0.05743034
-0.055220693
-0.13797604
-0.069940165
-0.17814875
-0.0007900946
-0.055259395
-0.20226154
-0.055305995
-0.08119055
-0.015564087
0.0005066671
-0.22800958
-0.037162334
-0.13993056
-0.1809671
-0.14497785
-0.15844639
-0.06803679
-0.10498709
0.10583466
-0.23560716
0.1584553
0.22837792
-0.42583805
0.009035208
0.05321542
-0.018393094
0.07845083
0.057338867
0.17789087
-0.0020323596
-0.13695362
-0.14837815
0.048821155
-0.008661174
-0.14685737
0.17501497
-0.13369936
0.1299911
-0.16779166
-0.33719087
-0.11765877
0.033701263
-0.0009678737
-0.06277583
-0.20296828
0.06285427
-0.1373595
0.14579332
-0.07042802
-0.040026803
0.04558912
-0.09861634
-0.018879158
-0.17903958
0.123020075
0.018995002
0.044563364
-0.04200035
0.05722363
0.095674075
0.08832382
-0.08886795
0.01984846
0.0138376895
0.02981348
-0.15926866
-0.00080902624
-0.1707753
-0.046255413
-0.19302624
-0.12110422
-0.13591714
0.16935144
-0.12543668
-0.033823956
-0.117203526
0.13967672
-0.083632305
0.112189256
-0.03410972
-0.11813089
0.0042639924
0.015402578
-0.1182544
-0.08690177
-0.030429583
-0.063705966
0.16658612
-0.12407039
-0.15057503
0.1579834
-0.20198786
-0.031701565
-0.117220074
0.03050946
-0.021256033
-0.010886086
0.06041942
-0.14079656
-0.26971486
0.3651159
0.06295775
0.03752231
-0.22172715
0.0033694156
0.17271015
0.02064978
-0.075355634
-0.06198083
-0.01211361
-0.24187188
-0.27640086
-0.15965119
0.1899271
0.09840888
-0.116242245
0.12346697
-0.043372706
0.014830064
-0.1428291
-0.20373975
0.09625035
-0.1731839
-0.009289719
-0.013791497
0.16321713
0.034021646
-0.12080455
-0.07835516
0.16489054
0.09633346
-0.0089133475
0.008082612
-0.007775061
-0.13807856
-0.15596741
0.021114312
0.19714703
-0.1979691
0.14768162
0.029357707
-0.24029431
-0.11538051
0.0013048926
0.1351897
-0.17360796
-0.054613072
-0.03498834
0.08496034
0.08406127
0.06916983
0.06915578
0.14834699
-0.0015398385
0.07802705
-0.11457986
-0.035855982
-0.1642237
-0.16213055
0.019073013
0.2288963
0.0063120243
0.13228518
0.02187574
0.0053325747
0.19283389
0.03616263
0.13559407
-0.0509903
-0.06175974
-0.07687396
-0.0626481
-0.16017854
0.06025047
-0.1526521
0.010672544
-0.15745868
0.16594672
-0.11566649
-0.006597127
-0.034148622
0.03607469
-0.07056145
0.044014115
-0.12487401
0.030479018
-0.14493649
-0.09843222
0.0067156255
-0.23368865
-0.010844028
0.021487866
0.009285043
-0.20743205
-0.028543044
0.17851008
0.17149559
-0.0001441912
0.063369244
-0.17541835
0.047697917
-0.166479
0.086123005
-0.18413676
0.05547052
-0.07992273
0.06456273
-0.040577482
0.12181516
0.014466275
-0.09345735
0.095431
-0.027187409
-0.030848872
-0.33634996
0.15535884
0.04390418
-0.1109144
0.0094196955
0.0799476
0.12439308
-0.0039162342
0.19674104
0.029703936
-0.20258231
0.035536177
0.15143682
0.07112997
0.26827165
0.2337745
0.072727695
-0.034760382
-0.04563718
0.017272191
0.1899231
-0.031076686
-0.115122266
-0.10265953
0.027619
-0.0007358382
0.011055131
-0.09671912
-0.25518373
-0.038303364
-0.10791747
-0.27446938
0.0629462
-0.052872363
-0.16050817
0.04079002
0.07827953
0.09576543
0.079134375
0.010174648
-0.12826532
-0.00784928
-0.04699851
0.105673514
0.2251253
0.0042507728
0.11763417
0.08663014
-0.052797534
0.019635295
-0.20409176
0.04136826
-0.1521887
0.15815604
-0.002010168
0.23487201
-0.2342292
0.037539598
-0.09419466
-0.059939697
0.07941524
-0.19014826
-0.019781357
0.05703175
-0.35020688
-0.33200786
-0.03536452
-0.22109295
-0.13666974
-0.16676573
0.08557401
-0.071667366
-0.045027222
-0.24039252
-0.04968118
-0.10149582
0.03468707
-0.014526602
-0.13489217
0.047104765
-0.047517158
-0.20625785
0.05815644
-0.024560118
-0.061084934
0.01084166
0.056607965
-0.09031137
0.20873871
0.103348896
-0.16638856
0.06201318
-0.12744087
-0.029473279
-0.08062422
0.062578194
0.138903
0.053496785
0.03271521
0.06476313
0.14914042
0.10832179
0.021347228
0.042681757
0.012525053
-0.069190644
0.11596428
-0.028473359
-0.1204255
0.04235329
-0.02103311
-0.23254554
-0.071803994
0.0070616747
0.0069848173
0.03203267
-0.03580314
-0.016355822
-0.036112726
0.018105263
0.13216844
-0.06051983
-0.032793723
-0.049117625
0.08255252
-0.091159105
0.03975336
0.098426834
0.100065425
0.057724766
0.09581109
-0.10700229
-0.09414866
-0.05585101
-0.115026034
-0.2514804
-0.041811805
-0.16869746
0.17515282
-0.018474275
-0.11189743
-0.2541885
0.115698814
0.09220545
-0.044109944
-0.16917305
0.14382361
0.0649377
0.19519109
0.040815506
0.01529881
0.034913935
-0.17252524
-0.01645725
0.30982766
-0.012857357
0.0046218815
-0.16641016
0.16637896
-0.027893575
-0.049770948
0.049794115
-0.11929776
0.064495094
0.10370954
0.09924155
-0.10744216
0.039384067
-0.06947891
-0.09236342
-0.09663926
0.18933208
0.08870547
-0.012813383
0.03745909
-0.04930387
0.030068122
-0.2056279
-0.05221287
0.1417829
0.14930743
0.08530224
0.016265545
0.10896083
-0.15895078
-0.20407014
0.0062855636
0.060660902
0.028589386
-0.14182562
-0.030192478
0.14085758
-0.15009493
0.25975654
0.29296196
-0.26388517
-0.041164037
0.068596914
-0.07850082
0.022626892
-0.18188672
0.050934203
0.11627875
0.007886901
-0.066222906
-0.018744659
-0.5476382
-0.06886697
-0.19706474
-0.112410046
0.018883055
-0.12258671
-0.1537401
-0.044231974
-0.009640836
0.041588575
-0.15642367
0.05419828
-0.034390744
-0.047698617
-0.042223956
-0.22945446
0.058692254
-0.3094055
0.22891444
0.11013863
-0.18411927
0.018688591
-0.18574883
-0.03952366
-0.027254635
-0.048225723
0.0047435686
0.049391136
0.027432626
-0.16633849
-0.15086229
-0.09000238
0.16769831
0.17228185
0.043606307
-0.017551098
0.09088472
-0.032488886
0.13220188
-0.26353037
0.1880251
0.16422257
0.13998905
0.025775477
0.052138813
0.06991608
-0.13338822
0.18136567
-0.028197503
-0.026038023
-0.09103037
0.10225613
-0.045107502
0.11312072
0.10887854
0.041703124
-0.1395934
0.18026416
0.13095261
0.039390158
-0.055374794
-0.07811655
-0.14776298
0.031957548
0.11079111
-0.01648348
-0.028448766
0.30214635
0.11762672
0.08798353
0.07152784
0.005883697
-0.027890343
-0.05543604
-0.19973044
0.03763631
0.041045215
-0.04203198
0.052886274
-0.18461473
-0.022924654
0.007854623
0.06797406
-0.056773327
-0.1444221
0.044596367
-0.006325208
0.14540192
0.0057281386
-0.050341412
-0.1446603
-0.28865463
0.02344767
-0.3388002
-0.018168569
-0.038564168
-0.20965111
0.07711837
-0.018712947
-0.070409246
-0.1363233
-0.08671093
-0.06999769
0.010917209
0.18775232
-0.034821946
-0.059804227
0.1463508
0.012357188
-0.013736006
0.093814075
-0.09231588
-0.027404608
0.069435425
0.025418429
-0.031878874
-0.013158099
-0.13351111
0.034786724
0.031183895
-0.012620143
0.10360672
-0.008910684
0.03181305
0.20176467
0.015853383
0.09193509
-0.11708568
-0.033556715
0.0996936
-0.026157659
0.0055633713
0.011307852
-0.008369047
0.06732324
-0.02715163
-0.048774406
-0.17950879
-0.006300788
0.05999183
-0.008925037
0.016485302
-0.025780296
-0.06979878
0.05893667
0.055346396
-0.102124
-0.040822566
-0.0034545732
-0.09743144
-0.0015492453
0.021698311
0.005249627
0.00295721
0.0324494
0.012340469
-0.021835877
0.039072953
-0.016905844
-0.09321867
-0.015861137
0.08134872
-0.0132774245
-0.10574614
0.09360315
-0.045891874
0.06289752
0.07710665
0.03050004
0.08103253
0.056537285
-0.034324843
0.0016338673
0.08942923
0.020783104
-0.038182948
-0.025123604
0.09771353
-0.06882156
-0.017207233
-0.02138175
0.038073905
0.050105143
0.05223123
0.031233968
-0.009767765
0.013068456
-0.06410706
0.065563
-0.04508216
-0.033567026
-0.092942275
0.032158226
0.016902322
-0.0025753248
0.094589695
0.110565595
0.041655764
0.070735395
-0.051678978
-0.13218161
0.004395565
-0.09685198
-0.078362755
-0.012385817
0.059517898
0.045119792
-0.031356916
0.05062812
0.031372182
-0.07206196
0.04776701
0.0006550214
0.06452369
-0.060535334
-0.01685283
-0.044518225
-0.0013374117
0.06421275
-0.09985365
0.004707006
-0.07234122
-0.0007912286
-0.035388056
0.09907474
-0.06702631
-0.040412147
0.013145332
0.0092280675
0.097997
-0.05977298
0.07479717
-0.03130967
-0.22646737
-0.08904124
-0.16235742
-0.077539064
-0.14478584
-0.20954347
0.046567913
-0.2268641
-0.07330634
-0.0035380505
0.064547315
-0.19405364
0.10857077
-0.012345321
0.037304293
-0.15683821
-0.08968145
0.11478297
0.11065873
0.08164146
-0.3384036
0.1256382
-0.0022592777
-0.094702214
-0.047795694
0.042853095
0.09725853
-0.06775571
-0.29024923
-0.09085256
0.019161751
0.083904974
0.09861645
0.053484645
-0.023305219
-0.03973048
-0.07760806
-0.06341356
0.2579718
-0.17793891
-0.06481352
-0.14749119
-0.1357247
0.08414245
-0.04746132
0.26703042
0.031587668
-0.040354703
0.05312187
-0.022396995
0.018028086
-0.42503256
-0.31509185
-0.010055739
0.14854725
0.16110747
0.22789475
-0.10809488
-0.15850388
-0.3089176
0.12532417
0.051617403
0.0036973357
-0.19913338
0.0098665925
0.06555328
0.022012526
-0.086405374
-0.0901897
-0.4463067
-0.05540809
-0.19322078
0.018463703
0.08591455
0.024624208
0.051905707
-0.17880295
-0.19996531
0.014934606
0.06710254
-0.046039112
0.07105976
-0.0055706375
-0.21083556
-0.035161544
-0.02069083
-0.07903514
-0.039201684
-0.14081475
0.02934055
-0.07757427
-0.081572026
-0.19426808
0.19977015
-0.11792609
-0.022526845
0.10869494
0.03463654
0.29149204
-0.23020802
-0.13223347
0.16858715
0.044492748
-0.18051352
0.061539467
0.16762722
0.026917385
-0.03343767
-0.47030345
0.18791808
-0.16335109
0.107058115
-0.27920422
-0.05760634
-0.07817347
-0.16335943
0.045305874
-0.01916066
-0.033551913
-0.08526595
-0.020548604
0.007760059
0.04779184
0.09774753
0.026137419
-0.17009388
0.028713051
-0.039505966
0.11163929
-0.19810039
-0.09810138
0.06660897
-0.09505456
-0.023664491
0.11082325
0.02349897
0.01972902
-0.07611887
0.030840687
0.28254247
-0.15188943
-0.00039036904
-0.14487098
-0.034367125
0.06896619
0.0580322
-0.069260545
-0.006110794
0.044587903
-0.123801224
-0.15704083
-0.22799833
-0.13872346
0.006252645
0.110900946
0.11660274
0.07876674
-0.19233271
-0.019811898
-0.069623366
0.1585145
0.0022237366
0.07761127
0.026512472
-0.099077225
0.08162987
0.04561127
0.16427088
-0.11409456
0.06990434
0.007891554
0.06418044
-0.04958257
-0.04303947
-0.080849186
0.11547943
-0.006159902
0.016364582
-0.06409433
0.14464028
-0.028884223
-0.27562985
0.11345737
0.13833201
-0.02846982
-0.109747924
0.08245445
0.20284158
-0.04324744
0.013210103
-0.08296429
0.16999161
0.055379495
0.020439805
-0.03989766
0.11572738
0.042617805
-0.15574871
-0.037917875
0.1957918
0.06414765
-0.035407633
-0.017008986
0.04891967
-0.070175365
0.03239872
0.029631747
0.089132436
0.09721595
0.06031258
0.06447269
-0.12626538
0.01633467
0.1044374
0.054137442
0.06935748
0.04634634
0.017383078
-0.007965078
0.035694998
0.116341114
0.15084642
0.064460665
-0.044692744
0.007817227
-0.084596716
0.2752272
0.011747688
-0.23274927
0.059911244
-0.05198361
-0.0036175335
0.18431099
-0.025954131
0.03962003
-0.09298808
0.28215048
-0.12559232
-0.015014723
-0.024583593
0.04521112
-0.06319456
0.033547327
-0.0067582713
-0.12866049
-0.010386404
-0.060188856
-0.19071044
0.17228985
-0.09463993
-0.005708298
-0.009350136
-0.12825127
0.1611723
-0.07551673
0.051584326
-0.001234801
0.12933494
-0.07731638
-0.027101493
0.06913132
0.08846465
0.08755959
-0.08977822
0.12001071
-0.22436336
-0.0402226
0.13170998
-0.27545854
0.13396317
-0.40236494
0.16749246
0.048251867
-0.12728918
-0.010010959
0.094959185
0.1224414
-0.10073628
0.1775381
0.076086886
0.072288506
0.010741702
-0.2585115
0.03289906
-0.10929891
-0.18744393
-0.029089274
-0.14714585
0.030710112
-0.094194256
0.14017588
-0.06896153
-0.038837474
0.11157133
-0.10152378
-0.19536626
-0.31634045
-0.031570412
0.035059154
0.085212484
0.08160047
-0.21216235
0.012781259
0.0651087
-0.012043128
0.018715896
-0.016449215
0.089983106
0.23472002
-0.051596485
-0.1837516
0.1411955
-0.124068245
0.12112716
0.10297019
0.07418803
-0.0986963
0.009759799
0.16736312
0.20937927
0.15795748
0.054077346
-0.026245017
-0.0025272781
-0.011956036
-0.033464026
-0.03611901
-0.23456734
-0.1225932
-0.09299586
-0.030346127
0.043489512
-0.09169053
-0.041043002
-0.2328588
0.05580892
0.027177215
0.06578348
0.039839685
-0.06441827
-0.25453326
-0.068361744
-0.09457758
0.12463698
-0.04939835
0.042913284
0.022871254
0.2386034
0.002452852
0.062301427
-0.043443765
0.08754936
0.0063012503
-0.07826865
-0.25678253
-0.37063527
0.00040073483
0.12704735
0.010220124
0.1590335
0.02132168
0.14873616
-0.09957139
-0.033273455
0.076612145
-0.2149176
-0.22201689
-0.005226548
-0.05220654
-0.03881706
0.13037363
0.31431073
-0.15061997
0.028387157
-0.05638491
-0.23681782
0.15483065
0.11108928
0.05496862
0.14288828
-0.12931445
-0.015273988
-0.048057854
-0.022114163
0.22485505
-0.25240627
0.18806827
-0.020938717
0.0538995
0.15002365
-0.12921818
0.10042111
0.0319293
-0.23496066
-0.04264606
-0.08915956
0.04035908
-0.0853026
-0.104187846
-0.16966258
0.047702335
-0.10768751
-0.102888666
-0.009024538
0.094428204
-0.19760439
-0.010353342
-0.08193294
-0.045404397
-0.061399855
-0.23095436
-0.05759007
0.11095593
0.10095417
-0.058654264
-0.2536184
-0.21017681
-0.18119359
0.10470186
-0.036674358
0.14753163
-0.10901473
-0.090595074
0.039126303
0.0053747334
-0.10152498
-0.17408004
0.044725005
-0.17108855
0.025991812
-0.30053797
0.1108249
0.22060183
-0.03449762
0.013108814
0.14848164
0.03433568
0.018357072
-0.026535897
0.07217419
0.1242477
-0.0130774025
-0.087571844
-0.031211615
-0.09816093
-0.11810249
-0.14985251
-0.0823294
-0.28984556
-0.19716007
-0.07012087
-0.080068335
0.06477471
-0.3247457
0.026054064
-0.21616611
-0.2159613
-0.15835603
0.14641978
-0.08661271
-0.026802382
0.14612074
-0.32102823
-0.0879788
-0.1990084
0.042619947
0.09782965
-0.055505794
0.062109523
0.06189389
-0.19663264
0.10671184
0.109380774
-0.04547587
-0.1871023
-0.07543114
-0.25744095
0.004735184
0.035410322
-0.27649233
0.15010966
-0.061890032
-0.35665646
-0.20426646
0.17833741
-0.06498832
0.038714003
0.076794066
-0.0935835
0.14284666
0.015061125
0.12734435
0.13016106
-0.020259043
0.013960471
-0.17745537
0.08389787
-0.084007844
0.029940506
0.019490723
0.03271931
-0.0338149
0.033678148
0.018672269
0.0872842
0.051018
-0.121907145
-0.055168837
0.087173715
-0.04636553
0.0043387865
0.009702693
0.046849184
-0.13164438
0.334708
-0.042025175
-0.10189959
0.114162214
0.11740414
0.0127367135
0.11334226
-0.13329464
-0.18615396
0.01609613
0.32148823
0.0125092
-0.15531689
-0.070503704
0.13574994
-0.16010092
-0.07319029
-0.09777629
0.035860926
-0.07868183
-0.04918868
0.1712858
0.04475588
-0.26026988
-0.26202062
0.034354027
0.207624
0.28885266
-0.048274487
0.18562934
-0.0041669984
-0.18944484
0.1609107
0.14736527
-0.05698783
0.10398999
-0.07451877
0.13297088
-0.17092676
-0.020711148
-0.1576924
0.10809456
-0.14607535
-0.27652597
-0.08436737
0.094534375
0.4545936
-0.012250602
-0.06507776
0.10663982
0.16070068
-0.023255404
0.03761545
-0.036602672
0.31085518
-0.0542837
-0.13432477
0.02585183
0.11823153
-0.14677346
-0.035087533
0.08330747
-0.17733692
-0.032783214
-0.10011172
-0.04429701
0.045357857
-0.12455217
-0.20472416
-0.06927737
-0.21298596
0.29546455
0.17518966
-0.0073731556
0.1521341
-0.015711587
-0.008603909
-0.055760592
-0.13888694
0.10968547
0.22617778
0.21395026
0.14903675
0.017481374
-0.31200716
-0.07224253
-0.04032842
-0.39824122
-0.0035402633
-0.13873053
-0.05484437
0.03643317
-0.10348207
-0.051311653
0.17033643
0.07046797
-0.2201021
-0.12710309
0.13777548
-0.18326943
0.08304407
0.1598797
0.2555034
0.06820102
0.08883557
0.27385864
0.048468288
-0.10988317
-0.10957861
-0.20782499
-0.13091908
0.004777503
0.2770745
0.17791526
-0.0068973373
-0.036123686
0.015190939
-0.08300493
0.000899682
-0.0057733497
-0.19035089
-0.07936659
0.08257441
0.10007736
-0.088201776
-0.110813335
0.012794952
0.031109843
-0.11054203
0.06402505
0.057318218
-0.06664051
-0.023538252
-0.012861369
0.09493905
5.9055114e-05
0.07161855
0.2678616
-0.027756643
0.045630265
-0.121035345
-0.03900274
-0.14870982
0.03437016
-0.12363138
0.16383938
-0.09862921
0.093959875
-0.08567709
0.03308748
0.24617207
0.07600688
0.036518317
-0.057244007
-0.10973118
-0.07604915
-0.09876351
0.12451232
-0.05244766
-0.13289794
-0.1538975
-0.026086304
0.1572182
0.011762648
0.008885642
-0.18911374
-0.015909683
-0.03743772
0.08831425
0.059028108
0.15964527
-0.00639683
-0.16702579
-0.10615301
-0.26187915
0.01037292
-0.0006335483
0.011907118
0.021150893
-0.101670325
0.16628256
0.092542246
0.03473017
0.13757028
-0.12681365
0.12442463
-0.09555118
0.12989675
-0.07561964
0.07872843
-0.03475769
0.015881639
-0.03677958
0.18913688
0.02043015
0.13475282
0.010663914
0.048608314
0.07550576
-0.17887698
0.038712706
0.018635131
-0.059652764
-0.088987604
-0.008959181
0.14262645
0.06965581
0.013680064
-0.08713072
-0.09520482
-0.07432234
-0.045897715
0.1388993
0.10781826
0.053129427
0.1982221
0.22620296
-0.16594817
-0.018037973
0.0647931
-0.19244434
0.07343031
-0.077084854
0.063924775
0.13101766
-0.085589476
-0.10540418
0.053142473
-0.032240167
-0.13373166
-0.055295974
0.16827606
0.20414619
-0.21038583
0.030855164
0.0701923
-0.19105531
0.08613224
0.07116216
-0.2141618
-0.015104521
-0.099054426
-0.15439327
0.060694143
-0.029418983
-0.0844103
0.07848611
-0.0026992168
-0.2628565
0.052098315
-0.20379594
-0.04998603
0.03218415
0.120152034
0.007604811
-0.22245577
-0.07464313
-0.028249446
0.089179374
-0.019493265
-0.123519346
0.16810289
-0.12421569
-0.29071328
-0.17998897
0.14710574
-0.24100491
0.061058875
-0.12011724
-0.18230295
0.15548009
-0.09082066
-0.022040885
0.10037861
-0.058372602
-0.15985337
-0.026969673
-0.289308
-0.04477528
-0.10406841
-0.21572638
0.033584286
-0.14381032
-0.17991836
-0.0057022483
-0.46898952
0.34340534
-0.21001619
0.0053411266
0.058437258
-0.2029548
-0.14205748
0.17102787
-0.04343842
-0.24767838
-0.15232737
0.23625472
-0.013735641
-0.076719895
-0.16960153
0.33359253
0.120268546
-0.049378056
-0.05576165
-0.01583277
-0.028961293
-0.17350258
-0.025585763
-0.085665084
0.012048228
0.18126965
-0.0014783678
0.246627
0.14853159
0.01665827
-0.08111602
-0.05936502
0.20553046
0.13826779
0.13054627
0.055306457
0.097999394
-0.29533586
-0.09656398
0.09737984
-0.111519285
-0.008891285
-0.053055227
0.18519248
0.08895487
0.119599536
-0.03132252
0.13474211
-0.18766832
0.032606035
0.054900553
0.28127286
-0.13234684
0.07465288
0.06436276
0.1549125
0.17026274
-0.05128924
0.0011214432
0.2252296
0.07227176
0.2565955
-0.16008723
-0.011644072
-0.043886915
0.07398901
-0.37257022
0.1487232
-0.17684472
0.16387343
0.024053099
-0.16235022
0.082207225
-0.08517267
0.1720544
-0.049071793
-0.01518393
0.11200741
-0.3495558
0.06461503
0.04172906
0.010834648
-0.059283223
-0.02389661
-0.006866151
-0.34198266
0.08484122
-0.06725891
-0.4104056
0.117694356
-0.25055963
-0.06143614
-0.26123023
-0.14568408
-0.13625929
0.082601264
0.069782406
0.07194007
0.08911216
-0.19027969
0.0184552
0.057088982
-0.081283756
0.21708956
-0.08363518
-0.08021064
-0.02000178
0.022714878
0.16160393
-0.28419125
-0.008329208
-0.3073508
-0.059408475
0.14595482
-0.012655839
0.025093896
-0.06794574
0.026572226
0.046952065
-0.11828961
-0.07558591
0.0063330093
0.0951695
0.09812038
0.019919556
-0.04153377
-0.3436395
-0.009274204
-0.23286028
0.24110188
-0.0963084
-0.062117264
0.18204008
0.007509165
0.035449073
0.10938888
0.111880444
-0.2816454
-0.056320872
-0.08019091
0.043760106
0.010807168
-0.1277986
-0.10826906
0.041386813
0.14679554
-0.025654124
-0.014861379
0.15794562
0.18042025
-0.16143423
0.10534915
0.024091998
-0.10797928
0.059377056
0.13322785
0.08570217
-0.13676728
0.18436384
0.03801111
0.034218833
-0.061603215
-0.13518766
-0.023191605
-0.13357693
-0.21059142
-0.05948207
0.02298636
0.055841133
0.0033704937
-0.10262167
-0.10517227
-0.047359776
-0.07595157
0.015142032
-0.06005503
0.072802536
0.16209805
0.02917054
0.08999522
-0.22318019
-0.100454785
0.10594902
0.12849157
-0.056451913
-0.07296019
0.01644198
0.006030822
-0.017996509
0.07102516
0.1547764
-0.13107482
0.015768202
-0.025352499
0.07708465
-0.03097191
-0.13146544
-0.17109706
0.018305507
-0.1786607
0.24167167
0.20051575
0.034030043
-0.07373473
-0.18944478
-0.013361957
-0.1916954
-0.0009650654
-0.1122797
0.043860566
-0.028875554
0.16804525
-0.03419145
-0.08652012
-0.13848309
0.015354717
0.0099042235
0.21482079
-0.21940185
-0.113139704
-0.1525771
-0.1757267
0.02504431
-0.048352376
0.006214859
-0.395793
0.060903694
0.044658236
-0.08132157
-0.23907293
0.069099694
-0.18472566
-0.08851055
0.07635491
-0.011270324
-0.031738594
0.08536407
-0.08853119
-0.020065952
0.023868836
-0.07329345
-0.29874426
-0.1441539
-0.30193782
-0.022989986
0.019259572
-0.02152137
-0.03611886
-0.060453936
0.12994193
-0.090745896
0.2699479
-0.10737006
-0.0019737268
0.115315154
-0.053253163
-0.18211445
0.057656832
-0.1696873
0.060382508
-0.03800912
-0.11560669
-0.085400805
-0.07662003
-0.031970285
-0.11858471
0.015028241
0.035580747
-0.0060906233
-0.20026894
-0.022006817
-0.16798152
0.09375992
-0.026899427
-0.0072616925
0.020371038
0.18748514
-0.10487838
-0.057075776
0.2259198
-0.030422853
-0.07250438
-0.077669725
0.045196984
-0.043485247
-0.10518362
0.07982247
-0.10184197
0.23834847
-0.24148825
0.043498248
-0.024468983
-0.34468246
0.027089724
-0.16279487
-0.07847991
0.038648598
0.003233314
-0.35539153
-0.10644574
0.07917332
-0.20043324
0.13167202
-0.20583619
0.13326631
-0.0803764
0.11052332
0.0581731
0.103759415
0.008427377
-0.13033485
-0.16162063
0.17747757
0.10456811
0.08286383
-0.27797425
-0.14405316
0.04065921
0.06704255
0.07003704
-0.09213593
0.025806468
-0.18390943
-0.059833303
-0.12499893
0.27146626
0.08331997
0.07490767
-0.07034673
-0.12992254
-0.18013485
-0.19598462
-0.17992558
-0.049456783
-0.048748
-0.21466164
0.015974555
-0.0779279
-0.14422657
-0.07771202
-0.10687309
0.15144512
-0.041106764
0.004134592
0.0888358
-0.0022791633
-0.007909689
0.10765934
-0.025519215
0.13554876
-0.06852623
0.13139765
0.13352849
-0.0075920164
-0.12797195
-0.3620161
-0.091439605
-0.05881996
-0.073148586
-0.0072620315
-0.09174004
-0.074712686
0.044681225
-0.02379373
0.1107586
-0.29812574
-0.09722649
-0.3261163
-0.07580237
0.023035489
0.007982973
0.09599974
-0.059315603
-0.2916799
0.17334782
-0.083672285
-0.16266061
0.11583545
-0.08193654
-0.03666884
-0.04643987
0.11834526
-0.04500429
-0.062664606
-0.13243666
0.07070372
-0.121458784
-0.14796728
-0.05325808
0.04663829
-0.1315066
0.07886175
-0.047058422
0.13351594
-0.15529945
0.10753031
0.12997325
0.0511644
-0.02187507
0.10502817
0.0043469076
-0.18365918
-0.007238332
0.021020383
0.0048519988
-0.07195327
0.05413195
-0.08208866
0.05271877
-0.07744226
0.13274488
-0.037418235
-0.009926345
0.07173734
0.10500589
0.0033270605
0.059452232
0.10300799
0.20568417
-0.019203672
0.014678182
0.030216517
0.14988115
-0.050355203
-0.08919182
0.024394358
-0.107295655
0.06688677
0.14066888
0.17685911
-0.18532188
-0.027508479
-0.05329998
-0.013392595
0.056214806
-0.065950155
-0.047465906
-0.1518882
0.023572994
0.054994427
0.012300873
0.007841374
-0.02443274
0.12850703
0.09484591
-0.11039406
-0.1760329
0.11677242
0.015014362
-0.03058952
-0.014125637
0.071571484
-0.0259411
-0.14493549
-0.015414678
-0.23405488
-0.14236714
0.022260902
0.15044005
-0.030200513
-0.28265166
-0.17509702
-0.038479894
-0.08303109
0.07562229
-0.07009539
-0.11995899
-0.098016776
-0.14598496
-0.22637711
0.074813195
-0.0060033835
-0.12286643
0.10247984
-0.4341641
-0.052182745
0.09772855
-0.17675076
0.034916833
-0.022454256
0.032951917
-0.11974074
-0.24762307
0.041603964
-0.10784354
-0.09769869
0.048490137
-0.05486979
0.119915694
0.074327916
0.06823247
-0.04858952
0.074840344
0.10595977
0.14391647
0.03660149
0.28765965
-0.31540483
-0.09487164
-0.13991824
0.0690528
0.029132605
-0.01703522
0.16843797
0.047681186
0.18159449
-0.062056
0.0010706631
-0.06249169
0.05720804
0.07164487
-0.076450124
-0.056593392
-0.15193224
-0.0059192576
0.09943126
-0.18186474
-0.07217401
0.15215373
0.04392102
-0.24449284
-0.10032753
-0.05907645
-0.05053601
0.17135714
-0.1683754
0.07490083
-0.005161846
0.048463456
0.03913883
0.006859542
-0.03466584
0.13050461
0.031874936
-0.1254787
-0.09747041
-0.11499364
0.003700918
0.040684767
-0.06550774
0.116171904
-0.12938155
0.049990103
-0.12703402
0.22018409
-0.11501851
0.09861693
-0.014070738
-0.045188203
-0.026146939
0.12758361
0.012548032
0.12388204
-0.2163752
0.047142226
0.008044939
0.053668354
-0.13075389
-0.122257836
-0.3904582
0.18872193
-0.18845911
-0.035232544
-0.23296817
-0.06879529
0.036858145
-0.22689372
-0.2773104
0.12293157
0.09481594
0.19979486
-0.3403696
0.016201757
-0.029189203
0.06163849
0.0149846785
-0.07656702
0.18241568
0.106813
0.088095814
0.017405458
0.09245519
0.10197419
0.08820578
-0.14618345
-0.29761222
-0.10421058
0.16545296
-0.18178725
0.08219614
0.025911719
-0.028445065
-0.015181667
0.03593495
-0.027861448
-0.10857138
-0.12354057
0.1060358
0.019546505
-0.0099377725
0.060591463
0.05345463
0.11626299
-0.04820475
0.07495791
0.053092904
0.06680601
0.03380787
0.071444824
-0.022584792
-0.0647048
-0.21260202
-0.04548479
-0.078339584
-0.016782422
0.03118717
-0.039087977
-0.010228009
-0.21431372
-0.0891727
0.12890019
-0.2743749
-0.15546307
-0.1421609
0.021575475
-0.124026194
-0.028278606
0.07075592
0.07821118
-0.039519344
-0.0133001115
0.004151498
-0.22234435
-0.08772101
0.21171528
-0.07612525
0.14949568
0.018253997
-0.35797763
-0.0042762365
0.02812806
0.05373496
-0.003836105
0.23614457
-0.22631946
-0.095991015
-0.06869783
0.05048791
-0.29673675
0.15523939
-0.15858418
-0.0361188
0.054967828
0.024520064
-0.13469514
-0.0120552955
-0.029976556
-0.21624637
-0.055044144
-0.019120075
0.015252342
-0.052535627
-0.054419443
0.11009812
-0.069705606
-0.10305224
0.15940347
0.061923943
0.17823862
-0.050872587
-0.04177753
-0.15666416
-0.08908241
-0.053176872
-0.049951386
-0.07555092
0.03418508
-0.11498137
-0.064853735
-0.14939457
0.08582967
0.06858946
-0.015107269
-0.13829613
0.049501482
0.08074741
-0.09040389
-0.0012905927
0.023073547
-0.09468077
0.0430784
-0.055777546
-0.22071591
-0.1368272
0.06808817
0.06876491
0.13701226
-0.08278572
0.011387351
0.04457547
0.005308465
-0.0039416016
0.073129974
0.0017760477
0.049431086
0.043936122
-0.19585577
0.2080862
-0.05338723
-0.23234463
-0.058501076
-0.34316975
0.02522315
-0.030530656
0.024878362
0.04169869
-0.06921132
-0.13692705
0.061183356
-0.0021801721
0.017420432
0.058116812
-0.018909985
-0.06903516
-0.07368308
-0.06472121
-0.09329813
0.02051078
-0.06394972
-0.018837696
-0.17945804
0.04044872
-0.15730283
-0.26040986
-0.0039966097
0.032318544
-0.32692397
-0.025821052
-0.050552893
-0.19330263
-0.10207307
0.02342249
0.004801606
-0.07286165
0.040328804
0.02399433
-0.19871444
-0.04908617
0.12108433
-0.44163626
-0.1316226
-0.027734863
-0.07417352
0.062192947
-0.06973673
-0.03557521
0.10584096
-0.11208931
0.12477739
-0.15641508
-0.3660716
-0.002091119
-0.04143344
-0.1908023
0.0053760745
-0.117711864
-0.2081404
-0.06201523
-0.19630381
0.015390269
-0.1442171
-0.02093751
-0.08193843
-0.004931359
-0.13690254
0.046531107
0.070318684
-0.18567167
-0.03183501
0.26342747
0.07150968
0.08320736
-0.05209393
0.020664142
0.10473485
-0.112007365
-0.03579191
0.01949495
0.018320136
-0.2637091
-0.17303592
-0.08805292
0.10364075
0.019070439
-0.022794617
0.101676404
0.1282702
0.17038114
0.09266938
-0.18345484
0.16559248
0.0597205
0.01464671
0.005980493
-0.041266356
-0.13574608
-0.13307509
0.16172744
-0.05161674
0.09961731
-0.118036814
0.04905001
0.028299041
0.018941812
-0.0019913076
0.07312309
-0.078243226
0.025907544
0.09888677
0.10800211
-0.028563278
0.084115274
0.025344066
0.11811372
0.022839602
-0.021633934
0.049346533
0.20811583
0.011012093
0.12032364
-0.0022691744
-0.16964395
-0.016028378
-0.120104596
-0.06218264
0.034544166
0.061877556
-0.08490414
-0.02714157
-0.08202588
-0.07913721
0.027643764
0.07413666
0.05923956
-0.14763153
0.039902866
-0.11897785
0.05586791
-0.09772253
0.20144625
-0.22785953
-0.08409167
-0.06069348
-0.2575491
0.09071601
0.02677251
-0.3163115
0.046470653
-0.15719855
-0.012123604
-0.11648738
-0.2158616
-0.054304305
0.15024664
0.06717422
-0.16064271
-0.23711602
-0.15898778
0.019155381
0.14304976
0.08577004
0.035402477
0.17654757
0.16116026
0.002383714
-0.043738972
0.09820686
0.06578959
0.14854433
-0.27374673
-0.0070829084
0.24168174
-0.11382578
0.10026173
-0.098729774
0.080602095
-0.068766326
0.082107544
0.0077767004
0.11852047
0.0070132907
0.089554824
-0.011120764
-0.043228112
0.14195229
-0.03541156
0.01822876
0.06625654
-0.12603001
0.1573778
0.014797434
-0.019747851
0.07102833
-0.050271235
0.10534449
-0.043448884
-0.36694983
0.15843654
0.011849976
0.06269648
-0.31344908
0.08372219
0.004256151
0.022843065
-0.07201847
-0.027952936
0.05007629
0.07868154
0.441481
0.051343504
0.07176261
0.08002685
-0.06695422
-0.073879465
0.12257794
0.086452454
-0.31451353
0.0045074797
-0.16586691
-0.16710933
-0.06262199
-0.032439306
0.17538029
-0.043301903
0.16017796
0.04092014
-0.0140501335
0.08773666
-0.08598057
0.038596436
0.1277056
0.27234876
0.058735516
-0.0702396
-0.061903473
-0.26537442
0.14123693
0.15988655
0.1863202
0.039140787
0.21062975
-0.060829595
0.21937637
-0.040644974
-0.12521137
-0.010909304
0.095523976
0.053402197
0.005865087
-0.0070767347
0.16866748
0.08516281
0.1590027
-0.003063343
0.021370409
0.096707806
-0.013326817
-0.069521666
0.07166068
0.35629895
0.0017922156
0.18442844
-0.06485456
0.10823008
-0.20351839
-0.070558965
0.09432036
-0.42951894
-0.13069251
0.03966762
-0.0064302417
-0.13598515
0.103213854
-0.08202008
-0.23627517
0.15638815
0.07135618
-0.3145678
0.1079254
0.06492207
0.052167047
0.037474092
0.1379733
0.09253697
0.04514811
0.10414087
-0.08314564
0.028400421
-0.30088022
0.20837288
-0.22278805
-0.18579626
0.028575199
0.071561664
-0.15910801
0.057926655
-0.19808826
-0.11506989
-0.16577324
0.09235566
-0.05334087
-0.026050009
0.029391836
0.016540714
-0.052831136
0.005836538
0.13736872
-0.039667364
-0.027228901
0.12057391
-0.039497554
-0.023476288
-0.32953835
0.04057537
0.061570637
-0.10208482
0.14911845
-0.16091973
-0.07844806
0.06475732
-0.10937008
0.03576026
-0.18104054
0.03836021
0.0043048817
0.03552204
0.060177524
-0.03575865
-0.07145474
-0.07986279
-0.46815205
-0.1492368
0.048538007
-0.10369261
0.049720578
0.05990653
0.08504794
0.04535078
0.08971434
-0.021468837
0.054489337
0.04424088
-0.2473356
0.092312865
0.0004978031
0.15694883
-0.09957374
0.07606355
-0.06707737
0.028031036
0.01962373
0.0030286938
-0.07147596
-0.046682097
0.0192593
-0.00093890005
0.19053987
0.06293226
0.05906247
0.08897682
0.019541582
-0.03304302
0.038800944
-0.0038163255
-0.041387677
0.060101267
-0.15466258
-0.48693568
0.011543275
0.078831404
-0.00062940636
-0.19048621
-0.05269348
0.14617708
0.15753445
0.019315682
0.09727459
0.010627806
0.05758885
-0.13392541
0.055167925
0.1898173
0.008896063
-0.26629385
-0.039721288
0.02758311
-0.0046648122
0.019862182
-0.025892692
0.051545028
0.09095602
-0.27731556
-0.0034424362
0.025716783
-0.035835173
-0.03954377
-0.15310545
0.05643307
0.12167006
-0.09759069
-0.22421621
-0.06418725
0.028883124
0.010737466
-0.2624769
-0.011209693
0.18309066
-0.23406023
0.16988085
-0.15999348
-0.28077137
0.12627272
-0.122646555
0.0062744506
-0.1046647
-0.0056247655
-0.09789989
0.050358355
-0.0502704
0.077538304
-0.03914114
-0.12225666
-0.034090318
0.072179176
0.14678068
-0.21406054
0.0017982048
0.23376723
0.07504327
-0.06355613
-0.15543815
-0.05476026
-0.08699788
0.07874104
0.028056908
0.004917585
0.06540644
0.06609292
-0.04167924
0.09589152
0.09779474
-0.003213593
0.043751735
-0.05562671
-0.006922086
0.08038461
-0.073466964
-0.12415372
0.0096033905
0.052996237
0.13853338
0.105217956
-0.08935195
-0.099317685
0.0034838158
-0.09145758
-0.13846399
0.20709643
0.0056606964
0.083474986
0.007991435
0.028124424
0.03508123
0.0031352998
0.13182646
-0.12547278
-0.050744176
0.032927856
-0.101560265
-0.010023835
-0.024075903
0.18410116
-0.041041035
-0.043259706
-0.11656352
-0.09941665
-0.00874232
-0.00030038744
0.028507713
0.07751601
0.060518023
-0.019848572
-0.14464247
-0.15099263
-0.058743354
0.12202769
-0.032450404
0.16948068
-0.0011107983
0.07235169
0.10543561
-0.1365231
-0.027569717
-0.06535177
0.043754593
0.0623906
0.014954011
-0.19597192
0.26208016
0.008109642
0.14338624
-0.21411204
0.03852586
0.010160788
0.06836764
0.1364032
0.1227384
-0.044984996
0.009937067
0.08926239
0.0119178435
0.047855087
0.18582706
-0.10801578
-0.102385126
0.24371654
0.15838991
0.06557628
-0.11654187
-0.013875329
0.03262525
0.033024322
-0.003942656
-0.28452936
-0.117367156
0.04790493
0.09839444
-0.04347156
0.08552674
-0.0060742623
-0.04523531
0.09280467
0.014267548
-0.15124458
0.12237191
0.10350603
0.08874384
-0.10980097
0.1019145
-0.020923562
-0.30826202
0.078809604
-0.12145353
0.013834822
-0.024864137
-0.071349256
0.047357403
0.04766051
-0.2810944
-0.043816738
-0.0638178
-0.0591038
-0.006408387
0.16467816
0.09762028
0.1141437
-0.35669303
-0.15600118
-0.006336697
-0.15724555
0.083503686
0.1390555
-0.12541044
0.013826949
-0.044443037
-0.033394597
-0.027007397
0.10177698
0.035958115
-0.0044983453
-0.2858348
-0.1924694
-0.19625683
0.13367075
-0.12028714
0.013357585
0.04961628
-0.09566796
0.005495213
-0.10040797
0.17000665
-0.030200476
-0.10147671
-0.23939307
-0.0754413
-0.0717638
0.09277495
0.047351062
-0.016354097
-0.026665777
0.129258
0.024433691
-0.083075486
-0.1158556
-0.039565783
-0.20861916
-0.014826095
-0.16704896
0.132071
-0.17657326
0.12667823
-0.21098204
0.08295388
-0.037918758
-0.030461162
-0.064279556
0.08295234
0.132885
-0.022026679
-0.037287213
0.03369342
-0.150137
-0.09608921
0.1182151
-0.15626013
0.06938267
-0.01187608
-0.40124783
0.015383807
-0.18457823
0.083881184
-0.16249982
-0.0011133809
-0.026046723
-0.22235794
-0.21969195
0.039466906
0.104060456
0.0016942818
-0.3367944
0.0428153
0.077774994
-0.10835172
-0.03012933
-0.11577008
0.03048256
-0.13064325
-0.21450171
-0.007990826
0.17392933
-0.04834025
0.10410497
-0.013779771
-0.15632698
-0.024982195
-0.13939416
-0.23715714
0.039600857
0.06650007
-0.06516346
-0.03885393
-0.15146588
0.02158222
-0.12198656
0.108401
0.18793893
-0.02679408
-0.037659075
0.0997903
0.061536945
-0.022318814
-0.19114943
-0.074335165
0.116074465
-0.1098733
-0.05284488
0.017040554
0.06756988
-0.0653932
-0.18745853
0.00090787344
-0.20304435
0.039315615
-0.25964433
0.051950805
0.013712949
-0.3793126
0.040096294
0.21710628
-0.07710496
0.031194631
-0.14677893
0.08321584
-0.1136824
0.034736343
-0.018911729
0.008923841
0.00081161864
-0.0046227085
0.083906785
-0.109053396
-0.016723098
0.042908095
-0.24840282
-0.08190135
-0.009219796
0.013490805
0.016032487
-0.041573025
-0.30785835
-0.14254951
0.07453081
-0.07447879
-0.16461165
-0.08701395
0.033256233
-0.16998237
-0.23145491
-0.040705796
-0.066760615
0.14249755
0.0005634641
-0.089210294
0.0001575299
0.057212368
0.00023255419
-0.052634623
0.050321773
0.041272584
-0.29805362
-0.19098651
0.14576735
-0.040521465
0.074675545
-0.0035757688
-0.09319989
0.07544985
-0.08699033
0.02025077
-0.014198806
0.108938396
-0.06816232
0.17692687
0.048974298
0.04812166
0.028262056
0.017263884
-0.0015189087
0.005387715
-0.06747996
-0.23213471
0.03524846
-0.13170294
-0.22510293
-0.105127454
-0.10131386
0.12412873
-0.10223508
0.053618506
-0.13362123
0.020013588
-0.120320864
-0.0015546014
-0.090711646
0.11714085
0.12919705
0.13925396
-0.00646909
-0.06838135
0.049710095
0.13220516
-0.11691512
-0.13790764
-0.07572059
0.08431985
-0.06696278
-0.13428496
-0.07143762
-0.034047198
-0.14650537
-0.03662103
-0.06867708
-0.0060943854
-0.039501213
-0.14848183
0.10398633
-0.22101073
-0.20182133
0.18008594
0.04858113
-0.030019911
-0.1478715
-0.06837562
-0.02746161
-0.1064942
-0.039095327
-0.16725534
0.03119576
0.018055487
-0.27786076
0.20256284
-0.061553553
-0.007918662
0.12962924
-0.029336946
0.37318382
0.117494635
0.15806644
0.011182017
-0.2027972
-0.1905667
0.068149686
-0.003379021
0.15369162
-0.122155555
-0.23680097
-0.12806122
-0.22614136
-0.055617023
0.4602024
0.058603395
0.18598188
-0.061743073
0.14622436
0.08279343
0.11045411
-0.18989486
0.1683276
-0.024237921
-0.121951394
-0.09440185
-0.11643944
-0.06567298
0.11947447
0.33221483
-0.019313356
-0.3226041
-0.20066911
-0.09355559
0.028920492
0.16037983
-0.18492398
0.092136756
-0.1143445
0.12290441
-0.3432959
0.4425685
-0.023007082
0.07861349
-0.15242031
-0.13996229
0.20664094
-0.0064991564
0.12029696
-0.08971811
-0.057969756
-0.12641326
0.10079129
-0.27491727
-0.15070659
0.058871843
-0.09045731
-0.19914052
-0.025792614
0.023677893
0.21569934
0.05704958
-0.015818886
0.18734302
-0.15071306
-0.09544127
0.022926547
0.009891759
0.11825716
-0.24595162
0.23598288
0.005584664
-0.14624023
0.04436542
0.13607651
-0.18366368
0.13916264
0.0969867
-0.14600474
0.15019888
0.01589394
0.05109207
0.07020119
0.13551447
0.1802919
0.10102625
-0.45018992
-0.13902414
0.11013305
0.03461686
-0.0955702
-0.017478215
0.15336148
-0.5494534
0.057593085
-0.14119945
0.10480368
-0.24475606
0.19202138
-0.16079295
0.32227057
-0.0490638
0.4750208
0.32832998
0.20149133
0.19900775
-0.20629571
0.14848964
-0.031674564
0.04206064
0.021017026
0.17856362
0.21650174
0.07841593
-0.030970154
0.21125351
-0.22619373
0.242551
-0.015723456
-0.09497002
0.13057952
-0.2566956
-0.10584405
-0.14929295
-0.052261103
0.101356246
-0.07781323
-0.03683044
0.032977723
-0.18042064
-0.087439105
-0.035446502
-0.040896196
-0.048053898
-0.050287556
0.043061513
-0.048940513
0.027744217
-0.22136603
-0.13419016
0.061780542
0.060301792
0.0007259719
0.17488126
-0.022699662
0.096785836
0.15176296
-0.053141687
-0.21174392
-0.025040142
0.13834304
0.10064558
-0.030806854
-0.09831937
0.1725595
-0.0821986
0.1702179
0.047674313
-0.08078495
0.013008617
-0.04207427
0.013444632
-0.002248336
-0.13361563
0.014809233
0.12266674
0.050443627
0.1716559
0.12889351
-0.07549544
-0.012974769
0.115502805
0.0148777915
0.045140374
0.22335543
0.05229395
0.17597732
-0.053112146
-0.09954818
-0.001654505
-0.0063613546
0.2247057
-0.054968577
-0.07141282
-0.09946843
-0.0033655118
-0.03522046
-0.015091714
0.10993824
0.071195304
0.029270357
-0.024425387
-0.060769226
-0.11823355
0.007904347
-0.13661847
0.056973543
0.13644238
0.048286956
0.15481497
-0.0018084659
0.081553176
-0.10737578
0.10152768
-0.017246433
0.014601055
-0.0930589
0.022202952
0.024309682
-0.018818432
-0.09135606
-0.013094456
0.041594293
-0.18207821
-0.030202104
-0.02355391
-0.022414958
-0.03782706
-0.086761706
0.04700247
-0.19205268
-0.10919946
0.0981004
0.0008933075
0.131178
0.13038969
-0.10524675
0.065841846
-0.004380435
0.062090617
0.05323635
-0.104095235
0.075810194
0.027434899
0.029281907
-0.16379948
-0.005836935
0.088466376
-0.09147257
0.017378777
-0.17105146
0.032606523
0.013529196
-0.010999267
0.0025024444
-0.011171495
0.030895643
-0.06107047
-0.013732782
-0.07499411
0.05413116
0.07186386
0.117104106
0.13942772
-0.23000693
0.028349588
0.020329937
-0.003803919
0.064031914
-0.068816125
-0.14957322
-0.10803835
-0.23067315
0.08891279
0.04116166
-0.10149624
0.11429774
0.1796515
0.0018945883
-0.042019002
-0.08022275
0.0829087
0.039323393
-0.15375723
-0.05546986
0.046632357
0.09662434
0.07436587
0.08322542
-0.21687166
-0.0099551575
-0.009440506
0.11211014
-0.0873487
0.023008054
-0.043924764
0.009445429
-0.2371145
0.0422709
0.10028588
-0.004609351
-0.058215074
0.027254805
-0.08104337
0.06110667
-0.026612898
0.11589983
-0.14129785
0.042540677
0.071601965
-0.09193672
0.00973784
0.035444874
0.03523622
0.09412808
0.010108172
-0.017495807
0.12388438
-0.19317545
-0.073484145
0.12692577
-0.07526995
0.054382533
-0.04292405
-0.22788848
0.105552
-0.03902949
0.11468321
0.071644
0.22439662
-0.2513881
0.09519448
0.031518172
0.091998436
0.18885301
-0.067170925
0.019749334
0.035551406
0.08407232
-0.11167779
0.16013198
0.09088293
-0.057023168
0.048007797
-0.11194999
0.11449294
-0.10707404
0.116718404
0.1055059
-0.04297143
0.017655356
-0.042482067
-0.22748391
0.31914732
0.18920447
0.23584157
-0.1621095
-0.18669239
0.030532774
0.097917214
-0.11436083
0.013820793
-0.06496965
0.013420138
0.07224059
-0.028698627
0.04771788
0.066117026
-0.024397427
-0.23755477
0.1817214
0.02597746
0.10111871
0.07963549
0.08315241
-0.06850452
-0.19751915
0.20897217
0.05875206
-0.0016140251
-0.018877087
-0.18782628
0.18916681
-0.020720432
0.02930264
0.10818284
0.08096982
0.023396997
-0.072672024
0.16274484
0.035695035
0.18745592
0.10058736
0.12797715
-0.107944936
-0.081699006
-0.0847097
0.0637585
-0.30832562
-0.0565696
-0.29043233
-0.14306732
-0.003731845
0.05434295
-0.03689567
-0.030360587
-0.14853983
0.10320036
0.029345263
-0.10219271
-0.098770134
-0.10266359
0.03354075
-0.07880689
-0.038028143
-0.08235741
-0.06913446
-0.17234069
0.0048226756
0.06718751
-0.07550868
-0.024722781
-0.035637625
0.11686057
-0.041620526
-0.14425978
0.012537567
-0.19265303
-0.24436241
-0.13791336
-0.002615463
0.043744933
-0.007011166
-0.08380822
-0.10463294
0.035459377
-0.08381243
-0.19972016
-0.21882632
-0.021465683
-0.15397488
0.09070428
0.09581603
-0.0050108484
-0.04821227
0.085720874
-0.170696
-0.19374816
0.16478829
-0.019488182
-0.16001101
0.054308124
-0.16459966
-0.020518268
-0.26005775
0.044981517
-0.16478164
0.1296678
-0.18891416
-0.110631526
-0.056473877
-0.01123063
0.062205836
0.015793182
-0.08974749
-0.07282049
0.040469058
-0.21682613
0.009997205
-0.12871297
0.0039926446
0.013989064
-0.11422174
0.09573269
0.018056752
0.12768579
0.1554083
0.08279626
0.15641372
-0.06700465
-0.11503283
0.18131226
0.15591155
0.009398651
-0.3245127
-0.1099548
0.0328032
0.060987312
-0.049033213
0.07257295
-0.07361853
-0.22835036
-0.024256252
-0.0055781305
0.13109618
-0.034196388
-0.093773074
0.0023631619
0.02384461
-0.102385774
-0.08361372
0.040539797
0.04708381
-0.025491366
-0.13624458
0.10085747
-0.010039431
0.016577901
-0.15664606
0.046220258
0.033506405
-0.18413305
0.014649296
-0.016747283
0.0039780205
0.10353873
0.017327618
0.017814478
0.14988884
-0.14847608
0.21711163
-0.17401406
-0.09715071
-0.14193411
0.103823036
-0.1352812
0.04087605
0.09024429
-0.15425289
0.11603405
0.25648364
-0.27784634
0.15444738
0.022813987
0.03714274
-0.03935972
0.167057
-0.029779738
0.27853602
-0.100175306
0.082434095
0.08569308
-0.009186992
-0.2419304
0.1527212
-0.12867758
0.119915925
0.11076359
-0.12504199
0.04259813
0.011527343
0.04489004
0.039933905
-0.095185935
0.0056316582
-0.18680623
0.08949027
-0.13324186
-0.1495782
-0.06084108
-0.08850042
0.08561912
-0.04969855
-0.08389948
0.00991633
0.15524693
0.15477104
-0.10287924
-0.15428051
-0.07977176
-0.05074044
-0.0022742485
0.048458222
0.15504143
-0.05910074
0.016887292
-0.079294585
0.06100839
0.3140882
-0.13504538
0.060621023
0.100971
0.10943006
-0.14274661
-0.05997149
0.07889333
0.15458348
0.19849832
0.01847418
0.20432623
0.10788302
0.090673506
-0.07779945
-0.06842286
-0.057758834
-0.15196854
0.22913258
-0.13096482
0.14379103
0.19091177
-0.1263718
-0.13224827
0.06752351
0.036541376
-0.05229636
-0.03254896
0.048649725
0.08108565
-0.18963502
0.27025163
0.072062165
0.03612154
-0.17611474
0.12547106
0.048834104
0.26231602
0.11969022
0.07970731
-0.06710154
-0.12080622
-0.07465579
0.11136738
0.06218276
0.20062435
-0.019241462
0.14017962
0.13148153
0.04276457
-0.017500512
-0.048992515
0.016032457
0.1719897
0.24640018
0.09570004
0.13297515
0.1303349
-0.08440919
0.04546907
0.16422747
0.06456639
-0.02712985
-0.040864795
0.15201768
0.08364222
-0.2377667
0.07169016
0.13205189
-0.022804048
0.18739742
0.14763099
-0.07981853
-0.1259791
-0.022775851
-0.05304864
0.06179629
-0.10290306
-0.25108612
0.05381846
0.15776202
-0.22138269
-0.03558672
0.100502014
0.10758018
0.057661217
-0.05866165
0.18277359
-0.08760886
0.28652495
0.04767613
0.1938004
-0.061511997
0.11711031
0.2116207
-0.07156879
-0.1712858
-0.11286571
-0.13260089
-0.10433524
-0.27068308
0.039734926
0.034249056
-0.06404139
-0.0028668481
-0.00740426
0.06981278
-0.20703332
-0.1065506
-0.018338367
0.13013825
0.08910633
-0.23789477
-0.11364903
-0.026045186
0.04740856
0.15853952
0.101071715
0.038956866
0.14060523
0.1198858
-0.06921551
0.01592507
-0.097030506
-0.19600405
0.011614303
-0.019438874
-0.08614639
-0.017815486
0.05666769
0.080112025
-0.18657592
0.22537562
-0.19254686
-0.12747213
-0.09936143
0.07704517
0.1941637
-0.048591092
0.037529368
-0.10443478
-0.13830894
0.09838918
-0.01933107
-0.1328619
-0.055244487
0.062310547
0.102100395
-0.13249685
0.020846857
-0.07482244
-0.09965351
0.043787528
0.17592825
-0.085509464
0.07574988
0.008795737
0.20673081
0.07232273
0.11516024
-0.0076861633
0.0977434
-0.2029096
0.09472839
-0.020211924
0.15231116
-0.012256387
0.02252302
0.1482417
0.073742665
0.27450284
-0.10268975
0.1173199
0.006543575
0.18305561
0.02997625
0.013577936
-0.0025839652
0.13136995
-0.49694362
-0.04086757
-0.021306612
0.14452574
0.074517466
-0.18495053
-0.03973236
-0.2939304
-0.33093873
0.099694476
0.16780765
-0.04029338
-0.068497464
-0.0716706
0.21467763
-0.055746462
-0.017560929
0.072328776
-0.21629825
0.020888247
0.078886494
0.18059823
-0.009404153
0.029429529
-0.07783216
-0.0006907631
-0.1162956
0.012495591
-0.22111408
-0.1582117
-0.015200433
-0.18277875
-0.085967615
0.18316692
0.026648164
0.17753515
0.2050317
-0.18893065
0.11194647
-0.22632462
0.15709655
-0.12567963
0.017342271
0.12622857
0.123329565
-0.019440712
-0.047877073
0.03419825
-0.077959
0.07096571
0.0086766975
-0.011749695
0.113272555
-0.07727612
0.18738723
-0.011681288
-0.21202761
-0.08088799
-0.00018725281
0.14520673
-0.20795694
0.02611218
-0.155912
-0.0915678
0.047490176
0.021270296
0.18229161
-0.21160579
-0.0013663716
-0.029060831
-0.015165911
-0.08756814
-0.03625323
0.00027530268
0.07146686
-0.03861263
-0.10428973
-0.046521656
-0.017466016
-0.027281025
-0.068230554
0.21161467
0.13873199
-0.0013401698
-0.17085953
-0.078209504
-0.29109725
-0.022928454
-0.17632909
-0.07895033
-0.22663777
-0.029434483
0.12224695
-0.27647927
0.15910089
-0.063806295
-0.07982865
-0.17557935
0.023454947
-0.24725085
0.07369212
-0.06464463
-0.11262225
-0.21757478
-0.119286425
-0.0034425994
-0.1189391
0.015706545
0.06810703
0.056080822
0.014416098
-0.115781315
0.06118502
-0.42234248
0.12017658
-0.16019067
-0.007159278
0.055794552
0.12470332
0.19220933
-0.07421019
-0.08686078
-0.009028161
-0.054653153
-0.31486917
-0.22943954
-0.071184464
0.15194988
0.008388291
-0.27184722
0.13070926
-0.026225347
-0.16721311
-0.08933042
-0.0344546
0.027425943
-0.09882821
0.13249351
-0.12636112
0.00539246
0.08516033
-0.12796055
0.14434516
-0.097827464
0.023637328
0.012720979
0.020307519
-0.20691314
-0.24466082
-0.06540827
0.074685566
-0.36678183
-0.15947936
-0.02599452
-0.40941194
0.09795829
-0.20696874
-0.22660354
0.049324576
0.15958837
-0.063013576
-0.24944544
-0.13521759
0.051916376
-0.13163678
0.09309697
0.0021249955
0.09462847
0.03725122
-0.21044059
0.059933566
-0.1538205
-0.20607856
-0.101819284
-0.076895826
0.1163179
-0.06664143
0.049665745
-0.2265566
-0.027886923
0.025528109
-0.08579037
0.11184814
-0.14106481
0.0136619955
0.0045827413
-0.10442993
0.06803129
0.007708395
0.04323022
0.10150037
-0.19330102
0.097161576
0.016631173
-0.056958947
0.032083843
-0.3903861
-0.08094151
-0.013072203
-0.022231616
-0.037896466
-0.16617416
0.06441751
0.06072197
0.060019664
0.08443653
0.022106403
-0.052640382
-0.28196293
0.22570872
-0.091968805
0.02470739
-0.14535902
0.19844653
0.09068371
-0.039235447
0.07753382
0.049610995
-0.08651017
0.05590793
0.023323322
0.024662431
-0.14157915
-0.024983404
0.16094051
-0.027195914
-0.08780111
0.030519133
-0.04261454
-0.065185726
-0.18973719
0.020968271
-0.29606327
-0.013988941
0.14795816
0.13299891
0.015761726
-0.10408835
-0.04763332
0.05956061
-0.17102921
0.0038041042
0.13786174
-0.09172069
0.04832826
-0.22804165
-0.19578613
0.2760857
0.015227772
-0.118909985
0.09220503
0.028071845
-0.054079775
0.031066012
0.090511076
0.041044604
0.1065085
-0.07407252
0.05211617
0.038350876
-0.00015139583
-0.09512794
-0.14662854
-3.6891404e-05
0.08644343
-0.115834884
-0.19353287
-0.05129397
-0.18739045
-0.01671513
-0.15949735
0.040979438
0.090327345
-0.12912165
-0.060038738
-0.08762082
-0.073126785
-0.11155609
-0.04249689
-0.1879478
-0.11810861
0.0052168667
-0.023451399
-0.14455159
-0.023869416
-0.04307837
-0.048281398
0.23564981
0.224171
-0.21284772
-0.058303785
-0.112670854
-0.12492793
-0.099415265
0.036894005
0.085178785
0.26196748
-0.10554568
0.0805393
-0.09407683
-0.167318
0.08370582
-0.0026676413
0.13263308
-0.053964
-0.015869094
-0.036634192
-0.04099842
0.15548518
0.087607354
-0.15656106
-0.008423667
-0.09947054
-0.015674973
-0.055225786
-0.09313051
-0.083713785
0.037917558
0.10105268
-0.07412122
-0.07874512
0.08560407
0.12029425
-0.103091486
0.027944269
-0.0021620952
-0.05794116
-0.02247418
0.033847865
-0.12710306
-0.21244659
-0.024217034
0.06510118
0.09274042
-0.12732656
0.07883042
-0.056896903
0.0067833685
0.13742338
-0.03655676
0.14232941
-0.0812098
-0.043758973
0.042460393
-0.011967552
0.064244166
-0.19083726
0.13678235
0.03312686
-0.12006239
-0.20230457
-0.15319473
-0.016659325
-0.16363753
0.05348992
0.07415967
-0.13812077
0.14348327
0.07511116
0.0013216883
-0.16593015
-0.018055834
0.12647022
0.030518016
0.11313325
0.22473872
0.15979484
0.1043972
0.058043715
0.088013
0.028595533
-0.05402552
-0.10191916
-0.02943962
-0.029140063
-0.008484334
-0.012933426
-0.16889071
-0.17655513
-0.06735478
0.026011068
-0.14585504
0.21459758
0.028850844
0.14518875
0.060584377
-0.07476764
0.09732509
-0.06636871
-0.055575848
-0.29223374
0.08730324
0.0675216
-0.10576793
0.016617632
-0.012392236
-0.035425797
-0.063066415
-0.05025686
-0.15605861
-0.21620321
-0.14779294
-0.17480838
0.096204184
-0.07819757
0.01903054
-0.109841734
0.05418013
0.05881401
-0.07828008
-0.08883737
0.16918576
-0.053959895
-0.1867907
0.26199263
-0.23151565
-0.07554656
0.1785546
0.20001894
-0.11785066
-0.022210382
-0.08018336
-0.0788527
0.07300448
0.011916934
-0.27548504
0.022046447
-0.10633632
0.16164465
0.012021522
-0.020967418
0.041084886
-0.08259296
-0.31185484
-0.05684888
-0.048769973
0.22441371
-0.03228534
0.2890713
-0.18914531
-0.06304006
-0.15595576
0.17137262
0.09148076
-0.24451889
-0.037797913
-0.5012796
-0.07581973
-0.15782934
-0.09207455
0.07040244
0.08325021
-0.036546163
-0.065192856
-0.0035164352
-0.022601398
-0.14104098
0.1153194
0.14638406
0.1523296
0.045792025
0.17937432
-0.16057862
-0.122229576
0.0062144804
0.068543755
0.07489113
0.17877388
-0.027683578
-0.30292076
-0.007342564
-0.044070147
0.020585183
-0.1136781
-0.27140832
-0.20094396
0.052387513
-0.16016395
0.09107464
0.15846908
-0.09102337
0.18381785
-0.056648046
-0.20021437
0.22986034
-0.102710985
0.06469003
0.18683551
0.067181
-0.032744538
-0.10626118
0.015867716
0.09244103
-0.0018321944
0.099542804
-0.117788695
0.0086207455
-0.30934614
-0.083394654
-0.13772902
0.05092039
-0.16830719
0.118280135
0.12456742
-0.0836716
0.11757135
0.10612323
0.06083386
-0.17781892
0.059773646
0.10296657
-0.061303034
-0.083780915
-0.27438354
0.11572134
-0.11040553
-0.041061744
-0.34231976
0.020208202
0.14042743
0.03000743
0.059959617
-0.033326864
-0.02199136
0.03789322
-0.035378423
0.27640453
-0.022518896
0.15800843
-0.034891684
0.06946154
-0.10517259
-0.1409163
-0.021102235
0.013759326
-0.1908651
-0.027733779
-0.27542618
-0.16667566
-0.14328727
-0.04242407
0.025213202
0.015290393
0.21001509
0.12533887
-0.12255138
0.049099673
-0.013844742
-0.011751375
-0.061397884
0.014036105
0.121809095
0.010162676
0.033644244
-0.05344065
0.04960503
-0.15552004
0.112221554
0.0073169307
0.15567636
-0.051559646
-0.030811984
-0.009834057
-0.08047482
-0.1525263
0.04431055
-0.12628803
-0.12628815
-0.0558798
-0.012964171
0.00065203983
0.009392471
-0.057746254
-0.09541458
-0.03796227
-0.04012383
-0.06959545
0.042613897
-0.18551587
-0.1422193
-0.05243493
-0.11240995
-0.044771146
0.009464722
0.008123732
-0.3022066
-0.12846625
0.1064844
0.04989015
-0.0049501224
0.1235273
-0.14140366
0.0003779657
-0.05785126
0.07929581
-0.08755162
0.047744904
0.09029889
0.050038297
-0.02649346
-0.07401664
-0.049768794
-0.03898191
0.018952372
0.055992357
0.046675175
-0.026676234
-0.10696204
0.03649572
-0.102983646
-0.06859344
-0.022703715
0.0065946723
0.08707242
0.12144956
-0.03498716
-0.11654898
-0.03704159
0.059793018
0.14520365
0.15029223
0.11468385
-0.014832651
-0.010085562
-0.06261106
-0.009061255
0.03615948
-0.060300365
-0.005174763
-0.063455865
0.059836265
0.12646046
-0.07916829
-0.2953973
0.020829776
-0.18692946
0.049863372
-0.28805235
0.03424932
0.02733828
-0.036047757
-0.0066369977
0.13834947
0.016952995
0.1519598
0.19070387
-0.24827729
0.06317988
0.091786504
-0.0777826
0.012244303
-0.032146897
-0.025341898
0.058539912
-0.07321309
0.011104718
-0.4344901
-0.078115314
-0.3624993
0.11016392
-0.013728042
0.09084929
-0.0040516546
-0.18625939
0.086089626
0.026706353
-0.043565806
-0.08776447
0.078674704
0.06908994
-0.12145863
0.04533926
0.26817113
-0.32243705
0.06084246
0.03004725
-0.09083868
0.051449228
0.0061884574
0.08165849
0.13723284
-0.058431394
-0.06142837
0.020814445
-0.30733812
-0.01798027
-0.06927021
-0.14254701
0.00493589
-0.037177738
-0.17654273
-0.027669253
0.070551336
0.3209097
-0.10542334
0.07455806
-0.03798832
-0.027722582
-0.09428981
-0.13243023
-0.22768618
-0.12454921
0.011541005
0.057515502
-0.05486424
0.008956668
-0.1817561
-0.019323906
0.06377444
-0.19436087
-0.06988625
-0.04356784
0.045654066
-0.078810714
0.08613016
-0.06985783
0.061534453
-0.06489738
0.057218704
0.0877672
0.081524394
-0.049083043
-0.07785632
-0.07734804
0.18699627
-0.000999036
-0.021543283
0.014163329
0.07314734
-0.031477373
-0.039482027
0.018217087
-0.00141399
-0.042046692
0.019369926
0.021034142
0.12085884
0.092721775
0.03572917
-0.0400109
-0.04249069
0.008220434
0.11593429
0.05217299
-0.1567497
-0.16430575
0.09071385
0.058935825
0.034362294
-0.007665078
-0.1299893
0.0980955
0.14205754
-0.066390544
0.052576102
-0.33183867
0.104282856
0.005482793
-0.09771564
0.3379785
0.0605792
-0.1371414
-0.13293277
-0.04133745
0.031141208
-0.10057854
0.07342948
0.10093132
-0.1057091
0.017658183
-0.07308477
0.041597907
0.16241917
-0.07243266
-0.11093459
-0.06456224
0.19620498
-0.10674064
0.1283599
-0.0630374
0.021897001
0.039042342
0.0043824776
0.048378587
-0.10039722
-0.14817812
-0.15558416
0.035328016
-0.19761017
0.22339903
0.17162724
-0.13105538
-0.037830394
-0.13201693
-0.18072037
0.22298616
0.020951757
-0.049745504
-0.00873584
-0.42560318
-0.30909595
-0.057090595
0.011630802
0.36250678
-0.01916488
0.27172315
0.004969233
0.065276004
-0.019161012
-0.11087753
-0.010070942
-0.08038392
0.1499323
-0.08486251
-0.027595172
0.22101666
-0.01690967
0.27295357
0.038079143
-0.008279704
0.040320728
-0.016910007
0.042700093
-0.086268105
0.0018194562
-0.02440677
0.15448461
-0.10071107
0.14118598
-0.106077224
0.25807238
-0.22459401
0.025639588
-0.24544874
0.07496362
-0.12905401
-0.091347225
0.3236728
-0.057548597
-0.08382308
0.17941672
0.2963166
0.25123417
-0.14744641
-0.07898947
0.01324263
-0.032633036
-0.039027803
0.14259493
0.038203783
0.035032798
0.17425287
0.11323084
-0.0030948042
-0.30914122
-0.02757417
-0.20404978
0.117605895
-0.14517133
0.0018973191
0.15382499
-0.019665448
0.29212907
0.0034466297
0.021248559
0.14478531
-0.09734754
-0.050579596
0.16290466
0.011702039
0.0039367
-0.10960605
-0.084627666
-0.16588566
-0.048320636
-0.09223129
-0.10853871
-0.14264658
-0.117923975
-0.0392711
0.043623116
0.0484202
-0.024845602
-0.09017416
-0.00054780295
0.16756143
0.064729996
-0.04077406
-0.15515532
0.06948351
-0.052681923
0.14449944
0.1367317
0.11277659
0.102104865
-0.20320335
0.023436746
-0.20677531
-0.02140736
-0.13823976
-0.11067032
0.07723314
0.16639383
0.279439
0.23556787
-0.13083397
-0.2039091
-0.031234957
-0.053740017
-0.22370699
-0.12793027
0.047929782
-0.06773401
-0.09716592
0.05833805
-0.36126027
-0.3398779
0.059519645
-0.019769028
0.0074703316
-0.04871137
-0.11846341
-0.031352278
0.19291267
-0.1773919
-0.17010722
-0.26475382
-0.1421407
-0.0012614594
-0.2170193
-0.060328864
-0.06040178
0.111101456
0.23418304
-0.113419555
0.00047093708
-0.09654828
0.05165058
0.0019231928
-0.06878761
-0.062840536
-0.15767057
0.20761727
-0.01984905
-0.07575603
0.020306496
-0.13411117
-0.09944929
-0.024415068
-0.20827377
0.14771655
-0.08165175
-0.13627923
-0.015564291
-0.0026402776
0.0022293762
-0.05671553
0.26342925
0.004163511
-0.1627882
0.14644334
0.023251723
0.03260293
0.0061845914
-0.29702827
0.007779254
-0.07098334
-0.017061787
0.02660939
0.053694814
0.24147682
0.17861007
-0.009062613
-0.02106937
-0.12318265
-0.07716053
-0.16556522
0.1459775
-0.1256018
0.12574367
-0.10286928
0.1465855
-0.09347427
-0.0074672867
-0.08023793
0.13578746
0.18604735
0.17796755
0.1834633
0.078962065
0.15848903
-0.027713628
0.15718205
0.048740756
0.052164752
0.021712333
-0.048947442
-0.16288133
-0.11317827
-0.0654082
-0.03907171
-0.2071376
-0.019591002
0.020467121
0.03651301
-0.010127114
-0.18636864
-0.01670253
-0.047841858
0.0032148364
0.14441831
0.09080969
0.03727546
-0.104304105
-0.0139716985
0.37343386
0.07097417
-0.06732049
-0.21778335
-0.09434207
0.033480696
-0.07377391
0.108841404
-0.016042573
0.13190007
-0.1792599
-0.06359378
0.07294401
-0.12474093
0.15483709
-0.01898907
-0.010565276
0.042730115
-0.1632649
-0.19097446
-0.013442893
-0.04481468
-0.02215931
-0.24716644
-0.007575972
0.13153121
-0.06731089
0.120391175
-0.019371063
-0.27802625
0.40386918
-0.13982086
0.05699591
-0.08511065
-0.0020537681
-0.113579035
0.03744896
-0.015828168
-0.1468961
-0.15318838
-0.10943911
0.020795088
-0.117551744
-0.18472795
-0.24570023
0.104793176
0.09707238
-0.058398575
0.010978212
-0.07117169
0.0028772396
0.08058523
-0.10464071
-0.20252435
-0.25081426
0.0665916
-0.09052003
-0.061707675
-0.32219547
0.065647945
0.037738442
0.049183965
-0.15837184
-0.07559725
0.09167602
-0.13577165
0.24658854
-0.09762927
-0.029008398
0.110669196
0.15272157
-0.15633339
0.064004235
-0.17157175
-0.12186936
0.13029554
0.007279384
-0.0668484
0.013173585
-0.06528999
-0.041737147
-0.18674007
-0.1227468
-0.24924676
-0.062758125
0.044525236
-0.016330177
-0.1344435
-0.20903489
-0.030695168
0.14526589
0.0837538
-0.04528911
-0.14632758
-0.28721026
-0.06772624
0.0089551285
-0.06863113
-0.021649642
-0.044595744
-0.1845184
-0.11741334
-0.2991716
0.16220713
-0.0055157207
0.023309113
0.009575492
0.15461156
-0.09573003
-0.17870973
-0.22879717
-0.11826695
-0.028534263
0.17073691
-0.11021848
-0.1677226
-0.16422297
0.095271856
-0.085833184
-0.19474772
-0.42977104
-0.2540212
0.05935496
-0.09018132
0.26763293
0.10240871
-0.21678339
-0.15749925
0.15415755
-0.037313405
0.14268439
-0.33184454
-0.09940699
-0.21090817
0.0002648962
-0.21008095
-0.08117403
0.047224015
-0.22012603
0.16445588
-0.12446347
0.08727234
-0.06346639
-0.06862095
-0.16418526
0.08951877
-0.03134908
-0.0894247
-0.028566163
0.07158163
-0.06350135
0.10016914
0.14866719
-0.21539496
0.202279
-0.018575085
-0.009094212
-0.19735529
0.16621491
-0.13475657
-0.038653303
0.051833622
0.11322053
0.0487661
0.124107026
-0.04391712
-0.072101235
-0.06369095
0.10973045
0.03493602
-0.10892266
0.21807359
-0.029780505
0.15223093
0.088641845
-0.01500319
0.1310186
-0.10671967
0.0017856882
-0.02956625
-0.27366662
-0.16719644
-0.10018414
-0.1356845
-0.18993731
0.050518252
-0.36374918
-0.4193301
-0.018508269
-0.1302612
0.12968533
0.11459244
-0.09439418
0.009588055
-0.13304146
-0.11578386
0.0017702528
-0.38924992
-0.31722054
0.007853674
0.057875812
-0.15504134
-0.008393364
0.02830076
0.031241221
-0.061732136
-0.035598785
0.00047597793
0.011067913
-0.14976197
0.060255326
-0.24472775
0.115058154
0.087645814
0.1486894
-0.12866724
-0.063716
-0.120566554
-0.026823245
0.04023251
0.06426164
0.055840146
0.005765884
0.18392701
0.005491207
-0.3394017
-0.33498782
0.059207987
-0.13663666
-0.24790569
0.050030317
0.3066758
0.07667323
0.11380858
0.28428128
-0.24349011
0.056849785
0.042831596
0.10281083
0.035805568
-0.058952536
0.17599635
-0.11022771
0.047362648
0.014665235
-0.22563888
0.07626119
0.028186379
0.1765019
0.2138025
-0.20895575
-0.124825865
-0.058488347
0.18656929
-0.19432296
-0.25678372
0.087410085
-0.35815263
0.09399577
0.00010159266
0.12283669
0.03786573
-0.1474273
0.013791647
-0.15190105
-0.07722115
-0.03115902
0.009168825
-0.1647325
-0.08297693
0.07188462
-0.028053554
0.03234396
0.2116226
-0.22862816
-0.10272896
-0.027495675
-0.14275701
-0.13404529
-0.040990166
-0.10681647
-0.021314856
-0.014725761
0.13586973
0.049257506
-0.07795245
0.102474436
-0.14980574
-0.025764283
-0.11514792
-0.12911741
-0.10148819
-0.21487865
-0.037679467
-0.06590527
-0.065886036
-0.17509712
0.22694036
-0.2299779
0.1481779
-0.112564996
0.04439446
-0.35843003
0.086519085
0.02543062
-0.046211638
0.0048252707
0.19915475
-0.12702674
-0.100592464
0.030705916
0.1629107
-0.10396371
-0.07014821
0.07952058
0.10165989
0.048991222
0.07658253
-0.06362818
-0.06516081
-0.061166085
-0.036786653
0.23891313
-0.15977892
-0.09682834
-0.219874
0.13309115
-0.033817343
0.14188324
-0.06436663
0.114383705
-0.049665455
-0.1488126
-0.0080233645
-0.09333035
0.010436012
0.018218413
0.17761952
-0.23982877
0.004016355
0.055231344
-0.02886353
-0.16312268
0.06839432
-0.2887635
0.08854614
-0.13314427
0.103173524
-0.015567985
0.14871615
-0.06884658
0.0060795327
0.008849318
-0.03801302
-0.08492163
0.24223144
-0.10145023
0.06020273
-0.03169384
-0.11488326
0.08726616
-0.047450874
-0.21047816
0.055090815
0.017132983
-0.18050432
-0.023141777
0.037768397
-0.02133177
0.1768757
-0.03345
0.07847664
-0.072924025
0.081652775
0.087919995
-0.016510876
-0.14960834
-0.14553265
0.076478966
-0.015963715
0.16612527
0.018721834
0.0530897
0.0162797
-0.10371455
0.08199172
-0.085780285
-0.08013451
-0.08814019
0.063037165
-0.3175274
-0.013206746
-0.055201136
-0.011908709
-0.07407837
0.10731454
0.046059467
-0.007357137
0.24121937
-0.33774483
-0.09065537
0.17446835
-0.09610297
-0.01733024
-0.021728696
0.09878703
-0.03467494
-0.080963925
-0.33809552
0.039727237
0.13559648
-0.13891299
0.108559325
-0.12949266
0.2865546
-0.17635119
-0.17841204
-0.07946752
-0.06719542
-0.07782099
0.25222498
-0.006042997
-0.14791776
-0.039730582
-0.046106786
0.20830394
-0.17783694
-0.14734921
-0.40286097
0.06182093
-0.14314894
-0.1232571
-0.053258266
-0.0053927097
-0.088812605
0.20334601
-0.13704748
-0.13569072
-0.012468224
0.110994585
-0.18943995
0.050247908
0.040643748
-0.0896209
-0.04059149
0.13625327
0.0067587034
0.1726232
0.10491011
-0.17180783
-0.058448423
0.069109306
0.03617459
0.0013400053
0.11004973
0.06773267
-0.21748835
0.040585812
-0.17822537
-0.015459675
-0.13465354
-0.043619603
-0.03976784
0.00673086
0.010333004
0.008143189
0.067828
-0.20442711
0.077577285
-0.027621938
-0.2631634
0.1932142
0.022372795
0.08546837
-0.20246294
0.1332344
0.04663026
0.05382282
-0.051075347
0.01417831
-0.014814911
0.10484496
-0.14115453
0.00904342
0.002889184
0.006891867
-0.10242533
0.015754873
-0.0777851
-0.010913503
0.083412774
-0.11853156
-0.13527758
0.12348346
-0.011663489
0.031199763
-0.1687184
-0.22135466
-0.08526592
-0.0041185133
-0.066987425
0.16449292
-0.10282202
-0.014854468
-0.009038254
-0.15012358
-0.044428743
0.08883481
-0.09008174
0.076899655
-0.131536
-0.13774565
0.14845689
-0.073850356
-0.02318527
0.088886194
-0.08320452
0.002761657
0.06046552
-0.01883681
0.0018676746
-0.09982441
-0.097608514
0.06953264
-0.12061912
0.09113974
-0.06989795
-0.15038131
0.13170065
0.075623654
-0.005517371
-0.12181576
0.0069430475
-0.038521167
0.08162265
-0.088456504
0.03543222
0.0022763296
0.053501513
0.14712448
-0.03996121
-0.090659745
0.1749594
-0.015098233
-0.19441704
-0.08637242
-0.16824608
0.0076680873
0.16372976
0.18390381
-0.112716414
0.12321919
-0.13038146
0.05309612
-0.13430117
0.060926247
-0.39985743
0.10697064
-0.13253878
0.010487632
-0.0052140816
-0.04851518
-0.13344944
0.10854234
0.040334985
-0.11629465
0.026401445
0.09579901
-0.16100949
-0.057113085
-0.05549074
-0.0841536
-0.0028653983
-0.040594775
0.103015274
-0.033540636
-0.0214797
-0.15359563
-0.012285166
0.13574648
-0.18620059
-0.1301973
-0.25584066
-0.17430979
-0.07979849
-0.08781261
-0.08096655
-0.1212707
-0.06864147
-0.20966627
-0.18084411
0.00647208
-0.032952223
0.016061919
0.104133956
-0.010562025
0.12832305
0.16871837
0.007988368
0.22113578
-0.03541723
-0.02469641
-0.16749734
0.04865543
0.07089911
0.20165856
-0.19454241
-0.1386331
-0.051029038
0.059751403
-0.10329287
0.00041360644
-0.17727605
-0.1735264
-0.10743204
-0.10372541
0.015963376
0.005862823
0.14979704
-0.32910648
-0.098288216
0.16811085
-0.09932822
0.11781873
0.10849766
-0.1363755
-0.0027212165
0.017421558
0.0535762
0.123115346
-0.040141176
0.13445626
0.013190183
-0.090146326
-0.06368464
0.13448411
-0.18514282
0.23848987
0.03654311
0.15000795
0.13097528
-0.16730711
-0.124114275
0.1299966
-0.05918528
-0.012899438
0.265125
-0.056868274
0.095473714
-0.18310897
-0.24379787
-0.011545602
-0.014425409
0.13834982
-0.13194422
-0.035004932
0.1878858
0.061204482
0.10612982
-0.2691979
0.012199975
0.11227789
0.1579864
0.04959036
-0.06832406
0.0397817
-0.15038879
0.1025352
0.121538386
0.15711994
0.024331193
-0.25150925
0.06124769
0.00068264775
-0.26587403
0.16783476
0.10341432
-0.070501715
-0.0072790305
-0.09553593
-0.041612122
0.054265495
-0.031727437
-0.16591024
-0.22213934
0.035471912
0.014016304
-0.0325382
-0.22555652
-0.014034982
-0.043829754
0.12540843
-0.022438698
-0.042786453
-0.05528987
-0.12819275
-0.10727275
0.025069568
0.029779952
-0.1535408
-0.02025976
-0.05236006
-0.13364981
0.11390075
0.17856409
-0.21761456
-0.08280454
0.09482584
0.11925161
0.07698189
-0.2012136
0.008382496
-0.13843918
-0.09442571
-0.2902025
-0.057761095
-0.13209319
0.11651227
0.1249898
-0.008154595
-0.06135417
0.054071512
0.11242725
-0.1797218
-0.0047707907
0.026100108
-0.16846587
0.04835425
0.007451758
0.055512298
-0.14923772
-0.02741669
0.05731834
0.05160097
-0.14329518
-0.03934596
0.008450462
0.070954755
-0.072801515
0.008423686
-0.027492477
0.11658409
-0.036910236
-0.21199101
-0.042004146
-0.056558087
0.0017284888
-0.20845352
-0.19892699
0.18764995
-0.022221182
0.0057547274
-0.12706997
0.042510495
-0.09657282
-0.3153234
-0.2544869
-0.031893224
0.08091047
0.055381536
-0.29163575
-0.08517761
-0.01954318
0.009956975
-0.16942434
0.08189687
0.09828294
-0.11501999
0.09052232
-0.31740835
0.0025297985
0.18433589
-0.07152002
-0.05460516
-0.16040054
-0.0685691
-0.05912811
-0.34061122
0.12851496
-0.023310054
0.08159951
0.101323485
-0.015722025
-0.015957695
0.15920597
0.07189213
0.19223805
-0.13171922
-0.016573805
0.12220887
-0.008193348
0.22005677
-0.03757834
-0.041961417
-0.060540594
0.04466428
-0.0269454
0.07420129
-0.0993204
-0.0059163505
0.07924196
-0.059435036
-0.1494348
-0.037888832
-0.13530318
-0.05769676
0.12464314
0.049362753
-0.14200146
-0.025432391
0.028562268
0.06329083
-0.17899527
-0.32990226
0.03864074
0.105262004
-0.024087066
0.1603838
0.05711416
0.10299411
-0.119588695
0.008668667
-0.09396269
-0.30898514
-0.053799335
0.11159689
-0.09294559
-0.17300434
-0.029321393
0.065217234
0.17809431
-0.0049811783
0.029912267
-0.039830096
0.026723037
-0.052059848
-0.15229365
-0.110807836
-0.03945967
-0.04833777
0.15113285
-0.19670537
-0.041608162
0.026472822
-0.18846175
-0.03619797
-0.33816358
-0.032188863
0.019393587
0.016053718
-0.109684825
-0.15418175
-0.18222028
-0.1350131
-0.02514872
-0.20527612
0.250098
-0.056470804
-0.111161344
-0.0375974
0.057595704
-0.06237285
-0.2518206
-0.112634934
-0.042974107
0.0629503
0.14461553
-0.20604192
0.14382517
-0.22509623
0.06946249
0.12128318
-0.028415902
-0.0006320717
0.041899405
0.14268975
0.019306105
-0.084551
-0.051513415
-0.016126782
0.2119811
0.026833346
-0.13448669
-0.08971417
-0.37994713
-0.17744924
-0.086564764
-0.22638616
0.13620472
0.190943
0.12005168
-0.10519957
-0.19892615
0.12893087
-0.048739582
-0.008016426
-0.22497569
0.07242073
-0.21397811
0.008660316
0.11469391
-0.13972737
-0.16792874
0.15325697
-0.09882676
0.2862859
0.072193615
0.071470484
0.031618834
0.15368268
-0.123241864
-0.07833558
0.024858875
-0.035177726
-0.045342024
-0.13148364
0.039899196
-0.11740534
0.11861939
0.015970292
0.10376975
-0.08081409
-0.11540073
-0.06892649
-0.052296698
-0.40321526
0.035843845
-0.083772376
-0.12963812
-0.0212605
-0.26408094
0.03568383
-0.07557645
-0.059582084
0.05537172
-0.07140665
-0.009038997
0.22627546
-0.10356461
0.04097767
-0.074988335
0.0056510014
0.025287315
-0.048580963
-0.07589598
-0.03217343
-0.019948207
-0.095854506
-0.06146693
-0.12143445
-0.17073238
-0.23046407
-0.00807571
0.0054862574
0.085540295
0.013740683
-0.06731889
-0.12345891
0.103737846
-0.12762952
-0.06548012
0.0133209415
-0.030946493
0.11713151
-0.117093034
-0.10092497
-0.11660433
0.16351023
-0.050131064
0.16025774
0.068685636
0.024425047
-0.029327983
0.04096117
0.0015122847
-0.043622218
-0.0118406955
0.16471459
0.039632306
-0.17190182
0.07934185
0.06387184
0.043660365
-0.007942899
0.20049223
0.08036857
-0.16184862
0.1430521
-0.1306536
0.25411364
0.15371153
0.0041736253
-0.023039518
0.13851711
-0.031328116
-0.004017195
0.14979345
0.060836393
-0.0022279774
0.11005701
0.07874292
0.16222832
0.022797273
0.040273722
-0.08113644
0.079755634
0.16174431
0.01651024
0.07275557
-0.0828157
0.028292267
-0.027905429
-0.10074881
0.1808489
0.031080127
-0.0706803
-0.030224113
0.03486023
0.09985012
0.097199306
0.095339336
-0.044838294
-0.19714054
-0.13136059
0.02472882
-0.04166178
0.074242085
0.011673435
-0.06368697
0.048700396
0.1515197
-0.096331336
-0.023206
-0.14272068
0.011744203
-0.15590058
0.00773642
-0.09803892
0.11824775
-0.27245292
-0.107970186
0.18042383
-0.22806485
-0.024774285
-0.00760559
-0.122177266
0.06451852
-0.034078132
-0.115507856
0.10163757
-0.11295266
0.05551623
-0.0065838257
-0.022002922
0.16344586
0.17227927
0.12126551
-0.06319696
-0.14550562
0.168739
-0.04598047
0.22498102
-0.11973821
-0.085419476
0.1531664
-0.060151774
0.01956375
0.073480606
-0.050994582
0.004143047
-0.15207744
0.15377137
-0.029288335
0.09156773
0.07516095
-0.28552824
-0.18416548
0.0945582
-0.28710312
0.18283828
0.021113958
-0.16453812
0.051482093
-0.115787536
0.018586272
0.04670293
-0.01492852
0.13048363
0.3818562
0.06948532
0.237711
0.26299235
0.048111137
0.03450729
0.3020946
0.043957584
0.09160639
0.15226483
0.13415004
0.042289153
-0.23985076
-0.00155745
-0.011983913
0.0025307555
-0.01450065
-0.038948797
-0.11297946
0.33492714
0.12927987
0.22328816
0.17507459
0.13199064
0.073997244
-0.09323785
0.0037387186
0.13182786
0.01873773
-0.023542756
0.049178734
-0.09172231
-0.031046575
0.09301586
0.33511472
-0.05923067
0.12507245
0.33119425
-0.058787316
-0.16428551
-0.005910716
0.11449712
-0.27541465
0.30812177
0.004047681
0.10213083
-0.09969644
-0.052667562
0.032066833
-0.31246126
-0.22805807
0.28480667
0.22599505
0.09101749
0.12539957
-0.17161988
0.17088874
-0.13522394
-0.103300564
0.24020867
-0.031994052
0.28416863
-0.048314445
-0.16629364
0.28046587
0.13286236
-0.012922839
0.30115733
-0.31393877
0.12840132
-0.24862526
-0.06736926
0.088840015
-0.15813705
0.20196144
0.15982303
0.19313377
-0.24722049
0.058644865
-0.33491448
-0.25341442
0.08084719
-0.33401173
0.16699058
0.027655575
-0.09049852
0.2130547
0.27701136
-0.0028301384
0.059345186
-0.044948827
-0.21394798
0.09069951
-0.1317777
0.25469244
0.017968515
0.12264897
0.07220866
-0.08055581
0.0531965
0.038427275
-0.074289426
-0.054831263
-0.04116509
0.021855611
0.03425998
0.24668346
-0.113152064
0.16694812
0.1417628
-0.058132164
0.098928116
-0.13234831
0.050572064
0.2669393
0.098256394
0.16560052
0.07460122
-0.01773336
0.11651523
-0.07089658
-0.038927086
0.08268427
-0.010307287
-0.027935376
0.14930847
-0.08651926
0.07181054
0.15555923
-0.1291343
-0.0073747183
0.09910234
-0.22194834
-0.0844741
0.10972533
0.04097454
-0.11363127
0.059937876
0.0568612
0.09965214
-0.38424486
-0.22861707
-0.0734478
0.021657668
-0.026677566
0.1670573
0.03247417
0.078586526
0.018928254
-0.026273085
0.02773704
-0.020572674
0.06342057
0.09019757
0.111475594
-0.013237001
0.09580378
0.1637625
-0.0018138523
0.0026425477
0.027906608
0.013938968
0.22034551
-0.2857068
-0.04475569
0.07623811
-0.17797324
0.23723987
0.13043909
-0.022027582
-0.116807766
0.24526194
-0.17581813
0.13720983
0.08656733
-0.11659889
0.056683686
0.054852255
-0.110146165
0.16786271
-0.2625493
-0.04657871
0.13595374
-0.0635611
-0.04818411
0.053563938
-0.1427132
0.053007547
0.023258075
0.08443706
0.15406477
0.16568151
0.059740297
-0.086987205
-0.1317225
-0.16828296
-0.099264115
0.049788486
-0.23572339
-0.280602
0.093307
-0.035843935
0.12838694
0.1352016
-0.07193989
-0.094006404
0.16429201
-0.055016596
0.10129572
0.014556195
0.13183889
0.19860552
-0.038359165
0.004843959
0.250821
0.15473579
-0.3055207
0.04958836
0.007538406
0.14123406
-0.259699
-0.22109284
-0.039594237
-0.090768136
0.18085538
-0.018210173
0.2340651
-0.14294304
0.2093202
-0.14567426
0.22600725
0.17224401
-0.08461003
0.09197982
0.46387297
0.06210796
0.13192704
-0.08146067
-0.12672016
-0.16159458
0.043566413
-0.0983511
-0.13724335
0.07486909
0.04246083
0.038116846
0.07849112
0.046941593
0.08601244
-0.00458925
-0.014900382
-0.25725216
-0.03196475
0.12763947
0.034234874
0.10426352
-0.19393262
-0.17988275
0.271266
0.03494712
-0.17475134
-0.22088677
-0.25514296
-0.27318078
0.04101333
-0.047350828
-0.14075673
-0.010247497
-0.12335898
-0.18640494
-0.08305041
-0.015787061
0.03970739
-0.35661033
0.033149883
-0.047778975
0.20886639
0.11789976
0.14703432
-0.079490416
-0.31729308
-0.093431555
-0.1759614
0.16792564
0.29758814
0.18386655
-0.09866931
0.080786444
0.028636135
0.08385379
0.14468402
-0.0011700931
-0.120925196
0.08064101
0.06014666
0.25434878
-0.20694657
0.05539231
0.0013114094
-0.018936485
0.1274854
-0.013930721
-0.1004385
0.17121188
0.22974081
-0.036779795
-0.3242852
-0.053975306
-0.10889318
-0.24523424
-0.33926928
-0.2000851
-0.2078131
0.123663306
-0.1016404
0.023816206
0.0032323545
