0
-0.009362123
-0.1684926
0.018585764
-0.18680027
0.0066711507
-0.0364515
0.0045126225
0.008832496
0.16604541
0.23438703
0.025309958
-0.19416788
0.31383777
-0.44372624
0.040898867
0.051796746
-0.043345015
0.019218847
-0.07791466
-0.12280574
0.031212842
-0.020113582
0.3365421
0.18331905
0.022761777
0.016162967
-0.057131194
-0.18427671
0.1430554
-0.276636
-0.076151
0.04887316
-0.105391346
0.03553931
-0.078090906
0.07933583
0.083993725
-0.20153752
0.106417246
0.37733805
-0.09934832
-0.03494235
0.24453157
0.12226895
-0.0020691736
-0.12816216
-0.16410697
0.16146955
-0.12332205
0.20417343
0.062239178
0.31204075
-0.21243902
-0.04956626
0.17767216
0.43725526
-0.13891988
0.02613586
-0.22616701
-0.07530219
-0.13234209
0.10883553
0.09711731
-0.010588153
-0.040267207
0.061853047
0.01983166
0.066396736
-0.07021445
0.02146278
-0.008912666
-0.04896941
0.049267888
-0.055963434
-0.030236922
0.0709086
0.05988118
-0.017100273
-0.0067179594
0.079028755
-0.0010641944
0.017912902
0.018250652
0.014325342
-0.074417055
-0.011786123
0.053681403
0.07030978
-0.05807375
0.040625688
0.0678784
-0.028840018
-0.04752037
-0.0031522773
0.013366736
-0.036603156
-0.04759141
0.076516606
0.0033968308
-0.061387688
0.045763046
-0.027214888
-0.021744872
0.033509348
-0.044453144
0.025606573
-0.059063204
0.06255377
0.045755368
-0.042568192
0.021295937
0.03996516
-0.018775143
0.057222422
0.027473964
0.018048333
-0.07045703
0.09445131
0.076659635
0.076495
0.046232603
0.007509232
0.007854163
-0.024030749
-0.028534422
0.067521974
0.018456018
-0.08331568
0.056136426
0.0062439125
0.02113189
-0.047999736
0.047915556
0.06717735
-0.043804094
-0.061743367
0.045810327
-0.0067610163
-0.001644456
0.042070795
0.03137956
0.078192584
-0.04718056
-0.0004049387
0.034649283
0.076137975
-0.027783792
-0.018330252
0.071776
-0.01943367
0.03394553
-0.07092152
0.036398806
-0.01727179
-0.040485766
0.04984095
-0.06974249
0.053902205
0.08227372
0.028833978
-0.010955073
0.0509565
-0.014379705
-0.039224915
0.035601713
-0.024460832
-0.018625142
-0.02114736
-0.031357575
-0.016074795
-0.026265323
0.012786374
0.08151446
0.019830389
-0.039858
0.09826338
-0.0070431014
-0.022949055
-0.028969899
-0.02537411
-0.036736663
0.08038815
-0.026341382
0.077183045
-0.038718496
0.055627927
0.032469895
-0.050316453
-0.044567402
0.018695943
0.085186645
-0.007193105
-0.1454964
0.029045021
-0.017403368
-0.077888474
-0.032176133
0.02716055
-0.069364294
-0.018609935
-0.5029931
-0.07415397
0.10301628
0.11457762
-0.008803057
0.06261414
-0.06540541
0.09810012
0.08262174
-0.01892644
-0.07054583
0.04170028
-0.31645197
-0.12367666
-0.28877947
-0.15886594
0.22517428
0.051856305
-0.03908438
0.02394647
0.079221345
0.09189886
0.10994378
0.08669489
-0.039082445
-0.15083864
-0.05951915
0.022499073
0.0463373
0.03950388
0.24251421
0.036291543
-0.078175314
0.10553201
0.00030509173
0.0174179
-0.03749309
-0.11986513
0.073440835
0.06871739
0.12142845
0.12541462
-0.31478378
-0.14061575
0.055876944
-0.094950005
0.012741592
0.017594812
-0.059755143
-0.029990373
-0.086271785
0.0116546545
0.04767449
0.10046978
-0.07557608
-0.35799414
-0.024572559
-0.01663127
-0.022659307
-0.12980746
-0.08662669
-0.15889308
0.09559588
0.05091567
0.08531435
0.087830335
-0.11802036
0.2028933
-0.19183005
-0.013832056
-0.17743194
0.08168005
0.020895833
0.025604004
0.11438255
0.031239837
0.08045342
-0.004718997
-0.13424037
0.021388743
0.06337248
-0.077087075
-0.025033066
-0.13218497
-0.11497401
-0.19831473
-0.031903133
-0.0030434397
0.19083059
0.03688556
0.054764405
-0.019435117
-0.093318254
-0.03145796
-0.030991
-0.11299747
0.01347842
0.0335317
0.010729187
0.24227202
-0.009333048
0.117514685
-0.056392856
-0.052268077
-0.12877367
-0.013297554
-0.10854877
-0.08370616
-0.07327447
-0.08648133
-0.08581293
-0.050076712
0.17910959
0.12736504
0.22077216
-0.037724
-0.25823784
0.09151284
0.14184621
-0.08585643
-0.20330049
-0.075629786
0.08602615
0.026340732
0.05755582
-0.05838366
-0.056541834
-0.047913883
-0.1330539
0.08949256
0.09191492
-0.065058336
0.11856166
0.18053934
-0.105537415
0.26225403
0.032735843
-0.0009817698
0.08671695
0.1151462
-0.36732233
-0.09989764
-0.26044902
-0.20373593
0.20585316
-0.0444643
-0.019171568
-0.16128947
0.18778475
0.17230271
0.043246295
0.15359634
-0.026906284
-0.25069535
0.045665298
0.13666347
0.07423992
0.007227485
0.099097
-0.035006713
-0.1350601
0.16133288
-0.042937893
0.15463704
-0.09138802
-0.06391918
0.039689388
0.101633236
-0.04866324
0.101523615
-0.22720796
-0.13673219
-0.093725905
-0.06786735
0.0025978307
-0.014192932
0.09171856
-0.034318246
-0.26641998
0.05388583
-0.012977832
-0.081589855
-0.11066459
0.015203178
0.003605944
-0.28267068
0.19214089
-0.20873849
0.08418233
0.092913814
-0.13487278
-0.37338287
-0.14363998
-0.28627163
-0.10265598
0.030151535
0.10073844
-0.024293834
-0.29293558
-0.000499498
-0.17415546
0.049104072
0.03802295
0.14371045
-0.25812215
-0.11380859
-0.11938497
-0.07139947
-0.13572893
-0.06130816
-0.17099781
0.028555885
0.06587766
-0.050899744
0.22157674
-0.10266274
-0.034800496
-0.04961964
-0.10965344
0.043655794
0.08378654
0.1841997
-0.045132168
-0.1347156
0.066119395
-0.17747843
-0.047117755
0.02635245
0.081495024
0.14712015
0.12336276
-0.20035246
0.32026947
-0.072169535
-0.15318124
0.07277238
0.08670843
-0.3041806
-0.13601144
-0.36021674
-0.17242551
0.04168737
0.011183426
0.20802784
-0.32582784
0.057927497
-0.17941561
0.022123734
0.148406
0.046444803
0.24187805
-0.16521919
-0.15156145
-0.028877761
0.22942847
-0.1449134
-0.032589987
-0.06755344
-0.072738186
0.025992824
0.029602597
-0.014107034
-0.1695646
0.00887029
-0.1970817
-0.029319843
0.12574127
-0.032593973
0.019956863
-0.35983816
0.23495784
0.19882064
-0.15774217
0.3255748
-0.23070775
-0.0016688552
0.17963323
0.010447987
-0.012989009
0.18909407
-0.02453209
0.017937899
-0.12931651
0.062254846
0.04618435
-0.031547643
-0.015176251
0.18694231
0.041608065
-0.055619843
0.18355949
0.0042936886
-0.12088871
0.15203983
0.07045215
-0.0860959
-0.2086865
-0.09182848
-0.4915845
0.14185916
-0.2992715
-0.20674163
0.36059982
-0.008863602
0.15750548
-0.0051090294
0.013631111
0.002376616
-0.16534619
-0.052764684
-0.026286582
-0.0009257467
-0.038689416
-0.038645133
-0.004002107
-0.060272437
-0.12898993
-0.15719873
0.10118227
0.05466429
-0.21026322
-0.053064816
0.037309643
0.08822992
-0.1379763
-0.013252805
-0.093795314
0.16331717
0.10730497
0.03614031
0.0071929917
0.2128924
-0.0703385
-0.04406054
-0.12635486
-0.20261033
0.0120800715
0.03987829
-0.07808422
-0.07082733
-0.0031038406
0.040586982
0.06732201
-0.21712579
0.06678707
-0.14344525
0.07861973
0.08895946
-0.13842787
-0.05836855
-0.1285787
-0.067503914
-0.02401895
-0.0766181
-0.03679892
-0.0031862813
-0.042167053
-0.018759163
0.0877154
-0.029640704
-0.047094744
-0.0959055
-0.07824927
0.055777192
-0.15001959
-0.051456157
-0.011919317
-0.09346055
0.19066134
-0.017900111
-0.0057361387
-0.077382855
-0.11577723
-0.025258701
0.020283299
-0.120284244
0.016001813
0.024841398
-0.08386393
-0.12062798
0.2427655
0.1670201
-0.10643131
-0.062828526
-0.02780128
0.10783723
0.041447323
0.15997085
0.27803564
0.06467122
-0.22352561
-0.065041505
0.11656413
-0.03309934
0.21799956
0.0917385
0.18051614
-0.034875914
-0.04805424
0.29774168
-0.3057686
-0.05923679
0.1288535
-0.23081245
0.11201728
-0.1497
-0.050970968
0.025307883
0.12405891
-0.07422216
-0.10273279
0.13584301
0.08489817
-0.046850942
-0.12842129
-0.06053845
-0.04120695
-0.01975963
-0.13574082
0.04695523
0.2694048
0.08901436
-0.11194711
-0.2262296
-0.24717687
-0.005893894
0.09434344
-0.14876628
-0.10430156
0.28119162
-0.08385575
0.32833752
-0.41520256
0.18423508
0.21956077
0.14940703
0.004700013
-0.15826122
0.10081537
-0.148663
0.07797583
-0.016302045
-0.08456814
-0.16522129
-0.07805197
-0.14506656
-0.36534464
0.058024466
-0.28963673
-0.029001184
-0.015255298
-0.06472576
-0.015815927
0.05536981
0.07912001
-0.09373457
0.048805945
-0.004432641
-0.05035325
0.10367403
-0.09217608
0.016535295
-0.06876336
-0.10452571
0.24202144
-0.02993926
-0.08436089
0.10397043
-0.028270822
0.045827053
0.11036652
-0.1665238
-0.0632004
-0.12636858
-0.02261494
0.1452951
0.17322968
0.0029708578
0.13605836
0.041900065
0.029317372
0.009196671
-0.047693666
0.05869569
-0.014882842
-0.06870224
-0.057655524
0.16367146
-0.07234242
0.06287338
0.061348293
0.19666985
-0.047474332
0.080451846
-0.017681891
-0.04137998
-0.10187851
0.07922838
-0.06404442
0.023874627
-0.03359874
0.0048182965
-0.1442813
-0.16445298
0.061686855
0.10792332
0.04329813
-0.008241325
0.049958035
-0.20386453
-0.043146726
0.07139781
0.11388725
0.24390599
-0.006874142
0.13769963
-0.023790749
0.15285805
-0.24256018
-0.102561384
0.06431056
0.06230817
-0.11026724
-0.014510112
-0.2593866
0.017212333
-0.036065776
-0.08308597
-0.0065738857
0.11475805
0.008931427
-0.09711254
-0.0012184706
0.1053791
0.08151891
0.069907546
0.036174145
-0.058416292
-0.008576216
0.08842936
0.14026284
0.013907911
0.01821315
-0.0044601345
-0.1668816
-0.2571185
-0.04032659
0.1056068
0.10381733
-0.07643123
-0.19300883
-0.0007338412
-0.072241366
0.18350048
0.17679586
0.17048143
-0.083866276
-0.050258063
0.08182258
0.15132442
-0.07602977
0.108772635
0.08095956
0.0653146
0.16680019
-0.039471753
-0.0713025
-0.10017362
-0.00960288
-0.21379857
0.1877829
-0.026352165
-0.08957763
-0.060166582
0.08540223
-0.0024109716
-0.075227834
0.108069025
0.04526678
0.06126961
-0.06993346
0.0678659
-0.09976286
0.11257884
0.062056247
0.009914449
-0.125106
0.08772403
-0.28624487
0.039494447
-0.1193326
-0.15734522
-0.070722945
0.04506994
0.018013349
-0.13979848
-0.1155754
-0.06967624
-0.061692208
-0.09894751
0.083619855
-0.12756404
0.12255687
-0.000923268
-0.08656666
-0.021476718
-0.11195417
-0.021226883
0.053210557
-0.073121406
0.048224732
-0.026922498
0.110762276
0.014130678
0.10135906
-0.054981273
0.08060865
0.02490602
-0.22512338
-0.025549345
-0.0931954
-0.120501
-0.06854606
-0.15862612
0.040930096
0.13416329
-0.01907989
0.0569629
-0.257809
0.01800007
0.036684837
-0.1243812
0.026957845
0.2447855
0.036946397
0.16632675
0.26646444
-0.010203293
0.16330129
0.22262558
-0.05494702
0.051052965
0.18887258
0.0724619
0.16124836
-0.084690854
-0.21535586
-0.23167859
-0.13165067
-0.10854758
0.14286853
-0.029207474
0.19960676
-0.06574551
-0.10266999
0.2346586
0.12759183
0.17268567
0.12777722
-0.061378386
0.25539085
-0.053224713
0.04643749
-0.16979481
0.11107752
-0.04862131
-0.13068065
0.35271323
0.34659725
0.050145507
-0.07027798
-0.11559109
-0.02712506
-0.1260116
0.012378193
0.23989406
0.19661376
-0.058059677
0.055379234
0.071228184
-0.20991348
0.19009688
0.086659394
-0.08684121
-0.020311672
-0.011468588
-0.20960978
0.020947706
-0.2137803
0.21342498
0.20321079
0.08558392
-0.19763729
0.07455274
0.059767205
-0.121090874
-0.036575053
-0.013159561
0.13256913
-0.26235452
0.050308876
0.095171385
0.05113446
-0.22239542
-0.07474076
-0.12774286
-0.04350784
0.017036779
-0.02572633
0.028182125
-0.22630943
-0.17525207
0.051501945
-0.109607324
0.20794079
0.15996611
-0.04962453
0.09098633
0.11542191
0.19183831
0.018766537
-0.011799393
0.0037814013
0.08486502
0.25706956
0.010710769
0.17225501
0.034814257
-0.027077105
0.10622308
-0.3162168
0.017039316
0.13731031
0.1301303
-0.09147206
-0.002483659
0.117505044
0.17756422
-0.002181748
0.0961474
-0.050879214
0.09029018
0.065862894
-0.027884744
0.007125235
-0.043411154
-0.06981787
0.0680457
-0.18669242
-0.06065862
-0.029252939
-0.06965514
-0.12000871
0.057377752
0.044286095
0.054745514
-0.0075972453
-0.06638864
-0.108047746
-0.034129463
-0.071324185
0.16661637
0.064510114
-0.25986776
-0.04135077
0.07277898
0.073419176
-0.009069582
0.071242705
-0.059448503
0.09713336
0.27813023
-0.039166145
0.03766052
0.024531052
0.10513715
0.014004281
-0.054393116
0.26464033
0.16143177
0.10161793
-0.023549506
-0.019431325
0.35284886
-0.10423336
0.17665993
-0.054832887
-0.013176499
0.15735139
-0.14958873
-0.0048928447
0.12767671
-0.09163713
0.07087287
-0.12335881
-0.08826682
-0.20458809
-0.011695189
0.21470848
-0.23360543
-0.048998963
0.015870897
0.02214328
0.20647596
-0.25259414
-0.010392532
-0.12578578
0.0931288
-0.37278858
0.029732455
0.12850721
-0.18107139
-0.111175686
0.018662743
0.11026139
-0.0010659567
0.06174191
-0.01501873
0.21984138
-0.32245973
-0.0019764095
-0.041597813
-0.0143438475
-0.02211275
0.10179213
-0.08338171
0.13804081
0.020943044
0.09188821
-0.018955976
0.001555905
0.16221015
0.087880194
0.097306445
0.3073303
0.0378297
0.031892676
0.04303717
-0.0391786
-0.097801425
0.04167239
-0.04657762
0.2745705
0.17386417
0.12508212
0.028452378
0.13037351
0.3208613
-0.18769489
0.23024663
0.29721057
-0.13654003
0.09494777
-0.11668611
-0.0020878394
-0.0069262725
0.03088258
-0.111674644
0.081108734
0.20015642
-0.031864364
0.0064142407
-0.1786777
0.0007239664
-0.092247605
0.013668871
-0.050215572
0.014389357
0.26851213
-0.05839727
-0.1078824
-0.15679279
-0.15285799
-0.060682528
-0.011542399
-0.20124716
-0.15713029
0.26057106
-0.043438427
0.24790329
-0.37407228
0.2581132
0.09205951
-0.08306165
-0.028912194
0.009174586
0.05957186
-0.16290846
-0.13847646
0.043868933
0.07035233
0.06589057
0.18842031
0.17662495
-0.008432117
-0.28163326
-0.068492755
-0.047877382
0.24831891
-0.15600455
-0.073347144
-0.0090912245
-0.04675085
-0.036283124
-0.074978806
-0.110286966
-0.12969999
0.013287765
-0.15014513
0.11031421
-0.09577927
0.008153609
-0.51337224
0.004160156
-0.008899495
0.23353477
0.20826988
0.022549478
-0.024204267
-0.21187936
-0.52226704
-0.041014466
-0.40719303
0.21447091
0.1664859
-0.08384945
-0.047768246
0.03481367
0.028703263
-0.33082658
-0.16655195
-0.07766963
-0.17810586
-0.04210261
0.095689505
-0.13246989
0.09490935
-0.25309545
-0.016947588
0.24835189
0.034997325
-0.121671066
0.16914526
-0.08520438
-0.12433198
-0.08307738
-0.10774013
0.27698952
0.04772377
-0.05903628
-0.22935498
-0.10692559
-0.141956
-0.03372461
0.14464885
-0.07415746
-0.024131145
-0.02798748
-0.03989881
-0.026757209
-0.2746869
-0.009765087
0.17691354
-0.026106114
-0.026629657
0.24249433
-0.10023983
0.14358817
0.051051382
-0.09844928
-0.20429166
0.087920375
-0.59602773
0.02019383
0.023235697
-0.07840643
0.14650795
0.04700897
-0.08239303
-0.17266202
0.011756204
-0.11013072
0.06633898
0.19535494
0.056787312
-0.34998488
0.0158498
0.046682082
0.10391409
-0.095624685
0.07978612
-0.12810086
-0.028293097
-0.080340244
0.041644827
0.060600214
0.06608758
0.13742878
0.036547057
0.07018492
-0.04868467
0.05107305
-0.2553568
-0.08302336
-0.13052766
-0.096801706
0.042309307
0.019644197
0.23504733
-0.02540449
-0.13121001
-0.115888365
-0.07594304
0.081630915
-0.04157952
-0.20593815
-0.0034287828
0.1675136
0.05657911
0.20710534
0.1310319
0.011130588
0.042680744
0.18015686
0.066998236
0.11797573
-0.15346844
-0.089477375
0.23627584
0.10263005
-0.25114655
-0.20010619
-0.084957734
-0.016293438
0.120983034
0.02993237
0.20782669
-0.118031
0.02255617
0.31175393
0.20981424
0.27771786
0.07664172
0.0030119636
0.042366333
0.05687427
0.24859934
0.18660961
0.07953905
0.02265022
-0.31117505
0.2358759
-0.15632345
-0.004148802
0.08521033
-0.2690422
-0.15256168
0.021209365
0.010046868
-0.108743295
0.042837955
-0.25606853
0.07555266
0.082163915
0.037523814
-0.14991744
-0.29037702
-0.017638875
0.04244481
0.00733234
-0.055491604
-0.09512113
0.01164223
0.16287366
-0.08182036
-0.40864447
-0.65925264
-0.0007821846
0.011802338
-0.119242
0.13741595
-0.31094012
0.08456605
-0.54062885
-0.50665027
-0.26854193
-0.15831831
-0.07023835
-0.001396805
-0.31011066
-0.013562736
-0.010121189
-0.09071426
0.10039508
-0.1971276
-0.093010835
-0.23873395
0.08567744
0.19983344
0.07016126
0.05930937
0.010885126
-0.102488056
-0.07427594
0.03619996
0.1136908
0.01861563
-0.0249494
0.27684265
-0.08888827
0.11477666
0.07338801
0.012185561
0.08807194
0.09925911
0.055546567
-0.42453054
0.11394378
-0.065095544
-0.36250064
0.42568493
0.47377253
0.05050705
0.1779328
-0.20663898
-0.17944717
-0.20197532
-0.14684635
-0.41905996
-0.069819994
0.038586743
-0.13045436
-0.5528101
0.02930359
-0.029521775
0.17768738
-0.22489703
-0.042946972
0.036372464
0.025090259
-0.046669483
0.017263966
-0.050905716
-0.17246108
-0.01693776
-0.7023576
0.15835473
-0.52787685
0.12911291
0.08166055
0.07752896
-0.26972777
-0.12338654
0.06558236
-0.37010404
-0.18158108
0.15510827
-0.5213162
-0.08422056
0.24589932
0.19031546
-0.18340452
-0.0042212815
0.19656892
-0.093624085
-0.7251278
0.016088068
-0.08791568
0.18061438
0.01600897
-0.44502735
0.18199666
0.031738553
0.09476017
-0.10823036
-0.052331325
-0.06383828
-0.16446342
-0.4446827
-0.26723182
-0.039300624
-0.23753361
-0.38660893
-0.31092155
0.06257318
-0.26107126
0.09621607
0.08372957
0.026899481
-0.09222768
-0.019999651
0.13373588
-0.11965862
0.06363079
-0.11631549
0.14801295
-0.0862715
0.07226169
0.13893951
0.1863241
0.13937555
0.197556
0.1061111
-0.09076329
-0.2973331
-0.2523788
0.08860666
-0.23332156
-0.12042204
-0.019086907
0.101572834
-0.02978896
-0.03797196
0.03669252
-0.08322186
-0.07741555
-0.0095716845
0.1189119
0.10397126
0.1234862
0.03038566
0.0036505864
-0.044334967
0.09471681
0.08770819
-0.07739174
0.022912262
0.092480525
-0.19009776
-0.058173615
-0.10671246
-0.0031000695
-0.034893066
0.044743095
0.10464631
0.12701622
-0.13133845
-0.07078691
0.03192544
0.014524964
0.064041264
0.068479724
0.021946609
-0.08008588
-0.005274014
0.061053105
-0.16468695
-0.04546236
-0.0029987674
-0.049043346
0.04685852
0.043209646
0.11774738
0.20715229
-0.031577356
-0.03281838
0.06495418
0.017420659
-0.021877276
0.008412189
-0.035903182
-0.082953565
-0.0952444
-0.093994826
-0.09217757
0.22296055
0.019954376
-0.10635679
-0.17440484
0.010746633
0.06065594
-0.15265018
0.08682107
0.20134544
0.14214583
-0.107925616
0.114811935
-0.012898501
-0.095219895
0.15248892
0.04927957
-0.007904145
0.012475202
0.03991277
0.042445336
0.063250795
-0.22205114
-0.014183926
0.106987506
-0.08266336
-0.12530385
-0.057783745
0.1638425
-0.07561743
-0.106730156
-0.03545745
-0.055737436
0.07646245
0.076966405
-0.090999804
-0.060142584
0.043716487
0.100701645
-0.0015803415
-0.018831115
-0.06595164
-0.12984987
0.05800934
-0.010801451
-0.0029791188
-0.026509048
0.014410443
-0.15490209
0.09069363
-0.059545867
-0.034816805
0.027784823
-0.15020916
-0.05104554
0.07430022
0.2921292
-0.018890338
-0.2198014
-0.04063306
0.07731176
-0.052805502
-0.1388323
-0.06829316
-0.0054504965
0.13810682
-0.14936613
-0.15570165
-0.5879423
0.1335576
0.080535665
-0.075956814
-0.053813025
-0.0659411
0.16445059
-0.3321138
0.044370055
-0.04731804
-0.013158734
-0.12374044
-0.065194026
-0.043163173
-0.28457147
0.011215062
0.010092471
-0.016743096
-0.36634457
-0.06988804
0.024166252
-0.04194669
0.027198216
0.11035421
-0.107758135
0.008021358
0.03938214
-0.005754607
-0.10960392
-0.09225495
-0.29015145
0.14716409
0.233088
-0.06899497
0.06749028
-0.040221464
0.007138123
0.09343399
-0.44523934
-0.0103514185
0.017331522
0.07499902
-0.35188106
-0.26551804
0.24226882
-0.09678615
-0.015539357
-0.010220116
-0.15259115
0.082474776
0.04774973
-0.1877567
0.11535865
0.022799866
-0.11115356
0.039913207
-0.35866383
-0.30376774
-0.09098777
-0.034635242
-0.20335609
0.18020801
0.15928674
0.17365804
-7.512787e-05
-0.20897496
-0.1492748
-0.14285858
-0.053408287
-0.069541484
0.19019198
-0.027388109
0.1571107
0.065745845
0.07607743
-0.10697406
0.015976157
0.032787587
-0.17785951
0.021767544
0.07691499
-0.013930243
-0.16140503
-0.08144624
-0.0070141233
-0.052300982
-0.09400895
0.046993118
0.13430648
-0.12432201
-0.1023272
0.031193517
0.31076673
0.21374638
0.03950088
0.17040716
0.06482555
0.12614046
0.16634405
0.023319518
-0.08509196
0.03636641
-0.38864663
0.12993748
0.05944652
0.11743093
0.052662607
-0.15496984
-0.12242029
0.09596672
-0.12015703
-0.056971908
-0.03147403
-0.2853678
-0.059396986
-0.0419503
0.13129461
-0.08696358
-0.13539885
0.019632014
0.052445494
0.014903093
-0.07282822
-0.096422374
-0.13451451
0.20521274
-0.09417346
-0.25058988
-0.38640144
-0.014977339
-0.021752372
-0.046111718
0.0064829197
-0.0813427
0.099956475
-0.03831
-0.48480964
-0.073615916
-0.19670577
0.054755066
0.13347681
-0.23995925
-0.017305506
-0.016006473
-0.16318898
-0.025198646
-0.065610066
0.01335836
0.10111325
0.009752019
0.07098254
0.15782635
0.033163536
0.16630739
-0.074218795
0.00016612002
0.10227181
0.14723669
0.1952639
-0.0043751528
0.12206388
-0.049392954
-0.06388264
-0.06505
-0.031350452
0.010725004
0.09357978
0.13249502
-0.5108681
-0.07582827
0.023205176
-0.055904236
0.1590255
0.13233706
0.008385019
-0.00924231
0.06072863
0.007234445
0.015135991
0.058161065
-0.18308182
-0.09037427
0.050514553
-0.14589462
-0.11958712
0.10089687
0.012977282
0.008323096
-0.21678895
-0.0030217324
-0.062117245
-0.023293303
-0.090289935
0.1305501
0.08457593
-0.008615536
-0.059522115
0.36588803
0.035783235
-0.0037649444
0.024501191
0.1529034
-0.09005416
0.13484508
0.032272495
0.0046526534
-0.06583013
-0.08758741
0.11515665
0.044152085
-0.2334525
-0.14737369
0.11450378
-0.02541207
0.06472567
0.011406422
0.036738098
-0.10868015
-0.12214467
-0.0544696
0.04458919
-0.0059317593
0.15949737
-0.06259527
0.10736213
-0.10365648
-0.011134596
0.0100032315
-0.028972123
-0.07839739
-0.16627698
0.05389791
-0.06612118
0.040398646
0.06523795
0.13651814
-0.39235708
-0.012439943
-0.13972147
-0.02465452
0.08331137
-0.09919219
-0.09269703
0.067594275
0.1403117
-0.07545522
-0.3424057
-0.05270144
0.0059993356
0.023199987
-0.05036573
0.026866395
-0.066598654
0.07895964
-0.06923791
-0.100573935
-0.5135354
-0.06616544
0.00043859764
-0.16095254
0.028062949
0.105512455
-0.029102433
-0.07262153
0.11056112
0.23908111
-0.12068536
0.0035401508
0.017062506
0.2627863
0.16026941
0.09831212
0.006561735
0.03583211
-0.014320651
-0.0033997665
0.14735433
-0.023080522
0.22661217
0.061278027
-0.0069991425
0.022893596
0.08501737
0.2696597
-0.30907694
0.0033452525
0.13494402
-0.12951419
0.09696108
-0.1358666
-0.08270936
0.01478079
0.110243075
-0.049730152
-0.007728858
0.045779128
-0.11574747
-0.07838262
-0.14502199
0.038974274
0.011399951
0.06684839
-0.050081514
0.05589915
-0.042736765
0.028980073
-0.27542737
-0.29451516
-0.12063069
0.038804997
0.04990836
-0.1304611
-0.0036122475
0.24826893
-0.057181552
0.2762015
-0.06174773
0.16031718
0.18250194
0.05491431
-0.0437926
0.03440525
-0.003205653
-0.047894698
0.2397898
0.095870115
-0.0014533983
-0.046691503
-0.2365231
0.021008918
-0.17738906
-0.27320087
-0.0426128
0.0097366255
0.025397835
0.004441967
-0.12490904
0.13139482
-0.08623562
0.16753076
0.0076318462
-0.10824789
0.057825204
0.008043827
-0.051989615
0.15368895
0.19247039
0.03247308
-0.39673635
-0.21943061
-0.069060616
-0.03922045
0.20480926
-0.06528761
0.10699913
-0.05527798
-0.037604388
0.00069248263
0.14620459
0.16338019
-0.017907387
-0.12832469
0.056734476
0.0097988555
0.19848612
-0.08709055
0.07253239
-0.030468427
-0.027510365
-0.04234604
0.003890142
0.0804626
-0.30435044
-0.09142231
-0.15898952
-0.108233556
-0.26624072
-0.14506187
-0.098987006
0.044633035
0.011725393
0.032888424
-0.026970409
0.0046945726
-0.008006914
0.051050764
0.0590782
0.03529352
0.034274083
-0.1015181
0.12664011
-0.18501225
-0.27477238
-0.035945635
-0.13876362
0.047435906
-0.050368562
-0.35131875
-0.03134004
0.092174985
-0.18871278
0.06374076
-0.24998131
0.05882578
0.15284972
-0.03546645
0.18190193
0.12678643
0.14043069
0.092461556
-0.1805966
-0.076347634
0.04546409
0.081656456
0.0966619
0.022831155
0.058943193
0.013026961
0.07916169
0.04820333
-0.057356276
-0.07344314
0.015528616
-0.008118594
-0.41379622
0.0010747106
-0.011643621
-0.13819166
0.11719464
0.024331834
-0.06925648
0.06828314
-0.24953747
-0.2818721
0.023790056
-0.07508547
-0.18311808
-0.0016917249
0.024392061
-0.24623555
-0.11997118
0.018505538
-0.027420035
0.05404713
-0.06516571
0.065354675
0.06083855
0.0061714733
-0.08938214
0.009601233
0.0013922171
-0.09673565
-0.015581928
-0.7399004
0.13011873
-0.32258376
0.063834466
0.02623484
0.1636879
-0.505572
-0.3650869
0.051394064
-0.14804512
0.015243751
0.14666656
-0.21591122
-0.015212078
0.3577434
0.19229858
-0.04226688
-0.18298267
0.09480079
-0.81570405
-0.5026895
-0.19328816
0.13945015
0.07182679
-0.18094605
-0.24697328
0.0068397224
-0.048211955
0.011037275
0.22747456
-0.01589276
0.039195523
-0.080645785
-0.18321785
-0.099904284
0.050119933
-0.09112047
-0.0701047
-0.07626596
-0.099633604
-0.11354752
-0.13460478
0.2586362
0.19576547
-0.10298274
0.15262297
0.12199304
-0.26525778
0.2723373
-0.016563492
0.09849733
-0.006619832
0.1878793
0.0020287195
0.010261477
0.2981199
0.22347564
-0.17722642
-0.3033865
-0.28774542
-0.47787526
-0.01789127
-0.036661986
-0.16243285
-0.38756225
-0.07398439
-0.23350725
0.055552416
0.065013304
0.06255054
0.11711494
-0.029106028
0.16815405
0.16724034
-0.06519961
0.27594548
-0.48725393
0.25026238
-0.12592222
-0.03259506
-0.1477106
0.21301131
-0.17850293
0.36874348
-0.31974143
0.21441567
0.106983565
-0.04590254
-0.034287266
-0.11317836
-0.17486331
-0.12608285
-0.23560444
0.03263589
-0.04208351
-0.03442683
-0.014951563
-0.2245738
-0.20610988
0.010744861
-0.12496202
0.092379995
0.3154563
-0.23281243
-0.17556588
0.08155908
-0.05018025
0.034130532
0.22130272
-0.0013922256
-0.012298943
-0.037733473
0.011893118
0.15995559
0.16052693
-0.25738278
-0.033905268
0.2306184
-0.019343467
0.055675678
-0.005301433
-0.06953549
-0.14909968
-0.1592404
0.24668588
0.13541342
0.024399647
0.07002673
0.036221422
-0.016200408
-0.045531314
-0.059436556
0.0067700567
-0.04245963
-0.01446674
-0.055755243
-0.032175045
-0.033550628
-0.07471702
0.0764176
-0.018647177
0.03880174
0.008563007
-0.033194948
0.0029155905
-0.06173624
-0.03346923
0.083128735
-0.02134649
0.011478584
0.060780607
-0.013028695
0.058831356
0.064042576
-0.058070812
-0.010018962
-0.04570369
0.044318687
0.038370747
-0.0762051
0.0722936
-0.07086993
-0.08247708
0.0027969107
-0.006464162
-0.082507715
0.04444546
0.041168347
0.04441426
0.030153086
-0.06918963
-0.006610905
-0.03910318
0.057308014
0.04154963
0.052132934
0.052498277
0.06292168
0.030557692
0.032522146
0.059824277
-0.061651282
-0.015840985
-0.07060959
0.005885912
-0.025186377
-0.06773863
-0.02768472
-0.07084036
-0.026605226
0.032454707
0.059979327
-0.030743772
0.021381663
-0.07008482
0.04182832
0.076444134
0.017143628
0.07836811
-0.0664577
0.0064097373
-0.067022786
0.06996316
0.064736366
0.09081051
0.039064534
-0.03712433
-0.043348473
-0.018184336
0.031585947
0.078492895
-0.0015452084
-0.016819324
0.087963685
-0.06419196
-0.037347794
-0.05606091
-0.0021980845
-0.087823234
-0.05742078
0.061128028
-0.040603213
0.002890211
-0.09780009
0.025236594
-0.08609912
0.043504935
-0.053373296
0.06509594
-0.056313418
0.046186876
-0.04712944
-0.052487087
-0.0005676499
-0.043410577
-0.050191883
0.033163697
-0.018115547
-0.02950391
0.04019234
-0.043164518
0.023167267
-0.064971454
0.040112104
-0.0016292878
-0.07236483
-0.06389051
0.021164224
0.025029806
-0.045031756
-0.012839118
-0.036281407
0.027496673
0.06382154
-0.04409534
-0.2609337
0.015007685
0.121486396
0.08693383
0.092947565
-0.022403898
-0.092932515
-0.08927782
-0.5977208
-0.040197853
0.06300277
0.033104703
0.019703113
0.08754103
0.12670392
0.015039434
-0.09122804
-0.12265417
-0.046101183
0.07730641
-0.31920883
-0.053313237
-0.4769346
-0.07269863
0.21540402
0.04233933
0.13820443
-0.029714199
0.20004062
0.23990083
0.14206219
0.046965677
0.012581285
-0.28205496
0.029708203
0.003459723
-0.054940946
-0.07847199
0.03044358
-0.034192905
-0.24907601
0.0052243685
0.052304648
-0.010487705
-0.046315312
-0.10880138
0.011061856
-0.0035974428
-0.27459744
0.091099665
0.012003907
-0.31053996
0.0057152677
0.034435663
0.026489295
0.05417462
-0.027215833
0.010247434
-0.08185971
-0.00086080295
-0.08817272
0.05391466
0.055848457
-0.2601032
-0.13854286
0.14991859
0.057522196
-0.21242842
-0.15406685
-0.08849135
0.06275129
-0.03343912
0.110072486
-0.010546884
-0.04353465
0.22276664
-0.03270994
-0.059243977
-0.08270478
0.14898689
-0.02911726
-0.04734911
-0.05311902
0.087363765
0.1678093
-0.08900906
-0.19998476
0.0049641007
0.0376812
0.017305462
-0.09388601
0.03618985
-0.022709882
0.0017318702
0.058569845
0.099328175
-0.0073759076
0.07691992
0.04745822
-0.14996152
-0.04623685
-0.09837394
0.081696555
-0.010474346
-0.07892954
0.033279024
-0.22291574
0.30321705
-0.05530342
-0.27886596
-0.11017368
-0.0838493
-0.19151893
0.21575305
0.052956317
0.079124525
-0.13871019
-0.030805765
-0.10200897
-0.030031128
0.2081182
0.027358472
0.10380278
-0.41214174
-0.15776259
0.06605209
0.016645446
-0.28084928
-0.41072646
-0.051390287
0.037759118
0.06981967
-0.0049436316
0.0025909222
-0.19649099
0.01982852
-0.38454527
-0.109863974
0.1413706
0.0061250883
0.12455804
0.07589353
0.025670094
-0.012670961
-0.026798477
-0.075034425
0.095111445
0.15817218
-0.496202
0.04506937
-0.20980696
-0.040798392
0.15702905
-0.0016452614
0.09612178
-0.021529125
0.09030614
0.15701021
0.13596243
0.07627905
0.17416379
-0.57987916
-0.09381964
0.14255686
0.034962762
-0.20996515
0.2420423
0.017359704
-0.26564443
0.1500403
0.000252046
0.095124565
0.022252738
-0.105422676
0.070211835
0.055536915
-0.095866874
0.1745113
-0.0077963397
-0.064071044
-0.032706294
0.17120162
0.04810827
-0.010517522
0.12335548
0.02938603
-0.2212424
0.13877937
-0.17443864
-0.023646826
0.02530508
-0.0671487
0.17187245
-0.10303413
0.13479441
-0.030756824
0.023326991
-0.03603271
-0.15767269
-0.09421672
-0.081783816
-0.2154266
0.021576313
0.055470943
-0.14571692
0.054450776
0.07653855
0.15729064
-0.20444097
-0.05095881
0.09024707
0.07201747
-0.19212723
0.101678215
0.00895963
-0.043329876
-0.17221756
-0.014247172
-0.031374704
-0.24784747
-0.058204018
0.06594145
0.13167766
-0.12231851
-0.044929516
-0.15631141
0.053180538
-0.031481475
0.08019846
0.026098689
-0.118882746
0.10087679
-0.27644956
0.01722119
0.058512945
0.05427104
-0.02739772
-0.070252135
0.04530587
-0.24612938
-0.010971269
0.027710294
-0.44239807
0.030857418
-0.030569335
-0.11436568
-0.22071
0.10420975
0.016350823
-0.118060224
-0.049256057
0.02990224
-0.531138
0.015177584
-0.03922152
-0.07212815
-0.10177554
-0.14212207
-0.066884376
0.087617576
-0.012646662
0.035521787
0.18219723
-0.04716095
0.004522779
-0.028750084
-0.0255577
-0.029349081
-0.16431649
0.0128585035
-0.010578809
-0.04752166
-0.17998782
0.09125973
0.0656325
0.026728956
0.092055865
0.0068373065
0.0988755
-0.08243259
-0.05801931
0.16513121
-0.060599025
-0.122747965
-0.095544785
0.009602872
0.027365042
0.12135568
0.1981076
-0.13259624
-0.2107182
0.024990546
0.008815039
-0.21852207
-0.028797781
-0.04528846
-0.06345882
-0.03284165
-0.09054604
0.0956398
-0.11501719
0.19362025
0.029786088
-0.16119231
0.07585972
-0.05273326
-0.59619105
0.23654445
-0.17749944
-0.18867452
-0.005459031
-0.06518077
0.048581827
0.03180068
0.017068109
-0.28200108
-0.25015357
-0.07519037
-0.110502526
-0.10028272
-0.27475312
-0.133034
0.12485045
0.005935212
-0.086006805
-0.085702986
-0.0982272
0.05507965
-0.15943764
-0.087188855
0.042394873
0.064895764
-0.06574196
-0.08769533
-0.071543574
0.08200905
-0.02740803
-0.05032759
-0.1024282
0.17693661
-0.12329545
-0.034601104
-0.19886677
-0.06337916
-0.022861011
0.089988984
-0.0023770954
0.0044895196
0.13992535
0.112961665
0.03372739
-0.20703381
-0.0062594516
0.04581316
0.008130103
0.13970251
-0.14708237
-0.012555206
0.025037985
0.1460206
-0.111353025
-0.15532124
0.0035388707
-0.1360479
0.05322817
-0.26281697
0.04091561
-0.018705463
-0.4211197
-0.068398505
-0.05965013
0.103139825
-0.1999728
0.06282158
-0.033888713
0.085671164
0.007865949
0.07061751
-0.0870751
-0.050521526
-0.12992948
-0.048734464
0.053403728
-0.0870995
-0.057136122
0.18168476
-0.007017796
-0.06425094
0.1664917
0.2061421
-0.12728426
-0.012200993
-0.0033240723
0.07049606
0.10529817
0.1950053
0.005510682
-0.016826918
-0.26573986
-0.21403371
-0.02711035
0.0678196
0.0967659
-0.09774104
0.035756618
0.13738096
0.010766668
0.39183262
-0.2615517
-0.12344274
0.15757671
-0.31159046
-0.05862455
-0.2707128
-0.13688792
-0.011282566
0.1837548
-0.03852667
-0.18454103
0.17378378
0.20888077
-0.11713538
-0.33457842
-0.06531329
-0.060875576
-0.056556586
0.08058343
0.10089525
0.26975307
0.05255884
-0.25948304
-0.20649706
0.12269773
0.13503492
-0.13315026
-0.15753826
0.0015127856
-0.020178683
0.028048992
-0.107147954
-0.41845083
0.15635002
0.34382844
0.19617665
0.031421322
-0.12896343
-0.2256325
-0.10478167
-0.232548
-0.36980096
0.109981924
-0.08059273
-0.2569736
0.062171984
-0.36992192
-0.019462995
-0.052724972
0.13726933
0.097184144
-0.17761455
0.13805719
-0.40094897
0.11380815
-0.0016845132
-0.06674164
-0.1355811
-0.2193123
0.081597
-0.1754643
-0.09084573
-0.055699874
-0.011596086
0.12697922
-0.046264935
-0.16454351
0.25177357
0.041441202
0.10323182
0.27762088
-0.20288579
-0.24251729
0.13267674
0.11427021
0.02639351
0.30177504
0.068189576
-0.034612633
0.033721384
-0.21747582
-0.15167761
0.03260613
-0.15043445
-0.20729643
-0.11431942
-0.18120366
-0.06542704
0.28826624
0.010000175
0.05637285
0.21653879
-0.29488733
-0.021880526
-0.0554419
0.01713153
-0.35235018
-0.10166719
-0.15723695
-0.011230841
-0.24132143
-0.12555641
-0.056538764
0.11975581
-0.20138602
0.02872814
0.015539865
0.14310001
-0.10863593
-0.27061263
-0.09069124
-0.114838414
-0.07597324
-0.002989756
0.08323803
0.07935732
-0.15157928
0.096203536
-0.1254509
0.09447745
-0.043197792
-0.08671735
0.028419575
-0.1706461
-0.110119626
0.119310156
0.047515117
-0.086198986
-0.20085397
-0.0021981883
0.18172157
-0.04505993
-0.02981425
0.113073
-0.10318704
0.06143227
0.13191546
-0.261869
0.017100573
-0.05526149
0.14170933
-0.064769424
0.04744689
0.055024806
0.0080431085
0.02007918
0.0584818
0.17471677
-0.07953828
0.007984276
-0.03849168
-0.0605676
-0.092344746
0.10357788
0.015451807
-0.1635956
-0.1919315
0.09597583
0.12877724
0.1578553
-0.039304536
-0.01355873
0.0068649943
0.33438888
0.10347053
0.103113644
0.21995689
0.15107252
-0.11344691
0.07548396
0.045616988
-0.13495183
-0.13985652
-0.04654542
0.055274114
0.0003179958
-0.11617614
-0.13188964
0.12603764
0.04358206
-0.2106411
0.07290718
-0.004105045
0.07724115
0.03841537
-0.08118687
-0.06426517
0.23936339
-0.106730215
-0.037630405
-0.121611446
-0.077794306
-0.0010444184
0.06341463
0.014965783
-0.056850024
-0.046670586
0.008910838
-0.000644819
-0.019149845
0.012625457
-0.101081
-0.0029704892
0.012459666
-0.0917873
-0.062562615
0.06035035
0.021083469
0.013652503
0.07944844
0.08413258
0.01619407
0.065637924
-0.024285832
0.045502868
0.027546689
-0.08704025
-0.057573963
-0.13650908
-0.16807629
-0.118995756
0.08457672
0.10175815
0.10213379
0.074810736
0.057245474
-0.04797885
-0.08248554
-0.26732796
0.08901483
0.20699345
-0.055055223
-0.19348215
0.2660731
0.094968945
0.1698498
0.3087206
0.10118059
0.014486266
0.03090879
-0.11956365
-0.045641877
0.09145289
0.10523026
0.015257291
-0.033898402
-0.22053617
-0.35759425
-0.13658725
-0.1890464
0.104052156
-0.23834042
0.18803279
0.072231874
-0.008787296
0.4218709
-0.053555105
0.07465493
0.016917411
-0.01475719
0.14570391
-0.14124824
0.08200927
-0.15840232
0.028697183
0.039339792
-0.21119437
0.068869345
0.346272
-0.017757596
-0.09480142
-0.10948585
-0.11606369
-0.046780914
0.0386533
0.097309284
-0.11119686
0.09498382
0.003039885
0.08212716
-0.04375008
0.10934858
-0.1427958
0.15102221
0.13590054
0.021693459
0.004987834
-0.11651207
-0.27165702
0.1673093
0.28666735
0.19193241
-0.17200455
0.0032112906
-0.21492007
-0.1251846
0.19875297
-0.15684417
0.03651309
-0.18952811
-0.034891263
-0.15223983
0.013230117
-0.16805534
0.1288935
0.00037310307
-0.31487477
0.068422005
0.07831352
-0.08156211
-0.36947325
0.03065351
-0.0458113
-0.14890741
0.18117161
-0.025394486
-0.21841104
-0.010769064
0.18211809
0.064287595
-0.023296446
-0.17221175
-0.24481222
-0.06448065
-0.12343303
-0.23777293
0.02861202
-0.14044529
0.018548995
0.14865641
0.14649574
-0.43145362
0.13719831
0.121096455
0.0069967196
-0.33914456
0.011688207
0.29853374
0.05261807
0.10378584
-0.1056591
0.22552638
-0.26175398
-0.1286233
0.029356984
-0.043772966
-0.28904536
0.21293019
-0.23757842
-0.4335951
-0.09373019
-0.27899492
-0.2060953
-0.091557465
0.06550538
0.05705315
-0.06609281
-0.013375018
-0.14861175
-0.07239336
-0.16500287
0.17679875
0.07956185
-0.13791966
0.06035322
0.027541295
0.16289485
-0.020883761
0.11641269
0.03829317
-0.09864102
0.11515502
0.14388993
0.09412591
-0.095263794
0.121800095
0.023835983
-0.08381946
-0.05377664
0.12220454
0.12096055
0.046268027
-0.075707294
0.12759162
0.11510222
-0.013436981
-0.27710027
0.19964355
-0.040240925
-0.18520233
-0.044000182
0.14301427
-0.041597083
0.20104541
-0.12952772
-0.1990831
0.121092476
0.06732393
0.20963041
-0.3938036
0.15918033
0.08762793
-0.21811494
0.27213192
-0.17871313
-0.004971431
-0.12517746
-0.011510321
-0.24322814
0.20750464
0.19685014
0.05733851
-0.18501244
-0.053941842
0.029284317
-0.16016796
0.07560678
-0.090513945
0.20955832
-0.4776006
-0.02302753
-0.02627659
-0.07501479
0.08066953
0.061175052
0.057443902
0.13122605
-0.04967973
0.0825151
0.06396115
0.0077993562
0.029267171
0.08329377
0.09319099
-0.008447605
0.03244887
-0.18805674
0.0230439
-0.15329851
-0.083599366
0.14314954
-0.13154553
0.12809053
-0.021855703
0.14131652
0.09707204
0.12961222
0.38286486
-0.27270404
0.11620017
0.12279687
-0.09590852
-0.06891778
-0.1755398
-0.051058106
-0.06699154
0.1024284
0.06654933
-0.100542046
-0.028993333
-0.052718703
-0.06283073
-0.41464978
0.0809516
0.03744371
-0.004494045
0.07655558
0.06759747
0.15029946
0.12847067
-0.10653359
-0.20065993
-0.0072839735
0.006133066
0.08153232
-0.079453796
-0.15003884
0.16727574
0.071465395
0.14677355
-0.19873287
0.06688283
0.21649157
0.14372806
-0.034986287
-0.038458563
-0.08170184
-0.056401696
0.35035166
-0.3374119
0.1775986
0.16392007
0.109219275
0.1611295
-0.043923315
-0.21068053
0.11931803
-0.064550854
-0.059577532
0.12916964
-0.12266522
-0.0009255275
-0.022595072
0.39413053
0.085893735
-0.14221157
-0.116417795
0.0483142
-0.21847355
0.13200547
0.039686043
-0.1985839
-0.28371894
-0.3059834
-0.11587219
-0.3461004
-0.12073259
-0.05218251
-0.002495898
-0.14264177
-0.20062554
0.0698175
0.029861948
0.10760661
-0.08555445
0.16457155
-0.13123947
-0.18512928
-0.07463542
0.07469439
0.17050144
0.113151215
-0.20387997
0.047339804
0.043341577
-0.37011784
-0.09666534
-0.045693196
-0.28043312
0.28043565
0.07220198
-0.16720054
-0.19240665
-0.13995042
-0.114741445
-0.36442694
-0.24131128
0.16580278
-0.26840132
0.053344175
-0.19934854
-0.08446234
-0.42523208
-0.032122064
0.13182133
0.052703682
0.018221853
0.014949179
-0.03829554
0.015218738
-0.046683826
-0.010021296
0.20739727
-0.047150686
0.047205772
0.09167381
0.074809365
0.15105645
0.085088186
-0.09359314
0.052557476
0.10534509
-0.36101156
0.1186593
-0.12375851
0.07265514
0.093480535
0.0097407065
0.117897615
-0.2025626
0.06758904
0.20010799
0.16302939
0.0195135
0.1142568
-0.55133843
0.12256763
0.09055509
0.11574233
-0.35387886
0.11188266
0.036762293
-0.097919464
0.010840037
0.013696502
0.0960468
-0.05188888
-0.01226518
0.04653249
-0.055670686
-0.19913553
0.07422091
-0.16893256
-0.11545989
-0.074594386
0.1384133
-0.00049952575
0.09743771
0.1405432
0.075119875
-0.07796816
0.01244492
-0.09197912
-0.046797004
0.117913626
-0.2061686
0.08121262
-0.17174162
0.09722662
-0.0016639442
0.14343093
0.10724326
0.078741744
-0.25341222
-0.050644506
-0.04140897
-0.25858918
-0.053257693
-0.011845212
0.0040871855
-0.15452178
-0.06636713
0.025431128
-0.11312543
-0.20135275
0.0030016708
0.3104554
-0.14844231
-0.11088121
0.17455347
0.3101215
0.16075431
-0.17871737
0.12301329
-0.17256983
0.0069141784
0.102597356
-0.007512307
-0.22798018
-0.05900292
-0.19037585
0.1382736
0.100478746
-0.043985136
-0.0070906226
-0.46504042
-0.39326745
0.055450395
-0.24576534
-0.013380578
0.078034736
0.026538366
0.050987225
0.029898087
-0.056097098
-0.21276753
-0.31078044
0.19626479
0.0021239992
0.08626374
0.09921083
-0.16975303
-0.17963205
0.04675546
-0.06189153
-0.3339052
-0.7014512
0.083331235
0.07857753
0.00314848
0.063355215
-0.5436175
0.14184146
-0.62179315
-0.60848355
-0.24288611
-0.12481007
-0.26258212
-0.017416198
-0.12474014
-0.29104128
-0.22156796
0.13945132
-0.40956905
-0.18357204
-0.051698357
-0.16213737
-0.18934305
0.04220607
0.054498833
-0.03922245
0.016911259
-0.08031486
0.008270603
-0.15501967
-0.027107203
-0.22711505
0.13547817
0.2517996
0.057945807
-0.03008693
-0.043728974
-0.04835791
0.14458399
-0.35619685
-0.029868305
-0.3285004
0.22549464
-0.1716959
-0.24398161
-0.32158035
-0.02324884
0.09894875
0.13097802
-0.22244346
-0.011598157
-0.3011606
-0.13381207
-0.18438059
-0.0693987
0.28106344
0.16000924
-0.6315702
0.09321745
0.09686274
0.065623924
-0.28110677
-0.13764729
-0.0006649645
0.061927468
-0.40818962
-0.45711273
-0.006858774
0.20584652
-0.09102297
-0.7825893
-0.11148191
-0.47703743
0.02307155
0.17971824
0.022734117
-0.47417265
-0.14925693
0.17632519
-0.6939289
-0.28216523
0.0079767965
-0.719386
-0.03313495
0.034258366
0.014508112
-0.11638961
-0.12305896
0.1248703
-0.3104248
-0.63464844
-0.09113146
-0.07938924
0.20038657
-0.21406426
-0.5292145
0.1805263
-0.31085658
0.13639194
0.14927807
-0.00080298964
0.12891936
-0.12626529
-0.77187264
-0.4316075
-0.030053465
-0.04273363
-0.38298717
-0.20571841
-0.053317443
-0.24210638
0.045955453
-0.10994616
-0.0015859015
0.07157781
0.07479707
-0.055387568
0.058234733
0.13092539
0.017661761
0.19906828
0.0023886985
0.18545651
-0.036697153
-0.076277636
0.06293535
0.18200678
0.078527555
-0.16701043
-0.36985558
-0.10584888
0.24376947
-0.04652368
-0.07320213
-0.04027532
0.25282195
-0.078237176
-0.108641766
-0.12657736
0.031572744
-0.14842378
0.05865166
0.052150533
0.090853065
0.039519314
-0.1460352
0.06605473
-0.04418189
-0.0368541
-0.015715098
-0.09602421
-0.012480906
0.08793068
0.027728878
0.05079133
-0.011358096
-0.028212972
-0.07660476
0.18574342
-0.057558823
-0.030075893
0.05868514
-0.052992754
-0.06869282
0.00025835866
0.05798973
0.14328557
-0.08058346
-0.25308278
-0.06558225
0.08456836
-0.09782263
-0.017792458
0.112563126
0.06750436
-0.099057846
0.05597075
0.031864222
-0.1299503
-0.047354743
-0.20666783
0.11900347
0.015639689
-0.05885143
-0.04252677
-0.21317819
0.059305325
-0.13743612
0.09764083
0.039464127
0.20864217
0.11868517
-0.088552296
-0.08845872
-0.00045660278
0.03925012
-0.080685385
0.02288446
-0.19364865
0.07080476
-0.00792094
0.04440122
-0.09796412
0.002230261
-0.22127932
-0.060729265
0.081960045
-0.015902048
-0.1225051
-0.043356236
0.14750098
0.0377396
0.14024173
0.07462828
0.023355251
-0.3610041
-0.01852785
0.10380186
-0.14103231
-0.25074548
-0.0037948177
0.037091322
0.11362614
0.07608352
-0.09658815
-0.01482776
0.026613604
0.0107256565
-0.0413577
-0.17517485
-0.020945886
-0.017340746
0.0777181
-0.029799514
-0.059592877
-0.07865824
-0.085266806
-0.25316548
0.095707715
-0.30078226
0.0015772829
0.097408086
-0.38029215
0.010321496
-0.047396276
-0.20947935
-0.0040203077
-0.034668174
0.10230833
0.047908552
0.015032334
0.01783823
0.011858066
-0.020350616
0.026547648
-0.04622519
-0.31122088
-0.5184086
0.11270005
0.041833963
-0.16134186
0.22043177
-0.10378791
0.25713202
-0.26507854
-0.025983045
-0.27986884
-0.072669454
-0.23466285
-0.021656115
-0.041597344
-0.34880564
0.09685597
-0.06679115
-0.02936718
-0.36518162
-0.020455962
-0.14495145
-0.057596497
0.16260561
0.2089969
-0.43623197
0.023062125
0.115488194
-0.13333379
-0.22000775
-0.11783334
-0.25382894
-0.09963292
-0.08573471
-0.19869235
-0.040856116
-0.14774361
0.09977718
-0.01638831
0.13733841
-0.12930942
-0.0035650413
0.24051926
-0.27640113
-0.3209463
-0.14215808
0.10460145
0.15623602
0.049799867
-0.24362619
0.15180601
-0.15660007
-0.37752178
0.16687863
-0.07083214
-0.28950894
0.04928108
-0.32679954
-0.6249003
-0.378026
-0.3931703
-0.33386806
0.20510384
0.21141388
0.16008471
-0.09366824
-0.18923664
-0.33520898
-0.06395121
0.12125792
-0.24891219
0.10227411
0.069234215
0.06759028
0.035826143
0.042558793
-0.5240839
-0.14176598
0.08782652
-0.028762002
0.029925277
0.024343647
0.025169972
-0.13503046
0.12349388
0.040556185
-0.045833617
-0.14688942
0.01862609
0.10330607
-0.12119703
-0.21711735
0.14496426
0.025033437
0.07019302
-0.06410766
0.087178715
-0.11626381
0.08732767
0.05769487
-0.029347034
-0.12029728
-0.018061278
-0.13725449
0.018652687
0.004847761
0.019544609
0.035573248
-0.18552388
-0.26995805
0.1612085
-0.14243442
-0.018066358
0.028166063
-0.02928341
-0.024886018
-0.13136767
0.016896576
0.0036740613
-0.20491463
0.15224485
0.053435158
0.075453095
0.14640108
-0.019822724
-0.19897439
-0.028273663
-0.06440846
-0.23189177
-0.54354554
0.23407573
0.13443696
-0.12694941
-0.21298255
-0.22975163
0.18052219
-0.36133537
-0.40469697
-0.2172074
-0.055803563
0.009119697
0.057932008
-0.14050958
-0.14274211
-0.110572964
-0.0597397
-0.49204046
-0.044561118
-0.19425648
-0.15325998
-0.062916525
-0.27253833
0.17813289
0.06829476
-0.03607613
-0.27525103
0.071900316
-0.14688759
0.17794901
-0.11807599
0.066781946
0.116338834
0.046774548
-0.01960306
-0.070355274
-0.19298366
-0.0029943339
-0.10307057
-0.023037877
-0.41742676
0.04656389
0.04415323
-0.15757735
-0.2479223
-0.23634534
0.050915923
-0.062385347
0.054828577
-0.1382142
-0.15228653
-0.14097755
-0.09895424
-0.098791964
0.06500063
0.06652646
-0.4257562
0.09314359
-0.037971266
0.1687866
-0.534352
0.14503565
-0.057262074
-0.047810037
-0.25568658
-0.3133605
0.085338704
0.24108201
0.008470278
-0.10220343
0.15408309
0.1012001
0.03113375
0.09077449
-0.028919162
-0.08111267
0.011739373
-0.021202605
-0.0030754257
-0.07972277
-0.06340544
-0.053633388
-0.037396662
0.015754048
0.0132274525
-0.060111225
-0.115393
0.05042243
0.19079995
-0.300923
-0.24634501
0.03788979
0.037174154
0.01278404
-0.0716607
0.048712358
0.11163856
0.18957412
-0.094227366
-0.033290386
-0.21576461
-0.024613062
-0.16803801
0.056508362
-0.04175506
-0.017425809
0.011784843
0.015098098
-0.1843503
0.0007644841
-0.26535523
0.0830981
0.085015684
-0.33880472
-0.06354941
0.06825651
-0.15790114
0.084594466
-0.2065413
0.10158613
0.04682541
0.09908235
-0.15862764
-0.060332667
-0.013477198
-0.00059604074
-0.14411996
-0.22656296
-0.7002992
-0.034647007
-0.0805607
0.011150223
-0.04663449
0.13203816
-0.094357595
-0.043115154
0.11673229
0.057226006
-0.11714379
-0.007378729
0.079277486
0.17040709
-0.047541253
0.04917808
-0.07600011
0.10131045
-0.18186986
-0.0875973
0.09549324
-0.024229338
-0.049161993
0.011879873
-0.07157244
0.0751266
0.026064318
0.0989219
-0.24003169
0.0059064706
-0.06675151
-0.0900696
-0.09266453
-0.18859786
-0.08185982
0.061178427
0.13387862
0.05178193
-0.12693405
0.0353613
0.02846204
-0.022225635
-0.18864647
-0.11500713
-0.03173879
-0.008959652
-0.020054167
0.12267937
0.07925394
-0.010545616
-0.21126823
-0.28510547
0.18723418
0.08340101
0.18585278
-0.027042627
0.017744211
-0.27047288
-0.14430168
-0.11668382
-0.0937864
-0.00833091
0.40549877
0.08187589
-0.048866306
-0.031432603
-0.08081637
0.0072489385
-0.050057445
0.0004898979
0.019184938
0.10508304
0.018753774
-0.034986813
0.00999532
-0.010027711
-0.12156927
-0.059358492
0.07027361
0.032106526
-0.18706559
0.08044608
0.02581293
0.06144603
-0.026991945
-0.030487988
-0.1944854
-0.0041891565
-0.07179054
0.19704834
0.010053796
0.008977091
0.09688507
-0.034692597
0.055141713
-0.24083592
0.046211775
0.044478573
-0.07636109
-0.105013534
0.14487475
-0.040251955
-0.09751037
0.07815804
-0.017406233
-0.10963712
0.12965353
0.10907623
-0.12717932
-0.03803601
-0.13667516
0.1513349
-0.07986245
-0.28244817
-0.023978157
0.015663072
-0.063134655
0.14824425
-0.21673582
0.1121216
0.07524417
0.0076922257
-0.10886713
0.09271296
0.32052407
0.026019936
-0.22419874
-0.2673092
-0.2016103
0.102734216
-0.15320106
-0.120868295
-0.17883779
-0.30737963
0.20331843
-0.36194694
-0.5063136
-0.23275185
-0.07239857
0.036094677
-0.05537296
-0.25862408
-0.18048123
-0.036910594
-0.02115382
-0.18423724
-0.03262391
0.00069046876
0.076869644
-0.10990421
-0.07029488
0.13184682
0.07422929
-0.05747188
-0.21084934
-0.018702732
-0.2535795
-0.012248483
0.042031266
0.16538368
0.04614122
0.07031844
-0.01571037
0.048522417
-0.13660051
0.1663784
-0.08504655
-0.15528277
-0.4713464
0.0863336
-0.036868475
0.0871146
0.09624586
-0.25198367
-0.009269945
0.06851715
-0.14419061
-0.10587831
-0.062399413
-0.10705614
-0.2142795
0.12815356
0.11136707
0.14099579
-0.418523
0.1247444
0.09055726
0.06355549
-0.45450065
0.13097714
-0.009144341
-0.012943642
-0.19197929
-0.35071903
0.055181958
-0.00014956456
-0.12851085
-0.81115997
-0.033279907
-0.26269928
0.086544506
0.21886002
0.015080696
-0.5526436
-0.24620378
-0.08575457
-0.28069192
-0.14375018
0.18454856
-0.32910463
0.010464118
0.17581096
0.18602629
-0.14842255
0.012571425
0.15822321
-0.7294558
-0.40642577
-0.31181645
0.094000414
0.20724447
-0.078390285
-0.27574977
0.22167403
-0.22376144
0.07103446
0.18203741
-0.07274717
0.08626066
-0.04909273
-0.49887496
-0.2504734
-0.008008365
-0.13342214
-0.17921175
-0.174009
0.021023253
-0.05021757
-0.23628448
0.038253542
0.10982994
-0.048407104
-0.04410124
0.19757065
-0.19682169
0.26691622
0.24652913
0.19097431
-0.12406348
0.11780585
-0.15926644
-0.052395605
0.33191958
0.092186555
-0.18300325
-0.40272948
-0.24104792
-0.41160074
-0.028454382
0.06385925
0.13160232
-0.20029542
-0.06049713
-0.14348888
0.03638108
-0.05860282
-0.084338166
-0.12857851
0.042494465
0.35971963
-0.08629726
0.07111836
0.045876898
-0.2582152
0.24315013
0.1772658
-0.063275
0.07736353
0.17845556
-0.05759731
0.010823642
-0.04942395
0.06940979
0.020962028
0.0807911
0.10400873
-0.18496455
-0.28114167
0.016300816
-0.17476003
-0.102596365
-0.12297429
0.0656884
-0.12547858
0.28590158
-0.014968152
0.08142796
-0.14498203
0.16039644
0.39739642
-0.2214732
-0.28604597
0.099293314
-0.024364373
0.110025674
0.030103758
-0.045128174
0.020072594
0.16118856
-0.009044358
-0.19847721
0.20648415
-0.24887437
-0.15204188
-0.14112628
0.27201334
-0.032455634
0.117082246
0.09610422
-0.16360575
-0.38551795
0.16600192
0.08048107
0.14983252
-0.036063798
-0.003996975
0.022207715
-0.058582235
0.061108068
-0.073911935
-0.028504375
0.08119184
0.005903347
-0.06571028
0.0022708639
0.06555208
0.08059822
0.07728632
0.071926974
0.0022758977
0.067336634
0.0037478025
0.01384577
-0.03805077
-0.039113015
0.04680998
0.071239546
0.08271154
-0.010392334
0.07023432
0.07252108
0.023793496
-0.036252163
-0.062747866
-0.021238973
-0.020248843
-0.05152155
-0.077078804
-0.0766043
0.050040822
0.0400457
-0.051330894
-0.023426872
0.019581523
-0.04332868
0.016781637
-0.0780807
0.05580879
0.060300466
0.0045070844
0.046287853
-0.043800063
0.07573191
-0.055908237
0.027282948
-0.05859413
0.06653845
0.077229805
0.07455491
-0.04858725
0.0026324396
-0.0306801
-0.051880416
-0.03434597
-0.075885035
0.049079955
0.07943401
-0.043243706
0.061103534
-0.0064447853
-0.036333386
-0.047472097
0.025679724
-0.02578732
0.0056627113
0.08974649
0.024176128
-0.049879372
0.006388494
0.06350413
-0.0513434
-0.024116987
-0.053524487
0.03800109
-0.056139927
0.07417671
-0.07003831
0.008923408
0.06263827
0.08313641
-0.013345164
0.009293693
0.021281103
0.08279999
-0.030100895
-0.08290247
0.045847192
0.094702885
-0.009785775
-0.064181715
-0.037297532
-0.029475229
-0.07761394
-0.044899974
-0.055249702
0.009706671
0.06690456
0.0034534272
0.012024621
-0.003374823
-0.006136411
0.02492656
0.071219385
-0.042714596
0.11115896
0.0029880016
-0.0033861934
0.0458838
-0.022506317
-0.033777554
-0.051547024
0.05127423
0.020140957
0.01416633
0.07083768
-0.014751817
0.034509346
0.0061885123
0.023650441
-0.01603958
-0.020111281
0.05224374
-0.1332723
-0.1256077
-0.14084023
0.11813391
0.0060757007
-0.085507505
0.009346525
-0.03885568
-0.33338428
-0.17074797
0.13901332
0.031073565
-0.17758897
0.06217406
-0.043817125
-0.018427698
0.05234639
-0.0005365003
0.03328736
-0.07673019
-0.19967157
0.14264776
-0.34647766
-0.018197821
0.124500014
0.06449506
0.12800348
-0.005965709
-0.16419806
0.2121588
0.089692235
0.09245892
0.08663649
-0.22156307
-0.21279074
-0.0064642318
-0.13450535
0.027612356
0.04618461
-0.008485062
-0.14923806
-0.04841072
-0.05694196
-0.03880082
0.083436936
0.10346349
0.087830245
0.024563525
-0.24554767
0.13057964
0.031568572
-0.17996442
-0.10060726
0.04713564
-0.009517561
0.044869002
-0.036582418
-0.06671027
-0.039069977
0.05260044
-0.050552774
-0.075044684
0.14646229
-0.06747649
-0.13579947
0.06375583
-0.1857909
-0.0010163462
-0.0051818886
-0.10853059
0.20819058
-0.043129884
-0.16355062
0.11067054
0.045467682
0.028139161
0.10342948
0.1746221
-0.114601955
0.092088856
0.086942166
-0.042751767
0.005010618
0.07179638
0.06653289
-0.09738195
-0.09869808
-0.045856975
0.07137756
0.05013917
-0.06572576
0.026743565
0.0043480597
-0.07258851
-0.009414963
-0.09891421
0.019823251
0.04026281
-0.08476667
-0.039296273
-0.039959338
-0.010767183
0.15854327
-0.008681035
0.079350136
0.114758424
-0.06603129
0.15448757
0.09993041
-0.099972375
-0.11103468
0.024210837
-0.10313795
0.0144157
0.17105506
0.15402368
-0.04129574
0.046412125
0.09880029
-0.009376642
0.14370076
0.014971863
0.15485485
-0.095145546
-0.1039299
0.038524833
0.16958053
-0.048729483
-0.074562155
-0.0596116
-0.2556118
0.0044369674
-0.05435753
-0.09274074
-0.048241694
0.026301377
-0.1438274
-0.105727114
0.10689021
0.067706324
-0.098554954
-0.08003238
-0.14992003
-0.08207178
0.045988478
0.039373823
0.06746609
-0.0029823303
-0.32562137
0.18996333
-0.17069538
-0.10347532
-0.009224717
0.06199144
-0.032052614
0.010499248
-0.051364105
0.10080485
-0.0013923349
0.17669827
0.102492794
-0.32299066
-0.049193725
0.01910657
0.03015109
0.13860728
0.020985853
-0.06846134
-0.09246103
0.03478154
-0.06291228
0.08662678
0.06337965
0.13583194
-0.010404733
-0.017268129
0.14242911
0.10969158
-0.018192515
-0.10501503
-0.07935601
0.088763855
-0.12058349
0.073330164
0.06366288
-0.07113121
-0.07312987
-0.048733827
-0.13070357
-0.24006934
0.014578298
0.035961356
-0.0129806325
-0.07202133
0.020948043
0.14067799
-0.09560806
-0.1850964
-0.12825072
-0.058180876
-0.13390014
-0.028031098
0.09900785
-0.093630955
-0.06263361
0.0299043
-0.18762198
0.15091074
0.138156
0.025942523
0.041111212
0.06984438
0.0623922
0.11315693
0.013663868
-0.129025
0.09350432
0.027502526
0.02360582
0.024063475
0.03025784
0.06539288
0.16816369
-0.08914292
-0.060557872
-0.16503885
0.05104384
0.0820915
-0.24534158
-0.10060138
0.08231897
-0.20718597
-0.2356632
0.0011225328
0.04942013
-0.029936293
0.084940925
-0.043383475
0.034251854
-0.04557933
-0.18620627
-0.016942395
0.15456884
-0.20394799
-0.053714268
0.102921315
-0.02567344
0.1251539
-0.2500345
0.00594938
-0.032683782
-0.094021164
-0.27008647
0.0012114675
0.27076012
-0.21647854
-0.14210296
-0.10845197
0.0025837172
-0.14112142
-0.10754174
-0.12337059
0.09452824
0.0017364307
0.0415323
0.2155325
0.025833135
0.10168023
-0.033051163
0.03177383
0.044732388
0.06768389
0.053696424
0.054838397
0.10637391
0.22593108
0.06868666
-0.18741436
-0.13709292
0.19822226
0.17412268
0.26264825
-0.14435862
0.031952877
-0.07502673
-0.02149354
0.18282883
0.062098995
0.20695855
-0.21018071
-0.13497788
0.031788442
-0.18018809
-0.28207278
-0.13141212
-0.06797243
0.010148791
-0.053111885
0.0659813
0.1403649
0.012414043
-0.106476374
0.12893587
-0.014180065
0.06667864
0.07813316
-0.4051339
0.113110185
-0.20219882
0.0735113
-0.03548728
-0.03079611
-0.0015942702
0.21604162
0.12054262
-0.056104477
-0.2530877
-0.15229797
0.12344713
-0.031513993
-0.025550328
-0.1492073
-0.12065539
-0.12367355
-0.15458116
-0.07935852
0.0034741466
-0.0068408623
0.13096614
0.063680425
-0.033060398
-0.09136566
-0.17180872
-0.09915569
-0.019081831
0.045042995
0.15168543
-0.050326537
-0.11942275
0.17029467
-0.37706116
0.26724774
-0.18604378
-0.1149775
0.1683732
-0.005390941
0.058960367
-0.05046704
-0.07943031
0.13878113
0.022040186
-0.1222036
-0.004699443
0.00868122
-0.19130015
0.05055604
-0.148314
-0.0887364
-0.010770566
0.08052612
-0.06430035
0.10391675
0.07926859
-0.061584197
0.062058263
0.06323559
0.06385217
0.09825067
-0.13368727
-0.02149022
0.118509576
0.16267774
-0.10232162
0.15580373
0.14308797
-0.055520993
0.08168997
0.22635321
0.053968124
0.05866395
-0.2749948
-0.107901074
0.016066965
0.16432916
0.00069655676
0.14978868
0.46190155
-0.14802817
0.42425698
0.3403278
-0.20443252
-0.08986081
0.17897896
-0.010191937
0.20663936
0.1913929
0.13532615
0.07532299
-0.31510124
-0.19527933
0.26320666
0.02919347
-0.06509041
0.036919888
-0.062076934
0.123024516
0.008738467
0.21499586
-0.23376793
-0.09119856
-0.015662467
-0.26318887
-0.06016853
-0.24803786
-0.10442884
0.12284727
0.016761377
0.056316335
0.20391807
0.08351213
0.036026318
-0.086677656
0.17384498
-0.064912446
0.079269014
-0.04435421
0.11627238
0.1479494
0.20204967
0.041066103
-0.24043298
-0.18177406
0.1632938
-0.0641871
-0.34930193
0.08713667
0.046040393
-0.22682673
-0.01365527
-0.29790583
-0.37275472
0.19509892
0.15225996
-0.0070719793
0.033502124
-0.0974481
-0.28089252
0.07012613
0.24340814
-0.32840002
0.08099735
0.102566466
-0.1055765
0.03664118
-0.30658197
-0.30413747
0.028900774
0.16948083
-0.20629393
-0.28911287
-0.10625183
-0.25749445
-0.0055067968
0.10370545
-0.015810117
-0.016527321
-0.01415702
-0.0030068296
-0.17054345
0.098375715
-0.03652782
-0.034393784
0.32005262
-0.38286552
-0.13317083
0.0700915
0.18552257
0.004943867
0.0657102
-0.37017298
-0.12528796
-0.06418519
0.014661208
-0.21365145
0.0936175
0.042271014
0.19631529
-0.1452639
-0.20201415
-0.007321731
-0.057053465
-0.35111222
-0.093998305
0.15666245
-0.37325436
0.062247757
0.17162322
-0.20338787
0.04627664
0.23075122
-0.16649234
-0.047291245
-0.117124364
-0.028767206
-0.22030449
-0.3267919
-0.15873325
-0.010858564
-0.15698232
-0.023865322
0.1013806
0.17594036
0.13383538
0.14975676
-0.096423306
-0.0069553154
-0.08306014
-0.26629
-0.021481136
0.119782835
0.047114104
-0.025179017
-0.021352464
0.1348557
-0.26463687
0.05661583
-0.3715209
0.05847699
-0.1463095
-0.15095511
0.14559516
-0.1180252
-0.041031852
0.21466884
0.041084748
-0.2282103
-0.20386124
-0.056604058
-0.039203722
0.08698516
-0.04833443
0.07632105
-0.0788092
0.09290465
0.034978244
-0.035374362
0.006109995
-0.0064107855
-0.039685935
0.042743795
0.0022566353
-0.11984456
-0.13792066
-0.047921207
-0.0335336
0.11902456
0.1499517
0.22494154
0.01179579
-0.14162827
0.015455955
0.027869651
-0.14794761
-0.23451027
-0.040805485
-0.054988813
0.12156745
0.118015155
-0.017698733
0.055544145
-0.20836127
-0.13021454
0.04102811
0.011272424
-0.07478653
-0.05953795
-0.073265746
-0.07686104
-0.12814786
-0.054043707
-0.07448337
-0.047940735
0.058818873
0.06379969
-0.0827099
0.15255289
-0.101998776
0.068753384
-0.20206977
-0.056367047
0.08214541
0.072518565
0.03364163
-0.020748539
-0.06242878
0.12755531
-0.032243878
-0.010814579
-0.04097532
-0.17965204
0.033677515
0.07796721
0.100229144
-0.0029293562
0.038390547
0.12626386
0.01037523
-0.067139946
0.03935156
-0.06711223
0.05617474
-0.064992435
-0.22776213
-0.06418933
-0.02874941
-0.03483289
-0.0119794505
0.058417886
0.019502155
0.023807615
0.12406637
-0.020605952
0.10519939
-0.010360936
-0.35623997
0.050134532
-0.041537177
-0.06350342
-0.092364885
0.14139809
0.08282081
0.19073349
0.13159578
0.13575108
0.13872242
-0.07576667
-0.15349366
-0.13967013
0.31287432
0.06860492
-0.09721459
0.26763606
0.003730301
0.19652012
0.32476956
0.030236952
0.09022526
-0.056017816
-0.003546055
-0.1285499
0.16640666
0.10518202
0.040436964
0.084198035
-0.3044905
-0.021378394
-0.1753439
-0.03240013
-0.07887493
-0.093094006
-0.058109898
0.097223416
0.0849013
0.29258367
-0.0042138803
0.034932055
-0.1089571
-0.22649981
0.044396095
-0.18413326
0.114411294
0.0029394582
-0.01626434
-0.07851941
0.12229694
0.16589656
0.40139577
0.043040376
-0.20007077
-0.16786656
-0.10108869
-0.07242909
0.034691814
-0.034870107
0.03025082
0.2938233
-0.11784614
0.023296697
-0.00013238378
0.0067224824
-0.37181666
0.35387376
0.195686
-0.15961754
0.08432995
-0.09557705
-0.2429004
0.09641687
0.1147275
-0.11950615
-0.07910185
0.0070874286
-0.15463394
-0.27112934
-0.027330011
0.015565442
0.06849676
-0.17804563
-0.0665903
-0.17287357
-0.11290847
-0.07438836
0.22168434
-0.1963377
-0.23911555
0.013289039
-0.055812065
0.15796977
-0.2547168
0.13236812
0.004140955
-0.10067315
0.2922554
0.09733761
-0.043001834
0.12979251
0.18763727
-0.020726744
0.01841773
-0.07613154
-0.17332241
-0.043738954
0.28509572
-0.22755727
0.0629123
0.023142831
-0.01298722
0.07479558
0.22570905
-0.3070627
0.035194978
-0.03100258
-0.021798816
-0.2968609
-0.036455147
0.08016183
0.107593134
0.1254732
-0.202921
0.117869675
-0.31538382
-0.1681504
0.06777262
-0.036081586
-0.15976898
-0.17630103
-0.13360831
-0.1756095
-0.24941857
0.090824276
-0.19357233
-0.17508921
0.078724064
-0.021024706
-0.03098141
0.040259924
-0.05607016
-0.12187248
-0.09572429
0.3799299
-0.045180183
-0.062681586
0.10441421
-0.090917945
0.13395004
-0.009183262
0.20326622
0.101034716
-0.015669666
0.12714687
0.18295251
0.09708842
0.13183264
0.15604246
0.085516736
-0.02123953
0.22726242
-0.05224596
0.16196178
-0.018230516
-0.07443147
-0.0060989982
0.07709887
-0.16105065
-0.29363278
0.15763955
0.09270642
-0.3200029
-0.053671185
0.07114635
0.069917016
0.1468767
0.14539993
-0.103970855
-0.10976616
0.16835034
0.27289215
-0.20360559
0.08129776
-0.013376804
-0.16848922
0.15941152
-0.20377
0.07243593
-0.24912575
-0.06899476
0.013510992
0.123147324
0.06261702
-0.01572923
-0.23093647
-0.23407091
-0.046150487
-0.29018268
-0.069245845
-0.2944706
0.14759438
-0.1288247
0.008418737
-0.04737519
-0.14363621
0.19123442
0.059777617
0.08914722
0.14330685
-0.18721059
0.17272578
0.0042807246
-0.08497531
-0.002556574
0.19606893
0.073716395
-0.00900744
-0.005606458
-0.1741778
0.057997007
-0.22270049
-0.10855924
0.20572458
-0.07192229
-0.017043555
0.14079231
-0.14985602
0.047865737
-0.06703412
0.22183518
-0.24013661
0.010772055
-0.08889097
-0.07482217
-0.05816335
-0.23606008
-0.021177405
0.060013134
0.0709064
0.060763936
0.04800748
0.082045846
-0.06994121
0.051671844
-0.18706627
0.08781822
-0.05867507
-0.07323361
0.056440327
0.08615273
0.15985872
0.16076638
-0.11598845
-0.23883466
0.11683664
-0.03626106
-0.090352476
0.08568383
0.016762832
-0.080646835
0.019336855
-0.15001552
-0.20616946
0.18241394
0.21106385
-0.021609385
-0.017106567
0.047569066
-0.1528778
0.13667059
0.12461184
-0.14283629
0.22243652
0.21966016
0.29824504
0.253392
0.02820354
-0.3055363
0.15186796
0.04951975
-0.08468749
-0.27040598
-0.11235479
0.018216578
0.16435957
0.25398898
-0.0688181
-0.07507026
-0.13785383
-0.0050855437
0.38626537
-0.16231872
-0.117214724
-0.2716602
-0.100827694
-0.14801891
-0.07835336
0.20212904
0.09689741
-0.13227053
0.174009
-0.04901275
0.052831803
0.08577046
0.28373882
-0.06418266
-0.06645643
0.0002626692
-0.11210562
0.010647569
-0.2523036
-0.22854996
-0.23219351
-0.13357405
-0.12331874
0.054466337
0.18407221
-0.3150786
0.113089584
-0.0218436
0.3521364
0.2665397
0.17387243
-0.0049411273
-0.30808577
0.0109268855
-0.022005461
-0.28526545
-0.14927115
0.05516054
-0.23711629
-0.19904776
-0.13448788
-0.052924488
-0.21919401
-0.16720393
-0.11899879
-0.07744756
-0.080038555
-0.08358134
0.0152779
0.13215448
-0.120979875
0.046117403
-0.018727971
0.047370628
-0.052655574
0.05523628
-0.09410957
-0.0042048325
0.06364259
-0.09479773
0.08544946
0.23914851
-0.4474244
0.26924792
-0.29271218
-0.010573247
0.031550363
0.26433104
0.030698825
-0.02683054
-0.029846068
0.30213305
-0.011474345
0.15143387
0.18853542
-0.09657823
-0.18020083
-0.06818077
0.044845853
0.0023142844
-0.010819413
-0.17356358
0.03766109
0.008304488
0.010301202
0.21652006
0.16886422
-0.10808803
0.12157702
0.019508515
-0.04700146
0.17720994
-0.14794207
-0.10326116
-0.10609768
0.25201932
-0.09693037
0.076027595
0.20314056
0.08939044
-0.05654451
-0.06364904
-0.1943619
-0.041717693
0.040382314
-0.131927
-0.06443931
-0.20105009
-0.260065
0.17987995
0.13677908
0.006571587
0.097074695
-0.48794332
0.10099881
0.015120299
-0.19237347
-0.15285474
-0.01959264
0.06887142
-0.103156626
0.0595157
0.034007147
-0.020632591
-0.12617894
0.043765243
0.12696591
0.039621823
-0.15487188
0.2947317
0.23266323
0.2193429
-0.15908922
0.032895356
-0.3219502
0.009296632
0.2948618
0.11354903
0.019834425
-0.02512977
-0.031080207
0.076780185
0.060584545
-0.00041896862
-0.09707264
-0.29611373
-0.34083536
0.027516441
-0.07618053
-0.03425207
0.07709684
0.26589504
0.037966497
-0.008202447
-0.071613476
0.046415173
-0.20012686
0.3451247
0.041340172
-0.09237663
0.09545071
0.049963776
-0.20342533
-0.28095868
-0.11413655
-0.30655837
-0.41401523
0.2410688
0.18275626
-0.14882047
0.102379255
-0.5266641
0.070495114
-0.44454372
-0.3660527
-0.08877573
-0.14948687
-0.82066005
0.18444388
0.013794599
-0.48064926
-0.14598274
-0.11574691
-0.33357173
-0.13102001
-0.40292606
0.06746786
-0.004579465
0.26224646
0.17838997
-0.51838094
0.086823754
-0.009345019
0.07151482
-0.08527367
-0.51899153
-0.4124979
-0.07617236
0.098917
0.046975233
-0.09697762
-0.0483702
-0.052411593
-0.01649264
-0.213378
-0.20386241
-0.20897299
-0.039976865
0.31242058
-0.36023888
-0.22083043
0.11327433
-0.091920905
0.025305228
0.12448082
0.17859423
-0.16863076
0.10742748
-0.21583149
-0.17435281
-0.011303674
0.34770414
-0.38774854
-0.09851927
0.13614506
-0.5423478
-0.15383378
-0.25859067
0.006260447
0.009576129
-0.29329863
-0.23461811
-0.19190714
0.024130058
0.044311088
-0.79335344
0.010116072
-0.2854889
0.2723031
0.0836321
0.095264845
-0.35954812
0.012937654
0.118686356
-0.7378774
-0.06453996
-0.07271668
-0.5768787
0.16951975
-0.038908895
0.048988834
0.0058048214
0.056773197
0.1971466
-0.15825652
-0.3532886
-0.16400692
-0.0048210328
0.20130448
-0.11745114
-0.6432561
0.017024126
-0.2345924
0.116830714
0.10683255
-0.0051128766
0.17022672
-0.049472477
-0.106036134
-0.33302906
0.10256033
-0.0058450126
-0.054576047
-0.25509188
-0.006054315
-0.43805888
0.036021624
-0.060938157
0.11671336
-0.1269932
-0.027127553
0.1648991
0.05666684
-0.023616688
-0.2875517
0.21393761
-0.17127365
0.0368476
-0.31581318
0.096342504
-0.0043012053
0.15155438
0.004673232
-0.10477645
-0.4292877
-0.09294702
0.19573039
-0.024137
0.012417612
-0.012445237
0.13847378
-0.013224645
-0.01142034
-0.039479133
0.16719908
0.19256897
-0.13022451
0.21463223
-0.10761946
0.048087217
-0.20158418
0.087722406
0.061885037
0.05844646
0.11484732
-0.15404065
-0.03206727
0.10222706
-0.09295955
-0.035804898
-0.172595
-0.058300313
-0.025082177
0.05352465
-0.0634675
-0.0021642854
-0.03813859
-0.012431352
-0.002979721
0.073083825
-0.02306598
-0.028478237
-0.033396855
-0.044435926
-0.13429336
0.014200539
0.012771934
0.016773948
0.10091062
0.022380667
-0.014900852
0.14865424
0.11096357
-0.11787367
0.021068439
-0.06987158
0.05183923
0.01792324
-0.08578242
-0.085163414
-0.22687359
0.057437524
0.20004591
0.090332255
0.051403344
0.023932591
0.16081867
-0.07312562
-0.073955536
0.04971891
0.10633245
-0.03106808
-0.06911846
-0.11547207
-0.09180736
0.065726325
0.095556624
-0.018391171
0.17115328
-0.11625234
0.049559128
0.10407755
0.050221145
-0.2464324
-0.08777914
0.16245759
0.028257841
0.13580883
0.044334143
-0.023723906
-0.1678317
0.038667656
0.124300145
0.025268381
-0.2567306
0.046542853
0.095506065
-0.036942575
-0.0037682785
0.07194395
-0.071998015
0.07439364
0.14715344
-0.027727388
-0.026158333
-0.02743411
0.025289962
0.09902838
0.009517468
-0.060674552
-0.12631783
-0.102574915
-0.12990545
-0.020181196
-0.0638768
0.004058511
0.02185195
0.06919379
-0.01068671
0.022677703
-0.18008217
0.109863736
0.13817933
0.24940598
0.009967412
0.025262084
0.12318779
0.068342514
-0.02904633
-0.017044371
-0.1050299
-0.13966562
-0.39933792
0.20407504
0.21035197
0.038202062
0.047534715
-0.1425124
0.27726611
0.0023334662
-0.13361861
-0.09562001
-0.13207947
0.0875758
-0.021393143
-0.11934245
0.022566224
0.08630911
-0.26605362
0.17847978
-0.14111516
0.14361869
-0.12263205
-0.04553165
0.04125389
0.18227862
0.046214852
0.07495222
0.080250286
-0.058507774
-0.017987873
0.066984914
-0.15629324
-0.07995994
0.34912276
-0.1528963
-0.073929615
-0.02036202
-0.048076365
0.08055178
0.32310998
-0.047009658
-0.13590848
-0.030439932
-0.1540087
-0.20059484
-0.17573217
-0.15615772
0.18405876
-0.06633345
-0.07677961
-0.123881534
-0.1841165
-0.2699467
0.09765503
-0.08850558
-0.31804052
-0.15366432
-0.20719753
-0.07462823
-0.14390807
0.19257753
-0.24911976
0.12724867
0.14173089
-0.041280385
-0.12654153
0.05812051
-0.1507127
-0.06617593
-0.095538944
-0.1863887
-0.27858204
0.21033801
0.13434006
0.11427143
0.21692666
-0.4086622
0.055353276
0.04097065
0.03930075
-0.11748653
0.043379236
0.050796166
-0.1275238
0.1896742
-0.003331879
-0.14204389
0.04539571
0.12500162
0.04466313
0.096457504
-0.17830789
0.09078962
0.16253917
-0.13183974
0.07148045
0.19441192
0.08183795
-0.012153772
0.26970428
-0.07017925
-0.07244426
0.0070774793
0.11622511
0.08129821
0.03302303
0.09827671
-0.030227402
-0.034176
-0.19649974
0.0061107483
-0.056109946
-0.08056764
0.019120444
0.22775987
0.09369146
-0.15270665
-0.09983068
0.0068150135
0.08835658
0.10999136
0.010275809
0.027848555
-0.003269872
0.20999098
-0.25350234
-0.16648026
-0.0483372
-0.18438257
-0.36945525
0.22619706
0.19309942
-0.20435451
0.082612604
-0.454449
0.030237313
-0.35454348
-0.22854741
-0.10348847
-0.013634896
-0.5391491
0.11882815
-0.01196674
-0.38451546
-0.16080448
-0.1613225
-0.59401083
-0.0020096635
-0.34974036
0.18026988
0.029500404
0.12663674
0.11985088
-0.34069198
0.27608728
-0.027321419
0.2075991
0.15152384
0.125056
-0.3181693
-0.011035127
-0.120334886
0.04864176
-0.0725135
0.0063960366
-0.1648683
0.00091400574
-0.52599066
-0.105106466
-0.26251465
0.041451517
0.0975385
-0.27374592
-0.32267264
0.09035132
0.14265749
-0.20111462
0.018087737
0.31536353
-0.19299066
0.015866108
-0.011582834
-0.26867208
0.043852586
0.2815827
-0.29671696
0.095371336
0.32900807
-0.15250011
-0.116301276
0.1310067
0.032273315
0.09936493
-0.030382525
-0.28980657
-0.09518335
0.111549295
-0.19020024
-0.19258353
0.019125741
-0.065900445
0.03762309
-0.07096411
0.033067096
-0.3038954
-0.07024024
0.09603345
-0.037637547
-0.2634473
-0.10047042
-0.019540366
0.19571273
0.01600345
0.09143282
-0.10662869
-0.06706076
0.12105685
0.1492057
-0.032781113
-0.3831844
-0.06305478
-0.020336596
0.01515414
-0.032524332
0.13554722
-0.021654222
-0.04430848
-0.087289385
-0.07727243
-0.2847841
-0.07014953
-0.14638045
0.17671016
0.08139179
-0.060479745
-0.07418695
0.10596925
-0.09394915
-0.002445791
-0.1882566
0.07536695
0.053681128
0.080554105
0.10828685
0.0020539414
-0.28056788
0.068088934
-0.03102111
0.13172536
0.06337614
0.1378541
0.091066495
0.10430984
-0.012095263
0.012631847
-0.062046103
-0.08729214
-0.60632414
0.039982133
-0.05216162
-0.14398299
-0.062026072
0.2569303
0.21581809
-0.08779281
0.21553336
0.29244763
-0.061084937
-0.005507368
0.10853322
0.16617356
0.1285725
-0.03556859
0.35686892
0.029985877
-0.14956427
-0.006815172
0.21951017
0.024451783
-0.16219106
0.03689216
-0.08125398
0.04069823
0.13177074
-0.0016182059
-0.22271697
-0.020604197
-0.06850286
-0.11347057
-0.15043746
-0.213025
-0.06751169
0.033074304
-0.025601892
-0.03860774
0.060923748
0.075457394
0.17061949
-0.023299908
0.10060146
-0.0709017
0.029107474
-0.027027048
0.03853866
0.1660839
0.033481173
-0.16456358
-0.20735389
-0.28735828
0.14848642
0.002827664
-0.19197544
0.07152944
0.2572861
-0.33842525
0.05238343
-0.1508624
-0.035296712
0.17988425
0.2354928
-0.041368894
0.03139537
0.12955639
-0.18247016
0.13520701
-0.11188545
-0.012653197
-0.13785556
-0.06585001
-0.019333258
0.013687248
0.011093066
0.027333165
0.017969402
0.12897848
0.017095262
0.1423379
-0.048925076
-0.11296643
-0.0868436
0.06523953
-0.03469371
-0.009264379
0.04550038
0.12724015
-0.113342956
-0.026557898
-0.082439765
-0.11461261
0.023732373
-0.006038521
-0.09488655
-0.07809741
-0.0950949
0.15510409
0.08304652
-0.18715505
-0.018623719
-0.10134649
-0.19534184
0.13311455
-0.17881201
-0.21396758
0.042572454
-0.03978285
-0.021782441
0.07143585
0.0633003
-0.0018364284
0.039129898
-0.11832305
0.02815237
0.05085496
-0.0017601212
-0.06513812
0.10228612
-0.04478989
-0.08917668
0.088623784
0.03993867
-0.13767152
-0.02693115
0.12303175
-0.04053286
-0.112957045
0.008787781
-0.14678429
-0.014243985
-0.08123536
0.10142697
-0.17571068
0.04739428
-0.21645142
-0.39814124
-0.034757044
-0.006236769
-0.26522213
0.049289517
-0.1795518
-0.18377231
-0.2117945
-0.07461027
-0.41113082
-0.031068888
-0.27156234
0.114709474
0.0704835
0.09359235
0.15479489
-0.25817782
0.18986993
-0.09110969
-0.028806582
-0.10616978
-0.07678135
-0.043633755
0.10666038
-0.004418677
0.21694627
0.021488538
0.0016399708
-0.039804187
0.0006125684
-0.3801432
-0.37449163
-0.31985402
0.08784388
0.004240295
-0.10025463
-0.17900656
0.1992432
0.0811534
-0.08645452
0.09535941
0.19229007
-0.14857426
0.060281903
-0.023954505
-0.175529
0.28078097
0.24565814
-0.1834698
0.24923776
0.26828235
-0.30384544
-0.10996258
-0.004193462
-0.032545507
0.05653788
-0.31580254
-0.23812239
0.06044726
0.27027074
0.07246118
-0.6741284
-0.15245327
-0.25935936
-0.13750921
0.23995878
-0.08813856
-0.39149854
-0.0305796
0.09254764
-0.3245942
-0.10339329
0.06531347
-0.35952964
0.21516989
-0.08073621
0.19742167
-0.19165117
-0.030657182
0.05885546
-0.63737893
-0.23804161
-0.38236675
0.061557714
0.03308155
0.06965288
-0.30787626
0.22415158
-0.23640202
0.08571913
0.095902264
-0.11344025
0.07153014
-0.050520074
-0.011046421
-0.46931177
0.22690043
0.15336151
0.00050521595
-0.20997831
0.110025406
-0.21269546
-0.13224252
-0.07830988
0.1542712
-0.16234177
0.107824974
0.14260796
0.14624953
-0.06897495
0.031751774
0.22092803
0.03735823
0.06108525
-0.38067463
0.13817346
0.30977178
0.08332955
-0.09328661
-0.21312727
-0.36287186
-0.42659602
0.15981574
0.14706482
-0.016115988
-0.1602031
-0.06617066
-0.16829863
-0.16231489
-0.055622734
0.06689428
0.027830496
-0.01201175
0.13211764
0.059285857
0.14415634
0.02582853
-0.24851057
-0.082306914
0.13856721
-0.09353169
0.019121315
-0.1855807
-0.07463481
-0.13606764
-0.027055502
0.26313752
-0.18926038
-0.3246578
-0.10266739
-0.18259847
-0.2952691
-0.008577762
-0.15271352
0.13171896
-0.040058777
0.26028675
-0.08598833
-0.082152195
-0.26784122
0.0025734813
-0.1948852
-0.066801816
-0.20562807
-0.26353896
0.23538862
-0.14983776
-0.054949954
0.12703487
0.16847214
0.06618896
0.091954485
-0.082199305
0.065769635
-0.034362815
0.109428525
0.10227083
-0.30394736
0.37859273
-0.0139301475
0.34767467
0.11010372
-0.080852255
-0.07739015
-0.03667321
-0.26998454
-0.16707397
0.11800722
0.059838966
-0.062212203
0.07988194
-0.063334115
0.025905227
0.02313664
-0.07938191
-0.009462397
0.011491509
-0.04990674
-0.017203528
-0.07088844
-0.03428619
0.072328255
0.070535496
-0.04752449
0.06885966
-0.011116616
0.080022104
0.0008294646
0.034078903
-0.068792745
0.07871626
0.018436981
-0.007859611
-0.033754993
0.050780114
0.036101647
0.027813187
0.023887847
0.0006558041
-0.058417037
0.027426992
0.032991394
-0.07788792
0.008491767
0.041412473
-0.0018046856
0.07027116
0.07868686
0.038344357
0.064145125
-0.002208184
-0.06271847
-0.014051732
-0.004695322
-0.021089701
-0.008933927
0.08958742
0.058741916
-0.08054366
0.051562045
-0.0010288679
0.037976507
0.07283755
-0.02389948
-0.07220682
-0.0055956664
-0.0069213794
-0.013447563
-0.06727453
0.033803765
-0.04328008
0.004883933
0.03984591
0.030102195
-0.040823996
-0.008631692
0.05315655
0.008719674
0.04663097
0.067899115
0.09119808
0.08050554
-0.033766672
0.078562245
-0.047604542
0.055801075
-0.038490426
-0.037223708
0.02700302
-0.054987404
-0.022007685
-0.04677413
0.0036862486
0.0026826442
-0.022796744
0.02801967
-0.048528776
-0.027131882
-0.06128307
0.022385709
-0.033430327
0.081360474
-0.055142574
-0.0024899624
-0.04328869
-0.007172951
0.033458915
-0.050784122
0.04271362
-0.04137643
0.07995814
-0.022384016
-0.057958193
-0.029489685
-0.027424922
-0.071261644
0.092473716
0.036778476
0.076290734
0.055470817
0.027685408
7.090844e-05
0.030840494
-0.045703717
0.04148945
-0.0062504434
-0.0032938402
-0.053928584
-0.030698
0.035901666
0.0043744594
0.014400302
-0.08319119
0.019761924
0.03869448
0.042970337
-0.10019412
0.20785798
0.1061463
0.025726791
0.0015700156
0.14350615
-0.050985754
0.08900949
-0.2515555
-0.008933379
0.11003104
0.0036632018
0.11249892
0.036945563
0.034698095
0.1335706
0.050693303
-0.020223109
-0.0754185
0.010141697
-0.19640206
-0.07486352
-0.46649027
0.13216195
-0.22772585
0.03801382
0.07255174
0.011248567
0.12845463
-0.023187187
0.08537996
-0.15769517
-0.021707151
-0.15186347
0.09026256
0.13892072
0.08471695
0.06517967
0.11761863
0.042813912
-0.11678611
-0.13260594
0.06196861
0.04384295
0.07104768
-0.10158888
0.15134843
0.13047385
0.32355058
-0.032627102
-0.12757893
-0.2883871
0.108314715
-0.16147882
0.060761448
-0.16758236
-0.06281122
-0.024288196
0.002384969
-0.03351573
-0.091288276
-0.056827325
0.009382898
-0.10981574
0.012026483
0.122058116
-0.10080682
-0.15260504
0.031201264
-0.123358294
0.018897925
0.011366434
-0.08237235
-0.054120366
0.026419757
0.0077153575
-0.17068976
0.0735071
-0.19134057
-0.044614237
-0.021897567
0.006416844
-0.0039084433
-0.04237075
-0.051518
0.05099599
-0.09547057
-0.08688134
0.06916038
-0.11237903
-0.0022560053
0.05591356
-0.025923746
-0.035427928
-0.04932784
0.17188512
-0.0612694
0.0954361
-0.106687084
-0.058687814
-0.15712903
-0.0077755474
-0.20679928
-0.07515985
-0.08217093
0.07066417
0.13697563
-0.06302114
-0.09724208
-0.22903681
-0.13129316
0.08463108
-0.0029531487
-0.045599934
-0.13262606
-0.07237984
-0.022793254
-0.014368052
-0.111463
-0.05513184
-0.2889725
-0.03035593
-0.08457933
-0.13004912
-0.12205768
0.06632918
-0.05871658
-0.17035781
-0.033967137
0.09430458
0.085601404
0.095197625
-0.066539675
0.2221553
-0.12322406
0.089919776
-0.3823078
0.1197628
-0.0065933913
0.11095004
0.14152892
-0.032840636
0.04555571
0.054761745
-0.03666573
-0.11694112
0.25386682
0.020067763
-0.28515953
-0.06891846
-0.2461414
0.0074482546
-0.08810418
-0.07790907
-0.0045590242
-0.13098575
0.13099036
-0.017715396
-0.017289342
-0.093526505
-0.070893295
-0.21418883
0.10892297
0.16506857
0.10217252
0.038224973
0.01079042
0.10529089
-0.2073266
0.13142616
-0.06579746
0.1619577
0.09203638
-0.14643605
0.070092805
0.013989201
0.10281491
0.046123553
-0.18651785
0.009050719
0.21577893
-0.10169022
-0.0029950398
-0.031349212
-0.019730432
0.027602972
0.036387783
0.0020620448
-0.114115015
0.04350124
-0.053530417
0.089508675
-0.17670727
-0.1314845
-0.10664379
-0.1434635
-0.0016675708
-0.04246848
-0.08541503
-0.055853166
0.0130611705
-0.6455739
-0.21348217
-0.12123264
0.25286502
-0.11507938
-0.08679831
-0.048241463
-0.5863604
-0.118071064
0.053785697
-0.1536661
-0.2604871
-0.022806212
-0.08670977
-0.07677696
-0.2770284
-0.13174646
-0.077997915
0.030559683
0.014504171
-0.060268413
-0.19658537
-0.1794986
-0.020718854
0.076642305
-0.26066917
-0.05111452
0.16502209
0.1290559
-0.26823932
-0.29406875
-0.03997
-0.37460408
0.07691329
-0.021451538
-0.24467088
0.09038407
-0.020091422
-0.28658065
0.18221869
0.010155434
-0.030376362
-0.064639226
-0.1095705
-0.33037895
-0.33540323
-0.28754413
0.013594175
-0.20366156
0.1563089
0.15306666
-0.253719
-0.08063774
-0.31336516
-0.11335645
-0.037096422
-0.00039009235
-0.031249514
0.04395298
-0.1051798
-0.06603027
0.11341944
-0.23440255
0.23936796
-0.09532838
-0.19128914
0.09745614
0.1802693
-0.074905366
-0.03578549
-0.03150822
-0.30089754
-0.051161665
0.055705417
-0.02516111
0.1365188
-0.32601926
-0.03990652
0.026281368
-0.06279156
-0.07817199
-0.14285143
-0.08423583
-0.010133838
-0.14336337
-0.100765884
0.19701074
0.14075013
-0.08712062
-0.35278907
0.01505948
0.1354856
-0.23142688
0.04317948
-0.23270437
0.10676891
0.03307974
0.17290616
0.047792334
-0.022871623
0.46305928
0.13548476
-0.13037369
0.14382485
0.025534881
-0.25518376
-0.13470243
-0.17548716
-0.3829763
0.21589912
-0.24915968
0.06323036
-0.004322624
-0.10807103
0.10253626
-0.027781742
-0.11389505
-0.23072879
-0.11736043
0.048180543
-0.020285305
0.06528679
-0.03341532
0.110695325
-0.14709717
-0.06746783
0.06249829
-0.20314746
-0.1321484
0.047759388
0.06814846
0.007022286
0.03913213
-0.052804306
0.15524942
-0.04229145
-0.075069755
0.07290691
-0.06484431
-0.0020295714
-0.0694774
-0.13955218
-0.0024981403
-0.036744654
0.082297295
-0.19758984
-0.034472376
-0.029804124
-0.12288091
0.04831677
-0.17981967
-0.012166137
-0.09883745
0.047362667
0.07622667
-0.2870498
0.08579767
-0.076376
-0.059223164
-0.053227954
0.012685748
-0.03373934
0.036270257
-0.050111745
-0.15362865
0.026832687
-0.0033431775
0.13852684
-0.10419437
-0.21642539
-0.18652089
0.08777356
-0.08380537
0.093961485
-0.046162024
-0.03922984
-0.014479698
-0.010462891
-0.033471677
-0.20511478
-0.03273104
0.046386816
-0.05261965
0.008388534
-0.044533
-0.20988965
0.24470814
-0.035841577
-0.30451173
0.048727203
-0.037819643
-0.000371559
0.18402055
0.1297103
0.09354993
-0.15149044
-0.10100886
-0.36623484
0.046406165
-0.12056151
0.009860507
0.24561316
0.096471384
0.069755405
-0.017562252
-0.044073947
-0.10914916
0.018700982
-0.19099596
0.0128407655
-0.22656861
0.1292606
0.0008124211
-0.01209771
0.023179306
0.15740106
-0.09090846
-0.0017466561
0.13652188
-0.26956818
-0.09015718
-0.22556823
-0.08653571
-0.113311335
0.11626429
-0.11777469
0.08325652
-0.26848105
0.07068373
-0.44645533
-0.20501225
-0.27816382
0.17185429
0.070811816
-0.11386197
0.05302857
0.25302947
0.0127904415
0.15915814
-0.07654172
0.023623787
0.1492886
0.29447258
0.04709111
-0.015202347
0.21120682
0.004947105
0.1110932
0.05768095
0.033740718
-0.1760526
-0.20667805
0.20378844
-0.46782118
-0.04734067
-0.51754487
-0.015526176
0.07804035
0.09314067
0.0325395
-0.06080349
-0.11550592
0.024819741
-0.04085362
-0.08186435
0.16833039
0.072918445
-0.0016077475
0.038879495
0.019594057
-0.089942336
-0.06265915
-0.24593402
-0.14451791
-0.04723699
0.012509988
-0.15961015
-0.14777005
-0.15067033
0.010244875
-0.11962916
-0.08793795
-0.0084544765
-0.10341297
-0.0696656
0.07290713
0.028979251
0.021228414
0.051885597
-0.021428388
0.072629526
0.067359686
-0.0008677275
0.027055081
-0.020370807
-0.3252965
0.006829469
-0.0585924
-0.25083423
0.16032183
-0.09035239
-0.08057139
-0.038849425
0.09964406
-0.069041744
-0.0013889389
0.031270877
-0.13690433
0.006313316
-0.17183425
0.008465763
-0.08530957
0.109152734
0.09361418
-0.036910776
-0.006454038
-0.022018835
0.07506021
-0.07599521
0.054256782
0.14632168
-0.106172085
0.088848874
0.20579688
0.21799897
-0.10255652
0.07093904
0.12589654
-0.07031832
-0.062428877
-0.1469656
-0.26805204
0.12705055
0.054146137
0.015707348
-0.045175027
-0.0034432244
-0.022814179
-0.08379954
0.14832349
-0.11225406
0.111701995
0.14765821
-0.26947638
-0.054046396
0.15139963
0.030990709
0.027064124
-0.025989328
0.112581775
0.03329337
-0.24457513
-0.25438052
-0.040183585
-0.22416437
0.099103056
-0.2073381
-0.17699155
-0.0717189
-0.023321314
-0.037445944
-0.007085807
0.09038211
-0.00479201
-0.060474448
0.034834247
0.00059004704
-0.06900622
0.08826306
0.021494582
0.0019622038
0.11044478
-0.018708615
-0.10925534
0.09173775
-0.042779136
0.09711801
0.15713726
-0.071643814
-0.073618665
0.007416507
0.059229985
-0.022714911
0.063013196
0.060321163
0.0733315
0.002188362
0.024548188
0.0022994927
-0.036966212
-0.020676527
-0.14518844
0.042022463
-0.084296085
0.034928564
-0.040996734
0.1486668
-0.039540168
-0.030315835
-0.06517838
0.045684185
-0.09044765
0.03080808
-0.0803559
-0.0625101
-0.0624492
-0.072158225
-0.06610332
0.037630748
0.007865178
-7.641303e-05
-0.06897915
-0.047204405
-0.08285469
0.16115272
-0.06236682
-0.061115243
-0.025974575
-0.06698915
0.05764274
-0.026335768
0.007950528
-0.012700858
0.2600679
0.0083818585
-0.078898504
-0.20430188
0.109702334
-0.1593716
-0.092472635
-0.10691615
-0.15833342
0.18309101
0.004686945
-0.042231128
-0.14774431
0.066135526
-0.07394707
-0.0028217023
0.020446457
0.16031958
0.061936416
0.026041357
0.1209759
-0.27849007
0.24573271
-0.020304227
-0.057227403
0.1750379
0.14242968
0.10582862
-0.15105006
0.07256206
-0.13841581
-0.15619682
0.03284854
-0.11943247
0.005987691
0.055571567
-0.059381485
0.036881845
-0.14941218
0.2609663
0.12149923
0.12015491
-0.24317713
-0.02654349
0.07439078
-0.023252858
0.14259146
-0.0904617
0.33062616
-0.097361445
-0.24426414
0.29415777
0.20718868
-0.06262249
-0.04151576
-0.1517115
-0.14248276
-0.26594907
0.04602983
0.17448021
-0.237035
-0.048125997
-0.16495205
-0.0938892
-0.4554829
0.26860812
0.074363254
-0.063672036
-0.2214821
0.098165415
0.18150869
-0.067183495
-0.10380855
0.08256533
0.3459347
0.072604954
0.17173065
0.0419012
0.053536825
0.06306933
-0.0773927
0.008085184
-0.11306165
-0.3484062
-0.07745163
-0.0696574
-0.08886788
-0.15357846
-0.023736577
-0.26153493
-0.18582822
-0.0064085885
0.1579074
0.09510112
-0.26870185
-0.0012315428
-0.28283316
-0.22284779
0.11085015
-0.10291003
-0.026866337
0.035585903
0.028095294
-0.022591531
-0.03626755
-0.23791023
-0.11952963
-0.03967954
0.33045432
-0.08543663
-0.1228461
-0.03575389
0.102509804
0.06462019
-0.15004598
-0.25594983
0.07956055
0.13976829
-0.11004857
-0.20517768
0.124321096
0.25799304
0.102140345
0.021204224
-0.20117584
0.14244781
-0.21711653
-0.1646955
0.055523507
0.032879338
0.10220138
-0.07515042
-0.2966888
-0.12903148
-0.09812611
0.04411237
-0.048918333
-0.15821828
0.040600616
0.10328617
-0.036125187
-0.054431174
-0.036945377
-0.27752036
-0.1550396
0.19577725
-0.07958734
-0.2658965
0.16176592
0.22158957
0.09849254
0.09616193
-0.002016379
0.120263346
-0.09335761
0.0200113
-0.1221046
0.116340384
-0.120892815
-0.06684496
0.034709334
-0.13853428
0.07156157
0.041941274
-0.04489388
0.02135533
0.071751475
0.07618425
-0.02100866
-0.28402838
-0.2886543
0.11018905
0.019518383
-0.039292343
-0.014536945
0.11481756
-0.06892039
0.097509205
-0.18010138
-0.3855767
-0.008071276
0.075450554
0.1952309
-0.33252499
0.0748933
0.16813098
0.0785542
-0.013633327
-0.18264414
0.0034458844
-0.03861092
-0.041743703
-0.38753337
-0.07458205
-0.016676223
0.08354607
0.10679923
0.03952603
0.051148843
-0.14889726
-0.14835465
-0.20091356
0.048515826
-0.1369054
-0.023899859
-0.16187154
-0.13511486
-0.003907062
0.102167614
-0.14068174
-0.0985458
0.024719983
0.026842969
-0.29168412
0.08487911
-0.07491262
-0.005365233
0.011825507
0.13086042
-0.090564005
-0.06162254
-0.0066120354
-0.23208709
0.036668118
-0.11479238
-0.054616436
-0.003474822
0.06236902
0.09615126
-0.24616556
-0.039332557
0.10170885
-0.10829717
0.09403301
0.18864878
0.0064446167
0.0794244
0.033312693
0.026197584
-0.053402044
0.0114293825
-0.020474382
0.03955476
0.0010794045
-0.17251363
-0.002009503
-0.2500736
-0.011755833
-0.011266303
0.026253598
-0.075376265
-0.07521928
-0.25172293
-0.08719198
-0.13980615
-0.15934452
-0.2809445
-0.01812116
0.043916166
-0.14610004
-0.20060496
0.23868375
0.24294634
0.2813213
0.031489726
0.075177364
0.16679837
0.0015648188
0.024181351
0.08101427
0.13406849
-0.16025347
-0.1869074
-0.08619546
-0.015025993
-0.13366991
0.11306419
-0.0065673054
-0.14849894
-0.27873936
-0.17066647
0.059750926
-0.050665103
-0.0044607907
-0.16378444
0.19613774
-0.063272014
0.07056669
-0.15856169
0.03088292
-0.20605133
-0.535301
0.32567888
0.14177828
-0.08251944
-0.16333248
-0.35429454
-0.17926781
0.19079483
0.30462128
0.116883926
-0.15232152
-0.24623561
-0.19415596
-0.028835999
0.073041245
0.16279139
0.16480184
0.250128
0.121222034
-0.0654846
0.12275984
0.09536961
-0.055772897
-0.027895477
0.03670346
0.016290069
-0.20614377
-0.148958
-0.271491
0.010058987
0.14112699
-0.06973757
0.2998341
-0.1177816
-0.39168963
-0.292959
-0.24901053
-0.10277754
0.02807744
-0.03932603
0.08597528
-0.1507359
0.044869803
-0.05736099
-0.23553123
-0.08289928
0.08684348
0.15070578
-0.054021355
-0.00031972493
0.18658487
0.00960487
-0.010312909
-0.18660699
0.13073963
-0.015879488
0.09633649
0.24154966
-0.010940764
0.06415929
-0.11535493
-0.10237419
-0.16778634
0.04891591
0.099416204
-0.4181916
0.022041311
-0.28632566
0.14421543
0.0035595533
0.022058116
0.05756847
-0.15717301
0.09116001
-0.05797463
0.041292727
-0.044154845
0.005673122
-0.11067339
0.08108626
0.16608055
0.020091856
-0.008338009
0.07111375
-0.017228851
-0.118383266
-0.024662513
-0.051338445
0.10719859
0.12168041
0.14783627
0.20948862
0.14764114
0.19655266
0.058022868
-0.15618673
-0.10608566
0.045089845
-0.19231693
-0.017919304
-0.037589945
-0.08333207
-0.023445215
0.044691548
-0.025325388
-0.14297482
0.0820671
-0.16382968
0.0040622656
-0.04598257
-0.20537832
0.20781574
-0.07235754
0.09449364
-0.08164479
0.15568845
-0.14896385
-0.06654732
0.05757058
-0.23510347
-0.066518754
0.0038768034
-0.45613542
-0.19451071
-0.6334608
-0.08325454
-0.11963485
-0.03562442
0.0028019326
0.14574121
-0.10225893
-0.106074035
0.00407461
0.24644987
0.111825645
-0.17949997
0.2218448
9.5026495e-05
0.09235376
0.014579553
0.07771162
0.21588038
0.07504832
-0.4525289
-0.20519003
-0.08003294
-0.049628634
-0.1915023
-0.4535033
-0.29625162
-0.2251279
0.020177428
0.06982349
-0.04800478
-0.1485595
-0.03823053
0.3205368
-0.041446775
0.06032918
-0.043320738
0.21165797
-0.2638917
0.16942859
0.2619248
-0.008028777
0.13702415
-0.15289801
-0.18012883
-0.1938987
0.22010162
-0.10121468
-0.10511838
-0.15125851
0.12946816
-0.3526449
0.076025635
-0.33676565
-0.42181107
-0.05842063
-0.45528093
-0.41604164
-0.13909313
-0.6829149
-0.24695913
0.048296332
-0.019453734
-0.015770733
-0.12760669
0.15063776
-0.28594357
-0.13839176
0.25666657
-0.21399122
0.09571804
0.040441163
-0.10660833
-0.098567225
-0.43835098
-0.4181445
-0.13621646
-0.08440931
0.19517362
-0.18922721
-0.30697554
0.0035669056
0.0059955614
0.12506887
0.1965079
-0.4210941
-0.54576254
0.13208345
-0.01581456
-0.2998063
0.12992826
0.39863473
0.21424282
-0.08988436
-0.28794178
-0.061065204
-0.116953254
-0.27492774
-0.65843064
-0.075335525
-0.39646637
-0.42575
-0.021427335
0.004653655
0.06841611
0.21441026
-0.18673602
-0.36030108
0.09902351
0.15766005
-0.011556256
-0.20746723
-0.04068572
-0.14043365
-0.10266554
-0.42039305
0.087955
-0.4303009
-0.09169552
0.020686885
0.20835368
-0.5378328
-0.1923962
0.028312769
-0.5724824
0.162875
0.11560943
-0.4750246
-0.20562351
0.14951041
0.24447463
-0.0553621
-0.118789054
0.1355067
-0.5336136
-0.644427
-0.15404955
0.06609632
-0.11956379
-0.19473892
-0.5867451
0.03676533
-0.45507511
-0.13438265
0.12814116
-0.06387122
0.16177084
-0.27565268
-0.3104
-0.1667209
-0.07627906
-0.10146995
-0.13581155
0.03635817
-0.10556316
0.0098913945
-0.3531961
0.22109804
0.30729157
0.10201249
0.22902313
-0.04866992
-0.08769731
0.027498925
-0.14232993
0.07744712
0.26968804
-0.08492248
-0.019727364
-0.29355305
0.43998328
0.18329869
-0.017607978
-0.035966687
-0.19174567
-0.5644122
-0.29700524
0.041959483
-0.02531173
-0.14607847
0.12582925
-0.00408693
-0.065557234
0.052521583
0.09143851
0.008961186
0.0007788773
-0.109744415
0.027159039
0.14479877
-0.035289895
-0.04548364
-0.064152315
0.0458144
0.0117576
-0.044977978
0.056961
0.11123263
0.009761884
-0.05149153
-0.03122475
0.1256746
-0.007460257
0.20690238
0.035905816
0.031887528
-0.18143559
0.0034206724
0.028369097
0.18250184
-0.0036303222
0.07311002
-0.021530936
-0.14142573
-0.08699567
0.084258705
-0.24665524
-0.12597346
-0.09210913
0.056961235
0.07511924
0.019999284
0.026006408
0.06937571
-0.01406237
-0.09226851
0.04061785
-0.03900104
-0.03949592
-0.24089909
0.04086464
-0.047907833
-0.15221702
0.050687864
0.105095476
0.06323999
0.03316444
-0.1056499
-0.12629505
0.045814507
0.01583543
0.04231592
-0.01020745
0.0536124
0.020675924
-0.049988046
0.059968237
0.007632931
0.12092457
0.079655044
-0.09132238
-0.23526272
-0.14048909
-0.13480227
0.010106174
-0.22526565
-0.023576269
-0.33800802
-0.38697642
-0.08891075
-0.17131814
0.039766677
0.058895346
-0.0552692
-0.22976513
0.10789372
0.10610342
0.17613539
0.14379326
0.13718574
-0.09199711
0.15156704
-0.015118603
0.06205171
-0.05432924
-0.027593529
-0.12924504
0.09002221
0.05369333
-0.033046864
-0.30504656
-0.23064628
0.011254691
-0.068348825
0.07322811
0.013127685
-0.060623083
-0.32058352
-0.01689862
0.024050988
0.042498548
-0.0003669393
0.106265716
0.10231176
-0.08783863
0.15582606
0.0744261
-0.0028475607
0.0030580522
-0.07658666
-0.03749593
-0.05008208
-0.093164094
-0.13212861
-0.011897114
-0.020810338
-0.050286688
-0.103119984
-0.095215924
0.010925791
-0.14115305
-0.13754039
-0.123842075
-0.175125
-0.051179558
-0.14313579
-0.07693032
0.11877905
0.11566305
0.033500787
-0.39548954
0.15671477
-0.25849608
-0.12518692
0.058101125
0.05516397
-0.032668866
-0.101686485
-0.08402837
-0.18473761
-0.077646695
0.09781159
-0.24672014
-0.08407757
0.04947893
0.016598301
-0.094536416
-0.046105985
0.082816854
-0.043178573
-0.31702128
0.11226949
0.005535814
0.1246273
-0.56507874
-0.5058805
0.18384689
-0.031063091
-0.19002816
0.07691501
-0.26818788
0.05926038
-0.08209598
-0.36558262
0.027338734
0.0853235
-0.06254821
-0.017400678
-0.2238873
-0.38112217
-0.5441665
-0.16148424
0.2062246
0.018424748
-0.0053835763
0.16163264
-0.03731781
-0.0694864
0.02022407
-0.13266282
-0.16845255
-0.10051687
0.04966664
-0.022728551
0.14331011
0.012416713
0.12585878
-0.29838753
-0.037238866
-0.33700022
-0.6136929
-0.09230059
0.07941053
-0.44907114
-0.0108793285
-0.67644185
-0.33821708
-0.13042426
-0.051548768
-0.2053138
0.10298005
-0.10010927
-0.0701954
0.074628
0.1336047
-0.044390157
-0.13295804
0.25880164
-0.07686178
0.083051376
-0.02708502
0.0224462
-0.004155984
0.00026028312
-0.35408762
-0.24575692
0.054730233
0.11199282
-0.3365267
-0.4963128
-0.14143793
