0,1,2,3,4,5,6,7,8,9,10,11,12,13,14,15,16,17,18,19,20,21,22,23,24,25,26,27,28,29,30,31,32,33,34,35,36,37,38,39,40,41,42,43,44,45,46,47,48,49,50,51,52,53,54,55,56,57,58,59,60,61,62,63
0.27778977,-0.18021838,0.04898071,-0.057403892,-0.3905259,-0.013537431,-0.10823595,0.3368864,-0.08565172,0.2168912,0.08538131,0.13015223,0.062972486,0.13272496,-0.39367467,0.0720791,-0.25168464,-0.08813117,-0.17633323,0.023656787,-0.31747687,0.15589339,-0.28434095,-0.20572276,-0.34107253,0.005410371,0.059110705,0.30179906,0.11443465,-0.05774075,0.28064737,-0.024010286,0.44079748,0.11102179,0.13338728,0.001171289,0.023487395,0.19850776,0.0754615,0.108247384,-0.07950995,0.47096545,-0.25667667,0.23701698,0.2568839,0.30558923,0.015167468,0.04013707,-0.07708231,0.038294043,0.053428702,0.02484754,0.057884905,0.5248505,-0.017070374,0.20405321,-0.6154361,-0.32185742,-0.42650774,-0.23398316,-0.117846206,0.18959013,0.13755448,0.22602603
0.04885079,-0.17785804,-0.16455136,-0.18207815,-0.04797637,0.04140377,0.1152665,-0.15245864,-0.112758465,-0.030503182,0.23475341,-0.15997694,0.06254679,-0.15296014,0.27619877,-0.21823438,-0.01693552,0.14072539,0.02947545,-0.16299468,0.16666639,0.3612248,0.20432994,0.0062856367,0.08654407,-0.19791532,-0.38368338,0.02745517,0.26358283,0.07166686,0.057930145,-0.10529337,-0.41145584,0.04232617,-0.187315,0.16962704,-0.12346435,-0.10769711,-0.17236225,-0.015978122,0.047245897,0.02949196,-0.15027745,-0.341255,-0.02985994,0.15476134,-0.30128947,-0.35076803,0.09114935,0.13819288,0.046188254,0.12637319,0.11925202,-0.013404702,-0.002385609,0.13458616,-0.064700946,0.4508986,0.025604779,-0.11058373,-0.057436954,-0.41990256,-0.17806934,0.26946124
0.0898722,0.029158195,0.1546186,-0.22669388,-0.039250456,-0.001756433,0.0061653033,-0.13415058,-0.086494856,-0.009283678,-0.1732404,-0.48721284,-0.083212346,-0.12517428,-0.020914739,0.22871119,0.12070123,0.031996753,-0.093877226,0.21544428,0.10034892,-0.27361047,0.22550446,0.27251226,-0.23262474,0.13359731,-0.13930805,0.065548114,-0.30058596,0.08864319,-0.1461616,0.15588753,-0.059168745,0.028511405,-0.034480862,0.12717894,-0.21488366,0.06064944,-0.18294524,-0.483195,-0.23921448,-0.058305085,0.72263205,0.03506059,-0.1373009,-0.11564499,-0.082906365,0.040861867,-0.34109256,0.21416314,-0.22325009,-0.12936558,-0.11755783,-0.055209544,0.30689064,-0.7331042,0.1567791,0.14886905,0.039961107,-0.014026329,0.051817767,0.05305218,-0.1775225,-0.2211511
-0.30763093,-0.08732223,-0.3397385,0.06032493,-0.2903957,0.36594424,0.06952628,-0.1622857,-0.036368467,0.20400544,-0.015951104,-0.17064239,-0.10613686,-0.38773152,0.3891862,-0.24697791,-0.049835358,-0.46216014,-0.08923404,-0.46419767,-0.42574504,0.24040407,-0.13748536,0.17995718,0.12342764,-0.1240564,0.05945084,-0.032109514,0.43752545,0.18134823,0.11632776,-0.1631664,-0.2665092,0.07655895,0.11900131,0.3327407,-0.17378229,0.091896065,-0.024237119,0.08967924,0.17907979,0.014446104,-0.015800342,-0.19644932,-0.1506777,-0.24321415,0.07976982,0.1441254,0.037442587,0.0673369,0.024809757,0.29355133,-0.036873113,-0.018012006,-0.045366615,0.35840368,0.0013683803,-0.09605383,0.121337585,-0.03246613,0.14777207,-0.38646862,-0.105971865,-0.19584964
0.13888252,-0.069348164,0.06325518,-0.21126363,-0.24028732,-0.10662453,-0.47636962,0.11708725,0.18656878,-0.021443527,0.10099899,-0.15591203,0.11547238,-0.037024517,0.02044706,0.010827525,-0.29099473,-0.094655246,0.11111993,-0.19711882,-0.06457084,0.035810094,-0.046722043,-0.115349784,-0.12116034,-0.49405617,-0.04938557,0.0863828,0.30561256,0.22879303,-0.011019051,-0.43277818,0.11047108,0.32086453,-0.09054438,-0.17027242,-0.03349191,-0.06349532,-0.20835368,0.004112101,0.0381181,-0.099390395,-0.105878025,-0.07888023,-0.023893606,0.22073929,0.053570677,0.23884206,0.20432067,0.057078168,0.58630604,-0.19070645,0.30715948,0.012820629,-0.080141515,0.07796789,-0.054603156,0.030095456,0.13156974,0.00051223725,-0.38632846,0.18705422,-0.06344573,0.03257423
-0.2614957,0.32103702,-0.30853295,0.15226455,-0.050523877,-0.15100142,-0.118339464,0.19104832,0.29354984,-0.20636804,-0.3421533,0.49129948,0.06890354,0.23554341,-0.44211268,0.095497936,0.13050075,-0.2674369,0.3435772,0.28833714,-0.4357461,0.115251064,-0.7546664,-0.47742936,0.017994562,-0.035738334,0.20279434,-0.087109104,0.13216747,-0.45635092,-0.42752486,0.5622017,0.26819658,0.072353214,0.4251643,0.041397803,0.4271727,-0.48695156,0.11926437,0.36828184,0.34430033,0.46451038,-0.4857478,0.2842003,0.2176352,-0.14420626,0.36375546,-0.26871455,0.32441264,-0.34842524,0.29444018,-0.2115345,-0.4091319,0.26159132,-0.4319237,0.50684476,-0.102979735,-0.3934054,0.0559853,-0.04462011,0.028015288,0.10653835,-0.012303332,-0.3792457
-0.16388018,0.15972526,-0.018166125,0.22241697,0.05748429,-0.0071925656,-0.074553244,-0.17754337,0.46706226,-0.42055047,0.004243069,-0.10850266,0.55618876,0.23846263,-0.111025035,-0.009064129,0.03273822,-0.117273815,0.424812,0.08938124,-0.056928325,-0.02524119,-0.0043081283,0.04468524,0.12528273,-0.0840206,0.047662318,-0.5076873,-0.014424736,0.049201816,-0.3768969,0.09721728,0.013528814,-0.04570026,0.05236441,-0.22800294,-0.09710012,-0.14938219,0.018039808,0.06566766,-0.0062525915,0.014807398,0.041623794,0.053542428,0.08881854,-0.06489511,-0.13177016,0.018694684,0.07112944,-0.19980451,0.09465011,-0.07812228,-0.036308065,-0.047286693,-0.02990514,-0.086449504,0.13358118,-0.0047936523,0.0155746285,0.10066615,-0.06804828,-0.07093305,0.25581637,-0.10146213
-0.20803756,-0.033884883,-0.026706217,0.29522085,0.23511812,0.20047995,-0.012263906,-0.023983562,-0.09312766,-0.41956413,-0.13753754,0.33398643,0.1745648,0.19274394,-0.18556161,0.008272571,-0.13556613,0.055186965,-0.10553068,0.25056213,-0.08455862,-0.028377017,0.090239294,-0.38241494,-0.09783282,-0.06471211,0.020448212,-0.26257786,-0.056284953,-0.081607975,-0.0794797,0.38908178,0.087762505,0.06749274,0.35238668,-0.39062184,-0.15423493,-0.17865025,0.36736482,0.06043097,0.26012546,0.40300205,-0.34851936,0.025061145,0.26554787,0.13881889,0.25571892,-0.3316345,-0.12347845,-0.39079168,-0.022862293,0.08544903,-0.39983514,0.2224031,-0.24811372,0.07413499,-0.23651388,-0.06794419,-0.16332808,0.24179217,-0.114867374,-0.07173293,0.37371284,0.035120368
0.026677411,0.26497144,-0.0011749886,0.09952434,0.25140303,-0.086795524,0.009476217,0.08358579,0.118967935,-0.2856381,-0.1852914,0.24897479,0.2520274,0.4547696,0.07957349,-0.17959835,0.13409168,-0.070239305,0.3015427,0.66793334,0.23288487,-0.09656688,-0.25554553,-0.016043155,0.11729861,0.1599401,0.3493028,-0.37403297,-0.21984804,-0.13284677,-0.5194699,0.2905513,-0.06030896,0.053832747,-0.01788313,0.10776571,-0.027867611,-0.15052056,0.35631558,-0.07492961,0.019052606,-0.08507953,0.11802053,0.0861313,-0.18402845,0.04016147,-0.077725306,0.03244817,0.2955545,-0.06104515,-0.15393052,-0.19835718,-0.33988228,-0.074147336,-0.20546027,-0.09229619,0.077955864,-0.09176923,0.052851938,-0.0086031,-0.038963236,0.070409864,-0.0450907,-0.48417732
0.32967737,-0.13834845,0.38798368,-0.32655457,0.15777013,-0.12133645,0.029560912,0.19260557,-0.2943673,0.2748942,-0.09430043,-0.25221786,0.070690155,0.2212055,-0.064023085,-0.06594857,-0.28936824,0.41806892,-0.39998642,-0.21492575,0.0870057,0.0576677,0.28237975,-0.14452688,-0.36413443,0.0866182,-0.07203137,0.18750186,-0.031377047,0.17702657,0.1801663,0.03916185,0.36890358,-0.11698745,-0.012852522,-0.25163022,0.1275968,0.4179662,0.11973293,-0.2860112,-0.16190943,0.046741538,0.23528154,0.034462195,-0.08088628,0.111486785,-0.258157,0.11031624,-0.15740973,0.19571391,-0.09477305,0.07989854,-0.08348033,-0.020971224,0.29372182,-0.30536497,-0.53663355,-0.048852816,-0.27452356,-0.123757206,0.025196,0.06066485,-0.2736458,0.4458042
0.23301882,-0.4202439,-0.3370967,0.017070377,0.3329649,-0.10645199,0.34005955,0.009436633,-0.15013605,0.089129075,0.14510158,0.08586477,-0.11480852,0.025330478,0.09362693,-0.004781505,0.40622437,-0.03910642,0.13025063,0.18089123,0.12024344,0.5797417,-0.10840444,0.13710731,-0.18146844,-0.033754677,-0.20805489,-0.120440826,-0.20606223,-0.042390395,0.114331596,0.31818968,-0.1426415,0.10197852,-0.4022366,0.33476812,0.10322868,-0.043227207,-0.060530532,-0.12987478,0.2755132,0.07953059,-0.13671558,0.1221138,-0.0957999,0.18653329,0.023777727,-0.62420607,0.09220216,-0.09523428,-0.16611692,0.30523688,-0.057050098,-0.016931074,-0.040270593,-0.1344056,0.011988117,0.24101672,-0.018979132,0.020034375,0.28258476,-0.6142242,-0.45014346,-0.22342868
0.122547075,0.095623426,-0.044787277,-0.14048727,0.078003384,0.06376712,0.10981589,0.26516572,0.09166059,-0.204263,-0.31959087,0.06874217,0.3892686,0.60768026,0.029042639,-0.03606443,-0.056484833,0.18409134,0.053089347,-0.07320415,-0.027097289,-0.06702998,0.0019898573,0.023865992,0.14541635,-0.2817146,0.5938042,-0.158336,-0.117987186,0.057879563,-0.028007552,-0.0019651295,0.06107353,-0.12759332,0.3587692,-0.39326006,0.15355034,0.015067107,0.35222077,0.08860674,0.07422251,0.021833621,0.19830263,-0.03924051,-0.13336697,0.041421264,-0.21382906,0.00542361,0.1960825,-0.013431935,0.027061343,-0.3108286,-0.35095203,-0.030595843,0.038302563,-0.15839945,-0.21177799,-0.20860209,0.12358624,-0.0977921,-0.25665864,0.19556375,0.10042075,-0.20814386
-0.0840744,-0.00515846,-0.02960809,0.11116751,0.009276045,-0.11651976,-0.22014439,-0.27822718,-0.16998176,0.17397648,-0.17730522,-0.62718165,-0.1723597,-0.13830353,-0.01188285,0.17674771,-0.032988723,0.09838307,-0.0034009847,0.22521286,-0.0036061488,-0.01490393,0.33065557,0.36528957,0.05932313,0.14435917,-0.16946267,-0.119390614,-0.17060551,-0.06370625,-0.26599234,0.19697197,-0.17984854,0.032958534,-0.028704207,0.37288845,-0.17123108,0.14135121,-0.22868784,-0.44946998,-0.2796438,-0.086842634,0.52310306,-0.17280543,-0.092014745,-0.21416928,0.14757238,0.06425164,-0.41345155,0.16012786,-0.2416431,0.011724153,0.16424254,0.013612081,0.23186934,-0.21919757,0.14352201,0.2563291,0.06502333,0.3404102,0.2570828,-0.08374069,-0.12931411,0.055849392
-0.27459905,-0.014093988,0.19299214,0.061472602,-0.044899616,-0.0256694,-0.2509744,0.34777582,0.1055586,-0.12557499,0.19440795,-0.40737766,0.12808931,0.12053918,-0.22799985,0.21381825,-0.23620667,-0.017347898,-0.16363625,0.0620272,0.23874053,-0.32300532,0.38059792,-0.17660193,-0.047382195,0.30088514,-0.09311992,0.22175893,-0.1997223,-0.1307917,0.08124434,0.05369204,0.40375364,-0.18842474,-0.20244126,-0.017848592,0.21860448,0.33821735,-0.0105582625,-0.0024057592,-0.5532178,-0.07246533,0.2711101,-0.11153067,0.01629784,-0.06717027,-0.1007077,0.17894828,-0.15057994,0.016613724,-0.15613683,-0.0849456,-0.13426715,-0.3175341,0.68065965,-0.5666649,-0.41607675,0.16818027,-0.2452232,-0.21825604,0.1539128,0.26073053,0.18738344,0.20275392
-0.35992345,-0.10639544,0.3710697,0.5129922,0.43905333,0.13549782,0.1558132,-0.22708294,0.29879868,-0.13813749,0.22181445,-0.1394535,0.24549505,-0.115232155,0.34812295,-0.11334074,0.22767112,-0.2920275,0.29486173,0.09940109,0.118242666,-0.12181761,0.025959313,0.0015504224,0.48463842,-0.1012702,0.01881318,-0.29356706,-0.16285156,-0.45634305,-0.034663536,-0.0900584,-0.48914814,-0.5269644,0.02461801,-0.10621301,-0.0077016447,0.020334732,0.1183041,0.22612652,0.014192867,-0.099495776,-0.042666197,-0.046818618,0.18528779,-0.30247685,-0.34665477,0.067443706,0.31036633,0.13846411,-0.44023198,0.40939707,0.08360818,-0.3138531,0.1481161,-0.13900076,-0.09701708,0.43143606,-0.22591387,0.06706085,0.285066,-0.016524896,0.25193587,0.104227036
-0.003328809,-0.63221323,0.20301282,0.17772639,-0.059951875,-0.024723232,0.08258406,-0.004541881,0.032598652,-0.006112959,0.3127051,0.04309215,-0.15734027,0.005442979,-0.04892019,-0.15188423,-0.23566741,-0.0016888778,-0.036120597,-0.086317435,-0.04840208,0.42739138,0.028366512,-0.30254635,0.08533618,0.055976834,-0.43827957,0.07548073,0.27293742,-0.08450254,0.120441295,-0.029446747,0.05408102,0.18555318,-0.50222254,-0.054889884,0.11566357,0.048637617,-0.41572845,0.19482231,-0.14102578,0.37359634,-0.10186862,-0.4430377,0.17759988,0.122525565,-0.076325536,-0.44601768,0.06496079,-0.108544484,0.20853001,0.38214043,0.25332043,0.0946282,-0.04026827,0.15151955,-0.21791478,0.3905798,-0.34852877,-0.018340347,0.14412373,-0.41144827,-0.093756005,0.5376413
-0.14008787,-0.005179363,-0.08819671,0.22518007,0.22378896,0.077732086,-0.031178726,-0.54905456,-0.01931859,-0.14033999,0.11569268,-0.29188392,0.042460747,-0.22684176,0.24716213,-0.035517376,0.14672741,-0.161647,0.14140381,0.06897422,-0.103821024,-0.028936166,0.027276024,0.3050187,0.064058565,-0.07738393,-0.14563958,-0.12715586,-0.07874245,-0.041596595,-0.47390047,0.12632628,-0.45681182,0.18416782,-0.23018767,0.33966884,-0.3581129,-0.19742694,-0.15634456,-0.35341668,0.024401795,-0.12905149,0.14377199,-0.116115786,0.068497255,-0.2983104,0.14800337,0.0038156777,-0.063597284,-0.009301041,-0.3711471,0.008178709,0.008319847,0.031414352,-0.10214194,-0.10636253,0.5344631,0.5200063,0.088899665,0.24793188,0.050949782,-0.34172994,0.02642453,-0.0548461
-0.1284452,0.32656783,-0.44387698,-0.16830339,0.009970588,-0.040241987,-0.19061375,-0.12288715,-0.026936688,-0.1569557,-0.49536148,0.051227592,-0.03259243,-0.0981706,-0.12976722,0.19909695,-0.16480091,-0.20997758,0.07965057,0.17585604,-0.12960392,0.114222124,0.095331825,-0.02139693,0.28962106,-0.19144416,0.23237914,-0.034091927,0.23906562,0.0821489,-0.16980432,0.15411346,-0.1806327,0.33905238,0.19375661,0.23399396,-0.044494946,-0.012934143,-0.21693277,-0.120990336,-0.18445805,-0.3561596,0.28951046,0.079698145,-0.12795293,-0.22199616,0.3615102,0.46898773,0.012206349,0.08104953,-0.004896015,-0.2372397,-0.15215348,-0.010992027,-0.033784207,0.038765304,0.50450516,-0.035406083,0.5971855,-0.02703926,-0.044672705,0.16095607,0.015480923,-0.68583965
0.26003367,-0.039272,-0.31078184,0.021601478,0.094867244,0.10984566,0.3106237,-0.053769324,0.01650366,0.18311968,0.021884419,-0.26198113,0.030310197,-0.049727585,0.51648515,-0.28352135,0.3536462,0.29974332,0.2754198,0.11407735,0.5096878,0.17457658,-0.09888765,0.040927663,0.12714149,-0.14883597,0.14202653,-0.4822237,0.17106228,0.10967426,0.06754971,-0.11666225,-0.5321652,-0.08750911,-0.30089864,0.38382295,0.20704783,-0.54289085,0.16599691,0.022767143,0.43099883,-0.34484005,0.10954371,-0.012909653,-0.2985081,0.14327356,-0.5807631,-0.21389379,-0.01223495,-0.053395417,-0.08972797,-0.25353408,0.133464,-0.44056058,-0.10786438,-0.14258185,0.6369557,0.2525652,0.044545304,-0.17924005,0.0910841,-0.35533282,-0.29891062,-0.4340302
-0.31543395,-0.034723323,0.27378777,0.7880831,0.14418669,0.03673651,0.18147874,-0.056730766,0.1214533,-0.3422186,0.29013142,-0.030043717,0.043073453,-0.1749286,0.33964533,-0.19424252,0.3310838,-0.31557494,-0.005232676,0.0053843446,0.01359161,-0.10602848,0.1037208,-0.027020914,0.29676336,0.007549805,-0.18081419,-0.38453105,-0.24318717,-0.24755691,-0.31861645,0.07132966,-0.28831467,-0.27800205,0.063030265,-0.07226496,-0.15603045,-0.11665358,0.09013808,0.2331074,-0.0475602,0.07379039,-0.035612926,-0.058451507,0.36257112,-0.17404282,-0.057009835,0.060123708,0.052742727,0.08634597,-0.41296294,0.3076781,0.1741082,-0.15544902,-0.0068172878,-0.09782386,-0.057215307,0.24092777,-0.2982232,0.40136886,0.11635933,0.022169804,0.2050328,0.1439253
-0.21175049,-0.19873966,0.03238144,0.060404424,0.15130457,0.42974818,-0.12232697,-0.32813108,-0.2040251,0.06496501,0.08724212,0.046236068,-0.021601392,-0.28998315,-0.036943093,-0.31174317,-0.10076798,-0.4718323,-0.17903201,0.054897442,-0.3858215,0.27190623,-0.18779121,-0.09752276,0.4153124,-0.3761165,-0.22641884,-0.11943897,0.2381413,-0.17606635,-0.115782104,0.17959787,-0.3033894,0.005590095,0.0043427735,-0.01568586,-0.26291147,-0.16108342,-0.11528916,0.014947899,0.21008076,0.13603345,-0.10986161,-0.4094071,0.0990158,-0.29878402,0.14676657,-0.058856767,0.084973015,-0.07345425,0.10233849,0.51289195,-0.027492797,0.13459697,0.103338234,0.41262618,0.053866923,0.008899843,0.015111503,0.25453562,0.0061300723,-0.35603344,0.23638347,-0.10228628
-0.1386086,0.14628889,-0.040164072,-0.00554145,-0.33554253,0.20491685,-0.27358133,0.028230203,0.077561654,0.22317684,-0.6385765,0.2123607,-0.19337483,-0.048152853,-0.04502266,0.16951157,-0.15135786,-0.26246935,-0.025078088,-0.17874542,-0.52699155,-0.28848758,-0.2808268,0.25674197,0.06761501,-0.18783948,0.33091646,-0.014074804,0.14226736,0.5010293,-0.045249064,-0.106566295,0.12333057,0.057566658,0.30442894,-0.12865764,-0.37627974,-0.087408595,0.059858326,-0.07019291,0.059283722,-0.16642894,0.13577354,0.027530853,-0.23337428,-0.22083673,0.2840432,0.30000174,-0.16433334,0.16969115,-0.103795566,-0.26198807,-0.19748561,0.32765913,-0.13103616,0.23290089,-0.07396535,-0.35827443,0.2593266,0.020184074,-0.10568377,0.1087438,-0.112871215,-0.3011676
0.1154711,-0.25181428,0.052640438,-0.3676187,-0.26858786,-0.011653603,0.11438442,-0.12277845,-0.1791416,0.23693892,-0.5136307,-0.22223915,-0.016577205,0.08428782,0.22159536,0.07563446,-0.13475595,-0.051884115,-0.1918254,-0.11899514,0.057738982,0.22647196,-0.16375032,0.32659584,-0.14674869,0.017470224,0.12487411,0.15445971,-0.07160255,0.20486514,0.22646147,0.05878407,-0.127263,-0.16107431,0.060486965,-0.061205894,-0.06526634,0.00834084,-0.109819226,-0.48463848,-0.14945345,-0.0659626,0.4262735,-0.051309932,-0.48339105,-0.039692238,0.14278969,0.14821425,-0.51155245,0.32444736,-0.41210374,0.035336614,-0.15535739,0.25317535,0.068293825,0.051957905,-0.14928198,0.083066955,0.21940953,0.2021546,0.00097136607,0.00014278729,-0.20810235,0.08779211
0.14912845,0.052731786,-0.22849484,-0.5867002,0.06416284,0.3971892,-0.22121336,0.06731219,-0.39048165,0.032941777,-0.60331994,-0.41221222,-0.038319357,0.11905823,0.21740659,-0.0836611,-0.3611325,0.07652402,-0.2296504,-0.067535385,0.18661252,0.004550937,0.10228996,-0.015553491,-0.10335281,-0.08986129,0.2005423,0.20336874,0.115921505,-0.10390767,-0.0058984365,-0.039331377,0.03188739,0.10721495,0.07751362,0.059261933,0.37048355,0.01609037,-0.114166066,-0.13689654,0.08532418,-0.2902363,0.38248312,-0.35717115,-0.75846756,-0.00336992,-0.043473482,0.15943043,-0.17717634,0.124621406,0.033122685,-0.21959367,-0.54602367,-0.21011993,0.56388164,-0.2569975,-0.10095884,0.1402816,0.38151073,-0.07721905,-0.23419821,-0.017199807,-0.15635157,-0.00097322743
0.2958641,0.16611882,-0.46746388,-0.3106202,-0.23455621,-0.1521748,-0.33563736,0.034511052,-0.055247206,-0.1661999,-0.1900708,0.022861334,-0.118320875,-0.0053177103,0.037168883,-0.025268901,-0.2360837,0.15041749,0.037628315,0.26173267,0.060686555,0.421528,0.15344273,-0.060121905,-0.15864818,-0.16569886,-0.082138605,-0.15477477,0.11560931,0.21033487,-0.07281497,0.26767582,0.17118968,0.3630463,0.056734126,-0.158909,-0.1594793,-0.1697239,-0.2730335,-0.16285361,0.09512071,-0.08716555,0.05979425,0.05607307,-0.1379107,0.46092662,0.21145336,0.058535703,-0.07036219,-0.066814564,0.004994908,-0.25849593,-0.10568365,0.10900917,-0.09121836,-0.04273056,0.25709638,0.12763062,0.09209185,0.09153482,-0.16605282,0.082940176,-0.23492059,-0.1257123
0.6671788,0.11244725,-0.3469376,-0.34653354,-0.1637043,0.08889015,0.18564966,0.33057904,-0.037377432,0.0074416394,0.026747232,-0.33895645,-0.1295017,0.113627836,0.29650646,-0.17164104,0.06935629,0.18210521,0.11852483,-0.19417712,0.19067562,0.17485344,-0.07693515,0.0788222,-0.035763074,-0.16939573,0.46565893,-0.064075,0.061430372,0.311004,0.1985168,-0.5066187,0.11054942,-0.16299564,0.017569732,0.008224009,0.053302977,-0.012937373,0.09402123,0.053225994,0.16352925,-0.1720372,-0.07339539,0.34370542,-0.31632984,0.33925918,-0.22987859,-0.073533066,0.15262255,0.15476044,0.027918274,-0.30966914,0.07325635,-0.046792272,-0.04255887,-0.08779644,0.09228579,-0.06791682,-0.10363229,-0.34217766,-0.22195685,0.030116037,-0.56683576,0.054290395
0.09907086,-0.13688609,-0.014180552,-0.013545279,-0.5328964,0.38393897,0.10899471,0.05134756,0.0077250516,0.30983457,0.045758866,-0.09074475,-0.0051996987,-0.32444572,0.23854396,-0.08115615,-0.14455575,-0.22650816,-0.08285383,-0.665678,-0.20521805,-0.31339246,-0.37912583,0.5418169,0.07908088,-0.05757712,0.13041882,0.21507137,0.20034654,0.51073295,0.35725385,-0.38988474,0.013054577,-0.27152506,0.12479036,-0.12889323,-0.4529762,-0.03615914,0.34926736,0.007842168,0.05869075,0.08147624,0.123878576,0.021498632,0.14365785,-0.15808564,-0.09809148,0.19121037,-0.10307281,0.3851729,0.077062085,-0.041207433,0.24555208,0.037749413,-0.095276035,0.11835555,-0.03421453,0.0049925065,-0.046422146,0.08753188,-0.16919953,0.16839088,-0.026293175,0.10508214
0.18774517,-0.10791975,0.2661727,-0.36891985,0.06559541,0.017820412,0.11090454,0.29524964,-0.39491364,0.082687795,-0.18742566,-0.1325184,-0.09737611,0.047017556,-0.12579885,0.012295906,-0.46038765,0.29006356,-0.4594665,-0.055819824,0.070216976,-0.09230962,0.21464291,0.014745548,-0.36680233,-0.023070656,-0.11687984,0.27461633,-0.13188104,0.07566613,0.3793171,0.053200103,0.18824962,-0.07987842,-0.02376101,-0.0036707046,-0.17177294,0.498703,0.11485395,-0.29791507,-0.29498196,0.0079774875,0.31012192,-0.15655272,-0.2047974,0.23646758,-0.12121239,0.0441007,-0.44685754,0.059862368,-0.2260063,-0.026357498,-0.21973805,0.28337908,0.4363358,-0.37247482,-0.33773163,0.022954848,0.003968922,0.07260287,0.072559364,0.037036315,-0.2846689,0.18300639
0.1354104,0.27275428,-0.22478372,-0.014499098,0.14353532,-0.18246469,0.20127432,0.0575304,0.058530435,-0.088915974,0.027022917,0.0014720064,-0.1391898,-0.062347654,0.11859239,-0.047475234,0.2747788,0.026488557,0.4568465,-0.0027414474,0.16593762,-0.07024079,-0.23984525,-0.03121485,0.19377409,-0.013204971,0.37937927,-0.16106586,0.172818,-0.124084614,0.1443858,-0.24332319,-0.10866002,0.1320066,-0.26085567,-0.051735077,0.201414,-0.45925403,0.19657007,0.6276056,0.3658972,0.062953725,-0.1800295,0.039812382,-0.064659774,0.09014772,-0.26683024,-0.11251168,0.6416398,-0.18773712,0.38732484,-0.048004918,0.10004671,0.022556739,-0.27204216,0.17834875,0.28299084,-0.16260682,-0.18186113,-0.4178863,-0.15282756,-0.005422091,-0.3265952,-0.14590715
-0.10204246,-0.08140534,-0.017588302,0.17659715,0.20579283,-0.25417715,-0.017238282,-0.10520433,-0.056585427,-0.29179594,-0.05329609,0.09456622,0.10628356,0.49199626,-0.014775663,-0.020077733,0.04789292,0.056288697,0.10908761,0.5953189,0.33135286,-0.06301493,0.33730862,-0.3326048,-0.17272033,0.030321943,-0.040786263,-0.3145204,-0.16736767,-0.28723204,-0.18015276,0.21051364,0.17269509,-0.04579187,-0.27667618,-0.023427274,0.16445604,0.024322525,-0.30236945,-0.15674539,-0.033088885,-0.042085964,0.18033074,-0.23945606,0.14298208,0.122226186,0.15795554,-0.15349977,-0.057339113,-0.1493992,0.03568139,0.06029066,-0.10255375,-0.044557832,0.07416818,-0.39703858,-0.19712311,0.0021375865,0.055240244,-0.014256801,-0.02662492,-0.15170802,0.1460308,-0.13922583
-0.14269766,0.2194254,0.12443407,0.08674065,0.06710317,0.05874692,-0.11077786,0.1280648,0.3266837,-0.31910926,-0.17128634,0.6245603,0.1984534,0.3444438,-0.27256426,0.17598425,0.24280603,-0.41803837,0.24351922,0.2818714,-0.08277701,-0.0018572952,-0.6015315,-0.27846047,0.34547958,-0.08616067,0.38072136,0.07502971,-0.335298,-0.4524949,-0.45006448,0.566325,0.13340561,-0.17851092,0.6892336,-0.31480995,0.04921515,-0.09108052,0.5553892,0.27517283,0.01849148,0.28375864,-0.20922193,0.20292275,0.24729864,-0.059486225,0.14350109,-0.24579097,0.16462065,-0.381263,-0.12890737,-0.1749903,-0.50910413,0.27054173,-0.42482984,0.16319337,-0.3270343,-0.2582839,0.050161313,-0.14973067,0.061650593,0.12835744,0.44775093,-0.5517544
0.09129477,-0.13127263,-0.37230048,-0.26152924,-0.14652836,0.109166026,-0.034952763,0.017365392,-0.41418463,0.45376968,-0.19246349,0.050103147,-0.5614707,-0.21795547,-0.14094688,0.3439775,0.019547768,-0.22749594,-0.2505658,-0.20524739,-0.21849197,0.23179533,0.020708831,-0.05686422,-0.12559265,0.17048445,-0.1382746,0.38390958,0.2820743,0.11513064,0.105673395,0.124311924,-0.16407701,0.2098534,-0.27891308,0.5095045,0.20578267,0.22876254,-0.023768602,-0.13874194,-0.0178247,0.13305351,0.049893554,-0.026457924,-0.2352743,-0.048237268,0.040935334,-0.23427765,-0.04014523,0.22904308,-0.042300988,0.42653465,-0.08058654,0.33202237,-0.12227338,-0.007149834,-0.05268065,0.07566072,-0.038062986,-0.24338742,0.25484437,-0.20243315,-0.22845359,-0.1855304
-0.22980934,-0.12854661,0.38429752,0.12401662,0.013424134,-0.06909514,0.091637574,0.2073611,-0.11655931,0.3374424,-0.101629354,-0.1173985,-0.018961268,0.072527304,0.05538482,0.49529544,-0.028886225,0.06473413,-0.22832565,0.14398073,0.1690453,-0.32697988,0.037398756,-0.010309385,-0.22908743,0.46974507,-0.037954375,0.31209508,-0.35396016,-0.27855635,0.0653881,0.057005025,0.14267781,-0.35860857,-0.13572516,0.07662152,0.03773198,0.46486157,-0.007936836,-0.15289071,-0.38679013,0.15870032,0.37534964,0.297115,0.04549115,-0.08213522,0.07394781,0.0124595305,-0.15470965,0.24213006,-0.45491016,0.062417038,-0.0052800747,-0.07644971,0.4196526,-0.61474717,-0.12928742,0.05455136,-0.21326871,-0.17873022,0.21255544,0.104055,-0.2143065,0.10053902
-0.20316446,-0.20380363,-0.11472386,-0.20277235,-0.0032806674,0.15806462,-0.2031662,-0.15397716,-0.051143717,-0.029476188,-0.07269551,-0.20199965,-0.061707083,0.06365813,0.27607456,0.061802994,-0.15878472,-0.08696022,-0.048393182,-0.14675781,0.19127357,0.10420667,0.02206737,-0.26087078,0.11147329,0.08583779,-0.30587918,0.07958909,0.29048905,0.07893331,0.13824564,-0.061878722,-0.027834125,0.32383886,-0.24051821,0.023524985,0.4030877,0.02026521,-0.36732712,0.07232384,0.047949072,0.18072337,0.09428078,-0.4552105,-0.053152032,0.020989982,0.061824728,-0.31055906,0.0897223,-0.2520711,0.17876887,0.42451406,-0.06785236,0.04881865,0.29812598,-0.06641942,0.009728975,0.19257762,-0.07871072,0.06945546,0.18353198,-0.43389615,-0.22827625,0.313487
0.46783912,0.13832778,-0.21542403,-0.038774397,-0.031493366,0.274748,-0.0035200892,-0.041177914,-0.17717345,-0.060528267,-0.29914057,-0.081141755,-0.1580571,0.049238052,0.28810364,-0.08044659,-0.021890936,0.24989638,-0.11484164,-0.048284054,-0.047249816,0.35531133,-0.17691933,0.0013804891,-0.14813317,-0.5086612,0.13805878,-0.20449449,-0.06606251,0.29417208,0.11413511,0.12099923,-0.055621903,0.053811155,0.13782445,-0.14979996,-0.087446906,-0.28025705,0.08170258,-0.11468418,0.30939922,-0.20029551,0.023441564,0.1735356,-0.39122325,0.11031783,0.015987178,-0.047834918,-0.007854464,-0.048741776,-0.15447628,-0.22394374,-0.3385755,-0.020750897,0.0788438,0.040630177,0.23987296,0.11467407,0.24208826,0.04604305,-0.30947208,-0.074715234,-0.2462112,-0.13442267
-0.13222785,-0.4672528,-0.053724986,0.2654252,-0.03423567,0.2179945,0.24463281,-0.28340432,-0.010183967,0.19236508,0.1647132,0.11909206,0.08474679,-0.15077205,0.22768238,-0.116303876,-0.052607816,-0.5037999,-0.37450624,-0.22485475,-0.2151507,0.13396913,-0.18625341,-0.04283072,0.30211413,-0.19979863,-0.05570193,-0.018276755,0.08818368,-0.17492901,0.04067719,-0.008384872,-0.46893564,-0.23109426,-0.0047699516,0.034861922,-0.14853738,0.2206616,0.055291735,0.017816471,0.15814663,0.3601505,-0.21497096,-0.31207374,0.0247318,-0.20252015,0.10822089,-0.00046068444,-0.05639275,0.02140015,-0.09534179,0.726992,-0.118620425,-0.00590535,-0.20178229,0.14686267,-0.06003888,-0.0763456,-0.1916338,0.27055773,0.19078141,-0.5349851,0.082966976,0.0039398205
-0.2917632,0.07288865,0.39072272,0.74879456,0.466105,0.16938716,0.373363,0.059340645,0.09816062,0.032638818,0.3467184,0.15205182,0.18493097,0.15575038,0.05181088,0.08595512,0.37211868,-0.51174676,-0.3508726,0.015296233,0.104477406,0.017277103,-0.3149009,0.031233998,0.5154383,0.29227132,0.1674723,-0.14536929,-0.281837,-0.57450783,-0.09916636,0.3079817,-0.1484442,-0.38288084,0.2296744,0.08959072,-0.13331626,0.31713536,0.52141464,0.32827958,-0.048714146,0.21407863,-0.048642498,-0.1600201,0.20213363,-0.26671076,0.06658846,-0.10960837,0.06685337,-0.14218909,-0.44958964,0.43725228,-0.09260388,0.05483894,-0.31157908,0.03810168,-0.25191316,0.10047491,-0.38401484,0.34332755,0.3446781,0.029580217,0.38444307,-0.26348194
-0.38336632,0.08970411,-0.18136421,-0.12643018,-0.291828,0.33420923,-0.12385159,-0.29589242,0.09741153,0.27656955,-0.118278116,-0.45420352,0.06495998,-0.38636035,0.46334296,0.12735641,-0.12570491,-0.43699402,0.051220883,-0.38183904,-0.22882454,-0.016391654,-0.05622578,0.3248274,0.338019,-0.040854283,-0.041237004,0.12329525,0.28829333,0.058546197,0.09357261,-0.3249556,-0.38048273,0.21746573,0.016911069,0.21132489,-0.023855133,0.11905929,-0.17497635,-0.05081344,0.1480545,-0.0064580934,0.074278384,-0.2421576,-0.1193329,-0.32631636,-0.07534252,0.2895306,0.16562614,0.20400815,0.11568968,0.17921571,0.2217149,-0.17648913,-0.048002005,0.02476962,0.37452194,0.08608928,0.26687232,0.08573045,-0.2281369,-0.21370466,0.060857132,0.02248219
0.45422035,-0.09749453,-0.15442325,-0.02145006,-0.055876914,-0.0039573866,0.33620322,0.1016306,-0.11519322,0.015812293,-0.18460026,0.39098713,0.05137411,0.16504718,-0.0061153737,-0.056289412,0.20063509,0.15007526,-0.23478821,0.20510818,0.027429247,0.06857246,-0.48932284,-0.045687,0.012744304,-0.05269728,0.24412753,0.08045659,-0.12915823,-0.07590124,0.07628578,0.37871304,0.19713542,-0.048611365,0.27028525,-0.23183303,0.067435905,0.095849715,0.30986074,0.112413466,0.35260177,0.18061632,-0.18027318,0.1507421,-0.16998574,0.04457563,0.11912967,-0.29737785,-0.14034791,-0.13237505,-0.06248568,0.10642019,-0.53824866,0.48236257,-0.26017082,0.0066862516,-0.3332949,-0.19912095,-0.15493888,0.05992904,0.041079704,-0.023697343,0.06381721,-0.04947435
0.08075448,0.11539337,-0.02277067,-0.26551223,-0.32677007,0.4297762,-0.21514992,-0.13533022,-0.3141149,0.113156214,-0.65342486,-0.054801114,-0.12531285,0.042633146,0.15464829,-0.11945777,-0.07782368,-0.21262568,-0.049484435,-0.20396735,-0.34357944,-0.10007985,-0.008238144,0.3927406,-0.11501463,-0.22802028,0.1451063,0.20071279,0.010068221,0.46814296,0.0076424633,0.0929417,-0.0068837632,0.09598494,0.2282704,-0.08483721,-0.46877775,0.07674782,0.21242645,-0.18572864,0.07018912,-0.01050904,0.18401058,-0.09027089,-0.40886235,-0.22749977,0.09885586,0.052816603,-0.30960107,0.3417897,-0.41007712,-0.11626195,-0.14647713,0.17145692,0.1927668,-0.035234354,-0.11354729,-0.04162199,0.15237202,0.2500303,-0.22263023,-0.037173484,-0.116340786,-0.030891074
-0.06442446,0.31461868,-0.030022316,0.13884662,0.08621122,-0.20907967,0.13162352,-0.1469581,0.0938785,-0.47703162,-0.10439198,0.043513667,0.1705709,0.17540213,-0.058774605,-0.0031257414,0.21626477,-0.038443748,0.30873376,0.54150033,0.11223705,0.05135939,0.13197432,-0.08918238,0.073514804,0.060330857,-0.0294036,-0.43262762,-0.3865269,-0.23803186,-0.5974143,0.13232607,-0.054340754,0.014603951,0.03669544,-0.100566655,0.06804786,-0.10302188,-0.012616857,0.012408298,-0.045930285,-0.15758385,0.015943283,0.0127387745,0.05476757,-0.13871153,-0.10613356,-0.16776599,0.0463479,-0.13026546,-0.01670576,-0.06765715,-0.11959578,-0.12489679,-0.019671546,-0.1746566,0.07100734,0.038460765,0.0583619,0.117917344,0.0035690346,-0.020682199,0.07679692,-0.3904224
-0.15236619,0.16965982,-0.118852474,-0.11632921,-0.1518634,0.03704461,-0.05909658,-0.14437602,0.21463065,-0.25101593,0.12409208,-0.011346632,0.04190253,-0.2028563,-0.120631725,-0.40634558,-0.07034446,0.11574486,0.53363055,-0.07240094,0.08582223,-0.041587945,-0.052653078,-0.005149364,0.12017087,-0.38038546,0.09174275,-0.3517587,0.23363535,0.14736149,-0.13757491,-0.11298242,-0.13508998,0.1738128,0.027585914,0.14320046,0.04118026,-0.6719694,-0.11987764,0.4755913,0.23615268,0.16061063,-0.31468615,0.002180193,0.1819793,-0.048670623,0.013280176,-0.026889993,0.3490704,-0.37844706,0.22350414,-0.019824402,-0.044112373,-0.13580677,-0.16527756,0.07711276,0.03433089,0.09625377,-0.122361735,-0.100962475,-0.21154276,-0.105817296,0.061280105,0.003210844
-0.0147527475,0.07138443,-0.13752438,-0.30551448,0.33662748,0.44409344,-0.09045465,-0.1408154,-0.22656697,-0.22076346,-0.042866293,-0.25704974,0.28969762,0.23267771,0.30534327,-0.4401233,-0.3535348,-0.03145858,-0.18110037,-0.17055154,0.2254254,0.26488644,0.3885274,-0.22276472,-0.024848709,-0.4702209,-0.18999588,0.04290494,0.29618013,0.20192257,0.154444,-0.1553659,-0.21986471,0.20974955,0.06587168,-0.26648712,0.39468184,-0.049547933,-0.3462011,0.073678754,0.23728888,-0.33556217,0.088288,-0.7069354,-0.17750552,-0.11806118,-0.04973298,-0.21187524,-0.082018524,-0.11864217,0.06447493,-0.13674738,-0.25602996,-0.30941665,0.41234088,-0.009945807,-0.09732668,0.26416668,0.2844411,0.07298642,-0.44397837,-0.24383284,0.2007636,-0.06579122
-0.070388556,0.24719363,0.026035348,-0.012931539,0.1154583,0.16824722,0.06352704,-0.16533889,0.11838493,-0.43268928,-0.1393441,0.16535603,0.4297752,0.4249244,0.04277723,-0.44346115,-0.016823716,-0.0467197,0.43303326,0.19936603,0.0025099888,-0.0133512,0.063362494,-0.2506206,0.18479392,-0.36034158,0.032664854,-0.55487627,-0.13875921,0.009401834,-0.5338906,0.039879415,-0.087353826,0.08516595,0.040180583,-0.214092,0.061435528,-0.4943018,0.13943419,0.14918154,0.19283499,-0.10240711,-0.2030942,-0.058045913,0.119951874,0.014509361,0.05756833,-0.021372419,0.41791162,-0.42109197,0.10615573,0.042500228,-0.13099638,0.10451536,-0.053060286,0.043874,-0.0106691895,0.05060383,0.027037142,0.0627529,-0.13414152,0.06394892,0.09481737,-0.05750818
0.12213314,0.058510512,-0.019294653,0.17027698,0.10025515,0.18918926,0.26670808,-0.039044254,0.06506349,-0.045201056,0.289729,0.023062123,0.039554708,-0.13940075,0.49970433,-0.2524348,0.12946326,0.14845711,0.5383664,-0.04668922,0.31577492,0.16331433,0.10184946,0.17455612,0.10976425,-0.042271797,0.14512376,-0.2845112,-0.032480426,0.025587834,0.10944734,-0.2288879,-0.43283355,0.010309438,-0.21628809,-0.060800806,0.183574,-0.17765793,0.10454719,0.37011805,0.28852972,-0.1287395,-0.24786453,-0.07142379,0.12915222,0.019893406,-0.7033152,-0.23134197,0.13995685,-0.014668296,-0.11761366,0.03850103,0.08453877,-0.42923945,-0.20088115,0.070063524,0.065039776,0.2027759,-0.28420785,-0.07202412,0.183717,-0.3674071,0.0010464676,0.022983124
0.23651317,-0.13060102,-0.32433164,-0.046085525,-0.0769316,-0.25358418,-0.20892993,-0.10989996,0.16607405,0.060145937,0.22300288,0.16804501,-0.12282008,-0.14237781,0.032104336,-0.2071536,0.10612162,0.032763097,0.24536557,-0.008992811,0.07962689,0.61711615,0.04367425,-0.12042751,-0.09339611,-0.36779028,-8.097153e-05,-0.07821834,0.13499364,0.1319992,0.05436295,-0.12957214,-0.032427207,0.41534954,-0.05493397,0.06278912,-0.030485658,-0.478333,-0.17853051,0.08864669,0.17171054,0.09857387,-0.2705892,0.016578797,0.19050391,0.17223857,-0.17118123,-0.054948065,0.09080301,-0.24354142,0.5076346,-0.08425412,-0.009485467,-0.040565625,-0.18837656,0.14328338,0.0193678,-0.062177107,0.016586589,-0.015345893,-0.25393066,0.0036808194,-0.080998555,0.08494943
0.04401932,-0.17788209,-0.19528995,-0.118448436,-0.027249707,-0.023350516,-0.050917387,-0.51486814,-0.091700055,0.059575565,-0.04934215,-0.024664871,0.103199296,-0.007495211,0.33924508,-0.19624373,-0.04145901,0.08841862,0.11912053,-0.045179304,-0.11542322,0.31340635,0.10399324,0.17474522,0.00071672205,-0.5714193,-0.04602312,-0.17737924,0.073841505,0.33160076,-0.16997737,-0.13697739,-0.10975574,0.33564302,0.09919559,0.02916316,-0.14433993,-0.32554126,-0.241337,-0.21612217,0.16407637,-0.17874517,-0.07320526,-0.18461506,-0.028445585,-0.052946523,-0.075555846,0.11434807,-0.13029934,-0.11652318,0.13642706,-0.09127236,-0.037402775,0.04077681,-0.08657278,0.015629271,0.33326903,0.2798818,0.21034342,0.018199667,-0.00020965825,-0.1589729,0.06784584,0.03289214
0.23987441,-0.07443076,-0.27299324,-0.17121284,-0.2402774,-0.03493363,0.10047753,-0.24001482,-0.079261035,0.06138243,0.08991795,-0.058300164,-0.005213395,0.11495142,-0.046277165,-0.28306586,-0.040992115,0.3226807,0.049319055,-0.0678502,-0.022953466,0.5998795,0.11484143,0.0008035354,-0.2371458,-0.16836463,-0.13511278,-0.025057817,-0.03834232,0.4818026,0.17677987,0.096335806,-0.11962208,-0.063693285,0.02242114,-0.038494878,-0.26092318,-0.11643492,-0.078006506,-0.21997961,-0.034300447,-0.0422771,-0.07411247,0.20745201,-0.044741333,0.49680486,0.053347103,-0.061696194,-0.11197246,0.13214236,0.12083027,-0.017252827,0.15380676,0.20593585,-0.09735667,-0.05360407,0.17185313,-0.089655675,-0.07709266,0.010957109,-0.005751371,-0.05210347,-0.22372471,-0.008328251
-0.57797706,-0.07226559,-0.4349168,0.08326383,-0.16330165,0.33003968,-0.2097101,-0.41299537,-0.04151873,0.12331126,-0.41709122,0.092365004,-0.08316501,-0.29975334,0.13069472,0.026453668,-0.3224765,-0.48543227,0.06268053,0.061300285,-0.3226205,0.25714037,0.16835508,0.060856737,0.24972017,-0.0472394,-0.40008682,-0.08270493,0.3302811,-0.036105443,-0.029850211,0.12275954,-0.25508994,0.7443166,0.11350568,0.32300937,-0.2613651,-0.112208344,-0.42650467,-0.22036825,-0.17024432,0.086664155,0.032379467,-0.38007113,-0.33569887,-0.33343416,0.44930077,0.0393115,-0.10838765,0.08118361,0.07852543,0.3058107,-0.15471095,0.19511166,0.012876588,0.3516503,0.3859497,0.33942312,0.5927019,0.38752052,0.1136176,-0.39743018,0.1252718,-0.40398908
-0.4403401,-0.28150335,0.40739188,0.48579073,-0.143875,-0.07485694,0.07914288,-0.10931033,0.4193995,-0.023029545,0.48710936,-0.15360036,0.2317269,-0.25148153,0.11824381,-0.045376915,-0.12921444,-0.35062614,0.30147314,-0.21935247,0.14343925,-0.19604938,0.18423225,0.051229794,0.69908077,0.13323611,-0.11063174,0.124711715,-0.053872824,-0.06845099,-0.3135061,-0.25396883,-0.023015803,-0.3192532,-0.05417529,0.101487994,-0.23819162,0.23062442,0.05718556,0.31630558,-0.3063006,0.22748585,-0.18784796,-0.021883056,0.5400144,-0.56631714,-0.11676649,0.022528341,0.2669092,0.018586384,0.04110456,0.23801501,0.34993762,-0.3487027,-0.04647772,0.14579207,-0.15234539,0.1685557,-0.33379832,0.12474528,0.21228442,-0.06813281,0.36492014,0.16734181
-0.15909313,0.048478488,0.28738424,0.0702822,-0.20879842,-0.047340363,-0.072179146,0.1403188,0.29294172,-0.18382427,0.054897897,-0.113170385,0.52234346,0.41571516,-0.010976034,-0.014137186,-0.2577279,0.12592106,0.12663902,-0.23759007,-0.06316669,-0.2811428,0.050313644,0.0019871294,0.18753923,-0.23261629,0.26928648,-0.24524912,-0.009058972,0.06350293,-0.06844732,-0.20384759,0.24827263,-0.22870101,0.2675689,-0.37756303,-0.36409545,-0.1388636,0.24626532,0.098156355,-0.16547506,-0.091745935,0.06179987,0.23770668,0.15290533,-0.12632819,-0.20326585,0.3880033,0.068976596,0.15705031,0.1543241,-0.06734084,0.008320475,0.04526844,0.0022054494,0.07150303,-0.06494345,-0.2127463,0.015987035,-0.02243471,-0.19256844,0.2865832,0.16973116,0.051144596
-0.17107475,0.34304386,-0.1467342,-0.019843498,0.23732728,0.03726742,-0.11826373,0.11588988,0.097141296,-0.48149246,-0.20351475,0.3736318,0.058111142,0.4995226,-0.12695399,-0.12561439,-0.09395282,-0.16237733,0.27102506,0.43447232,-0.050047986,0.058316853,-0.27737015,-0.75708437,0.10297575,-0.24521945,0.28530324,-0.13270979,0.039799824,-0.3059744,-0.20827603,0.14195707,-0.019627761,0.19731988,0.13772291,-0.36181656,0.4534716,-0.30521235,0.006593689,0.6154014,0.32095858,0.3724694,-0.28771096,-0.2774581,0.019365149,-0.19004981,0.08698663,-0.6024933,0.4660958,-0.719502,0.2110227,-0.049974483,-0.67452556,0.21642612,-0.020188348,0.35884133,-0.42470652,-0.06295523,0.088336185,0.061297793,-0.05972267,-0.3085625,0.26398307,-0.17523468
0.15361108,0.21814223,-0.037220303,-0.069981806,-0.48436317,-0.014095568,-0.09668698,0.11953041,0.20637116,0.1586191,-0.3921505,0.08612036,0.031298373,0.20138097,-0.16965464,-0.19378725,-0.14293253,-0.03468608,-0.03713407,-0.2420882,-0.5126631,-0.1715766,-0.57565683,0.17456968,-0.009193888,-0.1906569,0.43414837,0.08648806,0.07724528,0.2780267,-0.044626825,0.1462943,0.26708183,-0.19351688,0.36163276,-0.31987092,-0.34920394,0.14740469,0.37048003,-0.022906022,-0.12220458,-0.04622236,-0.18731698,0.23483299,-0.06889397,-0.09350071,0.14100446,0.14577876,0.09827436,0.06982881,-0.11133412,-0.07404134,-0.2635602,0.35936344,-0.16308637,0.16991007,-0.2646034,-0.64889526,0.19707148,-0.20483197,-0.100248665,0.23956564,-0.06663972,-0.013370801
0.014803573,-0.49476355,-0.11610864,-0.5447612,-0.26798037,0.13143572,-0.08637374,-0.007943184,-0.57492614,0.28525567,0.05597646,-0.32215032,-0.44282225,-0.1317265,0.1637442,0.21674837,-0.042000897,0.07013753,-0.3263152,-0.2538951,-0.031863257,0.17577475,-0.0886485,0.11483085,-0.25977048,0.16336359,-0.1597014,0.25150785,-0.043390684,0.25421688,0.34741607,-0.06941711,0.20134133,-0.121559225,-0.1907042,-0.05728338,0.028701931,0.49839938,0.02742866,0.02098264,-0.111990154,0.07954978,0.13812906,0.07782126,-0.10738888,0.24738963,-0.04047296,0.043617822,-0.37981766,0.42697144,-0.15103725,0.23040472,-0.10447703,0.31306636,0.12495459,-0.070157,0.020852432,-0.005352375,0.041937366,-0.13491644,-0.061229568,-0.13383172,-0.6761713,0.13973892
0.06054305,-0.24013661,-0.10581452,-0.36817077,0.090189576,-0.05750058,-0.22970553,0.03148126,-0.4937505,0.2024659,-0.28525132,-0.26053393,-0.20700417,0.052658394,0.11424753,0.3393895,-0.16013479,0.19237849,-0.309482,0.011469172,0.05728176,0.037973203,0.09701542,-0.05742681,-0.2829932,-0.03955816,-0.2005624,0.01893097,0.089193046,0.1938548,0.16023088,0.14552802,-0.081107594,0.027007528,0.11325463,0.052519176,0.030575793,0.1555128,-0.07855781,-0.59110785,-0.16925287,0.051747616,0.3251664,-0.04282898,-0.27442247,0.20204829,0.27389354,0.025222236,-0.4821299,0.10658131,-0.38544998,-0.004948387,-0.41375896,0.26697606,0.44540936,-0.34085461,0.0695262,-0.06861017,0.03646546,0.14192379,-0.07784115,0.08654824,-0.2669197,-0.007000765
-0.003636482,-0.0024508303,0.10339674,0.051665436,0.17439684,0.16072497,0.006819808,-0.027348097,0.32155696,-0.2565865,-0.0558387,0.079791546,0.44663423,0.23831388,-0.024934703,-0.5702089,-0.09364459,0.21577361,0.4105095,-0.0636521,-0.020276807,0.1441801,0.05802374,-0.46842864,0.36425897,-0.2555255,-0.010217892,-0.39678985,0.115239374,-0.07776179,-0.23751153,0.002969119,-0.02170369,0.25095755,0.095955014,-0.49288067,0.19003834,-0.3332481,0.027822906,0.55793935,-0.034042433,0.007363543,-0.3889709,-0.38626593,0.016304554,0.0737529,-0.02623426,-0.23999582,0.38264468,-0.4633195,0.19075951,0.16250554,-0.06652628,-0.04101737,0.21296707,0.19681597,-0.227422,0.22681057,-0.12143809,0.03332186,-0.2690969,-0.2243815,0.35897738,0.20918435
0.07527744,-0.026392894,-0.17271662,-0.34705788,0.12637076,0.13609456,0.0867169,0.17761031,-0.49718913,0.3335624,-0.26572493,-0.14658873,-0.31894714,0.0052978643,-0.0013408486,0.1892993,-0.23335475,-0.049557146,-0.39611688,-0.06247056,-0.15385258,0.04890309,-0.05478408,0.18172035,-0.14677489,0.026268352,-0.12835121,0.27356845,0.11370248,0.026979469,0.2756162,-0.06926382,-0.10809033,0.11241408,-0.04113827,0.11255001,-0.09408205,0.31488845,0.06769713,-0.24185042,-0.107831284,-0.19709532,0.19930582,0.11995702,-0.1437397,-0.031122569,0.084185585,-0.11033921,-0.5581137,0.24245732,-0.26978165,0.058760654,-0.3630639,0.40000823,0.24067478,-0.08489542,-0.16399343,-0.09491158,-0.0027157497,-0.046618346,0.028194733,-0.1825697,-0.16210231,0.028067514
0.06494892,0.11066283,-0.06233679,0.22135863,0.05875289,-0.18516149,-0.011490445,-0.02922941,0.24305502,-0.39554125,0.021076187,0.02648259,0.26508176,0.1863979,-0.10697448,-0.13146445,0.23088226,-0.013491058,0.21510996,0.35933745,-0.03812781,-0.07326146,0.020165281,-0.00944756,-0.050958224,-0.02332022,0.19899021,-0.31890342,-0.31805032,-0.28523836,-0.7647177,0.18994315,-0.014769276,0.010237593,0.064587235,-0.021015758,0.0031133196,-0.02935319,0.26135173,0.035997253,-0.016822195,0.0059686783,-0.0049480535,0.050696373,0.08394199,-0.07180717,0.12572384,-0.1595966,0.28481868,-0.04593182,-0.13828227,-0.053809978,-0.07565654,-0.024492878,-0.28642172,-0.05950312,0.11606782,-0.08512089,0.21472526,-0.046990592,0.020190472,0.17430894,-0.055929482,-0.43390238
0.04636563,0.105087414,0.06338409,-0.109098054,0.10120564,-0.23273374,-0.23324259,0.318546,0.035183094,-0.037924737,-0.20284885,-0.12545818,0.17780437,0.573997,-0.14754656,0.045451764,-0.10794372,0.28499213,-0.09043347,0.26291603,0.0694217,-0.037327226,0.08491585,-0.24835648,-0.22701718,0.101893425,0.24863201,-0.033814084,-0.15845074,-0.03362436,0.032898854,-0.04316612,0.3505494,0.08554808,0.074115224,-0.029562516,0.14986393,0.1664254,-0.04542572,-0.11593688,-0.020774197,-0.18273787,0.22259851,0.20631345,0.049640696,0.1101589,-0.15568888,0.034431014,-0.010423803,-0.018689217,0.121146254,-0.23961434,0.026739052,-0.15787448,0.13231346,-0.2550413,-0.061209098,-0.16121171,-0.007364263,-0.31289873,-0.17653544,0.15306725,-0.19069749,0.09064623
-0.0012627814,0.120596856,-0.014742675,-0.0538891,0.048034765,0.28340665,0.056248285,0.15874062,0.06620024,-0.3837344,-0.33032376,0.28523788,0.044394292,0.3853019,-0.054657456,-0.14711902,0.022140723,-0.09141781,-0.04787203,0.2967863,-0.09049352,0.15459122,-0.07349947,-0.1908499,0.32971814,-0.4518963,0.06816934,-0.2163495,-0.039079707,-0.21446398,-0.12527682,0.13818069,-0.048259187,-0.035473127,0.10187684,-0.42066467,0.26457012,-0.30739763,0.08485682,0.0421316,0.21646306,-0.073532894,0.010255613,-0.31500006,-0.35749185,-0.18037096,0.07088333,-0.2698684,0.23292921,-0.5512688,0.067564756,0.08445013,-0.5764767,0.09275785,0.16405672,0.11830562,-0.15935415,-0.100915134,0.26773867,-0.10334775,-0.1415091,-0.066309765,0.06041985,-0.36803108
0.0845325,0.2513218,-0.19158716,-0.23805304,-0.05860129,0.1326251,-0.0747968,-0.1710582,0.03447535,-0.022365324,-0.06351954,-0.44491163,0.026728053,-0.21576133,0.5176057,-0.06084091,0.07642651,-0.028645935,0.16431105,-0.37104043,0.1408826,-0.09636711,-0.10209819,0.13185473,-0.07520458,-0.025010508,0.11786199,-0.052859634,0.10287172,0.081728436,0.019607922,-0.5053135,-0.5535051,-0.12181993,-0.18916333,0.15533163,0.017820843,-0.14489962,0.01289857,0.07664348,0.22393316,-0.39410576,0.1567995,-0.13481465,-0.13622226,-0.1505139,-0.38120443,0.32688418,0.16650563,0.20003434,0.22459032,-0.2116235,0.025735522,-0.41245666,-0.065558314,-0.030164136,0.55607367,0.14502004,0.17355826,-0.25024623,-0.06636807,-0.15191561,-0.40623787,-0.13230471
0.12891228,-0.33148974,-0.2415636,-0.2693471,0.20258975,-0.41509795,-0.07387954,0.2779061,-0.032279376,-0.30487093,0.03637996,-2.4559988e-05,-0.31959003,-0.042902853,-0.34357604,0.26333556,0.09116342,0.3018837,0.097739324,0.2720885,0.26148257,0.057479333,-0.059712175,-0.2851096,-0.072568595,0.32055342,-0.17678133,-0.009861958,-0.0041678897,-0.3180943,-0.08460734,0.15658376,0.1330752,0.33210036,-0.40953165,0.21053313,0.14388871,-0.058670238,-0.4091888,-0.08442176,0.023212416,-0.040588964,-0.2738281,0.10846727,0.03922898,0.31750336,0.13414492,-0.3441475,0.17856775,0.022012588,0.028138317,0.17913356,0.27250415,-0.124006316,-0.2205294,-0.15672655,0.11465531,-0.058959737,-0.41457078,-0.26205835,0.3079319,-0.40815884,-0.32841334,0.052741352
0.15353009,-0.39906946,0.2064197,-0.06886964,-0.23411421,-0.12876959,-0.15973918,-0.04489598,0.1919542,0.06856658,0.14614351,-0.52573675,0.0913166,-0.055746492,0.12899688,0.13405544,-0.16624674,0.20582165,0.06755015,-0.0421069,0.20572816,-0.14218038,0.19285461,0.25867543,-0.071218535,-0.1252383,-0.09956714,0.094025426,-0.088563934,0.19721904,0.19908462,-0.3922042,-0.11164785,-0.084655926,-0.32659456,0.010594913,-0.14689696,0.05284744,-0.0008359598,0.04828571,-0.089776866,-0.1742994,0.10843386,0.21015741,0.08990894,0.10672333,-0.3161141,0.031452086,-0.15898275,0.2648397,0.06640821,0.09177084,0.5450225,-0.16655567,0.091101825,-0.09282659,0.12079404,0.17317018,-0.19343394,-0.15165475,-0.046532724,-0.045047086,-0.08520282,0.29541707
0.18796292,0.009380854,-0.20205532,-0.269789,0.2602023,0.2623315,0.17682311,0.05341291,-0.1077885,-0.3531347,-0.15183857,-0.19046128,0.31685007,0.13697523,0.34539077,-0.2869602,0.015636308,0.51869076,0.19671758,0.20750637,0.6699354,0.090855576,0.44871536,-0.06637616,0.018792871,-0.27845538,0.37035984,-0.5484002,0.20738311,0.018816005,-0.106556885,-0.20139591,-0.25809935,0.036696173,-0.2570093,-0.17329049,0.135342,-0.24889675,0.09217392,0.19980694,0.47284013,-0.5736476,0.3010169,-0.13968654,-0.38483202,0.08434031,-0.593291,-0.06375904,0.015362325,-0.2077593,0.03235258,-0.40882415,0.011782933,-0.54292905,0.22245647,-0.4203678,0.039277058,0.40019983,0.3190729,-0.05212095,-0.17301346,-0.1820227,-0.17434159,-0.14750949
0.19509025,0.4051222,-0.5451257,-0.007010262,-0.098182105,-0.14136869,-0.078081354,-0.08738811,-0.2465956,0.043496713,-0.26838043,0.11838481,-0.2903685,-0.31232345,0.048671234,-0.032533184,0.13028163,-0.2166392,0.23899254,0.44347945,-0.05479725,0.21181594,-0.24715,-0.17149253,-0.18805493,-0.06603232,0.08344579,0.15914327,0.13506757,-0.08492768,-0.10190365,0.24226856,-0.22850901,0.3795525,-0.060617894,0.25643146,0.056868307,-0.42096546,-0.08212257,-0.13618886,0.14856845,-0.06996757,0.052510828,0.06571008,-0.26211005,0.18709287,0.28078675,-0.074414775,0.11644013,-0.2973306,0.16272321,-0.09708416,-0.38641238,0.011919664,-0.020543879,0.05464559,0.3923484,0.004223261,0.23462985,-0.02756992,-0.09882698,-0.18099156,-0.4041516,-0.67009175
-0.13721867,0.32195678,-0.1450656,0.026164785,0.32673293,0.065415435,0.029469522,0.18076563,0.010074404,-0.62656796,-0.27363518,0.16351932,0.25307447,0.5149075,0.09607769,-0.1536522,-0.0877835,-0.12109499,0.21828878,0.34121367,0.040296372,0.13242798,0.060804497,-0.37966436,0.34843114,-0.22867152,0.1921693,-0.15352304,0.18461819,-0.3528338,-0.202811,0.23152192,0.15509687,0.09650065,0.15670885,-0.3773512,0.34374237,-0.12797251,0.27615026,0.27020112,0.47666332,-0.06646391,-0.12987174,-0.13970907,-0.009925843,-0.10421294,0.18628486,-0.38526744,0.38032877,-0.6436619,-0.03143399,-0.11699221,-0.51454663,0.012828436,-0.08277355,-0.1390325,-0.26480615,0.076371476,0.21075682,0.1014859,-0.11541006,-0.18484043,0.031038925,-0.45530602
0.09935062,-0.4020891,-0.18754593,-0.23837161,-0.2268508,-0.2596552,0.47267368,0.32584128,0.18813825,0.21254942,0.24444923,-0.26581874,-0.08542625,-0.22015215,-0.12156153,0.20011596,0.042433076,-0.047508385,-0.06223522,-0.10077891,0.06765438,-0.05574161,-0.4251498,-0.071330994,0.017642982,0.2312945,0.058411427,0.1326731,0.18828762,0.09509481,0.44295678,-0.47990906,-0.09165202,-0.23607476,-0.37965685,0.38268837,0.29486465,-0.053354207,0.054389052,0.09491164,0.31593883,0.33663085,-0.1571221,0.24806614,0.1485131,0.047718152,-0.09509134,-0.3751502,0.23646073,0.2814498,0.20936061,0.23153129,0.4227712,-0.28293982,-0.21183905,0.13942665,-0.22228014,0.017485835,-0.33896363,-0.48614347,0.18374638,-0.09809263,-0.33682513,0.21504985
-0.17544992,-0.37460196,0.19905439,0.072008416,0.1941478,0.118380904,0.28911498,0.11768349,-0.021848002,0.19772191,0.054789137,-0.05983242,-0.16855493,-0.038440205,0.20088145,0.02199127,0.048333373,-0.18903278,-0.33489835,-0.15480897,-0.09716534,0.16314733,-0.038043052,-0.10187513,0.16260268,0.2447354,-0.25830877,0.11862863,-0.031195415,-0.2592936,0.07122859,-0.058159944,-0.15309379,-0.05768738,-0.24871446,0.11887697,-0.07233846,0.14703278,-0.0022630866,-0.07788839,-0.10376109,0.3868716,-0.09410796,-0.19587572,0.085258946,-0.24445894,0.11963485,-0.27471504,0.090143055,0.18880941,-0.09844747,0.50180924,-0.12145252,0.045296565,0.036651216,-0.059321247,-0.24996412,0.11440323,-0.19604477,0.12210304,0.18644896,-0.31359306,0.07557291,0.26043972
0.16846612,-0.17265259,0.03902863,0.2745915,-0.19267163,-0.20185235,-0.14816856,-0.2854545,0.09210199,-0.17904401,0.11984367,0.22923905,-0.042411055,0.20595618,-0.100869,-0.037644785,-0.018593887,0.117967695,-0.15739971,0.23242304,-0.121476896,0.25322437,0.105489835,0.19670904,-0.24483512,-0.51212025,-0.037103962,-0.22744699,-0.3123345,0.38414732,-0.2488899,0.4594316,-0.06379223,-0.055491,0.28421628,-0.32613012,-0.6329484,-0.09448646,0.09315043,-0.31982106,0.04385729,-0.09698992,-0.14853302,0.054614376,-0.03936945,0.27182943,0.11275891,-0.08958369,-0.13381146,-0.11471869,-0.23350222,0.03936632,0.07983179,0.35101047,-0.35548207,0.08648674,0.11020626,-0.012798065,0.043944597,0.27291623,-0.11176033,0.14078122,0.08323031,-0.18168968
0.021900436,0.049812246,0.0871333,0.13405244,0.30690157,0.18475017,0.07322852,-0.06790809,0.35079327,-0.31768927,0.06120108,-0.1826215,0.61053056,0.29833004,0.025675148,-0.11241411,0.12896322,-0.068919666,0.41765532,0.022854531,0.33349794,-0.032023713,0.32745215,-0.030824242,0.34773356,0.07269393,-0.14109033,-0.660242,-0.16670547,-0.12246982,-0.5578097,-0.2076428,-0.21345761,-0.039688166,-0.09421921,-0.15320875,0.06512425,-0.16317742,0.094197355,0.20797475,-0.178737,-0.2576327,0.119260274,-0.2009554,-0.04063753,-0.068992645,-0.317453,0.18292288,0.042271256,-0.06812139,-0.047227416,-0.054863792,0.087230735,-0.06916363,-0.039605085,-0.002136779,0.11527848,0.24510798,0.12875265,0.11107223,0.011468766,0.050380692,0.15755498,-0.020754253
0.01652466,-0.1661674,-0.20606111,-0.21343966,0.11431438,0.029690955,0.08355939,0.10665661,-0.12597299,0.07056338,0.02943223,-0.25166357,-0.23418917,-0.13487108,-0.03531011,-0.04219386,-0.14470217,0.0824165,0.08324785,-0.054782312,0.22353633,0.13334624,0.016998991,-0.13559903,0.084766746,0.1208962,-0.30890682,0.09954397,0.17369737,-0.2909873,-0.040442098,-0.025032828,-0.2086959,0.24440366,-0.4715691,0.18211508,0.30176842,0.010318242,-0.37898487,-0.06399289,-0.0039203065,-0.10820576,0.045718577,-0.29808298,-0.16712059,-0.020047303,0.1077025,-0.35597074,-0.039324455,-0.17103042,0.04742977,0.39831752,-0.19108367,-0.14387073,0.07938816,0.01793721,0.0032374861,0.022937642,-0.069750674,-0.17454286,0.15702853,-0.27226314,-0.37931082,-0.025298135
0.06397202,0.09710859,-0.29288208,0.10006815,0.07360312,0.060597062,-0.10929935,-0.50447077,0.18474697,0.21252012,-0.08510482,-0.5044751,-0.045073487,-0.34764847,0.3504678,-0.07856536,0.30721018,-0.2590713,0.27362576,-0.13270527,-0.017323192,0.074870184,0.15206152,0.32517606,0.31218526,-0.09958409,-0.173801,-0.09838076,0.033997957,0.108147725,-0.20031846,-0.005604428,-0.8082586,0.10894175,-0.4274174,0.50667363,0.1293649,-0.15810277,-0.34247953,0.035252474,-0.08087926,-0.07598575,0.094869904,-0.07434003,-0.100725114,-0.20286235,-0.09344565,0.29562944,0.09185176,0.039119102,0.14187811,-0.019082708,0.23674162,-0.38908234,-0.089697234,-0.0717668,0.8000346,0.2656446,0.28559753,0.04005604,0.1874328,-0.048059836,-0.30223796,-0.26438072
0.05055633,0.18620016,0.09131861,0.1264814,0.092716284,-0.17862503,-0.26830852,0.055301405,0.45593432,-0.37586644,-0.09010017,-0.026581667,0.5227774,0.10066048,0.042299673,-0.16151589,0.0072525344,0.0070952405,0.65672326,0.26127163,0.025075989,-0.097070545,0.28017512,-0.18580282,0.028849185,0.022103159,-0.084728636,-0.6828715,-0.061989907,0.07226072,-0.6593865,0.04411076,-0.07763407,0.08348859,0.12929197,-0.10220215,-0.19387633,-0.2745095,0.019207548,0.07895271,-0.006852706,-0.05561359,-0.18234996,-0.060309038,0.1897862,-0.12752415,-0.16471022,-0.042460926,0.1872903,0.06792141,-0.06710161,0.068758465,0.10664388,0.013828338,-0.12950435,-0.06006718,0.060026035,0.100016475,-0.053491402,0.031830598,0.0031769199,0.14292409,0.19069026,-0.043653794
-0.07964346,0.10966089,-0.04206237,-0.11921681,-0.35940143,-0.14521949,-0.40779924,0.037166335,0.07945201,0.08021721,-0.05744263,-0.17027554,0.07368456,-0.021610266,-0.020326687,-0.02197443,-0.44089943,0.023907328,0.08897995,-0.099919654,-0.035456434,0.07647578,0.016719412,-0.10462684,0.09082568,-0.23949,-0.031541914,0.11121062,0.18453321,0.21984705,-0.059389357,-0.44195077,0.094883375,0.25294524,-0.14188188,-0.045865644,0.11965457,-0.07619793,-0.22576635,0.31438997,0.041350413,-0.07177965,0.01999162,0.07857985,0.054416254,0.12945528,-0.10390776,0.26279616,0.06831971,-0.089719735,0.5859569,-0.22074401,0.092941076,-0.06585492,0.036545143,0.14599219,0.11580957,-0.16534068,0.023522632,-0.08779991,-0.34038132,0.047675062,-0.18107137,0.11680013
0.01491897,0.20783262,-0.20297939,0.27903375,-0.035696227,0.17035955,0.06882838,0.14599396,0.19278704,-0.04700004,0.04498906,0.54586405,-0.0940315,-0.089478016,-0.17497215,-0.06908206,0.2581117,-0.33573273,0.07582003,0.14931744,-0.4033722,0.2086847,-0.6564638,-0.048836663,0.0732098,-0.12794869,-0.09182023,-0.09919875,0.094094895,-0.12437953,0.05958105,0.1957078,0.09617038,-0.12955135,0.29779017,-0.04766464,0.15183856,-0.18204607,0.43424216,0.53890294,0.41413668,0.6901314,-0.32382378,0.091741584,0.2832213,0.15231569,0.29007593,-0.14253108,0.27070573,-0.11702063,0.19898583,0.16376503,-0.31478623,0.28337464,-0.5871529,0.5270658,-0.26082987,-0.2403942,-0.05115537,-0.13675396,0.17316459,0.024186779,0.2565054,-0.23225194
-0.047233436,0.06949517,0.0037913895,-0.2421503,-0.36353597,-0.34319568,-0.33114192,0.5106774,0.07839045,-0.06007311,-0.31646878,0.0664246,-0.054998565,0.13832678,-0.2816553,0.45973414,-0.5460476,0.20098107,-0.23558852,-0.0018009889,-0.12163858,-0.02882897,-0.14028217,-4.8486483e-05,-0.2764572,0.13878308,0.12273382,0.14306311,-0.27203324,-0.16568735,0.09269823,0.0639219,0.5383187,0.09891767,0.19333854,-0.16751085,0.017254218,0.19505233,-0.10910031,-0.21262419,-0.44552988,0.2529292,0.11296426,0.1694405,-0.0046370663,-0.032922853,0.26568514,0.016084014,-0.23123582,0.14053637,0.08480266,-0.041657533,0.011982294,0.24124217,0.0029211822,-0.02973731,-0.17700383,-0.20514649,-0.048654143,-0.07078758,-0.12626,-0.00914366,-0.21942276,0.2791898
0.10622578,0.16864102,0.20872143,-0.15125787,0.3570571,0.08429575,-0.32496703,0.08063234,-0.047642395,-0.06231386,-0.12785998,-0.532893,0.037683975,0.3398461,0.23569502,0.04586074,-0.071581066,0.3570945,-0.15967064,0.13927487,0.31866843,-0.21951036,0.43825305,-0.10954382,-0.0763481,0.13186063,0.058020126,-0.11816188,-0.19604105,-0.12969437,-0.0848353,-0.12184201,0.12296587,-0.0780267,0.00608298,0.0746789,0.11841691,0.21449716,-0.066773154,-0.18084098,-0.34534287,-0.09358481,0.69847405,0.070149474,-0.24846834,-0.033034623,-0.31217572,0.18345784,-0.042762067,0.13745645,-0.17962286,-0.083989985,0.1547119,-0.18272834,0.29847407,-0.9252247,0.057690646,0.14720269,0.14221212,-0.15538953,-0.124033675,0.05716972,-0.19370362,0.07483786
-0.059920788,-0.08392732,0.06655943,0.039289143,0.0956621,0.05935857,0.18284518,-0.053622976,0.31670982,-0.20856096,0.2709078,-0.07751615,0.062362548,0.1330905,0.22698314,-0.3717837,0.16585226,0.1253166,0.5204065,0.07036622,0.29968894,0.07404041,0.23911645,-0.1107212,0.14688893,-0.16757992,-0.029516747,-0.3492462,0.11156135,-0.111150764,0.055871468,-0.04303469,-0.36828402,0.16723429,-0.23010485,0.014739309,0.15453434,-0.12204589,-0.13825141,0.0014976887,0.107999295,0.034949712,0.0052584587,-0.06039274,0.051793244,0.033916477,-0.520601,-0.06927044,0.16477224,-0.25428194,0.11396004,-0.012095454,0.03352279,-0.09459393,-0.009664683,0.024469761,0.17168026,0.28535146,-0.29477218,0.001563624,-0.075891666,-0.060286913,-0.036106385,0.14247707
0.23802035,-0.3395874,-0.044152636,-0.5398063,-0.23725079,0.16017872,0.04526551,0.03752893,-0.37067434,0.5594067,-0.15818019,-0.2071611,-0.26782596,-0.19763719,0.06627173,0.31637102,-0.22978261,0.04230155,-0.39933252,-0.24028927,-0.09420876,-0.040224113,-0.19545242,0.056913376,-0.25046444,0.057642836,-0.04852348,0.5359723,0.027600968,0.121332675,0.41346246,-0.17588285,0.14551862,-0.013347188,-0.063589804,0.19735713,0.0029321986,0.31613147,-0.005071074,-0.009084888,-0.050657336,0.16291912,0.121299975,0.21872914,-0.1499393,-0.00973097,-0.08093553,-0.10401311,-0.28395355,0.20516047,-0.20097755,0.09087187,-0.12471071,0.2227777,0.14286567,0.010821972,-0.19617695,-0.01416642,0.014542849,-0.017505163,-9.336264e-05,-0.122428864,-0.51277107,0.14520767
-0.1548061,-0.21136628,0.0643262,0.22556159,-0.11912427,0.51767987,0.14164677,-0.12332183,0.11934671,0.091503,-0.035923366,0.09642676,-0.007119599,-0.31431067,0.21569473,0.028891321,0.09467437,-0.76595545,0.025138993,-0.265283,-0.3621756,0.11135045,-0.080759436,0.24735132,0.42039284,-0.0865542,-0.27993897,-0.12240371,0.1889617,0.09759073,0.083896585,-0.036849596,-0.28566566,-0.1842527,-0.0068346546,0.035069738,-0.12209672,0.18898058,0.22804122,0.110949434,0.008415696,0.05650513,0.0054389564,-0.008097938,0.12700087,-0.34553912,0.016358608,0.023211092,0.17912573,-0.04137323,-0.12195989,0.6611984,-0.061224047,0.15419815,-0.066829555,0.34319788,0.15025054,0.09067471,0.0073121754,0.137194,0.028917242,-0.40901357,0.10058051,-0.010234282
-0.17656454,0.14993985,0.034936424,-0.14964183,0.13316755,0.098818734,-0.4331194,0.3905546,0.058562532,-0.02244522,-0.33653387,0.029981824,-0.06051174,0.3202851,-0.17699392,0.21312746,-0.40070066,0.31961077,-0.11452693,-0.026157647,0.16781674,0.08240444,0.2062622,-0.18037449,-0.08965926,0.101394966,0.10180817,-0.0043913964,0.023892911,-0.13554327,-0.006777736,0.13541281,0.48391813,0.018234266,0.08314815,-0.29696575,0.22952974,0.05280735,-0.16989921,-0.08753379,-0.04270147,0.019476522,0.09433127,-0.14139302,-0.13801858,0.1511574,-0.053559087,0.09393274,8.87053e-05,-0.21210249,0.31202346,-0.23801954,-0.35891598,0.07180518,0.41401345,-0.30290982,-0.44681263,-0.16346046,0.021685598,-0.35368308,-0.15360126,0.22991139,0.088390425,0.20303133
-0.30671626,0.30377212,-0.13432375,0.03873578,0.0671542,-0.1442633,-0.3128422,-0.13424812,-0.093345255,-0.00436794,-0.48366624,0.3036244,-0.21911448,-0.098019734,-0.24743478,0.28226617,0.013417141,-0.14327449,-0.08812172,0.52928054,-0.17256531,-0.074179895,-0.119216844,-0.2570614,0.0059091714,0.13842894,-0.20877391,0.10512331,0.051418032,-0.43643418,-0.3180069,0.6898279,-0.12602684,0.39332464,-0.15191257,0.21971914,0.25095996,0.002562313,-0.29061437,-0.4584643,-0.17853534,0.10510962,0.23155107,-0.1339342,-0.05891092,-0.04228193,0.5037836,-0.17467241,-0.2496201,-0.19736096,-0.24912678,0.15017319,-0.5364617,0.40896,0.12852833,-0.09051631,-0.025490046,0.14928195,0.2529362,0.03383183,0.15474404,-0.29313773,0.0028501486,-0.31128404
-0.21609175,0.13070601,0.117596,0.05398817,0.057486214,-0.020344596,-0.15709741,-0.08274567,0.3520111,-0.16278362,0.23437986,0.07160501,0.12222242,0.08603988,-0.14251402,0.030180622,0.096948095,-0.1313993,0.4045706,-0.12080094,0.051075958,-0.0627633,-0.11832815,-0.14775206,0.17342804,0.12403655,0.12880082,-0.25024256,-0.08288886,-0.24915466,-0.05188962,-0.10070456,-0.0808373,-0.10936965,0.011605689,-0.09574673,0.20086698,-0.101863705,0.026740497,0.614262,0.11043438,0.19847526,-0.17024353,0.09085782,0.34660086,-0.14936315,-0.2042933,0.009119055,0.6887305,0.02227635,0.24876867,-0.009150703,0.093378216,-0.18697433,-0.35642123,0.09294554,0.010718514,0.08309566,-0.214403,-0.18807158,0.0495144,-0.01690641,-0.07257107,0.1664519
-0.30429655,0.10006135,-0.11197062,0.09624867,0.04141545,0.11771646,-0.1919194,-0.107730575,0.36713684,-0.29538924,-0.014135138,0.10041033,0.21296062,-0.09377082,-0.12610145,-0.23575948,-0.24210878,0.019529631,0.423816,0.09233895,-0.24223363,-0.010008371,0.13931182,-0.2706038,0.2800938,-0.08781548,-0.14565158,-0.33193716,0.035772976,0.09321474,-0.47125894,0.031658053,-0.07730787,0.15936983,0.2025727,-0.35696906,-0.020135287,-0.5971798,-0.19753845,0.4321635,-0.09690067,-0.01991527,-0.27119815,-0.053512704,0.027891615,-0.18463293,0.2655932,0.116377965,0.22835831,-0.33597744,0.18398696,0.091510005,-0.068715855,-0.06619213,-0.15775955,0.055724084,0.2632018,0.15433368,0.16802618,0.08651961,-0.1982093,0.04829329,0.16733424,0.12993619
0.121796705,-0.06724533,0.08876616,0.2745834,-0.08677081,0.09841372,0.27278173,-0.29782194,0.16486642,0.07548286,0.48503283,0.1870307,0.005696133,0.016050471,0.08981584,-0.35481563,0.19365011,-0.10925605,0.22711043,-0.02220674,0.0570478,0.27291453,-0.023751954,0.097231776,0.07947692,-0.16259728,-0.14103155,-0.2633611,-0.110466346,0.2330953,0.045413412,-0.13337527,-0.13521455,-0.15960349,-0.06434935,-0.1782509,-0.25310197,-0.24070477,0.3061986,0.30613282,0.26298404,-0.05297996,-0.51973534,-0.04570504,0.43598768,0.06682582,-0.20733781,-0.27635974,0.25275573,-0.06474304,-0.05555538,0.20513885,0.10962643,-0.19179824,-0.39696887,0.2710675,0.09122364,-0.061509002,-0.33442894,0.17585216,-0.006235105,-0.3192645,0.0037001418,0.26638058
-0.13363254,0.23342484,0.058357947,0.094118,0.49906483,0.32928544,0.12725984,-0.030249676,0.0013320917,-0.1080313,-0.16196172,-0.28550082,0.56688917,0.018863726,0.30448914,0.052932635,0.15231015,-0.114880405,0.3252856,0.032025486,0.4098956,-0.024050048,0.20287876,-0.02912905,0.34129637,-0.021760995,0.2842884,-0.43005905,-0.071663395,-0.1811228,-0.3058432,-0.13653782,-0.2564793,-0.19921973,-0.16279937,0.19643533,0.38816997,-0.099436276,0.20126872,0.35322756,0.01937394,-0.3763641,0.070315205,-0.15458803,-0.19464266,-0.20445535,-0.19324933,0.010998734,0.23957026,0.12977369,-0.08572914,-0.101768844,-0.14312215,-0.49668074,0.27481037,-0.27121308,0.0013681931,0.16044126,0.10318195,-0.061036095,-0.057179544,-0.19173945,0.068539515,-0.23141481
-0.42610648,0.06753787,0.1286592,0.43592095,0.12488565,-0.0682736,0.067463495,-0.16197354,0.23743048,-0.15694614,0.22408268,-0.074220754,-0.048127417,-0.12447593,-0.009085432,-0.022079166,0.11782268,-0.46336865,0.19177464,0.15587568,0.20536482,-0.11052194,-0.01745895,-0.07982175,0.42472455,0.037442196,-0.20106544,-0.15500598,-0.28165194,-0.47112456,-0.19262409,0.14022188,-0.1471033,-0.32757494,-0.31334892,0.20578618,0.043611154,0.24204016,-0.04537964,0.37768793,-0.060514897,0.11431773,0.01714206,-0.10228464,0.53753984,-0.39488283,0.018847147,-0.054436203,0.03948976,-0.087693445,-0.4255657,0.38054615,0.06631917,-0.19996396,-0.2082412,0.0064593228,-0.029819192,0.12386055,-0.32436866,0.26379055,0.16933838,-0.035866946,0.15990022,0.06664424
0.0018939024,-0.15486701,-0.14202683,-0.0027120765,-0.51790273,0.40562317,0.21071804,0.048442047,-0.0045718267,0.35366538,-0.046591166,0.001800442,-0.069747545,-0.13862638,0.36102244,0.21866079,-0.12975772,-0.30193073,-0.28856835,-0.5842401,-0.5868351,0.05537321,-0.35144502,0.5487931,0.09998739,-0.29176483,0.06526277,0.21149975,0.3615085,0.30439383,0.08988648,-0.26406816,-0.032865465,-0.17260976,0.08829457,0.24426025,-0.26520208,0.13041909,0.16243738,0.01327144,0.12913834,-0.06576551,0.003222702,0.15171936,-0.0007025419,-0.3349002,0.13544072,0.1815053,-0.105129115,0.12537688,-0.089641415,0.2683855,0.13677092,0.24892381,0.051485203,0.41410315,-0.043317895,-0.25157487,-0.036924478,0.10685834,0.17227156,-0.18725188,-0.26929912,-0.10307089
-0.4728943,0.21110094,0.1977812,0.39491788,0.09577756,-0.12965803,0.034264185,-0.08866905,0.2306253,0.20100175,0.30573875,-0.45225853,0.11514636,-0.36512554,0.24958538,0.2766407,0.041289464,-0.45118594,0.1633187,-0.13757043,0.36010313,-0.4573381,-0.07642438,0.24425651,0.42359135,0.42555356,-0.0011054619,-0.22659388,-0.18998834,-0.29115602,-0.45998368,-0.434108,-0.3688608,-0.54417235,-0.3418607,0.3974105,-0.16846152,0.39806867,0.054292444,0.13956772,-0.2995399,-0.057518877,0.25767836,0.19947632,0.42156672,-0.6371857,-0.2017052,0.21415971,0.42046633,0.44542736,-0.5551331,0.44915247,0.16585211,-0.5145807,0.01593706,-0.34896794,0.14309062,0.13120455,-0.045559485,0.063397214,0.5344979,0.12608752,0.07332062,-0.11900838
0.053862043,-0.033858042,0.21019407,-0.10780646,0.20730639,0.025344102,-0.24603383,0.31336492,-0.028606923,-0.105869606,-0.15975551,-0.07665315,0.12102109,0.27569696,0.077574655,0.08018144,-0.036873285,0.3788207,0.060241133,0.26002297,0.25772586,-0.1607807,0.16498783,-0.069094755,-0.16332486,-0.023572685,0.07436329,0.08360903,-0.35064155,0.11298878,-0.08476867,0.008571623,0.064631656,-0.14087658,-0.13910985,0.048353404,0.04368316,0.06744837,-0.16909072,-0.057027955,-0.14793967,-0.21360102,0.4011091,0.12680379,-0.21643063,0.11449263,-0.33291656,0.050289538,-0.03067483,0.005561927,0.090043046,-0.13354169,-0.031360496,-0.25107053,0.12414869,-0.69510597,0.111453414,0.005441039,-0.09547116,-0.2055571,-0.011041746,0.35463017,-0.25388765,-0.12593885
-0.29278395,-0.44647074,0.059081133,0.20957874,0.120806664,-0.024810243,0.24694355,-0.33720112,0.038268007,0.27178928,0.33767813,-0.3456748,-0.27026096,-0.60794425,0.3711834,-0.07672345,0.11917911,-0.32910898,0.055299807,-0.21389757,-0.15685557,-0.022418976,-0.09740817,0.33044082,0.40573707,0.11126056,-0.24958551,0.24678558,0.09817223,0.040685564,-0.09754531,-0.2486499,-0.45458218,-0.4040915,-0.2172567,0.13948917,-0.12954988,0.12956294,-0.061829142,0.108506635,-0.31493378,0.28436115,-0.021462271,-0.17685553,0.34348935,-0.49075857,0.027991194,0.17857493,0.01101662,0.30756634,-0.23192291,0.45482662,0.4201871,-0.26790354,-0.10030953,0.085837185,0.35168585,0.24965832,-0.083741486,0.08451805,0.46546945,-0.16538322,0.05500957,0.1562772
0.14146174,-0.100249805,-0.006916207,-0.50665194,-0.21703386,0.09715488,-0.1485846,-0.13646446,-0.37159747,0.20833954,-0.18481821,-0.35844,-0.12157386,0.06369918,0.0645464,0.079065986,-0.46804196,0.2045306,-0.30221623,0.05723361,-0.0660135,0.19237606,0.1292107,0.121327884,-0.41334754,-0.07002655,0.045488372,0.32030082,0.06410477,0.22010972,0.3905594,0.110578544,0.16771208,0.00674303,-0.057615347,-0.13873728,0.05122674,0.4699955,0.05592057,-0.29261082,-0.3108952,0.102823064,0.10187915,-0.028110757,-0.07320271,0.012326773,0.08966456,0.057576355,-0.38318077,0.28393063,-0.2996382,0.03900952,-0.1367823,0.20038478,0.2731892,-0.23545298,-0.25697115,0.13235544,-0.040964816,-0.020165399,-0.12290976,-0.10230698,-0.33685097,0.0785081
0.115913026,-0.049912676,-0.32392403,-0.05795528,-0.11381596,-0.0043901512,0.10921893,0.09035367,0.26529434,-0.1364522,0.08706452,-0.05387922,0.018121945,-0.021377936,0.031628296,-0.41126618,-0.0874429,-0.11513325,0.62803507,0.037853263,0.00049331854,0.07479652,-0.17413478,-0.18184137,0.27932444,-0.30467957,0.012627208,-0.32999453,0.03790581,-0.21881008,0.13143057,-0.09295428,-0.093321845,0.10787307,-0.042809412,-0.039231848,0.18330182,-0.52305543,-0.07311555,0.5793082,0.38385952,-0.043955177,-0.37694672,-0.096785165,0.23507442,-0.13841538,-0.24837205,-0.11591125,0.6693319,-0.21936992,0.21209307,-0.10818847,0.03966986,-0.082410455,-0.08939443,0.03805033,0.109510124,-0.10266449,-0.08723378,-0.10709357,-0.18080404,-0.23516892,-0.15836143,-0.08425492
0.12505695,-0.20030858,0.038006518,-0.45197335,-0.21517351,0.20936505,0.19222707,-0.045943283,-0.53779864,0.56065273,-0.06761454,-0.03500935,-0.32023007,-0.20810229,-0.0696621,0.004246868,-0.07307214,-0.031101864,-0.34126744,-0.21780622,-0.10849021,0.012016657,0.05026679,0.19006748,-0.22514011,0.05461921,0.10274394,0.3646222,0.15603666,0.06359874,0.27954718,0.018754723,0.051750194,-0.09820842,-0.10178996,0.17740619,-0.091016896,0.38123375,0.15578023,-0.08720313,-0.05293321,0.060460053,0.12768653,-0.11000592,-0.2104715,-0.064143956,-0.044707883,-0.1161155,-0.22774632,0.13648482,-0.15630177,0.1754708,-0.18223166,0.11860396,-0.04460741,0.014227914,-0.13038394,-0.173385,-0.11579134,-0.035184674,0.104392536,-0.17796236,-0.37677538,0.1469908
-0.3705313,-0.2836877,-0.12789162,0.1520483,-0.34744397,-0.07000007,-0.3145616,-0.5627298,0.12382745,-0.019283662,0.09452476,-0.21854621,-0.070287146,-0.40641448,0.019372812,0.04225132,-0.1704041,-0.24968576,0.001083065,-0.18166584,-0.113241844,-0.052136347,0.07720578,0.15140802,0.23955694,-0.26104066,-0.4204778,-0.0028646379,0.24025984,0.26474312,-0.073240794,-0.21004097,-0.3009184,0.36653545,-0.2681389,0.0096902745,-0.44677415,-0.10598397,-0.40612748,-0.054840498,-0.11952567,0.075423345,-0.15430515,-0.20730714,0.055326317,-0.05062608,0.057777934,0.16917644,0.2472996,0.08103508,0.19385374,0.24297912,0.4206658,-0.04217439,0.0869939,0.2664986,0.17119311,0.2539857,0.021379549,0.077135056,-0.16259348,-0.043130737,0.091066234,0.23531966
0.120918855,-0.10828243,0.030380825,0.058374524,-0.00851583,0.14617923,0.052285604,-0.29136962,0.15068962,0.10211359,-0.11602625,0.1166288,0.015982362,0.075183764,0.1674697,-0.546755,0.02135008,0.089474864,0.13229887,-0.19379735,-0.21641813,0.33878878,-0.1892151,0.050782945,0.027324757,-0.66391593,0.039171316,-0.08518676,0.14273559,0.21179081,0.024485769,0.106492214,-0.018129054,-0.01564368,0.2798588,-0.07785031,-0.15975598,-0.30136916,0.35259625,-0.041661005,0.11686586,-0.15568894,-0.14897288,-0.075483024,-0.08845576,0.08080691,-0.08675576,0.013501091,-0.0549288,-0.13279913,-0.0879921,-0.13438709,-0.24705401,0.026637666,0.03966475,0.08651176,-0.021236045,-0.13172412,0.09105567,0.064649545,-0.3376604,-0.02888471,0.07359873,-0.24704723
0.26732117,0.0352978,0.25355384,0.042318642,-0.25357085,0.27018514,0.07035567,-0.16491267,0.13816333,0.2398315,-0.4125879,-0.1970624,0.049545355,0.17195085,0.3626714,-0.22849707,-0.2960254,-0.08410745,-0.22085892,-0.28608125,-0.31726193,-0.24271001,-0.26690274,0.5281934,-0.08377547,-0.41700366,0.26998422,0.17035855,0.0033096499,0.4627726,0.14407453,-0.15634643,0.0018400442,-0.30135944,0.4074466,-0.09850238,-0.4213224,0.037815444,0.27007303,-0.2205612,-0.18086442,-0.2039845,0.09320216,0.08793053,-0.25639766,-0.23148818,-0.3455271,0.40664774,-0.06086522,0.43536958,-0.39369094,-0.085576005,0.052569233,-0.10387538,0.12513457,0.15216194,0.021229487,-0.07762281,0.020550095,0.17942062,-0.46838835,0.3142875,0.22272,0.013090985
-0.22262603,-0.17847227,-0.16783628,0.25103393,-0.14086223,-0.25217837,-0.06477659,-0.5965283,-0.0032999497,0.027655918,-0.048880473,-0.23131564,-0.049282074,-0.16734438,0.106802836,0.12930486,0.10653652,0.058856897,0.09474033,0.1981012,0.096198045,0.16634038,0.41414258,0.46449944,0.26948163,0.012230754,-0.11132449,-0.18585387,-0.14369434,0.12553395,-0.6229045,0.39985654,-0.34238973,0.09284419,-0.100098,0.43248385,-0.6020369,-0.22389215,-0.17402308,-0.29418623,-0.21624757,-0.5297369,0.31159267,-0.0799081,-0.09155424,0.01769252,0.046656683,0.06746391,-0.2880764,0.31610608,-0.14953639,-0.08929322,0.26015964,0.14251696,-0.18470626,0.0018813349,0.5919482,0.4334207,0.4719352,0.5651927,0.1601745,-0.17529726,0.12989901,-0.34009293
-0.01387048,-0.1483561,0.24675216,0.23923698,0.11363814,-0.21294339,-0.023469307,-0.1953095,0.09497082,-0.29783377,0.03023233,-0.059166156,0.27613172,0.2563321,-0.2537327,-0.11535825,-0.13196595,0.12971433,-0.06507284,0.0770845,0.21359886,0.03470318,0.25689572,-0.15894704,-0.10239782,0.19930072,-0.31772292,0.078861415,-0.13643281,-0.10759757,0.018138977,0.037629437,0.07978219,-0.098353416,-0.112761974,-0.38464457,-0.19320117,0.26738745,-0.07194049,-0.1473464,-0.08968673,0.21850307,-0.15119536,-0.2938415,0.31860867,0.07214615,0.020984791,-0.03356001,-0.30137667,-0.12338204,0.008336803,0.29580772,-0.07278182,0.19340976,0.2564594,-0.2767392,-0.2631131,0.1468755,-0.34824315,0.3872794,-0.13516504,-0.010102797,0.25226673,0.13797128
-0.2482322,-0.23763706,-0.13015486,0.11986907,-0.17676751,0.101500876,-0.061361127,-0.31330997,-0.11482014,0.016702462,0.17494535,0.010653342,-0.13599586,-0.26799586,0.18897349,-0.045646302,-0.029458031,-0.38530427,0.08110186,-0.1240855,-0.22138421,0.19975229,0.019129897,-0.06654153,0.16988482,-0.30891752,-0.15058811,0.019713843,0.096725754,0.088865444,0.049281772,0.073923625,0.008971446,0.19988483,0.18802431,0.050438937,-0.43813094,-0.14068414,-0.13468957,0.13767877,-0.048002224,0.31806004,-0.14541842,-0.18798399,0.20102067,-0.12973306,0.20437422,-0.17089422,-0.03609166,0.009899751,-0.0868879,0.4704316,-0.07643697,0.23026387,-0.22672279,0.15997069,0.070789434,0.20719717,0.05734542,0.1887947,-0.06732431,-0.31575212,0.20484221,0.00943722
-0.2849572,-0.046082187,0.24483047,0.036093514,0.374835,-0.3971837,0.24482617,0.16630712,0.020354226,0.2538899,0.29613146,-0.5235316,-0.049391493,-0.18930118,-0.01842705,0.27281076,0.13936475,-0.0940636,0.1177174,0.32230276,0.36516622,-0.43017983,-0.10348289,0.08053687,0.023049496,0.39839312,-0.28622484,0.092131294,-0.32050005,-0.4444673,-0.26984113,-0.2600466,-0.07554255,-0.34223807,-0.6247652,0.43568078,0.2120533,0.28602046,-0.16060129,0.103247024,-0.2599679,0.029066827,0.39001572,0.11551684,0.45974493,-0.27790686,-0.08625474,-0.011813239,-0.033573378,0.40185463,-0.33547717,0.31828296,0.34612933,-0.40655288,-0.016634533,-0.26065522,0.02084039,0.062717766,-0.48012796,-0.45225668,0.61218375,-0.0029154953,-0.17347188,0.17248288
-0.12492325,-0.45520934,0.13141486,0.17430349,-0.12182626,0.25750837,0.02848106,-0.17337306,0.08591871,0.17382193,0.07776811,-0.053755816,-0.04986869,-0.38538086,0.31079084,-0.09989489,-0.11674532,-0.4544479,-0.060049236,-0.1581243,-0.10596595,0.0687539,0.0036567636,0.20448622,0.24365059,-0.12713037,-0.36966696,0.08514087,0.24389134,0.12130646,0.023222104,-0.014564278,-0.3829075,-0.12171487,-0.102841295,0.109880485,-0.35100976,0.04679097,0.14210139,0.09170552,-0.046789505,0.075875595,-0.174344,-0.16499911,0.10012926,-0.2479071,0.07017893,0.21446759,0.15819202,0.05351245,0.108364195,0.48921686,0.14043486,-0.021526765,-0.17130303,0.24311328,0.027593918,0.035647612,-0.18185478,0.08443366,0.21259654,-0.25391772,0.13655062,0.29656115
0.5324565,-0.022984229,-0.12850478,-0.009243159,-0.43806258,-0.0635015,0.18815412,0.30768523,0.09245167,0.16300921,-0.081838064,0.18626706,0.010670889,-0.06372633,-0.12240506,-0.083648145,-0.09403598,0.109214745,-0.031424016,-0.1082815,-0.24833035,-0.008768252,-0.5191935,0.20122524,-0.18408243,-0.213748,0.32170627,0.031906422,-0.089760095,0.022615053,0.130994,-0.2496898,0.12620425,-0.17649753,-0.012940427,-0.23039085,-0.08629714,-0.026214711,0.35777244,0.27237517,0.35287815,0.0022447067,-0.121319875,0.41480258,0.06516173,0.29156667,-0.06527074,-0.034422074,0.020181606,-0.08534002,0.10424972,-0.09795543,-0.08395393,0.051369514,-0.15028058,0.11988346,-0.29523766,-0.56389415,-0.32145718,-0.2944414,-0.14306541,0.14069033,-0.013532663,0.1583259
0.18622983,0.18678048,0.019734878,-0.23629329,-0.1800999,-0.29034513,-0.04895879,0.44242176,0.07759738,0.022405403,-0.2849281,0.2640693,-0.19566913,-0.06867113,-0.40177265,0.07146413,-0.053913206,-0.022487603,-0.18703169,0.03365485,-0.31671995,0.0045233667,-0.70646447,-0.19272964,0.015556352,0.19042383,0.15805131,0.30525208,-0.13984111,-0.018369569,0.07285332,-0.0809766,0.33053115,-0.045937676,-0.0061537987,0.07788478,0.25568807,-0.015460874,0.008698198,0.24521981,0.16205524,0.64376533,-0.074979044,0.3493245,0.26195735,0.26816052,0.15652381,-0.21446978,0.21348886,-0.014614939,0.052498404,-0.02529216,-0.13848436,0.5029673,-0.25259066,0.258025,-0.58759105,-0.53981405,-0.32943007,-0.5326059,-0.100458905,0.03282754,-0.0052083703,0.17740631
0.4216416,-0.041661784,-0.19167037,-0.010789897,0.18814437,0.28008378,0.25011462,-0.11839338,-0.23296066,0.037112534,-0.07866108,0.3285075,-0.11366899,0.0769617,0.10306333,-0.3786078,0.4248168,0.030943086,-0.041884124,0.108129516,0.34600243,0.10409951,-0.37412795,0.09140553,-0.116893135,-0.4427692,0.25534716,0.03459532,-0.22402996,0.08273678,0.23978364,0.13328534,-0.030261802,-0.22417022,-0.041391686,-0.1997294,-0.046040144,-0.0482121,0.17332955,0.115174055,0.46953955,0.0038112376,-0.18233189,0.062345367,-0.19555968,0.17946444,-0.18104811,-0.34688658,-0.1120402,-0.17909399,-0.12385021,-0.1753581,-0.2893298,0.053854175,-0.2183723,-0.15968125,-0.0214828,0.013971948,-0.06263246,-0.029512282,-0.1864962,-0.21627675,-0.1289912,-0.15164846
-0.00024347154,0.0097571565,0.2398369,-0.19158901,-0.01114791,-0.12604508,-0.00046319683,0.3857433,-0.21489106,-0.01509581,0.08450146,-0.14614283,-0.050591994,0.057896033,0.048588317,0.29436165,-0.31673035,0.3256164,-0.44739306,-0.092623755,0.03571114,-0.23239298,-0.026982516,-0.110488474,-0.25408277,0.26388612,0.0012303821,0.2519862,-0.37207475,-0.039243627,0.20711076,-0.022457816,0.18119434,-0.23857918,0.072927386,-0.20945898,0.14218538,0.67540103,0.0077936836,-0.31041583,-0.13491291,0.075044,0.1349126,0.045417584,-0.20070578,-0.11172887,-0.11646111,-0.031876434,-0.21037999,0.16063412,-0.47812337,-0.04141371,-0.2478852,0.061047688,0.26789203,-0.34092447,-0.41800165,0.053594034,-0.20547143,-0.08953484,0.16870962,0.15708385,-0.18525246,0.20142874
-0.32799706,-0.119773805,0.015878126,0.035966754,0.0069740987,-0.417102,-0.19574216,0.24509813,0.26317137,-0.26875034,0.15738705,0.2569798,0.075722545,-0.010664987,-0.4000772,0.2258538,-0.049559798,-0.10083419,0.15303653,0.16335776,0.21457587,0.008828096,-0.13444553,-0.36613336,0.012270285,0.25453034,-0.32283682,0.022236332,-0.068270996,-0.36070037,-0.0776894,0.41216198,0.17911626,0.07270223,-0.32310775,-0.010514824,0.1515915,0.124008134,-0.32727352,-0.024220759,-0.12548451,0.36576247,-0.1626366,0.14426467,0.33358502,0.13273363,0.29280394,-0.24992573,0.083199084,-0.22447382,0.15534955,0.3024538,-0.16180669,0.21774365,-0.07525203,0.16061002,-0.3005635,-0.0136973625,-0.30646017,-0.12464563,0.07231829,-0.17091489,0.27354643,0.11908429
0.03800514,0.17050053,-0.113325045,-0.2728867,-0.3787568,0.10209174,0.03536639,0.23174466,-0.18853833,0.27513596,-0.24504589,0.12901567,-0.2041139,-0.12521963,-0.20406808,0.09839106,-0.01650141,-0.12515655,-0.09335658,-0.053435344,-0.3302746,0.13361761,-0.21288508,-0.10976962,-0.17186184,-0.15900719,0.026514076,0.29157946,0.028414374,-0.009737608,-0.050384965,0.10766692,0.1424318,0.15370007,0.06306453,-0.035153467,-0.10655675,0.17350501,0.009675818,0.12539294,-0.054106876,0.17465043,0.013202134,0.22936653,-0.08562301,0.17296267,0.41363302,-0.0033369965,-0.060041822,-0.069456525,-0.14207342,0.13375583,-0.29195005,0.49094483,-0.036554545,0.24001607,-0.0878828,-0.3354874,0.06337984,-0.22637565,-0.0026515776,-0.14651011,-0.06501261,-0.17519726
0.3909697,0.013099888,-0.46664804,-0.11950455,0.14595394,-0.17626642,0.08342179,-0.039667387,0.05505931,-0.080563925,0.12006726,0.049801357,-0.20897959,-0.021042401,0.17947662,-0.031897448,-0.06540527,0.34216532,0.14212877,0.2760449,0.5296285,0.36725795,-0.07332609,-0.03596032,-0.011759677,0.14175335,-0.0029001257,-0.08817938,0.14706643,0.10634224,0.2543596,0.12288839,-0.11471145,0.39121228,-0.4780548,0.20445962,0.3330248,-0.17037971,-0.51072633,-0.06105813,0.052586537,-0.105693184,-0.122367054,0.02307131,-0.10623478,0.4011067,-0.27459165,-0.418072,0.08666268,-0.15679982,0.0979065,-0.018586393,-0.10870012,-0.2617928,0.053018495,-0.30604404,0.22718522,0.36256987,0.017540125,-0.40472114,0.06780792,-0.29236686,-0.45379153,0.058199495
-0.0004683255,-0.1952251,-0.41703564,-0.3135224,-0.06862861,5.4776683e-05,0.16151148,-0.06992884,-0.46054846,0.25253022,-0.14370497,0.049586046,-0.7292247,-0.27225074,-0.070814125,0.36749446,-0.121582836,-0.29679903,-0.123491794,0.11744072,0.005316769,0.30464968,-0.040413316,-0.060591128,-0.17072886,0.16017951,-0.46576974,0.2286325,0.14808486,-0.06989545,0.050634176,0.34488925,-0.098816924,0.35081467,-0.58662343,0.693343,0.24383305,0.1771337,-0.29304168,-0.10100053,-0.015331329,0.20742552,0.15746386,-0.21034022,-0.19033746,0.08386286,0.5076326,-0.23246264,-0.3094686,0.18873729,-0.27227774,0.39057025,-0.14377485,0.39236435,0.2759729,-0.06950367,0.19563664,0.31862843,0.17949785,-0.1226721,0.6790764,-0.33482987,-0.47126406,-0.04408886
0.13398317,-0.6772686,0.0043240613,0.05354987,0.086785585,-0.06803548,0.056058034,-0.022186095,-0.34643748,0.11885509,0.12721713,-0.033919875,-0.23182279,-0.17974696,-0.07076084,0.079852104,-0.076902926,-0.110974506,-0.25320107,-0.023425747,0.14475836,0.3331437,-0.11936556,0.025682885,-0.12644239,-0.06589898,-0.3183754,0.15226458,0.06760342,0.047166664,0.32004163,0.11643512,0.07267149,-0.11704318,-0.2173006,0.059380982,0.088599205,0.04958321,0.08080529,-0.036656655,0.063138425,0.36960486,0.046361126,-0.0884763,-0.092599735,0.027902326,-0.15874363,-0.33071768,-0.16649608,0.003391651,-0.20741041,0.48278856,0.03663779,0.08296292,-0.012399429,0.023833884,-0.01084929,0.10150757,-0.14611255,0.1371864,0.31753722,-0.3865665,-0.15043874,0.18466671
-0.043623194,0.18964365,0.20993671,0.5244261,0.53152174,0.21436709,0.48092666,0.25545204,0.011774421,0.12192552,-0.122173704,0.16163181,0.016615395,-0.015912645,-0.015147661,0.056459587,0.4465399,-0.28843808,-0.25723842,0.29498178,0.19742762,-0.24695843,-0.30594993,0.17328879,0.34634137,0.14405897,0.25467306,-0.20277975,-0.7604951,-0.5982263,-0.5208032,0.2165723,-0.17434528,-0.44667506,0.038034055,0.07018101,0.16524304,0.29102808,0.48524666,0.08870326,-0.087764345,-0.065584585,0.20626931,0.17087573,-0.06349026,-0.28233495,-0.12024976,0.014644005,0.26725826,0.07642639,-0.4707676,0.13209757,-0.1964662,-0.10290089,0.108105764,-0.05254593,0.00745371,0.0027830785,0.12281292,-0.015211848,0.29453215,-0.10687136,-0.004491788,-0.40962195
0.18207815,-0.34678414,-0.19015628,-0.16742492,0.09976477,-0.09725555,0.34149683,0.1213379,-0.17602435,0.35304767,-0.031550746,0.17208248,-0.3343515,-0.28459415,-0.09216991,-0.014164862,-0.07991106,-0.2006217,-0.11347042,0.021641932,-0.070434555,0.22391835,-0.27921972,0.09049906,0.064253345,0.19682506,-0.38897687,0.2746857,0.23633258,0.050099213,0.47454554,0.022739936,0.06599224,0.07472314,-0.4133522,0.1656073,0.2809881,0.19143978,-0.16007607,-0.0021450426,0.19272691,0.5176999,-0.16095874,0.0027086334,0.105061054,0.29283616,0.17277794,-0.36384293,-0.03692296,-0.042894937,-0.06144354,0.49902087,0.19763716,0.18496417,0.025434354,0.123136505,-0.048621316,-0.13058223,-0.1982062,-0.22620136,0.3221232,-0.45509043,-0.47396973,0.33027577
0.10551737,-0.21596724,-0.03559364,-0.023661798,-0.029311355,-0.07771911,-0.5086498,-0.3236809,0.093567796,0.066158816,0.074204296,-0.30777353,-0.012806729,0.15420249,0.033894565,-0.006931198,-0.31976283,0.1607755,0.019292494,0.12195188,-0.06739614,0.24401651,0.35539934,-0.20438282,-0.24723873,-0.12951536,-0.21641107,-0.23252851,0.17579894,0.24072014,0.054376453,-0.13474362,0.07730238,0.32329184,0.003227076,-0.21913075,-0.13656124,0.06473713,-0.3084872,-0.34614322,-0.3099158,-0.13786346,0.19278535,-0.12905578,-0.007646287,-0.08533634,-0.11972914,0.20058873,-0.1886481,0.17275192,0.07240401,-0.15673934,0.13173774,-0.088585325,0.2674009,-0.24595432,-0.012053448,0.18780865,0.09806969,0.089305915,-0.27915043,0.2506086,-0.012355139,0.18636191
-0.06351281,-0.10003489,0.12785855,-0.23796107,-0.19483359,-0.12583657,-0.09070919,-0.0067326464,0.18583314,-0.06808576,-0.010795174,0.005807306,-0.012672993,-0.008157044,-0.04273614,-0.057296008,-0.41013962,0.2061363,-0.0812916,0.04342039,-0.07977817,0.38463223,0.1256808,-0.13971913,-0.15309717,-0.003100686,-0.24201128,0.15837851,0.005487169,-0.016663507,0.13429293,-0.16397168,0.16101314,0.26059225,-0.068614945,-0.06298304,0.11698318,-0.03277837,-0.12638246,0.15145361,-0.16429678,0.12170078,-0.29060522,-0.025919504,0.35859695,0.16322829,-0.08174874,-0.13953152,-0.023545707,-0.14776209,0.42724514,0.00020336758,0.2162588,0.097408615,-0.03058907,-0.030263063,-0.16187078,-0.107365765,-0.30920264,-0.15598312,-0.21672599,0.11764377,-0.08549146,0.41156897
0.28604692,0.22193234,-0.23596011,-0.33976707,-0.35296187,0.07129704,0.20779106,0.24599826,-0.17077762,0.034385335,-0.2254439,-0.08957599,-0.17236957,-0.030851433,-0.20958018,0.17675185,-0.1594325,0.0770153,-0.018125456,-0.18971346,-0.14754982,-0.048694108,-0.6666486,0.07299318,0.0071158237,-0.017400537,0.23021713,0.06841899,-0.10410739,-0.1521334,0.17922597,-0.16241212,0.10297684,-0.033531092,0.039207116,0.016598698,0.35177547,0.018781858,0.3678249,0.30755705,0.1277989,0.20025958,-0.2680466,0.41091067,0.17128202,-0.02644092,-0.123780996,0.11793077,0.12581374,0.046939895,0.36988556,-0.31906554,-0.073350005,-0.1220406,-0.13144349,-0.023625856,-0.29250544,-0.5342148,-0.03634947,-0.27147967,0.0033492076,0.14507346,-0.35905042,-0.0019396441
-0.22000523,-0.11853001,0.0073547866,-0.009506353,-0.101851396,0.104237184,0.047727425,0.023148622,-0.22907627,-0.09375822,-0.15719685,0.26722255,-0.20656973,0.033569604,-0.09201891,0.21324605,-0.17025991,-0.23925968,-0.15903655,0.08744574,-0.18046772,0.28941822,-0.23819092,-0.20175147,-0.11032654,0.07159463,-0.034083955,0.0655799,0.22982317,-0.020253925,0.050940473,0.18530369,0.1754331,0.017459186,0.17940092,-0.1335722,-0.017802855,0.15031594,0.044503417,-0.07788183,0.11164729,0.5503951,-0.11713303,0.0026142746,-0.07092819,0.0888871,0.2781899,-0.26217175,-0.30163962,-0.17489776,-0.1249278,0.3503432,-0.4616842,0.5781348,0.07252191,0.26108715,-0.16014586,0.0939811,-0.0255481,0.2025583,-0.052417614,-0.1464884,0.114811435,0.05440003
-0.34237912,-0.17825118,-0.31041855,0.0118414005,-0.29571977,0.29551443,0.05716431,-0.03732157,-0.11662284,0.41385624,0.013961982,-0.11550948,-0.12571964,-0.5894457,0.41746774,0.26087263,0.037798796,-0.62631553,-0.08251627,-0.6567395,-0.29407707,0.1443341,-0.26581594,0.50092703,0.12228609,-0.18490538,-0.14279914,0.0371958,0.42741233,0.28796306,0.17798601,-0.15987168,-0.25941858,-0.046151098,-0.007871559,0.47883117,-0.19639692,0.046514057,-0.09430161,-0.010747766,0.020341074,0.22002204,-0.04418244,-0.17327401,-0.016856216,-0.19079478,0.07662275,-0.019436615,-0.0055418457,0.33665106,-0.016183918,0.19954854,0.017161544,-0.103873625,-0.17505467,0.39899302,0.07373621,-0.053970736,0.15786669,-0.077287726,0.09045376,-0.31354517,-0.29294628,-0.055864535
0.14977416,0.13213257,-0.011735412,-0.028401805,0.45504308,0.0373352,0.3223638,-0.115367964,0.072446056,0.084763415,0.010494693,-0.4459832,0.03355902,-0.06256578,0.43524235,0.09046428,0.31651333,0.18123843,0.331017,0.29246384,0.69930845,0.04618985,0.020546896,0.13959262,0.08835175,0.07757215,0.24669974,-0.105258405,-0.42076486,-0.04583872,-0.23508833,-0.2638895,-0.3974178,-0.15309034,-0.47442895,0.28848845,-0.0670227,-0.085255265,0.17607273,-0.019167129,-0.06445665,-0.46749496,0.280356,-0.08616727,-0.070132315,-0.13500263,-0.4314627,0.10465493,0.064071976,0.26856592,-0.3539754,-0.3062476,0.18401533,-0.35783547,-0.014621773,-0.74573433,0.52181387,0.1280322,0.12354139,-0.15650713,0.09766653,-0.032482788,-0.22117281,-0.41827556
-0.25553545,-0.08883538,0.053441744,0.2383409,-0.067665786,-0.055032086,0.06132028,0.0019786775,0.12876984,-0.016365815,0.1399426,0.31914553,0.039511964,-0.0070221066,-0.13680853,-0.28380913,0.12441919,-0.39790824,0.07259433,-0.09990306,-0.20065753,0.23377112,-0.32465896,0.02844592,0.12292186,-0.06967923,0.0128070405,-0.07950301,0.27748513,-0.16012348,0.1006028,-0.024459414,0.1359282,0.016117293,-0.13857454,-0.24092789,0.014548689,-0.23972966,0.10234887,0.41914505,0.48963767,0.45832106,-0.6455411,0.15125671,0.4942883,-0.042993274,-0.12857035,-0.43338454,0.2810669,-0.115946166,0.1022532,-0.02824532,0.078520454,0.2503721,-0.55732965,0.50923085,-0.29127744,-0.0922421,-0.2148339,0.035097137,0.10493994,0.07349923,-0.019360613,0.063283704
-0.05849991,-0.15311368,0.024652813,-0.1508395,0.13320075,-0.17415549,0.051960114,0.1967924,-0.12631401,0.3130786,-0.15730809,-0.29728994,0.0006171438,0.0037452388,0.070922315,0.3220267,0.013267115,0.068109,-0.28570294,-0.009390566,0.13007584,-0.18561827,0.2474681,0.09138184,-0.21888492,0.177116,-0.05930503,-0.07622359,-0.15096708,-0.009284268,0.03577369,-0.057944894,0.1401075,-0.10290236,0.06872983,0.09749764,-0.069856696,0.55158997,-0.019132067,-0.28933755,-0.24125412,0.09316446,0.45018005,0.07694312,0.011268572,-0.089649834,-0.08794614,0.20002125,-0.45366752,0.190354,-0.58675116,-0.022719562,0.16612393,-0.04990745,0.21363162,-0.45505944,0.044108458,-0.003582293,0.017219052,-0.11011078,0.12917547,0.07403499,-0.07292431,0.07298234
-0.12020784,0.03348141,0.16115049,0.17821589,0.27855176,-0.11904511,-0.019942159,0.12152107,0.16566318,-0.5637484,0.12199819,-0.013132526,0.38675708,0.33318943,0.072499,-0.186875,0.05005739,-0.039322335,0.45149463,0.11637276,0.2993946,-0.052030917,0.16209656,-0.019722288,0.15193234,-0.07827982,0.14537531,-0.6362437,-0.16178133,-0.16886213,-0.5113428,0.003391004,-0.24119933,-0.19023448,0.1245582,-0.16707936,0.019396095,-0.12635984,-0.11398824,0.1558319,-0.024591468,-0.096548826,0.07630953,-0.06798576,0.00068225816,0.10808276,-0.15193759,0.11527495,0.16332905,-0.0996348,0.05014038,-0.050970428,0.03311569,-0.14743052,-0.013123147,-0.11227682,-0.020198846,0.11313936,-0.13291232,0.11899434,0.1708709,0.09703596,0.19730209,-0.04521969
-0.027901646,0.052136056,0.02585746,-0.19954497,0.2110709,-0.039508563,0.20277768,0.32337987,-0.05327653,0.013116122,-0.028892623,-0.3480394,0.20341076,0.078060284,-0.16335805,-0.022790875,-0.12548918,0.34556437,0.048907243,0.06647195,0.5755006,-0.17839311,0.10807442,-0.05511316,-0.08363485,0.037633218,0.22480027,0.017667325,-0.3520977,-0.034324333,0.088069744,-0.1854103,-0.04704813,-0.13236678,-0.18422844,-0.10113482,0.18265602,0.13216773,-0.0961959,-0.20281,-0.06895635,-0.26814738,0.48222396,0.09835437,-0.024181843,0.112444215,-0.4591976,0.0003010021,-0.0010281632,-0.0059753624,-0.0011601276,-0.09398435,0.12490723,-0.27036878,0.22219308,-0.93910813,0.15592839,-0.1744527,-0.121276125,-0.26537475,0.038859293,0.14596485,-0.14045951,-0.13078916
0.23407203,-0.0902104,0.026513532,-0.04427771,-0.1390693,-0.15284836,0.22276281,0.023117058,0.10961596,0.062048707,-0.089632325,0.18112825,-0.020039877,0.14844693,-0.1934127,0.06025302,0.38542476,-0.0022887539,0.03577449,0.18640791,0.094200805,-0.0065510212,-0.3228159,0.16617928,0.08544842,-0.06556219,-0.007678076,0.041191395,-0.26121366,0.026665883,0.018174184,0.3140868,0.011151285,-0.11159687,0.028711941,0.14048056,0.052518666,0.08202616,0.2759421,-0.03598267,-0.013296699,0.07035638,-0.048692316,0.4830547,0.19413294,0.1182995,-0.066120096,-0.110814914,0.067211464,0.07397495,-0.28761998,-0.13065083,-0.21876337,-0.07362216,-0.2947536,-0.068590365,-0.11350814,-0.25639245,-0.13281891,0.11070646,0.16179934,0.10744438,-0.15199761,-0.14177328
-0.40874618,-0.25381282,0.3838657,0.13722102,-0.14532007,0.27117163,0.031834207,-0.123264074,0.14863235,0.01524251,0.3224527,-0.43379158,-0.021339681,-0.22403914,0.49747273,0.108195536,-0.33541867,-0.49996668,0.015978055,-0.5061334,-0.08882592,-0.33131075,0.08635106,-0.08124487,0.38006788,0.26244676,-0.20498927,-0.0070348936,0.16463983,0.016353754,-0.0008281209,-0.20961435,-0.24254344,-0.19643462,-0.18906991,0.07067819,0.115639605,0.13374367,-0.17194918,0.35433674,-0.123738386,0.045633283,0.09669669,-0.41261634,0.1792461,-0.553803,-0.44741207,0.10208116,0.080782585,0.33264288,0.104942776,0.2521728,0.2834739,-0.42600825,0.35887542,0.058635008,-0.3131109,0.38867033,-0.057485256,-0.016883975,0.13952646,0.10601273,0.17780463,0.4005799
0.24876237,-0.13028565,-0.54264075,-0.091475785,-0.031351123,-0.24520123,0.02999072,0.07517585,-0.035436533,-0.11199737,-0.091225676,0.07790833,-0.18587819,-0.14505996,-0.10028997,-0.19545038,0.2885835,0.1419952,0.14335136,0.23312962,0.11384388,0.5337195,0.04804498,0.019653974,-0.057829905,-0.20947899,-0.14804721,-0.019827018,0.06146953,0.069852106,-0.062076043,0.29425716,-0.4112062,0.16195291,-0.3456151,0.21528466,0.17846261,-0.32744658,-0.3256022,0.020685174,0.2349649,0.035315536,-0.012340147,-0.05408432,0.02620721,0.26035255,0.16924581,-0.44294232,0.04641922,0.016358938,-0.16680737,0.03773899,-0.105746314,0.2005825,-0.32825252,-0.044885777,0.37289825,-0.020743214,-0.108736984,0.034914535,0.20093837,-0.45704368,-0.09122592,-0.20183584
-0.40385038,-0.23986083,0.116264544,0.34905592,0.13083346,0.35997745,0.3141729,0.004692587,-0.18883531,-0.10984129,-0.13630313,0.14094639,-0.08302096,-0.22213879,0.28039464,0.21592511,0.057851795,-0.52814645,-0.18144506,-0.039177407,0.13288039,-0.10001299,-0.026867881,0.054572646,0.3657858,0.13694745,-0.22517255,0.10789154,-0.033127148,-0.3111489,0.045261867,0.071507394,-0.37955797,-0.056694977,-0.09801606,-0.030495394,0.08953644,0.15209164,-0.15108724,-0.07338432,-0.17069173,0.18929037,0.1000013,-0.24647927,-0.12174403,-0.36325562,-0.029791659,0.018513337,-0.07028936,0.14584097,-0.30137423,0.42691287,-0.15538637,-0.13873127,-0.030295858,0.14265165,-0.08288415,0.3050089,0.0030128588,0.39346644,0.3162115,-0.35766992,0.07349885,-0.16547436
-0.2592141,0.15106566,-0.14196444,-0.25804278,-0.13691172,-0.0026179086,-0.6211933,0.077285044,-0.115886435,-0.10457175,-0.27576792,-0.13026404,-0.11554742,-0.024547365,0.055964675,-0.10098137,-0.37400955,-0.29193467,0.09106425,0.15041372,-0.2742038,0.20705326,0.18468307,-0.33463526,-0.051825147,-0.109376505,-0.1740234,0.22367391,0.58743864,-0.042187884,-0.16983412,-0.10849881,0.08686093,0.39351556,0.15980653,-0.04225574,0.07173097,-0.15060654,-0.44176298,-0.08342992,0.017419763,-0.021943836,0.19795562,-0.31581557,-0.19321388,0.034680914,0.14067301,0.17710888,0.070015274,-0.1540123,0.35783622,-0.03874021,-0.12222081,0.124089986,0.376451,0.23052046,0.12171425,-0.036111277,0.4016247,0.10868664,-0.44226965,0.060781863,-0.11924962,-0.15721312
