0,1,2,3,4,5,6,7,8,9,10,11,12,13,14,15,16,17,18,19,20,21,22,23,24,25,26,27,28,29,30,31,32,33,34,35,36,37,38,39,40,41,42,43,44,45,46,47,48,49,50,51,52,53,54,55,56,57,58,59,60,61,62,63,64,65,66,67,68,69,70,71,72,73,74,75,76,77,78,79,80,81,82,83,84,85,86,87,88,89,90,91,92,93,94,95,96,97,98,99,100,101,102,103,104,105,106,107,108,109,110,111,112,113,114,115,116,117,118,119,120,121,122,123,124,125,126,127
0.21395032,-0.3344747,0.085607514,0.096252635,-0.011856467,-0.03591063,-0.021919835,0.051403087,-0.004261626,0.008947922,0.046526793,-0.19328475,0.062328704,0.015601703,0.0750436,0.037510194,0.086460665,0.20600808,-0.158941,0.078229554,-0.035846952,0.08629814,0.16083139,-0.051662575,-0.06716806,-0.14147899,-0.008770443,0.043223634,-0.22393617,-0.070797786,-0.08749238,0.08209886,-0.03488842,0.19381171,0.058890965,0.016864117,0.06333303,0.027314417,0.091605864,-0.17694084,0.063847765,-0.018386308,-0.22844908,0.09832523,-0.21555743,0.040222682,-0.12072013,-0.005965826,0.20532252,-0.090620525,-0.06255648,0.083924904,-0.04865564,0.11455573,0.036367636,-0.08221947,-0.103094004,0.039277676,-0.008201277,0.14347869,-0.04512809,-0.10483561,-0.11541866,-0.095831126,0.22095513,0.0035935794,0.1428174,0.049918268,0.0924868,-0.11428728,-0.039814245,0.15418084,-0.019970115,0.122141734,0.04239716,-0.030108381,-0.12495222,-0.16316523,0.0677338,-0.09588648,-0.07664471,0.37392876,-0.025473278,0.086159736,0.10096941,-0.053424638,-0.09837742,0.058568742,-0.09892873,0.051912025,-0.22868975,-0.22855964,-0.03521077,0.09421667,0.036205053,0.0013393892,-0.15840039,0.2512333,0.06617346,-0.01503159,-0.094515085,-0.05670644,-0.19879551,-0.04911314,-0.010620419,-0.05527123,0.12009404,0.11507506,-0.04559823,0.12678368,0.2343674,-0.0768698,0.22611386,-0.1823716,-0.10176541,0.003729771,0.0769666,-0.023756228,-0.06571526,0.14808562,0.111249216,-0.29122376,-0.03187847,-0.24317288,-0.30012017,-0.059646737,-0.10607122,-0.012149295
0.017296951,-0.08426818,-0.15280998,0.17760886,-0.04782434,-0.11380368,-0.056332015,-0.00679462,-0.05463637,-0.093223475,-0.03588531,0.08126743,-0.24120873,-0.13569354,0.023957286,0.0032314686,-0.07732392,-0.026513878,-0.0559429,-0.041827768,0.07704781,-0.015360274,-0.09173562,-0.0055630356,-0.06939283,-0.027777683,0.014199969,0.049218625,0.014660776,-0.058114134,-0.05210606,0.061811704,-0.118468404,0.09098253,0.084356084,0.123391025,0.076723814,-0.025228577,0.02182034,-0.07844769,-0.15871204,0.06162213,0.037933905,0.16953582,-0.042605683,-0.04985068,-0.04463387,-0.0902955,0.000458689,-0.02868947,-0.089235455,0.15120022,0.09237717,-0.007691323,-0.04691503,0.08621863,-0.025115771,-0.06686582,-0.119363144,0.2971,0.027979922,0.04970238,-0.1272754,-0.074172504,0.109180346,0.0482037,0.008610585,0.05525213,0.017443381,-0.09217858,0.104659565,-0.0029834264,-0.19040474,-0.0340831,0.11332752,-0.0865642,-0.04144546,-0.19323269,0.113736436,0.19934262,0.07391942,-0.08292426,0.01764666,-0.049633846,-0.004518218,-0.029767431,-0.143218,-0.050817136,-0.26635325,-0.1671565,0.043111395,-0.04847771,0.008740413,0.008603599,0.088314556,-0.00069771154,-0.08082522,0.041960835,0.033088174,0.20039499,-0.14162624,0.08871436,0.035701286,0.054343347,-0.10739577,-0.14666204,-0.08641785,0.08713351,-0.11284489,0.056254186,0.0024514408,-0.12102245,0.047103245,-0.16796862,-0.06527512,0.113090254,0.06444115,0.044967875,-0.13949999,0.14805506,-0.0979781,-0.1723492,-0.11148645,-0.06687918,-0.010952642,-0.037013713,-0.010449355,0.032078896
0.0607819,0.03336489,0.0032454885,-0.046581265,0.024206296,0.024938915,0.025850825,-0.21660066,-0.072031856,0.075978324,-0.036463525,0.16356173,0.075003654,-0.10416933,-0.14562105,-0.09880521,-0.10242094,-0.083632804,0.14196175,-0.084689446,-0.13916467,0.054515418,0.15758821,0.16617182,0.10556615,0.121604726,0.016272027,0.1103748,-0.14268613,-0.0054587536,0.08663663,-0.024047261,-0.02116419,0.034876533,0.15873267,-0.104509495,0.0017369838,-0.058956955,0.074223176,0.07687575,-0.001318624,-0.035159476,-0.0022494143,0.009777916,0.03230821,0.06283721,0.11142269,0.1736168,-0.07689535,-0.18993545,0.16243225,-0.08672411,0.08135636,0.112302825,0.21611582,0.026620286,0.1511607,-0.12955686,0.111550085,-0.10585815,-0.045452967,-0.1749624,0.08061356,0.04524816,-0.020746583,0.053304896,0.035923135,-0.16108294,0.05327779,-0.11508624,-0.03591368,-0.10067789,-0.15378799,-0.042438522,-0.030322235,0.0012654846,0.006830905,0.0021392142,0.22300702,-0.19757321,-0.014346329,0.06737971,-0.04896292,-0.07410836,-0.1813559,-0.061186574,-0.16221863,0.1445606,-0.21078818,0.15721323,-0.27967644,0.05502165,-0.017118128,0.008714208,-0.110376574,0.13215715,0.0731251,-0.1575893,0.1158644,0.07213797,-0.12446335,0.07182817,0.07341868,-0.103355445,0.117816545,0.07994395,-0.115699016,-0.060180902,0.039174244,-0.091877624,0.0067171827,-0.13097273,-0.1266235,0.25996092,-0.10894303,-0.068782106,-0.010768711,-0.06172846,0.07553626,-0.030162867,0.10419807,-0.08460946,0.1260098,0.12315782,0.046305224,-0.11447711,-0.10514032,0.051162496
-0.029226499,-0.07598765,0.15112391,-0.07604346,0.014620849,0.08392679,0.03324802,0.09034398,0.029873163,-0.071440704,-0.13259657,0.063044064,0.15520716,0.10480644,-0.06189781,0.09556781,-0.03238024,0.04929,-0.088605486,-0.08207957,0.1356781,0.030460486,0.061972845,-0.053978607,-0.060977384,-0.03235943,0.032351825,0.0948365,0.06651858,0.0018097928,-0.0008206373,-0.0682672,-0.08078401,0.033506636,0.046429645,0.06661846,-0.08071173,0.052576117,-0.028241962,-0.006179629,-0.055790827,0.004172978,0.014598896,0.037484653,0.017222887,-0.017216828,0.12193018,0.17263074,0.09484083,0.015542144,0.0010445585,-0.10597203,0.014982866,0.05264196,-0.027993767,-0.083792284,0.054897662,-0.046057437,0.0348477,-0.03427665,-0.070532255,-0.027545199,0.14826994,-0.0376165,-0.034413446,-0.120876394,-0.0050257035,-0.0003572546,0.11839809,-0.10491287,-0.097734325,-0.16098522,0.14257462,0.0972266,0.004515076,-0.0836866,-0.0043081157,0.0098752845,0.05197914,-0.040248796,0.109493,0.002803042,0.083661415,0.124609,0.04699129,-0.20288122,0.14390878,0.02406994,0.013937533,-0.059238054,0.009631809,0.11457051,-0.04460645,0.023550631,0.10113546,0.019167067,-0.03252642,0.16979524,0.03363053,-0.055240165,0.0055803997,0.025663108,0.021775663,0.1242739,-0.029020688,0.009432275,-0.18707773,0.045688182,0.026317272,-0.046396382,0.09496576,-0.10591476,-0.05230705,-0.054771617,-0.025477277,0.074513204,-0.030848207,0.02755983,-0.04018616,-0.061555296,0.020794757,-0.09159201,0.043407414,0.038766805,-0.07349389,0.039370973,0.10134642,-0.0018996916
0.13303487,0.1293263,-0.17471598,-0.07009049,-0.12088866,0.19735584,0.12505819,-0.24435109,-0.0072734053,0.043610305,-0.058452763,-0.23056397,-0.09572149,0.016997075,-0.0730481,-0.057201587,-0.08572451,-0.0942652,0.13887295,0.06285743,-0.1297472,-0.004880299,-0.09349952,-0.19108108,-0.07714256,0.07777876,-0.15908137,0.14244072,-0.12147901,0.098124735,0.14525242,-0.055986557,-0.055181313,-0.090612955,-0.054735653,-0.051340256,0.036276262,-0.17695515,0.018093428,-0.17939194,-0.06773311,-0.18037547,-0.15041749,0.0022139899,-0.0076902257,0.15961422,0.0443599,-0.00088180776,-0.2069685,-0.008966386,0.11912975,-0.06487705,0.08750061,-0.09986615,-0.08176299,0.041673496,-0.014790578,0.32004488,0.033034224,-0.041819684,0.063725285,-0.051127933,-0.05470647,-0.04772533,0.019030992,-0.0399814,-0.21381065,-0.026078058,0.16112249,0.13263689,-0.2191715,-0.06381754,0.31138286,-0.22595489,0.07456039,0.045026064,0.08877105,-0.02678682,-0.08083701,-0.17335343,-0.0948617,-0.1233327,0.021514662,-0.08387722,0.062487468,0.0013474181,-0.006641307,-0.08902392,-0.17117651,0.056542035,-0.058205508,0.026443074,-0.029945655,-0.22401573,-0.16188209,0.13157687,-0.10213537,-0.03282106,0.052428067,0.059942108,-0.059938017,-0.13964202,-0.14713722,0.060962092,0.17383102,0.009520709,0.056207202,-0.063092664,-0.03505567,-0.015915107,0.031221617,-0.081297375,0.08149748,-0.080646545,-0.08948578,-0.38194954,-0.02017058,-0.20725381,-0.03482913,-0.05798415,-0.039773498,0.007893211,-0.061659634,-0.060667597,0.043307323,0.14622109,-0.10548075,-0.17514057
-0.056924082,-0.07370169,0.11754387,-0.03567384,-0.07099707,-0.16928537,0.086835995,-0.10246589,0.059038907,0.10759246,0.05275579,-0.15293676,0.3343876,0.11787412,0.0020150866,0.044972938,0.009327676,-0.20599303,-0.00017138994,-0.0049920757,-0.12404607,0.02585463,0.032804664,-0.024958678,-0.12803495,0.06576643,-0.024166437,-0.19513974,-0.05919963,0.077227846,-0.108727545,-0.030004457,0.07194354,3.9709746e-05,-0.0595037,-0.10670504,-0.11221001,-0.15022562,-0.031944197,-0.020119827,-0.010876634,0.036473915,-0.077464595,-0.12235863,-0.02997213,-0.008191619,-0.13586898,0.116744064,-0.10858626,0.13294795,0.007829796,-0.13171121,-0.22502187,0.07278863,0.02072057,-0.13258561,0.03618202,0.104874834,0.040506817,-0.1686468,0.023683926,0.023488354,0.03797681,-0.041100252,-0.080890864,-0.28426832,0.06225006,0.13818833,-0.16368441,-0.07637402,-0.0013358677,0.065454185,0.10465191,-0.14079858,-0.19485897,-0.06658782,0.13810235,-0.0033830758,0.13257347,-0.15388894,-0.067141026,-0.0920104,-0.032101974,-0.2330034,-0.049646813,0.021606378,0.03131553,0.03655969,-0.035637904,0.16608846,0.07089698,0.040455014,-0.14174828,0.0782984,0.047438905,-0.10049475,-0.056731485,0.035126712,-0.0050324956,-0.14751083,-0.030980045,-0.039042827,-0.09751562,-0.100579806,0.0319152,0.13450882,0.10145466,-0.025370194,0.0105592245,0.16518699,0.041421507,-0.04513948,0.10533404,-0.11552041,-0.083921246,-0.046992566,-0.06513139,0.057238467,0.20435148,-0.2802632,-0.010045919,0.00018771566,0.18396649,0.07887362,0.089045055,0.008556636,-0.07398601,-0.20581223
0.08467505,-0.12423844,0.024520855,0.08705283,0.12018145,0.14706957,-0.22071166,0.01567906,-0.114165455,-0.081378564,0.11622893,0.06337751,-0.04878751,-0.12280011,-0.2065084,-0.16479927,-0.05362261,-0.053303026,0.24737047,-0.11661583,-0.07143385,0.074724644,0.13841002,-0.042747203,0.14470115,0.12226606,0.10615922,0.13376534,0.09257867,-0.26522514,-0.003930825,0.010171969,-0.07870364,-0.1386727,0.08735021,-0.048940074,-0.050266158,0.0688325,0.08792445,0.002226266,-0.21428066,0.016033748,0.08132536,0.041397296,-0.010696938,-0.10615545,0.038051706,0.08282642,0.004751119,-0.12916282,0.024173314,0.027740398,0.06391808,0.07338895,0.117628515,-0.05174353,0.20110032,-0.23372257,-0.0054607196,0.033219945,0.003466384,-0.023322651,0.0079594385,-0.045936115,-0.04224643,0.11518009,-0.0279756,-0.012933593,-0.08094376,-0.127675,0.027529731,0.07214558,-0.16414504,-0.02749701,0.059314102,-0.0060031386,-0.13542286,-0.0888521,0.038742032,-0.024505252,0.0310071,-0.0692375,-0.0058395104,-0.049020935,-0.12983066,-0.10283229,-0.14205128,0.110355504,-0.1267782,-0.09240891,-0.14494199,-0.06526168,0.06730937,0.03123011,-0.13676332,0.009723164,-0.048123054,-0.16118869,-0.10620948,-0.02824447,0.040627997,-0.009616512,0.11677777,0.08625581,0.16402566,0.00035171545,-0.04731477,0.16881655,-0.0028437083,0.08149226,-0.051357154,-0.19539914,-0.012111036,-0.186777,-0.19391413,0.0005910874,-0.03859302,0.037826676,0.021707427,-0.027972404,0.052229956,0.006062442,-0.109867126,0.11868974,-0.1451428,0.0749922,-0.07563201,0.085236765
-0.14886831,-0.07693252,0.18792012,0.1517648,0.16492441,-0.078086086,0.11108372,-0.093184054,0.113524444,0.13646813,-0.17605737,0.09327159,0.15710159,0.012329759,-0.05012142,-0.115602165,-0.0094723,0.13258128,-0.15730368,0.07068009,-0.1019154,0.051755946,-0.14971577,0.12443886,-0.032292504,-0.1656733,-0.097835146,0.02542984,0.021837432,-0.009695449,0.015062446,0.16541843,-0.06847523,-0.025883636,-0.025317926,-0.11728115,0.025346272,0.07805578,-0.061854485,0.1441467,-0.07549405,-0.022031555,0.04624731,0.19387294,-0.039926056,-0.044450223,0.046672124,-0.24449214,0.19391857,0.17387635,0.0136621585,0.0013839834,0.06317092,0.025300093,0.08396107,0.058292888,0.045269836,0.07699781,0.07715,0.14142433,-0.04317505,-0.039078005,-0.021839632,0.01806871,-0.09518762,0.10157106,-0.23855764,0.017028296,-0.18520646,0.16246961,-0.06675724,-0.059640825,0.06903995,0.07632145,-0.0863545,0.1382519,0.112184,-0.013130047,0.021616487,-0.10129848,0.07874578,0.10010957,0.087920666,0.0039749728,-0.11582876,-0.083449855,-0.09437939,-0.15020739,-0.09072157,0.22170456,0.017627465,0.08895249,0.09912721,-0.066972286,0.08473923,0.028974239,0.0020920744,0.1029481,-0.2547987,-0.12743692,-0.09000102,-0.006665669,0.08337419,0.00802424,-0.10596395,-0.11067872,-0.025799166,0.10942851,-0.1872171,0.034751065,-0.2729304,0.093029656,-0.28655124,0.15942363,-0.09500187,-0.13283102,-0.08990281,-0.32285663,-0.07245422,-0.16207272,0.19813366,0.13353701,0.08946741,-0.058408454,0.03275546,-0.23222414,-0.11580116,0.2415739
0.057609614,-0.18376589,0.011995492,-0.074296154,-0.098083526,0.012850541,0.08510598,0.11059347,-0.027426424,0.0359811,-0.17503867,0.16706702,-0.014386064,-0.30644405,-0.01926556,-0.06178623,0.13777015,0.11650767,-0.23194821,-0.1957367,-0.23409237,0.027315402,-0.14958067,-0.10058256,-0.01401074,0.06699992,-0.07243124,-0.02011855,0.010304014,0.009425634,-0.00062497845,-0.17957298,0.09103039,-0.13240124,-0.008548745,-0.288558,-0.029092059,-0.08173811,-0.2363476,-0.0775007,0.16983448,-0.026675785,-0.03943397,0.049850628,-0.04981256,-0.010292507,-0.18985249,-0.06453783,-0.08948985,0.050607342,0.15764208,0.0029663835,-0.1108906,0.0012270636,-0.040110126,-0.15887293,0.091167875,0.068398,0.03423645,0.10462335,0.099169075,0.0646661,-0.06010804,-0.03195474,-0.0028355685,0.020882785,-0.008373705,-0.2529817,-0.003077987,0.18632099,-0.053838585,0.05290478,0.12365449,0.011539406,0.048989303,0.121287696,0.13984253,-0.014507914,-0.0002812462,-0.1483578,0.113015026,0.06259748,-0.11369702,0.029495094,-0.12750827,0.15110873,0.07781241,0.12150087,0.0025244316,0.06754998,0.021180559,-0.06349996,0.06596787,0.09822903,-0.125339,-0.19510257,0.055596758,-0.09913858,-0.03347411,-0.20820585,-0.071022324,-0.28876787,0.0042966246,0.17992072,-0.19869773,0.022787903,0.028148443,0.21549645,-0.10185234,-0.16332053,-0.14613962,0.086258866,0.05069291,-0.1924562,0.08640367,0.060030594,0.03835851,0.059898194,0.08742714,-0.17635573,0.15863496,-0.03474335,0.03521443,0.050529476,0.07685,-0.007929418,0.050333984,0.09210786
-0.18426277,-0.013396974,-0.10740352,-0.03377099,-0.20854525,0.12594908,0.09650468,0.322486,0.15071501,-0.047438398,0.13015926,-0.108909935,-0.17561452,-0.045198835,-0.028872851,-0.019717505,0.08532804,-0.096449286,0.032182675,0.021631457,0.16843103,-0.2747154,-0.1838562,-0.013356582,0.021887617,0.0019391807,-0.10367688,-0.13500373,0.13746482,0.13399334,0.1744138,-0.22629409,-0.032204915,0.06879716,-0.05439431,0.02825184,0.022220291,-0.16794583,0.061502103,-0.32979232,0.19700924,-0.071960025,0.014945279,0.16187373,0.026594922,-0.072704405,-0.036884014,-0.16593769,-0.16330528,-0.07555125,-0.145522,0.10755205,-0.17864093,-0.017171282,-0.20637679,0.011576599,-0.2034639,0.050685033,0.013213481,0.11140268,-0.043611098,0.23437601,-0.15008588,-0.016345646,0.12560324,0.08552762,-0.11991455,0.06452067,-0.08535122,0.0813802,0.21022211,0.055805057,-0.011447092,-0.19075076,0.03333264,0.024602681,-0.0631277,0.11577869,-0.26483288,0.03210706,-0.006407571,-0.16381198,-0.032138154,-0.061747998,-0.06834561,-0.09049139,0.04972669,0.003162384,-0.06281319,-0.0994356,-0.0036045688,-0.0953934,0.0152231315,-0.1977962,-0.02932814,-0.20281512,-0.222276,-0.07786954,0.0840111,0.03450889,-0.06293847,0.092982925,-0.13287966,-0.027123317,0.06515588,-0.006075564,0.11112626,-0.19076115,0.031885803,-0.023098072,0.14462923,0.08423464,-0.060304597,-0.12099259,-0.058865886,-0.1872447,0.07964204,-0.056963418,0.0030652345,0.10619608,-0.09004577,0.09755553,0.02732534,-0.15508547,-0.11929994,0.30196765,0.09619823,-0.06799152
0.11093038,0.0070784674,0.013156026,0.09447361,0.019045724,0.054338116,-0.099919274,-0.23984994,-0.16591722,-0.13162401,0.07173328,-0.04204588,-0.11686751,-0.13680708,-0.30464482,-0.055375423,-0.13634558,0.015971178,-0.01238832,-0.11878155,0.051176853,0.02195383,0.005179142,-0.02774696,-0.13940443,0.0126738455,-0.105822384,0.041013323,0.030012337,-0.28711078,-0.012175305,-0.02572398,-0.04795838,-0.002162516,0.13375676,0.044145823,-0.03516561,-0.02251891,0.045006525,0.06892476,-0.35364413,0.018582212,-0.17748539,-0.05238586,-0.038183305,-0.123440705,-0.044077426,-0.055662833,0.09004929,0.11206697,-0.030076757,-0.007779816,0.10016981,-0.07067511,-0.029813107,-0.079391085,0.08853452,-0.10403027,-0.083133854,0.0840525,-0.01524552,0.017316347,-0.062361956,-0.17660223,-0.0024808135,-0.19439906,-0.07144575,0.08567631,-0.143375,-0.13867599,-0.03126756,-0.05914516,-0.16023494,0.10963255,0.16214472,-0.017453551,-0.18842801,-0.24470599,0.18991378,0.13807046,-0.14081237,-0.014173138,0.037717585,-0.14345974,-0.075746596,-0.075167336,-0.41835582,0.057650056,-0.051240087,-0.26329312,-0.10768879,-0.0014890442,0.016451538,0.089268394,-0.11328418,0.08005763,0.10466289,-0.08156329,-0.18069412,-0.02753984,-0.064390555,0.034796536,0.10467658,0.11516047,-0.006595789,0.016444948,-0.07011761,0.20294295,-0.070722714,0.0018406911,-0.022927184,-0.003782835,0.052404154,-0.09133943,-0.11545452,-0.017047867,0.17543733,0.0913633,-0.051066574,0.0812847,-0.0721731,-0.1378813,-0.17954446,0.13866486,0.08298755,-0.07965012,-0.024913713,0.026447421
-0.005631927,-0.03268373,0.00747099,0.034228913,-0.0529061,-0.37403736,-0.041830927,-0.0043067522,-0.09715784,-0.025402796,0.050198015,-0.14357063,0.06829275,0.05179844,0.037160136,-0.09425036,-0.04578675,-0.006145403,-0.12035293,0.106025055,0.0263127,0.061933905,0.07475417,0.173604,-0.04121548,-0.21466067,-0.13729161,0.05040648,-0.22240904,0.129657,-0.1399172,0.17250995,-0.04609844,0.28919098,-0.09418092,-0.026555415,0.053154115,0.021128496,-0.05635693,-0.049867444,-0.021334944,-0.086120844,0.13667135,-0.12734082,-0.09263646,-0.055503298,-0.023634931,-0.13839842,0.16181447,-0.0830961,-0.0018594286,-0.11236668,-0.24980113,0.07132005,0.08881093,-0.031387273,0.20571873,-0.051032368,-0.03307154,0.08861341,-0.013539587,0.033452496,-0.066687025,0.014006289,-0.063634716,0.015611887,0.0225294,0.03262281,-0.0027083126,-0.119509935,0.084461085,-0.0010121191,-0.031081012,0.013036885,0.025043698,-0.10228094,-0.25080916,-0.18546808,0.1152587,0.053560615,-0.09650372,0.14437884,-0.09936095,-0.12592392,-0.1131069,0.11395815,0.014544026,0.0794606,-0.08094777,-0.23630548,-0.06342426,-0.040161848,-0.254794,0.064901344,0.0013079986,-0.13951026,-0.089465834,0.019581906,-0.09062015,-0.083230525,-0.07991253,0.19852252,-0.14173105,-0.018448913,-0.024242746,0.017362714,0.01584748,0.03730695,0.060634617,0.22172521,0.07495366,-0.010434123,0.14009818,-0.099418186,0.017100751,-0.12084923,0.039730586,-0.00290716,-0.010086384,-0.055852648,-0.2474293,-0.090381645,-0.09232977,0.0030282468,-0.08605118,0.00086309086,0.094464935,0.063217655
-0.08318904,0.080054425,-0.0758417,-0.15014803,-0.0092341965,0.018093621,0.028152307,-0.076768406,-0.003305732,-0.13942884,-0.091235526,0.09748102,-0.08720559,0.11347115,-0.00396632,0.044268332,-0.07804346,-0.014767447,0.12740885,0.11667725,0.13039666,-0.07247392,-0.03951381,0.0019685533,0.022480533,0.060478132,0.057153016,-0.099812254,-0.15960167,0.052086595,-0.06866309,0.042452503,0.041928064,-0.11624241,0.0031161506,0.080055445,-0.121553466,0.023000339,0.04833675,0.08945769,-0.054783974,0.0556574,0.088976145,-0.07327502,-0.010452429,0.019739654,0.15412249,-0.10670776,0.05845094,-0.018704433,0.08176174,-0.0124371415,-0.15790513,-0.15807621,-0.17176744,0.06920914,0.07294949,-0.08567989,0.06335592,-0.12071725,-0.016406529,-0.07584525,-0.07164013,-0.056523487,-0.021862559,-0.11827379,-0.094805285,-0.05032153,0.103251226,0.08767546,-0.22431685,0.029267458,0.0049813213,-0.0227061,-0.16933315,-0.017333861,0.006406836,0.040713172,-0.064968936,0.033419292,-0.20359206,-0.14107053,-0.07945659,-0.014288503,0.082244076,0.12943013,0.06615489,-0.1639207,-0.027352186,0.032319292,-0.060418136,-0.07841191,-0.057659578,-0.10333062,0.05007751,0.1285569,-0.11375632,-0.098624684,0.123973355,0.017667128,0.09711753,0.108877584,-0.02768984,-0.11884679,-0.0023058788,-0.053672787,-0.110545546,-0.20632301,-0.045269366,-0.13945046,-0.16302009,-0.04373626,-0.02272862,0.015468432,-0.036946226,-0.15172803,-0.09516716,-0.060844734,-0.007825284,-0.08363846,-0.050855868,0.08534822,0.06970663,-0.05749361,-0.104810014,0.010470035,-0.041502256,0.052249078
-0.09755405,0.0784614,0.08148516,-0.028971074,0.13473369,-0.1777275,-0.08447624,-0.24714275,-0.090889275,-0.038478855,0.12124706,-0.09833988,0.02473733,-0.057886373,-0.016182687,-0.052542355,-0.018338181,-0.055596136,0.06360157,-0.07971925,0.031201381,-0.018953687,0.08467059,0.06029859,-0.10838386,0.03973155,-0.028755965,-0.03136018,0.028001102,-0.29584816,-0.2241204,0.07946917,-0.006962425,0.08437168,-0.019870523,-0.0075151725,-0.0058283154,-0.011247133,-0.15843622,-0.02939325,-0.15850076,-0.0030546987,0.15178226,-0.15612966,0.10898078,-0.09423725,0.1033015,0.012157179,-0.016105799,0.06433583,-0.027850877,-0.33834845,-0.088504404,0.010374498,-0.063855715,-0.05537011,0.033646245,-0.14227253,-0.036291223,-0.19802961,0.0736223,-0.07817843,0.023538252,0.16191074,0.06741287,-0.06776014,0.075029045,-0.09291003,-0.13421533,-0.062892206,0.021049796,-0.037719935,0.07012751,-0.02948874,0.053530518,-0.08049352,-0.07331463,0.034211013,0.13152303,0.08239322,-0.12042445,-0.12099428,-0.026359404,0.030919243,-0.062143333,0.055286027,-0.041764654,-0.024911666,-0.09434848,-0.23319592,-0.12698758,0.060809482,0.054339707,0.075749464,-0.13649644,-0.048966177,-0.0017751934,-0.03505657,-0.049423587,-0.060611926,-0.020889593,0.0046223914,-0.005670829,-0.049770813,-0.039197743,0.050160687,-0.23802248,-0.040641554,0.002390321,-0.03595957,0.1285536,-0.075588286,-0.07568611,-0.07429946,0.0067615896,-0.09581171,-0.011117882,-0.026101595,0.06814863,-0.09941228,0.03307743,0.032367654,0.043809056,0.03806833,0.019519633,-0.005991637,0.13705854,0.023346772
-0.3104871,-0.11360747,0.07039402,-0.013078554,-0.26281264,9.954469e-05,-0.026908534,-0.08833675,0.05394357,0.017538074,0.19323297,-0.18008915,0.22755972,0.019822154,0.087820254,0.07510332,0.27681482,0.036401372,0.06694309,0.15578008,-0.04983938,0.01253529,-0.04835127,0.11851149,-0.24405746,-0.0073722135,-0.21869142,-0.073560484,0.10085898,0.17174433,0.13155968,0.059991356,0.034483053,-0.17565699,-0.115554824,0.10296631,-0.027909074,0.016507111,0.06215242,-0.08658898,0.25682724,-0.051080387,-0.04885349,0.10300626,-0.123204716,0.045696013,-0.1218547,-0.2928157,0.119473,-0.07009653,-0.18511346,0.14434102,-0.38238502,-0.0073684175,0.09383179,-0.040458847,-0.088585615,0.118374825,-0.15248598,0.10520702,0.020998312,-0.053357128,-0.017903859,0.040912043,0.11280288,0.18718813,-0.20072278,0.11721577,-0.17917885,-0.12971197,-0.010911557,0.243866,-0.013459405,-0.25274616,0.06995641,-0.17543009,-0.121142045,-0.07887677,-0.045228463,-0.052189842,-0.106785946,0.2356499,0.01664092,-0.03315971,-0.08176086,0.025914542,0.06443036,-0.017675892,-0.10158914,-0.058736354,-0.05594015,-0.18343519,-0.20405307,-0.042660628,-0.049548533,-0.031247823,-0.36803907,0.109516345,0.005877171,-0.016972013,-0.11232625,-0.19223997,-0.21868287,0.133316,0.11097738,-0.26131117,0.03828975,-0.14816083,0.13931556,0.19191013,0.09351988,0.24008287,0.044429004,-0.22051103,-0.22892113,-0.22252437,0.10603808,-0.09993643,0.11179473,0.034409594,-0.14025989,0.15728216,-0.09105014,-0.054308023,-0.19267303,0.2720356,0.14391758,0.0782014
-0.10193267,-0.064679906,-0.14269184,-0.038654793,-0.13780676,0.10007418,-0.060010146,-0.03351024,-0.034013487,-0.052738015,0.12380673,-0.056780875,-0.08740706,-0.01648197,-0.21407455,-0.024427107,0.011715701,-0.030565826,0.15957922,-0.31371823,-0.07801467,-0.016678507,-0.065456405,-0.10761396,0.003483009,0.25736496,0.12510432,-0.21260685,0.17732811,-0.1323587,-0.04170443,-0.01931962,-0.15749738,0.053974546,0.015222102,-0.19504267,-0.17594688,-0.09833226,0.11778551,-0.07887965,0.097729996,-0.019555302,-0.11445549,-0.0063282116,0.07078876,-0.0025342216,-0.083962135,0.13886616,-0.19040193,-0.16589189,0.04407557,-0.040855616,-0.058854736,0.0491899,-0.10258303,-0.06051694,-0.03205664,-0.08568742,-0.024974851,0.09062427,0.1694169,0.12315795,-0.00621436,0.0979295,0.14213681,-0.046028107,0.054629132,-0.0797955,0.111254044,-0.11432413,-0.06731112,0.03913164,-0.07445743,-0.03912068,0.10779023,-0.03941,-0.08916862,-0.012303666,-0.053201173,-0.017932761,-0.070069335,-0.08271813,0.044330772,-0.009907999,0.0026841562,-0.012694298,0.13400361,0.09254024,0.08044265,-0.048751127,-0.089310914,-0.03972514,0.05650622,0.00720327,-0.13511364,0.08841467,0.026725123,-0.12779646,-0.13481794,-0.13302445,-0.19329017,0.029555745,0.10558539,0.06714811,0.07246391,-0.045728102,-0.095998816,0.07885491,0.04181957,-0.37928578,0.23926802,-0.16631304,0.07901729,-0.22820488,-0.07192035,0.013662412,-0.019685611,0.1255523,0.07747794,0.13047287,-0.07947671,-0.060087338,-0.13344848,0.11054735,-0.0062825517,0.10140685,-0.029481553,-0.27478835
-0.04825497,-0.10462928,0.0025114838,0.065485746,0.005852723,0.00045725954,0.09954318,-0.16713029,-0.011103088,-0.031436022,-0.093176164,0.047851343,0.007485046,-0.08193842,-0.21816914,-0.0685768,0.07195965,-0.06216973,0.14625539,-0.13166943,-0.021222176,0.04555334,0.06285266,0.029425241,0.036563396,0.07786883,0.0154902795,0.009863382,-0.11488474,0.067478485,-0.12389842,-0.024890713,-0.009541138,0.073104456,0.10573988,-0.027625954,-0.11389677,-0.042793643,0.021517172,0.041334625,0.021198634,0.012836241,0.08930831,0.085637145,0.006551745,-0.1213821,0.10051087,0.04749103,0.041224666,-0.0851033,0.05494008,-0.012653967,-0.05240402,-0.0970982,-0.014685456,0.04428049,0.12634519,-0.09607908,-0.066657946,-0.011530528,0.011397967,-0.02443327,-0.026691781,0.08967942,0.045329474,0.16854933,0.036441814,-0.06282539,-0.1276992,-0.12618819,-0.014569224,-0.085399345,0.03449466,-0.033039033,-0.0733427,0.10696906,-0.1409133,-0.0034077691,-0.0438103,-0.10465042,0.034918845,0.007951075,-0.057316266,0.19180197,-0.12089904,0.035521373,-0.24561828,0.063278764,-0.13283868,0.04014974,-0.05746885,0.034634355,0.09421049,-0.07094293,-0.0020178794,0.11599299,0.031360094,-0.099379264,-0.0066684163,-0.03653979,-0.12633288,-0.058673225,-0.041538782,-0.08746502,0.11509737,0.06573525,-0.016485542,-0.038475454,-0.027816758,-0.17659588,-0.026575722,-0.3079875,0.031620815,-0.027003888,0.06229701,-0.003913694,-0.08335666,-0.011983977,-0.06969294,-0.018414717,-0.024893647,0.08387611,-0.06373379,-0.18518236,0.061276846,0.023537938,0.030752346,-0.020568993
-0.08328405,0.0003781582,0.005834028,0.061377633,-0.11659583,0.060883004,0.2142009,0.048983127,0.065197624,0.09969836,-0.028332578,0.04566923,0.0030849236,-0.0937615,-0.053389136,0.034031548,-0.013850632,-0.059499796,-0.091838725,0.039521538,-0.0671349,0.010114667,0.072239816,-0.035747353,-0.117296115,-0.094353825,-0.00012285355,0.00094756554,-0.026007952,0.06746777,0.043748878,-0.078288615,0.03020079,-0.05722176,-0.0124183465,0.12926666,0.32662502,-0.03185549,0.04493941,-0.054671627,0.052289255,0.057667598,-0.04052291,0.029810771,0.07028087,-0.020606652,-0.16982545,-0.10608843,0.020799544,-0.08828016,-6.0866147e-05,0.06877777,0.10686641,-0.035576764,0.070518516,0.13407812,-0.121103555,0.21593896,0.060648303,-0.07816732,-0.027924906,0.06273677,-0.053549834,0.049906544,-0.1455428,-0.012281135,0.088253155,-0.020561554,0.11549759,0.1481648,-0.06216071,-0.12708415,0.04589728,-0.12170805,-0.0077091753,0.13757011,-0.05932191,-0.060615167,-0.056772117,-0.0019453331,0.060899794,0.028099002,0.07319921,-0.039572835,0.16604087,-0.07902633,0.071224734,-0.12220989,-0.04110036,0.037880696,-0.035059895,-0.05040331,0.027680382,-0.17174467,0.057909176,0.06955432,-0.08247769,-0.20315973,0.23311093,0.1426616,0.014751894,0.011361477,-0.044531196,0.113611236,0.096309066,0.020133054,0.073613316,-0.041570958,0.094871625,-0.015666341,-0.09253747,0.116989754,0.009987898,-0.004724955,-0.048101597,-0.051510997,0.0331415,-0.043464497,-0.10146824,0.00054504874,-0.09618406,0.050443687,-0.04061529,0.04213561,0.013879464,-0.09991611,-0.08889141,-0.039264396
0.1326934,-0.040931173,-0.11681695,0.08652517,-0.096312426,0.1470179,0.05344117,0.21860571,0.05787343,-0.012831943,-0.14424369,-0.014983111,-0.05501188,-0.13998602,-0.06799633,-0.100987606,-0.1269107,0.015529286,-0.042074263,0.06837873,-0.10548276,0.094764374,0.26259536,-0.14436121,0.21138662,-0.13291161,-0.028420918,0.12838095,-0.11991898,-0.120154165,0.19954515,0.042090237,-0.054241277,-0.014611357,0.20367151,-0.036811307,0.019580284,0.0109286355,0.028060513,0.08660129,-0.1462931,-0.029933996,-0.13972864,0.02906314,0.009052488,-0.092075646,0.11802463,0.19603562,-0.050468676,-0.10960397,0.14909655,0.0992274,0.1626602,0.08101178,0.046395388,0.041318107,0.15088461,-0.03235969,-0.0020985233,0.0993728,-0.12326734,-0.19009595,-0.162774,-0.091394134,0.09700043,0.11591149,-0.025526134,0.020297665,0.25205722,-0.33316988,-0.081650496,-0.03720924,-0.112629145,-0.08654128,0.0068939575,0.17277706,-0.12454351,-0.16257699,-0.03662731,-0.08638538,-0.05710797,-0.12421916,0.011330014,0.05147283,-0.0016934101,-0.24315083,-0.08023014,0.0780895,-0.18714815,-0.063262925,-0.22544199,0.06954681,0.030087203,0.0762338,-0.026372822,0.26550817,0.039202433,0.021675324,-0.015284523,0.18913488,-0.09670403,0.022426803,0.049802057,-0.036552798,0.096091785,0.048188288,0.10928302,0.07217546,-0.095513724,-0.09435995,-0.13425091,0.017524235,-0.042172622,-0.015340479,-0.13114442,0.00021443685,0.014367776,-0.1516164,-0.008852763,0.09713894,-0.027370544,-0.15855971,-0.070241034,0.0687624,-0.26144007,0.0045530163,-0.03206824,-0.090025485
-0.18293102,0.021770693,0.095130675,0.009921473,-0.18370166,-0.2852097,0.044211455,0.05267886,0.086109,0.20530961,0.3709732,-0.06346478,0.053052034,0.045059033,0.057037298,0.10507926,0.033697143,-0.054264363,0.22774056,0.13472317,-0.27416226,-0.12994592,-0.39728475,-0.13752298,-0.060830187,0.044334415,0.052363314,0.1948626,0.07248039,0.13755272,-0.10713139,-0.10884054,-0.09374722,-0.023235235,0.0060119545,-0.075545534,0.039250545,-0.16961737,0.04938915,-0.23094547,0.18569697,-0.09779173,-0.08302667,-0.049025144,0.32156175,-0.18472159,0.054584596,0.1467555,-0.2149828,-0.15000695,-0.0113903135,-0.13462293,-0.14672069,0.051917996,-0.1095672,-0.2358237,-0.022242727,0.057451833,-0.07378335,0.027852308,0.057820152,-0.17478305,0.009110804,0.069429144,-0.048393667,0.0694419,-0.087795675,0.011278987,0.023714192,0.06442223,-0.007945315,0.08991211,0.1438828,-0.24101369,-0.08330234,-0.18959823,0.019764174,0.22632696,0.026113534,0.033105668,-0.0006586011,-0.02734046,-0.11302881,-0.26072976,0.067072034,-0.006098379,0.13066329,0.027037485,-0.16020158,0.12045348,-0.17890158,-0.11594681,-0.11112288,0.07051245,-0.26420745,-0.12746973,-7.621796e-05,-0.10108348,0.13562417,-0.20891623,0.0014213409,-0.17011037,-0.055671643,-0.26677608,0.2662074,-0.00988643,0.20803936,-0.32326615,0.22123314,0.114318624,0.20304991,0.014865328,0.20989491,-0.07396725,-0.0010085703,-0.021215225,-0.15970358,0.032884978,0.08278831,0.07115096,0.014653741,0.09992619,0.1834485,0.02822147,-0.0323395,0.13201901,0.057093233,-0.14328806
0.09047556,-0.14588581,0.1481192,-0.10980184,0.17368719,-0.074186586,0.07969447,-0.100046374,-0.016589768,0.09776565,-0.16115764,-0.1272672,0.23058774,-0.016772827,-0.024008939,-0.0056178086,0.115659215,-0.091603085,-0.1901267,-0.09638743,-0.112922825,-0.0049986527,-0.12130267,-0.07882439,-0.057245594,-0.18846296,-0.18038455,-0.092588626,0.020138666,-0.014397103,-0.092488036,-0.023621047,0.05478498,-0.10677454,-0.1847833,-0.12283818,-0.12512003,0.015105992,-0.24139147,-0.008432078,-0.060070798,0.008787931,-0.12797913,0.02351628,-0.21100901,-0.06993105,-0.094968826,-0.13874468,-0.034948044,0.022119548,0.10579926,-0.024409344,-0.11385864,0.039047692,-0.0072922963,-0.04956967,0.08220269,-0.055030998,0.047023587,-0.26484022,0.025681892,-0.072379336,0.0547121,-0.063466355,-0.20490335,0.013359026,-0.07451702,-0.069383375,-0.25840455,-0.041654453,0.039226018,0.05110619,0.15805297,0.108142614,-0.024961056,-0.10129608,0.081134915,-0.011883151,0.035135742,-0.14583957,0.09209718,0.039937448,-0.08394607,0.2531947,-0.24703392,0.02398115,0.047049135,-0.09042901,0.045305915,0.01723463,0.099540316,0.028373014,-0.04590571,0.063626386,-0.029116008,-0.11647309,-0.14157417,-0.010784946,0.036952812,-0.09523552,0.21827783,-0.10795248,0.033448793,0.020610023,-0.30111113,-0.15820909,-0.031988617,-0.08582328,-0.12310623,0.13303623,-0.13111672,-0.016658017,-0.060102366,-0.014581874,-0.00046336808,-0.050583303,-0.030125672,-0.14968385,0.021917842,-0.25625944,-0.0111149615,0.06792643,-0.017372906,0.03268169,0.12504244,-0.040961485,0.018453287,0.026587231
0.05389512,-0.08991546,0.03063551,-0.06493402,-0.15864061,-0.01156686,0.016217468,0.14020976,0.1454049,0.21915205,-0.06533651,-0.0005937244,-0.04719427,0.0793675,-0.011822558,-0.006903987,-0.038561232,-0.06255906,0.0070618414,-0.10005537,-0.15977474,0.043647215,-0.053372137,-0.05280683,0.088063166,0.008374984,0.03794416,0.09337569,-0.13357097,0.09332051,-0.02448572,-0.07754146,0.061824422,0.063736096,-0.040962845,-0.1874439,-0.08064374,-0.23297517,0.10948541,-0.014469495,0.029148243,-0.036774136,0.02231623,0.23169151,0.116133936,0.24897516,5.8240752e-05,0.100603126,-0.18592702,0.011944867,-0.097798325,0.028890204,0.004768181,0.011747796,0.2739283,0.11555915,0.17590263,0.0045834617,0.17617308,0.040788528,-0.11688558,0.013760185,0.041670963,-0.07203235,-0.10257827,-0.0064544557,-0.12837279,0.019207463,0.17507623,-0.010982388,-0.026645426,-0.015721204,0.058776375,-0.04005233,-0.000819614,0.16558482,-0.03848585,0.1260917,0.09225544,-0.22104113,-0.059240706,-0.109122634,0.01220567,0.184857,-0.16320796,0.03286284,-0.116535366,-0.13630322,-0.018005975,0.22956547,-0.18003385,-0.034233738,0.02985233,-0.046329245,-0.052091267,-0.18128987,0.14251769,0.046513706,0.06487658,0.0035128377,-0.26716056,-0.043859985,-0.14940107,-0.05385306,0.24528484,0.102480344,-0.022256445,0.07191273,0.11499535,-0.15073684,-0.09668105,-0.11389899,-0.013618823,-0.047432933,0.26031852,-0.23126838,-0.08863924,-0.1589728,-0.034032233,-0.087259196,0.24877766,0.08345172,0.07649308,0.0961534,-0.14263555,0.238768,-0.15553887,-0.23097718
0.0010081481,-0.013038802,-0.1569731,0.17518806,-0.14265819,0.09638305,-0.029421607,-0.09515007,0.069366544,0.10230576,-0.034926597,0.02958043,0.04075464,0.037741978,-0.05289854,0.09105677,0.042023994,0.047913015,0.20071381,-0.11351892,-0.10009107,-0.012483572,-0.009554856,-0.0725106,0.06567232,0.17483146,-0.018921597,-0.015211007,0.10118794,-0.11705355,0.027583567,-0.0047092848,-0.06623633,-0.014211232,0.24291225,-0.23191355,-0.05616112,-0.025340995,-0.0082282,-0.13221356,0.12376269,0.068893395,-0.0715115,-0.009250968,0.11074172,0.170723,0.022848325,0.12517476,-0.11693697,-0.06713329,0.009992591,0.020590736,-0.03762231,-0.053297147,-0.028028503,0.020481484,-0.029058464,0.016395269,-0.025026204,-0.15311943,0.038782317,-0.047305368,0.017888255,-0.044065308,0.23368075,0.040717922,0.16813114,-0.1595318,0.055876147,-0.033516146,0.07098167,0.0016892216,-0.03292085,0.16891418,-0.10955897,0.07239389,0.010042666,-0.0079397205,0.12485767,-0.1369178,-0.068845406,-0.022103231,0.005128448,0.04248555,0.048953045,-0.11856117,-0.059601936,-0.03628151,-0.013316708,-0.03307039,-0.17013167,-0.024750886,0.06191998,-0.024019638,-0.019876128,-0.05801788,-0.110777736,-0.09940092,0.03215958,-0.11461843,-0.16153702,-0.025281634,0.03053719,-0.045937072,0.15203482,0.02275536,-0.029071623,0.021636117,0.25145912,-0.11422581,0.15497008,-0.07269774,0.17471609,-0.03906433,0.19549517,0.06765485,-0.12636825,0.099619955,-0.06858948,0.039616138,0.03432636,-0.07156033,0.08865659,-0.100491256,-0.10037721,0.17095676,-0.16146883,-0.15391582
0.0032143337,-0.056969065,-0.016858157,0.10524329,-0.04348454,-0.12794979,-0.04656798,-0.0564519,-0.063826576,-0.01217471,0.04478004,0.010512689,0.028036203,0.00093217386,-0.08049626,-0.04909454,-0.07949992,0.03460437,-0.105359204,-0.101146184,0.06169058,0.113257475,0.015909493,0.120385855,-0.028056176,-0.023315147,-0.107006155,-0.06558328,-0.03443232,0.004244616,-0.14954485,0.020284535,0.0048723673,-0.051699102,0.008947807,-0.009091096,-0.121159114,2.450461e-05,-0.052580617,0.04291272,0.007773652,-0.067809485,-0.0022959472,-0.07060777,-0.16179323,-0.095736325,0.038669027,0.019141024,0.05160106,-0.08354327,0.041558962,-0.15540183,-0.10163735,0.012158464,0.014253187,0.008374658,-0.052556757,0.013598135,-0.021355566,-0.016192542,-0.08818425,-0.036220916,-0.08564744,-0.004046294,-0.008643215,-0.04284536,0.0010431636,0.051956628,-0.109248675,-0.008006879,0.06897666,-0.03752433,-0.03402152,-0.0010466604,-0.039780706,-0.15702449,0.0006148305,-0.08826251,-0.030788163,-0.15094715,-0.17432185,0.13079485,-0.050715234,0.061926384,-0.053058155,-0.03379798,-0.19748938,0.0295195,-0.11156336,-0.0391052,-0.18399842,-0.058154453,-0.13423584,0.048054546,0.051937915,0.026183875,-0.035628807,0.08375062,-0.13983767,-0.06989957,0.0074020782,-0.002479276,-0.011668184,-0.08383939,-0.13850464,0.074374504,-0.07769121,-0.031875532,0.04237456,0.009872031,-0.0906943,-0.0753692,0.07062405,-0.05908425,-0.107814446,0.0221339,-0.05019587,0.085847355,-0.012646409,-0.123826824,-0.00034605793,-0.056245163,-0.009988531,0.044407487,-0.015852347,-0.049923208,-0.08393633,0.043944683
-0.013501833,0.017855331,0.13525464,-0.25685444,-0.021657724,0.13437378,0.1094462,0.24361388,-0.10893166,-0.046986613,-0.19065136,0.0417644,-0.07962321,0.23039676,0.1003507,-0.027059365,-0.08757661,-0.124980815,0.08541808,-0.022431532,0.028256586,-0.13141407,-0.2032286,-0.017615769,0.115539044,-0.19975697,-0.12281656,-0.009493791,0.1167719,0.22961746,-0.059051547,-0.10093299,-0.065107755,0.010115583,-0.14693785,-0.08900982,0.036263216,-0.27890402,-0.11205067,-0.15919016,0.07042047,0.11466174,0.015456869,0.11980121,0.052736912,-0.015386283,0.017491553,-0.08519683,-0.44433376,0.07421323,0.108521596,0.04588452,-0.20002134,-0.069349065,0.017816247,0.08432363,0.0142489765,0.06167898,0.17123273,0.09854217,-0.17332117,-0.03115396,-0.16547655,-0.044961642,-0.03566546,0.14820822,-0.18329372,-0.14587994,-0.020116052,0.1035158,-0.008827427,-0.2055657,0.11529231,0.046183437,-0.04481508,-0.060652867,0.09636617,-0.038723696,-0.22000599,-0.21653572,0.16354573,-0.19842578,0.15241739,0.28786108,-0.03567959,0.10062897,0.09657987,-0.3724375,0.10532333,0.06733812,-0.014360005,-0.100891426,-0.027254526,-0.26770225,0.004210016,-0.08004443,0.03565209,-0.1716654,0.14274879,0.017079467,0.08083064,-0.16379374,-0.1368868,0.0037512416,-0.21880513,0.035698976,0.09680729,-0.19970968,0.05611695,-0.21806663,-0.24132535,-0.036169536,-0.10730463,0.14428431,0.19424264,-0.23336764,-0.23117907,-0.16505827,-0.11552256,-0.08819017,-0.040678304,0.22316095,0.08377945,-0.2009218,-0.06445779,-0.028333072,0.08614118,0.010269956
0.05544437,0.02876354,-0.05555693,0.0047341394,0.05880539,0.02527962,0.05932427,-0.08063298,0.036170777,0.159358,-0.13146695,0.13436976,-0.07272209,-0.062755056,-0.18741903,-0.0924739,-0.10101553,-0.024100864,-0.10562964,-0.047315247,-0.0027333037,0.13414776,0.037630808,-0.11016803,0.095825665,0.18089315,0.14904492,0.013364595,0.11240226,-0.27187988,0.09583871,0.10129294,0.0117748035,-0.0077800825,0.15415247,0.007839267,0.0013123188,-0.057702187,-0.04863722,0.051439743,0.00794245,-0.06404687,-0.07611514,-0.03304776,0.04650082,0.093080714,0.09902879,0.0066888304,-0.036611583,0.027367698,0.08142692,-0.116390005,0.08150017,-0.09393548,-0.101352714,0.07360606,-0.042558912,0.15198854,0.108344816,0.07646478,0.02594507,-0.12118799,-0.021187807,-0.044368908,0.1235814,-0.04726578,0.08189199,0.039574992,0.09513249,-0.092539914,-0.1702028,-0.0039570983,-0.1557446,-0.004608751,0.009772317,0.06247515,0.08156481,0.010163249,-0.0004606016,0.04637017,0.16819043,0.055459995,0.09911984,0.1257036,0.11185169,-0.18372504,-0.08919777,0.14433067,-0.10624587,-0.060567196,-0.11688623,-0.040791966,0.07507101,0.061261404,0.09025152,0.20810916,0.03746375,0.021294832,-0.29737929,0.0101448605,-0.14767945,0.09931998,0.11426396,0.018586872,0.25388637,0.02494528,-0.04744912,0.14206074,-0.18583664,-0.059817385,0.042528708,-0.057464406,-0.0032289426,-0.0779295,-0.061184112,0.0679361,-0.10502366,0.17525868,0.014369415,0.0792082,0.0052261986,-0.18336411,-0.16215281,0.07414617,-0.13042608,0.16241482,-0.108243674,0.008361661
0.05660049,-0.2530782,-0.05107288,-0.086797036,-0.084243104,0.16445655,0.071110524,0.15650617,0.18659283,-0.15894173,-0.01603975,0.0979661,-0.06412857,-0.18620086,-0.06702655,-0.24169399,-0.0022055823,0.15416272,-0.24549638,-0.033715345,-0.006702861,-0.06717701,0.112063706,0.14407937,-0.027321916,-0.03758416,0.019058907,-0.17134577,0.039376464,-0.026445327,0.2686483,-0.029954687,-0.19116843,-0.07007188,0.043495264,0.05899699,0.03675606,0.003628677,0.08834975,0.00395567,0.10695055,0.029999536,0.07057265,0.0064880676,-0.060261913,-0.0021281138,0.03367597,-0.14818501,0.0430778,-0.13975377,-0.07905092,0.27360457,0.107146315,-0.008021974,-0.06201799,0.097876295,-0.15251613,0.0850068,0.19863032,0.1905672,0.036488924,0.052016504,-0.16827652,0.15754494,0.22477742,0.23496914,-0.12439364,0.011215419,0.08008931,0.061721604,0.1338733,0.20151605,-0.056579765,0.018174585,0.21462873,-0.025169522,-0.19728225,-0.033127915,-0.15881452,0.07963155,0.0959141,0.067546,-0.04836048,0.085869536,-0.042364884,-0.00054431957,-0.14206529,0.03270261,-0.08854187,-0.103705496,-0.0644539,-0.03743403,-0.011316646,-0.13628697,-0.20412672,0.09606972,-0.084023334,0.091106296,-0.0732903,-0.15278289,-0.17675944,-0.1146024,-0.034076456,-0.052202664,0.05212025,-0.03881646,0.051379316,-0.051020112,-0.09355155,-0.034279983,-0.030604811,0.078192726,0.03519059,-0.1307909,0.037604656,-0.02536443,0.301065,0.04436834,0.031867933,0.03936211,0.061113093,0.040305298,-0.11196243,-0.2653688,-0.17866132,0.12792751,0.09955848,-0.00080026966
-0.025155462,0.03024815,-0.027326064,-0.029120818,0.037584294,-0.013334198,0.022447288,-0.074023284,-0.022897119,0.04853273,0.020616125,-0.06787846,-0.03857072,-0.08910505,-0.07498542,0.0046861805,0.06645936,0.008678076,0.12683588,-0.0094141215,0.08897303,0.05326149,0.07388428,0.070181064,0.02530184,-0.010001214,0.023017585,0.029145712,-0.06900536,-0.020155955,-0.014437106,0.014026016,-0.07088979,0.019084375,-0.046977937,0.07000132,-0.07490518,-0.023297882,-0.04421501,-0.020685116,-0.061297763,0.0073391977,0.0054799938,-0.08550252,0.014327231,0.044024874,-0.0010618995,0.06519668,0.02303874,0.04175109,-0.0832295,0.02593302,-0.03252183,-0.08398553,0.042724352,-0.0032628232,0.08239409,-0.022984443,-0.08000509,0.062453687,0.09698964,-0.07362656,0.008277481,0.074363425,-0.021789366,-0.12455529,0.031739768,0.042796582,0.0029951255,0.070985556,0.011192464,0.038027685,-0.034122076,0.027036365,0.053702798,-0.0039809383,-0.053798176,0.0016443852,0.012394202,0.025915058,0.016478684,-0.09550149,0.016144414,-0.009341189,0.062221345,-0.053012438,0.022416484,0.028403735,0.016078224,0.026105074,0.026275976,0.065356515,0.034031745,-0.007912055,0.0409396,-0.03504274,0.050180156,-0.031341117,0.037871603,0.022590395,-0.05094458,0.06842201,-0.04243936,-0.08000673,-0.027012207,-0.015665254,-0.084585354,0.048534054,-0.023056624,0.007991839,0.01971152,-0.002833097,-0.047392115,0.07466976,0.062397566,0.029528808,-0.06373486,0.03541684,0.08277775,0.03776409,-0.024291765,-0.01379602,-0.0012677144,-0.03006127,0.013506387,0.061041746,0.07571413,0.0051531377
0.019534541,-0.12124799,-0.05922909,0.062557764,-0.032379687,-0.08996079,-0.03710708,-0.0859884,-0.095615044,0.111812465,0.05305016,-0.049078748,-0.10988254,-0.115218855,-0.08434737,-0.066040136,-0.05155398,-0.031073878,-0.06681563,-0.110126205,-0.19006765,0.02780218,0.03306585,0.017118856,-0.100821294,-0.040861607,0.06310259,-0.012944344,0.09542601,-0.09015577,-0.10153656,-0.15254547,-0.0055499086,-0.112230316,0.16492496,0.17206322,-0.049827516,0.057692353,-0.042038992,0.057841796,0.0121756615,-0.015762243,-0.29892674,-0.022819659,0.047684338,0.08156182,-0.014500966,-0.07635932,0.048280984,-0.020000568,-0.02176826,0.04615556,-0.03989627,-0.101139486,-0.025582861,0.01611601,-0.006729319,-0.16698822,-0.057958372,0.008182993,-0.073371835,-0.0073569124,0.1458009,-0.1250469,-0.13484532,-0.041222528,-0.017234284,-0.088340096,0.04861348,-0.02765618,0.03862958,-0.026585892,-0.18113393,0.15804361,-0.096286036,-0.07021713,-0.009625787,-0.15599205,-0.09987339,0.12500545,-0.006034054,0.021367425,-0.042865288,-0.04774587,0.06858426,-0.023406386,-0.046042792,0.11286431,-0.0051935054,0.04077385,-0.25179586,-0.08622398,-0.021780014,0.01590985,0.06975067,0.17356335,0.05682066,-0.037702598,-0.1900157,0.06322423,0.15013984,0.17254701,-0.08314947,-0.11898899,-0.120261654,0.06713433,0.0128459055,0.121183954,-0.0924732,-0.12761658,-0.038534317,0.0077244174,0.09240751,-0.23159619,0.066388436,0.12013045,-0.21044691,0.16203752,-0.13095765,-0.007481417,0.043851115,-0.17507006,-0.027638631,-0.095134504,-0.10274558,0.013556161,-0.14074603,0.0036593426
0.10854941,-0.07231641,0.12653993,-0.061477076,-0.022573497,-0.04583815,0.1442121,0.09811591,-0.018191753,0.1036255,-0.060706034,0.03010146,0.07310627,0.03236054,-0.061635245,0.058897242,-7.380359e-05,-0.08729233,-0.094543554,0.027447565,-0.23366265,0.09029881,-0.010651692,0.012734938,-0.05669519,-0.0070249615,-0.005562858,0.11660587,0.018135563,-0.06285116,-0.054526314,-0.14934288,0.0560889,0.029941019,-0.039171632,-0.057319038,-0.037207875,-0.10551493,-0.013668384,-0.06118899,-0.097610235,-0.014226566,-0.0779269,-0.06522981,-0.17810684,-0.045627568,-0.045610223,0.009061724,-0.15123755,0.0685263,0.13025023,-0.08280892,-0.14300355,0.027250107,-0.10071441,-0.10691154,-0.12571019,-0.026933277,-0.03700225,-0.14784978,0.09489727,0.056799505,-0.095117725,0.03734584,0.0765552,-0.037656456,0.05294678,-0.0034016105,0.007948859,-0.032988496,-0.11817138,-0.02912578,-0.06732331,-0.010908059,-0.03776631,0.11731414,0.030397184,0.06576847,-0.069131166,-0.15377198,-0.054908972,0.08279497,0.041504137,-0.02790826,0.0060049924,-0.08552324,0.1118886,0.038646866,0.11401212,-0.04332478,-0.07862762,0.021393063,-0.09223236,-0.08615262,-0.05786396,-0.11204671,0.0015443548,-0.16308059,0.2846385,-0.018302927,0.033993177,-0.36619756,-0.13978659,-0.02200176,0.05851482,0.06501852,-0.007803983,0.029985331,-0.08506713,0.105019234,-0.12480664,-0.0015908842,0.016963108,-0.066874124,0.1221401,0.08543347,0.1707412,-0.11253702,0.01869001,-0.09087754,0.011788866,-0.0046191122,-0.118453026,-0.047865443,0.16612357,-0.090525165,-0.056516368,-0.10776206
-0.048480935,0.055590767,0.012645554,0.050328236,0.00373403,-0.022085756,0.032221243,-0.03282749,0.06466635,0.0009496969,-0.060350142,-0.03714023,0.013468814,-0.047571767,-0.019228576,0.016763467,0.014262581,0.020182256,0.008841057,-0.051613282,-0.023285849,-0.016058655,-0.0075905244,-0.0315929,0.008905827,-0.023384979,0.005979643,-0.03570894,-0.030809924,-0.004222249,-0.048045985,0.013204845,-0.022276409,0.0432557,0.044962928,0.052154005,-0.035024706,-0.049514405,-0.042966545,-0.043268993,-0.0040733228,0.028907476,0.0075042737,-0.024523761,0.02554688,0.021893714,0.053222917,-0.051904134,-0.04116327,-0.07912062,-0.0037207443,-0.030474717,0.032771613,-0.027907595,0.02578989,-0.020780386,-0.044901025,-0.016092278,-0.026537018,0.007882762,0.029271556,-0.019009965,0.00042348154,0.037339047,-0.008713451,-0.052062396,-0.055108767,-0.05930059,-0.004535456,-0.012481959,0.011216784,0.037023634,0.027176136,-0.021631608,-0.05724502,0.016881743,-0.048385475,-0.0061591817,-0.036389478,-0.041969463,0.025780402,-0.03773515,0.020246403,-0.045267783,-0.05604261,-0.02586035,-0.013419987,0.052830514,0.032512456,0.010724117,-0.026959889,0.011665272,0.05134253,0.043523017,-0.016243504,0.038445536,-0.053156413,0.0015826665,0.045749974,-0.030193748,-0.0695028,0.02287216,-0.036918834,0.0026160865,0.016027851,-0.014353595,-0.0049562873,-0.008500484,-0.035208855,0.021602605,-0.051751334,-0.046341106,-0.005074751,-0.012949197,-0.007673079,0.03132409,0.030785525,0.029119829,0.0042529698,0.029503407,0.00059262133,0.019832404,0.014681603,-0.04169045,-0.003965303,0.038235515,-0.045278378,-0.03434752
-0.20769449,0.11710599,-0.070251174,0.10425035,-0.14060198,-0.13479285,0.07462772,-0.0902957,0.06686694,0.0105737485,0.19854484,-0.20226485,0.22571604,0.06246842,-0.07475166,0.16624282,0.28471473,0.07305217,0.06733424,0.06394898,0.41884774,0.050197843,0.21031694,0.11319562,-0.09386805,0.09109729,-0.12945458,0.096576095,-0.0359494,0.013271851,0.033198357,0.34454593,-0.2191021,0.03808591,0.17466554,-0.04611896,-0.0130707575,0.13640599,0.08829761,0.219058,0.06786735,-0.2052716,0.03032883,0.016654946,0.17221735,-0.13912033,0.13544741,0.085411645,0.39503804,-0.089601174,-0.062003117,0.00081793685,-0.2001661,0.22576734,0.2232348,-0.12752087,0.10065466,0.19104181,-0.3348576,0.06865482,0.1976823,0.045264762,-0.07921612,0.070432775,0.014871499,0.044558898,0.03222612,0.22678833,-0.04903076,-0.103962846,0.3419152,0.21461336,-0.12959686,-0.20082937,-0.14930876,-0.15866089,-0.14818084,0.0052368594,0.11689503,0.18257008,-0.19657758,0.15279885,-0.18674035,-0.25164542,-0.09903009,-0.120188214,0.032753676,0.024650661,-0.25610155,0.05599214,-0.23764822,-0.041574992,-0.076808445,0.19576073,0.06692806,0.10604433,-0.09440969,0.04373874,0.07193156,0.13735005,-0.26456383,0.16320731,-0.28317103,-0.28409585,0.37878695,-0.07256532,0.06328282,-0.05203117,0.065596506,0.25667694,0.38806108,0.011520757,-0.031533543,0.13796207,-0.12766434,-0.07268293,0.21867654,0.005639867,0.10898496,-0.116663985,-0.025084851,-0.09655388,-0.049249034,-0.10388542,-0.31645694,0.49000147,0.09588855,-0.10556386
-0.20591956,0.13359,-0.012747343,0.054024864,-0.18558608,-0.030675802,-0.043592297,0.06556999,0.16623615,0.12886427,0.22671069,-0.10803182,-0.08320511,-0.018788457,0.106485724,0.02072213,0.053677324,0.011113169,0.27349794,-0.05396585,-0.033116817,-0.20349324,-0.19024226,-0.08523499,0.06802361,0.18916798,0.058335353,0.020914475,0.005511044,0.14327893,-0.02416352,-0.077861175,-0.040230922,-0.03841048,0.0506396,0.0856328,-0.062076617,-0.12243941,0.06734228,-0.15292647,0.04935957,-0.017703235,-0.10870434,-0.11369057,0.10810229,-0.055234678,-0.04789719,0.15627517,-0.2576524,-0.11226218,-0.071241505,-0.17590152,-0.108890176,0.05548076,-0.03399028,-0.18555324,0.082519025,0.07499698,-0.20799872,-0.078522585,-0.00072801777,0.13020834,0.154075,0.10726489,0.13258474,-0.12300036,0.084650636,0.011883991,-0.025649508,0.0671353,0.18118319,0.1861253,-0.014543224,-0.17796575,-0.11469105,-0.16483873,-0.06860002,-0.0016664111,-0.09349256,-0.15516089,-0.17460975,-0.25115034,-0.28371918,-0.1746946,0.14723963,-0.08215823,-0.02812086,0.029499033,-0.22485389,0.15592988,-0.03905674,0.06931568,0.0877322,-0.099137716,-0.0019840784,0.008053161,0.020752508,0.06378745,0.120494686,-0.09790654,-0.041604545,0.09893728,-0.05962473,-0.12244689,0.20969963,-0.013357902,0.09756916,-0.25960603,0.2439202,0.08443794,0.055009484,0.0003230651,0.099934034,0.17387107,-0.17059329,-0.11502119,0.017176008,-0.13146655,0.18464987,-0.113610655,0.07868334,0.18503182,0.16622253,0.14020567,-0.023288343,0.1857477,0.015007535,-0.19292597
0.0012250765,-0.058805916,0.0055101225,-0.05019223,0.0074055796,-0.049552843,-0.026087437,-0.03968405,-0.116577916,0.050626963,0.008037586,-0.1526545,0.053645037,0.02209714,-0.09530935,0.04228037,0.08823947,-0.009392222,-0.006593044,-0.03748478,-0.09070308,0.058355864,-0.032118738,-0.007623866,-0.09274423,-0.10044064,-0.06582429,0.094460525,0.047120173,-0.08682393,-0.030380342,0.27525115,0.1657644,0.08038508,-0.14595905,0.020301566,-0.08476479,-0.09472283,-0.095114455,-0.018547999,-0.11436361,0.10170276,-0.062810965,-0.08742483,-0.16777225,-0.08288383,0.061999016,0.056177903,0.053672396,0.009836137,0.13846947,-0.04704585,0.011779788,-0.026443642,0.0045895274,-0.052239835,0.05292366,0.0326805,-0.04396831,-0.21390916,-0.0027363289,0.10780454,0.013737608,0.011191326,-0.14432019,-0.15972073,0.049778767,0.115341514,0.022126667,0.043852348,0.035307083,0.0970722,-0.1630884,0.05306796,-0.04827518,0.071835466,-0.071506575,-0.023586,0.0924863,0.0052223923,-0.07929904,0.008341494,-0.082993865,0.037859518,-0.016284883,-0.19741304,0.005879588,0.1343611,0.011750382,-0.05237495,0.024284376,0.030294694,-0.06036354,-0.017855234,0.02018059,-0.09884862,-0.02204844,0.09342377,-0.0745548,-0.06563822,0.1543029,-0.08225548,-0.017013052,-0.012157548,-0.09695692,0.035808675,-0.045049723,0.050057434,0.005980178,0.18606332,-0.0075159767,0.06482353,-0.03220387,0.017319798,-0.01135938,-0.023255607,-0.043030992,-0.017507778,0.028763376,0.043272287,0.019136785,-0.014863511,0.006915645,-0.046903566,-0.026138013,0.030284297,-0.019345865,-0.089192495
-0.15604243,0.03154168,0.0127487425,-0.007954329,0.10927254,-0.08715221,0.14700939,0.038661398,-0.036856066,0.13043712,-0.2160927,-0.015588341,0.06388088,0.095388226,0.18498866,-0.020006496,0.1334382,-0.012426564,-0.33457044,-0.010236797,0.13216916,-0.12744509,-0.1744285,-0.11723334,-0.086612776,-0.00086918694,-0.03986377,0.06015541,-0.009943424,-0.008263638,-0.10773185,0.041307967,0.12952903,0.08817076,-0.057260294,0.029272674,-0.05236889,0.010291798,-0.06852024,-0.039391853,-0.109417625,0.045715496,-0.08957154,0.012645554,-0.07136253,0.23599075,-0.018590603,-0.01707298,-0.06200169,0.099314936,0.19388756,-0.039168477,-0.098382965,-0.049810223,-0.06379385,0.033747036,-0.0422201,-0.17554687,0.04945537,-0.003098045,-0.21338463,0.0054165428,0.1572137,-0.0140682915,-0.21979612,-0.09057973,-0.04884111,0.17623217,0.12197015,0.051381398,-0.1745808,-0.103451446,0.123743206,0.15231147,0.022945605,-0.18768032,0.023817237,0.06936,0.031132558,0.1507586,-0.13318692,-0.19399604,0.16107455,0.031225381,0.043144643,0.06790213,-0.0267169,-0.013125432,-0.026003022,-0.05604809,0.21591261,0.078204565,-0.027892947,-0.014049093,0.23351097,-0.10965203,-0.0139413,0.087816566,0.3292632,0.13539585,-0.15977712,0.17500171,0.010483717,-0.099498734,0.0035342805,0.09493134,-0.07407439,-0.056621347,-0.21174057,-0.011716263,0.09084806,0.026084386,-0.03844296,0.24142574,0.15046497,0.0030171026,-0.23997784,0.005465389,-0.17665808,-0.14862578,-0.18288545,0.0703781,-0.20371225,-0.26404807,0.18790174,-0.2657178,-0.024602333,-0.057588074
0.04005634,0.12573525,0.10738668,0.10690646,-0.16291673,0.021452496,0.26443794,-0.04808887,0.25550663,-0.06629219,-0.018581117,0.014836378,0.06596239,-0.069670744,0.0694928,-0.033512406,0.086418405,-0.03402175,0.1255109,0.05114495,-0.17447169,0.19331911,-0.26073816,-0.12537374,-0.044603743,0.097408995,0.020775847,-0.0009548874,0.19026147,-0.01245928,0.13690527,0.022880023,-0.0017637637,-0.3784324,0.16865572,-0.11097872,-0.097610764,-0.07168174,0.17518656,-0.00015280065,0.33640063,-0.06736392,-0.01470053,-0.03446785,0.0034101726,-0.07766877,-0.074330725,0.19546914,-0.17677397,-0.10098058,0.11544017,-0.2652993,0.104258955,0.027404433,-0.22009587,-0.09673232,-0.19058792,0.38922712,-0.06345212,-0.26267156,0.15241137,0.04055223,0.1372198,0.03362249,0.107859455,-0.24954645,0.12172039,-0.021349575,0.27887267,0.071339004,-0.15986817,0.23559482,-0.017140074,-0.14422897,-0.06182753,0.05887197,0.18837766,-0.1055879,-0.069311365,0.00739963,-0.16463815,-0.22860019,-0.22696003,-0.09461897,0.06907017,-0.08363254,-0.16071,0.030602815,-0.12421679,0.19298957,0.042930316,-0.08278559,-0.15360372,-0.053911194,-0.12420892,0.20764159,-0.08274139,-0.037292458,0.0012890601,-0.09192765,0.1921402,0.051703267,0.124570675,0.03605647,0.47282723,-0.09211975,0.026297016,0.021218834,0.05869032,-0.081511945,-0.07260037,0.0012512472,0.18961088,0.05292403,-0.105768934,0.019187877,0.025725482,0.02332296,0.32881007,-0.079640575,-0.06756758,0.122475915,0.22419745,0.2839702,-0.11531952,-0.06838456,-0.16633344,-0.22659667
-0.24003308,-0.022884056,-0.111986555,0.108278096,-0.006106359,0.07721747,-0.033463962,0.0142787,0.0071770907,-0.027272632,-0.0392461,0.027237372,-0.12306766,0.060156282,0.12376826,0.0001434651,0.08019927,-0.092370525,0.09659428,0.103937894,0.13481563,0.05462825,0.1122547,0.03133794,0.014058006,-0.10081274,0.1281651,-0.19586755,-0.024098752,-0.0050293715,-0.04023469,-0.032096125,-0.077354565,0.1193685,0.16223198,0.18070583,-0.014406016,0.15945315,0.18915898,-0.00051132194,-0.06702072,-0.2461864,0.005123457,-0.097899884,0.042564392,0.101043545,0.16483432,0.008414177,-0.09587091,-0.0066548316,-0.032387514,-0.14124876,-0.008274994,0.007620263,-0.027760668,-0.15809032,0.025998583,-0.03947642,-0.07563797,0.032434825,-0.027893892,-0.023809286,-0.106138766,-0.1655986,0.13932346,-0.041341774,-0.03472951,-0.16662644,0.11606863,-0.2082415,-0.059448022,0.09599209,-0.21189703,0.030950937,0.028287513,0.07567943,-0.05210762,-0.1866277,-0.07714538,-0.014578434,0.03784357,-0.043321602,0.02974744,0.07249885,-0.05824683,-0.06641125,-0.0067107994,-0.03568031,-0.12750894,-0.01956859,0.015659697,-0.07952199,-0.20942739,-0.15072295,0.16770506,0.07621015,0.21087019,-0.07218996,-0.008196766,0.17621385,-0.20758532,-0.0977172,-0.025010215,-0.22226448,0.13600817,-0.14073096,-0.06544363,0.015860781,-0.097061135,-0.14239867,0.080515645,-0.05554411,0.018241467,-0.15679216,-0.024705023,-0.09254363,0.015579293,0.061456375,-0.047574054,0.15661624,-0.04427298,-0.21306726,-0.027938863,-0.07956343,0.07586906,-0.007231609,0.061758194,-0.009584346
0.026370235,-0.15734236,0.0627565,-0.066136636,0.09347772,-0.24685511,-0.06311784,-0.040516283,-0.19371833,0.06289453,-0.18962497,-0.013181756,0.20632648,-0.096073836,0.038310874,0.023005866,-0.0021727919,0.1578496,-0.16576798,-0.108742855,-0.15510698,0.04819683,0.086451925,-0.023309737,-0.007654513,-0.0064787623,0.11429697,0.0019451111,0.025442507,-0.1346937,-0.22774948,0.0020049538,-0.03795923,-0.081541285,0.089611985,-0.114702664,-0.032403354,0.024068413,-0.075004965,0.12178156,-0.21054576,-0.07826275,0.039871972,-0.057619393,-0.06413705,-0.04153282,-0.1512444,0.05496957,0.08484289,0.11972695,0.10585839,-0.066239364,0.012212165,0.0608589,-0.14194116,-0.091687,0.06972176,-0.20484635,-0.06717477,-0.10325361,0.13447379,0.09567119,0.045717612,-0.10403118,0.020344445,-0.086087935,-0.10222671,-0.1373974,-0.18910858,0.04059524,-0.08961005,-0.05824032,-0.07630298,0.26284564,-0.041568182,-0.08896586,0.011384079,-0.14413485,0.10279672,-0.07943853,-0.16171986,0.058730923,-0.07024954,-0.14131868,-0.195451,-0.010607615,0.13404472,0.07586294,0.016173571,-0.12768976,0.019153967,0.280191,0.058511678,-0.08299736,-0.2095639,0.053311095,0.17372191,-0.07943107,-0.05615483,-0.13794841,0.11049523,-0.19607635,0.07896129,-0.0064668655,-0.1700609,0.033924155,-0.0006455314,0.12387055,-0.1795692,0.052717935,-0.06824217,0.25443813,0.04668436,0.0072375285,-0.118329816,0.07639104,-0.034902673,-0.0837833,0.010963358,-0.10160972,0.013507236,-0.16120611,-0.15477262,-0.043110643,0.007105457,-0.31327748,-0.09882225,-0.0011708684
0.055972643,-0.1666642,0.025564741,-0.005949275,0.014759007,0.042773254,-0.044766597,-0.14980829,-0.08491622,0.029324181,0.036795676,-0.009421233,-0.010361643,-0.031142797,-0.3718054,-0.058191594,-0.12479955,-0.0018621824,-0.13571867,-0.17364118,-0.107550226,-0.039725777,0.04541529,0.01476275,-0.12280201,-0.072157025,-0.021318112,0.04717826,-0.0015599799,-0.22772972,-0.08960538,0.08736358,-0.033911057,-0.07520408,-0.026050469,0.012167394,-0.056388758,0.035849016,-0.12884508,-0.09104366,-0.25375333,-0.073845856,-0.003515572,-0.015730819,-0.17673093,-0.09443034,0.0038073568,-0.12553594,0.02771244,-0.047664955,-0.04267697,-0.004847931,-0.031203303,-0.11615457,-0.001766307,0.054028902,0.0068326197,-0.05061916,-0.010221909,-0.047069725,-0.041612078,-0.12477712,-0.085672826,-0.015806433,-0.17389713,-0.034326628,-0.029859232,-0.04057802,-0.15994972,-0.1669416,-0.09031933,-0.006351303,-0.10709548,0.042352863,0.010280347,-0.06863061,-0.03785665,-0.13621178,-0.042952716,0.0007363131,-0.031315397,0.050736513,-0.0237082,0.08014606,-0.04562723,-0.105272144,-0.23396525,0.023159355,-0.010964949,-0.06786653,0.009212376,0.026724808,-0.059641533,0.012172114,-0.18800771,0.042465683,-0.10192119,0.0027246277,-0.33037096,-0.05880905,-0.006581443,0.029522423,0.00554201,0.05579514,-0.100512445,-0.05125353,-0.072429545,0.07201676,-0.071641944,0.12817703,-0.0395867,0.027472308,-0.02383373,-0.17318878,-0.0035523702,-0.0030919393,0.048483763,0.064156175,-0.038079724,0.07081149,0.013599753,-0.11355059,0.014091397,-0.0095018,-0.13116522,-0.051102675,-0.100806326,0.020621698
0.10373181,-0.16573028,0.03839998,0.014400805,0.018686078,0.03771541,0.06634304,0.030201279,0.12757,0.1886457,-0.037253596,0.04120754,0.02482908,0.05786483,-0.09292564,-0.012829327,0.01457522,0.017744808,-0.22108431,-0.10224146,-0.21823373,0.22597067,-0.19702174,-0.19855426,-0.14982644,-0.084095925,-0.1948606,0.12554564,0.012676317,-0.04083095,0.072512366,-0.035963982,0.04723233,-0.13612202,-0.07127238,-0.17906035,-0.13774028,-0.16058679,-0.07903592,0.10873514,-0.04008322,0.09816131,-0.12260612,0.0033603,-0.06476838,-0.09311407,-0.112390056,0.049978834,-0.0008971249,-0.16998886,0.121772006,-0.09580219,0.12523481,-0.082096435,-0.08334548,0.07324616,-0.15720296,0.0025746748,-0.03131769,-0.030157795,0.018239835,-0.106077105,0.13875625,-0.017875768,0.017789053,0.08563718,0.0021644803,-0.04146208,0.014943462,-0.04107501,-0.038871616,-0.025286289,0.0011320896,0.059323523,-0.041415818,0.26396352,-0.04481186,-0.07996891,0.005854508,-0.11424175,-0.035107043,0.029963432,-0.129072,0.19403063,-0.044286657,-0.19218993,0.02137198,0.055169225,0.041763116,-0.02883732,-0.1452541,0.06967073,0.012414779,-0.10217381,-0.07877692,-0.027624698,0.089881144,-0.07986366,-0.010986339,-0.16593592,0.10536884,-0.2450807,0.059629958,-0.047742758,0.04420536,-0.04330863,-0.013173622,0.009349933,-0.31621626,-0.105655335,-0.00062681554,0.048095442,0.047366224,-0.0007662679,0.08183493,0.19095421,0.0027412004,-0.039102085,0.04424322,-0.21593046,0.025660934,-0.1192928,-0.07394609,0.029178156,-0.07301985,-0.17769265,-0.042296145,-0.11098268
0.112814076,-0.118817344,-0.12321382,0.12511241,0.12784,-0.015632022,-0.185784,0.3079601,-0.008413974,0.07830601,0.037093226,0.010712523,-0.07470228,-0.051213674,-0.22032301,0.17943537,0.043184485,-0.033157635,0.104662694,-0.15533796,-0.23634507,0.039976656,0.1595634,0.06970112,-0.07856001,-0.0734173,0.069873475,0.063038334,0.09554909,0.106207475,0.041042622,-0.033022273,-0.074369736,0.053821184,0.23231357,-0.021932334,-0.08894636,0.14719397,-0.07872759,-0.12403075,0.08823109,0.04564702,-0.119790174,0.10032577,-0.18555541,0.037186094,-0.021875687,-0.056743927,0.16414426,-0.092940606,-0.14554873,-0.01262287,-0.009394236,0.027856769,0.13963997,-0.028011018,0.03172088,0.014287883,-0.021321338,0.06127821,-0.124231234,0.0728343,-0.026719473,-0.07125229,0.0958316,0.12839486,0.14561826,0.08842071,-0.07338099,-0.06622942,0.04732273,0.2068453,-0.06759051,0.13220201,-0.031870347,-0.01677264,-0.065018915,-0.17360316,0.0057322667,-0.02753905,0.01629004,0.17519869,0.07954313,-0.117596276,0.012042726,-0.13334459,-0.16236033,0.16968653,-0.08682519,0.0021725951,-0.07836547,-0.04535814,-0.056842986,0.11067698,0.086856045,-0.017873563,-0.09036238,0.005360223,0.021807943,0.15767309,-0.053036477,0.054531455,-0.016894115,-0.018995997,-0.113539785,-0.12615113,0.08769308,-0.061531313,0.11893423,0.028940665,0.2010262,-0.10591109,0.005884926,-0.21697329,-0.10243299,0.0635855,0.048010815,0.09983982,-0.10636364,0.059299078,-0.019539345,-0.15535706,-0.05125905,-0.1277222,-0.30180347,0.010902196,-0.23220176,0.0032407367
-0.12980042,-0.07360055,-0.04325854,0.04888058,-0.03474094,-0.0474977,-0.042484123,0.049397334,0.11744202,-0.23579566,0.23700027,-0.06002832,0.06134426,-0.058857445,-0.05171208,0.13884722,0.076586984,0.16189851,-0.06537379,0.17548637,0.15897776,0.058136884,-0.13192098,0.010998015,-0.16885771,-0.19908811,0.041299164,-0.09251697,0.0048562754,-0.12647764,-0.02624992,0.049092468,0.04468496,0.22397727,-0.058551952,0.15332434,-0.043779586,-0.009647374,-0.07193457,-0.058975205,-0.01759787,-0.16672133,-0.12825127,0.07478388,-0.086699955,0.027948337,0.0017392697,-0.041430663,0.23497789,0.20459677,-0.07013459,0.1081582,-0.17841403,0.009983846,-0.0895526,-0.094481714,-0.11246219,0.07093207,-0.08238354,0.09092941,0.121401526,0.30531994,-0.16817321,-0.2813505,-0.011554338,0.12093998,0.21922514,0.16576631,-0.12770979,-0.19720961,0.18847933,0.076160125,-0.25363106,-0.18351342,0.02992274,-0.29257414,-0.18361472,-0.28885004,-0.032594305,0.018821944,-0.23651502,0.27993616,0.030286081,0.0049107466,-0.13956013,0.03198471,0.09991555,0.03373842,0.024942786,-0.11827085,0.06221981,-0.24216,-0.12241423,0.0800052,-0.0018329857,-0.049411625,-0.057500582,0.009223187,-0.060478073,0.078982845,-0.021473872,-0.1531416,-0.17455398,0.023195146,0.13876006,-0.18267456,0.06537043,0.05760048,0.025205087,0.24330129,0.17937578,0.09303205,0.19017474,-0.43499443,-0.09904674,-0.054370116,0.09688363,0.07995371,0.052246816,0.034052923,-0.15676118,-0.14854772,-0.030426545,-0.06847819,-0.23682098,0.25483036,0.0828633,0.04509506
-0.2260406,-0.05750985,-0.29256237,-0.23828122,-0.03508493,0.045151185,0.17960453,0.0070552398,0.04229936,0.064061984,0.02064374,0.0775935,-0.0018598082,0.18475968,0.07254535,0.062226467,-0.12492716,-0.016933855,-0.14285591,0.195868,0.033118777,-0.20873289,-0.023484098,-0.093836784,0.026954131,-0.1453894,-0.1785604,-0.10040772,-0.07538477,0.1844126,-0.05302803,-0.11592573,-0.017932564,0.09667664,-0.0787117,-0.03424934,0.008523498,-0.43908706,0.020032318,-0.039103836,0.17093801,0.16969223,-0.052226946,0.051262975,-0.069806494,-0.06077559,-0.113815576,-0.07843013,-0.23047279,-0.015050559,0.07788849,0.13038874,-0.116568685,-0.19550301,-0.02753615,0.23324732,-0.0060980227,0.077643275,-0.015930807,0.08675445,-0.35696572,0.01710876,-0.21014257,-0.04434297,0.042912945,0.11909034,-0.062005226,-0.062037487,0.048453085,0.10476867,0.0016788929,-0.33428872,0.170319,0.13538344,-0.08973446,-0.011501775,-0.14272578,-0.03598725,0.066483125,-0.031197676,-0.0048608216,0.012825767,0.14151525,0.15358786,0.009181249,0.12630942,0.18644112,-0.34973624,-0.058678936,-0.15910596,-0.05492418,-0.157546,0.1832656,-0.044703867,-0.06899886,-0.089848645,-0.052855916,-0.16981544,0.18777734,0.029062252,-0.027499635,0.07603464,-0.011453603,-0.2431128,-0.022765284,-0.008076296,-0.068204924,-0.20936474,0.019781867,-0.07277959,-0.30691594,0.030795477,-0.079078175,-0.12526889,0.014779672,-0.17176807,-0.06659019,-0.2843767,-0.1269846,-0.25078085,-0.24930258,0.17549275,-0.047121666,-0.07831864,-0.20369355,-0.024448909,-0.0122964475,0.07443564
-0.11458293,-0.08907424,0.059130833,0.087617144,0.035747644,0.0055875657,-0.04984923,-0.06582333,-0.063527696,0.05962792,-0.03714232,0.053918965,-0.060974468,-0.10600914,-0.05208006,-0.037581805,-0.16542095,-0.079502955,0.033911068,-0.050984077,0.092030674,0.031459153,-0.007409005,0.07381528,0.0857104,0.005657596,-0.0021045038,-0.020163963,0.03290029,-0.15606098,-0.09445227,-0.030502774,-0.0515065,0.022325337,0.1850491,-0.10250477,0.011502248,0.07111493,-0.04831429,-0.005423839,-0.052735638,-0.2569576,-0.18568014,-0.060840465,0.0112481695,0.19013238,0.10635701,0.073675334,0.01465667,-0.17321414,-0.011978537,0.03857032,-0.056509912,-0.10295628,-0.053784553,-0.008818478,-0.08588636,0.08657102,0.02462039,0.08911636,0.086828984,-0.036768652,-0.033515815,-0.32908157,0.050967082,-0.13310063,-0.01143584,-0.03882999,0.13266793,-0.013912714,-0.059356518,0.007981834,-0.13082771,0.00097453455,-0.0034417328,-0.035729576,-0.088013224,-0.16775085,0.1248687,-0.012731026,-0.06837776,0.09459964,-0.19062623,-0.039961614,0.108068265,-0.003167581,0.0052463356,0.033424273,-0.081401736,-0.11634283,-0.19018959,-0.09595064,-0.15052417,-0.038022872,0.07622701,0.09876525,0.0434099,-0.0013561794,-0.0514841,0.17571206,-0.027511833,0.0772524,0.0077060577,-0.104631156,0.09736172,-0.007706655,-0.10866151,0.10898244,0.025780916,-0.0069531063,0.0018330718,0.06986128,0.05791426,-0.14778355,0.023065897,-0.051664118,-0.17398888,0.052562375,-0.039182104,0.084026024,-0.12670878,-0.0916904,-0.039618287,0.093233965,-0.14163665,-0.06543523,-0.04280391,-0.057506047
0.0045765936,-0.087833025,-0.027266935,0.0141172595,0.034418754,-0.012501036,-0.09524819,-0.066063754,-0.0044624326,-0.014711812,0.09846515,0.042148925,0.09766802,0.009465135,-0.021982783,0.047809053,0.11004884,-0.0010902629,0.00052482117,0.11137187,-0.088948965,0.10362159,-0.029305052,-0.014617186,0.12756163,0.004300068,-0.07819917,0.041392103,-0.107760146,-0.10776827,-0.16344917,0.20298536,0.010629941,0.032508798,0.24888395,-0.07942307,-0.17574242,-0.025889663,0.012852031,-0.053806804,0.01825242,-0.048833627,-0.22333601,-0.07538805,0.00045051755,0.12136506,0.22028781,0.29307732,0.04341072,-0.10090171,0.05041549,0.055176083,-0.13827299,0.03636693,0.14236349,-0.12026904,-0.056317482,0.025775287,-0.06736868,-0.08906307,0.093326576,0.14394194,0.16399106,-0.005723799,0.1926219,-0.017658763,0.20738712,-0.17445728,0.10529756,-0.03119494,-0.102563284,0.16398387,0.04740072,0.15240778,0.026108416,0.07580896,-0.053372037,-0.17881215,0.05786157,-0.0081940275,-0.02764564,0.14327724,-0.050826248,-0.080355555,-0.05124179,-0.1893269,0.056240454,-0.05706192,0.022005038,0.15886089,-0.12894432,-0.05690896,-0.06250738,-0.08524136,0.066080794,0.018544625,0.09527964,0.13468826,-0.15684067,0.09097488,-0.07885918,-0.0038339137,-0.053275302,-0.122605436,0.0031674048,-0.09290985,-0.058955822,0.09927354,0.14383826,-0.024940927,0.008188603,-0.081038475,0.026010826,-0.059164554,-0.03255383,0.16944328,-0.038365163,0.04611067,0.073269665,-0.06957694,-0.019901719,-0.14698873,0.14847365,-0.066504106,-0.25652027,0.059885617,-0.17468852,-0.1732374
0.06454387,0.10097674,-0.0023231935,-0.019934889,-0.021608107,0.041588932,-0.016594848,-0.14251511,-0.041496545,0.18274558,0.09666832,-0.259614,-0.10265965,0.13661338,0.0028485388,0.10025279,-0.05531386,-0.25380793,0.22882555,-0.068723254,-0.2654981,-0.19982083,-0.28489512,0.03979293,-0.092519015,0.3738411,-0.012463438,0.09699654,0.02343366,0.10283414,0.12056375,-0.162102,0.04586823,-0.052177697,0.16447695,-0.27686897,-0.033698495,-0.32014364,-0.018538062,-0.20352748,0.013044135,-0.084098175,0.0833967,-0.06285388,0.19791074,-0.05763405,0.20575769,0.036273275,-0.23444802,-0.42141986,-0.21941663,-0.056962397,-0.11893957,0.03810697,-0.16031387,-0.19063056,-0.009327927,-0.04633152,-0.17550655,0.04733419,0.12932105,0.35172287,0.1934025,0.26811132,0.05312788,-0.2167036,0.12951411,0.13869897,0.027724823,-0.024369,0.34329873,-0.09388945,-0.017085409,-0.21124859,-0.04672804,0.0713056,0.06230877,0.3050401,-0.06515717,-0.1102145,-0.0037781019,-0.0466212,-0.2573634,-0.096230395,-0.011118817,-0.04395477,0.058812298,-0.045321293,-0.101916395,0.14631754,-0.032114387,-0.106556684,-0.00028104335,-0.01775612,-0.24295895,-0.090692416,-0.10538575,-0.08490823,0.0014964268,-0.24604547,-0.03750019,-0.027359482,0.06807426,-0.024715481,0.37802505,0.11086029,0.055940196,-0.1599265,0.22258565,0.03193439,0.035582557,0.027827678,0.057348344,-0.033533745,0.054142028,0.004800862,-0.0128700845,0.023780644,0.029753564,-0.07786532,-0.13993955,0.12931418,0.22486553,-0.027856471,-0.1919573,0.19483927,-0.02130913,-0.15388988
-0.058907766,-0.07953487,-0.014921169,-0.021244407,0.027863037,-0.039538074,-0.06609471,0.010414845,0.0016670012,-0.02755517,0.1751336,-0.046357848,-0.049581677,-0.15892982,-0.016139802,-0.10625141,-0.17047141,-0.10899897,0.044070505,-0.1494357,0.08725369,-0.06578922,-0.13864495,-0.07434573,-0.004330834,0.19732328,-0.0070451517,0.015098888,0.19691491,-0.10136224,0.11497252,-0.043748662,-0.081971705,0.026188325,0.013901316,0.0043686614,-0.08991526,-0.2783908,-0.09792852,-0.114719614,0.018923173,0.06398335,0.040062964,-0.07533527,0.06344371,0.09424801,0.05303226,-0.07714269,-0.31754765,-0.14886498,-0.08619424,0.065353855,-0.01387313,-0.05817662,-0.08865094,-0.0014391146,-0.049398407,0.055066086,0.009101291,-0.06768552,-0.025413776,0.11503752,0.10879781,-0.022178648,0.019546578,-0.10600911,0.252171,-0.023352262,-0.18108448,0.001764757,0.22916844,-0.010463145,0.08830088,-0.10958952,0.0871292,-0.14563648,-0.08080724,0.17993294,0.08292819,0.1512487,-0.14085944,-0.20623082,0.12470331,-0.015013912,0.12035186,0.025173068,-0.05295691,0.1644359,0.04411416,0.006259159,0.13889852,-0.19232723,0.10102975,0.018489305,0.051427938,-0.12836699,-0.17714627,-0.092849635,-0.16076916,-0.08676515,-0.09397789,0.03478027,0.1475725,0.060051557,-0.07016468,-0.15551731,0.05149186,-0.10998352,0.14512447,-0.17926514,0.100448444,-0.0045103054,0.08595771,0.06097767,0.10017567,0.2237681,0.029976133,0.24059613,0.044629097,-0.04089016,-0.016257582,0.000719427,-0.14541906,0.13191491,0.002771503,-0.023226254,0.022757774,0.016966948
-0.09379279,0.046533816,-0.0034039323,-0.04781203,0.009358352,-0.11449737,-0.071385205,-0.0020780466,-0.05012832,0.07882549,-0.066365674,-0.19551958,0.118851565,0.049635746,-0.069483854,-0.0046426244,-0.07797702,0.003026059,0.003010584,0.03499044,-0.12889655,-0.058681495,-0.059426133,0.16223079,-0.016913017,-0.007817604,-0.06911148,-0.077787876,-0.014692155,-0.0015236288,-0.10665732,0.09471157,0.08443895,-0.021400226,-0.0005590965,0.111596875,0.15380906,-0.1566098,0.13154788,-0.05239731,-0.11152186,0.07970202,0.20637566,0.1454765,-0.051262848,-0.072613284,-0.05973286,-0.026605621,-0.16430938,-0.10044982,-0.12034255,-0.033147477,-0.25264043,0.008548446,-0.05925914,-0.040019806,0.105754994,-0.02216308,0.020413077,0.02249368,-0.0623918,-0.050378993,-0.073573485,0.08985518,0.02340201,0.10513722,-0.0353557,0.08977185,-0.10451349,-0.006461273,-0.051528294,-0.026809493,0.08629415,-0.004033978,-0.028121809,-0.12515469,-0.043019727,-0.11658541,0.20285526,-0.07558686,-0.061339717,-0.12314357,-0.081974015,-0.022853792,-0.0046041175,0.12543346,-0.06900399,-0.009006164,-0.09116359,0.03752287,-0.0057115084,-0.07726158,0.014462108,0.10870734,-0.034839224,-0.011481379,-0.086397804,-0.03880308,0.04674521,-0.0982019,-0.1270384,-0.07265261,0.0053873193,-0.049357794,0.020548042,0.112734474,0.047970094,0.020978207,-0.03502048,0.08374608,0.047115155,-0.008693657,0.16794534,-0.16226768,-0.11510088,0.11439414,0.17453715,0.05462696,-0.11817394,-0.05289512,0.0388122,0.047401905,0.14517605,-0.009895,-0.007734277,-0.074077904,0.09014268,0.07474488
0.026699279,-0.09870815,-0.040710542,0.0052960753,-0.012220673,-0.07365377,-0.036668625,-0.18030405,-0.060398754,-0.025029423,-0.16920419,-0.039888643,-0.04802946,-0.08278719,-0.17562014,-0.11420858,-0.044097766,-0.057125896,-0.17389071,-0.11311896,0.10682235,0.07155636,0.10538831,0.052472807,0.09179367,-0.01042433,0.0035333673,-0.016464967,-0.04964588,-0.105009034,-0.020654853,-0.051766258,-0.02129663,-0.07627216,0.00805119,0.10876546,-0.00792887,-0.032217957,0.101032756,0.102291964,-0.29052833,0.008128778,0.10030461,0.0028697015,-0.11875834,0.033843197,0.018069401,0.08729817,0.0028776014,0.031094465,0.025724918,-0.17814563,-0.02210646,-0.028018238,-0.058811136,0.07210935,0.046580065,-0.11725436,0.020740962,-0.044407614,-0.084567845,-0.05444908,0.0023196843,-0.08823191,-0.004935686,0.039061394,0.030651141,-0.04120334,-0.026111973,-0.058162566,-0.029414127,-0.1628796,-0.08684949,0.13937312,0.005766422,-0.025424244,-0.07995964,-0.16431518,0.09508885,0.011424555,-8.8970904e-05,-0.0025895487,0.07869824,-0.011476989,0.007024914,-0.07627825,0.055703465,-0.039581757,0.017589424,0.10506115,-0.105758555,-0.07797271,0.099573866,0.17228734,0.06306681,-0.009479804,-0.04141307,0.029757738,0.010788773,0.014806368,-0.077886574,-0.030064313,0.032619335,-0.013356133,-0.13740917,-0.027760904,0.042679828,0.22960089,-0.16975419,-0.031160409,0.03946567,-0.03883234,-0.032786023,0.027794098,-0.0051082894,0.021368418,0.0020409096,-0.03701697,0.0060316054,0.05329653,-0.06413952,-0.18921533,0.004916048,-0.023526218,0.0040045795,-0.015344933,-0.020869853,0.046994265
0.04040207,0.0050165458,-0.048517663,0.0329631,0.017787956,-0.031878844,0.03674886,0.041775577,0.012666724,-0.04336572,-0.043923642,-0.036665462,0.012752985,-0.08157432,0.026848711,-0.02351078,-0.011336745,0.023214232,-0.0071777063,0.036223628,-0.0026644361,-0.021209847,-0.039886836,0.06759619,0.008781143,0.03439761,-0.012542799,0.0099821,-0.0029098697,0.05399416,-0.07918191,0.007957286,-0.056286126,-0.020275561,0.030380849,0.008439485,-0.019485611,-0.043468766,0.0501577,0.009892758,0.017669508,-0.031768344,-0.0026902535,-0.021744894,-0.04151899,0.014554404,-0.03953359,-0.029398337,0.024065716,0.036128566,-0.025628926,0.062090915,-0.009228532,-0.04456964,0.058100283,0.012978678,-0.03381484,0.017808374,0.032756276,0.01748786,-0.042533226,-0.063912176,0.024129411,0.018387608,0.049210668,0.026689472,0.0050875526,0.01164111,0.010649121,-0.05597314,0.017226726,0.01833517,-0.014951732,-0.007161426,0.0064981924,-0.00013281805,-0.045631334,-0.029161828,0.015535833,-0.02700048,0.07878494,0.031767666,0.031859823,0.051896323,-0.026543086,-0.052981526,0.012383037,-0.00558391,-0.018980801,-0.036374234,-0.053744465,0.037529875,0.07555401,0.005304967,-0.017727243,-0.025523687,-0.02385522,0.05263188,-0.0317896,-0.038517464,-0.013318842,0.003549028,0.017144632,-0.072648555,-0.01734284,-0.050893627,-0.022914913,0.044747878,0.088560365,0.050899092,0.006075774,0.037997562,-0.009992274,0.026982455,0.002442355,0.04710746,-0.029842077,0.00912269,-0.030816212,0.048434764,-0.00017749362,-0.020022323,-0.03739502,0.026981864,0.054746974,-0.0024884269,-0.0065320795,-0.0462199
0.018220607,-0.041752342,-0.011710288,0.027594225,0.040285606,-0.040759753,0.02119653,0.049735237,0.0123251,-0.040115606,-0.023819478,-0.00042691553,-0.006414181,-0.0070787827,-0.019461453,0.054971404,0.01889312,-0.035425704,0.00531995,-0.025190962,0.016595831,0.039207812,0.056913853,0.0055237603,0.025374863,-0.018236555,0.0056565558,0.04738459,-0.0075011924,0.041505065,-0.029356016,-0.023906713,-0.09175608,-0.019192578,0.009784912,0.04441976,-0.047939494,0.040640447,-0.007413995,-0.047315165,0.06755769,0.035096973,0.033174682,-0.052351963,0.019280303,0.048666406,-0.01825503,0.05264741,-0.043032445,0.03116904,0.0028350146,0.019573929,0.01845505,0.028104607,0.0137536265,0.033230312,-0.0030600314,0.056829613,-0.022591708,0.069106326,0.032907445,-0.022446437,-0.040554494,0.047394898,0.0044618915,0.015798287,0.008818401,0.02834268,0.023685427,0.022496486,0.022335565,-0.0075256466,0.045498013,-0.02703244,0.00829328,0.02699399,-0.06581166,0.06659212,0.040790346,0.004511206,0.009227898,-0.021939125,-0.04149654,0.013654064,0.0012963936,0.03573212,-0.05752222,-0.035906237,-0.005507715,0.0017239235,-0.023138724,0.0097539695,0.0012064312,-0.0065619904,-0.016056433,-0.009199681,0.03302907,-0.027326657,0.011235712,-0.016285272,0.0069320565,-0.045436412,0.049359556,-0.015013321,0.042197358,0.069910765,-0.013951297,0.013767798,-0.0044187773,-0.053899173,-0.021203062,-0.06681977,-0.048574395,0.018539628,-0.022933379,0.0486406,0.011520283,-0.011198373,0.019025136,0.028884543,0.0070079253,-0.010919925,0.0060447454,-0.017706675,0.043366246,0.014654579,0.03617639,0.019062836
-0.15921888,-0.041983355,-0.00679216,-0.23562746,0.064279884,-0.19115134,0.0493056,-0.10043538,-0.045379963,0.11229588,0.11117402,-0.169194,-0.021751571,0.030238805,-0.111350305,-0.13231213,0.10597272,-0.19708063,0.15104057,-0.05960393,-0.11793601,-0.17972381,-0.1614633,0.03915094,0.04604398,-0.03688646,-0.18428159,0.060320735,0.041678708,0.13645801,-0.08264376,-0.12848306,-0.15888336,-0.1334247,0.037739336,0.006535149,-0.04580515,-0.10938807,0.0443906,0.0011339779,-0.06599981,-0.0023507471,0.022298127,-0.1757493,0.071100526,0.07967853,0.06570755,-0.058800958,-0.15707567,0.07816419,-0.0597486,-0.08003953,-0.30801368,0.017142527,0.11039356,0.13322154,-0.042483483,-0.10110473,-0.0062982976,0.019681266,-0.03952985,0.13472433,-0.06750388,0.0686704,-0.062172286,0.07493587,-0.06701186,0.012103648,0.17072058,0.102380484,0.0766589,0.08274445,0.11896047,0.00294008,-0.10532945,-0.09097894,-0.024808317,0.11849409,-0.10153477,-0.10039467,-0.006556203,0.085941404,-0.1854485,0.11578095,-0.09477576,0.04429416,-0.11382481,-0.27169928,-0.0869678,0.12075776,-0.08416042,0.118945315,-0.11047398,-0.0970199,0.10045361,0.04312673,0.00061078183,0.0883636,-0.018043209,0.102347985,0.06364255,0.0023616985,-0.059231322,-0.12492843,-0.06177883,-0.015493601,-0.012281241,-0.19340736,0.11021332,0.13873126,-0.07465364,-0.028836649,0.08248004,0.060642533,-0.008952036,-0.17573436,-0.085155375,-0.22022311,-0.092454165,-0.032162603,0.04566274,-0.017212857,0.11778764,-0.02915596,-0.011061832,0.21605763,-0.02733087,0.03723907
0.02507761,-0.052284036,-0.069503956,-0.02277565,-0.096815795,-0.094377875,-0.028526269,-0.22100982,-0.054241266,-0.040386952,-0.07763551,0.08693588,-0.016886802,-0.16087005,-0.18556729,-0.07232103,-0.053253885,0.093043186,0.018437613,-0.027143843,-0.04639076,0.017970266,0.0065408456,0.0060169133,-0.099195085,0.12831126,-0.014490776,0.035722904,-0.04751172,-0.26640385,-0.13520238,0.04913209,-0.053136893,-0.007966639,-0.066402294,0.058003042,0.046247117,0.027505372,-0.057293177,0.038783286,-0.20344894,-0.054190278,-0.033551157,0.008839124,-0.043675907,0.008333804,-0.030243888,0.03960679,-0.04714852,-0.06752696,0.05718538,-0.014940686,0.07611235,-0.0012899765,0.025554527,-0.087345876,0.05111988,-0.073147394,-0.060831502,0.085776776,0.033020444,-0.20338671,0.011693984,-0.13222949,-0.13953666,-0.13864195,0.031443827,0.071052045,-0.050407615,-0.07596016,-0.037970923,-0.054051332,-0.12144619,0.03135589,0.082723886,-0.08825563,-0.09497589,-0.23606502,-0.007169143,0.07717703,-0.17542343,-0.013803383,0.019167587,-0.056377046,-0.044439126,-0.095195,-0.13618575,0.010135504,-0.15037885,-0.17582269,-0.056534518,0.038750097,-0.03862477,0.10009484,-0.058528464,-0.0045109517,0.008137603,0.025349356,-0.17634231,0.12605685,-0.075511664,-0.0178596,0.057627365,0.03274605,-0.002340707,-0.0093132155,-0.17129475,0.12084896,-0.04985832,-0.017372325,0.08083921,-0.17188774,-0.036046837,-0.16952196,-0.022347858,-0.015779857,-0.114627555,0.020814097,-0.087067924,0.07427804,-0.06369648,-0.119702056,-0.11799547,-0.043352522,-0.008867127,-0.03648923,-0.054608658,0.027885526
0.04526684,-0.0011434958,-0.004249454,0.0032287189,0.017456513,-0.07808487,0.0349587,-0.21439548,-0.15142477,-0.15356463,0.02765909,0.023675708,-0.028155314,-0.19293247,-0.14919935,0.011951483,-0.016759051,0.01463528,-0.13635844,-0.11263042,0.08453868,0.08909347,-0.00712265,0.17138982,0.0987728,0.03201715,-0.003653437,0.014850702,-0.030448824,-0.22337978,0.069337636,0.07725505,-0.08838146,0.17567597,0.040031333,0.115398735,0.019378908,0.047585133,-0.017976284,0.07710129,-0.34416068,-0.0037149615,0.15546992,-0.008428479,-0.021640332,0.027942613,-0.059164394,0.055773165,0.13007253,0.09854488,0.008731824,0.014785154,0.0805026,0.12041251,0.037483595,0.13855281,0.18111564,-0.10184604,-0.038103685,0.026020791,-0.040276527,-0.08913902,-0.1635353,-0.15505317,0.051486425,0.04231615,0.06966073,0.031969786,0.06667531,-0.34228235,0.10262998,-0.14221439,-0.19439983,0.067541495,-0.11907021,-0.058701463,-0.08452183,-0.0054501262,0.17947707,0.15550622,-0.11251076,-0.06289643,-0.1504252,0.024442011,-0.0818666,-0.09189809,-0.23137046,0.099472195,-0.119293265,-0.1600281,-0.031055747,0.044208426,0.044723943,0.09089149,-0.045652047,-0.058916513,-0.025872594,0.03768923,0.022399426,0.11580857,-0.06347444,0.03246176,0.1262228,-0.05034479,-0.069688626,-0.0031632197,0.029148893,0.13310203,-0.061651934,0.09590633,0.11204364,-0.14510174,-0.014695011,-0.15341161,0.090785116,-0.028868226,0.03836021,0.03326798,-0.14154083,0.040039994,-0.022249492,-0.072754644,-0.055153433,-0.09035664,0.031358257,-0.009386459,0.114788085,0.0807094
0.16580786,-0.059131593,-0.23364149,0.14232235,0.031949896,0.012151208,0.1123811,-0.009792059,0.07759544,-0.023553237,-0.21625927,0.0076719415,-0.22642176,-0.16929144,-0.024428787,0.034230046,-0.05756451,0.013489895,-0.31804776,0.054932,0.08464545,0.18537347,0.03982176,0.071688,0.017395513,0.010015953,-0.06906205,-0.04656889,-0.2109847,-0.0887068,0.09568332,-0.03319597,-0.07013022,0.04500092,-0.006579782,-0.072497636,0.0711029,-0.035730597,0.00033073075,0.075858064,0.030971438,-0.031350944,0.18807663,0.050258927,-0.21371944,0.1401627,-0.1650784,-0.12959911,0.15070972,-0.008207265,0.12704308,-0.023299264,0.008365377,-0.005287336,0.066531144,0.053236563,0.17605308,0.07996278,0.035651214,0.1214771,-0.19025208,-0.007875001,-0.25164595,-0.03613792,0.21781245,0.0948958,0.21244568,-0.04559721,-0.058545887,-0.09074165,0.05513868,-0.2503585,0.04282753,0.14624295,0.08805255,0.04994194,-0.21690442,-0.10350721,0.09119516,0.13357104,0.09383328,-0.024897143,0.19491646,0.06910432,-0.08273853,0.023727685,-0.09768169,0.05952316,-0.0014376501,-0.28590685,-0.035529725,0.00808743,0.0105389515,0.08716465,-0.016003368,-0.055431765,-0.07417384,-0.09338671,-0.050774045,0.11548451,-0.07425523,-0.014578304,0.104028076,0.05307942,-0.08879951,0.015649198,0.107998356,0.19558127,-0.13185461,-0.08898977,0.040487643,0.04935318,0.045669522,-0.1770128,0.056250807,0.20609078,-0.019910853,0.009915372,-0.15767835,0.021569546,-0.14335868,-0.058672708,-0.15363751,-0.1380183,-0.16540886,-0.29844543,-0.020573817,0.18992065
0.0015403379,-0.02589308,-0.12638934,0.040871046,0.07802398,-0.016648175,0.0442,0.023955077,0.08413344,0.024527488,-0.06916253,0.034992784,-0.1611437,-0.04193636,-0.048059575,-0.0055321865,-0.05130976,-0.186774,-0.09542738,-0.0049945503,-0.14957117,0.078705154,0.1472838,-0.10301256,0.010424571,-0.040711626,-0.04879467,0.11184388,-0.03575671,-0.15601645,0.11750437,-0.08009422,0.120552965,-0.0043426463,-0.022466734,-0.03408504,0.060067724,-0.04599988,0.16164239,0.12906456,-0.074542366,-0.040808164,0.0024513428,0.08631057,0.019687723,-0.029391142,-0.08053433,-0.02440333,-0.00045340144,0.0064815055,0.16262051,0.033155676,0.08331891,0.09801484,-0.056331933,0.042553052,0.12921418,0.024064632,0.06359341,0.045087047,-0.2468051,0.004478315,-0.009277434,-0.052071206,-0.04344771,0.1341672,-0.09668659,-0.06032896,0.22589764,0.012908447,-0.18882868,-0.0782671,0.0052477787,-0.01273629,0.052796453,0.06457224,-0.09112311,-0.009611584,0.15308169,-0.16929774,0.018055301,-0.2158368,0.0010446929,0.16243504,-0.073107705,0.03644517,-0.03928752,-0.13360792,0.05715631,0.015871478,-0.1500286,0.008687237,-0.069616914,-0.014373272,-0.14932433,0.19971591,-0.05986041,0.05865334,-0.056699626,-0.03056656,0.011073621,-0.039859314,0.09497468,0.08048548,-0.023287479,0.08039242,-0.04953928,0.0878624,-0.1374845,-0.31065384,-0.024026986,0.20922884,-0.005587066,0.0065278537,0.012146531,-0.16165593,-0.010692897,-0.0702757,-0.0079011265,0.09187821,0.10172699,0.030997524,-0.073928095,0.13225554,-0.20433839,-0.10656629,-0.14201011,-0.020113602
0.0763536,-0.015508015,-0.18087314,0.141084,0.13955148,-0.07537683,-0.102728814,-0.013161563,-0.06672176,0.10148002,-0.016077265,-0.010885594,-0.019502409,-0.14071201,-0.023275288,-0.121965826,-0.043588653,-0.031990632,-0.061788574,0.024208266,0.12777247,0.07218373,0.123151496,-0.02905904,0.077537954,-0.07523232,0.11305894,0.018111037,-0.015789295,-0.30069372,-0.15882254,0.0936131,-0.10835261,0.027768224,0.1608652,0.110263236,0.016203148,0.056042466,-0.056186296,0.057627942,-0.19856194,-0.022729242,-0.013673518,0.035842363,-0.08778618,-0.15653837,-0.102660075,-0.054603957,0.073854774,-0.046967745,-0.04824314,0.015327339,-0.0057082013,-0.0354354,0.022272293,0.026675886,0.011547423,-0.15912956,-0.0011196374,0.21158892,0.022546843,-0.16059478,-0.07597867,-0.2067508,0.12818009,0.004117127,-0.051384628,0.0083787115,0.0664908,-0.17370754,0.06538167,-0.09935186,-0.14178774,0.078933276,-0.045844916,-0.13694745,-0.07204442,-0.19589712,-0.012531991,-0.05967636,-0.107222505,-0.06503858,-0.109941,-0.039330546,-0.13221417,-0.05904699,-0.14018667,0.105574794,-0.07509552,0.023095492,-0.05294304,-0.03965702,0.06047711,0.15140039,0.07425452,0.10741324,0.09471795,0.035721127,-0.118378356,-0.027604964,0.007312729,0.008917036,0.08016477,0.052964058,-0.021745296,-0.08150004,-0.009996833,0.11053544,-0.08986192,0.12118015,0.12583026,-0.05869086,0.021038929,-0.12718655,-0.07301574,0.13086046,0.15269957,0.08903421,-0.10023255,0.033896066,-0.07479223,-0.11524662,-0.020941291,-0.0166369,0.003915328,-0.025931036,-0.09480215,0.15090874
0.06182563,0.0059464974,0.072596446,0.11538774,-0.080001995,-0.17436756,0.05250603,-0.15392679,-0.026464835,0.00067709223,0.0027142304,-0.0037886486,0.019537615,-0.05270679,-0.024888849,0.06208323,0.05202519,-0.0055371546,-0.16365753,-0.0051038433,0.017669376,0.09233,0.02413724,0.19294547,-0.15782675,-0.1285888,-0.11845212,0.025500985,-0.069602154,-0.18546925,-0.16259073,0.12622902,0.14354,0.012245847,-0.06791113,-0.027710047,0.1058205,-0.117494226,0.017314626,0.024462607,-0.1173439,-0.035641793,-0.009336175,0.088429116,-0.044278298,-0.19588397,-0.06692211,0.0024823588,0.059720952,0.037929356,-0.149731,0.09063998,-0.05315876,0.1452776,0.18850672,-0.039605238,0.088509984,-0.03433875,0.08183081,0.028427273,-0.01113511,-0.11684323,-0.06444574,-0.14935261,-0.05855558,0.0492369,-0.06449467,-0.013338291,0.00078059983,0.005940254,0.008429312,-0.00836589,0.030953346,0.14625727,-0.017507806,-0.08231574,0.19664761,-0.047782928,0.16692784,-0.002596031,-0.17641142,-0.01910968,0.10682306,-0.05703269,-0.08243219,-0.10352054,0.079816446,0.05721909,0.058605082,0.006526837,0.0065973266,0.037163366,0.041462544,0.18962128,-0.11602904,-0.14729434,-0.06528592,0.0852225,-0.16495118,-0.07438201,0.11996026,-0.08005184,-0.051131435,0.0015356651,-0.13981873,0.031439222,-0.011376052,0.13234113,-0.049064603,0.17345361,0.027422536,0.03532059,0.061790787,-0.0896524,0.048181698,0.046108775,0.110127665,0.060666293,-0.077950165,-0.009366372,0.024908047,-0.04413858,-0.06957633,0.00840598,-0.15809971,-0.045838963,0.12047136,-0.07745851
0.028086865,-0.04356508,0.08841334,-0.17941473,-0.16026257,-0.07504559,0.020657307,-0.027170978,0.110951304,0.11506007,0.15795477,-0.28645667,0.14935893,0.0806644,-0.009813471,0.12942274,-0.014079363,0.009216323,0.05343896,-0.10997034,-0.18892036,-0.23562205,-0.17105672,-0.10512493,-0.07337141,0.18883336,-0.14391786,0.1023401,0.18377359,0.14457501,0.11599527,-0.115620434,0.021042233,-0.06929176,-0.08355696,0.007715928,-0.07591145,-0.18361446,0.052570146,-0.36750168,0.0542916,-0.098328605,0.054940578,0.03768726,0.092473686,-0.10629155,0.16888678,0.11820974,-0.28720874,-0.06718454,-0.1424407,-0.009960257,-0.27558383,0.23049429,0.0039325054,-0.1884344,-0.043964893,0.2484976,-0.050806463,-0.024341198,0.11906825,0.19720197,-0.039117515,0.111736864,0.052239183,-0.18737334,0.11752907,-0.09013297,0.06834523,0.1374059,0.09897921,0.09843468,0.04396241,-0.2327675,0.044239197,0.08871726,-0.022612005,-0.0060435547,-0.039451025,-0.3178689,0.021119509,0.28017163,-0.08097537,-0.1281784,0.025162153,-0.05967721,-0.018794188,-0.030355629,-0.076002486,0.06119302,0.068494864,-0.14819273,-0.15849604,-0.25291905,-0.14792569,-0.15307899,-0.30962917,0.15025465,0.14627254,-0.1534229,0.009550512,-0.18190096,-0.13934866,0.20443632,0.13038479,-0.17878419,0.11837279,-0.023144588,0.23952907,0.2608701,0.12727295,0.09736118,0.13000971,-0.0070268293,0.0156165045,-0.0713167,0.009253445,-0.26478788,0.064100176,-0.18615058,0.03283399,0.04338566,0.1166322,0.06897037,0.0055237706,0.28057256,-0.054326337,-0.123403266
-0.05476843,-0.03899256,0.14843348,0.039292745,0.025434822,-0.10502244,-0.04628711,-0.011335695,-0.030287081,0.05274856,-0.19525342,0.051278982,0.034711752,-0.05132807,-0.09109147,-0.12027963,0.06430201,-0.0246497,0.13772942,-0.035747074,-0.0054519516,-0.010499251,0.00695931,0.039852187,-0.00023903008,0.11572388,0.039893426,0.023482969,0.06984451,0.028376129,-0.22852741,-0.13004868,-0.13274898,-0.179119,0.142643,0.007582637,-0.04915979,-0.057231728,0.01870755,0.14339721,-0.020048572,-0.016389735,-0.03296021,0.051485587,0.06558309,0.12514594,0.113588415,0.02635936,-0.17419957,-0.016411522,0.22753663,-0.034870483,0.020877708,-0.09762091,0.0057477965,-0.033421766,-0.07765063,0.079122916,0.19253124,-0.0059849243,0.059651367,-0.060787886,0.24616972,0.09112495,-0.19744605,-0.059046246,-0.0999986,-0.20112363,-0.09779816,-0.027335038,-0.19628435,0.030361671,0.044794757,0.16975918,-0.16634162,0.073105104,0.183553,0.10766603,-0.12771478,0.061759464,-0.14179455,-0.11991732,-0.12574479,0.046282705,-0.10513405,0.07051196,-0.05931246,-0.15392342,-0.08352401,0.21109848,0.0024006488,0.0995958,0.023927521,-0.07103339,0.052175984,0.059728596,0.18196088,-0.026638096,-0.13857017,-0.005993473,-0.033147544,0.0007823106,-0.028587164,-0.079801925,0.20578763,0.032275308,-0.19878532,-0.10406683,0.041466977,-0.07827824,-0.19674057,-0.07041207,-0.061015844,0.09310036,0.15279004,-0.13226558,-0.2153138,-0.3220947,0.020021796,-0.18009718,0.02615285,0.0776886,0.14676416,-0.13100636,0.06864415,-0.15663978,-0.15155801,0.036297318
0.053396467,-0.0703461,-0.03737973,0.006463255,0.010196323,0.13926247,-0.05709482,-0.28252688,-0.04510543,-0.13804224,-0.021065144,-0.0057715904,-0.024297314,-0.26107597,-0.12095628,-0.05929516,-0.03362989,0.049096383,-0.18181892,-0.08381295,0.08516636,0.13546737,0.09278997,0.010022497,-0.035269167,-0.043014247,0.017619612,-0.02434043,-0.19022356,-0.31229246,0.036512252,0.101438604,-0.06016095,0.0018613538,-0.0880374,-0.015638202,-0.040754627,0.05296397,-0.07116172,0.108786106,-0.2925292,-0.01814457,0.054682612,0.1035445,-0.033033807,-0.033034995,-0.024017708,0.007657803,-0.010754038,0.08966825,0.023186173,0.019884128,0.008011538,0.020515062,0.0366381,0.06905868,0.019624451,-0.11712563,-0.014849226,0.024820523,-0.10884774,-0.11359597,0.04762972,-0.2279934,-0.12559399,-0.020163937,0.013470442,-0.04748224,-0.06835987,-0.15725587,-0.015658254,-0.072283186,-0.063711666,0.22794245,-0.0018623088,-0.027074823,-0.054000184,-0.13161,0.04323676,0.097228535,-0.16074632,0.068646036,0.008211031,0.16183364,0.022109212,-0.04053029,-0.19187976,0.019010467,-0.050863054,-0.019130627,-0.12714066,-0.052666355,-0.039171178,0.035807047,0.13029861,0.07116777,0.02854725,0.06283756,-0.24143013,0.05771388,-0.12458377,0.08834728,0.040038265,0.08888214,-0.29002872,-0.04861603,-0.14203277,0.08447991,-0.108622,0.011805672,-0.018787447,-0.043694504,-0.023131236,-0.13535464,0.11177816,-0.09395917,0.017253226,0.02153897,-0.04218856,0.0843781,-0.056867495,-0.15565385,-0.13770945,0.034897532,0.01628566,-0.0020160903,0.07314927,0.1395658
-0.001621679,-0.14238591,0.17347682,0.0575031,-0.053872123,0.029930184,-0.04102959,-0.18055324,-0.12697293,0.087068066,-0.0921477,0.1033496,-0.048465144,-0.05937177,-0.027796693,-0.18430273,0.072352685,-0.15963608,0.12562099,-0.27918625,-0.33062753,-0.08649535,0.018952392,0.11961516,-0.010073373,0.24698585,-0.006207404,0.15181933,-0.036457133,-0.054063063,-0.10684014,-0.14251527,0.014239131,-0.21269254,0.02333276,-0.09584676,-0.16788499,-0.03453732,0.045156132,0.094742,-0.16421719,0.07143928,-0.040692486,0.041923955,-0.09622719,0.12343782,0.04536015,0.0027179597,-0.07892885,-0.1074387,0.15336472,-0.16153826,-0.101214245,-0.033004988,0.00829715,0.05100548,0.030599238,0.0061092,0.2002518,-0.07979288,0.035495102,-0.08818206,0.078249626,0.08029878,-0.10765262,-0.118457526,-0.1109814,-0.087761074,0.09864932,-0.12189462,-0.23189388,0.04634811,-0.034064308,-0.06762534,0.09720312,0.041493572,0.08020898,-0.024697939,0.0010922758,-0.17527698,-0.089899175,0.001957993,-0.19809645,-0.11856659,-0.2343235,0.027051644,-0.09654032,-0.20308591,-0.12211566,0.22835356,-0.0846849,0.16073862,0.044778436,0.1520768,-0.18203914,0.020610208,0.17211455,0.038505897,-0.14852811,-0.17291395,-0.056469347,-0.10467198,-0.015027,0.052011307,0.1072038,0.07400448,-0.089288205,-0.01146314,0.039519537,0.055082325,-0.19991122,-0.14592446,-0.28096697,0.30544153,-0.23719206,-0.057938356,-0.19580892,-0.27647534,-0.051827867,-0.15453187,0.17073633,-0.11979445,0.30581436,0.034978908,-0.04144659,0.031855874,-0.1574668,0.052550312
-0.0024997562,-0.05334144,-0.047105204,0.09125367,-0.13812496,0.0148895,-0.16815345,-0.09779413,-0.034234967,0.03913927,0.24563153,-0.07319289,-0.14135742,-0.11991831,-0.26891232,0.037444606,-0.1336845,-0.114940375,0.1911091,-0.19627409,-0.07736175,0.10354233,0.026664881,-0.16580611,0.002341258,0.16196851,0.100594215,0.026465112,0.04746682,-0.203339,0.073540516,0.034834154,-0.05156469,-0.09721931,0.21629201,0.00468085,-0.13560428,0.05459591,-0.07489144,0.020349447,-0.10834433,-0.07617403,-0.15688461,-0.01592454,0.032055892,-0.037360378,0.014463854,0.29664364,-0.08341551,-0.20421396,0.04862474,-0.0726001,0.03318287,-0.02500508,0.09024577,-0.17366417,0.08020302,-0.022070367,0.019886164,-0.2401473,0.20628378,0.048348483,0.109388374,-0.010516846,0.035755586,-0.22716855,0.0019800651,0.042786185,0.056720167,-0.1762158,0.062428474,0.026931267,-0.19212812,-0.10844776,-0.11530171,0.025206199,-0.014215758,-0.029141564,0.038152024,0.0452788,-0.002397039,-0.15210804,0.014358491,-0.11890252,0.08015552,-0.20052895,-0.15988974,0.07345552,-0.014508491,-0.117208384,-0.051427897,0.01658388,0.11189111,0.076627396,-0.101314485,0.12425306,-0.052190326,-0.055571593,-0.15167964,0.013658964,-0.1857988,0.07449164,0.052412543,-0.060709003,0.09047491,0.102269106,0.03288763,-0.029247282,0.0863618,-0.020228762,0.054126386,-0.037585948,-0.01976939,-0.03924115,-0.14254826,-0.033762906,-0.114344686,0.10482338,0.022349834,0.021573996,0.067528784,-0.1183106,0.014177765,0.042556085,-0.20681842,0.1082302,-0.28439936,-0.09588865
0.08842093,-0.16745985,0.17682868,0.0045887325,-0.04804235,-0.115902595,-0.10943767,-0.18008478,0.03448582,0.21977083,-0.05114185,0.022067199,-0.03868276,0.0047361157,-0.11299705,-0.106978774,-0.0006604245,0.2582166,0.037358515,0.019206425,-0.09106196,0.10736223,0.051465288,0.031656273,0.07870536,0.13119838,-0.030606806,0.03336028,0.051705826,0.01492845,-0.14815377,-0.03533628,-0.035978474,-0.1331798,0.18264048,0.06734148,-0.04852244,-0.051119298,-0.014348611,0.15479894,-0.19730122,-0.030880757,-0.06478257,-0.00578286,-0.022710133,-0.007561649,-0.057058007,0.07340686,-0.07593463,-0.09965838,-0.08204372,-0.110410325,0.012092094,-0.0025226227,0.08812354,-0.05254548,0.14926772,0.025685687,0.21332404,0.07279528,-0.051556487,0.2340753,-0.024869107,0.021285487,-0.03615981,0.06417181,-0.033240736,-0.053362,0.03304958,-0.12658869,-0.090293884,0.118464865,-0.04785669,0.016331933,0.08096265,0.15130548,0.11651757,-0.11304947,0.1914392,-0.011255085,0.095872805,-0.11532924,-0.1504815,-0.0557662,-0.1895138,-0.0059458064,-0.18061069,-0.26014557,-0.12008822,0.13827816,-0.014721554,0.102782086,-0.24824469,0.03385913,0.0096952375,-0.09602578,0.11722704,-0.018687818,-0.15503922,-0.12239576,0.08781381,-0.096147604,0.100659646,-0.10870212,0.015865898,0.17125626,0.022464434,0.12830316,-0.08944541,0.053185,-0.12667635,-0.095993325,0.02594763,-0.08581293,-0.10078715,0.012582438,-0.09567464,-0.14026748,-0.026568713,-0.19732754,0.13871229,-0.16845423,0.07431615,0.1339747,0.07918943,-0.01620695,-0.15140355,0.014830614
0.039514106,0.1031203,0.092833556,0.078279585,-0.01559836,-0.11043319,-0.01565694,-0.11279646,-0.09157443,0.19054586,-0.046233606,-0.1747068,-0.009161615,-0.080265336,-0.06822372,-0.14702754,-0.0732793,-0.022031393,0.054676566,-0.15136161,-0.033263665,0.021984052,-0.22006105,-0.03000276,0.047025625,0.23235399,-0.010426864,-0.08365603,0.2297094,-0.069692425,-0.08392468,-0.046730056,-0.075823106,-0.112402186,0.04952557,-0.052023385,-0.14588624,-0.22376195,-0.15633476,-0.0904173,-0.0232332,0.062246058,-0.006292184,-0.07011253,0.14862102,0.15386431,-0.061550833,0.24696583,-0.1895652,-0.04546143,-0.028554741,-0.34700936,0.0078095435,-0.16660154,-0.08899079,-0.02858482,0.033786297,0.06974981,-0.041263565,-0.09190816,0.20533367,0.045975953,0.121053666,-3.525526e-05,0.07842854,-0.25655857,0.03865837,-0.23374647,0.007405183,-0.06556723,-0.07114963,0.029494852,-0.024611162,-0.04860925,-0.09478751,0.035652086,-0.048367385,-0.13839553,-0.035013773,-0.085993804,-0.14541242,-0.04652755,-0.10048389,-0.09369491,0.021535471,-0.052986346,0.0005922245,0.09215844,-0.122599855,0.12186575,0.05185686,-0.003215265,-0.21231396,0.12834008,-0.036487084,-0.013553961,-0.027180223,-0.106232494,0.025476627,-0.15676497,0.0886339,-0.04838625,0.08732825,0.072686456,0.1536928,-0.026851242,0.025091823,0.08973378,-0.00063725526,0.02977602,-0.030467372,-0.057213996,0.078348316,-0.029515052,-0.005125372,0.13019967,-0.15696749,0.023162235,-0.059008624,-0.123533644,-0.044374406,-0.07487224,0.16008727,0.0849324,0.059766367,0.04031222,-0.14253017,-0.068127476
